Lh,16
0,0:[0.7529537561589579, -0.26663059464602656, 0.022540820419947094, -0.5092635631226006, -0.873811362767632, 0.15646685584172104, 0.510854658329563, 0.5077446249549742, 0.6401911453219036, 0.792939040214607, -0.7593379568897289, -0.9739683168292472, -0.28220955600789166, -0.3585631271631131, -0.8872968118832631, 0.7959699052605866, -0.5393576050581701, -0.3681884948566927, 0.7982275700357926, 0.8562059904901895, 0.22871755782522962, 0.4189928045927602, 0.15606720523069662, -0.6568852279283117, 0.94691522863054, 0.3253545853746871, 0.8793762987002518, 0.35570899046961024, -0.2974977090175501, 0.26427646073111477, 0.5635223573929802, 0.2110931721296576, 0.00828129840542502, 0.9474965688756287, -0.8753550617174064, 0.12283915337257323, 0.08560679538223459, 0.4195398605156453, 0.8178126412281925, 0.010655934245879132, 0.26058163215211283, 0.012793317228596744, 0.4647464462479366, 0.17690459772591946, -0.8798795736725167, 0.6364208986707716, 0.9658023297623692, -0.9534156730192904, 0.7578834339756984, -0.8314529676301179, 0.8614481576710655, 0.04799360574786116, 0.747624658688743, -0.34317724129420357, -0.8025387630355534, 0.30839911184185875, -0.8679187731558591, 0.03265876979698512, -0.572862900282008, -0.10691025417189293, -0.7109520373292892, -0.3559954673841117, -0.3451266160868711, 0.48719344968575573, -0.16968664142685808, 0.4394690137872612, -0.5957692431605889, -0.5628872237833488, -0.47829790376093456, 0.06478006485339062, 0.8973288747434749, -0.07954544587089787, -0.20859558769496467, 0.5800183757956892, 0.08920854254147322, 0.03969748690388096, 0.24626162851009298, -0.16459795720769696, -0.4393077493623694, 0.17971374258585307, 0.6309103928130748, -0.9849316595311997, -0.349496703626039, -0.13946528540560266, 0.04628902365947174, -0.9355637464901243, -0.6683490970671666, 0.1160370234313639, -0.8841450754932438, -0.7529262868448958, 0.40514700393369546, 0.05277068067387051, 0.698850193033308, -0.9397035277281376, -0.8354940653195969, -0.315417750775734, 0.5136984211461401, -0.06349498026510768, 0.9940022411467793, 0.004867603165147009, 0.7993143532092901, 0.7171028002318416, 0.4008610741116234, 0.22538766158208043, 0.9467019104215213, 0.35764292896015376, 0.1501562153469021, -0.5543350098254519, -0.2760837893910719, 0.6354919559199952, 0.7321551274195524, -0.5006680536478529, 0.6462794186049776, 0.6722655402423989, -0.6023630492240437, 0.5185360424156908, 0.1884547001532532, -0.8401430322542484, -0.15654710336880773, -0.21205931047296644, 0.446058086033124, -0.6964123449776868, -0.3684779562789587, 0.29590741169123086, -0.9109368365203276, 0.26242397111046056, 0.32700115102670413, 0.3796256234292328, 0.7157542011786149, -0.2035918309238383, 0.19640397548060196, 0.470479530705243, -0.6277632766276421, 0.9497608650075002, 0.7962887926754604, 0.5576834870655115, -0.40727604628870284, 0.5930482072013814, -0.9716732582409027, 0.9584083410051933, -0.7916483630727207, 0.28859025515295156, 0.28976554398666243, -0.820016746101113, -0.3352943908783492, 0.8062317557292689, 0.7881138905715611, 0.4350866512941756, 0.24125621267651623, 0.6676605750878194, 0.019698968882599886, -0.6297688813764794, -1.0149468493140479, -0.728449215505125, -0.102151023485619, -0.9002000705129161, -1.1594082429696788, 0.4431565852425172, -0.3106701144439275, -0.9798898674366024, 0.2180709090514515, 0.8720192292848922, -0.5637437963231181, -0.6054352488217347, 0.25873878422479896, 0.9836995159356311, 0.20296462359266482, 0.5908586510652751, -0.4614328022145222, -0.11744656624450367, -0.5884063731344638, 0.008675231124267989, -0.5110061956774226, -0.6685131525605115, 0.24847830419174846, 0.4532434960393064, 0.7774375435155919, 0.5505818822089095, 0.3847390540145756, 0.3159005709402497, 0.36688600097566, -0.4186939661037647, 0.16544593073017413, 0.3358033648846121, 0.5163581084501913, -0.8127904696690015, -0.6143119219397699, 0.5343839915555152, 0.6394300106440277, -0.5498723793344094, 0.16738422835097347, 0.4894144087135664, 0.4117550634693053, -0.8417730934102688, -0.7302787838294998, -0.08138029207508926, -0.9541654286610437, 0.7502552272019671, 0.431575315325765, 0.4653162696128483, -0.10718965075959223, -0.836885567075492, -0.6796332429896705, 0.899716020172598, 0.5099966829723307, -0.5242771581603739, -0.21004756497802193, 0.22893156167362416, 0.6102555693081931, -0.5791819017649963, -0.5864896806055426, -0.28138542917659, 0.14970510918920796, -0.2226878238593679, -0.5720786748837707, -0.05558911646527329, -1.0426415335976775, -0.8393427566241413, -0.12119931276505834, 0.23933258550320857, 0.952285398979249, 0.6325557188377624, -0.9946202170931008, 0.07184897443171094, -0.3649727396418514, 0.5712162612310101, -0.37709416804803775, -0.25425692514845305, -0.5411428416491815, -0.4908398684836009, -0.6142435718408686, 0.1860055980635184, -0.8779015848389196, 0.3926007489162144, 0.5558930177003102, -0.22291050897230258, -0.8792624713562642, -0.970440017763423, 0.6564227968849403, -1.0002354986652542, -0.07374598522753174, -0.5452979066254483, -0.15653919253734647, 0.1409241615812426, -0.629469698541237, -0.643579413971068, 0.45522305626274967, 0.13880832470352197, -0.44342818121791383, -0.5126677268243534, 0.5600340149964687, 0.18627708185793534, -0.7412441216918157, -0.33537167802706835, -0.11916641947197494, -0.8006287080374577, 0.329035253207396, -0.19378523860165883, 0.7512880391581924, -0.8435510293912253, 0.1553239596288159, -0.13468311661099283, -1.1383523647715272, -0.23383845335717313, 0.26198681561417814, -0.3505117488245143, 0.040220398548272876, -0.8232008787877488, -0.6909057647122079, 0.09792086445785711, 0.1181695860605805, -0.6290086243406674, -1.114763480533186, 0.11172830202034048, -0.016184126198527656, 0.010261949963775422, -0.46310571622601443, -0.6810793728631636, 0.2419679618001811, -0.7395054291929704, 0.7574960063834237, 0.06368207481371407, 0.7339280908260576, -0.902316791148651, -0.11443029778362203, 0.8410701970666458, -0.9316077684324585, -0.8617378691975158, -0.9082278911028943, 0.6219738841229798, 0.48537957732721637, -0.742489812260592, -0.4064017225879397, -1.2074201396088, 0.8005637399572163, 0.4229300578478971, -0.48489428805938384, -0.39311291987236874, 0.38484233024793785, -0.2243271220587405, -0.2874834251370249, -0.18796004945087827, 0.1247446870867173, 0.6263143684396949, -0.04509914893340493, -0.7266984163376622, -0.6486499177885711, -0.07976130086368016, 0.10442738913097083, 0.3746246862773086, -0.151026973613119, -0.41648364135440546, 0.23617773847491882, 0.6062874075657043, 0.6190800088477655, 0.5023525846378106, 0.1258310526927274, -0.2336444260418356, 0.528486513595479, -0.9864891511339466, -1.0066540448924561, -0.40267922222147345, -0.4303106697204837, -1.1170367653227988, 0.07641732087159149, -0.5252762311149465, -0.06352625070581432, -0.5383991124012533, 0.7004646487353225, -0.20735516409695437, 0.5742311381168018, -0.4394825084996872, -0.7862023882230218, -0.8535818215528362, -0.8417591214283101, -0.41667375073180013, 0.5175633666165969, 0.9516759758879756, 0.1860117728818052, 0.5133040856273342, -0.7083868322823815, -0.6864920558372549, -0.7855296619943598, -0.7714650031378752, 0.18535762858306654, -0.3662273421798475, 0.39896390884521715, 0.2995764418679228, 0.5771353112768182, 0.4343446641808407, 0.41706462154277546, -0.9888259778226258, -0.7257919417110661, -1.1140365039118938, -0.9396271862835551, -0.009647387543869663, 0.03201359795127019, -0.9510885882599229, -0.44848930928430447, 0.501501944601239, 0.3867019941763641, -0.10538125327225081, -0.5090891498814806, 0.7830498317107859, -0.06247344008988365, -0.9122866310208264, 0.9351218039316734, -0.5611759588162576, 0.9847136797240807, -0.5725857097355809, -0.7783669046787932, 0.05482049000536509, -0.1279355881169275, -1.032061596011563, 0.044912850572460035, -0.1727758121535081, 0.32197952502265587, -0.1682459445547288, -1.1312967737719475, -0.1074590833048001, -0.621689140208895, -0.43641257398828587, 0.313900437466231, -0.10019214686325244, -1.0616916357213133, -0.7563623492810523, 0.08478856966677192, -0.24531599434245163, -0.06139653710212586, -0.7300906043894116, -0.6868878389799224, 0.30673099868560816, -0.8841373455934762, 0.7168251289564918, 0.18069964685459317, 0.8660348185299661, 0.4592492362739786, -0.5172035749182632, 0.5318320651453283, 0.20247227117159156, 0.6439864833379682, -0.8191593622681145, -0.5969252356674346, 0.08350491233772554, -0.008099481737178452, -0.5898019534274661, -1.235420259914766, 0.2767235253412994, 0.4129774170246821, -1.0535415273811146, -1.0084274719130153, -0.6333235807510189, 0.2538170707406914, 0.5779874318691033, -0.9536709787817325, 0.46810650142437565, -0.6773226986362899, 0.863350608208532, 0.4963705362060014, -0.8412888031500756, -0.8637617864739406, 0.17648288398641165, -0.6503037310266528, -0.8180133319858993, 0.24918376424563513, 0.5951588398268713, 0.5600550558640638, 0.28423518272347226, 0.5658817061482903, 0.025393126102967952, -0.33074882122952015, -0.31829884219758947, -0.22882677322818995, -0.888359498296956, -0.026102165524253353, 0.09937956760541837, 0.05068228743345212, 0.36566849088755754, 0.310438412266489, -0.3160904812263348, -1.1031769687322557, -0.7588238558674846, 0.3991903624497997, 0.5236194920986091, 0.6359922577368764, -0.44552166417167927, 0.9664655655312233, 0.9798989376615002, 0.9148385779860544, -0.28560750073481267, -0.4037691122172667, 0.2141164898104791, 0.7766171891816281, -0.3009514454249694, -0.8470434211223726, -1.0095585564937801, 0.5524893273728809, -0.047603053093103434, -0.4369113103113647, 0.24015064192248417, -0.6042054360270405, -0.8874942888347428, -0.42965828323963545, -0.8344246815828896, 0.15169960268187374, -0.40422384017009794, -0.6081553546694591, 0.23157630919285524, -0.4743809152217261, -0.8450689274490455, 0.6385022814379386, -1.0502774078815427, -0.39888323843827805, -0.7205870211082908, -0.013832003771354242, 0.8059408448604526, -0.538173397650624, -0.6392177901817042, 0.5354647169133723, 0.05778080423334808, 0.564271836635539, -0.766897582569628, 0.21247033140924115, 0.5017060713858332, -1.0461110969633036, 0.2904734249417714, -0.21870494138746166, -0.13679825841485005, 0.06887179458983556, 0.35152839567717287, 0.5988061329696938, -0.6110030963651519, -0.10048943720856465, -1.0731369887060325, -0.4139719694075084, -0.32021126399148736, -1.0197219629240177, -0.38024797568142654, -0.549607050844818, -0.5733033660453652, 0.5816681979427423, 0.8491198085784015, -0.22720967914023915, 0.3206852632177668, -0.6828226954725918, -0.49135354352042393, -0.912401146114431, -0.054951538309178836, 0.9832641563574048, 0.9545635018690446, 0.49105648718483913, -1.0912586462646257, 0.5104768511094391, 0.10997175008173157, -1.0465625828109288, -0.6624334127171906, 0.4700069792950835, 0.34832127694708853, -0.12165727608646994, 0.410659021127364, 0.0008438727101044431, 0.43293101307825615, 0.49054249791603505, 0.3662524393112548, -0.9920300443685715, -0.9325972302239239, 0.002240084148698814, 0.5113338899048642, 0.13491025859496983, 0.8977345776197898, 0.05310537580031549, -0.987634858120177, 0.7753130869253821, -0.8644816030579003, -0.6963163951047894, 0.2775436830221928, 0.009764638538209082, -0.7342435756024532, -0.1914793321989635, -0.24682600027675455, 0.03347558771512344, 0.5540957910004479, -0.7597885263364877, 0.3032295338828722, -0.4132127137453778, 0.4032317013893175, -0.12840773943040823, -0.09748324176606202, 0.3915444848269872, 0.020337679304457117, -1.0118652820724812, 0.3822885979902343, 0.2981170310122617, -0.691825802043026, -0.2081144086934099, -0.7909769176955754, 0.578301697881479, 0.17390117655401494, -0.44646765004921973, -0.3041535439587959, 0.27483325332381003, -0.2947098864065876, 0.8691466856218912, 0.4108252236437621, -0.38086196460447136, -0.356860598492391, 0.9051102126330133, -0.5389915925492877, -0.058281865086789834, 0.20665084985788795, 0.35143826116863397, -0.5804118321293089, -0.8889662430141393, 0.3296700500589374, 0.28616445103890464, -0.18148299593420955, -0.8133412896521786, -0.2361619567238591, -0.3031364053852442, -0.08945716962277221, 0.13589454405085186, 0.8986215756548046, 0.2445618589548989, -0.6220325194497182, 0.45191728844168944, 0.9409199925162824, -0.12353222869894931, -0.6136918694919875, 0.008439624298058668, -0.22095804653062578, -0.5445662782029688, -0.9747820478266896, -0.16324549525631488, -0.1081586986708212, 0.6521278646311481, 0.4842479788917994, 0.4181516715526287, 0.6491508474035754, -0.6030501027550661, -0.12252725873254089, -0.6528412920621549, 0.4027880085645687, -0.431741047936395, -0.4800178717230857, -0.7231740864192121, -0.05992012710235329, 0.3904813620393211, 0.2587141633916672, -0.15677024363563513, 0.2048296761383526, 0.2759683671118185, 0.17066268192412717, -0.4121666058628106, -0.7797263821305843, -0.35347460558708543, 0.5168819171919083, -0.7162972943592889, -0.7863016053226906, 0.2760000868288566, 0.5487031074176794, -0.5356027483642983, -0.2295280432498826, -1.0430149049647148, 0.8301433754947405, -0.05450931726485401, 0.32075386027577, -0.8603356398151031, 0.35528978361983127, -0.934505938251468, -1.1314422788909562, -0.597060309685575, 0.20124761675813949, -0.04835016833256218, 0.5554682447572437, 0.7620880262545997, -0.7620990521233847, 0.3408133208184105, 0.465072312731785, 0.6758796903306817, -0.15563133090229472, -0.00544777543154736, -0.8006707723158123, -0.14199872980010092, 0.5512963172452372, -0.8161144862498644, -0.542928760342442, -0.46354877042648335, 0.11369246694392525, 0.6004650832431402, 0.8098456996951456, -0.04576483786314862, -1.1157263865912943, -0.38129694583955875, -0.39282018141866903, 0.4499176569570924, -0.4740079733027499, 0.08613539395868858, -0.5083316779359115, 0.5799861357971364, -0.6667076222075993, -1.008303840350935, 0.16927663511319027, 0.7232974509897637, -0.9204507509024398, -0.19908313721263518, 0.5382800823046482, -0.5849390801568375, 0.5860721299884388, -0.8555988870455682, -0.3171472433343572, 0.26361725664372604, -0.5636616419219227, -0.0471707730999571, -0.06732435763141198, 0.4275573701107023, -0.17839975570861644, -0.2586671127760441, 0.3566464807065241, -0.5355883618338252, -0.09440405176874753, -0.7312226104680206, -0.8426117986524838, 0.13676351569057904, -0.07899380859045184, 0.316279944174667, 0.22503272946109953, -0.7107641049612049, 0.6489705977075997, 0.6186409422494473, 0.5078944931269708, -0.3597698976905293, -0.15637229238210706, 0.7172045484124336, 0.6354956537271431, 0.926138047510381, -0.37363511154833545, -0.17921870300229456, 0.21036334723521066, -0.2808934639619005, -0.8356615488816457, -0.790576611084878, 0.45116338510870735, 0.12743844911361646, 0.21358351157296143, 0.05339139856070286, -0.88993749187366, 0.9233441117181473, 0.8694835805054318, 0.24733348787509102, 0.11970375325416897, 0.7683553580967549, 0.6010987325151438, 0.577931223090201, -0.30377423198971115, 0.6837370855630395, -0.916716061205932, -0.5660115114491276, -0.6886056249228208, -0.5890140929705067, 0.520531510482862, 0.6392317909963006, -0.27802220085594637, -0.606848314497204, 0.37248179737570714, -0.0824718137080657, 0.5981975816206477, 0.24164262739827924, -0.9805956980827402, -0.5415380293780137, 0.20796951481257975, 0.98616047466982, -0.6651212276582693, 0.7976693560766025, -0.5345726411359975, -0.6255093872796503, -0.2539614555139565, -0.8718562841079445, 0.2054617401015947, -0.2557996927719151, 0.8404819024427213, 0.23700410071568345, -0.00514076640692892, -0.1547017753297708, -0.3286497050581486, 0.6807113683102917, -0.2159834836016905, 0.021200999862260535, -0.2923266593165255, -0.7704674663329604, 0.25777967748827996, -0.6484579226032441, -0.3846311396070137, -0.12450729151549678, -0.2939197559720923, -0.7427147345435774, 0.6975430935912474, 0.680677776254873, 0.17468405991091074, 0.6333210599924806, 0.3323102928080641, 0.7113520608176533, -0.2433062460255842, -0.8106585279130599, -0.7436869410278105, 0.7499683689394633, -0.6702144495395086, 0.6266581446451294, 0.4618591985929537, 0.9782682082850983, -0.06162692557054009, -0.26578815104768794, -0.19973145652990842, 0.3497923725890791, -0.9671451895535567, 0.37450399841154075, 0.9076290353828068, 0.9805076303992959, -0.8301177823362667, 0.09821315920943974, -0.14560163485421218, 0.8901455026764953, 0.5773376927384735, 0.3559915552287525, -0.30173233566877355]/0.12602635538964968
0,1:[0.5797414288308589, 0.2501496239772538, 0.9533484472127225, -0.6887993358074362, -0.023575467919279003, 0.7183825371735457, -0.29468371048594766, 0.8328099383649079, -0.833501322553845, -0.4789995636676678, -0.32903380325269294, 0.039027465633728164, -0.902455386297289, 0.9944087304519917, -0.47771014833653047, -0.6709012132898828, -0.5321996861479579, 0.4911272165726175, -0.18973821335051522, 0.6644851870029347, 0.33085754221165087, -0.35019468471565407, 0.5223887621587837, -0.8017333530369537, 0.2943044107572024, -0.6462606658464858, -0.1980983430516492, 0.3476114291449355, 0.5831903120234614, 0.2091151008776988, 0.8518573675709706, 0.6390730154401554, -0.7584926960320548, -0.22338281131363114, -0.4548496394011443, 0.427063361446002, 0.4942836199569809, -0.48379512917253864, 0.7113519803574332, 0.04844256943294269, 0.6167079348951983, -0.7745315417102399, -0.4448022347125889, -0.4881866868576988, 0.3487035584110846, 0.4412193897662267, -0.3261704298152218, -0.8513724513586849, -0.8787505144319512, -0.6137266734896554, -0.14967311455878063, -0.38598655745943855, 0.2377464778160565, 0.8240910950725813, 0.595044410169902, 0.24628661690031395, -0.11501668035816826, -0.8153744843069606, -0.7642136450293044, -0.9241352424764351, 0.11280883254858654, 0.3212271995677698, 0.2793187455861741, 0.549124235918995, -0.25175694297732165, 0.5658925090960556, -0.1982317283828965, -0.4678277737807701, 0.5205906114140614, 0.7838407572163053, 0.4229052516905426, 0.33411637151579815, 0.8232808405820619, 0.06578433269020703, 0.13491437522175384, 0.9442555596650738, -0.15847726139176785, -0.05517774406497024, 0.35050816694625936, 0.03653932023621906, 0.5121617462670549, -0.5237451377303204, 0.9482690462888923, 0.25854101824644693, 0.7764412681681083, -0.8632007814846063, -0.8420136638554223, 0.30015480266648153, 0.6981826821514863, -0.8612496796357572, -0.5670455040390334, 0.12409805509115253, -0.6315522984802416, -0.06716455438972627, -0.9540328781531091, 0.04226918208108681, -0.04368208866827379, 0.10131315231482936, -0.6902015915817978, -0.9005794570432909, 0.00918763881278709, -0.20802148190000855, -0.2603487645153397, -0.2642083027812977, 0.9245144971384627, 0.6252101071942286, -0.2383156675636596, 0.6991519736609747, -0.8178930587048654, -0.46830186007936847, -0.25666260438480126, 0.11848225578718363, 0.6561894825121826, 0.6196107210578474, 0.6705563672023538, 0.6466869289213337, -0.5791812962862355, 0.6987948813561389, -0.35354063203571223, 0.9819399500448777, -0.9092835845590908, -0.10480870470997943, -0.49029479128519304, 0.14270878727966343, 0.2872908112214096, 0.6270511517347009, 0.9587041164661062, -0.7312959147428779, 0.9346755441591623, 0.345582083670787, -0.15013278218813253, 0.623870346910272, -0.6277760937725252, -0.6804233776411085, -0.7179884717660311, -0.30096263143653323, 0.5335855145206384, 0.08378699963524294, -0.31830936546036215, -0.02341013189185137, -0.8306144425515185, 0.2791785247700065, -0.12729815284485357, 0.48082908259517027, -0.6077101628964097, 0.7068078895125645, 0.6495269743997818, 0.9136576039221143, 0.3284212347192125, 0.23621671814126075, 0.20473548667797165, 0.9176225951195285, -0.17657674345904914, -0.82412744968786, -0.06892714555842043, -0.5038222259476953, 0.07699914885824714, -0.7186340813669333, -0.8055561882741501, 0.1446090338271315, -0.9126707191860873, -0.5131454794217387, -0.06865803272633936, -0.27424122589046807, 0.6142146724243057, -0.19332720768415118, -0.14430236861975906, 0.4752137060901529, -0.13179149578810723, -0.30073101748891085, 0.018280536378570744, 0.9744004532823793, -0.5267184837799864, -0.8288002300458839, 0.6171315132149696, 0.07304594066654607, -0.6691496399828725, -0.1418641968720104, -0.025076537922979935, 0.0666039906494296, -0.6827880494913173, -0.13446579366692318, 0.3607496303449851, -1.0014103020888772, 0.6615045255176689, -0.6605077807077054, -0.6708802511420128, 0.41075798254576595, 0.2768543254473086, 0.2821022826219182, 0.5309640837008084, 0.7036963635780241, -0.7367438762539551, -0.3377958575585071, -0.40534286678497583, 0.6368505588558678, -0.48865954445943416, 0.5579150206614909, -0.42961668437211, 0.4800385900122481, 0.6620503935398312, -0.9633100498282996, -0.906548288703335, 0.04961319109179894, 0.010742127476900462, -1.017708535618322, -0.7440922893988805, 0.6416667138215645, 0.3693600394142574, -1.056629272163657, 0.022397326215907034, -0.019703732913403146, -0.5289967862304228, -0.19479052726991572, -0.40024775542910557, -0.03183425139374642, 0.06676574989713595, -1.1957098616762325, 0.36824582196628736, 0.8355387861835297, 0.9366300888636152, -0.021112983512660836, 0.24993917448586045, -0.39845397788196835, 0.3543598495943374, 0.3793733226880853, 0.45098294086330465, 0.8897297835820627, -0.6153618204912292, 0.9768454260075969, -0.3532087487129011, -0.4078689226209545, 0.2560103125988435, -0.032140326480283476, -0.20544625817191214, -1.0575645309584238, 0.5436142934523337, -0.7798690616274211, 0.36232838824867264, -0.5867642928469854, -0.5254943360084318, 0.06947504820767707, -0.051421925150970896, -0.13010407800642138, 0.7266850061502742, -0.6864886074064717, -0.41798815506382414, 0.8304201716225378, 0.9082147131950564, -0.9324183018930055, 0.7988337687677561, 0.429673579272968, -0.2327229508814732, -0.19875865389929018, 0.13802814094972538, 0.7871945149504114, -0.9270374264990566, 0.13951347717625914, -0.0669213137640379, -1.1063643722862868, -0.17923482901054757, -0.46182951665822974, -0.8676588120305511, 0.43991996169570197, -0.7282901963759797, 0.19237583571201308, 0.31958076684301473, -0.9957798711338659, -0.5427887675822666, -0.2487837065481832, -0.0017923558453227391, -0.2259285966827563, 0.4775562444101348, -0.34145791000371634, -0.7692624792994588, 0.033028774732162, -0.5328491824221083, 0.33179593414758773, -0.6296693181084283, 0.9217993134690667, 0.7828473852233369, 0.8075528862937379, 0.9131110949499167, -0.5093796108029925, 0.03021679405655053, -0.9806068853435588, -0.4695110413060033, 0.325446770227284, 0.4368155795486099, 0.6910856242442964, 0.12244048907623095, 0.32769870901925313, 0.24338136082956804, 0.3593385437547082, -0.40259776150368964, -0.4525803368417216, -0.4015328346610926, 0.13400498438826566, -0.4150372546641448, -0.19629308493073094, 0.776395416090975, -0.9682157681866326, -0.8468702472694041, -0.703111443726244, -0.10856353202656782, 0.7106054762635807, 0.9294730196080547, -0.5375624376570516, -0.7567532713095466, 0.10946590024464209, 0.08233519396837097, 0.8687608063681955, -0.8866554441915611, 0.7030981306493966, 0.6602821222395179, 0.8519629207717216, 0.7412735694060442, -1.0072243269730667, 0.578426395841808, 1.00494646846083, 0.07813359738856025, -0.21380413582404814, -0.9559155741286682, 0.24768049094200104, 0.1555341269414478, -0.009979844176964757, -0.26300186510444257, 0.6646603168968671, -0.37695581643718745, 0.060222832405482006, -0.8337261923757905, -0.9321213636431619, -0.19363286912617467, 0.35969789412600806, 0.15012650321775042, -0.03526976786912672, 0.8680391888457097, -0.29317544338476265, -0.18842229336355443, 0.2969490566836699, 0.5201520916875186, 0.5873133712013218, 0.3288357290271345, -0.6176890395959269, -0.9576310904625188, -0.5439170490157788, 0.009441603329784942, -0.7715049923323626, 0.7652840045964077, 0.7414375095624943, -0.4429731909247968, -0.4527416494845542, -0.1427874416184956, -0.5629490663531154, 0.41683555255329097, -0.40965856658904065, 0.9595687533543565, -0.7966640477794176, 0.8610561500986278, 0.35193022065627877, -0.9940252907412023, -0.6067483972600933, -0.07926278788016157, -0.7837730848059346, -0.8306331576350028, 0.221661928917549, 0.5395737908945769, -0.673010184921737, -0.039268900022776373, -0.3461881742232911, -0.388091784184839, -0.8333337578992843, -0.2040979719383786, 0.11676916050769912, -1.0803405614367807, -0.5778367176287688, -0.06551168954968839, -0.20302251892224182, 0.43499304978503917, -0.6714673534350732, -0.7549373955770667, 0.19713806824489793, -0.9173105428880094, -0.5002844437255021, -0.445223002296391, 0.22122057187081667, -0.895956672801486, -0.1889526383840211, -0.6424678373146964, 0.806621161719236, -0.23256628042275593, 0.49152205451066977, -0.22311087420294773, -0.17353268718616888, 0.4717375159041557, -0.5169916877989075, -0.5879351939678698, 0.620620414287936, -0.08371667840212012, -0.8654154288507983, 0.8094000193095054, 0.752231968759127, 0.5555450438966124, -1.1095812026292502, -0.9747885777028689, 0.6467655732214883, 0.044941796283319894, 0.4864127860177375, -0.2671551169780424, -0.47234762361715615, -0.5020062306695231, -0.2991856115177532, -0.0009705363607587909, 0.8755039841558755, -0.34561054230839655, 0.4021755148060667, -0.06686759648954006, -0.016075692093642648, 0.9727914841572062, 0.8382444763029746, 0.8385698474479437, -0.9084579200623877, -0.7407418076497918, 0.6141246153397093, 0.3747577139608572, 0.1859860830392087, 0.39144055234595243, -0.20594045401848537, 0.5370442185535429, 0.18703555708705355, 0.2538084715458858, -1.0025212127363161, -0.8091938652850421, 0.4597315952863535, -0.7757684757250942, 0.5857555439296578, -1.031880507208354, 0.30586714489620814, 0.40616553588491033, -0.07846585095646215, -0.14401778431327233, 0.7337140537359733, -0.5673306008839167, -1.0040204145974012, -0.434363255106999, 0.9832647718954975, 0.5165868191666612, 0.7521050630414805, 0.2838617588558343, -0.21122251318542173, 0.9033535733846638, -0.6633912118858656, -0.7084584720364844, -0.053277661679550004, 0.5994701722244384, 0.6235286636433438, -0.3316331060293288, 0.11035374715771985, -0.901436461649363, -0.6404615437707204, -0.4062373140702963, -0.15403902500432837, 0.14237894821453495, 0.5827265774744674, 0.07301258349598551, 0.15818007209653862, -0.690685131420684, 0.7753557142830961, 0.945373605200309, -0.42795051976467197, -0.5842479102148551, 0.06688737581272207, 0.035115701477950095, 0.18052501802938298, 0.21458216444425232, 0.3269596165663706, -0.7137738616654525, 0.5566140754143871, -0.5385725545798282, -0.34212136219597217, 0.06645203068530099, 0.9237710465456437, -1.0095238379435638, -0.8750307712519765, -0.094914833577871, 0.353732651797877, -0.5161110570141196, -0.13177614994008124, -0.886448751671745, 0.4060011881765727, 0.22248856826683788, 0.26982905993429696, -0.048685102203826706, -0.2931817268507427, 0.7174379991725279, 0.8289536167428742, -0.6251144820187807, 0.9022943088527867, 0.05771038194537826, 0.707712629854961, 0.5379802038847757, -0.3696479830084152, -0.457760025466313, -0.780603263042082, -0.9699532183417583, 0.39361102187062924, 0.4278002507230218, -0.5114403959659211, -0.5627750460828608, 0.9041823797977973, 0.2707394371870381, -1.0199105252197995, 0.7165642436629207, 0.6248220485175211, -0.3500618695207755, -0.9250040444950645, -0.32064296083895233, 0.6010779995295197, 0.70310629218184, -1.062882019122888, -0.09299723109161613, -0.5707090406718663, 0.0013414101784841607, -0.7558593353259155, -0.1846098405011491, 0.6066688885556368, -0.2796297605336404, -0.5191641775938917, 0.7475488982005197, 0.9793041991563953, -0.5343174262111423, 0.8145551629901975, 0.5372957430005714, 0.8700606434303206, -0.6705652600173043, -0.7685343887099909, -0.4837159362954416, -0.8475580004980501, 0.45713002813020226, -0.0855636569004586, -1.145176015749089, -0.715960351948426, 0.4544413268678942, -0.919079365608496, -1.0420510647659988, -0.3475359102918983, -0.6940550109881088, -1.1752373727094103, -0.8476467251294901, -0.14788800507776617, -0.48097763104437546, -0.38780453000004544, 0.3354412773132727, -0.03633875261352689, -0.5330357303206837, 0.37928035242730646, -0.9093892246517996, -0.5848811740844077, 0.2501973135881519, 0.6412869992366239, 0.22989921594709828, -0.22338112512851582, -0.064526497617763, 0.8340227135437417, -0.6377130137324094, -0.2027218801467951, 0.8237031763070292, -1.1571621122029438, -1.1154489226342401, -0.6264660514082979, 0.18206924266680494, 0.28819372820925576, -0.37122581128401533, 0.3231343681649858, -0.6253908402843683, 0.4046106216688884, -0.5132108709948418, 0.8378671106331668, 0.4780502773486781, -0.28941564312776646, 0.34590813145347116, 0.6366615142514542, 0.3319867835384103, -0.5830568496809553, 0.8497898594263034, 0.8017542386606269, 0.34798041220728254, -0.40954029777262146, 0.8117833638704459, -0.4380401217401708, 0.8537762077555976, -0.5494498260033869, -0.48670910009288015, -0.1454091561965221, -1.0096089603409601, 0.3892742418049369, -0.8621848771994657, -0.7609679014113251, -0.08971281177472251, -0.034007653530201125, -0.4484645460812775, 0.6428745388524234, -0.36536579030452165, 0.014855913538023534, 0.066193119903664, -0.7766619747919771, 0.1691773605468244, -0.790222424623212, 0.5285051630516617, 0.09974631220843205, -0.6374227644026312, 0.5671107918387994, -0.06686246369667691, -0.7942066493373152, 0.2104553193099097, -0.12335915591426927, -0.5361035897104727, -0.7464488082069747, -0.2765122673834816, -0.21879443829952588, -0.9931596432114721, -0.25221545854458954, 0.5075355590171818, -0.00010845244270063175, -0.5504739635379496, 0.291657405129653, -0.5935344472133047, -0.9979060060800775, -0.9326809441891748, -0.29684198473518736, -0.10753748807945919, 0.6291674114623204, -0.1908164440671012, 0.8900937731425376, -0.12872461600901405, 0.057002433586075096, -0.5187011978948352, 0.9309694268890826, 0.94085066017903, 0.011386505020629246, -0.007839953556995865, 0.4604898003446938, -0.623843288029354, 0.7024357369783154, -0.06433785067378062, 0.9779012672156249, -0.7623060287401094, 0.15990589609753852, 0.6070463001968757, -0.3603796325968953, 0.08242402835574261, 0.5338267357546295, -0.7379229301530477, -0.7451875760132726, 0.6514551435924235, 0.41090827339455854, 0.44961676343383805, 0.2757505390435072, 0.3415444809172615, -0.6034693967576155, -0.013785541910286499, -0.06941812706918025, -0.8253765343706718, -0.9255499353537889, -0.23817562826437566, 0.4023338228962384, -0.06880896770568612, -0.009834287215161065, 0.2077024230478451, -0.2512659481663855, 0.25387202792105157, 0.26326773383891866, -0.9651844368434179, -0.11611432492226759, -0.815157848924797, -0.6220277615966838, -0.6400694062716897, 0.5624641313200369, -0.29250107386978613, -0.9408934257578001, -0.8113978727931583, 0.6675449165190555, -0.3334383749727742, 0.5121907830837664, 0.6639421689937439, -0.11362259961972124, -0.6981071058923743, -0.1621674632189731, -1.0708208197992752, -0.8682548014338637, 0.9837386785186432, 0.5493518294555765, 0.571848518382747, -0.9563429032330328, 0.12013128747353316, -0.03407243805392598, -0.14626580688922947, 0.8618496032106087, -0.430248303606386, -0.08652626004762154, 0.5470227622534114, 0.36154023007644565, -0.6857550442319922, -0.8722247752457047, 0.03572766772029238, 0.3986549965425743, -0.053519267471922746, -0.15651190885852087, -0.6179600861557648, 0.9097755064044402, -0.8565148951138838, 0.7514146543297769, -0.21391014337927852, 0.6770973423834207, 0.5621613304351092, 0.6048008940027725, -0.12757664770734028, -0.5150209279258907, -0.9069474004511879, 0.6700936351359102, 0.5420977523133163, 0.5038736893069142, 0.25210352013760357, -0.0590471864715002, 0.3208978688440012, -0.028349456745868196, 0.8788538674490858, -0.36279608371983896, 0.9627925235748518, 0.7701630133031343, -0.8801722694750942, 0.9204324273165884, -0.814842974277809, -0.10148813033538455, -0.33285373561854337, -0.7831384249014175, 0.26401098864137096, -0.14297259529922604, -0.9025682810079185, 0.5649903078973545, -0.4073982525240266, -0.20190837556775992, 0.9362488966113522, -0.9306886903125962, -0.8586021655125606, 0.37496260281118926, -0.305869463026806, -0.1851151633219916, -0.3948145653565227, 0.014085671891451055, -0.9138372271080593, -0.5488913427835844, 0.7030162347723787, -0.32458360002542097, 0.5436538417603889, 0.33114449239072985, 0.43831522289506153, 0.18408768654264374, 0.2987685888659879, 0.7437282864057035, -0.5538273010564356, -0.923091323732402, -0.018989736914474503, 0.44251247745033384, 0.6803148904346157, 0.38547929687399607, -0.13201795316124737, 0.7710083922299256, -0.1905280870922751, -0.41467760241288704, -1.0013413586306135, -0.2840545839791755, 0.9368361352688577, 0.50572506513727, 0.4977938331272139, -0.913676289755379, -0.7941555103097493, -0.39143196953803416, 0.9674072149587654, 0.7675613897304263, 0.9875814943061694, -0.14532938980453047, -0.7618709823271552, 0.3640930687803894]/0.5624895773245082
0,2:[-0.7925116341150447, 0.7328760792932834, 0.04486360175251192, 0.34508118361491924, 0.9815648868757538, 0.14278440079183818, -0.9132501701643194, 0.25474227540050687, 0.4813147966192157, 0.2024047844020158, 0.8681356523838824, 0.5940467754453778, 0.424239801236447, 0.06018491379965174, 0.6635572648963954, 0.04986187537093878, 0.19514272756262763, -0.7026476289014294, 0.21460139386520716, -0.4550960972875844, -0.46831518856927956, -0.548590729846858, 0.4007495780961057, -0.8411275895654002, 0.825883679445665, -0.9929114523637255, 0.4613700152664373, 0.8020926523013163, -0.2822780036757113, 0.04195063852635528, -0.8647929812286002, 0.9797270926593082, -0.935886953186309, -0.27021615742942573, -0.9916969909755022, -0.2719408412459998, -0.5316011681308583, 0.7157092817036121, -0.4551307830639696, -0.03721228379062562, 0.5339819155073897, 0.34993848067361594, -0.6567733605793871, -0.9567517789883563, 0.355133255776054, -0.30123090226316745, -0.8362171226883071, 0.969596302966276, 0.6345217860508243, 0.47229711227791005, 0.9321645076594418, -0.2447937733734451, 0.3141933983699856, 0.6852948689013971, -0.994267144292049, 0.7705126254234007, 0.9516664570179654, 0.943458682881168, -0.559673556750911, -0.10439272565570623, 0.5325200871851843, 0.022365814108594062, 0.08764394327534597, -0.7225942778211805, -0.09029207876396961, -0.6167168495572197, 0.33857524834835634, 0.785844737327884, 0.803045722802564, 0.2461023815000054, 0.8446177424157336, 0.8454277885879272, 0.8000420221428454, 0.6934279244661918, 0.34244588665229725, 0.7063330369243127, 0.7894397046071395, -0.9507710222751748, -0.006827294603486358, 0.4484827767073585, 0.445706040746231, 0.5035243993199667, 0.3244765270675618, -0.5916474566667074, -0.5555242618532144, -0.1504542141428853, -0.9741649702733721, -0.3865670491779569, -0.633634261833816, 0.5158032269041162, -0.8028204482375507, -0.4437103874053929, -0.803605777009313, 0.28525475091045355, 0.12317587989798119, -0.466747991533467, -0.4890235464698148, -0.7686618293469453, -0.22210315806582762, -0.006709911286384224, -0.7191550899725213, 0.6426380060665219, -0.44391486803274405, 0.22397419206322824, 0.5600796427338292, 0.96594605447562, -0.5990992209385747, -0.1568092415033864, 0.32289673402735075, -0.5011825376595944, -0.27353032247514353, 0.599819266575025, -0.7898220901751163, -0.8203050367451317, 0.5066015638512822, -0.45490961724016676, -0.38428721624364204, -0.29320622273510355, 0.791188760493532, -0.4674300930112012, 0.3099299484424352, -0.2735365239107219, 0.5547892738770513, -0.8592329105415086, -0.4495977912207123, 0.07168277987199095, -0.15998009604533808, -0.21194250699072664, 0.24203288546665666, -0.12416865544481115, 0.9986101961628675, 0.2509380024428432, 1.004037907379255, 0.01768908928556368, 0.7129422839784169, 0.563119578937497, -0.8430774717455771, 0.7377775205118806, -0.023457228543476427, 0.3500854050166087, 0.4043013794772601, 0.8013656232870243, 0.37059421999803055, -0.22869831246734088, -0.37423747491743137, 0.49746385027339995, 0.7648268446782827, -0.7162957152159822, 0.5464615910629884, 0.07237080881358524, -0.3883766674812844, -0.3363157914190663, 0.3354862917620782, 0.741719873782755, 0.22542844881511773, 0.7300701667528587, 0.21688374355350024, 0.14719130017515356, 0.776586935772818, -0.31178388862557993, -0.22064614153250905, -0.336016382961036, 0.0395363451442732, -0.07967063853983758, -0.13692331956093123, -0.457918774957975, -0.3318356138011468, -0.4396086068746843, 0.9956572254629825, 0.29649311612317986, -0.4530921071620635, 0.6485500558236396, -0.17525793005627452, -0.19515793695845915, -0.9063760197685078, 0.9174340757591917, -0.07714415958161075, 0.381314637143309, 0.2924671669754549, 0.7589170783399873, -0.6516637959235511, 0.8773713300685434, -0.5029723716316062, 0.221200391406307, -0.08264688740033836, 0.027682518298048936, 0.05823790965992955, -0.5842469247538389, -0.25585962547137714, 0.3546390666094024, 0.03141894701315577, 0.6600923012181292, 0.9480797278197295, -0.10119233768020441, -0.8846870675398438, 0.1386057263606558, -0.4150104296286221, -0.9290094106974844, 0.4508855739225081, -0.7634799731975803, -0.8739480584143927, 0.26545393438270626, -0.7338740260847766, -0.2288000848634945, -0.12752432568657837, 0.9678628017270039, 0.26999122101068407, 0.02417451025244899, 0.12926985569690053, 1.0751470841811206, 0.7408093391125838, -0.3643501303991874, -0.43759546596256454, -0.12979076274117654, -0.5627500966757373, -0.12121218858612917, 0.46349726954081216, 0.5200034500998635, -0.8763282478704145, 0.175442884469381, 0.6741964181701398, -0.25643420219497204, 0.7625601756032213, -0.2974985472853628, -0.5448089822000115, -0.7459145061075829, -0.7824399242019959, 0.2118460567424777, 0.9389832461371425, 0.6970749018835874, 0.8242693804115745, -0.9040333533411096, 0.6196366753999041, -0.8478419518038827, -0.48158484673683144, -0.6719011713778519, 0.43426631582281905, 0.39965694234813276, 0.6424276769134631, 0.3699439454877623, 0.3168619091154324, -0.2255600195111611, -0.4438946808530303, 0.23360299137037752, 0.5207985825344681, 0.8748915091430329, 0.8889261604012179, -0.0027662203578193104, -0.738171436538565, 0.6816122428454497, -0.6368884132339587, 0.5502427409781883, 0.24631156653684894, -0.02505603109310817, -0.452807655180956, 0.5231068953015573, 0.4940822060132759, 0.5520710515224696, 0.9013141941967929, -0.23750013640491302, 0.6450789480209005, 0.6411732022441151, -0.6089882745449723, -0.3524404534614666, -0.5299932832619622, -0.5475952200032126, -0.16362324512665322, -0.4055677383582097, 0.7993154048764808, 0.1078523605061941, 1.0796445368010044, 0.4330965684331865, -0.31387748919879843, -0.5926057648767964, 0.01032140275246172, 0.5846049988757936, 0.0830284371436574, 0.08554006349093898, 0.6516391674094169, 0.9709263670401089, 0.13968078968993525, 0.11523078681557673, 0.13374836572581345, 0.1921562187784184, 0.8528179287821762, 0.2608930961998014, -0.016472317404262877, 0.24597672172084534, -0.04552009685081804, 0.7474755903457037, -0.23013581019211046, 0.852866805311844, -0.5269177836287752, -0.6868434773324398, 0.5925875887959697, 0.722393170139264, 0.566307474539533, 0.5668184945806086, 0.48440140530103165, -0.4971169553771898, -0.6220751100512003, 0.6749643807414621, -0.5230951734364587, -0.3755885566214573, 0.10212061769783704, -0.8635225091217849, 0.6071406284971503, -0.5548071582061671, -0.8864434938430854, -0.6196818614252861, 0.034978575634762865, -0.7688142302102111, -0.08070919375358136, -0.42329170141430134, -0.7995436280717935, -0.496494179690088, 0.0912036346074849, -0.5923966066617908, -0.2134998884073147, 0.3895197225179823, 1.0112207181081487, -0.07217160579235345, -0.2763352204534211, 0.49881764439014686, -0.7847612507018944, 0.18948678155976365, -0.6848292706604262, 0.6299095984581933, -0.5943919976251993, -0.4016236077842404, -0.6500603642113979, -0.3234063873697854, 0.1059784040573155, 0.3582739532189781, 0.2871247110378808, -0.7703121922883414, 0.4717741682313299, -0.4958974942029628, 0.542297328068241, -0.8361794697810349, 0.6653000459778868, 0.8083787879666074, -0.9317978691854746, -0.8038533409750831, 0.31633495396767525, -0.3391340206546417, 0.772578885201999, -0.7504336671516851, -0.2044694476598997, 0.1881588658749232, 0.5625443699758021, -0.8891765469908657, -0.5689905824910267, 1.2326075238614582, 1.0720966207157616, 1.1827123865788833, -0.2572847306523363, -0.7922207959130805, -0.6160805997174539, -0.0641858175910455, 0.2931558817171131, 0.830660705780573, 0.9638238515273142, -0.869201190656687, 0.5562122326316112, 0.35292233335212564, 0.3449104466241945, 0.8472096487932818, -0.43512855279304924, 0.11265446333965527, 0.004913357954853943, -0.5887752574999634, 0.07907950045917868, 0.9000265375419377, -0.07806431056247325, 0.006806092666481759, 0.012935578079650489, -0.7378790703647534, 0.8286980726775579, -0.6892938635605009, 0.6734864629167666, -0.31579632516668615, 0.5131673920728073, 0.20771871541926662, 1.0125132346546426, 1.0214027417207479, -0.3651349556141896, -0.014973257009420007, 0.12832645135519008, -0.26970603380895675, -0.8138510320136175, 0.10825657107082565, -0.4080942647980885, -0.7398868439120669, -0.8328769530091065, -0.8167023035268822, 0.298843348325066, 0.9846847337727631, 0.17327050133050192, -0.696983340333311, 0.50801713236113, -0.3190025486945535, -0.6023823360198768, -0.2644114577893662, -0.8407084443501742, -0.06857277418566615, 0.9409870381837775, 0.7036762661577902, 0.993694361167196, -0.7914960761501273, -0.8833619478972614, 0.42651349407965206, 0.4071281701548751, 0.9412916225589699, 1.0632186072442904, -0.11497160187447152, 0.6346406967542866, -0.45803654708660335, 0.11749207781206718, 0.7208569872996362, 0.11638596135462498, 0.850781066115027, 0.4897541945832511, -0.5899292084952624, 0.4029279111682577, -0.15243021571292628, -0.4087188968837855, -0.07562224980481896, 1.2013803985113132, 0.7439540340255176, 1.1892573540709832, -0.13622797813389587, 0.5325499135319163, -0.12847383475657595, -0.2604929188387225, 1.1788937031351947, 0.36122305626254414, 0.21911577125444268, -0.8357428286256442, 0.7433371940598396, -0.2804982036789792, -0.03322998371713868, -0.8016745726178699, 0.21707926586734363, 0.5447202101904768, -0.8860210866208252, 0.349468875965867, -0.9929547145872466, -0.479332043969503, -0.4517289431391307, 0.24053101626167678, -0.14056328176097727, 0.2223588334907907, 0.4796917512518679, -0.3553067007622112, -0.7447614881147016, -0.14876872421447665, -0.17868266195278545, 0.3017492849706592, 0.4993126596144229, -0.028423309221325865, 0.45821996971435347, 0.3764381567093363, 0.46617993456120105, -0.5219680162543411, -0.18129576656594146, -0.6460434775322772, 0.3931094860044516, 0.586929758264711, 0.1601646794759907, -0.24487523703468067, -0.1984456859942922, 0.6315924630922753, -0.8431440079805196, 0.6583141818324947, -0.3404411727253669, 0.4117146822851465, 0.6285843179656394, 0.44025901600767053, 0.12899954898494834, -0.9554897349481795, 0.5351604051699046, -0.8330246203407545, -0.703043408930798, -0.07566685798124669, -0.027421635125013197, 0.7874318276152132, 0.5818547218815301, 0.5193717215028867, 0.13349335536459925, -0.7506934496728103, 1.2108369917701347, 0.5452002106669043, 0.6387918169057585, 0.6284242465104657, -0.4887084171465677, 0.44664625083486964, -0.2877473608842331, 0.4547618587204228, -0.7051595294740687, 0.8108733990827725, -0.5100456370390707, -0.8548262971366452, -0.9577834115398343, 0.6766153542761113, -0.31260440912187915, 0.6234242249399786, 0.9870588129374075, -0.5742984176854585, 0.6935627461221103, 0.8773110851239142, 0.10452962412675032, -0.33028600000237196, -0.43063150002658923, -0.058040763326922006, 0.06389257083669218, 0.5659442119048474, -0.5685780251718574, 0.6710487660791427, 0.1989299241917508, 0.11031253104254643, 0.48740773112924984, -0.23322455850679893, 0.7133272889651175, 0.8900474168250119, -0.9591029121856439, 0.2785262506983647, 0.05974922080482673, 0.25678807256159214, -0.0690877134423621, 0.3804425460547365, -0.35296456822793876, 0.9270359557638483, 0.31165181482060156, -0.7265201987461745, -0.07830577358097625, -0.40936002890049045, 0.8293777838473773, -0.3604482578224583, -0.5500176426363222, 0.5782236383724374, 0.6183887741403308, 1.0233600108580927, -0.4621672817395963, 0.14864402800920698, 0.07814163186372194, -0.3765349060514465, 1.0285792293945328, -0.5111980199020275, 0.20663781890182928, -0.16206593462843957, 0.9671331915565532, 0.1526624100733691, -0.1928727299858905, -0.5520838050640132, -0.41665957012113936, -0.8482240429859731, -0.5175534012392625, -0.7940918498512477, 0.558873494406168, -0.3344728398049963, -0.48248379525166385, -0.3415916404494896, -0.002385678525064504, -0.6859866564711614, -0.011728898204161578, 0.3259586581242471, 0.7265039253789916, 0.6269757023202595, 0.4678927569761517, 1.2228132112321055, 0.2425401230697515, -0.32320309226023247, 0.3182881023416573, 1.1689075404889298, -0.2764649018768908, -0.5657449939109115, -0.7371199289866537, 0.06211768159342885, 0.18334459978639192, 0.38892200381450587, -0.7074939808253534, -0.764029278024908, -0.9411541885813306, -0.37658536787459135, -0.48737767224121925, 0.8527598080815376, 0.8603864952654461, 0.7107735855427697, 0.6062499238275965, -0.24470251831631115, -0.1461487486126478, -0.5048638136137735, 0.12706148435572007, 0.45272233213053137, -0.567989683424997, 0.03282883681926275, -0.3644214694825221, 1.227058211388749, 0.41392208966343386, -0.01938927225456391, 1.0026832263405059, 0.8038307106648095, 0.4784183433071954, 0.8606873076290018, 0.5525511707772492, -0.46554399375776295, -0.634486036078148, 0.9560772281729067, 0.40111750841147625, -0.2843637145645968, -0.289769078485435, 0.7087114520717275, -0.11242619164886782, -0.4519749551931634, -0.9770380877742382, -0.45564117716763874, -0.8249145433399945, -0.5240593793922066, -0.0104694324819188, -0.5094817888347657, -0.0783888773152531, 0.0687798306072183, -0.7133873690168975, 0.6645125182937831, 0.37041644028445614, -0.3008932853496499, 0.8216988566450625, -0.09713869908710732, -0.03691162937013033, 0.11345367130124731, -0.7962639354705986, 0.07752258205024191, -0.32429147307540274, -0.9416348608252242, -0.056092305272547084, -0.791030184860365, -0.5131942676537137, -0.8390017444061597, -0.2637486072609703, 0.9582550918336926, 0.6146410345209685, -0.8540935928461886, -0.2835403769845448, -0.1430405000994277, 0.2992192510237537, 0.4224826018992765, 0.3591298502386615, 0.2515284151847289, 0.9919297991527138, 0.5780329481781356, -0.2776461147795853, 0.3920123802125356, 0.5559240482242804, 0.10437274028537408, -0.44103206846530624, 0.8269273474950846, 0.16876720694964023, -0.552544062454009, -0.3660120075605806, 0.9028762708067685, 0.9391032857242193, -0.3478204909979867, 0.3653205461938702, 0.11601142744823037, 0.6900263579379657, 0.6215004154268705, -0.27996585353821135, -0.8884826598702368, -0.3989280234572692, -0.3631923649432951, -0.015570776859011426, 0.4044167405005077, 0.3729698131751422, -0.0832631147032934, -0.29115932689552765, -0.7912408214927407, 0.6362809385269139, 0.9431271616074098, 0.739986205858509, -0.6592828155823656, -0.9305575372052372, -0.36199412969441125, -0.9523375245130994, 0.8870151539323374, 0.19501728924329292, 0.5253503624665803, -0.3028053607229175, 0.5884781448927843, 0.5191032918326217, 0.9741576557964905, -0.4032520848735762, -0.9712251286442772, 0.1995018781041209, 0.44914699477134357, -0.17597403450227606, 0.514008464119027, -0.3620983747287294, -0.6525002620530669, 0.6686345036236985, 0.024557314891403337, 0.15254723612918686, -0.5514512385263628, -0.543449785917418, 0.7712953671574065, 0.7035736481811781, -0.72327153803129, 0.8908850029536904, -0.9420303419330663, -0.22017117294476046, -0.6105090080246314, -0.6169664947043506, -0.3634592697385324, 0.49830698974724025, 0.8443574692277928, 0.11740955860871782, -0.16525354795053587, 0.47339389867151377, 0.25783764646055835, -0.6312646190918695, 0.5269671811266159, -0.6033255384349604, 0.968860135968234, -0.9163020171335149, 0.3054656283782805, 0.6807985417453004, 0.509995992820482, -0.7132001223210338, -0.8330690146271322, 0.952951655332255, 0.39526390390113897, -0.061523299541556616, 0.751502871318054, 0.4396666561929012, 0.7947772111374892, -0.19460677117078728, 0.785788454154814, 0.21235438886858168, -0.41583053804936865, 0.9515334402677819, -0.1612976153201923, -0.5904222084825582, 0.41542968752003856, 0.3341018333389695, -0.6970542073527948, 0.4099699300610118, -0.2878816390948101, 0.8741507586714947, 0.8149233247726925, -0.7387981089429295, -0.1776995243521271, -0.990499267538349, -0.5348120552468274, 0.0202058041974833, -0.9278974719778674, 0.9012771375462787, 0.02392997036727129, -0.18239107088184592, 0.2141682528619191, 0.7146827265094371, 0.7591234570392218, -0.7834894249888436, 0.9016745799892438, -0.5500646831660114, -0.8281795589858774, -0.5103284784367184, -0.8350170540537234, 0.22186396223649826, 0.3693535311176452, -0.16744407072449186, 0.6640547616542855, 0.4657723409814551, 0.13822803775360418, -0.11102121450786963, 0.6089743096627015, 0.38886301849822874, -0.01734840109057023, -0.09372033937929647, 0.823695361794903, -0.3146777420790967, 0.9619925791451338, -0.452676301900095, 0.6242208626133969, -0.3947557210419983]/1.5714003691226504
0,3:[0.378376793003081, 0.7794881110270537, -0.040897494279333424, 0.43335193964960217, 0.6841845827042687, -0.20699464929797107, 0.9300004330495113, -0.49670314080056954, -0.33057170388617485, -0.07469914208097905, -0.9728388242079935, 0.3588354655304409, -0.38247510950595376, 0.2794671130002653, 0.3767485873627665, -0.42436101579641505, -0.5629738264899318, -0.7272077784271163, -0.7855004666287646, -0.19127054300373847, 0.27202652316867915, 0.8520158181029747, 0.8665514076404961, -0.5467113848092435, -0.9359757426706443, 0.8492739835048533, -0.1857163169566678, -0.3234266263924823, -0.7801828535615243, -0.35916553493886294, 0.6590242655458216, -0.721962826531094, 0.9662700440881302, 0.1420318820298594, -0.8596981158157271, 0.8125192399864285, 0.35743695988257573, 0.02922122509576619, -0.6608670055826944, -0.2894135899709569, -0.4134135321365253, 0.17586642096818667, 0.7183150780926989, 0.8265140178071286, -0.04017434070413321, -0.04456027478716151, 0.5313203029477397, 0.5266139643117833, -0.2229244254176328, 0.5864411648794963, 0.6054105955979594, -0.32240880551292017, 0.23340231701841652, -0.1914427922735893, 0.8057399758497432, 0.6256272492612496, -0.3086772041248984, -0.8781796992665165, -0.9943479375300475, 0.23513485358386044, -0.40652077501403383, 0.3355501556050391, -0.2981273247610512, -0.5865516295724837, -0.22987500955133822, -0.0752211366451696, -0.7995252998076772, 0.5576945877738912, -0.1543493561197429, 0.9655642186113583, 0.1532055642107071, 0.3626316151438985, 0.7034358213391235, -0.4826421896323703, 0.8747891757214815, -0.2882264206943315, 0.14398312586145323, -0.8771986515328998, 0.6930592075018056, -0.7489322342542001, -0.11635172334244381, 0.8434555304093712, -0.6111824961937253, 0.7347039499634509, 0.20600987223273592, 0.7743416896799609, 0.9925793984282987, -0.9677160947543126, -0.6525179837606814, -0.4644987404107943, -0.21142887061128285, 0.21401035235718183, 0.5647765455822034, -0.6919691544592375, -0.2821796342935044, -0.7548889460808362, -0.14848462550416397, -0.43318249232995654, -0.6151390287955291, 0.48929268661479053, -0.5225368961211438, -0.02843231828353802, -0.06121173067152577, -0.13157869423468738, 0.9873471987159613, 0.9017656690104169, -0.39710678622157425, -0.5186696968182272, -0.2518424079074464, -0.37457268056740833, 0.14407828255936095, -0.2873016748854824, -0.13872561515549386, 0.7404070226266108, -0.5892929767212762, -0.9025255595614763, -0.7931065133333075, 0.14627428293132602, -0.4137295192574571, -0.7397791495841225, 0.3819530372222076, 0.08956051772102384, 0.6173346556545538, 0.6821651456349307, -0.3359560866301036, -0.3014938632994866, -0.9537684819818261, -0.027457035064778743, -0.2168351151336426, 0.8785480253208963, -1.0244494614406259, -1.0429191276877487, -1.0263936866419798, 0.056782106066360576, -0.643532660809432, -0.7717433580680947, -0.6822216773436295, -0.9980434162389988, 0.8390765164721474, -0.18339844844451925, -0.0768554910803263, -0.7909238948319339, -0.7091545239089143, 0.6770200729186625, -0.3150982304420283, -0.24735059134856113, 0.35799872329426047, 0.26609382581491714, 0.019717517863205965, 0.9307538012013198, -0.6442480398988808, 0.2850478215132267, 0.14044852763702598, 0.41539411869914816, -0.19312403162935018, -0.13339663798313828, -0.5747209889474721, -0.8309339133241973, 0.5934298234663411, 0.8464579777299316, 0.18842958922103695, 0.9104120270732445, 0.9308726236914449, -0.6830985413853913, -0.9020084450065434, -0.5233555329903464, 0.1498113792068114, 0.19411571114585136, -0.03082172796594107, 0.47461787775450004, 0.7160996980086771, -0.7375985098627096, 0.3634845678953804, 0.193482483807051, -0.13334405904383895, -1.0179148534880267, 0.0807535130867444, 0.764907034894853, -0.7995754704485494, 0.2139480682506868, 0.4853737224847596, -0.23017479490679232, 0.7892362259427332, -0.4261779296188277, -0.786706756800311, -0.38399912515641077, -0.12761792810730066, 0.7927833790987443, 0.6487286258809226, 0.43630832891927956, 0.8520650096169224, 0.8542524570708179, 0.7831557501256614, 0.394163941724857, -0.9008641226298367, -0.3295037326676526, 0.8256137938591981, 0.7463499185310725, -0.5618159412372613, -0.04233605809240733, 0.3474604609058854, 0.36480951155773583, -0.6915708222838812, -0.5950371520012008, 0.6817363936981976, -0.7163930272570626, -0.4451204069257339, 0.4293032990150715, -0.3680035135016562, 0.661986888741853, -0.8359873400514609, -0.09979260912984508, -0.7879355995954747, -0.14291460238781709, 0.43649819264629464, -0.11641060085510517, -0.9042173982075459, -0.8714397526692813, 0.8808728918872084, -0.5287101596616768, 0.4132385010766903, 0.4363445729446112, 0.5832640545740717, -0.12107554782152159, -0.8470896144889972, 0.18519426117824245, -0.5999674378405123, 0.07989138272675368, 0.2686479631394836, -0.4672652041235846, -0.2330851364175565, -0.9103996934594158, 0.24920796087887953, -0.691033914892066, -1.0008649064548352, -0.5747295479485862, 0.10228794926341772, -0.17044343743872398, -0.9002146222398225, 0.39573055720849176, -1.1897926551792557, -1.0091401378005123, -1.18241484412056, 0.043596171320887125, -1.0342655057419845, -0.6946802638461577, 0.3058468966284704, 0.43738230698818764, 0.7967576629268392, 0.2253844190591278, 0.9948863255280431, -0.8559137177958609, -0.9553723831515859, -0.5658377580764473, 0.8611624858159292, 0.4500769210429346, 0.8002401777624256, 0.9196232447978456, -0.24255392069988058, -0.4496320951858693, 0.7310743663734306, -0.19339537520232816, 0.6457361084788343, 0.10986428845701125, 0.2023630333189266, 0.409790345789979, 0.4443305884040814, -0.6591685555684991, 0.13754552880243678, -0.1745997133560952, -0.12089226036062224, -0.10562031157888846, -0.657903737922976, 0.8946654145134921, 0.5416649068095511, -0.363341624970372, 0.19272098907211482, 0.7496462161365524, -0.4719829764088524, -0.14816420050335966, -0.3979070323964893, 0.4490057479064834, -0.06297669702915681, -0.5129607604127197, 0.5572111685300655, -0.9758809185897667, -0.5701883319238363, 0.6467589715945412, -0.07586066714094405, -0.48203074990307815, -0.08267868964194679, 0.6562391055525508, -0.6936179617838091, -0.4411281511916744, 0.6129740193216003, -1.071038588216627, -0.12442616735595341, 0.5185947006853665, 0.5525942317252625, -0.30342348847693884, -0.5997619517334468, 0.08081120343800736, -0.6874976740417982, -0.2406448356350092, 0.6217200601865739, -0.6200273921586907, 0.46412938189376446, 0.9600378838633488, -0.7323758648447607, -0.6131220766736072, -0.4732814442314694, 0.07307330899106597, 0.19328620136990837, 0.6076968430704787, -0.0708562158799541, -0.6467716994734255, 0.7398999265988583, -0.1759512064803357, -0.3547737004013125, -0.5800178317206024, -0.4573997557689984, 0.32224852936444237, 0.18374981347375696, -1.0518088207413196, -0.8330950428345273, -1.1198205890840818, 0.7985493293289188, 0.09927429949339822, -0.008874746679363523, 0.6126323283056472, 0.2282924252576768, 0.21478360618019215, -0.07585304938275227, -0.8393814007804046, 0.8604634050322806, -0.6543036683284444, -0.2207088993931443, 0.5491518836866907, -0.11498673439627215, 0.21020820886619013, 0.8296339535531951, 0.027613110511261543, 0.8857723960308042, 0.5785835112416671, -0.5307289971349265, -0.6403576299970661, 0.3640364847532493, -0.4070181758019093, 0.516308615117451, -0.41155309364473536, 0.7582216660941511, -0.5388391534764527, 0.3293293768057496, -0.25486471246743414, -0.9464711507985073, 0.20610009808261828, -1.1057965348801475, -0.4303851992635326, -0.8408029325311424, 0.1723525965592067, -0.5937783400673418, 0.1751640867988274, -0.39905309728258026, 0.6466824693694277, 0.03751033263800552, -0.6784262021687568, 0.3781187727285669, -0.38533769744290713, -0.5197081963599065, -0.3462390400224401, 0.7413164257887377, -0.6776628754930552, -0.819656000516033, -0.6521244847732466, -0.8442696365639979, 0.47792543750496014, 0.2252486527843433, -0.20449318220254087, 0.4713125794522734, -0.9342831655048902, -1.245244256710751, -1.1137881186860492, -0.4254424356284969, 0.6767029151237494, -0.49987118276868764, -0.5424319836749265, -0.993554751350419, 0.8820357195177643, 0.29449865120221425, 0.7343395389121253, -0.6033959915349878, -0.3486437618214058, 0.7553162901585309, -0.6930795933497946, -0.6089399283850372, 0.6505378652043864, -0.6547527680612304, 0.30038927287726225, -0.7030911716589949, -0.2728802259398931, 0.21883548267169706, -0.8218456767640072, 0.04935628097847001, 0.4300736928663995, -0.9542456451924701, -0.9568383584283475, -1.1847619515329701, -0.9736340201708314, 0.5763341182191494, -0.492129263948146, 0.37921990501489217, 0.5690956088899078, 0.7257895893974009, 0.3667632279743156, -0.11514928768694899, -0.10560142953059228, -0.5278560402223232, 0.8859708662585845, -0.5736241045424953, 0.7281997402142075, 0.7093957956411676, 0.15659546209481556, 0.7870937165423779, 0.011752051975749075, -0.7602221725021635, 0.6777607429536372, -0.14381146900178954, 0.24249732943141253, 0.695643673420583, -0.668211466288369, -0.14739611629145274, -1.1810495675143164, 0.30392734959161266, -0.5885351768312618, 0.24849164497660575, -0.05120375446121286, -0.2410945482407852, -0.4878078047492152, -0.14460295178694674, -0.48399849495508007, 0.05053835187970257, 0.8097527856839842, -0.05132320950741877, 0.9565115866549674, -0.12389032487139043, -0.8293957463525156, 0.15683221082274199, 0.4492169394186034, -0.865486858029163, 0.4157000627969758, -0.6757933812731087, -0.7799029803766299, 0.5968882887839762, 0.16150195805163345, 0.6714345520402968, -0.9013299043501545, -1.1053962781042899, 0.5277542836564854, -0.571955410775379, 0.7249290448706921, -0.5602054626542604, 0.6351070776270854, 0.5930867394538787, -0.28321640895739447, -0.3151572753879279, -0.3272027329106253, -0.6300705643608683, 0.0721529732958906, 0.4059556084543678, -0.46459297269614913, 0.7074098989537403, 0.5355963600458334, 0.40327123451728847, -0.40338747762220717, 0.013311426122887313, -0.7298943144324819, -0.060711964584134526, 0.9705970370484434, -0.9607484199495769, 0.21706128204778502, -0.40219347800331723, -0.008094247230336261, -0.8750269628500627, -0.7931077722340015, 0.340479835629664, 0.017480064933629823, 0.310049590403273, 0.32692611810538913, -0.556297557509672, 0.6386675132095831, 0.6675114718111667, 0.0754461667598975, -0.29684615546225224, 0.4270994939751616, -0.31973234054090827, 0.7305153785127741, -0.5791607033253229, -0.5883081570121282, -0.9035127468898331, 0.3676194291872356, 0.14159780427790353, 0.07371127812445825, -0.9676827957357148, 0.8706694398949821, 0.008807075437304857, 0.5466095123998722, -0.8132245244308457, 0.1317395944327852, 0.5434474273904395, 0.6102765882641665, -0.7707806976759304, 0.011196053669912887, 0.8950842653663933, 0.6417376806067591, 0.2554139654114075, -0.663235418717437, -0.6178353121592284, 0.6539049191504172, -0.08222011410679729, 0.5716116150815382, -0.9261278593706597, 0.09751385611171347, -0.1559623479038975, 0.009680148027646007, 0.6240233840058506, 0.4155163926086463, -0.8950185021253758, -0.6076769871303171, 0.19829025224749378, -0.8823520819150246, -0.9608550935824998, 0.11692812917326134, 0.13711255070940576, -0.22712585790320183, 0.76173703948144, 0.08983610994765762, 0.9019843196853747, -0.19838770244701076, 0.45321721295201683, -0.9491904398175864, -0.665852575574206, -0.5069500493388216, -0.5439354439586033, -0.2282421657183257, -0.9563469379098144, 0.397935953090908, -0.18218324647079476, -1.1580408595695098, -0.4180720938647505, -1.1870174936443139, -0.6804995252968883, -0.9051389032786831, -0.4793012131794449, 0.5433677777614534, 0.377303611962216, 0.49498317629201233, 0.4285054442928448, 0.5993023352791321, 0.01043633020437329, -0.3213741968825472, -0.7435615926751884, -0.5577825815742858, 0.016948175035830015, -0.3165243323482914, 0.8846164354919585, 0.25118416248922104, -0.34805641336559595, 0.8608634646621236, -0.5112198813445282, 0.8461443868828475, 0.8022573766324395, 0.17481516881976153, -0.49208032930092416, -0.9220228530601325, -0.9116294352860047, 0.6990776056924574, 0.6468841329348737, 0.017888894280787566, 0.7594767443266528, 0.7184722478466629, 0.2748622284672653, -0.24493272534678806, 0.3771402179481019, -0.02702943300381969, 0.5083364497169849, 0.5865639826863533, 0.38289045722795034, 0.23337231423154892, -0.616390510330856, -0.7852987358715022, 0.18111896756695298, 0.6932192375190951, 0.02704256296507242, -0.8424010708833006, -0.03956864382026062, 0.3670499772759606, 0.7752307639175381, 0.44999266541140764, -0.25711219651835143, 0.3004390205047479, 0.37977972848341796, -1.0819919514049627, -0.3884006702142023, 0.680411549061035, -0.6253754921926126, 0.46020488122826697, 0.17685075162204286, 0.3958779258850354, 0.6404709312606475, 0.5772761842739451, -0.8625865598407891, 0.30394639311076876, -0.28831167302354593, -0.7038020674647911, 0.43240617582732016, -0.43512192157655516, -0.32177454131080574, 0.4311873061861331, -0.7527762930354778, 0.08906617938801122, -0.5532776368073428, -0.523018247589794, 0.7524065881105076, 0.6189051628412406, -0.3379017079551217, -0.6914831550426352, -0.21780366089087166, -0.7599093070326179, 0.29469998402425884, 0.7379401389544537, -0.7396384740831158, 0.030723609208637554, -0.24287016357553373, 0.5515135699389851, 0.1345754521114444, -0.2995106474681765, -0.219860264586883, 0.9520985051400234, 0.47485957412833035, 0.4237258105975063, -0.511555365367299, 0.6759159893388959, 0.7414044124775471, -0.3847570178476538, -0.305490009643018, 0.10718055205240495, 0.1549798254782505, 0.4107330958895577, -0.5539600234333667, -0.37542084658929836, 0.706142856137398, -0.5710229221034674, -0.36573109832718986, 0.5291926194316177, -0.7203751561264714, 0.579149868194849, -0.22877185725602067, -0.19782285898920215, -0.2478182545311615, 0.07613647591079833, 0.2883297419002598, -0.8386234191910569, -0.7974163576304494, -0.783835069617077, -0.8648991108064108, 0.07158300328913558, 0.06392343632359619, -0.21763255846082277, -0.38365214522324864, 0.7918291556449868, -0.6229421976164524, 0.5668118016910382, 0.4098384974799065, 0.800779120910545, 0.3698006490685437, -0.6979215262167922, 0.22632515041443438, 0.7139895825790238, 0.523662667022951, -1.006052183505167, -0.39713332285207553, -0.857680997831166, 0.6029512298980558, -0.7181253123603327, -0.36483060595673117, -0.4757549478662377, -0.9019591043758289, -0.9792561008955593, -1.0370930047742326, 0.5631083722508887, -0.6289885886833804, -0.47232322762040063, 0.480089658583956, -0.6941566870005673, 0.40776236013862865, 0.06903505705114046, -0.8735688406400351, -0.7117761772175182, -0.6541251942254087, -0.27741736444483744, 0.7337035111317507, 0.8931335510484462, 0.8842559203490774, -0.4014172214582581, -0.3415336231436744, 0.48199205993098315, -0.4368141578315027, -0.03908980553078003, 0.3092454088466165, -0.8954191063487125, 0.7876805994812673, 0.837109329531425, -0.29914421323690493, 0.04191761749585107, -0.622985749796564, -0.8268638352554049, -0.5125416572415362, 0.4664168499287633, -0.27478896226173943, 0.6694397667452106, 0.7964405915530545, 0.09162590628911119, -0.7305557670774462, 0.6446084553216501, 0.22089694028025406, -0.6797886461956564, -0.36443791679886783, 0.6945293699140167, 0.9843069575243033, -0.8464925220882982, -0.99926827778099, -0.11967110984859053, -0.8086929351620223, -1.001456826261257, 0.31369745385880604, -0.6921286327511408, -0.4027959219967619, 0.8286644835237506, 0.5518023386609036, -0.8753444536909594, -0.45536360649327107, 0.7504934977885186, 0.051552182804288776, 0.7965680143765642, -0.0016149942467981655, 0.06474682912167784, 0.09685519395242258, 0.6156804886856312, -0.01575478386494274, 0.6075345264212587, -0.23866827356035114, -0.6314482637521244, -0.30998459906017595, -0.33130412123985997, 0.2151501149784696, 0.16133137418926213, 0.2714117604383126, 0.26952975566255155, -0.3772805784758282, -0.18409050461224652, -0.7488458918145553, -0.851458395394658, -0.5310884480325413, 0.35345015174346167, -0.6334466468001639, 0.3282558810129481, -0.04120456547446485, 0.3703354874756506, -0.8299546582434729, 0.2629972875532525, 0.7270598613638686, -0.4547757269196121, -0.4499981282766852, 0.99655567835235, 0.12408139360643065, 0.7129610992224463, 0.25990110425245216, -0.30254419446997627, 0.5152305406908537, -0.7695190087719617, -0.24170444408173175, 0.6320605119400056, -0.9785744184956446, -0.743845984171128]/0.4304184369750492
0,4:[0.7209179567100121, -0.060951436599013364, 0.10507469441597883, 0.7681447523635925, -0.6775435205987645, 0.8919188522218771, -0.94517043610683, 0.3137447977631287, -0.08190772264281909, 0.6390745210004973, -0.8418024935815691, 0.3292298199189265, -0.3195770355068528, -0.866859172109792, -0.5171079370625975, 0.01171846790867992, 0.5202934059818198, -0.7903197168574718, -0.45712721772904086, -0.9713177740997123, -0.6081862920592529, -0.4560150299484105, 0.3360761069119944, -0.7459683048932653, -0.1544025834204128, -0.9285461287662573, -0.304754731244699, 0.09736468116868413, -0.783248750470229, 0.5289382179089395, 0.02902181373505175, 0.8659756156744811, -0.6590320938823102, 0.1260450121363419, 0.25557866829609766, -0.5452133018404757, 0.0925657199328831, -0.9411217626660848, -0.9112061705595678, 0.14008765095829592, 0.19929916562464922, -0.47237786871297066, 0.9115319939087737, 0.6988708599496878, -0.8872894610645095, -0.9689390432968343, 0.16330853337882997, 0.6305054546090214, 0.39365873606869917, 0.2321554253374487, -0.6995767573251885, 0.6445416169567162, 0.3751061190731191, 0.628755868825353, 0.5471830700639888, 0.7039088081961786, -0.09557503460965577, -0.358228896593223, 0.6519044824398099, -0.2852682917047855, 0.5936874523357756, -0.8740741456641821, 0.38885191568188016, -0.2696873665534354, 0.11801670632942263, 0.3231245383753185, -0.6449478189064296, -0.8494960779922854, -0.7945118618961611, -0.40089467996059686, 0.023774515578111423, 0.6647329195085371, 0.9315680815215382, 0.9170092476322402, 0.945483011268201, 0.16358835714754716, 0.43973927667704005, 0.010885714452888112, -0.2974335981540508, -0.46999840260678494, -0.8622207138901532, 0.419343204130465, -0.2267400428151114, -0.057859961087397105, 0.6746361463482495, 0.8108220190578177, -0.07603430161461766, 0.6722390801723213, 0.8466420867318745, 0.3502535794800985, 0.19042761212397086, -0.7617680552588278, 0.651912322085116, -0.6011369946126366, -0.05606819682292515, 0.7098334261553861, 0.38590393801200507, -0.8606645923701269, -0.6922750280781151, 0.24134168340095052, -0.4824157288126138, -0.2892876939261398, -0.8087858247756936, -0.6465194188365755, 0.10172497190178488, -0.4944397109943292, 0.29420268109503184, 0.647430311455567, -0.1760817774621357, 0.9441208463980981, 0.9986302750140787, 0.2044403959173502, -0.5003851258599041, -0.25300531055636033, 0.6754245845007538, 0.004413214911807906, 0.02194355054994587, 0.65689262338342, -0.7511753851714772, -0.28405538538245945, 0.8850605545581728, 0.33956256547911223, 0.2859515441489743, -0.48309961479131736, -0.00430287914444144, 0.09383568975910501, 0.11526297272883267, -0.08422869882087189, 0.7947835329360057, 0.834151394450307, 0.37663791253794116, -0.35069584642639723, 0.8442884727199546, 0.8295607514253269, 0.002692779155235176, 0.23819473000758454, 0.12023870017781878, -0.24985682800892595, -0.11551581044115888, 0.8536474153763995, -0.5111615474620539, -0.890854547726158, -0.015359140174220132, 0.6861791255013052, -0.6865709277161394, -0.7532279039066595, -0.4460884027626814, 0.42107045275458294, 0.6653636312312354, 0.03978186062008874, -0.020455750526244768, 0.8983475715879693, -0.5134751995683231, 0.6874350272395144, -0.6167142150010249, -1.13413045009101, 0.061418375738192366, -0.1318435650754482, 0.021873587363977303, 0.6130551971170083, 0.8504731576050757, -0.5186689236740466, -0.3190182504053517, -0.42189218452695093, -0.8088106945576542, -0.04600522396650359, 0.7931129845440461, 0.6386643812288391, -0.7795714676644483, 0.13419350258316887, -0.3613362872292665, -0.5485502313503527, -0.29017106016087907, -0.06998923425713205, 0.40474624572105355, -0.6764094867037423, 0.7984869350088196, -0.5854617865047388, 0.05807364758485376, 0.42528627578990885, -0.2822209027432745, -0.5201062291108266, 0.2321674733833299, 0.2373122201110028, 0.7058999537685829, -0.6965134088946985, 0.13779660415829303, 0.7364038789849313, -0.30823966026362243, 0.12020918238421421, -0.9647032669840561, 0.44533820312428724, 0.6558742525229362, -0.008277448389550829, -0.5240467860264904, 0.6759458360600087, -0.0883067360257852, -0.25760296343766265, -0.5375171493146554, -0.427729143533444, -0.8757723241899311, -0.24891700696921798, -0.6407209994302374, -0.7195906074264611, -0.7297702937136732, 0.08392793442054435, -0.9194047393900773, -1.0608080341857222, 0.4982060706254521, -0.566619063929401, -0.4515173009763012, -0.6583519825042747, -1.0074217654366868, -0.6330922473931111, 0.08433754166443247, -1.0764659534300278, 0.49561601603985156, -0.25774884229936335, 0.24582042532656997, -0.8531532551955102, -0.44490337447141465, -0.7994626302499832, 0.8242859048154042, 0.11618934321389497, -0.6892718498495003, -0.23188449177790793, 0.9406153485626818, 0.2849272477701218, 0.8791643583137679, 0.2810425492383847, -0.5862592713940781, 0.7189048994691278, -0.32018377853330976, -0.6469114818724505, -0.5992433631618306, -0.1093931168043847, 0.5951027141909556, -0.6965395744990422, -0.7556886077509921, -1.1168260387184152, -0.6670615458889372, -0.6703171446326719, -1.147088927116706, -0.83814953219943, -0.9168675551806567, 0.024243778520296157, 0.6469112267189783, -0.7079432331507368, -0.17496063018897132, -0.8894636513896687, 0.2012953998699398, 0.8207241676656931, -0.7572822134294246, 0.5463434416958907, -0.2592319047605607, 0.3570596064060757, 0.6595876974912575, 0.8553919688110148, -0.2946478117833579, 0.45668831286811146, 0.8745376132262203, 0.32789000987613603, 0.08480025890546655, 0.11272804988860596, 0.41635046713087986, -0.5997459221083157, 0.5454773221223396, -0.4321192279523882, 0.616521837881832, -0.648644041236611, 0.6358451631321766, 0.13724773582065178, -0.4080573774348975, -0.17697885175291087, 0.664774155193266, 0.8643560471520882, 0.8355562508072657, -0.4158851679255327, -0.25773981542426627, -0.027390292423584706, 0.6517905811563391, 0.23362813067065397, -0.9514621515937217, 0.29368586482161524, -0.9826519601256256, 0.49377355076798357, 0.5023840552728622, -0.5707477739307494, 0.0956949338310183, -1.1084836500814397, 0.07461020889292547, 0.25004630519025045, 0.6353416184032376, -0.6031421045871167, 0.25185936458867497, 0.7585258768395001, -1.0532252822348247, 0.3253962507285376, 0.6364391979341896, -0.9722881534756042, -1.1436883604788846, 0.8078337260275743, 0.4664142562018964, 0.09454436000092792, -0.7656996952832569, -0.8231052849336256, 0.7714365641358295, 0.11955026408245906, -0.07809718043121805, -0.4273836243561824, 0.007942604525829209, 0.03610743897206313, 0.07371690138237307, -0.38191143461657584, -0.3103395849321767, -0.9284858287038403, -0.9972294075874878, 0.5395517842026012, -0.41591320771830526, -1.0016079022316593, -0.6057520901770611, -1.170350801235402, 0.01329100429979505, -0.9907268902599161, 0.6645991888571133, -0.37601980214320074, 0.3413188712309919, 0.3069625877057823, 0.7350485483113036, -0.7773848982302066, -0.5008434360735969, -0.41101676473206716, -0.7243295606673177, 0.9890111706308349, 0.22150947097757195, 0.5668149987782252, 0.4217590043641075, 0.3270370991239999, 0.1025279349664324, 0.591114451024043, -0.19043860794103246, -0.47260380130876045, 0.1961059643924926, 0.3151556946319598, -0.8820550460719344, -0.10722298426651869, -0.30570741999750173, 0.036385635701874704, 0.18547731802729556, -0.4614614432273017, 0.6975943384067169, -0.4989375613898416, -1.1216320328958538, 0.49182425836569355, -0.3761830007770597, -0.19923051046226065, -0.5319811374443887, -0.021508066967341907, 0.5849063138750927, 0.3296542838071455, -0.9013599744565091, 0.43161120619581644, -0.7419446975901215, 0.3685406493664498, 0.09597133906409883, -0.016250931417536085, -0.44410041355711305, 0.8507321509077669, -0.15879837101566524, 0.5502102879704474, -0.6126775586182048, -0.4666759767074083, -0.2580458837340025, 0.16062609104231154, -0.3076397943607238, -0.8076926543257493, 0.5507660010540433, -0.705772281780353, -1.0747171588902107, -0.39424990850054975, 0.14096304080086816, 0.2918093177926943, -0.615272743381098, 0.27160822556730857, -0.3859822479099597, -0.022712304291813964, -0.17783320209883294, 0.4545314561566563, 0.1559189134895582, 0.27194711877659594, 0.7196956083045002, 0.6506854366582264, 0.25324195274293393, -0.8130968581510836, -0.8721159017492932, 0.22400379432743514, -0.982326662814881, -0.8457979510467355, 0.6357277379994061, 0.47545120165117527, -0.5531500854351259, -0.14941671510013374, 0.5384333617136663, 0.7316547023724413, -0.31391351970121, -0.8305767085738084, -0.37467150118072734, 0.08981625124057552, 0.4972362679649107, -1.3589575577090691, 0.22744760826284752, -0.8188750386041579, -0.1357699940245702, -0.06219506526917988, -0.30660242447467106, 0.4827260927681313, -0.5881268515355865, 0.08807633898243339, -0.9674573387075872, 0.967151182023352, 0.6928447340322743, 0.459146420396475, 0.0801177895557319, -0.38332268801947783, 0.4348015721833001, -0.7352101498895055, 0.8286931783813931, -0.07801221193006687, 0.24902401806745317, -0.9072479889555306, 0.7976133336538793, -0.30704953350874503, -0.4416354653877418, 0.2058132295294261, 0.24934544085668428, -0.4000781803726451, -0.5799904073698592, -0.27515795455454684, 0.6930343303531307, -0.14420147211573703, -0.9959857578665717, 0.29493459739209593, 0.4398272356081347, 0.23551704799750478, 0.02088115393045914, -0.6035096340482846, 0.161694208494377, -0.08223881580496561, -0.7833067687039912, -0.37999134593585815, -0.36272379566634794, 0.09982650911781163, 0.1330567127378833, 0.2686148992108771, 0.022228186733204668, 0.8622500125311642, 0.8123087067770962, -0.89703780763095, 0.6424812276289861, -0.4173226217075418, 0.260259225302451, -0.30915363234943194, -1.2211977051485507, 0.3266867715875258, -0.06854882738238051, 0.05491103547574305, 0.06248279073062204, 0.7500063737772822, 0.44132613082697913, -0.8711712306691922, -0.9681610789968453, 0.0930285416526649, 0.29732962759890275, -0.0743403786880033, 0.26068172004953627, 0.06311777140412866, -0.49480472227678685, -0.20292423336655907, -0.5059062811583465, -0.449429829640262, 0.24260031244115648, -0.05730552863278472, 0.7179931078825373, 0.6146711375501136, 0.02853230120938335, 0.23305962721341503, -1.0154241846838115, 0.2363839017276411, 0.7108464971680016, 0.3789072901072805, -0.5809738004426516, -1.2781020800628098, -1.2738081550328906, -0.32880505723925796, 0.8189475767729995, -0.21077545887256574, -0.002896145790982593, -0.8170429955340556, -0.9882753975269789, 0.19106497728874694, 0.7898946988595034, -0.5291995721026479, -0.6017004467121925, 0.8015802954792672, -0.6133745545082636, 0.7303541381505214, 0.14609063639772124, -0.5397389456887774, 0.831301799571341, 0.9129794509047223, -0.9959866116744951, -0.2626623860844379, -0.46858985689672333, -0.4660121074908389, -0.6242851679069816, -0.7965607100434683, 0.7523740468758847, 0.6317990231614905, -0.6084067655547888, -1.0894867973358695, 0.6615412417170509, 0.19515019287991694, -0.7772074012387598, -0.28601155143525475, -0.8815846470477885, 0.10955790787471256, 0.4803783645233495, 0.9138173081359301, 0.20232828849351994, 0.6283257128584037, 0.17206103703307818, 0.9162718050852268, 0.8268827340787233, -0.6962393630002801, 0.16601328751558111, 0.8096684802791048, 0.6214286493681489, -0.3326773870215043, -0.7434507310081726, -0.37540503400961095, 0.4984580432168376, -0.28269610015896557, -0.5018984015906213, -0.3140949203470315, -0.02446598815828994, -0.37500735105064753, -0.017209758414144176, 0.518086134135936, -1.0043501982095373, 0.30388460904583875, -0.8257570570658097, 0.06821693734617393, 0.44547000571734996, 0.9501112290364981, -0.8871997876117552, -0.18850616851366186, -0.7983248216782164, 0.13281250003431339, -0.09149902765470697, -0.14289737630819732, 0.7673117367567321, 0.986774210952891, -0.3687614668083315, -0.37943123934517115, 0.322121114209754, 0.026231950255113, -0.382685836077314, 0.20589455421014743, 0.3428689473045637, 0.0867677320564013, -0.9862952631360505, -0.9501299141379409, -0.3735684587113649, 0.10584043765775607, 0.320949436708109, 0.12811866117522683, -0.3133812629543323, -0.45696023373426314, 0.5908517154777635, 0.057118237876846625, -0.10556455705243842, -0.23433276180928986, 0.356212324153734, -0.6373144650147246, 0.5878615186660395, -0.8843524996114582, 0.6443285993526614, 0.807685122938967, -0.4776956454953263, 0.43980927059779407, -0.8295616775456311, 0.5205077241254068, 0.6896734729778654, -0.7873123160870472, -0.7777670674038469, 0.1832348455300796, 0.15548365226078736, -0.07143149183548678, -1.1106524921807668, 0.22049900477251216, 0.2026305716356544, 0.6590329895300789, 0.3883445143210896, 0.2307736879045414, 0.5639984527616837, 0.6835527647891838, 0.47297640002584046, 0.3259485942020295, -0.9866977144278093, -0.8409370418333608, 0.9277641204215654, 0.6567780167560008, 0.8691996254833169, -0.3471495017964879, 0.17906418651296357, -0.4365368523916979, 0.8230092669826257, 0.450935474269748, -0.6950866966424988, 0.5660232436516817, 0.18228641364696954, -0.7412803795695291, -0.7741627296876027, -0.4518514293121707, -0.8317601411849291, -0.3270003262407775, -0.6396636272629976, 0.6101947596242144, -0.4689642300644043, 0.38784212753568487, -0.07231538197921612, 0.4171900280691145, -0.9338284226985404, 0.020370348369363536, -0.5123090913961853, -0.23542261508812726, -0.6894932790897594, -0.04964844677435989, 0.5674932310863843, -0.3253780972992647, -0.5604993178352216, -0.07733057861040563, -0.1405266756673738, -0.0017052739458560673, 0.17366696681405114, -0.993607787459408, 0.9488921808853965, 0.832900600569086, 0.860476780541617, 0.535048342256589, 0.8607296051478555, -0.6664889498973408, 0.11593321216707234, 0.18907747534366498, -0.2883470360652739, -0.9151150063811432, 0.31638818316338274, -0.958267360857421, -0.9521419939393694, 0.16588168983569632, -1.0180812889268958, -0.28891155646389177, 0.1376390405084177, 0.06595419287025484, -0.9866520922179008, -0.9173335214450088, 0.2926585074839607, -0.8916311193176144, -0.5170729472150792, -0.016353435578380537, -0.1417316539877933, -0.011011826036228411, -0.20717837842674736, -0.3000719037370423, -0.8855825466759388, -0.9024813329312563, -0.7737323599917936, -0.5338312485820644, -0.8455051621157303, 0.1469226495539287, 0.23869942981540915, -0.23267967709039336, -0.8577157784182383, -0.385774364590239, -0.7948019743632878, -0.5670941944365739, -0.08273746284509786, -1.0288163751388202, -0.6778958194868756, 0.7319867946142886, -0.08204282330999318, 0.3103185116333101, 0.37678544629978555, -0.4463935821963991, 0.22986033129390845, -0.9552253967592469, 0.3943720174910224, 0.8580888839505105, -0.6122627083918488, -0.600170161806493, 0.7082409063210564, -0.5386792274303309, 0.5245270878747117, -0.5020465193249845, 0.6000463511111337, 0.272999386822156, -0.46642707788816873, 0.2312851031353982, -0.1617402904839512, 0.8824484443779428, -0.34956702662797534, 0.5996203490248379, 0.9429881159126489, -0.6580305571381646, 0.21710934272696425, -0.8051142396691824, -0.5063695508929124, -0.8653938740340179, -0.35004034700683617, -0.4011024822827905, -0.35915524953954775, -0.3041181618135073, -0.16396459965885143, 0.20932349898825675, 0.1616392573666118, 0.14692917557648233, 0.6263074984231407, 0.30899063586985287, 0.6182670146423643, -0.816270691081378, 0.1508816589065003, 0.6407481491050417, -0.16897367671024793, 0.0673249916323697, 0.07895950737502623, -0.2212541067061138, -0.4845385861926756, 0.5291815598014684, -0.6726330960730308, -0.31494558013731655, -0.5148963732233263, 0.7556447242857124, -0.6065452356427854, -0.042090659383331445, -0.16908253918945085, -0.9986287342078585, 0.18172655671339116, -0.7156198147861125, -0.20133402327007122, 0.8952546799901203, 0.7728122852577386, -0.30928622245608794, -0.1700266690701704, -0.4050264431602215, -0.14441231745200067, 0.9632165798415997, 0.2755689266201016, -0.24996204409430578, 0.6292086738400713, 0.1661453508040156, -0.20836482882782903, 0.3861980261312092, -0.3332254571774006, 0.3075723150104578, 0.8239036730871858, 0.8616498888373192, -0.750276754392789, -0.12462847377068158, -0.30744258064021207, -0.4249088353200669, -0.9434510993944777, -0.6289057402056677, 0.3648240643036676, 0.3934389006059931, 0.6292548710824227, -0.6514028184258361, -0.5771255182569712, 0.5886950069018644, -0.6591352778014452, 0.2560245185337753, -0.023501351929533287, 0.0576871924727036, -0.5145138440648385, 0.020392298715918855]/0.36317594251558494
0,5:[-0.3064430851584008, 0.2410598819455303, 0.9529554525959667, -0.3507072072294326, -0.0039414582081946925, 0.14357833043277846, 0.8970683572040754, 0.8457377918126578, 0.8811856163026597, 0.02856920355784287, -0.7057649869394171, -0.8488801841795903, 0.16477476298700333, -0.8940460877324876, -0.015152871959330128, 0.8361450797055356, -0.791342713779225, 0.6796613402530962, 0.037352143286246475, 0.8932338428770636, -0.6431830764749127, -0.868782246897936, -0.1548700341380309, -0.09902422617950735, 0.6271347111889352, 0.15489782351707548, -0.8427997831237213, 0.8307353971099851, -0.4701298982523716, -0.6521160114011735, 0.3135558494984967, 0.9776295529396912, -0.4298570636952912, -0.8351639055405264, -0.6744475158177881, 0.09642454079173124, 0.8116045945420369, -0.3490961041178935, 0.3146334105550703, 0.12358343972310647, 0.31330696744408093, -0.9076104609635596, 0.04102067360810834, -0.2633380665787811, 0.056274113244482775, -0.512536535387644, -0.6603864837896952, -0.5542134712728262, -0.070963143307194, -0.14233728190458805, -0.3160245793087806, -0.8606629197343378, -0.9893476607409508, -0.4551355665425685, 0.7213954851040991, 0.5608579080284213, -0.8118916735714321, 0.8101176236518886, -0.9072371514282689, -0.5925665382968013, -0.8803134345583554, 0.7965279121158, 0.7719805574440239, -0.8548263074115734, 0.15757047501256438, 0.7494945809827342, 0.19064932537663548, -0.47489306175635176, -0.7590768676053774, -0.8824331209975588, -0.3919737079047243, 0.33467800111817614, 0.8485954106303575, -0.07040353339774794, 0.6393839752840845, -0.5637393406293179, -0.36669378747716924, -0.4363604919159733, 0.192559126851047, -0.4452871763125063, 0.7333326994827383, -0.05489834599100685, -0.5278550100518224, -0.7600523187357457, 0.003552803347503186, -0.41545412053655717, 0.12359320700311138, 0.4094552436854453, 0.9186408405195567, 0.4911255989061196, 0.5145177896135396, -0.33002420871465876, 0.02138667231618761, -0.5586743872831814, 0.9157456624695691, -0.560717949224408, -0.06970999077356889, -0.47077933257266713, -0.8135076388542433, 0.36659176026193435, 0.839739796024141, 0.9322050480908718, 0.2926281998735243, -0.09502704656059764, 0.8341667763501082, 0.07989523785188048, 0.5126862055294672, -0.791354278423433, -0.8163220632847958, 0.10261519185927859, 0.5380860500789653, -0.7822213324476872, 0.7250673863282295, -0.3805453207302585, 0.766269900046797, 0.2767729499176248, -0.662233996604117, -0.2721481990044409, 0.0740949497808526, 0.2020902538954316, -0.25322639811100967, -0.40999406751233913, 0.24201298282767428, 0.21663068249935172, 0.04187814298095023, -0.13116383562020337, 0.553901957732058, 0.24851627399522164, 0.23472003242921594, 0.08971221869934219, -0.24403287643608043, 0.6603341795736721, 0.58682941898459, 0.9007435379121049, 0.5360329490304641, -0.09097099099040885, 0.8853738756933396, -0.009838607863950521, 0.30813097624918906, -0.5951434953426038, 0.738693123005306, 0.253276859510289, -0.945850705480574, 0.23041069000636732, -0.7025255558634339, 0.5569155987602705, -0.703888498019987, 0.09588466649631057, 0.24712476564550523, 0.7451747643596128, -0.3420296579225286, -0.8174440649904193, 0.2136871263355249, -0.5357974082113378, 0.35367482435048003, -0.7545671916527703, 0.00332453977981342, -0.09271592698507537, 0.9127035100703133, 0.18717586738825787, -0.6352044972690909, -0.8101306742457098, -0.2603233192738598, -0.665977349501456, 0.22551636591095026, 0.24808178713247134, -0.8126636072219448, 0.5669982962013222, -0.9963305694936007, -0.3628813242234554, 0.8887739381420829, -0.5054967688094416, 0.22831118686966279, 0.901613830254949, 0.12379684002303834, -0.48795234969958323, -0.850374171580081, -0.37340667170558506, -0.2472922419941212, -0.5309902731913114, -0.755206297242544, 0.024229508194384776, 0.5340671153899167, 0.2774833849514223, -1.2470883147100478, -1.164531264086155, -0.9051299900017667, -0.4005181283924096, -1.135999217701147, 0.25614215922234823, -0.15466916068603304, 0.23803345116320737, -0.0250173877077286, 0.570025207904117, -0.2712272754238336, -0.5197882716122935, -0.10779573033398293, 0.31250569359802016, 0.4399517657810116, 0.1289550799314393, -0.07185744555418469, 0.2372295633995704, 0.8316096208746014, -0.8156112359426901, 0.0053984630981522615, 0.36672553384665907, 0.052733514070961385, 0.7333556357618419, -0.19553169602748025, -0.8072495251046087, 0.3536270270225937, 0.2612360200701799, -0.7526375548997579, 0.5551964461199731, -0.18801302738881673, 0.39523718647732037, -1.0951409116849753, 0.2934955143725078, 0.5451730561098683, 0.025645816399468783, 0.7704034363919956, -0.3948827964239244, -0.9987154085503218, 0.5364073609983887, -0.6386839396636612, -0.5225617932241162, 0.023495004879754876, -0.4944101001464665, -0.006378014983825176, 0.5394740638900513, -0.24529708897363958, -0.5438226323754224, -0.4863811823442354, -0.730235007875547, -0.25496968049075186, -0.44126571220212, -0.2286731445741258, -0.8132046040430896, -0.7999182167283629, 0.1608258781843205, -0.08059503611292002, -0.0735279202375678, -1.036743928942662, -0.9869923067817846, -0.22263876262043056, 0.08207928250159897, 0.15732240114536336, 0.8085628861244537, -0.6799904418267632, -0.2187814618897424, 0.2001798087953334, -0.1137527122298192, 0.859102824419405, -0.05438957898299162, 0.7379536770046958, 0.6660288876564532, -0.18545581702851865, -0.061169464815314926, 0.5093269003492518, 0.5112634955813221, 0.6847833561670662, 0.17322970479774735, -0.8207784983633192, -1.0746147626490228, -0.09403117064928934, 0.8547251238377319, 0.25425876791562674, -0.8315952953558441, -0.14894656723587485, 0.7144481714921515, 0.21851671656473837, 0.9965754279817017, 0.3123267349826727, 0.09310089659329401, 0.4282390130681177, 0.3586859407908334, -0.7028710944714474, -0.5848850534681418, 0.1665610909948261, -0.37596610710073186, -0.7680003786713954, 0.018703641212290754, -0.49841207783553343, -0.6964280506977841, -0.7238583228844423, 0.06326195839047964, 0.22236203905526516, -0.5722099496026386, -0.01368622857908653, 0.4548625973956279, -1.1518412022778433, -0.29842540818778274, 0.27297129494460404, 0.11387922463599376, 0.1789985374423129, -0.4222261593540518, -0.8122469842394106, 0.09948458334787637, -0.46189205631450786, -0.9279708699289075, 0.8110883530624374, -0.20304330066988086, 0.0752473918631683, 0.07356590517693835, 0.17547366716433385, 0.5087851632649044, -0.04772880362862751, 0.08340056658185957, -0.40346113701783803, 0.5165246406027846, 0.7123950886125503, 0.2870305905778851, 0.4242485760632444, 0.3001898261322283, 0.5936550206181176, 0.022710425977994594, -0.5200558342717339, -0.12033036478523028, -0.356399836197022, 0.564809583245907, -0.9687049632453133, -0.3347663259655773, -0.41146397809507984, -0.932705455544199, 0.9280851131583576, -0.40412531750877, -0.6887319542394891, -0.5417635931524767, -0.015369411576202547, 0.44915631917839416, 0.4047298076121944, 0.5686105791830889, -0.782910358094224, 0.9679012251712242, 0.06904541513133777, -0.9460308219940528, -0.7177882769855033, -0.7894011018448881, 0.6006636533586447, 0.5855469042142449, -0.032684684558873474, 0.2551911238561694, 0.9386755703615663, -0.7605766823346448, 0.3101438397721237, 0.9929236654976323, 0.3978826340346608, -0.10707942270200077, 0.5795434857253946, -1.014419149851204, -0.9527142665682307, 0.20882723449178017, -1.0337092102223893, -0.5725584946757399, -0.3724447211407757, -0.28514354446639884, -0.8351315236300653, 0.9106720045369462, 0.8531278563172268, 0.38405457067972304, -0.3271790965337277, -0.7387717736552606, 0.2519584318749681, 0.6157514109504048, 0.8783860322860468, 0.6594386107368504, -0.8100715029321025, 0.46227608775031426, -0.5726795791372757, 0.7723400198339652, 0.36926551936734237, -0.09307907790965761, 0.608049012786768, 0.5479473540714559, -0.8225050852113029, -0.21740580363909448, 0.37607541233985736, -0.08608163161636487, -0.29327208832904683, -0.049752722627330104, 0.24135140996672827, -0.06801853387937663, -0.69871431084023, 0.37490931366141406, -0.10134633359910751, -1.000104811312574, 0.30115281942529704, 0.08782901036680317, 0.1774598784159381, 0.1555633858434298, 0.02710866955318315, -0.8613067074971223, 0.5218997268583891, -0.9010919312217107, 0.2545098195309712, -0.16546559780808123, 0.7759306811944993, -0.17978544156236995, -0.65162959017134, 0.6341560015218155, -0.17388116513833113, -0.49934915945794156, 0.4506760572058785, -0.18077007947664384, -0.750029993017592, 0.28508335361353915, -0.24099249798748526, -1.1904808194359027, -1.0468880715578894, -0.09417264116623339, -0.7406670053480552, -1.0459976166311993, -0.8121918205178945, 0.4134576945433293, 0.8010789244411989, 0.21992388443677577, -0.07388017680666989, -0.10981245592287939, 0.05293192909102659, 0.9815154094596572, 0.2991130559145705, 0.23122528626824113, -0.46209046189758163, -0.7061027000019429, 0.0984307059118792, -0.6867394098986802, 0.4054244202167571, 0.4422841285551939, -0.7237612814440877, -0.9832380290488785, -0.9321997013549742, -0.16265550325093153, -0.7410190647041922, -0.08853125992821646, -0.030317488002113743, 0.49618225839647134, -0.5847844788402472, -0.7487872984354852, -0.9890304161601825, 0.7468091276163822, 0.7145209207389482, 0.10922717038075647, -0.5889118381813369, -0.6380661424710219, -0.7651799718644586, -0.5051992771958671, 0.106919447311347, -0.25615874475414646, 0.45710312274520803, -0.2989620192042419, 0.17189815138982223, -0.46392707515640375, -0.895637051472813, -0.776605118953216, 0.2537588850603785, -0.27067189414635157, 0.3333956539312758, -0.9438239173698889, 0.3096504693034114, -0.646593319548827, -0.45893657045395936, -0.0009621960715231328, -0.02841748663196476, 0.9381213632425469, 0.09091166716728014, -0.8013530662568439, -0.616016885023783, 0.306801135547406, 0.5693516283276726, -0.9965785465438419, -0.14280004808274518, 0.5881250648113503, -0.3654199890565898, 0.5085617310278105, 0.13598185384869632, -0.2345097291347953, -0.005036226179860659, -0.42329485777510834, -0.6215046644199805, 0.8311668733821224, 0.07344070996932624, -0.7669657568701281, 0.12254281648593637, 0.7248514620272997, 0.8229123845196881, -0.33247979255414545, -1.1321565376099085, 0.1646064427342296, -0.6493038514059534, 0.28772688469867475, 0.2926153810212554, -0.8296071129590751, 0.8213023202651426, 0.538460387976238, -0.5774423831884394, -0.993846436357724, 0.19060135201145462, -0.8261840030515728, 0.36065989961136835, -0.5010430849974367, -0.9599190614713399, 0.905886874226086, -0.6774302282819509, 0.20334138457266882, -0.8923047596044813, 0.26665342645084755, 0.24942145785496675, -0.7966994251399994, -0.059371155355274215, -0.6969247309279232, 0.5270511925936533, 0.31605914593295187, -0.6136272444551901, 0.48942028208812577, 0.7735838695904392, -0.7611071556190342, 0.1813567584396621, 0.31867591237368625, 0.7837149913756702, 0.07066770477071595, 0.5650060586732705, -0.07747817694833616, -0.7165302331587904, 0.3824701390292687, 0.5463078176875507, 0.7475230306147186, -0.3481684602478173, -0.10922528219986108, -0.5869325982325829, 0.3241366572076723, -0.3394738945756981, 0.3652473221562842, 0.3730076659793049, 0.3497384808009272, -0.9746978065295792, -0.3603263473580978, -0.46361340037559967, 0.8618954395229759, -0.7332409154648298, 0.3411022079592304, 0.800874235550811, -0.9898204787313373, -1.0120296295289497, -0.04867587028939152, -0.4129228118966479, -1.160296127945992, -1.2058548367892155, 0.3276657230249985, 0.562197002907381, -1.2024725750285978, -0.27400234767098675, 0.6672184114763863, -0.6251693028783384, -0.28748758230319427, 0.45555968401104824, 0.29376328856802203, 0.28880465720957044, 0.9812700708212339, -0.8156178846474273, 0.6710073429528907, 0.7649233748119599, -0.9183010468232966, 0.8049873030317164, 0.32191943006778767, -0.6987304086576565, 0.8244079185557367, 0.5296472190635896, -1.0466830159884624, -0.049233556433097174, -0.534079886601099, 0.47957376320444106, -0.9483869537890214, 0.3419261226035688, -0.36681273799534453, -0.20239808035911794, -0.6815393894186663, -0.7920174550540384, 0.2742772569792941, -0.8081363077266561, -0.715785279803637, 0.6740347143202678, -0.5858799123377828, -0.826931421767571, -0.26248447965771693, 0.11199333985686356, -0.21383531769721845, -0.23250486535672832, 0.4199019555039114, 0.9645702639122773, -0.10220521411486438, -0.7495594647181092, 0.22969349282045928, -0.21606408353110687, -1.090497760281281, -0.6410365522238598, 0.1150918945548109, -1.2285489136643175, -0.18068873298987806, -0.45774302228295516, 0.5471522089068247, -1.1143600717699707, -0.017169576806970486, 0.3050721895564833, -1.2433525566008006, 0.6244686945741075, 0.06055993376642416, -0.7290733922659536, 0.8335373910573115, 0.7525327261426072, 0.9495550265125988, -0.6958871556960141, -0.8047410663194949, -0.22423182861583058, -0.3238390789227298, -0.425429255962431, 0.500379822392458, -0.7819461119990143, -0.4832001432336921, -0.158752053817674, -0.026114349406734228, -0.9802716096115037, 0.5773065455587404, -0.744861300127456, 0.4673965362521473, -0.10701533520465951, -1.1340684368505067, -0.9238523117591063, 0.5449266504289626, -1.0268471379630382, 0.5136073360960094, -0.2931547508557774, -0.9072587147270439, 0.4089274438149614, -0.9825595824783916, -0.4138808836019754, 0.5906705256539172, -0.916826490339337, -0.29314521879155336, 0.08530996475595332, 0.8244034430509358, 0.6954907036695399, -0.4034971289813825, -0.08607736975867321, 0.46449325626042426, 0.0358844246172807, -0.5935152969333475, -0.8821796719228013, -0.0371448245884475, -0.8839574513362219, 0.3240060196174852, 0.4019368876490123, -0.19180932384270571, 0.6839112162282814, 0.23940742355242858, -0.9349583092352989, -0.5805000181641046, -0.9314586038489706, -0.16966436792328315, 0.21700308379688318, 0.30021717332634396, 0.3649278478017127, -0.34375025955516914, -0.3707830718257848, 0.7184429382154575, 0.43834906590620515, -0.16645475550247615, 0.5799541257762552, -0.6970273474016605, -0.6502000529759865, -0.8037800688340557, -0.8031434645112101, -0.8414881839567043, 0.9863029034903341, 0.9974315555096878, -0.08070265096657292, -0.5850868083621972, 0.892994800532722, 0.9069674785971327, -0.21702021917696362, 0.10563383885521031, 0.2817170117869221, 0.2454718714747681, -0.2054046415036441, -0.8843606876978145, -0.8929250284912308, -0.3534236507541241, 0.4141569715917541, 0.501753566331867, 0.6142089706739513, -0.8340836398293089, -0.10869921763495938, -0.8025117435993089, -0.558757775109262, -0.1420680471341916, -0.3017910008938567, 0.07965675621859476, -0.8179559872754386, -0.33046808090766966, -0.6765521577973326, 0.8617279179284758, -0.43583236750974996, -0.5572999452571812, 0.7335836050099673, -0.005958459738961802, 0.05668827626332162, -0.854138205038095, -0.801020043545012, -0.8802601738618551, 0.6954558892003996, 0.7913117312008662, -0.9640738575734061, 0.28943401041330663, -0.050662818772914585, 0.9080998272514108, 0.19992652138765532, 1.050279181336149, 0.5505296457448365, -0.6379611319520718, 0.9290924055850822, 0.8174913177464939, 0.732836969504929, -0.5236999975726444, -0.8663809706817666, -0.768214230095955, 0.5659360449391385, 0.8752283228431124, -0.6961142419902395, 0.6068691279508536, -0.4094223571300146, 0.2162628533037374, -0.4775741851377089, 0.9080161626283361, -0.4399641960827024, -0.615078786457126, 0.6445911611825375, 0.056553016279381814, 0.6721847254342977, -0.185327168133136, -0.3712897108815717, -0.37184241224537123, -0.8576907138375616, -0.17841409300108832, 0.030149089896267113, -0.7153252945665948, -0.15836588203604735, -0.5078749186985192, -0.8259853621941592, -0.033943918418995925, 0.8280361573899615, 0.915763553791456, -0.3511457528032589, 0.371140812517436, 0.37588360143362465, 0.19490315812106562, 0.48061557888991, 0.017246664305425208, 0.9190338034827206, -0.6630963273016639, -0.17912712714569623, -0.13158283751988198, -0.8601019940424117, -0.9202302992296804, 0.7851676009247208, 0.09673393962108053, -0.049851797060574805, 0.7773168571986937, 0.08802146765844036, -0.41384161227821764, -0.9462861337927027, 0.9612437338796688, -0.866393179515484, 0.958490692886645, 0.30365389647872354, -0.6288058010466122, 0.0452616696416492, -0.3591392183646544, 0.8970042682159356, 0.12337884621115691, -0.21611653441620904, 0.902986357202747, -0.39423670222869056, 0.1612808341763472, 0.8215781172955179, -0.597203613808619]/0.5972188648562506
