Lh,16
0,0:[-0.03737177578945072, 0.7831072919050104, 0.49588152142320885, 0.9726954057797135, -0.9754493275870375, -0.11481666834888937, -0.09385891050603279, 0.6781115483284876, 0.2076274003771501, 0.3159506555272089, 0.7479579310024869, 0.3599706019251758, -0.18240548666145195, 0.03830177904307841, 0.28714131390893805, 0.3024254981792933, 0.5458888520328817, 0.9382375262652625, -0.9605870554828633, -0.922933349146694, 0.6087837165069381, 0.06065616102335425, 0.6135902092689829, -0.22505518294519922, -0.9596375112862445, 0.7522826994820846, 0.28653045752047945, 0.7473554561246396, -0.1571128431908777, -0.8464259096827438, -0.5654020793477086, -0.06961812001730716, 0.09444605193265354, 0.803463393389363, -0.9580198596083976, -0.6690838160512311, 0.8493359133862052, 0.9803576499139662, 1.9284055365573898, 2.967317399707495, -0.5287815730122603, -0.9077738393109337, -0.8428855184741056, -0.7656276843670499, 0.6963636453055375, -0.4642557755820491, 0.2606762787566246, 0.9254738550960131, -0.060928074960903356, 0.09118284867033544, -0.7529482902569572, 0.7542505111725105, -0.5936458156094386, -0.7600729256071299, -0.9555689729920223, -0.8529520916657871, -0.8713507962647182, -0.4430122083461909, 0.585445394495703, -0.09276295209176677, 0.8186359574209054, 0.8850552212243159, 0.7709815253708067, -0.7597804442507284, -0.04124409326194064, 0.22745017660063108, 3.1507043139032636, 3.4897898350982466, -1.093459615381044, -0.1537717568238336, -3.3603056597713983, -6.026652959723834, -2.4279294044885438, -0.598606824990705, 1.2516802295885885, -2.7730427607237655, -5.03030750363888, -0.4919131753811904, -0.2862236352090478, 0.12263024620107107, -0.5738259131343935, 0.2257918336898448, -0.9047367992680515, -0.23254498527279077, 0.21292866218626338, -0.6584009676279174, 0.8684523406551661, -0.35024400413333745, -0.16243747865526365, 0.40715768897962396, 0.9650094569201858, 0.12370514970550618, 0.20418576230281954, 0.38056940963048524, 4.4500324663438064, 4.750212989612432, -0.8367582887670836, -3.9018347340915116, -5.693534659017356, -3.942371099513474, -1.0722951401677927, 0.4261173788805164, -3.1052537023768125, -7.429979937440151, -8.223902561410215, -5.231342607943702, -1.843682158671292, -0.22040407354934297, 0.4193974328096851, 0.4597502653056726, 0.4541821421436183, -0.5206340398192502, -0.06172853718786642, 0.7422379152760004, -0.5461925829565415, 0.3028945311795483, -1.1283369424731677, -0.7625931423493144, 0.7574114136919238, 0.681211507253444, 1.1677401737186681, -0.35661858633436805, 7.298968055455202, 2.840317893430801, -2.9415126823437157, -3.915366992724007, -0.6393190356866212, 1.2909194643111563, 6.128812780606602, 4.118055273800933, -4.984658696846683, -3.5743037724985, -3.9835651046452734, -2.9031147674478746, -0.9319077000800772, -0.41668354679726366, -0.4513581116485464, 0.6897865448048762, -0.09029802476492776, 0.8278602322867596, 0.14145952509188064, 0.09643410503496516, -0.10244349912301749, 0.25012607735192016, -3.1053008327507516, -0.5972711346246861, 2.0265276529461755, 2.9465945051397577, 2.706139178981315, 4.258298511203057, 8.834591310060663, 2.585198732763862, 0.6522474660888873, 9.149626499114042, 12.498539701517423, 14.135440423014884, 14.494707796638368, 8.817387274163465, 1.269134670859051, 2.312072034778117, -0.7950729447302064, -1.3964948034736968, -2.16459531040049, -3.179223334189865, -2.4703359704687133, 0.10559627107453894, 0.369423162959845, -0.9225607585876294, -0.6620839059790846, 0.7956817581869384, 0.6622493917940623, -1.7318817650976448, -1.7858113708473229, -1.8451881056398607, 2.1244978811829247, 4.219827041247349, 5.95917754224903, 8.968039117802146, 12.35107795309214, 6.376385939446443, 6.5725982671378045, 14.914941861881367, 13.699445908240929, 10.860494539760774, 4.705014409045982, 0.794226580924624, 5.913102887847137, 9.574223950683614, 8.710765521992913, 0.9752808304150243, -0.791321750948815, -0.7326894323571427, 0.15345690421899444, -1.0108079944799215, -1.0573405569826027, -0.5363018038364278, 0.053937339022265496, -0.6144373423504896, -0.7922977428445926, -2.163268655266889, -2.7107767568923187, -0.21284164522138224, 2.313143546694877, 2.543990189520072, 4.873321300583655, 6.5504966211883175, 7.498899993020729, 1.8848544710302677, 4.862882622754047, 8.89711884967829, 10.14294172835556, 3.6358554721519347, -1.2926871330377911, -2.1337318907838685, 3.892748376257051, 7.4591665467381025, 8.41852834455326, 4.408923081259822, 1.40753209072008, 2.452448922147578, 1.4943926285426807, 0.319452735945525, -0.2539311623909724, -0.2543940150193382, -0.6134830278753407, -0.7020998768121358, -0.3621694184450208, -1.6176899861026384, -2.721468690903196, 0.26114209236773217, 1.286718576939927, 0.9405716217836277, 3.0306545136040426, 5.3819733375559515, 1.6528283929594776, -5.537587433167502, -3.8707065465539845, -2.0462084874650492, -1.563586372216095, -3.8005160949529384, -1.5210466145841117, -0.6841831369931867, 3.064186478029899, 5.330831320222686, 8.964995741463644, 4.446135460443836, 4.331608112344396, -1.7343892405339445, 0.7763091750563686, 2.2990973495534286, 0.30152407062953823, -0.3626045479545497, -0.6828937075830063, -0.6105337949777515, -0.4480166902198845, -1.802069265044922, -1.8631600039500456, -1.9709243794628788, 0.18660951466446699, 2.2873026053010195, 5.011960442779031, 3.4874554595772755, -1.8890329147722944, -9.039360814210053, -8.82527889978521, -10.721157799874481, -8.249241038461637, -0.025782816718858417, 1.9975114708263837, 2.552903759573339, 4.886712358936933, 8.948000587502964, 12.626102820162105, 7.6881947282828484, 7.823015364702427, 4.430145783900892, 1.6179533883254038, 1.1140829904146268, -0.12850935869868446, -0.0476510407877665, 0.21151725126380036, -0.9025467268361527, -1.0343107835964087, -3.0877436710065185, 0.8867409383718488, -2.678421123070948, 1.710520854095115, 3.7963258235967374, 4.460999015891226, 0.2754656992926252, -7.124403731916046, -10.090017050362942, -8.154089793663562, -8.243403737654644, -4.266469371670284, 3.0014613451986683, 4.3340604498472945, 4.0922771085924055, 3.6312474187578268, 4.0939259741250265, 8.331133128430317, 2.543438651495983, 6.858595480375897, 4.980730484851968, 1.1813474400179718, 0.941382556499825, 0.1117663289118796, 0.9838944164959434, -0.11354372427252152, 0.3901869055124275, -0.8113806683433059, -1.2828421734261204, -0.3972150533509288, -3.457757913740657, -1.6701899223914793, -1.2927878474434331, -1.0934752906388934, -5.105540332321828, -5.702377746422353, -7.6062096090923115, -2.2281713173672597, -0.0708953423507694, 0.47681413099083864, 0.36718342831274503, -1.0523766593705295, -6.3353024339932, -7.950961843956107, -4.1366476330726965, -0.2732867704212409, -1.6447572236591137, 1.255848039065976, 1.7456470827965187, 0.8099251113587786, 0.9450090357710834, -0.486144728582172, -0.41118287312688045, 0.3093295623148711, -0.6603635041822008, -0.9248106305297219, 0.49121966189025057, -2.2718931675640914, -5.301924902137642, -6.3678940703270355, -9.419318869223476, -7.045533677431881, -5.053640465973947, -9.289573531811206, -2.180102554357692, 1.9457168231437647, 4.432044766593802, 0.08395761703640316, -0.3665339763711022, -2.359859378754099, -7.222643863756241, -13.763678102308642, -9.199079621863344, -5.269003644716984, -3.5120267095107303, -0.8985176611575829, 0.5178502698472444, 0.21181621882362534, 0.959658763067751, 0.6901674841667766, 0.6686499208943038, -0.27090837444052607, -0.6820466855324482, 0.39339235948732976, 0.09409859761402276, -0.8113845877242754, -7.0095607191894995, -9.433247987442584, -12.124176116477656, -11.285824154767306, -10.642977350157947, -14.916289847617655, -5.747805398575257, 3.245309491607292, 5.074267662810358, 1.8254242676530423, 2.0258650592060663, -4.5135977087149675, -12.097101179751771, -8.64276464056617, -6.079907421802382, -1.6723655986756474, -2.5894350833036452, -2.632270767690769, -1.4793727195028994, 0.11879894607810035, -0.07181515500194433, -0.6057018980336386, -0.8522404573311226, -0.13872433972890574, -0.5457706160387898, 0.5550817164504833, -0.8380643617795301, -0.3951834454089938, -3.3489075521637828, -9.085863612031563, -10.710870250624552, -12.766066006818711, -11.25998896114006, -7.808100705552491, -5.01129449122599, 4.037470780535016, 4.640462858379789, 7.046523502016954, 0.6180924861732794, -18.75068203845133, -22.94820519556391, -14.869914325419177, -6.966701909711576, -0.5626670468544498, 1.98730213692904, 0.27041904201041295, -2.2464063125140035, -0.6084730643571161, 0.6805861655311183, -0.7283878939294103, -0.729914898841739, -0.6444815590550599, -0.6791615338246297, 0.5987024376586564, 0.72200616823647, -0.8486228257684333, -0.9592058635253776, -6.175071626491833, -7.3539124762151955, -10.978045484432391, -9.717259112930243, -5.626652581651897, -2.3522993452056395, 2.3448258386075023, 4.831701249108576, 8.599433624605195, 0.010705557780434586, -15.453628803341767, -16.85300423553545, -16.069941145649405, -5.6747162569711795, -1.249221744953213, 2.294836272097792, 2.662373321267001, -1.1802895783239764, -2.0437987567157068, 0.2714485087091521, -0.06688241211549574, 0.2686780606743255, 0.7022377967362263, -0.8069633646814628, 0.18311258920535553, -0.6734431015774996, -1.7966591185426557, -1.2082363870817114, -1.335713297649004, -3.2564001994054075, -8.180653085175226, -12.369322994994237, -3.3797786215810186, 5.336989425647163, 5.062747763897669, 4.037745738225574, 1.580694489014993, -5.223460324164315, -6.620262067868867, -10.824300942207339, -7.85357175228232, -7.948491219160229, -2.7387526689718436, 2.6145074829154527, 5.51663683366897, 1.374585368431308, -1.1513043013743642, 0.1365277722353154, 0.772727477626827, -0.6659052567942504, 0.6349909094791257, 0.04057688453965928, -0.9186001322754564, -0.32348256091347444, 1.5343905475270332, 2.1955178874725303, 0.8723133475636777, 0.9394677837575792, -2.10693534998797, -6.2440623944727935, 0.6966347575161599, 9.32849090824891, 8.686914744578049, -3.280263477219129, -10.509940603979462, -9.822217258458984, -5.428312012736282, -3.8578650280618247, -4.247134435218712, -6.059962881164587, -1.5920153291791477, 1.5967137122113735, 3.1421007186109575, 3.1157856136011617, 2.2338341531171992, -0.2095218115212903, 0.5798964897095477, -0.5123886545190267, -0.17856456852488845, 0.43765719409036385, -0.6383798263414623, 1.1941229515154896, 2.2298703184238438, 3.5322952245910573, 3.9812698335986583, 4.996775334287163, 3.689094458584436, -2.0725650707247967, 0.6515479761913927, 7.831767355313836, 7.944777776576236, -6.263602254241991, -13.781184183034803, -10.51819038815518, -2.3664051675922404, 2.0711304737011123, 0.1776652733439807, -1.3743253482049704, 1.6198411554781669, 1.9529084127535483, 1.7339242949792135, 3.675590960846048, 2.3335305913261113, 1.1280055926438672, 0.367983144600064, -0.43963336961821575, 0.2639549959682794, -0.07893607498317981, -0.9961115301369143, 0.03179622331261648, 2.639533467878489, 3.066979327982905, 6.234222061195872, 8.523387952907102, 8.736137933963949, 4.612933683939032, 3.188366451661773, -3.18710945096776, -2.618393711414766, -9.186917832579947, -10.170022128457271, -11.801609596619103, -0.8447473323821973, 5.38469443736182, 7.67116090680003, 8.680821374013599, 1.9921024389671964, 1.38398326968786, 0.3215834249339867, 1.5616711366209532, 2.880254304398968, 1.288837802366564, -0.4080981684246332, 0.7774176934117499, 0.06079062926194445, -0.43742694611301686, 0.6020803237629571, 0.6608284784786739, 2.7105206031679328, 4.34820715417513, 6.394676015056293, 10.744834614182546, 16.76914376663604, 15.443941754559866, 9.53464717405648, -1.3499155460699186, -9.463825379400165, -17.496120988122115, -16.423331910075973, -15.650151570229601, -1.5827647031872236, 3.7472171283877294, 12.169809674388297, 6.87093675666801, 1.283883660503473, -0.11569745485182754, -0.670773514826014, 0.7019051554004797, 0.12722487228065885, 0.925276298241701, -0.36923733507580486, -0.6449065848778388, -0.6193015727092221, 0.20574911418905728, 0.9358524958504194, 1.2200312077129642, 2.7085918276674135, 2.886041245192106, 4.30828973205028, 9.679576801631507, 12.96639449699393, 16.46408928117967, 14.09336603220157, 4.494800638161056, -8.846043817169537, -13.37094489141913, -11.34033947946095, -8.18350635694548, -0.03420557109159147, 5.591975050589408, 6.7885468552656, 4.743881750269962, 1.4919329941122719, -0.5844937400273986, -1.8860319719638823, 0.8745737823338913, 0.03637190657129441, 0.2867331442071868, 0.00896001958878472, 0.32613000135095516, -0.7892584487707002, -0.5150674306942777, 0.7986072163190915, -0.14229337404963013, -0.3182695000353426, 1.2555466520650442, 5.278244839671216, 8.512962976159141, 12.910450954685624, 12.958833349061345, 12.517456412821794, 7.681751573674188, 2.4800061621099245, 5.120598327929979, 7.620270401735987, 9.361844472472534, 8.783266024447293, 9.669556470867217, 8.002506088237226, 3.096843367048051, -2.0413979324647755, -2.7069071682180645, -4.095656000839105, 0.9228289622451258, 0.34824768214362195, 1.138142614883767, -0.2912799355330829, 0.7029455755978484, 0.41025333818371656, -0.23986675534023552, 0.8228890440514772, 1.113963783984837, 1.1975123933486225, -0.1619831688864169, 2.405239539997237, 7.0046640613534175, 9.901796477190738, 9.298036256722842, 9.946499777797493, 12.67754921214708, 11.792252922617955, 10.032016208039256, 8.264763889950979, 9.339499094334762, 9.154045404031464, 8.845227325145569, 3.134359022899565, -1.406391471514485, -1.9315208232961356, -2.1514041306085865, -1.9649493081978524, -0.35977370269478764, -0.1715038849111826, 0.15390403420097445, 0.7745100070466826, -0.923600627677237, -0.034760580634384475, -0.8739453720770163, 0.9264715323281731, -0.9710967721371527, 1.0046094810933237, 0.28517032654649144, 0.4270747157914395, 1.539895609835857, 1.8584573683407963, 1.4606524551360953, 0.5797074626357006, 3.6120628934129244, 4.951198973591802, 5.324126513377404, 4.0241919926811205, 3.631512510847235, -0.7327631382870676, -1.4807857504925213, -2.607274553079416, -1.7122733244942276, -0.0602823528039714, -0.2937508018188998, -0.3143163502775255, 0.05530390642869896, -0.4986908687001621, -0.39720803612651, 0.5639468728507122, 0.19075068585358124, 0.7956338989511911, -0.5047827630434254, -0.9411319178547775, 0.8854112023126874, 0.5144621882879609, -0.608469919169057, 0.6689392688283679, -0.562837500503956, 1.1124389652125242, -2.9564694417864743, -2.8669187686579285, -2.6818670339021553, -4.063142687040362, -4.984676191443346, -4.64830869021563, -6.763619958567893, -2.266815740941158, -2.677159749972923, -0.6691828600970737, -2.736999076266772, -0.30307394211610583, 0.558907259910557, 0.8075202021213435, -0.3409373045439635, -0.831779936273624, -0.9954311765414643, 0.4761160184496569, 0.35124539775479224, 0.07157118430495268, -0.023994698275006332, 0.5158912991852329, -0.07011595975393982, 0.3209078221289312, 0.3099724700362789, -0.8882875711753307, -0.49859912364535164, -0.40093182460068366, -2.330126743060779, -3.2153233897742344, -2.2643939117718213, -0.9271964715872364, 1.1044379431997744, 0.09126046373017228, -2.020318974222821, -0.7712135840359164, 0.680631211918736, -1.6107704815654922, -1.6562353533014365, 0.34973068657905154, 1.1331509755226081, 0.7439958817104958, 0.2456065767318402, 0.37632434491854405, -0.771634457710427, -0.35131864211373687, -0.24204764323305916, 0.5832448451920611, -0.33094347482927056, 0.7900891390803488, -0.9820276536757753, -0.07551949984710449, 0.6713132681919793, 0.1645398813663571, -0.3700331134275627, -0.31165893227332103, -0.8334373781609784, -0.3858584705489103, 0.843459233408691, 0.6565576101483117, 1.0146267109397014, -0.8376342530359889, 0.02621409893108139, -0.4230252177879155, 0.6815590999755754, 0.22694280323643176, 0.9370845606700771, -0.5413418545041697, -0.05998815668585632, -0.11715115672455867, -0.7515935890917891, -0.6590093736460472, 0.4494056305931584, -0.27197445217741745, 0.7618796495482316]/-8.288861116174548
0,1:[0.5784160390962314, 0.13080046115966937, 0.6733342765564838, 0.2267327224145601, -0.3568995794626306, -0.34138470947721955, 0.6827421511642464, -0.9208109564447102, 0.224037834242923, -0.6903482204821252, -0.7474123172286145, -0.17288625762372134, -0.05493809344430067, 0.23602804687975132, 0.9068607016990757, -0.9348761723784353, 0.5918809063196446, 0.46871051507924877, -0.9161504292991938, -0.8262393565965074, -0.6310741924132357, -0.5524448733217273, -0.27837517871150985, 0.12393035625249871, -0.16277109712271964, -0.04888185598351136, -0.0012999851904174076, -0.8419647819256904, -0.17920703196237353, -0.49765241871379917, -0.6931733034380569, -0.10121240572874535, 0.7201727701914542, -0.7972377830105015, -0.3121338732317702, 0.6873069529552899, -0.72645155130555, -0.5817839379754536, 0.672048324650368, 0.3702177839740084, 0.024722616490021613, 0.9632751084348515, -0.5755619795616614, -0.016469821862778854, 0.4380997354887354, -0.854198296686594, 0.9374275427772231, 0.13446816732937789, -0.5261233713695281, -0.09198365934214925, -0.9923098401761061, -0.2756303855580946, -0.4901639956849242, 0.7138629242631991, -0.43093381852576207, -0.46322798043266933, -0.2593643946956983, 0.8397001043483012, 0.9212956484523793, -0.37729011791292333, -0.8136534191660267, 0.008686941342349831, -0.8605485943927623, 0.8845758236220892, -0.8261992806620776, 0.7719703892735995, 0.11882147401223027, -0.20465077305413695, -0.39375711637402094, -0.3471317494153654, -0.9543423622656106, -0.47916587986846154, 0.10978217124998087, -0.15941192181132874, 0.4930845181990356, 0.33839950224209303, 0.7668998327822638, -0.5153202816906647, -0.8466862609084468, -0.8029281457912707, -0.7847634599090585, -0.8758488658296995, 0.28901719983992624, 0.27284333859523024, 0.5028510789755438, 0.09993306574103689, -0.22277737600474112, -0.3222730791201136, 0.5756339750951697, -0.8049590092323837, -0.19137929662637002, -0.7502664331796719, 0.5169183375367504, 0.41638159300362315, 0.3877840885715527, 0.670313642483289, -0.105660134365854, -0.5176580527146407, 0.8639022788779368, -0.21700776111513123, 0.1779634209226021, 0.9347923492965601, -0.6060597531229069, 0.5910407417726679, 0.6589964520385211, 0.4445137132105843, 0.2183792662632258, -0.20866375322584416, -0.3187334654855939, -0.8135246774768077, 0.5352215908000502, 0.6330043946245816, -0.7113559147154866, 0.6715225226922215, -0.7653031592558488, -0.8390189487263352, 0.5932495743297372, -0.28913813321505033, 0.808195648956026, -0.015702388705038907, 0.7732083574715692, 0.22725701609303303, -0.9258854728809146, 0.5054614108580096, 0.5235953430728448, -0.8108066785956216, -0.2202631967627782, 0.24366757687671453, 0.660408076798276, 0.23625097601933798, -0.1700128829119169, 0.04605452327785524, -0.4548417266459888, -0.1513950108582848, 0.0454187595644376, -0.828158535219568, 0.21971372171320624, -0.5787963385028868, -0.6034537401233152, 0.7186908038551503, 0.030142153852410702, 0.059175792404713434, 0.03832160998976312, 0.8988369985834171, -0.8829176626449445, -0.24779919040604617, -0.7823134453050801, -0.027540112932026236, -0.2527704516012623, 0.6206093601775822, 0.5650349935020631, 0.8217220448086584, 0.41889858324030665, -0.4502692272658301, 0.3064415233214338, 0.30554821927340453, 0.028497027670386553, 0.2636696288327267, 0.5351987830699477, 0.3939949297545026, -0.481650782114076, -0.46857772112939144, 1.0928781139873116, 0.6477000583404136, 0.0498485728664927, -0.6671788102397405, 0.16138731257791994, -0.7316997364329276, 0.6276182512302657, 0.9509515466531002, -0.9732114681237533, 0.6481981181676908, 0.1547401816172975, 0.971122425454392, 0.4757239351075323, 0.6597092067928878, 0.6543370385916766, 0.9708367926952673, -0.1750092684414246, -0.012073937248767496, -0.08273505378961488, 1.2350778939342508, 0.10648304583284103, -0.19746826785815455, -0.05068885464937759, -0.1713787376676605, 0.9652777345199981, 1.0126013138871266, 0.6057176263286391, 0.2943784778697852, 1.25597623631239, 0.8664360130205193, 0.474185639721806, 0.8868733593001268, -0.15103580179308357, 0.5748985578159338, -0.8996840431664379, 0.44674036342107254, 0.853269772012296, -0.40447332617127213, -0.6702890098280335, 0.5909694443043684, -0.36418435681388533, 0.6863492749655572, 0.3549225407213826, -0.4402677440483388, 0.5671963129704115, 0.041084417434144024, -0.3713829867448164, 1.4279724777924359, 1.1394181446229101, 0.8615427509136265, 0.9705999488720302, 1.021515317846288, 0.8616888600849111, -0.3154632576319809, 0.6838084826451192, -0.005461784142661051, 0.9238609621760128, -0.18952414190240954, 0.9077968828241831, -0.3133522418128293, -0.5848586872997327, 0.391732770293918, -0.3477247089731841, 0.2782300882641962, -0.00868358744454022, -0.16507861958671086, -0.2718157753304921, -0.503354890491278, -0.5847584758648074, -0.5317943061985034, 0.05564308522784521, -0.3473364703539879, -0.18063493400917396, -0.6298558751265259, -0.05081899699926122, 1.0624628818163786, 0.8388451684218335, 0.7597026940092735, -0.43575991126562424, 0.01425365999658606, 0.9040237276467608, 0.18528593762948942, -0.019025870778048553, 0.17403373004301187, 0.3489521256735652, 0.6208492631769661, 0.911949282289313, -0.5978329446258767, -0.06885272836530029, 0.827740864615309, -0.3835236109454442, -0.8353874133162569, 0.6192235057314334, -0.8905128905305629, -0.30075826913943365, 0.8031282408194836, 0.8959399510020262, 0.40267998582802067, 0.8219610426093757, -0.37191484682999854, -0.15151281974908287, 0.8514197664738018, 1.2723116743363876, 0.12155400725353602, 0.3088092388467509, -0.012758911822748175, 0.6147180846804644, 0.4335194763864767, 0.01896874493206594, 0.8979033723181054, -0.11409474015855674, 0.00670706108774823, -0.22157494456466265, 0.6668032375297469, -0.4732452253033917, 0.3995113849994507, 0.5494441470761516, -0.7846820564992838, -0.8832685776695889, -0.13629964385478618, -0.7572296296231363, -0.6713358577582115, 0.6275249863836025, 0.852802801130088, 0.07931444140753988, 0.6095085747941262, 0.28405827637782516, 0.14242379508667358, 1.2218860467739712, 0.5683639488620151, 0.5725098705995711, 0.7277158206481721, 1.1625309268657609, -0.6019786220699046, 0.510900827893086, -0.13518411355642915, 0.13909818460575504, -0.014305432770721514, -0.6839337974777037, 1.130076560884989, 0.5719943692261729, -0.22999878382488462, -0.2366918206520272, -0.7135472387789308, 0.19657522792563267, 0.48258593865742594, 0.033546095891598314, -0.9814503578298776, 0.05422827645558241, -0.9729282633568684, 0.42929333747660114, -0.7928574206812691, 0.7068173669782797, 0.38690511629538843, -0.08284124183206094, -0.3501851385687135, -0.24252547907364327, -0.3396593494301993, -0.47752594878447796, 0.04209094975282062, -0.2127405007505327, 0.7954989837659705, 0.7651109363031714, 0.3053259343897835, 0.6567714274944058, -0.33252736737474453, 0.5947893494449583, -0.09783826833901826, 0.07313683471338085, 0.9804182981566356, 0.04173071349517215, -0.6774342335206153, 0.0020681823751000626, -0.19439595318254665, 0.9109394871182281, 0.787445964134436, 0.4440183695068256, 0.9864486516665505, -0.879664156693772, -0.14862690519311894, 0.4847322190528035, 0.7077825293535771, 0.529362688820092, -0.10714954867330759, 0.15201939812923845, -0.34893365132975185, 1.1063168859278727, 0.5277862577855038, -0.09703958623494821, 0.07315515634092434, 0.19819867408248923, 0.7354233594170071, -0.22242300849039892, -0.014214825589406389, -0.3656328676075891, 0.12331374867443323, -0.691656306821358, 0.34088813858918315, -0.6706705823260931, -0.5683443047386181, -0.4447769107331513, 0.06997177873833071, 0.19381169704286982, -0.1979170580241051, 0.14270399578230078, 0.1621962529025968, -0.7801814680877346, 0.35787413467969775, 0.6480225524244336, -0.445135474071306, 0.6625932556290971, -0.6254462673593413, 0.17309113645590313, 1.07386574386359, 0.8822451623336728, -0.3759162103336111, 0.39941252215603174, -0.1169515103910143, -0.5060740367238556, 0.2316208705769011, 1.3622218970969047, 0.5257317995193425, -0.7345405946148126, 0.4200066040009731, 0.2642847894140887, -0.3784931557954088, 1.041949040835891, -0.13249920913505348, -0.6934700939369208, 0.6570639217388541, -0.9846500700203389, -0.32213611309733925, -0.7609642510086057, -0.351585943380987, -0.25011869723531954, -0.38821091290427506, -0.1883535578076408, 0.2565165280598608, -0.06133478845014989, 0.4375328062478736, 0.9821230381173429, 0.46689485078355863, 0.13213520619234698, 1.2278416540415622, 0.5664722085000519, 0.360693301685608, -0.02199010961668645, 0.20051725772986734, 0.42527627721680955, 0.5000765465667543, 0.2757159350231192, -0.22001674290335868, 0.13314566207102263, 0.6647103762800024, -0.5487810191874011, -0.8349426875267989, -0.8417071466360138, 0.608748901360098, -0.2974471182755587, -0.07872520354991264, -0.1724347467401152, 0.00659091153812126, 0.036833271037929015, -0.23105068084750868, -0.21269020820401993, -0.5827054679009044, 0.20863555977506612, 0.677844441194719, 0.7543930045539645, -0.18347224055840752, -0.5160506629038057, 0.8946655901102837, 1.0154835887293836, 0.7710657023197066, -0.6277925625187657, -0.5556994483195891, 0.11543686833090382, 0.29572283700480106, -0.08786130943585423, -0.2674685303199648, 0.16827332456720615, 0.6803385527046921, -0.5274473487888481, -0.09543662795711212, 0.8901680248889594, -0.007538964043410037, -0.07756884274644027, 0.9469510909577619, 0.6263909931717594, -0.6304371942486061, 0.0967169897148673, 0.7994675172378858, 0.5656898925149526, -0.5052846262201387, -0.12679195998704393, 0.8640688742372865, -0.5745851356104764, -0.22998626588615276, 0.4520323600248183, 0.6210013462586876, -0.40718979600929617, 0.6391724878991324, 0.7639203547122256, -0.6573994071733152, 0.20818915552417466, 0.8438600225087237, 0.375928883664429, 0.7661510859369338, 0.14751832376129606, -0.2486779492538687, 0.8624122335849671, -0.5137390033165128, 0.9507119137178409, 0.38745627008164285, -0.1603604921271915, -0.5286232230552042, 0.7987494880856522, 0.9271981238416563, 0.9716177991519057, 0.8788276171641837, 0.863136987264537, 0.8696777624838393, -0.15642153557328956, -0.7463777764270002, 1.2241888123931541, 1.0737358510543582, 0.46013840054884203, 0.029818110059478178, -0.6105422833265356, 0.9311637762678582, -0.3073836213226585, 0.34336393043179286, 0.6860577063283884, -0.18467492753590978, 0.9099519422518029, 0.9541883276998568, 0.05574880244218523, 0.6759052691926865, 0.31088963997222757, 0.8424218334639316, -0.6225175620976983, -0.8910580360120153, -0.16884798899701892, 0.46691155912545934, -0.8071848942959298, -0.32002685119634444, 0.5933016615458061, -0.5026609808421745, -0.5991883217592202, 0.015362779313963237, 0.3902400411932514, -0.48092278438786445, 0.4223917284111008, 0.3437207751391292, -0.3864161687976049, 0.49438398251181565, 1.0264797535507193, 1.1918468554304429, 0.6146200822584533, 0.33883520162708475, -0.6088300448539951, 1.4675134917990098, 1.1086251881135911, 0.7473211502998074, -0.660278185604431, -0.6909190297718046, 1.0761516359961034, -0.4798668623942672, -0.12014562005200703, -0.5277120736685486, 0.6884139173628534, 0.05235604956318501, -0.683811113725582, -0.7001495290201892, 0.40447349285396145, 0.1998936471154757, -0.2147486873338239, 0.15276719012504636, 0.744836018919099, 0.12258243974771604, 0.41671039642699703, 0.20838140090631208, 0.15376370356128832, 0.3569070378714725, 0.9149902809498947, 1.035962560046806, 0.7232477182440922, -0.07921365526721537, 1.305848904370677, 1.3567182771978972, 0.058576068444616464, 0.3131592376363483, 0.8786429377348215, 0.6257906591325506, -0.042466321958762536, 0.5069129779843434, 0.5189785864273777, 0.40270245395466125, 0.6397430060307541, 0.7192333297573957, -0.5417937071295239, 0.38544299471587057, -0.7654752547567579, -0.1253508847161593, 0.9362644555711085, 0.34394015711101, 0.1416844601982518, 1.2310857276502971, 0.3862464850343279, -0.2448396963991605, 0.29900577938378686, -0.37417029219345654, -0.15887032752915292, 0.12759094469769866, 0.3089457457828749, 1.2488393864664546, 0.9449840006565443, 0.014595364375518442, 0.5211125588692352, 0.09074426701326568, 0.5408757315906217, -0.08200499954404981, -0.9178871186674328, -0.04791167245665653, 0.7783637476672813, -0.5908077714940387, -0.6558418319864165, 0.10805956200771982, -0.16998348783669504, 0.24889349448895504, 0.3035940427779718, -0.969378091799798, -0.5386446751240492, 0.4244581600335474, -0.2837210906839803, 0.2854892379875233, 0.7237730444725311, 0.7968773641708365, 0.8332513246820484, 0.6911053305455293, -0.573906708272917, 0.6706890023516414, 1.5389279284251969, 1.1104358802274639, 0.2721473386606862, -0.15356154353129062, 1.040205380839186, -0.271592581539131, 0.7757557342449054, -0.24063308853126655, -0.6809990278237699, -0.7948961743805848, 0.7864827490130504, -0.8306598051743674, -0.9321149156701827, 0.3590920222701437, 0.024363216812473453, 0.09062556005606612, 0.6317994360447268, 1.0119038387107244, 0.27216466717642523, -0.08412370474038719, 0.10950702226637374, -0.348620644982973, 0.09567231268891173, 1.1457356671230983, 1.0346476660123585, 0.3543774203894915, 1.0826659707076958, 1.6964039168444685, 1.3577454452695272, 0.9423128679780668, 1.2776990835756392, 0.26571188349865626, 0.20498274169104902, -0.86086778997142, 0.7856353591442419, 0.7139330188937868, 0.7418049037252317, 0.8687482116616093, 0.6324178583068274, -0.052621430590525264, -0.004716997283987112, 0.7641150777613082, 0.32032263051710674, -0.7350773956766942, 0.577580770811637, 0.04005217545764147, -0.7168094660942503, 0.32060094843838155, -0.13789685290803078, -0.7024996428873606, -0.7435494013871775, 1.223915089798943, 0.19271736510519177, 0.03918362985605779, 0.3081898304380638, -0.0009097043216995807, 0.8871517743214079, -0.7528501649219101, 0.008028574280250632, -0.07879964161809044, -0.20562403274800448, 0.06213267257907706, 0.979971293839583, -0.20031141614019715, 0.1289528491827776, -0.7879453464703003, 0.36975323138341243, -0.337426708084434, 0.27646307578987894, -0.7915940037336893, -0.7661766546827744, -0.6145053762153995, 0.7272802736404954, 0.3943301902446832, 0.0629181411039753, -0.48301713131808705, -0.017909075281495292, 0.07060296725264055, 0.39194353911449903, 0.33565636545714794, 0.6869383353494233, -0.37235997157845885, -0.8356405591266958, -0.6422398942971184, -0.7365501357606193, 0.363895413914943, -0.7500710913088857, -0.5653338563302189, -0.7882421333658782, -0.911914567959453, -0.3019874361953795, -0.31549023874805626, 0.9692970923886318, -0.01614273360079667, 0.9959992496427499, -0.3902612641055496, 0.9365041039998956, -0.8986571289919156, 0.7890111812622178, 0.6758272203297114, 0.6187483988403876, -0.9052277151646728, 0.5269818930322915, -0.5956769815330505, -0.09875541491372378, -0.5818044618276669, -0.3758251182660204, -0.5763225188797473, 0.6505988749111221, -0.7636892657678985, 0.5547742297616848, -0.9036949186940454, 0.7240811548663989, -0.689616590968185, 0.8269932519154279, -0.7435122335287757, -0.15318411196151138, -0.15609361843416553, -0.826267980275776, -0.02489479611072738, 0.120453141871275, -0.8418560364987118, 0.4787199625982661, -0.12420303083394169, -0.5080294706137558, 0.25968061035897727, -0.15429115812209782, -0.9022824906691973, 0.31105138322695886, -0.6861152410353086, 0.23570983292455688, 0.676755430270553, -0.32887180705969604, 0.5398012955636277, -0.6974645304085406, -0.8038900510960793, 0.6662216722152209, 0.908814890261913, -0.6444905269951462, -0.6450165751239344, 0.23869888234439138, 0.27904586044741064, -0.5344807461707944, 0.5804812862906052, -0.26456138446687494, 0.8192817944497237, -0.15101098755352094, -0.6165999740061926, -0.9046810810822528, -0.2603891984345208, 0.7029702495858676, 0.42893207966798963, -0.5632661806012209, -0.16280200412701884, 0.36716721344769443, -0.019819233528262092, 0.9278247651531268, -0.43977279075952147, 0.6078301218498351, 0.5493545290474506, 0.5523789538545386, -0.8033866826566441, 0.1765306905442339, -0.2936490118839486, 0.02617678339968126, -0.9130974495157281, 0.9881645582580473, 0.5575985884594215, 0.3777777536632045, -0.42851628971176914, 0.8882991691111906, 0.9066207533664654, -0.5250128592359595, 0.6428667833454754, -0.7461777469115398, -0.27648804138292316, 0.666938807993009, 0.9716919225719765, -0.821997126546073, -0.21600492240869462]/1.9550091144684945
0,2:[-0.13364014228609444, -0.1477182456378221, 0.44324457400971484, -0.8513869027316463, 0.22156190829806066, -0.4826211744818454, 0.9056040397872531, -0.2243687892931736, 0.8849316470481188, -0.310749470958376, 0.07174215384553939, 0.8463721258175132, 0.43130758294730787, -0.1449813618196012, 0.7855751812682625, 0.9427410705042678, 0.04250010118974412, 0.999654179891154, 0.6470119220075328, 0.06419828649102666, -0.5667789628943751, 0.6219337547161805, 0.18762814890006818, 0.4716404996940353, -0.4312533200172317, -0.4531716165363815, 0.3191472628203704, -0.3200146489261497, -0.044717508135543094, -0.352361352255947, -0.6255137801958643, -0.6968405496343302, -0.8968061971696495, -0.12684566200348724, 0.07588522996119185, -0.9673844858745544, 0.015597604501406313, 0.8738150586877634, 0.1751137652834662, 0.33340946656550363, 0.431120476548912, 0.48134282075054335, -0.8992966132917741, -0.8290159965454966, -0.18413360748544397, -0.5990930487093825, 0.4023520857148951, -0.05256952674714189, -0.7442923990299304, 0.5533655689581399, -0.8743999759446127, 0.05258246743432071, 0.6074010493972462, -0.7542636845266053, -0.5354084870214542, -0.17479847684706695, 0.660120942682972, 0.24399300761588405, -0.9316144789228746, 0.7863445931725084, 0.3150335099218331, 0.4900563084250385, -0.9346022867776038, -0.15587458785135958, -0.7492422692720253, 0.37903006187878824, -0.13662175058487944, -0.3824770714095986, -1.3263490419542474, -0.6629297770421141, -2.6430584882385806, -3.964562000104329, -4.289903756996295, -0.9537614056732152, -0.8228700094789726, 0.1744438866376411, 0.06559641235565777, -0.5533259252905554, 0.23596425689068679, -0.031239681846012484, 0.5961961810525309, 0.719842537027896, -0.5537155156095108, -0.3005061919639225, 0.19723290380665337, -0.42817780587324683, 0.38466446592878767, -0.844041887871626, 0.6879268493347362, -0.39340029236859436, -0.18806617514046853, -0.6851106302514298, -0.4276446418193328, -0.07024808102017914, -1.8259952215551176, 1.5067576773052918, -0.6329811335711977, -3.4840555062038754, -5.5625977479144275, -6.463520412397174, -8.715394523313348, -2.973489483044769, 0.17933770843803942, 0.2162907469875048, -0.8283490440527066, -3.0478632181669023, -4.052858167547643, -1.4281904446055642, -0.6181075726254555, 0.5675773763372993, -0.6454789271187193, -0.44220077194245744, 0.4268222804331745, 0.4205899697784965, -0.8673043437802945, 0.8175366152508569, 0.09703638984808233, 0.4288109604930413, 0.48016885253497193, 2.695977382243651, 2.8770463121755636, 1.2996239818622806, -0.37728234928280663, 1.681688633371633, -1.392123861652196, -2.6806171361624336, -1.3738911395577356, -2.449519175883357, -2.2453641630950165, 1.442647281336526, 2.8511128951785234, 0.34228575819536905, -3.969763249722168, -5.091101549435709, -4.864724355037436, -2.321059054265007, -1.5216629166857, 0.8619328422608564, 0.8984611302486593, -0.9043010858769815, 0.05476737810824406, -0.42077556632470814, -0.21106683045920036, -0.49740849615537536, 0.6220783047237392, 0.022674508309076396, 0.6422483270295187, 1.7654130654276667, 3.599657308438792, 0.6016088499175127, -0.26072870468622034, 1.7129494721208545, 2.9444596183443412, 11.223901077774842, 14.113173905674287, 17.154396719269105, 13.507831222129555, 12.392964292395357, 9.572595151686203, 5.948549783622372, 1.2881247087900016, -0.708970964238849, -5.103972791116904, -1.7980298020012864, -2.340075538768013, -0.48045743989756257, 0.3775655619259633, -0.2673799967138155, 0.37093153017727776, 0.9516358437951913, -0.39945726368384565, 0.23083453404814677, 0.5585859505885746, 2.756143740463954, 3.334390359130654, 3.957431037457245, 3.12443729870221, 1.2557261547294463, 0.2858616946504082, 1.5513540265409056, 4.590419653488121, 7.6668653718196635, 14.614375130530648, 15.146820764108053, 14.46657013736878, 12.946774496480879, 6.13071636129584, 7.276059436885476, 5.951213791091266, 1.9183629711778671, -5.121021081021612, -5.52359935276625, -3.8864341193983467, -0.7262434533486125, -0.3627940901442997, 0.8094081153146399, -0.5534538210502293, 0.039853976180002186, -0.7141613767621838, -0.13145534716618812, 2.3775097600479453, 2.6728844953525877, 6.104562684412798, 7.8711752917365025, 8.10033779673968, 4.299616096433882, 3.5380275028909907, 2.876599718557549, 4.844778000081358, 7.464258269801529, 6.827704760504618, 1.304969233906018, -4.301019917105614, -0.6344544747185485, -0.44211121784447693, 2.135566009724494, 4.885777085094163, 2.693377722599977, -2.741381269330564, -5.033847253542439, -4.668725146014332, -3.027090286068543, 1.0979058798453625, 0.877020143140302, 0.4432591892359252, 0.5361174711864033, 0.1559404751405614, 1.15164332795576, 2.702912060011267, 3.586421990950342, 5.634123906434808, 8.73609974541022, 3.9461566875273433, 0.494003212059242, 4.917907501845793, 7.616211220132252, 7.615199569660598, 4.849813153112237, 2.420853972626509, -0.8506924918180391, 0.40597332172687295, -0.2536847783142178, 3.6411896009442914, 6.23442413789302, 7.406048940410103, 6.631962512708985, 1.7380476910846026, -2.5927123085101544, -3.920535344323, -1.4808117682556206, 1.6660456430542565, -1.0938525944336706, -0.5566795143627059, -0.45035582492589826, -0.09571633395319763, 0.2030513507733999, 4.1892705370643855, 5.2664933577417194, 1.9727132485067675, -0.5229822749217099, -3.216224046443323, -2.5106434707103005, 2.1340146259629407, 6.021209012475695, 3.8393338854700736, 5.318676132860168, 7.274186392492667, 3.419089577691796, 5.424073252196552, 10.172771075276142, 12.252737665786224, 11.432268580887978, 9.59320811063798, 8.559330912906859, 4.500696368814402, -0.06190724533327445, -0.737277840328496, -1.4577000218009502, -1.2683027868396175, -0.7433646758813186, -0.25627369979999387, -0.3665605917178363, 0.5847154603955262, 0.6234519295200622, 3.659385720932046, 4.945221495665588, -0.7534957592609147, -1.3197527685705501, -4.409026701897032, -5.790061091771448, -4.9367710710929895, -1.6076861432167877, -3.7256159598898195, 0.21920032448455432, 8.109965374114173, 12.026593471436986, 8.943310452020556, 9.582871302309334, 12.533450841657828, 12.73411644249037, 9.744358045743757, 8.142323614728753, 4.351768650937609, 4.202724299578803, -0.3473948510853798, -1.3990489511815076, -0.22227635423814582, 0.5169193820616551, -0.5029162574397684, 0.23527667224125942, -0.18502321652511847, -0.47947711353090205, 2.295107752024998, 2.3754224319468222, -5.021913802117859, -3.9252632951035524, -6.996056020071793, -15.019686571542168, -10.774245455207952, -8.656431954915263, -6.05683044234717, 5.58727843521493, 16.73000508520515, 13.61868565896918, 10.907363778026193, 7.243099510972813, 9.554995659735296, 8.271087518256207, 6.802373708761417, 2.8497921264255224, -0.9426045266735592, -1.7611405961106514, 1.2634020904854377, 0.43481047707776155, -0.7361947709419501, 0.08264125010458301, 0.8950487240097245, 0.6269497243954087, 0.05924330516571486, 0.4341164579878641, 0.5275885781465515, -3.7379518744084206, -9.362738919225581, -6.9208384039705, -11.977125975661863, -17.82079671178163, -13.11808001552808, -9.950191720221936, -6.924761595716884, 7.315744011363142, 12.157371794272919, 4.156419074134437, -4.702819335367779, -5.7682444481739115, 0.6555287895916376, 1.5669543282397758, 1.622441905227112, -1.6040501411809178, -6.045810328330786, -7.202512431271994, -1.8561294643716522, -0.5847223778379609, 0.4074439662445115, -0.14972790730169452, -0.9712758964046206, -0.6729521512300148, -0.7577225414070297, 1.0153063510840488, -1.1032879744217983, -5.645511904750513, -5.490679925556474, -6.2134955958348925, -13.803858942346903, -16.878992251822883, -15.381408715575873, -8.015772546715642, -6.106383005941351, -4.077240471451056, -7.236487525663751, -7.399476588341024, -8.66932435938742, -7.968395332561851, -1.682410797043643, -1.716662058519037, -0.1886216913422167, 1.31343247058861, -2.956245312988202, -7.408840091883634, -3.18234048137259, -0.2629445782855141, -0.900433804511694, 0.034958420892430286, 0.8334419501365418, -0.44673354677053867, 0.46927459426962354, 0.5413953410461553, 0.5977390874422904, -4.389202435584847, -4.031607418093729, -7.235217350041989, -15.159838416021028, -16.676575379304882, -12.849737994596088, -7.421482153947258, -6.715894181038523, -3.6190534156564382, -7.186582157016087, -9.039295192549293, -6.783841818924656, -4.89545613258307, 4.041791323105092, 2.2863275180414195, -0.5892881830293374, 2.429651116229433, -2.526939139760809, -7.070867357117021, -5.008275027887691, -0.4204501046297537, 0.40974726060909006, 0.39202165250698284, 0.6568795660928066, -0.3544684574206549, -0.7374508486676697, -0.6760313331022889, 0.9778672480119558, -2.5646069453473457, -2.9794008569760333, -5.1040672192425065, -13.008507566352414, -12.232845033761766, -14.358057117232926, -9.937366770871702, -8.507620795757962, -2.3768006725770534, -2.8916755245708097, -4.876238598005765, -5.38937541014659, -2.6200915964777702, 4.978279688562227, 3.1732432972870934, 1.6214693636800217, 0.6831083204379788, -0.11603810629652793, -6.7139855646826145, -2.230250446525246, 2.7223390013540283, 2.3135477592632143, 0.6455045221747345, 0.711164295932168, -0.32069616374073395, 0.7250653918858448, 0.047672457928807116, -0.23980487199791536, -2.0295291475346224, -1.019884385339781, -1.136441736910172, -11.06151036607508, -15.577091216859547, -13.506003280857312, -6.135943234363532, -1.4766593862618398, 2.5128631224959186, 3.563932191751807, -1.7759902862078416, -7.3191258552675995, -0.6827706831663652, 8.003492103710274, 6.0104632899559425, 5.026601081989281, 3.199436851839083, -4.769839247022352, -5.23980916782364, -2.6589253614357578, 1.884174037397968, 0.9047583597526968, -0.9248003831089988, -0.9954259905820984, 0.28869509746925615, -0.12412836247482575, 0.5636954060981385, 1.920109386440359, 3.859744384992415, 4.144263692445338, 6.806766834444964, -5.636541551245954, -12.271834539060885, -7.135386101426208, -1.1619338914950328, 1.2261922588915304, -0.08092265912277101, 2.7925849018523623, 3.019554416177865, 0.42307970025387936, 4.7974153400292545, 4.200290721809932, 2.966660372341898, 3.300394855458402, -2.1532957894754814, -7.137403151916431, -5.468422819965617, -0.6404096634158506, -0.1917358449896011, -0.45096889212963764, 0.3236836844535157, 0.27652443249318925, -0.010121932026221747, -0.3556468212824071, 1.3920740034107357, 2.0335573345629423, 4.470971641350694, 6.819721777383399, 7.130741210659929, -2.86554458030308, -4.509540253551005, -0.32677707402564443, 2.3362073989786927, 5.233508804503685, 3.59687815903847, -1.2990741423235677, 0.7343989529853999, 0.49620583023896214, 1.8290947711454562, 2.7083615212644587, -5.344318966006014, -2.8740696613851946, -4.26502579067221, -1.2037950873026122, 0.6131837941514792, 3.0958546860257092, 2.7942677856967633, -0.7095869126074845, 0.8864370902327461, 0.8950340042689104, 0.44567975351654554, -0.33298627647134643, 1.161009001253802, 2.44798599824154, 5.8737797634102575, 5.6635243180991806, 9.349835772096048, 5.514505467909487, 1.171006965843522, 1.286230866039233, 2.2086682759941367, 1.0826739301194852, -3.2063784128071657, -7.019113564563324, -5.642896068487295, -5.22817736555055, -5.090260800447161, -1.9405143440489208, -2.0674103670186565, -0.644147099691386, -2.0468909620814495, 5.043489048977281, 4.856173548105705, 3.424901990856956, 1.7512720843631429, 0.27961052493651667, -0.8609945000142938, -0.31312675020995817, -0.16825529105102283, 0.6555627504562485, 0.04466847830773671, 3.8369120659268905, 5.319673238316198, 3.833053281162808, 8.078255776948877, 12.504742148380698, 9.280128730479793, 9.044625041134237, 0.5199961759425361, -5.11591351440025, -8.067290024580464, -12.03404840426406, -10.497606904372308, -11.586532411021722, -10.490833694562241, -4.228751817132897, 1.028633840086626, 5.946075380215632, 6.440658274065749, 5.252678490059901, 3.411297886682179, 1.253744939453711, 0.043810202217310544, 0.45712058305979547, 0.5395687213887701, 0.685516461045717, 0.23363865458753796, -0.09400714963402082, 0.7090157913099248, 3.444818427533221, 6.327656130212501, 4.733892550270713, 6.376839573904632, 7.332498124756398, 8.30202882346924, 9.51269379144197, 10.9340576428653, -0.7947904133220101, -4.901398507032186, -6.1299901143332605, -3.6892931584481428, -3.493123775184585, -4.048418059722296, 1.895319034697613, 7.186277822906686, 5.543549348288742, 2.9451031106456944, 3.860616441244171, 1.854713740663617, 1.1905773220222544, 1.2462501087264508, 0.879383893276786, 0.8341081325550974, -0.8864734653281807, -0.7929153308152481, 0.6197137500641039, 0.23119766591610874, 1.326761816932975, 4.445300666640609, 5.58623243814102, 8.241263441782113, 6.187271185666276, 4.334892463838501, 7.020167277176584, 6.645772023112673, 8.531392968954266, 7.220719768203858, 5.001985759742147, 6.6011581108468365, 3.6308158190571524, 0.27358098669221437, 1.8773366638411413, 4.936465021330951, 1.9531551613387994, -0.6953769784525055, 1.8393998794770114, 1.2627099578996628, 1.084672213316418, -0.798519818825103, -0.8018264776776058, -0.1923761402060793, -0.31758646605679774, 0.3588322971239286, -0.9482781943682531, 2.1875926346747456, 1.2307219964811245, 4.3244345624209215, 3.1491443251643116, 4.279838932664898, 4.280869097607439, 4.391073093818473, 5.59992210526257, 10.091346398819347, 15.64487191985474, 11.494334750838204, 10.822681263606919, 10.04861097064677, 4.549078979743921, -0.11495252435068327, 0.04114164199672345, 1.783553708535902, -1.7347591649967664, -1.7717888444696683, -1.1757517815717522, -0.3195623388851369, -0.25632974153256916, -0.7710140102181704, -0.38326391440168295, -0.5543010856227875, -0.4071621315407634, 0.9646918291057609, -0.4631783734401076, 0.3924164427608438, 1.903981611224997, 0.759222274458167, 1.396530640664395, -0.6190360416635627, -0.46813019380400905, 0.45748475683250417, -1.717103383454439, 2.277569776151934, 7.5143481393989315, 10.33820853359955, 10.381028349184039, 9.78911506981546, 3.8984610244525233, -0.5122720868009727, -2.577327376182688, -1.7513079274098693, -2.424890657870075, -2.5498553212988178, -1.827741643991677, 0.38234390652965705, 1.0124124482311827, -0.7213199256517024, -0.2842764453037252, 0.8415332021476905, 0.5096314189216475, -0.879436906244244, 0.6200614322673803, -0.10269293111343579, -0.7257172524980967, -0.4369980489556155, 0.17969419632684025, -0.13071620800037484, 0.8244016016310611, -2.402755537155181, -0.9454184858022916, -2.1772262964291684, -1.9095380994081574, 3.5559831726832614, 3.2294033657782877, 1.5532990437800964, 0.7768184495251629, -2.8201992014175485, -4.277380671704853, -1.2693715260433545, -0.9990497068081753, 0.34947321410120674, 0.7971348637449879, -0.6944792700829873, 0.5852905284544062, -0.12249672889226271, -0.4145592870979311, -0.6283765147157809, -0.49351639366552, 0.5387486101535042, -0.19143412189745868, 0.9244261849347203, -0.36635583552331935, 0.289663394781012, 1.095263238894009, 1.602716689787205, 2.3867169877927576, 1.8840489640205775, 3.3240552877903786, 1.87423119038527, 1.7749015508795956, 0.7962204174367544, 0.2589692672599816, 1.6006252071152915, 2.9273658158630655, 2.2276041609378616, -0.749608239801418, 0.2103916914640734, -0.9514526017348468, 0.515997649291462, -0.5217604262415219, -0.9117898959658725, 0.8300855869609844, -0.917304566321933, -0.3721638217916656, 0.16336560715597126, 0.09706957974156749, -0.6511576266291654, -0.6875857496229321, 0.9799406348648816, -0.15315879550926526, 0.22537173835351834, 0.6213026351952208, 0.2835221764150958, 0.6396180739077593, -0.04966907284273782, 1.0038509245851268, -0.08457457325333911, 0.4366137277766441, 0.15543641879261766, 0.5073467175620143, 1.8465114189026415, 0.5119861305517884, 0.13572365035059616, 0.6488360564191312, 0.67868836856651, 0.13563761716146064, -0.7504088277904103, -0.9891078531170147, -0.36277422611571697, -0.9326361455290684, -0.5732455441717565, 0.12776516637630086, -0.5606094817645721]/-3.274356283690939
0,3:[0.04499100503387843, 0.9130167034289833, -0.8277666279318916, 0.0587010146482827, -0.27100034669958273, 0.6852166705635077, -0.1963881860383443, -0.9756826629674431, 0.7348134672688171, -0.9581305779610982, 0.2939475129479592, 0.4805659812806091, 0.17616932700623744, 0.4414434683800492, 0.7669035712747947, 0.6992104393154788, -0.31600386485547904, 0.425752114469919, 0.4687172377303075, -0.016957967244014327, 0.0811952613345921, -0.9077897116399816, -0.8387377112473091, 0.4301296826136438, -0.49465545321835, 0.18532331175419392, -0.4908584720111495, 0.8291570381849283, 0.5202568152704823, 0.2258189772159127, 0.5402244948089969, -0.04981206434446106, 0.3296845176011691, -0.18270303801528742, -0.9492987895574032, 0.1221313326678597, -2.2347878662635345, -2.3937532513674777, -1.6445779648849603, -0.6245235149033397, -0.6136307730147993, 3.34949395447871, 6.881712126742818, 5.0540515569326505, 0.250334834334664, -0.08477948468818848, 0.8192899814615839, 0.8671335179472186, 0.9298849062119435, 0.8462528686208444, -0.585839906739223, 0.8472488316944191, -0.9649579905867685, -0.4770538710649377, 0.8105153990611436, 0.62594223445448, -0.2281099329795251, -0.06949363705607925, -0.47038017442964564, -0.3278574414124096, 0.97603315074049, -0.5821863478302781, 0.19446647810840878, 0.49117144519276384, -2.4512464023788096, -4.414735204335704, -3.2601107437716554, -3.0931059742763694, -1.95218354639054, 8.196016170583936, 7.512283786309234, -2.902955868119618, -3.850010471400634, -2.349198898742759, -0.7765571047751423, -0.9208136034368436, 0.3657271640186837, 0.6781725954773543, 0.24693703822718743, -0.291850894045513, -0.6825451116300562, 0.04250528319695479, 0.7507812385332338, 0.6617328139894447, 0.42077779067241194, -0.24413057491861223, 0.5729300258082415, -0.5800419705251312, -0.7830475605679121, 0.3528091066619002, 0.7579257176420215, -0.7532223979954664, -3.5418054793008054, -3.5460145177021767, -3.1161726263991434, -4.058370218276523, -0.8605400629460332, 8.527867391089492, 2.7366359901856114, -8.534384161034216, -8.889369360363307, -2.8317752583424833, -1.374844605531186, -4.562833600890624, -6.260945110532329, -2.5852925044481556, -0.1451225390790897, -0.46329663157112083, -0.1414374830827973, 0.5424629243692252, 0.8594159362067948, 0.6083701630938676, -0.2179309813036312, 0.795371908035879, 0.2662313806327534, -0.3963074512982543, 0.3732900777190594, -0.28365139933801814, 1.0044965366781282, 0.826606767821301, -0.7451666371311165, -2.4549655890278794, -1.8836644260694864, 0.5353097954972782, 8.371568834923778, 7.880990837348747, 0.6987719622458742, 0.6838954802681693, 2.702661765141847, 5.79453470556582, -3.0423180755391295, -6.5633146220206084, -6.809948964567462, -5.296694302497349, -5.278927361434895, -4.074190836351186, -0.45649288361269424, -0.37825092367799806, 0.23317718045982175, 0.15293688132061622, -0.30937503159337365, -0.22538671820748793, 0.48137759169606725, -0.4948309442354419, 0.5514105349728168, 0.9202229955624086, 0.34561256726385037, 2.195770041891572, 1.6117720966684896, -0.191602789207411, 1.0686988561182271, 10.070331630521117, 13.611508744384658, 9.603732991068288, 13.26698738357735, 11.023808085808243, 8.59456106767522, 4.051634305330514, -0.9308958261500901, -7.356853192275072, -7.513895749476841, -4.6884545294762505, -5.633581799593535, -5.762970192495917, -3.588160727531233, 0.3375555534077499, -1.2594942651366614, 0.4856004490783268, -0.011975998267789612, -0.2446973483417505, 0.8598936466496372, -0.918885966449923, 0.8537549764994219, 1.9540172843169419, 2.372357544791287, 4.380596600913477, 3.9805625922327277, 0.994770080631911, 12.952243606570134, 20.939261747178445, 9.513897074047225, 5.897852438394301, 3.7024713698842038, -0.22430186891865397, -6.00664685029008, -5.52271044158597, -3.3991536635265462, -1.7287842989763258, 1.1450118898255202, 3.778440905989282, -0.17931723588859622, -5.326109323884265, -4.963921499405856, -2.4487417033793553, -2.112478533714384, -0.14539224639235154, 0.45785638721326993, 0.9488101903677112, -0.6532606036259745, 0.6155708630158436, 1.5917221210530703, 1.6171271440858168, 5.483936253701506, 7.195617663549086, 8.32478672655973, 8.774333773907562, 16.67095113382344, 2.9196954257705414, 1.986504539039085, 1.6182433062199106, -3.190583800159435, -4.883415010943347, -6.085019650738051, -2.215413484877388, -0.19487639526677716, 6.012534284002891, 5.630135391596231, 7.229199647794514, 4.3626096340233715, -2.9261736147780244, -4.7933007324064345, -0.45052548169824236, 0.242296383610617, 0.1743782838016601, -0.6161437791959956, 0.45454994036492863, 0.7808489588220524, -0.6937843025777182, 0.9300977331600462, 4.501155903238651, 6.90838757659803, 9.112305123793067, 13.697905570350395, 14.085227074014789, 5.3770140181527335, -4.784930145553504, 0.7023521141794169, -4.145498432090106, -2.304420366608327, 2.56481655455175, 8.029558572214036, 8.064590596036842, 10.681392020931947, 14.547213316983783, 14.30592812674024, 14.15836502798719, 8.999498882939447, 6.499491927340595, 1.1078513029051216, 0.6742674164486677, 1.5849948760426211, -0.21094936393212674, 0.11519533100377492, -0.5011458877436391, 0.7031015544867701, 0.7272896311633528, 6.13530704181659, 8.755524727006462, 10.446525452216566, 11.367572971633638, 11.203034507715186, 7.938727751837812, -6.841574513903759, -4.655336194633394, -8.834321489134803, -3.324961486089858, -0.0609389712901293, 5.331993634401994, 7.646940464363621, 16.8841632274337, 18.90638795106631, 18.45814841624898, 17.09529938123525, 20.39344320493981, 14.610395188634758, 9.132575908978156, 5.90516356080958, 2.0012354714892813, 0.9225522220164895, 0.831744977886864, -0.6893936858659827, -0.6883473482021916, 0.4735300338792263, 1.2557903883675074, 4.615413018027738, 8.164703571743107, 7.033873685465282, 5.520221536240805, 5.4592371680305565, -7.7298411875502016, -15.64017967152579, -14.251957114540856, -11.34821864197704, -5.429335203626209, -3.1050528545881004, 5.765390999485693, 10.037752475322135, 14.800377834718974, 16.478925837891193, 12.683169991954887, 15.520225449876836, 16.452006602517063, 12.43042948499905, 8.812925535781826, 2.816432570578242, -0.08696969390718723, 0.19119245533261062, -0.48671423616413734, 0.5186981555951702, -0.8777056031455526, 1.2226609729077522, 0.49556478878302, 1.3289678224596948, 3.4114496522554956, -0.3346310511436225, 0.5383612954687526, -3.5815773934941575, -18.033570846403602, -20.360580674660323, -17.03335834872975, -9.961983372631776, -7.269416214672501, -4.285259142746739, 3.8360402419076713, 5.9337767425034915, 3.87774842674911, 1.650259664284418, 2.1717944901162585, 9.664598112033655, 3.9880212317656794, 1.7776542309577192, 2.9569107220185558, 0.34785379524318916, -0.06289812289267266, -0.6933753608668023, 0.6271820312211256, -0.34653133528133506, 0.12555191104313299, -0.1508173199055654, -0.6154074307677276, -0.704194671563962, -1.4116583490933077, -3.2948607127971488, -4.184336552238284, -14.357237449671452, -28.19297850724941, -22.673542046149414, -15.685717225390542, -10.06135781339572, -7.108227911239042, -6.081713149438254, -11.801667782843467, -7.536240722925192, -10.845716804967537, -6.597896970951053, -2.0658177978529753, 1.3694544268440638, -4.022495590609429, -1.8932031214449443, -2.9438122232047546, -2.706485278967939, 0.574621461872933, 0.28003240627983783, -0.41897783501284525, -0.1452727263270479, 0.15320994844020286, -0.8695666277659405, -1.0251214724682922, -1.4308420063864338, -1.7080528769216496, -0.37215500539173135, -9.089732493192146, -20.335146292456628, -30.17074199307652, -24.34356037593804, -16.850775775944232, -7.437313574934681, -8.806045479059195, -16.551776354913414, -15.372325632416871, -12.016199732027786, -6.035666432628056, -5.718439062655896, 0.03725044200509046, -5.149237474764916, -7.947114048546163, -2.746597635946639, -3.48784760268863, -5.149599923919261, -0.12388698973272627, 0.3932722947599018, -0.054009435143900886, 0.4468614006433187, 0.9493591572623941, -0.00644099281748524, -1.189168213790942, -1.672713597385208, -1.7066487909303865, -2.8393847514914254, -15.016092360976199, -19.181236604308914, -24.99487083472844, -24.879716037064362, -14.717631193265841, -7.860825797275527, -7.571936939377838, -18.801981751319733, -18.648000073664875, -4.420425944690722, -0.2788603309670162, 0.9651883985848151, 1.193866283808778, -7.919051490297295, -8.709704552833907, -0.3581625588685211, 0.17549462048859787, -2.7869813348464185, -2.888867367347994, -0.6502098787184933, 0.4614285411449073, 0.9365977209758569, -0.4593611724829578, 0.6488339078413935, -1.0756381411122933, -1.4678378027231285, -0.9998548392813227, -2.4706419805813007, -13.363801763460225, -17.263582710917667, -22.58797120768685, -15.31054977640276, -16.40435398247072, -14.97672939051214, -13.369503264754428, -13.876874632475438, -4.870586198121595, 3.8847276274354234, 3.1532068926345014, -1.9637020578783937, -2.8278352062589556, -11.95395723975255, -7.527292905517846, 0.640599904549845, 3.1808190338683464, -3.461007366271501, -4.479406057476529, -0.8196477045041176, 0.4631104418391335, 0.3542611347544211, 0.8513257336780036, -0.2701119720791231, -0.3660533108210808, 1.0437904351614982, 0.7806854521712641, 0.7034935888068499, -3.241482121732778, -11.219122093936413, -14.091936417758397, -11.872918308691963, -11.306844713574254, -14.1786214926454, -10.049470889705201, -9.133373668948375, -7.0627616648483045, -0.2795680003263163, 5.762484523503794, 4.7226486251171265, 0.39312790898401057, -3.5050824278798975, -1.2529545488845468, 0.2322857473554854, -0.5256622458428803, -3.451547514255604, -2.7404189731199367, -0.32572509523529847, 0.9544265146029765, 0.16739205684267078, 0.09835298931737357, 0.08620102565485382, 1.15575161595008, 2.602228424753883, 3.856800339571306, 7.119949073744437, 5.322152014421451, -5.286310102448445, -12.267800432733136, -9.001217964215696, -2.266177653137311, -5.024504690322834, -10.616624906900608, -15.22562685744742, -7.591054162139572, 0.8394506822291263, 4.691772024450444, 2.705378901871121, 2.1598961200169584, 1.8995355698728984, 0.07609220959152467, -1.2524077775120661, -2.7063912144714255, -1.021949358572273, -2.3751825569045413, -0.5755190380089629, -0.2354845622359451, 0.5021079317179471, 0.860306942406512, 0.9165688953044, 0.6175603894756407, 2.9280188619364074, 4.073360576808668, 5.61038634180547, 7.301926692522826, -0.7335057964199346, -6.072334309817303, -6.0655192277691325, 2.0029431061311365, -10.07936174272059, -13.018415431018886, -13.53343557476697, -5.415987181305847, 3.7273931585035154, 8.544958230121834, 2.4998812434368833, 5.712970424922854, 3.8200681709513784, 0.7593351145508347, -1.602422481314341, -0.7078653157708534, -1.5436715036104744, -1.619318226375564, -0.35154202649306254, 0.7829834382095765, -0.5305474296557637, -0.1376872709338226, -0.484441429441565, 0.91403304949075, 4.651572702402448, 7.784378704851432, 2.535830427954519, 9.127166083861335, 11.85733277784401, 0.8571532296274376, -2.250539160093706, -2.4851526333282212, -14.560451372750272, -15.225802056352036, -11.914585839280948, -4.263600988220132, -0.24933126562889524, 4.517885251266491, 3.8820182600627287, 2.1821636695634012, 4.397614788785809, 0.9843983803805755, 1.4401581952728928, -0.8143800291712471, 0.3290758872801831, 0.738576737687493, 0.7882551666377625, 0.10098353057748842, -0.6913388520613313, 0.667858002259786, -0.016769771491056906, 0.8560978752563926, 4.9654541015772455, 9.49520560482992, 6.218923163786998, 9.528552080030776, 14.9071127297101, 14.420542404345454, 6.378542710326006, -1.8132246928687858, -9.597974381005082, -12.29594151481747, -7.240681635156555, -2.0176624768171356, 1.6966300719840288, 3.793295699115734, -3.8037859473196107, -3.5801111401427845, 2.716486520967738, 3.7958501281681403, 0.7107652979841972, -1.4106914825879229, 0.7008916835386176, -0.2618960106717708, -0.15905258026685606, -0.9266515773079858, -0.6606114259396274, -0.32164775070048046, 0.21719977600910387, 2.9808995107004312, 4.89451729991108, 6.631078426675937, 5.2739659774940915, 5.97606338911435, 6.4975765329783615, 8.30082813197802, 3.44047332481724, 0.0762145322062622, -5.241852491430815, -8.00396492940036, -1.5627163826187833, 3.508260558762386, 1.359915090207822, -2.2540928440940795, -4.075559512405537, 3.7404285780158166, 5.948699827221077, 2.7483653655513565, 2.405653704099461, 2.1334198686498524, 1.2033050499847082, 0.1904961753794343, -0.5477848679888626, 0.7839980927781118, 0.04693445980539224, 0.8215342421439975, -0.2517761392706049, 0.983486476988631, 4.6633262910780635, 5.798577103756023, 9.235778953407955, 7.215532514498838, 7.028735346033309, 7.201842490682884, 5.797147896023975, 4.505312846521928, 7.201186444679541, 10.233915608595415, 15.265703169092383, 8.399718324273973, -1.5026404809362657, 0.4490822138554791, 1.501642384495415, 2.2658124636107453, 2.1544630917011833, -1.623008384507954, -0.6113359269155001, 0.7905252313391831, 1.6971874507711355, 0.6549112135820149, -0.8688263881032487, 0.4538250519842417, -0.5608183921338445, 0.8275869170746998, -0.7493158904346322, 0.8225492372220146, 1.2550541889590705, 4.266035475284236, 5.198866473991756, 3.8841734809190838, 5.880393148890527, 7.495127760703497, 9.346264008828648, 6.6510760837919305, 6.705274627976763, 15.369320762255697, 14.087145120366694, 9.425869004386847, 1.046080988980989, 1.3332645122706137, 4.580664371892173, 2.2086976230687316, 0.5327331751803317, -0.9324541460888373, 0.505213902376047, -0.6767653360635955, -0.08758614074404317, 0.017106656644707563, -0.09395890270425555, -0.9735179233821201, -0.14859155054785278, -0.10223651101383102, 0.876047399625445, -0.13522845547638715, 1.9939625248830295, 1.6647057856492982, 2.7481140021314325, 2.5049074431653557, 2.3292660315571703, 1.151308625295059, -2.7411115276700797, -4.344158420953319, 3.7012636663954006, 13.141229972890628, 12.347426486262682, 10.152063255387754, 5.497766421544736, 0.9416567830274379, -0.8432390883535188, -0.22485970804684563, -0.10777967459827628, -0.5200590457145366, 0.37331465673877984, 0.7876775830130277, -0.4667701616045975, -0.4868256563386356, 0.23989053031037488, 0.8668533595336159, -0.4248302958709447, -0.25221401180683967, -0.9965895390589243, -0.6443968745073523, 0.539060059672619, -0.5236915341552232, 0.42980966538756554, -0.3089763624963199, -0.07354101950856322, -1.0010857698114515, 0.6552535097846707, -0.4334830584357293, 0.358112710922724, 2.5739444924225743, 0.9951057075788218, 3.827584310271292, 2.1646774717941217, -0.8276882682463438, 0.40157247178327893, 2.033006229728705, -1.1949951805238812, 0.3579679172542801, 0.15543044236592093, 0.39596261832648416, 0.2606383593816292, 0.46287694630486764, 0.7121980041541045, -0.20449261878176128, -0.9125375063169978, -0.31652413377522226, 0.22549158000569713, -0.05075647311882103, -0.7823907871894549, 0.2400439779797138, 0.04918322400404867, -1.4074849960912441, 0.7028019627933848, 0.7998700947534431, -0.3882777239430698, -1.4669091742592177, -1.2014341123338725, 1.5142215148197582, 5.137409055002867, 3.6170023843174834, 0.39382132423999777, 0.670665644830849, 1.552319415642995, 1.6004587317746188, 1.0031887213633408, -0.4874061624106529, -0.586596345661017, -0.9977688367198753, 0.8357112427663625, 0.4608664265004654, 0.9780143507036332, 0.36029252199270334, 0.466583282528537, -0.3622741933347915, -0.3759161640901534, 0.7525532074125154, -0.09345570010347037, -0.580709756422038, 0.32520465317817937, 0.35390355009056357, -0.93533530505247, -0.21721219257598717, -0.08064319158348934, -0.3571325138324401, 0.6238073401971462, 0.1963872441321441, -0.16942157752791948, 0.5658947737436588, -0.35910429993397297, 0.6966446264644607, 0.10887348987466473, -0.46045366038299984, 0.2347493861029459, 0.08993098071068872, -0.7825839510670058, 0.680486593121675, 0.07218202214036173, 0.7117716491040342, 0.8960642385452862, 0.5555842641452786]/-2.2844868984476676
0,4:[0.13563916210966287, 0.2693697128151522, -0.9363443220802048, -0.5437097585019042, 0.32649093456988787, 0.35912284408314665, 0.2673267359639502, 0.6736645428806207, -0.773266331379534, 0.0561096405190169, 0.5884405567572955, -0.5799311613941041, -0.9357091624613632, 0.6584252069137679, -0.7382322041937341, 0.8199404007046838, 0.17113713966976185, -0.5278879826751812, 0.49902120162694374, 0.9208718900406851, -0.3949983830920911, -0.08418527335127979, 0.6915088392721522, -0.2619686415344993, -0.28496200300659336, -0.6915013260191045, -0.8658311385790893, -0.95565283260606, 0.3983022714085147, 0.06986223800319791, 0.1734088038997943, -0.39725142595318164, -0.3593471299165778, -0.7266690305379048, 0.29197653300856774, 0.17113827889057232, 0.14591464746513044, 0.9869740887611896, -0.25652753486853896, -0.054839867632756535, -0.30891176302478596, -0.37813148190529955, -0.1432706834067136, -0.42250300676501473, 0.6665406228736808, 0.07126975628775344, 0.8005866492813027, -0.6561239374791908, 0.35092376547581194, 0.17752001400191647, -0.1381530921647972, 0.7725100745325979, -0.47648627222720297, 0.6308122223485828, -0.2888835586606697, -0.1481700699937203, -0.2763348075716081, -0.3285261380538278, -0.6232039218518748, 0.05512137812216111, 0.35907187947399666, 0.8575417997259236, 0.8392322403520852, -0.36381493474979426, -0.7882153000756054, -0.8557227689002621, 0.5362557416550292, -0.6421369097762062, 1.1432515382625406, -0.7952444618067588, 0.35182559644305156, 0.6885317821500792, -0.27236458568793087, 0.4670377653973069, -0.38263880793916205, -0.34069328671221705, -0.07500948201752158, -0.13608700427093964, -0.606020394782454, -0.7840894568236756, -0.9761967831234928, 0.9096372619025144, 0.8000850464389151, -0.9701339025599709, -0.25061318538682564, 0.4959863925397092, -0.7170718046967437, -0.9553220678454155, -0.39714238735068097, -0.8176678593898479, -0.07832862238480116, -0.41866075616311693, 0.8801674960109119, 0.6821915202560016, -0.7590473819041325, 0.12239491151058926, -0.22273991655418413, 0.5651280222212974, -0.1570101938850928, -0.34157413230067346, -1.0153718343634865, -0.5738050399417387, -0.1714535303743158, 0.3405074743888651, 0.5279480720742883, -0.13730259186759053, -0.8091664058817665, -0.5031283828197398, 0.18595734562658797, 0.0816133691172385, -0.2038096209669367, -0.317468786871985, 0.695423397391705, 0.15915506769553178, 0.07956509292614222, -0.7340134740295897, -0.9205102498577433, 0.9963775961134362, -0.6290920719022836, 0.8850445079143389, -0.047930256597975604, -0.2801868552109618, -0.8033184830842338, -0.48020942385681714, -0.6087249347128786, 0.955519929749719, 0.19032016644189023, -0.34423679003301977, 1.003641656145816, 0.41663181635462193, 0.02756286498239188, -0.3569497209619846, -0.3804880266091783, 0.8307659758015297, 0.0933878076464681, 0.3162884285255055, -0.20355791027090325, 0.02200054562500114, -0.8202170286051471, 0.3890339251430077, -0.9625038941694324, 0.968361643173462, -0.7733073271979469, 0.7392585292046335, -0.5452825214780552, -0.7616644464402748, -0.7357347723189054, 0.5202626980586436, -0.1517570630095085, -0.6923612843798195, -0.04966948512101694, 0.826620992715457, 0.5173918162689153, 0.23890503017622544, 0.7005281201668171, -0.22192130013902722, -0.38973410770661054, 0.3375650073196458, 0.2178067362399662, -0.3376455118882663, 0.20040981317370357, -0.129988573390887, 0.9628271946165774, -0.009684733016485468, 0.9276919080167095, 0.6437642795153488, -0.20405852619919165, -0.8905030532557334, -0.8132497745113518, 0.8714180971196728, 0.47436737897648945, -0.3985985361310351, 0.3608218871540812, -0.8675063788342461, 0.20964804124924563, -0.801578836459675, 0.5179505501352244, 0.18490050790970664, 0.11452156952574769, 1.0096825167530767, -0.421672002660921, -0.06183720202271877, -0.3756243234512171, -0.7055855577731394, -0.018262513687143118, 1.053898567363986, -0.9200803177776218, 0.7190838693549438, -0.14715515100905416, 0.4276414846557246, -0.47528695855958975, 0.31367631677991326, 0.3204460664211629, -0.8769846819837169, 0.6840284570203189, -0.8442339293097745, -0.4362127491658945, 0.594215566909012, -0.11001699181513537, -0.9416853256859627, 0.5903598349159305, 0.8585608539263634, 0.6905004502267739, -0.04380262577627581, -0.23210784568793344, -0.4457559130159279, 0.9018867927044258, -0.07281631483204214, 0.7514039154783718, 0.5539223721975322, 0.9242215676749542, -0.19020129951785095, 0.5550039220659446, -0.6184440447414412, -0.11386351580906323, -0.6135350702426231, 0.8822255807692967, 0.7933810733302759, -0.6833835857681606, -0.0035012354689631414, -0.43619106978880173, -0.3714774670667477, -0.6668904252881817, 0.9127741479169516, 0.09148731797457219, -0.054463834875621765, -0.07780594275096657, -0.8890005266028428, 0.9765539023834461, 0.7151754115215799, -0.6308971392851593, -0.7095207652126565, -0.25616253902562147, -0.47798316724156487, -0.07831953554888603, 1.0958912286116147, 0.05324595054948716, 0.37862812900836523, 0.404985301755975, 0.6350200041279574, 0.3593129185004, 0.9742790958206861, 0.9806900026918142, 1.0099398507286035, 0.19238267990000305, 0.4740494514723538, 0.5092248804159591, -0.19513186668041266, -0.8094906809792344, 0.6476132345199495, 0.035046652283533694, -0.11560199767418848, -0.43542596601365874, 0.5252680063320827, 0.17185627191304018, 0.044073173655629704, -0.6958939538898516, -0.050966433798342564, -0.928243812708004, -0.021859088388260874, 0.4600568193779575, 1.072519382478609, 0.9617035349900481, 0.1945929894970361, 0.5804641363752978, 0.3103937944819916, -0.0957763376769637, 1.1068693886817893, 0.7246353887509026, 0.2535891082091513, 1.1232050768452233, 0.5747889382333712, 0.6509781344394548, 0.584205085210667, 0.710704087018606, -0.33320921011924465, -0.017467664358059097, 0.5742430824386537, 0.35234558966646723, 0.9037381179078494, -0.20817800886012872, -0.7896238197551559, -0.0013109858415312208, -0.4304145715132355, 0.616347424867493, -0.41424879180562485, 0.8214896834975259, 0.2896960171458577, -0.5471150388873182, -0.5272720785712293, 0.8853299648049582, -0.17081710293353447, 0.5098107425525937, -0.7269761029495188, 0.46199370514059457, 0.7680303195587994, 0.136331832111803, -0.13430116504881418, 0.06570296072930046, 0.48615175329636096, -0.08888549779098791, 0.01896454293224099, 0.3566009370764919, 0.19037110874444138, 0.17090707595509932, -0.6844859947978936, -0.1630153598245595, 0.41981216977339925, -0.9928512262118112, 0.9691874980052376, 0.31399446458588204, 0.8336305513820418, -0.7955589439739937, -0.68200237706296, 0.4902866033011443, 0.3733079247428808, 0.33818882781897225, -0.25310087453395297, 0.08621138651377741, 0.359863979389743, 0.2643885191090568, 0.4930177655641448, 0.441020362481212, 0.5031503716047573, -0.5412777141004589, -0.29150270753520696, -0.4578468312326335, 0.2042120231831589, 0.4803696348201149, 0.7047755465113401, -0.049897711678966956, 0.5844798368148781, 0.5622672054242374, 0.718357332863244, -0.06886261932287664, 0.5658122883225725, 0.8123498093768879, -0.9507236128089698, 0.026336559512280096, -0.7440882333298219, -0.5777989349843562, 0.7348077290877082, 0.952536605275095, -0.9514835284896271, -0.27397123810143276, -0.04636580845640253, 1.1088939727715472, -0.37702680493938895, -0.5143941768684955, -0.9488271046316792, -0.8530705096417003, -0.16251098259681485, -0.5731336236264429, -0.010598349655558626, 1.005203549882703, 0.2503161867760906, 0.9585379023421341, -0.5610254492725127, -0.8148179499638614, -0.3570899903988589, -0.6277078439660042, -0.15434870918829355, 0.0441060838479232, 0.04046955025632348, 0.5551050864726195, -0.8390485304983092, 0.17622802854012642, -0.7483120579369272, 0.5123824284867788, 0.37773490208773464, -0.08607560232608202, 0.27868023047664575, 0.6373039726238192, -0.1649978179537029, 0.9180483995201119, 0.30729528161608094, 0.31586823005917514, 0.5359504169427208, 0.5569569105152082, -0.24884667907939859, 0.4217817031022003, 0.007592868074155191, 0.9592692242123237, -0.5676959365056657, 0.005866428380111259, -0.24997602359675963, -0.28127104791915586, 0.569428204055391, 0.27705226016146317, -0.3521835422047739, -0.22408890329946485, -0.15801511467959628, 0.2458049490959766, 0.1926572875491986, 0.7698416363962315, -0.8080816525814343, -0.3478233987308378, -0.9077640886630249, 0.6550833434662404, -0.15700975646804136, 1.0466296068296734, -0.02010141049180735, -0.6766129050314992, 0.4940929917231559, -0.16519368113815597, 0.4079115555944682, 0.6806789882406751, -0.7331899437925719, -0.18448812542396445, 0.1324897682876512, -0.18744381696627582, 0.05290143450288271, -0.5717954752691606, 0.007336821096710935, 0.19365858762740504, 0.23492638796428458, -0.9097370426819418, -0.08968894824114845, -0.4004376290162566, -0.8819916576966194, 0.7925686088479613, -0.02349987850735464, -0.6909759141394063, -0.45271485729129535, -0.6372502750866614, -0.3948985759848213, 0.7002756500720625, -0.6160011856980313, -0.06555550172511626, 0.24513653335508806, 0.6010290181004687, 0.07937179474322713, -0.3368087126753491, -0.37560117291958167, 0.9425879746871466, -0.051821952579663946, -0.08042147570981724, -0.13019657797183357, 0.6426528441961196, 0.8375647774706954, -0.6230572784498561, -0.31319351102908694, 0.5531737896510738, 0.11334879096698547, -0.7932083117623915, -0.668488531102605, -0.518645248142226, -0.9858466159855989, -0.5251338907053489, 0.9865629184771396, 0.22553670023260083, 0.46435792829591477, -0.3497196344506863, -0.28535738479206324, 0.2528446494067024, 0.7818523156528057, 0.8867212292731688, -0.10870274077760905, 0.5759478285041911, -0.5464155647302221, 1.1043147498289343, 0.3058267819694226, 0.9522315993586401, 0.2798619260060156, 0.6951449332927329, -0.6890896324656131, -0.6012085417868341, -0.4518839249815898, 0.28006259914804493, 0.7634820746313509, -0.506738534548775, -0.9387770727777821, -0.21222329539456958, 0.08510717523492649, 0.9660800299114036, 0.8169269522861434, -0.7373836607725242, -0.5853378520137934, 0.822446991090965, -0.6052470749054162, -0.6975650044145411, -0.351090046708255, 0.9095211277764363, 0.4312542093039089, 0.8713334233348753, 0.48210604318731054, -0.26000188554713566, -0.2416515761902644, 0.5493539235340735, -0.20158848454216838, 0.9189524636131746, -0.22599618316068168, -0.5317408828614318, 1.1131352191810546, -0.14920184757028157, -0.42558037883600675, 0.7225355916691473, 0.6881390344176437, -0.6539994807662219, -0.951511440988288, -0.1750262387219519, -0.3221016713474609, -0.7368130542411758, 0.8255285653978465, 0.8031612707061739, 0.9438589423444368, -0.5561417570421634, 0.9968114703631241, -0.7749092740798472, -0.854930783413321, 0.49675708329490526, 0.21936326523120275, -0.026891943388360262, 0.23765894675701113, -0.6885170548219196, 1.1370897339093486, -0.13450690480164806, -0.1688570587812382, 0.13109807507802296, 0.09420490291877162, -0.5235901455045506, 0.8611094989563847, -0.497546822992281, 1.0953880913502132, 0.7472417843231223, -0.9258443478589686, 0.5620880040655383, -0.37310841026247615, 0.8857422877683084, 0.45182894106454297, -0.5180641016797268, 0.33105754903840523, 0.4023451284541113, 0.8068630102018524, 0.7563281187580996, -0.5707899801028172, -0.954740952898793, 0.8154178342572694, 0.36108212532789646, -0.13968773349259897, -0.0942076520662029, 0.18070203106512805, -0.5700931111121094, 0.3877062363310978, -0.027372034164859702, 0.477430908214303, 0.5362189640411688, 0.2128174488935178, 0.014584224948583198, 0.23198804209148546, -0.6606177832901382, 0.556761271159047, 0.8661380923721641, -0.2158446909443584, 0.701488782294588, -0.2548553498530711, 0.7675665943805101, -0.9798557858640524, -0.14579443530709396, 0.6740068818592809, -0.6816029960367695, 0.9179391573827401, -0.42710725213143336, -0.7866593181792159, 0.530052907817287, 0.4977315071846018, -0.36654750021589544, 0.5657404539318989, -0.7281979603665061, -0.5304464942322639, 1.0541805088808496, -0.609830130682536, -0.6180001976065168, -0.43696155089330285, 0.23595705575402307, 0.866896210029103, 0.3389072432387223, 0.3685288700390604, 0.4158219727683159, 0.18704917379479633, 0.39412147582858736, 1.0371207203606954, -0.7712469539456711, -0.8121112250154441, 0.982263777533179, 0.6468376147113553, 0.995925862599961, 0.19974527127958708, 0.0917025863903731, 0.4928222968597481, 0.9938326994227125, 0.28597753974269735, -0.20222035029553675, 0.9642199604985827, -0.6881053192454131, 0.09355256599147858, 0.11125103370961172, 0.6418444073158406, 0.00727466224354861, -0.5966023889288528, 0.5397090361850526, 0.23653829531961654, 0.48166274374540596, 0.7191079500273745, 1.0888725330421754, 0.6094104151084373, -0.33498540716314884, -0.13420732587951126, 0.28007088085166065, -0.7319807968225298, 0.7687829221860898, 0.054537491528959904, 0.5994291502476938, -0.2596070058285289, 0.7188439472532289, 0.34495746109088876, 0.7906842726481489, -0.6045740353597415, 0.383672132325174, 0.3179697905770138, -0.11547657778326807, -0.7634590224493112, -0.7633965576656013, -0.6331972168924517, 0.22741991882481416, 0.3492306949019556, 0.5868722562671237, -0.15762607414078433, -0.05995922209763888, 0.5176865202907386, 0.9065491710101167, -0.05781663806422466, -0.5132438447862083, 0.42718097582346837, 0.280017102658785, -0.9677519714683278, -0.4272354739769855, 0.641486536133223, 0.9416001709313936, -0.7265753713089643, 0.7008757425680455, -0.7050804351874483, 0.09316585879760726, -0.18511500101177814, -0.6510293398436511, 0.028535916565271133, -0.9754691547456928, 0.4639634445878381, -0.07418703327255509, 0.46178071709882784, 0.3245350103554087, -0.8064369727403184, 0.4316404539462929, -0.07659584731715811, 0.38138404255772573, -0.31189273432707615, 0.7536360853197177, 0.868049026286599, 0.8207231801197067, 0.1781834263636623, -0.6660947515039677, 0.6204339117193025, 0.3141966161850486, 0.3341562588617181, 0.7244233506708205, 0.42283690567481663, -0.11981450942219594, 0.983557647164813, -0.5871946230298429, 0.07478209392821074, 0.5633083247701578, -0.9710614877057779, 0.5648760296315707, -0.76749226969417, 0.4505022795924758, -0.6193103232899994, -0.9710063849001638, -0.22415003905990008, 0.1708647301457065, -0.4721196041974249, 0.0016188255136107513, 0.4037292993205797, 0.7819511169608637, 0.9644528327846073, 0.6406947923959031, -0.4999074692267981, 0.7363646590579536, -0.4210274820680819, 1.104587940082324, -0.24778051290240377, 0.17484168342512427, 0.6631188353642071, 0.038536603388624135, 0.21810494855188473, -0.6305462945780369, 0.21384306847534582, -0.4460821279773497, -0.9932246774779611, -0.6154208021339642, -0.02902653940168931, -0.2969438818145629, -0.39883938379236183, -0.6302099925368496, 0.24925857426881834, -0.20982347391298672, -0.9724881247220811, 0.5128340011734285, 0.20916815882520054, -0.7177253488662094, 0.8104686639678473, 0.12567877171244698, 0.9606001450159266, -0.9840325219593071, -0.1810361748474571, -0.7525362901386123, -0.5543270807405674, -0.42108051198669183, -0.9107202016824234, 0.2726408409318333, 0.6647100935696344, 0.20286578960991644, 0.39090692472055155, 0.791991704083783, 0.3949751607169283, -0.7561504071116877, -0.37209388606912386, 0.44200331199718046, -0.1663744601596182, 0.6942657803828418, 0.41394702683095574, 0.16320474617072023, 0.405621200774465, -0.907320244780416, -0.6202041562204528, -0.12889423874427358, 0.2958595854559805, -0.5308018625615711, 0.9087212738342275, 0.6640122525128259, -0.5370127841950074, -0.19026006522263558, -0.3282581978085147, 0.41567709916880674, 0.9329107222651228, 1.0019487635904853, -0.4338675489177792, 0.37809797945464124, 0.015057947079980904, -0.45487967923648975, 0.576217785919463, -0.4675401223971233, -0.641563497160048, -0.33064464636610236, -0.22549009425378763, 0.619457073596587, -0.4688849138013689, 0.18510205353589715, -0.8624261605884918, -0.5033672848055797, -0.7229448969782775, 0.20573935028705925, 0.5914760797190861, 0.44730382237047145, 0.7723376577887691, -0.9927289318147549, 0.44164942744028746, 0.5153227876279234, -0.5430139255790869, -0.7981697826823634, 0.6724476864407829, 0.07234334364777338, -0.6393100066575214, 0.4375743732323875, 0.2837605312963722, 0.254126260751663, 0.012932660772357968, -0.9558152005853118, -0.5860776851367141, -0.7501305456047017, 0.7623987283895983, -0.756478032718003, -0.31021727916865593, 0.39613241584106085, 0.11952363097800611]/1.7368174632681668
0,5:[0.5192301572956273, 0.9089160762390374, 0.9457532258077468, 0.8406314471838259, 0.6165130109024826, -0.3236937238437607, 0.22122355741625976, 0.7016067930637686, -0.3665622487388054, 0.48220807535664667, 0.29521281064035887, -0.4690311477059568, -0.030552861667729303, -0.9392955821845963, -0.21046003798079127, 0.9553470074505368, 0.899363199306553, -0.961282504650885, 0.8750544631359947, 0.7827936957286998, 0.5154984080055822, 0.2884308751860538, -0.8895246323313162, -0.2915559776405636, 0.062089032407777855, 0.9368427050644197, 0.6051121303916198, 0.6560561429154785, -0.9410588388481613, 0.11545044270159588, 0.338098732231239, 0.0038701267036891362, -0.43680905954385074, 0.11587277315132366, -0.7413801730752442, 0.3270687720397958, 0.8934215111944287, -0.39075961310632096, -0.35019355312379863, 0.05192050289329032, 0.24486695266870825, -0.8187177672451658, -0.3888990236911104, 0.8953337300361943, 0.9729681389744365, -0.9771196705044878, 0.19263359482496117, -0.07668083212488469, -0.8208665467451123, 0.5595944699477102, 0.07700338705910781, -0.8435489638284523, 0.3938425435867903, -0.6052710222597013, -0.8477786377467134, 0.19401210713997186, 0.6037360306968909, 0.3111521694594328, -0.9937369305650432, 0.35947850111763535, -0.9659434556656912, -0.4927295282497381, 0.8136359603228951, 0.904503863337296, -0.6707251550646947, -0.30011006326225015, 0.1579074777974226, 0.19355877352091855, 0.8089001719109954, -0.3242382431111207, 1.3314769660048138, -0.3811522025734938, -0.09180804368797113, -2.319437473260081, -1.8230668564140693, -0.6705984223977074, -0.021788094789881998, -0.8081379388080526, 0.5287006511737358, 0.8164354985941558, -0.8080771741608372, -0.47390514416697926, -0.21578139965889798, 0.6690667075564098, 0.7088192738132377, 0.26750775386873227, 0.7391791094637539, 0.9274866579977652, -0.9346689749796027, 0.4879786936627867, 0.2408531811957421, 0.8964549656583668, 0.2815720505382097, -0.618974223186515, 0.15286529032832324, -0.2219062847492828, -2.7131927966330855, 3.571115361000839, 7.05603032852568, 3.5374957958849613, -0.053710416157205405, -2.238699303659957, -4.249487712519424, -1.4199043733435779, 2.5822857654621734, -0.025517142324759264, -0.7322567043183874, -0.808659975337561, 0.8383841159678751, 0.8516853452325814, -0.9160325527300419, -0.9378868317430458, 0.27875040001065865, 0.3889941979640741, 0.7548092685410772, -0.45214893991604066, -0.7433469082393888, 0.18889013736964066, -0.24030737593063148, 1.3324246714365213, 1.0165624253370125, 1.6264594755237167, 6.246227570513041, 3.2973896116869548, 0.7118391518553906, 3.8234376978533016, 9.737844169352432, 4.7638753334926776, 3.5714906717069854, -6.371340178052511, -6.074446586196932, -4.094030133581508, 2.4899732894579074, -1.6359741752982302, -2.5060452551237007, -2.5270323562542085, -0.9851693425541909, -0.6298012627247686, -0.45474563113575, 0.5603083062307697, -0.9164184579854924, 0.5168644352956793, 0.8924406641103381, 0.7428210787100606, -0.18893484725139803, -0.21838321030861696, 1.2688502811766427, 1.4658726154072208, 3.9062383648258607, 2.2493106107983043, 5.720494561992174, 6.326914263634581, 6.3960114836176425, 5.721820991423202, 11.790213388290134, 8.273610078480209, 9.559484933056366, 4.084705312932232, 1.5476887170240434, -1.2295644526625442, 0.8603296195607278, -4.16617855725732, -4.711475690178803, -4.686841300449334, -1.1014803172963739, -1.3489464429024924, 0.907012922619961, 0.4009191136304348, -0.06106215564692796, 0.3846899399225072, -0.09772165041345963, 0.9381730338980543, 1.1475426412544574, -1.4109561809977271, 0.8473141514326074, 5.334386683685916, 6.0707778670075685, 3.1326215097973082, 6.34770641311227, 7.859921366466604, 9.861424365950368, 11.52723107859646, 11.219898334253013, 8.920266932209115, 7.010329530390976, 9.43970528068868, 8.685880558396443, 7.447112552690998, 6.634666172933545, 1.9861133320909787, -3.8230659851968105, -4.743238323630705, -3.797272401731126, -1.532078134594435, -0.4357890260204389, 0.523156839585903, -0.2966151383601769, 0.05807405115700174, 0.18918194059598853, 0.37160762353231885, 0.4654783939950763, -1.8812692098743093, -0.4745053230430856, 3.966150022596477, 5.969038432441339, 6.1563935493062845, 9.05107663224969, 8.610054726238046, 10.34441071025438, 6.821737851264178, 3.954191934717544, 1.9549310534070443, 1.1057933039810155, 8.869322699090496, 10.17610624137121, 12.551644903693997, 9.582963821725624, 6.975648600468037, -0.14086857103206263, -4.429941799077374, -4.01309198058038, -3.0617922867841947, 0.5060331534674779, 0.30774082958968785, -0.93903700100893, -0.03136635083861823, 0.27688507310954635, 0.01076408786585792, -0.3896148185810438, -1.1060168228544964, 0.3880132266147584, 2.7078867299524068, 3.5236372643206804, 2.035392873410119, 3.7227433684280196, 5.934788343262808, 2.2914633951238033, 1.2392031962958023, 0.4657841064108588, 2.1699045694805017, 9.390777619053303, 13.383682957956973, 16.41956296374027, 16.466261273818997, 9.657156082703237, 2.9316872368552556, -1.4532122640277312, -6.549408326392571, -5.783143903612229, -3.9538331989106283, 0.6615336394040972, -0.7374371822212051, 0.2292276992286414, 0.3821258225401126, -0.898790353930611, 0.47422504038380253, 0.858387052297668, 0.9450911663902096, 1.7314859859023126, -1.1795483771196338, -3.323322760778971, 1.1870559937909557, 3.5554351729268086, 3.964099153771444, -1.1320492668081774, 0.8064544829659263, 1.0840467929779856, 6.834832594284387, 14.696190028169527, 13.332624493623111, 17.452177384834673, 15.506863272080741, 6.116080737594185, 3.3924397509545727, 2.8766511995748973, -3.129758409187612, -3.274855207189632, -2.6473595943862485, 1.3724747239426527, 0.9149176265466276, -0.768777896685149, -0.5407346514969579, 0.10985674754705858, 1.5138467168765828, 0.7302926889655122, 0.4649086451168117, -1.1971348781997344, 0.026952558018767513, -4.670655520505426, -2.870990318720259, 5.7297528763406556, 7.048327168138685, 1.5321895215936148, -2.983002460968862, -3.082489301463336, 4.7528024286111545, 10.087896647179667, 10.530812391608594, 12.044288474809543, 14.0304050576163, 9.322671351396734, 9.595157919538966, 6.148180476367445, 0.9431447134262178, -0.7103814703564157, -0.8944933482380051, 0.9661256680704392, -0.8527818911747449, -0.5407800011630779, -0.956746241298546, -0.13108577475691016, 3.322501298243532, 3.886194817119336, -0.07607530105216939, -5.28951742283923, -2.1122673199489412, -4.335188729715778, -4.806080094243113, 0.5148456897814048, 0.3882488782734621, -1.1978722645282667, -3.1498602291422704, -1.127892536748248, 5.166484218653619, 6.321532307307667, 7.058693762526909, 5.65269689958169, 10.324512485169924, 12.96741491747846, 9.72344249905247, 3.628529379829045, 0.5788822778748781, 1.643971299753926, -0.6463934384703071, 0.5149801231045502, -0.5647970850311029, -0.2616954903260893, 0.16729180126836943, -0.6319175278795656, 1.3834286530528943, 1.8563597812425765, -3.04138381934785, -7.53684075743493, -3.663613540813827, -9.900921135963493, -12.030379394445479, -9.594060863290052, -7.255053862047618, -8.795249199166278, -3.512741771107582, -3.799218531056503, -1.5433369962915027, 0.29632389002328385, 0.8947309302260537, 3.0786113397040418, 6.2610240717118035, 3.1983831004498717, 0.13892399341086542, -2.9136321002945227, -3.139482190074974, -2.7414473240209425, -1.857527966699916, -0.21501506176717466, 0.5631678874766881, 0.7978694385364131, -0.21369639055103137, -0.2038686866669439, -0.7391527828467997, -0.47939099340633723, -6.547943562950825, -9.372067767416409, -8.079818435205125, -12.441722751745255, -20.565131311476957, -16.1892832924193, -10.37987277383444, -12.448806884780646, -6.963239239505721, -4.918160724448375, -1.973261170038541, -7.444971368557391, -5.384789396329699, 4.399183044870372, 6.402794160887829, 3.5056921170661695, 2.1835566337844243, 1.8022002366238994, -5.53733672606643, -7.0997721941234, -2.132649097498532, 0.017532135210668237, 0.5633768296539037, -0.9841675061569402, 0.05347766350169669, -0.3308036787482547, -0.5887338716775061, -1.6233578208692887, -6.163126405635521, -7.540663570558779, -8.493290625476016, -12.441444776504289, -17.784574478917374, -19.730195735400905, -20.40504597846717, -14.168708384431845, -9.154718291622151, -2.0080935234698143, -5.9390094645886515, -11.71683280333574, -12.489391138033026, -0.3397209300605988, -1.1670417987507697, 0.030460602978318506, -1.4656294110505987, 1.3161904722769666, 0.24217334324886264, -5.689368237613639, -2.88797740137904, 0.15504159218600788, 0.5556143439460322, -0.573008634219345, -0.46413833695744455, -0.2785752432600396, 0.8293090774834703, -0.04762101956242422, -1.9237401135841914, -6.565336716900959, -7.239214627870753, -9.02725291154609, -12.306189017065597, -16.317796418708877, -13.786178606148221, -5.317629312982825, -3.7369913676952105, -4.57162520008434, -7.999166648723891, -12.487582205113014, -5.282783993232704, -5.087734860816053, -4.666030440976691, -7.903254867086691, -1.117255929150679, -2.5132715889703605, -2.101295543448625, -4.971902539193884, -1.7157692138459548, -0.953847904463671, 0.051596696044795505, 0.9224264114500946, 0.49369938474993513, 0.7770815623797589, 0.14793042022473543, 0.5625994038038241, 2.3019576315045915, -3.1054805028869192, -4.257050244478336, -6.5758202651531175, -10.049770009655461, -8.810723074284924, -4.302924176570503, -0.8361548776464336, -0.3568199385179778, -4.064767613577644, -3.2354644684422875, -4.700970964556222, 0.2183964226769579, -0.34885664594894505, -5.6538833739375365, -12.786738372744697, -4.445069135782462, -4.560597541272388, -2.2202826872744827, -0.4980063232276934, 1.3008625406392047, -0.7560232461814221, 0.8100344843153754, -0.22398668905444974, 0.5473892321614746, 0.47461753410860874, 0.31913242087612853, 3.9565316424907535, 7.079082585601091, 5.9101887050339545, 1.625794731077276, -7.661050692541559, -8.572142393758089, -8.333358645237174, 0.129762265178133, -1.4052390131790606, -5.956610795832543, -0.8559925507914811, -2.109948011195723, -0.8921767941900535, 6.573289299289725, 2.433906730313323, -12.356825912193202, -13.176109933666686, -8.950481640377902, -4.193646809015325, -0.2870537676095802, 4.530508300698597, 1.1018627089709212, -0.404202169916399, 0.22431156477984704, 0.11906406899354138, 0.7955264436478084, -0.633358130301778, 0.76981836590526, 4.2458809690870964, 10.311640376360321, 5.203337121522747, -0.07428499049601578, 1.0788487969073757, -0.22741748045670587, -6.891507715552983, -4.115670626849348, -0.6179637146451893, -2.7711674227406036, -5.621725765977493, -4.552741908291779, 1.029681473542921, 6.332727714472905, -2.1416761581754216, -14.470685843765398, -12.051322043464223, -2.474237585815185, 3.950492570838874, 3.0177846117162557, 3.379735940475617, 1.3096026603028519, 1.2585958451830344, -0.09722924568616076, 0.9733256857666537, 0.5726330458206664, 0.652188356988396, 0.7563167995174679, 4.669563811772351, 12.310319294418903, 2.762354542509673, 1.4952257528400978, 6.5903672864487515, 8.73019533894321, 2.8962041438256194, -3.360341011836662, -5.3384166637118495, -7.9194008605059185, -11.745543630911651, -7.593967327811253, 3.7926672918010147, 3.260782307706025, -0.44433235466169857, -3.544288980976271, 0.856796377680013, 6.746872436639393, 6.293613079031113, 5.0364191657118145, 1.001841539033695, 0.41682208397520654, -0.28231601612318846, 0.9681468054709751, -0.5889267980032704, -0.6581640377870489, -0.212879430052907, 1.3789086201805025, 4.694123609564978, 9.042687268023665, 9.78768480477005, 6.909292198694396, 8.956059465930444, 10.702350958933241, 4.21862317278214, -1.5159701062278055, -10.165403689007393, -13.579522611785734, -6.905360858891736, -5.634682991747703, -2.4950529917377957, -0.458177977612343, 0.14242003326375566, 4.574522966502726, 6.761867904704472, 9.815195376358199, 5.615144862839758, 4.99192350259688, 1.378941562156335, 0.4962259834311853, -0.29026802941813096, 0.9187296305883437, -0.5718827319479631, -0.5103148816091883, 0.7164722136354338, -0.10954474804884239, 4.91157602345758, 9.089963633938256, 12.162273772064113, 14.909029496200992, 16.75425252703801, 15.168112152530485, 10.32680384388443, 3.5452455850258984, -3.115011364899574, -9.198262786127087, -10.473260449259536, -6.256365123625268, 1.1611558537468654, 2.2373758958794445, 4.852213337624285, 8.12615640633332, 7.707739211602265, 4.998730084093645, 4.362815508639957, 3.7414070126464183, 2.8657371941294856, 1.0511157277107277, -0.3852250912710049, -0.6499527259272111, 0.44305162162514344, 0.48158258892779515, 0.9842435140138732, -0.8243537512044222, 2.322059521556224, 8.436875617056996, 11.435143293907714, 14.59074352427021, 16.20270071358216, 14.848276399622277, 10.695988648269633, 8.195812417631219, 9.726255021147354, 1.209074767515709, -1.5624263327463233, 4.667977351802558, 5.5274172004746625, 4.714854327433885, 4.481330620391515, 4.446021432475453, 1.8158128683119534, 3.1229666796237754, 2.2652980576151514, 2.0834251645498783, 0.03737107512227494, 0.6909216141270497, -0.9224483187078543, 0.32313048097804864, 0.9506491387806191, -0.7114026462409178, -0.5181142145330884, 0.4426696235218394, 0.7931321828227661, 2.454004584498607, 2.387700615295551, 2.941519329042774, 5.347119625962297, 8.171210899890978, 7.7175834352451576, 6.366350947466472, 9.119078689277494, 8.103167509946925, 10.802072919873314, 14.740841142729467, 10.996293243663287, 5.730962620313875, 0.93623088614149, -0.5790030595285114, -2.7129003128639826, -1.3564377064730517, 0.3206555151991699, 0.24721395480416844, 1.1232992966551285, -0.2109734804004064, 0.8180719033612183, 0.7914185006506471, 0.3012391185503891, 0.7156113346201951, -0.2799293279043453, 0.3659684253883737, -0.027615616687985206, -0.6956954276133419, -0.5763650374035894, 1.6874104316489857, 3.000720391489516, 6.039510647625958, 5.552642605646787, 2.5558140842539867, 4.680228334100663, 7.531689920273582, 11.882037482918593, 9.573561483794677, 1.834332400776279, -2.3519391843829003, -2.9529811691012564, -2.5538973239692297, -1.95560442293305, -0.4898076477757198, 0.11031382869813966, 0.5010756780138467, -0.3882948284736107, -0.9444067051884422, 0.21680428730546297, -0.04691405091971501, -0.9610679366481494, -0.0834597868614173, 0.733069545971871, 0.8517174762135205, 0.10074083488811345, -0.4983102655806544, -1.5758573012418464, -0.6308510092251433, -0.5517606677712974, 2.6817049127033163, 1.6324608671423015, -4.877905899524326, -5.1403463817023125, -0.18794965550235532, 4.976274597510229, 1.1747190887490528, -1.4943003882048158, -0.11383198392255181, -0.6313375439853915, -0.7234174296121374, -1.537563561612549, -0.6814115996064191, 1.0883660099391792, -0.03932466215065528, -0.27938184687711204, 0.4867185103470686, -0.42139346218785034, 0.5390529515901599, 0.7471944080405992, -0.254435474014862, -0.3493185989982208, 0.22388835579994762, -0.119300429211073, -0.11451259964449902, -0.22518680151633005, -0.5714811368856911, -0.2722754705811687, 0.7026607253537173, 0.6203055485766931, 0.023148094501449168, -0.034497768725740174, 2.0820664609838464, 1.001534739320106, 2.4732699042660573, 0.6391073021547139, 0.6252298212629268, 0.6922063156472161, 0.025174996169530794, 1.082361576335852, 0.8107122192434729, -0.9299265353198831, 0.6915580754954536, -0.8664402409947151, -0.022111113573501706, 0.5969112945602155, 0.8137892841643071, -0.7331806120714961, -0.9772055712507881, 0.6060017073962349, 0.017511475348935157, -0.04483284541793542, -0.07397006467461575, 0.2086777086203943, -0.49796130219838697, 0.8813806997232533, 0.4336280274562097, -0.18691894018823074, 0.8746462107179129, 1.7429604752950132, 1.655778953962722, -0.024875924834358132, -0.9212498954945774, 0.42622482687055313, -0.30573959689432223, -0.03375976426196739, 0.19370864811677432, 0.9659936205862681, -0.2506522210958112, -0.41578258853255046, -0.9724415380333111, -0.6808117229535555, -0.7002441024118702, -0.15024555488968083, 0.7647941243236418]/-7.804269169879858
