Lh,16
0,0:[-0.7192557858946205, 0.2104430276299334, -0.4485195936689048, -0.4509026534520144, 0.12449801621754175, -0.4545594419521186, -0.16541607517276002, -0.8056795326250481, 0.4611754909587644, 0.6143844656463722, 0.9780935596791214, 0.36533661156367625, 0.10210202919160327, -0.28539771186978213, -0.7191284858511935, 0.53368364960013, 0.26233746936493474, 0.9511873136766551, 0.541368034609452, 0.6096916400299506, -0.3889940258321951, 0.8259799665712315, 0.7993246236304274, 0.21324125509033864, 0.0484327239822413, 0.7434555193816776, -0.962877805166481, 0.6332892948845925, 0.51953950882342, 0.36598085256358726, -0.6179955465642051, -0.6430791118208306, -0.20362031622851862, -0.8232711381029734, 0.7220964792999602, 0.8524223259389265, -0.44306571648429327, 0.34542798792772317, -0.31519765955652496, -0.4266220271643712, -0.04107528366127433, 0.08230712928796141, -0.9881311291174419, -1.014438140691563, -0.10651891702144793, 0.6221029089745844, 0.011493245074692014, -0.6960842167374064, -0.08191466125661279, -0.8987645180123449, -0.7876660800145029, 0.9872390944563529, 0.6209851875439287, 0.15803079009380672, 0.8659987340907269, 0.8971107138922951, 0.7134294356053545, -0.5180149224238106, -0.4545452548256479, -0.04277394345182839, -0.730759272264655, -0.17563542782993793, 0.5515920076138068, -0.11004264001267845, 0.8651818974955884, -0.7358140498214315, 0.5807469014295861, -0.9063653841176855, 0.597093124694498, 0.7130503804877898, -0.2790068080971285, -0.9967981334591935, -0.5339234292821685, -0.4450970265760565, -0.6386218851990266, -0.27872070967269086, 0.3617460070254004, -0.14114457097235328, -0.6874433439356218, 0.42894285489247985, 0.3506003375446778, 0.6268376115607904, 0.9471993350697381, 0.4312287188045554, 0.5500719490738284, 0.8709279750671184, -0.6869267740898086, 0.9208619871070556, -0.6731752587455152, 0.9436544324744782, -0.06838306458276627, -0.3600340155694433, -0.06160775080373193, -0.6500573456969138, -1.09563114817385, 0.13616663853092964, -0.4882337537696606, -0.17640193880376823, -0.7900009945769682, -0.36553076604222173, -1.5035563273631385, -1.3063607983549064, -1.358798850863745, -1.8120925833216621, -0.0004983951170384194, 0.4399138325797167, 0.5344978158907551, 0.320454609109726, 0.43844913783988554, 0.5216270375686629, -0.42953711237640035, 0.38685337714433965, 0.5421139085305664, -0.40771842539784225, -0.6538485390608607, 0.6620130271268624, -0.2307924463059306, 0.862985370037939, 0.42379830988071837, -0.49326372371474575, -1.0432182634853773, -0.21812105540696367, -1.2675976988635809, 0.763694949790431, -0.16019173713445856, 0.31748048727522804, -0.29339721086883225, -0.37701766714279056, -1.2280541692654563, -0.9848609725285132, -1.8315970398899186, -0.8128597439133194, -1.3555277794958214, 0.4440935755341172, -0.29424541004063187, 0.1293496079655846, -0.5064600507901034, 0.14514423661884873, 0.4612808421740969, 0.5656444679245021, 0.7553358496235867, 0.7583137088619212, -0.2568996268025383, 0.3163549761345197, -0.3511800624474575, -0.30742425440070725, -0.26941360585534435, -0.9552264523956393, -0.05513434470630403, -1.1113451277735986, 0.004752022637049715, -0.04347642373504379, 0.6061815023968369, -0.34056351846488975, -0.19230707976754133, -0.4525900528532852, 0.9303975466021428, -0.5886646234134552, -0.8486068531587185, -0.47369684384389993, -0.5175415975857576, 0.42477202925836754, -0.5119521705200785, 1.1735852795580193, -0.029056737615265345, 0.04386201520499505, 0.5585121457183886, 0.4114333015817101, -0.07179803924555794, -0.4932211910273542, -0.016162589444280864, -0.20284283647140322, 0.8353211242506978, -0.5009332586451043, -0.8394079544814668, -0.9451901741567617, 0.1268945835624811, 0.9723749413158652, 0.8886052022781916, 1.276969419419206, 1.0473238014218482, 0.6344560345187105, -0.284195716896942, 1.0447737856066786, 1.142520448054209, 0.02243436122191962, 0.6901023552248265, 1.646401336964465, 0.8997240772019163, 1.695464921214757, 1.2690437189261248, 1.0566140333229848, 1.0452867155612338, 0.3138511503746896, 0.5473885522159259, 0.5879110211373089, 0.4080925000832582, -0.6787606409256134, 0.9086690165484723, 0.5476663903331045, 0.4001495399545492, 0.3890205761465295, 0.4767666342381075, 0.9862054096643073, -0.03169453992366867, 1.5073908253718777, 0.7770320277131344, 0.2452113154300356, -0.45123771298139653, 1.0855540910735182, 0.010978178767364363, -0.18666200924747578, 0.533538341707434, 0.876466429424122, 1.9993941156650448, 2.3042104778633554, 1.6731709074466452, 0.8710412861595987, 1.8759897558267808, 1.5051376999824044, -0.2513919852898791, 0.550011901136752, -0.3031183068140442, -0.6386352653645802, 0.3116744244773523, -0.4761627807590561, 0.6560621737093089, -0.0880585698296706, -0.879469805208867, -0.42790369947742873, -0.13753554978369656, 0.7485332672146318, 1.3442816749127169, 0.7745288643189147, -0.06211147282976184, 0.8831287134007068, 1.0171588004898862, 0.4119732956838366, -0.5779010507476277, -0.04359764309920691, 1.8342828158280204, 2.1369760312907307, 2.658867349723149, 1.6767266664625795, 2.5422123774524685, 0.6779480490327179, 1.2967911740452944, 0.912745404475697, 1.583985241513741, -0.14742903645509778, 0.17949004820218276, 0.18837740426738178, -0.23417153336602486, -0.8022456848562985, 0.9239203017864489, -0.7444118433182341, 0.5255090915081628, 0.04088332625439666, 1.6953247107706761, 1.6858513386837202, 0.6894238757718938, 0.5560737052422408, 1.0099235237612665, 0.6647132176711309, -0.46619380826887064, -0.36049279451458704, 0.386337262331977, 0.5584038560815555, 2.757700754826674, 3.2053970142133843, 1.53352390548415, 1.4499115327193168, 0.8590602215774789, 0.5145058052881903, 0.0013212168250155577, 1.465936014554358, 0.8971635375799851, 0.24092639742954133, 0.25021512522974865, -0.5910794313848109, -0.9864800998367795, -0.029117170202621473, -0.2450830375967605, -0.05851777381667223, 0.5353599336043064, -0.49225253441950606, -0.23774146670195054, -0.2119752515646336, -1.1430988774199078, 0.35369753624489453, -1.1638656236170548, 0.33050624933097544, -0.5397692028375223, -0.940872664223055, -1.1282769569560693, 1.1420666816114573, 3.244361923613732, 1.131891155577661, 2.211697066302763, 1.2866823851796758, 1.3782401894540426, 1.9138545355859413, 1.780256523193071, -0.3450146394087543, -0.1712191943012917, -0.39284384973620234, 0.36017256285664134, 0.6023569939518336, -0.5538132084171417, 0.7571685474134322, -0.24608796670308516, -0.12102887684700891, 0.3893119740362276, 0.15753637495498504, -0.3464234674295026, 0.984637639441473, -0.31666415646502155, -0.9237298291222952, 0.381404843293111, -0.2894583335953181, -0.9787805327258577, -0.6333594129264987, 0.6200358354684412, 0.10638648033044372, 0.19041714747402652, 1.246651498928628, 0.8344866053981869, 0.39967732137066875, 1.0903516205979684, -0.10098407015143088, -0.33506134084211225, 0.11961638423678451, -1.4387606122102021, -0.8340355901819976, -0.8343261999985279, -0.614799110396648, -0.24591110884955336, -0.34775409167974275, 0.21548107098438585, 0.626009551253632, 1.1766387174465174, -0.045095763850763845, -0.6993966390923312, 0.08188502740718012, -1.2116558589449669, 0.7483944650676543, 0.9677768485464632, 0.4213086579495709, -0.30638920685635584, -1.514162693264771, -1.2133808538621293, 0.015587873138961103, -1.3104116055207171, -0.5660385450362884, 0.19164032977385784, 1.5336630367712325, 0.8790909428408913, 0.6686150290849716, -0.7368992018406849, 0.057145710799184436, 0.16452528333932823, -0.8856210997063402, -0.8265176392160488, -0.07901580810686423, 0.8793865680806436, -0.5000043924405321, -0.9435877292857944, -0.5407710457322564, 1.3029625515687866, -1.241056796624865, 0.7304441701870933, 0.18789778982748384, 0.14536786278393934, -0.4045448315422002, 0.8929467190735807, 0.1849862930105518, -0.36655728077724353, 0.8758575752270769, -0.8935324179278491, -0.4551410027853658, -0.4254234635808363, 0.7002323152013294, 0.26583012861989513, -0.24344907643764485, -0.5862622819438774, -0.2552551211833643, -0.9311533294666382, -1.4252031268442031, -1.4508578544392932, -0.468573120945609, 0.49064796386056175, 0.9688176619809293, 0.24215219847725342, 0.2515919730381409, -0.4632725754601646, -0.46318465354645705, 0.8235415537336683, 0.48238056199988394, 0.8415466264993687, 0.5881991438834039, -0.41485246060819364, -0.3843459145523963, 0.3411545685816455, -0.3277598926347611, -0.684708175185809, -0.1290733484410697, 0.8698820261038129, 0.28801822541958466, -0.20823664463494215, 0.28092436838470825, 0.9841120350940228, 0.7569844241720767, -1.4260866637344392, 0.32186019704856017, -0.9826114739963135, -0.8245471856369768, -0.9225981628941395, 0.27074412159877637, 1.0203525656344685, -0.6005253878920446, 0.9213079531419588, -0.9110667675346512, 0.9941756438967151, -0.9667213615239373, -0.18201979933231077, 0.5711785842961715, -0.632798429023011, 0.6048386883326802, -0.2217220913109329, 0.3582936250834056, -0.5995180895430391, 0.200246384534349, 1.1263662776162922, 1.3589166883280386, -0.06932809075064231, -0.5922952912377049, -0.05400982153710086, 1.0294210552384921, 0.20489433388657974, 0.47284064597447045, -1.0074299468003713, -0.28340049584526766, 0.0066345675028449055, -0.8605118806010048, 0.18466245112294594, 1.0170569526602373, 0.11950964806948575, -0.015979812201973004, -0.1949730233389777, 0.8377058237180854, 0.5175181838790921, -0.737549706785459, -0.530907927975675, 0.5160610292592439, 1.1169525162809535, 0.5157973095842086, 0.7509293815142658, -1.1999603825792993, 0.3866673407135755, 0.39198811649185933, 1.5140094959317196, 0.2226974732409037, -0.06508398131591143, -0.22135775983296438, 1.39862854895569, 1.9105234150944068, 0.8255569682465272, 0.5144526767742583, -0.8760990725202585, -0.26813993237152567, -1.2593945091221084, 0.4761110820153695, -0.15370988990940035, -0.2867141915785582, 0.3924113660348695, -0.6129518653037259, -0.7029936123252796, 0.8982000033147439, 0.24133883344925094, -0.7146475526006834, 0.9083756063361822, 0.9739520786885455, 0.3989863578730305, 0.9092951432902335, -0.12017510067851618, -0.12639453269020295, -0.35644888122345425, -0.1812881772445504, 1.1025536477731468, 0.09053266280142248, -0.7684438287618504, 0.46952239906404997, 0.45094266992309945, 0.37604970748012645, -0.6322462128007325, -0.5901010282749294, -0.8500764931867123, -0.8682872219640206, -0.093333859425277, 0.9554329472923436, -0.23767076785146976, -0.6934179972054366, 0.9838999015737904, 0.695589141749759, -0.1607302736652818, 0.0513271807088384, -0.8223579550401551, 0.15141439359690953, 0.07874368808874375, 1.2560430269779521, 1.1714253006626214, 0.9184904355327105, -0.7766222628296647, 0.37827995361222827, -1.0192405929030512, 0.08792799838684004, -0.23139924697503744, 0.07761857924883715, -0.8478056297530698, -0.09070281288134081, -0.9381751269475584, 0.021555816240101115, -0.24967510371399104, -0.6386472484384542, 0.047074473368453676, 0.3166180257149046, -0.5141336815268187, -0.21610554428008166, -0.5479444985455673, -0.7720124316175393, 0.12045985118989316, -0.04818661204957567, -0.20547359487556482, 0.16073417348750565, -0.3556298246470036, 0.9335239605337856, 0.11282438695773081, -0.31970573772568656, 2.1841163611320766, 1.1705815277592153, 0.2913153953416867, 0.5702994880476518, 0.001783909612624815, -1.9563075626952589, -1.9613724358345832, -0.8566347555669521, -1.2472922255890322, -0.7616434442625751, -0.462180365059544, -0.8687196396707687, -0.9950584191950815, -0.25105325725952576, 1.0834311689109617, 1.0504620986869817, 1.1814475040383325, 0.31626210654794784, 0.9401978058879908, 0.9315830925256519, -0.845023143432486, -0.8881491368989659, 0.31688277539384857, -0.9882916695545019, -0.12142404525519691, -0.4472056223135573, 0.9825938293435666, 0.06867879886872186, 1.1776417212276227, 0.4934108154725771, 0.13767084596132537, 0.05362330089809487, 1.488178335512176, -0.24939789577794455, -2.5400306391420133, -1.9823027381402842, -1.0991176520704722, -0.0166202815839157, -1.9263629693284559, -1.0291699426293144, -1.0250429857126448, -0.28143027052283115, 0.14506372374586768, 0.9687581607516579, 1.2937060640678895, 1.450668836751938, 0.921924173556844, -0.8833124947613057, 0.8464506274702864, 0.706700836323922, 0.48519258505416624, -0.0044916716890052305, 0.2688531900251018, -0.9033648896374381, -0.005471569557615012, 0.8582062018477216, 0.27452363612949077, 0.8899107402406582, 1.0080534761744542, 1.2827186086350704, 1.0850227889372488, -0.12068587137465842, -0.3102549807609844, -0.23736029445812504, -0.7347094634672325, -0.4962318252911742, 0.017183732000088662, -0.7034635638577126, -0.7883371885454408, 1.3206174701572975, 0.25773174192300885, 0.6767215881272367, 0.09208665549493271, 1.4512894400926024, -0.42002792844959713, 0.7167131659076736, 0.966904340157474, 0.8588962553571988, -0.9055398161441851, 0.3858694625449094, 0.15532092493329638, -0.04871012484957279, 0.7438123144938015, 0.1965841894205972, -0.42027501589837896, -0.007021082351116805, -0.2964848446260303, 0.4310271329861232, 1.6907452509094596, 1.370631509019004, 0.6430929968304387, -0.07745412593230824, 0.6862359449876037, -0.9237016942054103, -1.3446178204663422, -0.07341400711751812, 1.1226756419686361, 0.6608334551370924, 0.6447131517258795, 0.7997899235691065, 1.3684860886783188, 0.9557652941352965, 0.9404170039271452, 0.874288831068629, -0.0828463189263526, 0.17823725506594412, -0.2531944465106948, 0.24288057776535088, 0.7910063614236957, -0.2760981696896048, -0.6964081069148643, 0.37506087916545644, -0.053291751187962186, 1.0184539320814383, 1.1518667691431497, 0.32260275558126916, 1.0764636281376396, 1.823279006098292, 2.200757570121731, 1.376737252445186, 1.2766939191027014, 0.37772351342196975, 0.3951011512095618, 0.43503248036442843, 0.09679504346910042, -0.5084381049888064, 0.09113035487494046, 0.18205925799589232, -0.11623091309254475, -0.6686729592791181, -0.31633355000926694, -0.14065159409595557, -0.9824981773409827, 0.7710301727000552, 0.19226476484227417, -0.456947815968046, -0.4776123853063185, -0.9268895547451861, -0.7053139403310194, 0.25303304298978735, 0.33086758958692736, -0.7608721103799592, 0.07668628034351165, 0.3284121115418754, 0.28458712162959293, -0.3773077346738772, 1.017175345389012, 0.05358727652867629, 1.4005062586308419, 0.5448480752826439, -0.4088459984370198, -0.43878755461048563, 0.3237640818517256, -0.47767477086738186, 0.6425111618770042, -0.29987478101007364, 0.9646028003830724, -0.8031392531068499, -0.0020852887166972612, 0.7861256847753259, 0.9140063568483576, 0.8122837485245458, -0.5951847628289204, 0.7950199739643831, 0.6123051823059755, -0.1172181578694996, 0.16759179933098767, 0.1556215221425505, -0.5823540916331558, -0.04086500283144667, -0.45351896798029223, -0.38471285988283405, -0.5902617107511127, 0.5784964519209882, 0.27230857094933114, -0.01207063909136142, 0.3737697175829003, 0.3761261386131087, 0.7079530347380409, 0.6317269071485929, 0.7933184198737443, -0.39156699075580276, 0.27895787502490615, -0.10056277668870758, 1.0558453908866094, 0.44173262849345996, 0.1535234994690078, -0.5295441106345224, 0.8064342074893991, -0.6902980649034431, -0.6184449225623787, 0.28588278994695093, -0.22012805138361147, -0.8167709614870445, -0.36655052921341824, 0.8267412077427554, 0.2594697111291572, 0.28790433705279533, 0.14291541030095978, 0.016554407032395357, -0.5600996060024244, 0.17047444759309183, 0.02021434133559002, 0.3192094036778587, -0.5320008437235552, -0.9690850062063309, -0.5594419328794848, -0.6138553297403766, -0.7176866110902341, -0.5781621916692913, 0.49910940267344617, 0.7627544410797034, 0.8351274493132678, -0.43250571592139647, -0.12986578833968032, -0.3013333721699374, 0.9156066052058105, -0.1408185647805662, 0.14651747482448574, 0.6496653761443938, 0.18645922136865134, -0.7961481863926481, -0.29466623294775784, 0.12686629154629173, 0.751107364215089, -0.4518483191432071, 0.03288025509650994, -0.6439465374312225, 0.4729696710073079, 0.7254760400937647, 0.9446099211507354, -0.4879553760891723, -0.8979908416411827, -0.30283036283426096, -0.2710127097064037, -0.6108495730717607, 0.8583393156171617, -0.9307056178809505, -0.2583643412627786, -0.20903185760874043, -0.6857288369593008, 0.17439343485334713, -0.7759741141891738, -0.5976690401482765, 0.7322301772621143, -0.6059242234528557]/0.879105227836531
0,1:[0.4508238975818464, -0.6339647084644948, 0.5590545108918792, 0.084939721502435, 0.3475163318314154, 0.33540586416618456, 0.6081316605500873, -0.1515070840136974, 0.19609855784746855, 0.5183999086775648, 0.988931547499426, 0.14997479794448654, -0.2582962496086767, 0.7848722018805616, -0.740927531265442, -0.5530713139546684, 0.19497071194387505, 0.7874558183898714, 0.26124181202282126, 0.2714544006303783, 0.7228190575513367, -0.25562245398067596, -0.6214648753115508, 0.3204932538718477, -0.7500057259945634, 0.7364866381102146, -0.7483153165335439, -0.2871702425414957, 0.948177717138224, 0.5800599562328195, -0.7018564078202298, -0.7287371593951564, -0.6452264800459178, 0.568061337127532, 0.2237377108169012, -0.4872677864654759, -0.21325550968069085, 0.6021725371420793, -0.4470096842010463, -0.6219053991875462, -0.4960182949816531, -0.4258086297326777, -0.3634820434802268, 0.5830741197113062, -0.8861855357103399, -0.3489798234664379, 0.35061184407329726, 0.014046540131383898, 0.24096223441156753, 0.8577212373542161, -0.09547187808839111, -0.23229907341054057, 0.09055751219315544, 0.029812406024679605, 0.07076008427905145, -0.8948706534004023, -0.6218498076520846, -0.4196474144615203, 0.5939435509413284, -0.4184615957239559, -0.3824301237020692, 0.2604259950751704, 0.2339119868032558, 0.598527798318686, 0.3429211520416191, -1.0059281252149619, 0.09822298348915164, 0.5007637779541103, 0.4709555926893246, 0.6858691676471683, -0.7842012790218607, -0.3256980017495876, 0.8524010735235464, 0.6312595297696887, -0.44268135234109135, -0.6766658587913226, -0.18053529458136497, 0.43011753945222436, 0.3765598359763328, -0.20532255492285328, 0.20987692662028815, 0.5816837583368293, -0.439797434151747, 0.3008437366251011, -0.23892392780450633, -0.9549673353218882, 0.7346104423650326, -0.6408342401458936, -0.19977697545308407, -0.20858715493531624, 0.2786655599951343, -0.9930448987440391, 0.6437415232797239, 0.2430695614516665, 0.3843909245711691, 0.3077558030466325, -0.5416186894362413, 0.1800074763167218, -0.29222569416169336, -1.2337360743059553, -1.1694703043008816, -0.7973353913726637, -1.0543054309292728, -0.610089209328933, -0.18403153329096086, -0.337655517014313, -1.0159198002974514, -0.18727645489258923, 0.13013748196094638, -0.5417093049474409, -0.2783459241323459, -0.8811420872884379, 0.42051532841394734, -0.6117119055714498, -0.8355416200029868, 0.2578013854138325, 0.04834220159299261, -0.3510947816249484, -0.8873851318065952, -0.1798232283315853, 0.11980508366274151, 0.43432529729377667, 0.5208630228198495, -0.46096428325960087, -0.43924766442641555, -0.45415337546664264, 0.9233089073201319, 0.28433060149926576, -1.1341730164583619, -0.9722446645425831, -2.518047569649554, -2.5370913543155384, -0.4015192768473388, -0.007572899891594633, 0.5330511785381651, 0.7148606204094621, 0.9633867823204674, -0.0885486867996301, 0.11893035918073841, 0.3453207223358753, -0.9324065938254265, 0.9448435377025974, 0.5650743696485141, 0.0922673188691863, -0.9459435634284251, -0.5383935369903963, 0.47148511543161986, -0.7321345888309209, -0.8660600730730499, -0.11920151105055657, 0.26935203016711406, 0.651067862521994, 0.6788245136855736, -0.3062474008336035, 0.7713198433989201, 0.29262012760687695, 0.6633674674851316, -1.6708072296179097, -1.1907694198736758, -0.511492237248626, 0.0034214746212627477, -0.5701678301669614, 0.5797103627500598, 0.9641583180214053, -0.05567674650586891, 1.098444923006385, -0.9186841346627842, -0.20082380366977487, -0.9891046439782976, 0.7384208328683985, 0.05117159644357718, -0.35912152668832886, -0.910883862192281, 0.3131308867412153, -0.24252878664209368, -0.856233875376626, 0.773421255914163, -0.03286864451586397, 0.27042179542662026, 0.8709396900213331, 0.6821752744945007, -0.01291639096144965, 0.31965877558150946, 0.8608605043300297, 1.2572713603943075, 0.47684148107483015, -0.6826859897732813, 0.9163216110115928, 0.7193559460139799, 1.384419997521108, -0.1228218911121922, 0.45250896504916616, -0.600317148756043, 0.37949257752153226, 0.9509420654151376, 0.6059682092973936, 0.09033386556610937, 0.9274922539853172, -0.8360869884423198, -0.019384452843182975, 0.02830063654286094, 0.008657826629544329, 0.5244660264913256, 0.7263534293802109, 0.625230596211567, 0.9257614342817818, 0.9225973536101789, 0.6871502329797934, 0.7998228937909359, 0.3035640839806126, 0.9087666478865627, 0.2160404179181983, 0.3721075734044107, -0.771313570951685, 0.056278635926110286, 0.8182609122681826, 1.4332917650216486, 1.093529083571096, 0.5548895705440254, 1.571099582702519, -0.009570977873513074, 1.438995635418935, 0.4828108405932321, 0.35904122601224125, -0.6858383348552114, 0.3433779061311842, 0.021262618506594864, -0.7775099644401584, 0.4776464875322829, 0.3158690706451388, -0.7979194969548935, -0.2516238348431959, 1.1429413961449633, 0.6446435131304104, 0.30325143925177556, 1.4039629911594578, 1.2797257404105227, 1.0643225914185919, -0.26446865471532216, 0.48799197049199694, 0.5377867679097196, 1.049661452667494, 1.115930506189486, 0.5761608258813719, 0.8369092149899225, 0.792554879950981, 1.023260845589397, 0.9353661223161005, 0.07098097403747536, -0.6090340802256131, 0.3873058210402147, -0.16951757305085827, 0.1893622010124686, -0.5072841505128528, -0.9099379437538531, 0.16068560840512724, 0.13136075596179242, -0.19366012689187165, -0.26278873888090193, 0.4228227626953283, -0.1843942218841704, 0.6914233496069163, 1.0216098777451914, 1.7862636042476547, 2.153440636588486, 0.26598573315546237, 0.12132958059437464, -0.09840080197193105, 1.0759398242219473, 1.5069799616325474, 0.9271742951545368, 2.0738629339681456, 1.6337292691219722, 1.5560585097250585, 1.5573080945569246, 0.7168922986820678, 0.016763102892662734, 0.8788961478842388, 0.81526716339169, 0.13880465923262772, 0.2867529055395799, -0.11200106743132503, 0.06967661127622872, 0.624556447577216, 0.9402365714076413, -0.9230092868583265, 1.1546039979841625, 0.24361850686945902, 0.4149729755036802, 1.5519401053488389, 1.617925089407809, 1.238603881868643, 2.3750961172954903, 0.5324062692357832, 0.9420682851655411, 0.3303528191031346, 1.24801658365727, 1.1745458662091055, 1.3865394429744058, 0.84234738286716, 0.9266125904597654, 0.16085445012833677, 0.3097567926825833, -0.3032934134263927, 1.003155050497208, -0.66795984074267, 0.0189090795945438, 0.7579904077285525, -0.485971336118586, -0.9639284568636417, -0.25642799347929635, -0.8069093677117772, -0.8208396250076757, -0.26278303196527425, 0.8719840768117745, -0.14543667207081648, 0.1304532209174324, 0.43807924800529024, 1.2761947681229602, 0.7784079774890461, 0.5987231494664313, 1.4763119043132067, 0.1832973172593722, 1.4792570702951076, 0.10362448052461144, 0.5098789633185331, 0.6694921211189105, 0.7846289862312, 0.06506928988482906, 1.5208402114575001, 0.8714599589694028, -0.40155067709274134, -0.4853381939072768, -0.8174721195844594, -0.8065880658162765, -0.44516972233215035, -0.8364935352773486, -0.9479839184762959, 0.32316280888028903, 0.8466159675390652, 0.7764640224605702, 0.8427551932035664, -0.564652229056869, 0.6026768566528804, 0.26362331321081006, 1.2545785930046243, 1.4355076973960526, 0.2700874342195151, -0.3193038895270172, 0.03981728937402549, 1.2118257452171297, 1.553668406677875, 0.9871188074091521, -0.531256396225333, -0.11290624362105879, 1.107345030587219, 0.10994870294721087, 0.3828662940935023, -0.03351842082145988, 0.6904220466880444, -0.43139768478365337, 1.049279741940274, 1.0929077274525916, -0.5282450137905823, 0.6916521288677531, 0.8725390149221612, 0.22253830464264626, -0.35374725416370656, -0.19836473100743363, 0.08674169349504955, -0.623380439996649, 0.8118083624893117, -0.751711555219344, 0.6479563750761037, -0.4527017532477779, -0.11319570031106888, 0.8388288396910232, 0.8167652951935591, -0.0028089648507047082, -0.3251143064161372, 0.0012780220630539386, -0.5509952868493969, -0.18833461324036238, -0.43337364481940316, 0.6990433920106743, -0.5773725290978796, -0.3676028628238052, -0.03535806670367211, -0.8748018788414577, 1.0155613398176002, -0.8083173747466018, 0.6582028551157911, 0.8411186399044932, -0.3759373424562392, -0.8155821828316203, -0.014141571224574132, 0.8378555784335531, 0.8352174221993846, 0.1714530706310119, -0.12286146020127794, 0.1207535611169853, 0.5131941514755444, -0.45788483165522376, -0.29933857382932433, -1.370100708018367, 0.6587219846762636, -0.7896215370973994, 0.026686837321435574, -0.14121598272182653, -0.1589186446607111, 0.46487127482761575, -0.25702558334441233, -1.666795833743447, 0.09110226179323588, -0.2246018489038525, -0.6770937890448013, -0.359730395970942, 0.8605289246811395, 0.46588403189872046, -0.808884203334644, -0.39014796704455673, 0.2585126230413384, -0.30701097969468155, 1.0053015468744728, 0.8831666540008594, 0.550242892462013, 0.684117772612539, -0.4671785055970881, -0.9483491909358711, -0.7498509055122967, -1.5257452431564926, -0.9932508794009125, -0.7451924552576806, -0.2318042621835034, 0.6194280926041382, 0.3005680499902301, -1.144684785797394, 0.3225543357991096, 0.03007107861396754, -0.23669090556320152, -0.7248518245862252, -0.40674834389421455, -1.0563377277235975, -0.6130490479087559, 0.1825973044376493, 0.2177898272035441, -0.4803295183344945, 0.09907002281338834, -0.5454686113976646, 0.7598560168659085, 0.41317253394329617, -0.262322342203914, 0.6059948837926707, -0.23019908918168147, -0.2778503098154641, -0.6730846078267002, -0.808685208238436, -1.571519233260891, -1.0578741882994647, -2.0746819560072374, -0.6804479418592614, 0.006227052143854627, 1.184403576513747, 0.5573872426037726, -0.4983819373785378, 0.02861318662389453, -1.2682964791249882, -0.6069240686516498, -1.6778804970630057, -0.04761251689378532, -1.2540408411930715, 0.3893550189518406, 0.63236404005851, -0.1474861136166033, 0.1730197819758745, -0.07987716742759576, -0.8342534705576756, 0.9958276045544256, 0.2079135754265205, 0.27122720828752017, -0.2809247583214459, -1.049494090021507, 0.3632527517315362, -0.5843104426794044, -1.4973302882541197, -1.7047563285204648, -0.5112135119915154, -1.2806477733155102, -0.991726042246019, 0.8792030218845169, 0.6856856756644226, 0.7193241631359365, -0.2880168717836194, 0.10809537613084388, 0.3016276490079641, -0.9989831449987182, -0.09216258808711172, -0.9823005219917913, -0.9172157889852653, 0.06665442596885962, -0.164681199519076, -0.13822624786497176, 0.5093205531181542, 0.12843281566748344, -0.1364060973503043, 0.9290218266264241, 0.9806131022260515, -0.6089166505048506, -0.6789605800459121, 0.047364013684680815, -0.5810738986967724, -0.39008955534207446, -0.9208769184994552, -0.9374404859018145, -0.7865012005928124, -1.5976310376867642, -1.024268631896504, -0.97996642159624, -0.661286046005174, -0.2334608657126948, -0.3762549636101003, -0.6663430350861936, -1.3987553614210064, -1.3820248953653118, -0.040779743195815926, 0.8997130972444938, -0.5160953439772233, -0.19630594570712834, -0.6737162630581861, -0.21985317497413479, 0.6352036926848376, 0.31241404438680714, 0.26681419483919155, -0.48223052261610755, -0.06038729993406318, -0.6038768609437147, -0.8233138943433858, -0.1799722015304303, 0.6544134090414497, 0.8582355204035549, -0.37793061583643917, -1.0367340129546911, -0.20087976559362475, -1.5161838163028394, -1.5790372527033045, -1.391890143815972, -0.7783028567028991, -0.8978747649339558, -1.5291859379012294, -1.1211932102086575, 0.015529858863440542, -0.09338224472890372, 0.7751608822297533, -0.6107474265824094, -0.9082012616957782, -0.999013121960539, -0.47909860467921933, 0.5236855477252352, 0.36573352453793506, 0.6892284039507797, 0.8488699227724599, -0.1542580145289995, 0.25646742455179805, 0.8456670407698641, -0.8504338851071154, 0.9538839513333084, 0.4138936412395457, 0.35196136594784877, -0.637310535083387, 0.5814232694769994, -0.7732270538161009, -1.3812462096343407, -0.5570556933478122, -1.1458928641455142, -0.808485800171697, 0.09348394763797879, -0.4791818367538625, -0.21941800082366347, -0.6647696901592097, -0.09210386183720715, 0.8492473533776629, -1.0346829760308431, 0.1184062578776784, -0.24180437952091294, -0.4511853882936555, 0.08960670702933655, 0.6889732998311111, 0.7231871268059966, 0.14982120855325226, 0.7873374115158897, 0.3436803695152936, 0.1257916119514699, -0.7039156426799568, 0.10779769986458893, 0.5606161949564257, 0.043449442087624475, 0.4819738215409473, 0.5380397504549933, -0.43030343783645214, -0.7756486262673841, -0.8732011933272052, 0.23701356183985975, 1.0922073249312139, 0.8167867155420637, 1.088679264377967, 0.9792084153517661, 0.6558835820883916, 1.0696600021570657, 0.8572838440968348, -0.6021383781642811, -0.38045807012486793, 0.6084990207103924, -0.4436804750103673, -0.049533199628001574, 0.0050191176776604954, -0.9061988460902692, -0.005359506236739633, 0.07213091968637879, -0.897823238623941, -0.3133295518689941, 0.8718030505094423, -0.6251609281207517, -0.36195944283126863, 0.7223560340922932, 1.2071677236766172, -0.19060303939359421, -0.36911646890684335, -0.17582197713139966, 1.7068092435891473, 0.7662796840192903, 1.3599112855732496, 1.5432695567342523, 1.7977849624376885, 0.22532806978999181, 0.3254863320838626, -0.29010525949777693, 0.7770238498549581, -0.6203691867378366, 1.109679915220114, -0.3644742167660185, -0.5713605491789924, -0.3943634466425966, 0.3042421438927334, -0.24762619311939482, -0.7963946395723522, 0.967244089550167, -0.9457079832609274, 0.9432545775064239, -0.03752788034501928, 0.9338863333037396, 0.7558671837317884, -0.20363055554470427, 1.134294945225824, -0.03140777931850417, 1.6987035572208502, 1.4303669350282264, 0.5186470174440811, 1.4179956679353622, 1.8426144998803982, 0.36957690818759875, 1.6027686693056171, 1.0150824586678238, 1.1427074148537275, 0.9703747362321187, -0.42457523552613, 0.3941765641336569, -0.589481551998682, -0.03874973466430632, 0.6850907023572695, 0.5983977311787585, -0.14285661288808876, -0.9553479388720651, 0.6901564501110575, 0.8702321067164969, 0.3727935344403575, 0.602347827891811, -0.8661469590931855, -0.8432896277448546, -0.8607505462171232, -0.5189903755061855, 0.3011914932246513, 0.9787526429836442, 0.6729440890897145, 1.0321381808952943, -0.2871136967910885, 1.2405721620271402, 0.4438270114464552, 0.38117277011447087, 0.04901142326977679, 0.14447837535921673, 0.9826019796793252, -0.6641723439163361, -0.3750858459894552, 0.21564334265954116, 0.5345565343552141, -0.12121739538212174, -0.20924320796598792, 0.6587043345641331, 0.5391718289438825, 0.3486798955991426, -0.20645724214140637, -0.1836463783909883, -0.8236232581129509, 0.8518244570284808, 0.221043351564128, -0.7330497634134489, 0.6502242691621799, 0.9748403625429156, 0.48404149915682226, 0.9587438120025067, 0.5222388934059271, 0.4693266034685447, -0.5657304902955029, 0.1670029927319635, 0.6580149400132473, -0.6418821243235865, -0.1420200766035677, -0.6846111211951539, -0.3581706431487969, -0.5910550456302892, -0.44393397958868963, 0.9110724114373363, 0.4455555830654134, 0.2570252743413198, -0.7099057756446774, -0.8208271824151852, -0.17279652886112995, -0.3398339161655928, -0.2124885281617399, -0.11467035128042169, -0.33569323879025714, 0.39139958011251624, -0.313077832867017, -0.7988382793794901, -0.40695998769109015, -0.44956334087352434, 0.7878815257652886, 0.7889691333914722, -0.36824274827711645, -0.013152581753827646, 0.7676084042030861, 0.7614993830619924, -0.8078156152843725, -0.6617451416775347, 0.986838777187202, 0.8015302987533797, -0.5721443130308664, -0.2952509897855872, -0.9825508600886029, -0.26358549254706826, -0.9046332275845834, -0.9838078216412613, -0.756698256109074, 0.17267996343194714, -0.4009315892392671, 0.5458876682058955, 0.6019220805135823, 0.12869157172684043, 0.9866991098542996, -0.5386713820929641, -0.6935591665619971, 0.7164087111334558, 0.7893102951967252, -0.10431145901985166, 0.1918258478892158, 0.797934990707498, 0.339160702063546, 0.5151449282996188, 0.24629275602882994, 0.2498072036004384, 0.4250082756823674, 0.030034961941028965, -0.4047092445864526, 0.4257851000319132, -0.25405499143919025, -0.19871561928543424, 0.4323937004537967, -0.9805333194969588, -0.7740089059442086, 0.4525322669655816, 0.9613947596155135, 0.7132905450118556, -0.8694912840702571, -0.2930953389797988]/1.6633418457089952
0,2:[-0.9711366917298614, 0.8389500461898964, 0.5542239784022005, -0.8427738946566963, -0.10709217445249486, 0.2995368501293598, -0.5941479152054647, 0.18517486925636595, -0.8109791686096399, 0.5765690405464678, -0.02445246360265685, -0.1651139744813772, 0.8192026697001726, 0.9552081701461335, 0.07434611961221238, 0.26098892655628947, 0.07367618606697923, -0.2956696352733661, -0.6587220313525399, -0.05129425497538276, -0.3507501070926755, 0.09384276711241579, 0.670215074918129, -0.11742896091434574, 0.20399891282223015, 0.6674900874989127, -0.7398378932800387, -0.15594269783255177, -0.44979075578782424, -0.11576998578837672, 0.25359056656267986, -0.2580167995438274, 0.2551575569599731, 0.7104648773276652, 0.7714167454139385, 0.33565178232742027, 0.3712144332569659, -0.3967509388632075, 0.6496402950237732, 0.5798493954839712, 0.6141748188599301, 0.019467914179150534, -0.05289194710886229, 0.7153252428883824, -0.6163907109222858, -0.943438988580888, -0.3000356765791991, 0.8111149808948053, -0.8288794708807427, 0.7122084486763522, 0.6974587932101812, 0.138134980398414, -0.5446772857379183, -0.7714016010386349, 0.7252470323858575, -0.46949707001020546, 0.07175063650271607, -0.42180627044568597, 0.674126171168425, 0.497586176452135, 0.2831104258265976, -0.9940563349724985, 0.12202758933361593, -0.03340942505465544, -0.3427534931734932, 0.8046822880175278, 0.4790630303499663, -0.6199804459836082, 0.18618154468039477, 0.1418776696714341, 0.8600073119956463, 0.291309438837381, 0.400113049503727, -0.07485091078484439, 0.5643715641017288, 0.09416162639746291, 0.46763130852862045, -0.48448255537693263, -0.9264774345934766, -0.4475339842920325, -0.5470155028989548, 0.9193253459651218, 0.04795959052469767, 0.2162214679331782, 0.1357452499074321, 0.4405734506000849, 0.42998048509931297, -0.15548149151354068, 0.065845202441883, 0.3008944863387341, -0.4027556803599878, 0.3802790729535467, 0.5829273006354745, -0.2389249776739415, 0.6486862802676397, 0.3057830501898274, -0.9923904930839156, 0.3495177799002149, -0.15039844273425132, -0.35517660999231404, 0.5217295350033154, -0.15664288381711078, 0.20660287259334856, -0.8199868336505183, 0.2137735439767074, 0.10285728012767845, 0.5513260068591854, -0.047271962086221794, 0.9675366721587613, 0.43505493862760714, 0.020120414269543238, -0.47597915463612894, -0.09304297619016855, -0.5494773653574635, 0.8282723183042413, 0.7708147710019465, -0.4543369940708087, -0.7345291976450946, -0.2484551881700972, -0.4230371250119487, 0.5549646424866284, 1.4962351795088171, 0.05683607660444467, -0.677052045383803, 0.6034946756753449, -1.180726316680207, 0.4976587232313332, 0.15146976629462344, -0.9032349481005735, 0.08621527630673913, -0.19738551253239447, -1.0841219199656846, -0.10295051897234503, 0.5271538108074687, -0.6850311362263095, 0.42733896738716015, 0.3794915947646286, 0.7149793667453934, 0.8006433935369708, 0.7878271713420497, 0.6314717476607568, -0.4613257571939291, -0.1610099633614547, -0.4942587169207555, -0.035375381015404925, 0.4180311971302653, 0.7755867252953499, 0.7092369783628971, 0.1138157991271444, 1.1975908118833571, -0.24829925876157236, 0.4444733903755399, -0.5417139044922048, 0.0016123352464988386, -0.3220226355998139, -0.3723246936428013, -0.8332894689126913, -0.19452532510598336, -0.5731801280347008, -0.9083557340558344, -0.48391725131734165, 1.0558760240180174, -0.172355105714788, 0.5743165696184385, -0.06785361280904485, 0.01262924025694269, 0.6412052804602469, -0.24401265294842786, 0.3981377307879408, -0.498528110053579, 0.002526409238088037, 0.9524990300525562, -0.39555112958423144, -0.18247360281798036, -0.15961611637953066, 0.020480499765408954, 0.3455171377154801, 1.6411932510352873, 0.820458955086478, -0.47889200341343563, -0.6567605486700439, -0.17568334141728, -0.8370314060759108, -0.14290146785101615, 1.4891822168057682, 0.1681544395871288, 0.7540775987484352, -0.018717861147062757, 0.10398347419358202, -0.4338558174407721, -0.25463354298632257, 0.9708840507450355, 0.5049675579733068, 1.0797664919308798, 0.9527406770346201, 0.35023552914779366, 0.3284164288521615, -0.897814422834778, 0.42674719777844045, -0.5516961155552917, 0.3351684313084256, -0.7055879836751847, -0.5388931021412127, 1.725737856291838, 1.0301679028345594, 0.5386432303989753, 0.7474476774452652, -0.08702267852280482, 1.774686712560673, 0.5999613867484983, 0.9291537619407001, 0.21538979862687044, 0.46765520719919046, 0.3503986643541621, 0.7852109964867804, 0.7060535085655849, 1.1491188948227171, 1.3171742459755287, 1.3982413680467818, 1.2282519339799332, 1.7068960322411904, 1.7252785852593284, 0.9540097968113133, 0.89591581286191, 0.33391326438407976, 0.02842394340701159, -0.6527548080162174, 0.3942589778545681, 0.1349620231794071, 1.315644266333396, 0.8313733514207057, 1.1421889091191841, 0.8789165826627933, 0.37394482839682275, 0.801902938415879, 0.6770172173670986, 2.1811456516365815, 0.5307883833708016, 0.05657648812992579, -0.20534636556305746, 0.5171453588542771, 0.6770080738555025, 0.5642893036684838, 1.049855300409787, -0.48898432627329774, 1.9154291833941768, 2.1256886260184737, 0.8360781237505921, 2.7978544124598748, 2.479679605291524, 0.4021941458267114, -0.6022701212720081, 0.2906580189934577, 0.5424944234226023, 1.0147147633468783, 0.5312620428554349, 0.4971602111875898, 0.4002925187659111, 0.27061973116736987, -0.7928975461734139, 1.4289237344266523, -0.38096305314820567, 1.5059994202032159, 1.7918185792605261, 0.5787490883111994, 1.1047631123301669, 2.116608754690499, 2.576210751227636, 1.6950839472713939, 0.33852178033435304, 0.498751842478628, 0.32296748455837954, 0.5727524053412479, 0.2950715526722218, 0.15119799896013275, -0.7210717765360978, 0.7876632388116447, 0.919562112432218, 0.8333432642488384, -0.5288286959989882, -0.0005657539814993839, 0.5215411903590591, 0.7634383862065153, 0.2837108638780554, 0.7112538673607591, 0.06846539880853296, -0.3699215640399872, 0.2519496522772394, 1.5479744828924793, 0.1505501793229956, 1.0692204318645238, 0.7948488762667514, 0.9744419106531806, 1.9900727123495154, 1.4899769851477687, 2.5963545657635483, 1.8676274985690031, 0.6071949266734049, 1.055083732136549, 0.807783132596963, -0.39257555659860516, -0.830544298717844, -0.4098257557177151, 0.1736148557899598, -0.4240166246963622, 1.4369222866855087, -0.10839764179234934, 0.0715561144848326, 0.4709781636433823, 0.11321047787580123, 0.78527900288485, 0.8200630527467385, -0.18075868662973285, 0.4447081168864129, 0.2737831453298942, -0.5139034915173687, -0.4016155544808712, 1.0278390218883287, -0.48565550081832776, 1.8885869224016665, 2.4123033709298585, 0.6999691654909647, 1.4925991728937347, 1.1361952125628572, 0.6794151635841847, -1.3128945766405504, 0.144235880391083, -1.6169785525911018, -0.8124901493590657, -1.610331925200194, -0.9341001831584199, 0.4871441023995399, 1.1221127951236929, 0.4964187552619895, 0.7542323712940275, 0.5863916438835646, 0.39545144342417515, -0.8331285512177119, -0.5329083673345101, 0.5715748686459883, -0.8053736180223726, -0.1426233225658161, -0.6018002497646184, -1.0019569434178264, 0.20569595753324074, 0.4082635937772568, 1.9673835643120499, 2.677368686564074, 1.2036098153561623, 0.5386460855099834, -1.4439411068328767, -3.0154816168281693, -2.431510269631428, -1.7714037328462553, -0.8330708535596069, -1.310716575749668, -0.2017895636443667, 0.19734387772701373, 0.12563610694411742, -0.446149310889398, -0.9490462681926055, 0.41053244309219217, -0.7610996661654467, 0.497840381117829, -0.8751381819762629, -0.8887665388900574, 0.6892864719052857, 0.809311918092983, -0.21588807762872667, -0.13589955177496765, 1.0803158866852325, 0.33504568325505374, 0.8024679943428492, 1.4136329126903229, 0.6040550670686324, 0.4726393079688006, -1.0925152637022695, 0.2065347159188017, -2.014500827872937, -2.363175178473527, -1.5185529260971375, -1.0326264698109142, -1.380616946315594, -0.1898687161214473, -0.40598378418906045, -0.24828938176836948, -0.7298943747862238, -0.5784061540983428, 0.04133897250308297, -0.9138270349734133, -0.02671438781007176, 0.9708509340380714, 0.4857723229376663, -0.07957142215676126, 0.4585956878801015, -0.7492376816440037, -0.9566162480039472, -0.8974702358812872, 0.07939072775205508, -0.5954812366770905, 0.4625497449895513, 1.227307818120857, 1.5537103683820506, 0.6151059600927435, -0.8103924913032546, -2.3107337660192067, -1.9149772124056321, -1.3623836153076967, -1.053420140164076, 0.27463097697649824, -0.6264176407431724, 0.027608430924408314, -0.65509754323063, 0.23439622691592454, -0.5896155965009354, -0.4146149744877225, -0.22448967891650815, -0.08431087159397475, -0.05421827088549477, -0.1202190382385791, -0.28732703694664974, 0.678412479826918, -0.6114220116380021, 0.004878683686624423, 0.6610001248939813, -0.2668581114692301, -0.1576171539234724, -1.8271451300040713, -0.9391976324500523, 0.3676776752035617, -0.8290126759122152, -2.242775283860912, -1.0523324039687056, -2.0878740808681777, -2.9839177721556864, -1.7094405287127445, -1.6537591733158246, -1.3399750459242616, -0.23270335691356556, -0.3027646921089184, 0.5052644984766187, -0.20092395836396687, 0.8570466388307639, -0.3802911622510796, 1.0103845432035505, -0.712757339478156, -0.34375954395256797, 0.9257405844248339, 0.14971079368501106, -0.6580849291119071, -0.28572942056180767, 0.45573205402503314, -0.2843201003885736, -0.7107530531619475, -0.9016988054787363, -0.3085654069573975, -0.9510940402864166, -1.6658101717905645, -2.6591545863354895, -3.3151916565416126, -2.555935371313919, -2.408247612940245, -2.0404027857287304, -1.7842984504071213, -1.664577105721012, -1.3465628223324, -0.3589432434346834, 1.9616107743383129, 1.892310993356223, 1.1010936539896259, 0.7180005874504221, 0.6248713967182675, 0.5025272629561751, -0.7199719638726356, 0.9122286878934421, -0.4026026373211559, -0.049836535586262665, 0.06706367277954484, -0.7091467299931253, 0.9766477467035123, 0.06117988246033039, -0.19273813626895153, 0.1537509095888132, -1.0234602593376163, -1.871324169829524, -3.210810147640131, -2.711154714054581, -2.351287996239136, -3.2817389101380026, -2.9012749624504615, -1.7181984410667244, -0.22037361184413223, -0.43086576886953853, 0.1546824716883457, 0.44733356637652427, 0.3805476826867683, 0.7060105954281451, 1.6185844385053687, 0.9900756323513854, 0.901562421210317, 0.4356865673201591, -0.028396198836689757, 0.7343058495442117, -0.4600117950368302, 0.6933061842152504, -0.664108817982668, 0.0018730034935225581, -0.6795667970358097, -0.1642140689518075, 0.07707378130023662, 0.38553782790915136, -0.49446698963242824, -2.0231196450668056, -3.261777766772014, -3.1653225089782957, -1.7674462000491398, -2.6249583593766923, -1.8821566876769145, -1.3989027851308098, -1.0393321407464853, 0.28926543029903035, 1.402483730097798, -0.8677395384125534, 0.10863971284832956, 1.2939903970045803, 0.5037594545260338, 1.551041641106695, -0.79447935728019, -0.5288450159675088, -0.5732933132565895, 0.896652523213496, 0.14609822671690723, -0.7810849356524998, -0.889344004876897, 0.2974035340002195, 0.4351838226636717, -0.3170860204285655, 0.48856757794410893, 2.091956564382283, 1.2400024235366762, 0.38472083201821045, -0.5072948403822418, -1.0369649717377332, -0.9701965742298552, 0.2299946548917293, -0.2685707379149116, 0.6250849244399015, -0.2351362628165541, -0.3225279572251075, 1.0272039044723935, -0.26649535348453696, -0.9064002565275311, 0.5405400048754729, 1.0714127000457552, 1.1912683249743905, 0.7504880712189024, -0.2786878452872817, 0.803246833715972, 0.6447451387771548, -0.3605199406532088, 0.7210580142570726, -0.26619618949956686, -0.4275206294271651, 0.4578639363005597, 0.9351923839790495, 0.14112632931510952, 1.194344518018625, 1.5635014980926343, 0.4369526133078437, -0.3903612620950462, 0.5852070636658678, 0.9602465252534893, 1.7233472276111952, 1.4481784787419802, 0.4630666492413597, 0.32176645019586986, 0.23237048715821648, 0.8984380235889372, 0.044097746010795365, -0.6358795293710421, 1.411416717262633, 0.7394202782250782, 0.04036633831302947, 0.5603051413997885, -0.3341253256743243, 0.8342813270952435, -0.2439374806918028, -0.3249018918797959, -0.2800832361595816, -0.5148968381403521, 0.4412586768210645, -0.43057533296635564, 0.591232873815708, -0.5454286757855893, 1.0808069354249228, 1.0255042738674318, 0.9583518827466877, 1.0190314765179114, -0.3478516757560754, 1.1550316207563531, -0.06406746210885882, 0.9558990196366647, 0.7996041742439933, 0.33377373720931736, 0.47240534811550466, -1.8764883173432367, -1.9484624745147154, -0.566450507861848, -0.12998898395677733, 1.4107481315102577, 1.019349168663933, 0.09234023052417431, 0.21311687286914213, 0.4757078203474738, -0.21269375364970952, -0.09393191969418435, 0.8404554176486828, -0.37636946554687467, 0.20356863481269943, -0.11935183678488868, -0.3444680135258148, 0.6351701792554681, -0.8172110366092477, 0.7997451846604245, -0.11383527648681611, 2.1693529015070383, 1.2864347862230494, 0.06640582602536445, 1.1928041210778368, 0.4978185514750148, 1.259998779339754, 1.5291668112016263, -0.5459795923554008, 0.29493675296298766, -0.5313016534326253, -0.1949056745567336, -0.29361119335776314, 0.006804365797272423, -1.0878525539675157, 0.8683243861978999, -0.7742048812758826, -0.6437972413235538, -0.563820365726364, 0.20098202343017246, 0.030512601541221374, -0.10367511092469184, 0.9044224433733195, -0.7919257631843001, -0.5774532169984097, 1.2315606386754971, 0.5824028339059589, 0.17906487321066014, 0.12868731500039768, 1.5865324765206499, 2.3627572216808974, 1.2890274210307417, 0.7669270803885101, 0.18790406714091917, 0.530298340499666, 0.0947701086745101, 0.09904346295568793, 0.564436437978916, 0.0023432846732207835, -0.5045022351472358, 0.4733854936325054, 0.05934462506608329, 0.21269990325392088, 0.7710190713980088, -0.08692553766430494, 0.04734042779829342, -0.2622194675300755, -0.08917231230554701, 0.37587408104667164, 0.12596489384423037, -0.7772529206562422, -0.8914130986884342, 0.27423633703615524, 1.0443218113890702, -0.22181854703646053, 1.6175679284872357, 0.8623994372912409, 0.6825929980633221, 1.6110108996204342, 1.4477594430903795, 0.6839794344053187, 0.8944334386115567, -0.48675919102658916, 0.49720484668469783, 0.1570928726992646, -0.7575927972807704, 0.11221697940359295, 0.7407372511434578, 0.48625557317915763, -0.41335087424687, -0.9462638062009403, -0.8034796947178859, 0.36765297169521877, 0.5116546691303321, 0.533584530206789, 0.5820406032120551, 0.5724417302259273, -0.757751663771913, 0.16353344764357225, 0.34749487052891087, 0.17123736558555372, 0.2974746074283552, 0.458203114998362, 0.9735423726675356, 0.1421475214734338, 1.4060231785548318, 0.09818451490577793, 1.6037842511390252, 0.24247793508710713, 1.3076191768971799, 0.9110689543975001, -0.09991682025020716, -0.6580206523405511, -0.2799154132803319, 0.27592435407981947, -0.262462938666853, -0.5766509974574027, 0.35218890729926866, 0.8399105204972218, 0.5571854807507552, 0.850010077226074, 0.7279364303595295, 0.3649664954432059, 0.218723567939074, -0.07582675545324724, 0.4982952151207327, 0.07669360282880078, -0.07726803521490117, 0.761154525427033, 0.06545863581525295, 0.990393940695944, -0.7424375953651374, 0.9481532524527764, 0.574357793975547, -0.08559479275668568, 1.0533360929475855, 0.22974003801632478, -0.476633762508854, 0.20661406961007367, 0.7760149676004405, 0.9925826045266245, 0.11423116286204427, 0.03203750747677194, -0.46131120816701754, 0.5063370540969245, 0.8195026307983742, -0.7137898145512236, -0.4586254397575984, 0.37947977850349024, -0.47399364520127985, 0.026244184942165072, -0.9897514086348769, 0.8694338002602178, 0.18958444706478628, -0.6211915677400512, -0.9940382765189029, 0.7724502724455757, -0.4446674539158043, 0.6534884280078876, 0.15330248918221187, 0.12883597185818543, -0.8363802569980782, 0.42563659679009674, -0.3056458746216123, -0.06980968033527621, 0.09289941178206007, 0.09459660872160942, 0.8592656318802491, -0.002414103734956129, -0.5633534749168476, 0.09991576347844668, 0.5467494872108761, 0.6463483050752593, -0.25136215746741486, 0.8808432872374623, 0.1807944983929506, -0.13815874555263918, -0.11607859243636187, 0.9231145375361616, 0.9974517917529178]/3.56981518273731
0,3:[0.09947412921443544, 0.31528759072098733, 0.32083824573915387, -0.4247774692310191, 0.20209410315947074, 0.4125890784283275, -0.07562188926228774, -0.5780690782319557, 0.86400804580871, 0.5405049553787915, 0.09218602963909306, -0.22657641935063944, -0.21151168480754956, 0.45672017151892064, 0.43701000212962393, 0.9896890530062117, 0.9881126895089478, 0.5458144727722558, -0.22358665276906242, 0.8344444862089668, -0.5247986628192454, 0.7245059993174094, 0.7840240037869826, -0.9911496799512072, 0.24470117595123253, 0.9294956708290472, -0.22148440726790253, 0.21139004783295445, -0.3232059165583909, -0.5662500386917464, -0.587823176098109, -0.12544658957288202, -0.30040288300442963, -0.9387001629075966, 0.6627501530597203, -0.3834308586318621, 0.41604056183134097, 0.8564127677756352, 0.539823716627685, -0.8651724377467006, 0.13202374913419762, 0.37800233593772775, -0.5501661224870579, 0.9872095705873067, -0.7182353744000467, -0.22416540614498257, -0.5707277480670951, 0.012454006768846174, 0.907510235787124, 0.8168197173039548, -0.3845881911988296, 0.5253123261159263, -0.5255235511989214, 0.16563189169814274, 0.9481789108467094, 0.7649497118908359, 0.3260919156899027, -0.630763612652673, -0.03443483304996908, 0.02118712404402312, 0.06116151034815132, 0.5834166677575469, -0.7953630206465758, -0.4541155933259621, -0.4363189052362347, -0.3338236251936765, -0.25075451462906495, 0.4075853038885642, 0.734317765898551, -0.13034560115611815, -0.0482696271559222, -0.5721251454494303, -0.327729864434676, -0.29287233346190716, 0.48366509087632037, 0.1932944462113582, 0.3004313202158608, 0.11541095651281269, 0.11278886571750736, 0.5581498727278031, 0.15384017612183165, -0.25418232267996727, 0.3430617580684088, -0.07632076715246794, 0.5776421994581145, 0.631542122195436, 0.5258007900116366, 0.006377975599512287, -0.21163503892562874, 0.7205273279309855, -0.5368740652094494, -0.40640031908118157, -0.873125909761625, -0.5726382696044097, 0.6084874925697148, 0.5219814219035143, -0.1928454733560329, -0.029336251865745948, -0.29698292540548016, -0.0749685019725596, 0.6537067495329437, 0.7845181494498689, 1.0178980137618103, 0.2513494840186019, 1.2245855474638458, 0.1183344481011726, 0.5640345096699532, 0.9068891122495858, 0.5986601921722345, 0.22548164811493243, -0.36936001231696747, -0.2308091591717596, -0.5444064174419156, 0.5370284813094528, -0.3708882979861662, -0.012013813200742877, 0.7847077803217405, -0.7612559806336897, 0.14332962465236537, 0.44150312521558865, -1.1792523526045458, -0.9143369908030643, 0.2665447721159823, -0.3812943113731554, -0.4885562658271464, -1.2788493115100614, 0.26173065507308335, 0.16605698916211964, -0.4483886564700997, -0.6018925247711402, -0.059000705855130176, 0.27463581584075997, 0.9194977642505068, 0.8548145296943168, -0.41672764221169345, 1.2201639542476914, -0.5669037419236943, 0.588766433196801, 0.48190490613042963, -0.04311799168108922, -0.2364912111856221, -0.6095228854339476, -0.8062289665111804, 0.38128466928761595, -0.38931285485742023, -0.8536248926044016, -0.6329878487364631, -1.6790098905395063, -1.5634872006665261, -0.30413643155206516, -2.057713660596395, -1.5019801101710675, -0.7610598834718062, -0.04071769137349587, -0.8638223952544284, -0.8690058739372227, 0.4594658594924501, 0.8694508253240099, -0.6349111793874358, -0.7311858427556446, 0.08788212041260744, -0.7702281351756038, -0.015829439499573612, -0.5538780182122457, 0.7340726325275424, 0.16305062388427013, 0.033991330110464374, 0.1575710003922781, 0.6572838083428241, 0.5613865089265723, 0.870055839969149, -0.8475226859944738, -0.10351528943747253, -0.26264156927178156, -1.937626839691849, -1.9872393126080812, -0.8195804560367994, -1.0427259529066846, -0.5399383511396278, -1.4444265648265653, -0.9934426615209002, -0.9959666162572693, -0.04800421039360142, 0.7837002838184354, -0.5164705963063762, 0.8346897782934424, -0.12989420214668085, 1.0576340482178745, 0.5299146162574359, 0.06873313447931738, 0.52683747175438, 1.2391772104372907, 0.8382441740720591, 0.9382690127875027, 0.27626201095836517, 0.32819841034936326, -0.20280182382116138, -0.18651809902081753, -0.5973573609217943, -0.6102526377995134, -0.17870488925979702, -0.10920006712053583, -0.35390947438626436, 0.40392436031039647, 0.4045255500754021, -0.7701333726256759, -0.7752595337523955, 0.1517078743069769, 0.43300470204798736, -0.34494617560004476, 0.03215861421716666, 0.1533768869685593, 0.7967529677093605, -1.0542310737954694, -0.7922168424193912, -0.35848632568213185, 0.6958910400854401, 0.009073306879405812, -0.5438690642632421, 0.37923419647006573, 0.4122363521022653, 0.19560345778881413, 1.0304172879820435, -0.7229501975464504, -0.9384611892602517, 0.8721678896494236, -0.6999997724269987, -0.16428111342783627, -0.13426506560553483, -0.7637165558558999, 0.30618578271671076, 0.9913024351743185, 1.6570183920866681, -0.0536098308728098, 1.225356897434031, 1.186750676931048, 0.7338901110885213, -0.46288983812520923, 0.7567059421405551, 0.8272916981706694, -1.1177123640171311, -0.7223195975957749, 0.1542493099417116, 0.8171312541012659, 0.28225723258150676, 1.7486923514497317, 0.41906032061483384, 1.5068428029574767, 1.5395917179129657, 0.4377791765831646, -0.1547173022529013, 0.6518421601564353, -0.34464079505895234, -0.9747618609835559, -0.4050946276773871, -0.0026317789810233103, 0.16142350588636553, -1.2317275898643552, -0.749314988612509, 0.09075276535787358, 1.2845591931834321, 1.114411267316645, 2.5883414901198134, 2.5780640126534213, 2.0953689226343415, 1.6586948686039176, -0.37495300484202754, -0.1350641989087751, -1.431878371987115, -1.1545725676215184, -1.2509089994925733, -0.18779960430332734, 1.3040356740628962, 0.5112222788716236, 2.15853150103021, 1.5679800730333187, 0.07528150506939263, 0.3794561155482306, 0.7324252864186283, -0.021645830148621623, -0.586403430836542, 0.33402739660751224, 0.06165329071345593, 1.0065288967675232, -0.7982902776574304, -0.11259977801732701, -0.26794320780807224, 0.05641095118355637, 1.2462769888412952, 3.2594263912026675, 2.1235781980228827, 2.7825644819604496, 1.3861276035763728, 0.1266588675991174, -1.363466538051362, -0.7330401259142642, -0.6664779149344185, -1.4371455256787664, -0.800873517870381, -0.053179247081182615, -0.9244983169658997, 1.3181718496991608, 0.734811978483083, 0.9946876848671911, 0.3993037758338673, -0.20756717742509076, -0.28227195498134405, -0.7352827986015786, 0.7498767161065212, 0.7581896735363711, 0.4218969761034569, -0.5171993142210102, 0.7604019178021284, -0.6031373529302192, 1.1636733543707305, 0.8574699310811897, 0.6158359018065617, 0.9805246483409241, 1.7406544744217722, 2.1747599858770816, 1.8382031095199354, -0.46844812683705717, -1.999480869438854, -3.1460131808957503, -1.1983138425059068, -1.5886621777776775, 0.13800963695197313, 0.8246204396158607, 0.9259428068340643, 0.4473974917125153, 1.0741052519105347, 0.5543565853448419, 0.22450120616226432, -0.0406343935998397, 0.9516874531801809, -0.1301353651292057, -0.4278480766847388, 0.38557345681181976, -0.13907499769150747, -0.7545513263876579, -0.2546374121988086, -0.2847866430252982, 0.9799098380582976, 1.03681370427165, 0.41845976980723953, 1.0072841928220622, 0.3854635606735276, 0.1243944994672416, 1.1540167934212335, -0.5886450756694662, -2.149872274654122, -2.9297392135450346, -0.5832755292682941, 0.4657537072072737, -0.2376461979975548, 1.6049292181876413, 1.2917733997409593, 1.12837630845324, -0.18852040421885413, -0.33324534988899374, 0.856485741348206, -0.3405570705403192, -0.968091152847893, 0.4552949339320512, 0.9459312629612338, -0.4402158075879713, 0.3452149070556793, -0.031186624993214312, -0.661235710004782, 0.9532731260097782, 1.1449618605374072, 0.8248564037405045, 0.400236919588432, 0.14665543305763223, 0.9910728571796203, 0.9867844569984211, 0.5169246859403672, -0.3707834029334018, -2.1848423538234703, -2.2142938633407736, -0.9189224474317091, -0.38197104985693364, 0.6625557698571396, -0.06636336444271354, -0.7423718127589408, -0.24745166762084425, 1.0722122153475893, 0.7310146733580972, 0.09457319793324696, 0.7422098464669876, -0.8495429589572924, -0.5206833577864869, -0.4969992362299705, -0.4998486520851318, -0.8469603409021846, 0.19035192493103048, -0.2965219129899725, 1.6511157700020447, -0.22239174807784673, 1.1819434145790202, 0.9677593888318402, 1.1800030947929885, -0.22337907572520288, 0.4541929925535455, -1.3884483678994317, -1.9407895635088552, -2.170145092943443, -0.7456532601275839, -0.6158706153775936, 0.7748990052709192, -0.08296486477518218, 1.021644741343649, -0.5888489376703212, -0.21439920492027764, -0.036568099380421666, 0.4596559350325263, 0.07264807703940193, 0.4698466101700997, -0.5174399888247606, 0.5084197501237882, 0.37999608657046186, 0.12579848186578552, -0.597327943949314, 0.2518346995227744, 0.7834831165668866, 0.21050946821327027, 0.2499464301113159, 0.8860686099851515, 0.36946149121754607, 0.059829314086323915, 1.292431271556742, 1.5689290344378364, -0.7388975173544609, -1.2368429745875322, -2.0817273112850807, 0.4109024599947187, 1.0490119005453427, -0.5886296118972627, -0.26949283454878337, 0.6719494348389402, 0.7928558447091122, -0.7148117993438035, -0.7838255340416147, 0.921384786208109, 0.7086094644373171, 0.4959469276173457, -0.7938771042489886, -0.4027126206350428, -0.8514109761116391, 0.5120641687786398, -0.1545881264807458, 0.6242566937641546, -0.22425867496332758, 0.6689783488273048, -0.36370150622067504, 1.4208781488536182, 0.39686381500900003, 1.6935257413691376, 0.21833887459177903, 0.08191859943130703, 0.5746354196095217, -0.828547677712119, -0.22112768794503565, 0.09952916143575288, 1.8989431822295015, -0.1669149625058931, -0.5039243787840921, -0.49174011105674986, 0.3376110654637901, 0.9278231760919662, -0.24766245184977762, -0.8244838298186807, -0.8489575725569279, 0.1427815567187859, -0.7958338477057494, -0.7241762953749088, -0.44877941981999014, 0.8450472986239317, -0.1507256693630915, -0.008494352420139795, -1.0941880489405098, -0.10584312332577189, 0.431904009730165, 0.19054972740906978, 0.2402220591699289, 1.4954847198095862, 0.5210496191704603, 0.4479689855158831, 1.4100654101207126, 0.6677791224656849, 0.24173930135211405, 0.35384614309381357, 1.0563108278715954, -0.3642325442017486, 0.5511884594324418, -0.03293904771519421, 0.4163101421834776, 0.2920099073986993, 0.4948665970203366, -1.257697030483014, 0.06559386861471303, 1.0147197520297218, 1.0080653531148893, 0.5371092976872215, -0.6783352684252435, 0.20817767788577843, 0.7370650800360511, -1.242894882670607, 0.09687593737476317, -0.48927691904252024, 0.274053479328645, 1.6502220436705652, 2.3415401764562223, 1.2376332742786649, 1.1777490600561515, 1.5373458863405358, 0.9345656130176742, 0.7491249597954643, 0.8832679475915021, 0.7963471184569278, 1.0770767735300415, -0.7386172026508305, -0.46209804777874275, 0.15427403225715539, -0.8841412467549803, -0.5110754148232416, 0.6384830862214239, -0.04328793683886809, 0.5855584009159764, 0.7642428476296163, -0.3897396652190629, 0.9145467176361327, -0.2387275080925202, 0.605318900737598, 0.00720524754963284, -0.9670262595783877, -1.5944387183579651, -0.29619335241923694, 1.0446438895280423, 1.2379440616483726, 0.8159339999625342, 1.0985711785120276, 0.6316238263452244, 1.393562378656654, 0.9670217336843555, 0.5974607642122636, 1.9873612192477021, 1.328777081726624, -0.2434374201415669, 0.2471357457285673, 0.04218171222179929, -1.130260958833275, 0.2830969669536348, 0.971853094116404, -0.09465848550538326, -0.7717500391348291, 0.4066122948712809, 0.037568494132689284, -0.13598602915727095, 0.19894825586625958, -0.6606316759133213, -0.32729785681775847, -0.2476474732608955, -0.453319426786632, -0.2093223164414567, -1.5847609861906344, -0.7490044399713149, -0.17398266092589532, 0.553515218002148, 0.1777750960539672, 1.08796771952336, -0.28605286311702377, 0.11856287921282992, 1.530052501720742, -0.2402606364890656, 0.542265195561496, 0.6087446088197227, 0.36977482544751944, -0.22434961823718655, -1.5123247410345946, -0.09043324505601721, 0.3943633316202833, 0.7804761336454492, 0.06925869678886301, -0.6062936797261871, 0.31990955960609646, -0.11843973239218046, -0.05177136878203159, -0.0005297375383282847, -0.5207337212082318, -0.3158459145475484, -1.0565277599245486, -1.1552144061657947, -0.6083466639338692, -0.16416853251767, -0.8222944215488902, -0.04837370630178855, 0.4623400074512423, 0.88425605485974, -0.27213239999880334, 1.0567392675755882, 0.8231526475289879, -0.2414833385176784, -0.8457814017725894, -0.217101346309922, -0.7395006684026534, -0.7613843117259502, -0.842727875472799, -1.0306119485889844, -0.383173666003248, 0.8425551438444673, -0.5678948386097435, -0.7332876010774244, 0.5298017110796392, 0.5234348541177904, -0.15356599494099799, -0.1350420050259643, 0.8964037685907689, -0.7906102820531525, 0.03781386111664947, -1.2667371431914407, -0.5103463263002017, 0.05912429486876931, -0.8895337811503009, -0.2294648206002939, -0.5490991427526861, 0.601513877545067, 0.2064321529859431, -0.28999724429742046, -0.09041432288390086, -1.0850449266619937, -1.457949708423121, 0.711020640570589, -0.715357357395836, -1.0898727907216006, -1.1009770389892004, -0.9440068897442662, 0.5410145574891314, 0.31639432363723513, 0.819886953698991, 0.2761144190572164, 0.2945179380242458, 0.15046105349697173, -0.37132607808428686, 0.49108686120106326, 0.7961648311987473, 0.3069958925564558, 0.1743835179904284, -0.8035931203140125, -1.5619759130949007, -1.1341781134690987, -0.40788022840305654, -0.7112743892739989, -0.9765079016216061, -0.2472025922202834, -0.6529767965153306, 0.20674400646397828, 0.04433410713009112, 0.16634326779533862, -0.2020873692588858, -0.7510168182293884, -0.13170666573792497, -0.39217659042926944, 0.31853300049384736, -1.1660694592178735, 0.4961366528490584, -0.36857432164427023, -0.9590014859722047, -0.6276740154058166, -0.7130263894250097, -0.17852615488294346, -0.7253511739859928, 0.35041993094418467, -0.8983077878353067, 0.05701462852488733, -0.45431368937538974, 0.04535831963542902, -0.7323134342742736, -0.6826278204681098, 0.8087800049997088, 0.5502454352802832, -0.6472803263480685, 0.49655185595417756, -0.8513326273571074, -0.9107639760333229, -0.6449224447945575, 0.7698356737657799, 0.6058321505866545, 0.2607859407705353, 0.8411153844829378, -0.46721201495879516, 0.34435252208908484, -1.0421726270842033, -0.4753200879638834, 0.7613759408014573, 0.4920259734874601, -0.5248708963862881, 0.9324902332623238, -0.4740344833425547, -0.32088906269442363, 0.5824423300182762, -0.5382765615830796, 0.9165315494782, 0.6741577154632897, 0.2636672895030664, 0.28999075989447437, -0.6951516236052918, 0.9783132260951894, 0.1998000983204481, 0.6198020136938197, 0.22107136364418475, 0.8841420673419289, 0.3426100800167908, 0.956981566273127, -0.41070347045840955, -0.583946974546321, 0.6550402380795977, -0.09652603154358354, 0.875328537335067, 0.24487009733031487, -0.21495771144827996, -0.13110766197485363, -0.9351381739544002, -0.2929959248781198, -0.4375941137911576, -0.9967487683239602, -0.2884997694797735, 0.5228572673820064, -0.8050945890331842, -0.8891268198684972, -0.8262682120411162, 0.8796825294666719, -0.9903255633829341, -0.021311226964036034, -0.6167768904490597, 0.7209010123159242, -0.3346172294894183, -0.37383619447522426, 0.4179525491648452, -0.655467922846564, -0.4542039738964921, -0.13659089854883508, 0.9769707929522019, 1.0297179199237414, -0.17610829186136367, 0.06218715171257841, 0.5251680063871714, 0.651179333575152, -0.9407485149796977, 0.7759460428147277, -0.4637683258506075, 0.40729483990078164, -0.6331062874844322, -0.9022142429466837, 0.0404236862431846, 0.8128400678496204, -0.44353925113497183, -0.19605840976676103, 0.04548835365641746, -0.46470890136373355, 0.31508151769380394, 0.653705264463739, -0.155116944147738, 0.8674135185625678, -0.38994760508189835, -0.22557118056419428, -0.8033295063737316, 0.8201958395458232, 0.7814611685366789, -0.8489369046346612, -0.6865970305959487, 0.8950364511704529, -0.16456670720628735, -0.20440794259175238, 0.11597368989981117, -0.9209119904582902, 0.37135092552163146, 0.030793029013803132, -0.2046196863000674, 0.8558262181967753, 0.5147936174525372, -0.5745503763944286, -0.710176384525322, 0.4890312387766951]/2.4180783966095105
0,4:[0.36545966444623823, 0.7019080910656257, -0.5553615604723381, -0.8446389978364275, 0.7732125510047734, 0.0729588706948463, -0.17839088919104773, 0.8735908946160555, 0.8061537783053667, 0.4966314855336378, -0.2628410853710246, 0.8322410365976807, 0.8071173780209762, -0.5288332429257228, 0.7084246330879578, 0.7412871892734059, -0.8552801528635336, -0.5850221706907981, -0.7134103023997809, 0.8747549204848835, 0.5775305402185007, 0.4697649740299521, -0.8811212443166241, -0.29676674002243386, 0.0535418500774012, 0.752370085927091, -0.15662122357707897, 0.5355486825134508, -0.0554082145553112, -0.4123993586483643, -0.025195232519311217, 0.8569480206970821, 0.5448809954244456, 0.9714408764083184, -0.5550353529572821, 0.958657468788575, 0.11646568006156574, 0.8062865186613682, -0.2513711170527745, -0.13067593949517953, -0.5196457828349177, -0.7478297368635477, -0.6439350178364508, 0.316227365549777, 0.1512752479240346, -0.27317248042239056, -0.6144913244846583, 0.6071758414148947, -0.6979866396272614, -0.5774963664061816, 0.1165860721034056, 0.9378706984317069, 0.023661085517073355, 0.7761864673668386, -0.42062832986328313, -0.30383417081967656, 0.4679068636979382, 0.24811946098777526, 0.20888301632324247, 0.671929507572546, 0.7437339837290059, -0.663617282497625, 0.9129047445032399, -0.09220843176710958, -0.14516567684844986, -0.25239505652341815, -0.38581126987064546, -0.660307688284093, 1.2551968156608626, -0.2587035203277284, 0.6165262207861244, -0.47486845380093756, 0.7704020981149099, -0.2883323075247663, -0.6228895246752245, -0.06751758247950247, 0.2660582764554095, -0.2388716115251793, 0.7147002116363133, -0.42974995051101644, -0.8134385040462448, -0.37119904187808006, 0.3327320356007506, -0.4925931804402963, 0.5104008562666669, 0.17606977730496176, 0.7427749673743427, -0.2843533225325548, -0.31986180509587564, -0.32289400246383215, 0.7975027639055898, 0.04473477712947382, 0.4481948341632417, 0.4491537745877569, -0.13290805211993229, 1.3205025154594916, 0.7685605527957345, 0.06867654434180781, -0.24216209714669257, 0.22845496962908363, 0.29676143660429544, 0.10807385363042235, 0.2232618749024211, 0.18792317253908633, 0.7023526938534599, 0.6116750294611577, -0.6339871878355766, -0.696673224550074, -0.4661632841971917, 0.6111738473985603, -0.5295416786193162, 0.939841091101284, -0.38638880077404725, 0.05348889253542676, -0.715231821666132, -0.7011770559354389, -0.09723776954626721, -0.19825596323073455, -0.8843939067036278, -0.5689066542655594, -0.41772743216469627, -0.19423878141259973, 0.46529166724928833, 0.4394080940733592, 1.0748423795720348, 0.7353250955758753, 0.6637133906776308, 0.1753124142647649, -0.37237847133231594, 1.2177149588780554, 1.0044305402856455, -0.2872309859138592, -0.6700037904571137, -0.7906703057641, -1.012672494508683, 0.05955497812533535, -0.9378354587800658, 0.5126742371580699, 0.7316168357060415, -0.12195864206232618, 0.5543998896730866, 0.8291790949792206, -0.9675520674939683, -0.3498836488155261, -0.9137138118272959, 0.12058403242149851, 0.3267164850400781, -0.07923823636622172, -0.10141802180671548, 0.02789873299915157, -0.6589112474233138, 0.37471851556248476, 1.0677168882945485, 0.2651606184681464, 1.4026698407701903, 0.9236088211238047, -1.0269415933321842, -0.17708856381620675, -0.22610704902951353, -0.12546915466325811, -0.9788689605969259, -1.0529893190439688, -0.7747538985979949, -0.8192021105803041, -0.9023689272253919, -0.7579627406791378, -0.07571002911823986, -0.8394205687692571, -0.7037027284936899, 0.7515476392493645, 0.8529749062296034, 0.6216774091784932, -0.7864964721344496, 0.48543026089247715, 0.08880008070826681, -0.43900437878689563, -0.7152001024236501, -0.006673540884899088, 0.9753107827971024, 0.5078136772849189, 0.5777407707137635, 1.6247027682864283, 1.881971905845286, 2.064220794688967, 1.781395195551081, 0.43187854371150636, 0.13484718333153306, 0.06991502702255552, 0.4555861857460068, -1.4858061327312237, -1.551789940736319, -1.3616179756762627, 0.38583173427714257, 0.13624791553378152, -0.8541109938204999, -0.5573858349352808, -0.8019545760081925, 0.6984793703325188, -0.14402576557360622, 0.6898325127448008, -0.14387037154555724, 0.558322584516456, -0.25937199055381377, -0.9376312009465525, -0.37740119322420235, -0.8267283031726806, 0.9037391310013209, 0.09679423365750628, 2.2146868004950173, 1.8622504481928488, 3.552565409663025, 4.0300812846377445, 4.020463138282914, 3.2103145953604066, 2.501239035419679, 1.224488364507384, -0.13034005192265258, -0.7130686749304265, -1.70359254597243, 0.1744048811571451, 0.052613233017313764, -0.630153413954321, 0.881914056121402, -0.910357828728178, -0.8244214244871949, 0.22303696000618145, 0.3118409590385446, -0.3289115147277985, 0.3381778689602838, -0.6764836620176666, 0.7219557217510268, -0.7255376434265282, -0.3524841981164862, -0.6246309293936372, 1.8313552773855453, 0.4107095266879751, 2.070766126354108, 1.4486563205421972, 3.322412687271162, 3.6841348008123944, 2.7465210680869796, 2.5570595303777988, 1.6699033027308474, 0.3346565668942442, -0.2691953209055126, 0.34003354026385946, -0.8124151795558123, -1.0587555477014488, -0.579311687849061, -0.6289658305760778, -0.34039514491522277, -0.9094131997626119, 0.3671892492629613, -0.09597344255967583, -0.35410518313710565, -0.3702633133093869, -0.08613384339200375, 0.6396335169304062, -0.2595455821309608, 0.46883854809218206, 0.8285609557079203, -0.002040017965543563, 1.3862004222302562, 0.6859728004891142, -0.02131860337041155, 0.04000431065014295, 1.862877347485291, 2.158048015125087, -1.0758145928855776, -0.8520055307257489, 0.6421885578826712, -0.22900237807338278, 0.5440538799468749, -1.252420421907313, -0.28571200185724915, -0.9052390740111865, 0.3110806711593164, 0.11195558571739243, 0.6295991114261013, 0.5941508399932373, 0.03222763859254596, 0.36266437959088593, -0.6886101298854462, -0.0438835106914718, 0.6852224589703416, 0.6228456131891137, 0.2860102489584283, 0.970039707743023, 0.2621346378189306, 0.24569252281765677, 0.27081504246905047, -0.8525552208589269, -0.8441779871198145, -0.9354714328865731, 0.024293925525085303, -0.09215195677183848, -0.9081396514055619, -0.8851229154857164, 0.818880363770911, -0.13229552151227986, -0.5560642832484041, 0.39270902510084715, -0.4718550986535179, -0.56070708246553, 1.12230292886883, -0.39210860071031384, -0.7960116829240741, -0.9386516035252239, 0.8335045356155415, 0.5586479194044116, 0.09899729571520154, -0.7786079006921584, -0.14195916319048824, -1.0195478827314517, 0.24979057464763277, 0.4689531208700649, -0.04440244481818852, 0.4818009100569149, 0.04033148277540668, -2.6573475664667083, -1.1024278498992164, -0.08841896141072343, -0.5693294697755148, -0.13392761318446453, -1.9983206986454165, -1.0095749138786239, 1.133573114096612, 0.5739775613012187, -0.24615647150914624, -0.326114203884817, -0.7774208545170525, -0.31274061875539483, 1.1947651511781476, -0.05255455544969745, -0.6590026598548141, 0.2642271524721647, 0.1344500653808569, -0.6350867538823414, 0.3140974334741166, 0.28888368296600764, 0.20812738846320317, -0.08690884664416836, 1.1282518847528602, 0.09922331154938124, 0.038220391883314955, -1.368192563555625, -0.49164194214569473, -1.88430664103499, -0.07191745750199101, -0.14025151202284464, 0.39855143646271074, 0.16137819488431548, -1.0850109669039618, -0.751462611463468, -0.46062260576722674, 0.20939797711065536, 1.5244795372693822, 0.4717120544785849, 0.03958656802091915, -0.3260266980040171, -0.5176599351911811, -0.4986888576372512, -0.23799407877695208, 0.8264186789616537, -0.7281197085273321, -0.2713011896708502, 0.011042979997156982, -0.6001765525371808, -0.33448627075784393, -1.0265816812862252, -1.2742349551353804, -0.45009997673505736, -0.11864888862269812, -0.6454953773643374, -2.436874359311817, -2.6806701463705815, -1.1514322946874391, 1.1251877430001267, 1.1227786514774207, 1.5741892087193954, 0.12146662955581006, 0.23242908207434704, -0.02045204222974077, 0.8869663949411253, -0.5674901429622436, 0.4944791830892209, -0.1882007675285023, -0.1579969318496916, -0.2888097818240363, 0.07419036048968501, 0.6764850706569152, 0.38937088371462303, 0.12923964663914944, -0.3536960331161991, 0.25360908824491735, 0.18491123997789297, 0.5074251759247762, -0.17186581805283685, -0.8026803693894242, -0.2359930373393053, 0.6042500840472143, -0.21399358503291827, -0.9896274262397079, -1.9001610151323205, -0.0514286561763655, -0.8875361408454241, 0.6643028112292909, 0.3683166597745856, 0.2764457862804844, -1.7732088549048082, -0.6891326715604185, -1.093482203285598, -0.9800787814883554, 0.8042773426897781, -1.2812953231276731, -0.2511813798418052, 0.9045453634646559, -0.4071910765982402, 0.02269448606064945, 0.9582147921447385, 0.809113355824391, -0.32056242019718056, -1.0079625625390503, 0.5237710103847795, -0.8090864719256552, -1.059005985709285, -0.09982445616254207, -1.7636859070746325, -1.3588097583465155, -1.0143122812055274, -0.3330931707197869, -0.8942602113470288, -0.7950413766067698, 0.23949401727560182, -0.5384476244133093, -0.584439946032043, -2.1848773038914704, -1.1019790465237764, -0.11164964428364935, -1.5152513259856148, -0.6867706328545191, -0.1935317408302963, -1.1031050721001916, 0.19520354640474788, -0.19453192280988307, 0.37393968752790346, -1.039428269090451, -0.6941527631441166, 0.7317906559429534, -0.9597396255345056, 0.2712138062265147, 0.646839365758909, 0.4205656540771956, -0.923680124719179, -0.9308391487714769, -1.7039767935377608, -0.4626889936076485, -0.578547867491431, -0.217520252046903, 1.2341474862604611, -0.5213114897189188, 0.19652177744109298, -0.475894085891317, -2.7049022164140037, -1.571875929696056, -1.6900991989254108, -1.8267404317773002, -1.8424039996115575, 0.1989987980932889, -0.18254844260916386, -0.8353650618442561, -0.6535437795355266, 0.24387574844063667, -0.8349558331082447, -0.27996427776162747, 0.9696445767129358, -0.9168644873351139, 0.3696893245890054, 0.39848367028044407, -0.7809850259322071, 0.7010836067344413, -0.38669945134895367, -0.4160518441653631, -1.6894522909479839, -0.8085534460742085, -0.27126070583833245, 0.843709247259792, 1.2426649846561815, -0.7085180131463201, -0.4264080484942571, -1.5651666507451556, -1.8524716956087808, -2.350893186094468, -1.4708565211891576, -0.6940762296894201, -0.6662470653512031, 0.49146936181550105, -0.7290073482766702, 0.40468885436254204, -1.1601091572405702, -0.8847027648713167, 0.011063741228663502, 0.5924451746913685, -0.8894434094458973, -0.742124297406676, 0.559877007364929, 0.73292245512716, 0.27685764656065676, -0.16574137416337242, 0.11354538560476295, -0.6235375691510482, -0.11404917624210324, 0.39371676010371887, 0.004900298585052803, -0.40008937312745274, 0.7795032923250017, -0.3761934466697459, -0.704309698813508, -1.7519583485945331, -1.2042635701273365, -1.3266551856077633, 0.28483711635128733, -0.20709261921003122, 0.807596263677475, 0.20779106505700312, -0.2602112964386883, -0.6307355275196976, -0.39066548747884144, 0.22035893028266404, -0.34817162874146124, 0.8193000204664354, -0.3357578085261705, 0.06990011846644939, 0.952976368301714, 0.8142333254817263, 0.0037501534272145, 0.865248458467186, -0.14461624251636135, 1.228244978383481, 1.019958134592098, 0.4423879443369133, -0.6952178397971676, 0.9318081475764646, -0.07369066702469466, 0.9066394439531602, 1.365759696439714, -0.32011357069958235, -0.6947605911035302, -0.29381575739699595, 1.1581421535270493, 1.4311778343026862, 0.7860460083513067, 0.7596516057585259, 0.9283640806064254, 1.4903433385856821, 0.339037372527895, 0.03267133522959115, 1.0231356445147635, -0.34838713885986117, -0.4470184346190441, 0.3891182638986135, -0.8452033112172599, -0.660250409921851, 0.14883250981042762, -0.8544723321216796, 0.6613828417657055, -0.40135252855925624, -0.5205290150531148, 0.7547602061316561, 0.310434057434204, -0.09103926267406143, 1.6325590742610108, 1.7879907907429065, 0.7833506017331572, 1.0809017042094742, 1.0893455009661352, 0.3346916771985083, 0.3184569586865489, -0.3535334886939225, 1.4419366399359383, 0.8917633834960154, -0.010734453231988074, 0.32790485801949015, -0.05712819186119718, 0.8940362187426603, -0.5185495077306034, 0.31272948206665535, 0.46931440476389374, 0.6823768072627745, -0.7969791319897849, -0.9422856395961525, 0.19840694020176022, 0.5411847743983372, -0.28989293464346255, 0.7222694698915202, 0.03809674880589831, 0.7140046962985789, 0.8018502115790129, 0.8354405748554607, 0.32691348667164066, 2.1142730774721046, 1.7313437794559778, 1.4124652060678953, 0.3094023516729443, 0.9970159760232848, 0.0026833901246567497, 0.45782435832697843, 1.0481342367822666, 0.07240888227201904, -0.17702102563198285, -0.18385487384781055, -0.6424829901833465, -0.6341123554952324, -0.5036409341288759, 0.12824323570388163, -0.8459949370711606, -0.21705385035597582, -0.9351292106728402, 0.5771064422945679, -0.5445188498222081, -0.7978997813633951, 0.19373080576757845, 1.0767234865505702, 0.6232348385942834, 0.45007856586406086, 0.6458282522563913, 1.060970357739571, 0.18080512403482593, 0.5856710172795166, 0.7179840049675359, 1.240773689497447, 0.7937121752571957, -0.654870358970835, -0.3246917132299581, 0.17091035777229574, 0.5887715796943128, -0.2420909308786448, -0.2997405373521253, 0.4656086492457406, 0.5513175771243368, 0.9205041445975304, 0.2881485319601292, 0.24625209001018808, 0.9799599060431239, 0.544960782363727, -0.41026794521940513, 0.6175436542621209, 0.27389778106307383, 0.7277713354419748, -0.5668080716360061, 0.732213207398802, -0.22358989618365313, 0.5101252844017099, 0.15627207806880056, 0.20013307353331464, -0.04595979359567525, 2.1452489235049588, -0.1159140793789289, -0.19272479350480232, 0.18022468969267494, 0.6713854029450396, -0.7465384962069807, 0.21549821457341162, 0.9196521231976998, 1.2369227659601472, -0.71836167669791, -0.3035197700743062, -0.16429896667744587, -0.7974231592833636, -0.841387564617875, -0.15906067899365872, -0.873990128541603, -0.2874684844489612, -0.19353784987431455, 0.005125019989959063, -0.11504473639897565, 0.7684295881964024, -0.7479046616613013, -0.6432633397949213, -0.934482628138198, -0.09242955741017114, -0.4242655652497034, -0.23728369672720492, 1.0852156684264436, 1.656066540908806, -0.44496202974771376, 0.3425975792330952, 0.22160026070876002, 0.523361125785935, -0.3793072417339843, -0.3289282523332262, 0.5515104877991973, 0.8842662341998226, 0.35834496665927923, -1.0182920717545025, 0.35339476417369897, -0.3696973209896501, 0.9352383467301617, -0.8540221816605666, 0.6003627077022715, 0.6739188363322499, 0.27298051396931755, -0.7315570907365678, -0.8433943112045712, -0.666223936955383, 0.09688057295251275, -0.6765985356922314, 0.23240968829938208, 0.5394886455008757, 0.16527861868158977, 0.9319915580175808, 0.8253720266768043, 0.6793608035565347, 1.2083223573740032, 1.0569636871236832, 1.073025577355031, 0.9607692635425545, 1.6545456922734538, 1.047721641183176, 1.893016235412134, 1.467457037521997, 0.2982681046454732, 0.3161148686590589, -0.19052696982061407, 0.8415503079013688, 0.456160011136155, -0.8077443621604119, -0.7946391816789804, -0.14215369971550595, -0.9153026189202906, -0.27446398225141166, 0.7855210759847551, 0.7334298740153883, 0.43073091648123235, 0.781992550233385, 0.04478239209930062, 0.7891116994847316, 0.14531141125189972, 0.9445611117327213, -0.20957266429598578, 0.5067338458311227, -0.03322133565170179, 1.0367263277771404, 0.32447632513142544, 0.7511049892672045, -0.5287224769196057, 1.3576118936579926, -0.14257796350362584, 0.1359445882073886, 0.8137504724910112, 0.5632152609546389, 0.8195100365385344, -0.6561470088735033, -0.10981920945613832, -0.2132295583623911, 0.684429286082195, -0.4715677180210749, -0.4715377453660783, 0.36255318754664145, 0.8248557566636308, -0.08864420828500207, 0.7980641360745404, 0.7780538365235038, -0.1272873843016626, 0.4299201479207224, -0.5258658376953338, 0.38035674227514105, -0.3566178148934107, 0.7901689944458852, -0.5788714092894105, 0.9770681186616165, 0.989602510572857, -0.4765263402918141, -0.813720357913101, 1.1213019108758209, -0.643131107232178, 0.31071746884618207, -0.9419674829810949, 0.7431422160397184, 0.5316916932948215, 0.44293876826287937, -0.9458449441670302, -0.19086086159761506, -0.8800390723215974]/-0.9777925008319838
0,5:[0.9580717406440986, 0.3750368000957678, -0.4085976583737372, 0.19391944623465718, -0.9164348335610217, -0.7636922320578774, 0.19179593896114033, 0.7394460228703057, 0.497733297611739, -0.7669735432421589, 0.4470013793762615, -0.5647415536293952, 0.10608483661467716, -0.32170356959640944, -0.043121224708410066, 0.7996774484962474, 0.9277171736645544, -0.6339303655606612, -0.5373159218866235, -0.5132941410452987, 0.4676845090481718, 0.9278279835677037, -0.11553292691131478, -0.9488812594118963, 0.0873776295457116, 0.9008441701639116, -0.6163823749901134, -0.9005109350566136, -0.9377233126994429, 0.32343215424298943, 0.8591278517788221, 0.27607997179542143, -0.05176101005941369, 0.27893688044644716, 0.1263416023043884, -0.8922230169396177, -0.5538442408359101, -0.7656508358130584, -0.14988121460633852, 0.9295402609409271, 0.12451603042613513, -0.6495492267220073, 0.07918175579151941, -0.860602499226143, -0.8856482625043107, 0.5877113665493996, 0.3449234212242588, -0.2006312485013237, 0.931236494982938, 0.6158003755733586, -0.3984506813829397, 0.35710796993654625, -0.04716360951491683, 0.7245414126384078, 0.5256654644606646, 0.4708767190589891, 0.7484518315662634, 0.31154850314483395, -0.0747998544844013, 0.5374424987449578, -0.21287900473237958, -0.22858292543637193, 0.7233712554658392, -0.5962293326403534, -0.45585561667202745, -0.7762792216783365, 0.7733847016777989, 0.908340748165359, 0.7464243732758344, 0.921779073878597, 0.773059776218075, 0.2448230969058424, 0.9103146473695882, 0.9596189409682984, -0.9862776833155351, -0.9476511239429432, -0.07370814570558495, -0.7450164184742459, 0.05240255646385683, 0.811937135448458, 0.38548333887443514, 0.6742133180008504, -0.4491930524352843, 0.28309809456850266, -0.3083417650226046, -0.0226303935465344, -0.2732098591198977, 0.7523557588902602, 0.6346911159075901, -0.7055728711326651, 0.2706148804475069, -0.9023316622591117, 0.8854479777311451, 0.028151669006344086, -0.3920731119949092, 0.7935379367174241, 0.731703267409846, -0.11458502719882602, -0.379622259729254, 1.0139232897615436, -0.763782818227994, -0.417823236781718, 0.33717693025814943, -0.600633599449131, -0.20784708625652695, -0.46346262805950694, 0.180210399840399, -0.7235133644462819, -0.3270677582763635, 0.5270465140283628, -0.11903350256660294, 0.8875782779206545, 0.6767020002274096, 0.7842966225682381, 0.5540968520036547, 0.7156743263597141, -0.5729657726152193, 0.23034721208392128, 0.4564352139603954, 0.8454297905865664, -0.8355202760906416, 0.9381727985621819, -0.5606775862967979, -1.0020436280166554, 0.8994354768364368, 1.0360824325788165, 0.3641832803342857, 0.31952408559151974, 0.02822164662378124, -0.15829120395779805, 0.5488142523493179, -0.8109628983802911, 0.5354494420483129, 0.0356722676602453, 0.0005429803655008679, 0.3969430189666001, -0.5937728251497015, 0.13159205193654996, 0.8936050673703316, -0.7979385521411475, 0.6476770599530499, 0.5990097782180226, 0.7008667708342566, 0.6112950070340306, -0.8437004669692725, -0.5133818710886331, 0.8132788705416868, -0.09632660229193461, 1.1940926856700376, 0.36198308840210475, 0.8531584673587294, 1.6732204579517302, 1.158136910180414, 1.1454974489412206, -0.26877555257818825, -0.12547683513870897, 0.2436104330234204, 0.2106641293398181, 0.25411781888532087, -1.615449433112465, 0.19388802238769032, -0.6224278596962055, 0.9955415396347765, 0.31968738245477346, -0.08606334227336314, 0.2590673882318175, -0.4438891971517962, -0.7361832478686385, 0.4722140582465606, -0.9074660072551743, 0.6280652521851403, 0.27717534231624363, 0.3885354619459019, -0.056207327277353065, -0.4484050701753696, 0.2645297770849601, 0.4121207624980631, 1.0641725161037106, 1.4747830210548958, 0.676345648013731, 1.2003688358398532, 0.6869622256991711, -0.3245066405340757, 0.501058815483557, -0.33321441199056345, 0.4876606565396618, 1.1053080095722687, 0.37617564641709134, 0.13864302286565047, -0.7836700915608016, -0.4553527398108953, 0.5364332696590624, 0.3088037566740436, 0.129613673878918, -0.5946658673860626, 0.516395776117916, 0.88046313132093, -0.5070928060710023, 0.09930194057840813, -1.0046560733357934, -0.6514441085947056, 0.6862645727239371, 0.04321657469942851, 0.7242786015284182, 0.02146166951873748, -0.6327602604804211, 0.7374301157513301, 0.31320381561556937, 0.7916045127683584, -0.1785314646710961, 1.1760654340445327, 1.2206093641698907, -0.4715801598433928, -0.43296836858914933, -0.014987510310654614, 0.2838433486204945, -0.30528444156603346, -0.13605658799205056, 0.17363738517356128, -0.26965245545836664, 0.4114679824181204, 0.7020114026134744, -0.5931891691474458, -0.48232997312352105, -0.41524262788755223, 0.8622465116826876, -0.09252673781092233, -0.30086354852196373, 0.14220238901364682, -1.1945410161085892, -0.26601208955937733, -0.6049836257131246, -0.37969294855300617, -1.2508669702076753, -0.8044333118808673, -0.535360515992495, 0.2867619224860809, -0.6227335282424725, -0.8202849145429452, -0.7762629084087772, -0.001853305626459611, -1.973040268240129, -1.5116037265243027, -0.05016253149008791, -0.2931021729740362, -0.00953810711758963, 0.7066821941880167, -0.31262100442782936, 1.1091388578940775, 0.7388468437012404, 0.8791404071143331, 0.2844804609870864, 0.8031568415982593, -0.7879608521148127, -0.42470938584172585, -0.893224461650229, -0.7246761535070002, -0.12994145575431482, -1.3870294594940795, -0.29984190410485684, -0.292405992968122, -1.2034735599795943, -0.9582928896292743, -0.7781276061465585, -0.6137604217002195, -0.0016430984827390325, -0.16206039599387687, 0.084497895200242, -0.14714128011453836, -1.3375312517642526, -1.4452822857344925, -1.764656999022099, -1.098782383823182, 0.005501529573983579, -0.9105833068246381, -0.162916155664222, -0.38060151665165104, -0.36289021994028464, -0.5089111397669296, 0.24084074609390835, -0.21791273992545834, -0.931729575413341, -0.8364275086250834, -0.7669144426225658, -0.9119144442316014, -0.5694844939520239, -0.12153433011262131, -0.08911403214907423, -0.5371039232839661, -0.7623821245675441, -0.14100448411584438, -1.2114734901587187, -1.095702513003431, -1.077675728205775, 0.4776816835802308, 0.6934769567986031, 0.6529477595483189, -0.4668564254200345, -1.2271368863077023, -0.9949212599491493, -0.7391737982380145, -1.2783265937321355, 0.1586821543687158, -0.1294608360410607, -0.9239775553381723, 0.6204005024125917, -0.03303628262651258, -0.036303137091795994, -0.5802502767772633, 0.8156979866373135, -0.7333378968300333, -1.1593044257810463, -0.39416368727260176, 0.5682603635522923, -0.9542148196730429, -1.4181138493015861, -1.3281461634066818, 0.4042687797684768, -0.928357491057476, -0.5900392833610636, -0.2723492204845717, -0.7520727307936186, 0.8433367498166978, 2.2267825535034285, 1.2866861447852822, -0.6964135780065781, -1.9184009483062896, -1.4295134174088027, -1.388673465239097, -1.6591182810204095, -1.3133364150753946, -0.06611512918809315, 0.24432117647853147, 0.11634904226613119, 0.43666832481070916, 0.7269636867745345, 0.7880154248747109, 0.8258622530352429, -0.13560927886912197, -0.3067628713380642, 0.1570098630679757, 0.19718130139483456, -0.33134710055045197, -0.6593368196002917, 0.5872556375914117, -0.8311800724488039, 0.4312932691723219, 0.27805688736069273, 0.32586862162252594, 1.4175254241780861, 0.6293849744258017, 2.7502458942448302, 0.44081724046274295, 0.8749426194760933, 0.7609083649094404, 0.1091355101414842, -1.4493317076013605, -0.6605379983124698, -1.420390938523754, -1.0342622077257788, 0.19788500141110793, 0.06183304884566065, -0.09150750908121077, -0.7707752153017164, 0.8229230042389168, -0.39956705637469175, 0.8566214816136112, -0.4731551555539701, -0.8984147927770273, 0.6007954793000242, -1.0927192881886008, 0.9611757144249605, 0.020618090408214693, 0.4989554713625213, -0.19974260130971455, -0.2870164590391444, 1.1079191752775714, 2.2054950839421292, 3.169164853451808, 2.4268942908798934, 1.1550878694277205, -0.047723822864134006, 0.045485302682071314, 1.2979984208883364, -0.23032233287488219, -1.0445369175871055, -0.5510430167854977, -0.4543514198479476, -0.41044260092338286, 0.4309617342267525, 0.7719336638610061, 0.8819905562638579, 0.3470002083932102, -0.7514827974407353, -0.8548888177305659, -0.5439831206797959, -0.32621782926093895, 0.212958317324454, -0.5035177726309407, 0.4914563344301736, -0.12500596880762532, 0.0748735915485921, -0.5691648868992463, -0.6398459349749207, 1.4559259621034437, 2.1509382592322273, 3.532322406550257, 1.107562625402487, 0.4047239423786967, -0.2485776670680929, -0.09488227877244786, 0.8090219713291487, -0.09392382474943994, -0.47761217153873375, -1.7441759392352545, -1.152628064438976, 0.024574554709557925, 0.1161864144797294, 0.7266690943174786, 0.03242397265315764, -0.6686148513228636, 0.6242888201594892, 0.9674104367191171, -0.8667616158326045, -0.8324959507916107, -1.1607787072992155, -0.8695226264685313, -0.12036431703805832, -0.198224632873187, -1.2240646196934035, -0.05397940337665922, 1.303727718245058, 1.5015284802878974, 3.421266905769814, 3.197240384493741, 1.2906561328511632, 1.2809621197928256, 0.9455858712199154, 0.8197370334960872, 0.2770339255138098, 0.4910408701757629, 0.4915571356908018, -0.6876400960230519, -0.6710675529864418, 0.10231369856917268, 0.6238728574703689, -0.46998119391875887, -0.9603079056726281, 0.19868685357350002, -0.4806432934376834, -0.7198755276859592, 0.18181401890452834, -0.3832331040435453, -0.5052044510155949, -0.38565205895457144, -1.1252337947211952, -0.8202405915174892, -0.7020489809089099, -1.302059640037123, 1.3981322120547284, 1.9012826265127074, 2.047830309245551, 2.238436485972384, 1.6563209539332802, 1.279046116848861, 0.5741307741616193, -0.6280799842017046, 0.1430077387887684, -0.6771916897245389, -1.0713408501269825, 0.41084729736426967, -0.9048021367824244, 0.0012047032592789621, 0.8366674542031647, 0.37067283929236416, -0.13360603408386493, 0.14760092825814008, -0.6949873116059724, -0.6107616859000562, -0.28276643016951697, 1.1391032778306585, 0.7652639023097797, -1.1073329912412502, 0.22736067918094147, -0.3376367246187147, -1.5892339745082995, -1.17579644062418, 0.9832590096252571, 1.391412485068135, 1.7770155510531622, 1.0141026617649005, -0.10987060692683864, 1.9583411546179048, -0.4286736251265066, -0.5728268607633239, -0.6979732880660803, -0.9033522085275346, -0.11129348499869575, -0.436141073213772, -1.0652132089162654, 0.7525595992872957, 0.04959557139407803, 0.8008846102362246, 0.2448524632834713, -0.42649893645318837, 0.9691663600881022, 0.17191665924989466, -0.09891884487932648, 1.227791101876488, 0.22870406948457497, -1.0561826119930475, -1.0673386260369282, -1.1200283689138213, -0.09356163485048981, -0.7602938072809965, 0.22412495585626876, 1.8241848196729669, 0.905137827490596, 0.39028002489212515, 0.9097755430837507, 0.8751623770931657, -0.28200208054746423, -0.4362098846754644, -0.21205462540820874, 0.6729738895333354, -0.011608279658486478, 0.04470657919791921, -0.6545822675621362, 0.14457833959428246, 0.40124410645812114, 0.5553251718883638, 0.6842213814839165, 0.439770611967379, 0.4742877724745507, -0.8066423345950846, 0.6949553051084598, 1.0449907936161478, 1.3238601004895085, -0.14463917267184392, -1.0679591678334006, 0.721736691679419, 0.2494888256868145, -1.2006675924552928, -1.4613902700028871, -0.49574940651053323, 0.09753606719438106, -0.14592007899464388, 0.12987496395512557, 2.030679737338114, -0.5005588618835636, -0.6854904272842801, -0.11263508411746938, -0.3980022462671415, 0.35541874379566885, 0.7132537621016516, 1.1060266627129, 0.04207238766939308, 0.8419775834603322, 0.18313567162695554, -0.6773397327042877, 0.6192715219011333, 0.4274608570224273, -1.003175342544717, 0.5442342084057854, 0.15293429597559807, -0.6065626090877617, 0.35432727139445513, -0.03681060269662267, 1.3066239190877365, 0.6008311579180795, 0.4942566650603824, -1.3052088499716654, -0.14918248419422767, -1.0128127940282283, 0.8900016852402752, 0.7310597432784343, 0.40279686443080187, -0.04485325822486444, -0.8746560147410332, 0.4996021992523341, 0.9087150382111545, 0.18831405659208192, -0.3880677543237624, 0.7869241020108427, -0.6731126296538854, 0.033624232091487676, -0.6056823456997038, -0.9700927773536647, 0.4387451312767122, -0.43325575243826275, 0.3407138470514361, 1.036674851622727, -0.547349543960158, -0.4485066547958943, -0.1121738421766077, 0.9881771823769593, 1.1837860863551588, 0.8084292012754741, -0.2537363201047199, -0.8123464849514512, -1.330591187845448, -0.7330986084512624, 0.34057035719099304, -0.17334122098313057, -0.40644214750964935, 0.7781299670704878, 0.5064780750216298, -0.5813151779396295, -0.20311180938044157, -0.11092068645876062, -0.5636393961839667, 0.1846154217742558, -0.3433087485233804, -0.6551821129087771, 0.13281997952337918, -0.8909048745507928, -0.36065485013159126, -0.20714906156046256, -0.7620782951437345, -0.4467873715479091, -0.9036770730966055, 0.5571822414723228, -0.26930607761095, -0.7440424181198492, 1.1312710254436604, -0.7922278587399532, -0.46122718487565284, 0.5112596682262196, -0.27682158912556915, -0.0492273987167571, 0.32931853152989493, -0.16077138794200366, 0.9167013538662674, 1.5925352838983808, -0.013537447504933792, 1.039726796969185, -0.3224346210738643, 1.1486958196001422, 0.15877661525181133, -0.4291899494980342, -0.8362618985028578, 0.5354595348029505, -0.4905325172639347, -0.3959927698420196, -0.5257372820642183, 0.9900955710535142, -0.5164197300902149, -0.26575583121843654, 0.609740739055631, -1.0058791019826276, 0.228509385933072, -1.0273184886186255, -0.6574884075317329, -0.5503995342937431, -1.024387096932023, 0.1244253009673325, -1.354384284419271, -1.173839270971244, -0.3800735765739884, -1.0669736832721126, 0.42661575851509465, 0.6125487326122413, 0.9378109193909716, 0.07797136654328428, 1.2752793743900328, 0.31325720315261, -0.4572909205837538, 0.23988403160352312, -0.7838040162957891, -0.7919568523207134, -0.5423190923030252, -0.8915286746212674, -0.453251423977878, 0.3056404130755024, 0.665251268333515, 0.2653979675194549, 0.30257812201429246, -0.38512552952052537, -0.6516317938101903, -0.9589865145744241, -0.049579407463875375, -0.7750866865716814, -1.0829222883694776, -0.5616355884748246, -1.3478943681920346, 0.6195758563371702, 0.38381864637190566, -0.9650776195002391, -0.36461848935278646, -0.16169698641267355, -0.8646769592384824, 0.6315075507603514, 0.43404945735801564, -0.8475016494538004, 0.060083386698475065, 0.975887511606945, 0.5616279574064157, -0.12725172026851048, -0.9406107917074712, 0.06767392510311976, -0.8236524191341423, 0.5693563477499464, 0.6075649953779055, 0.09248871438299783, -0.6844390084030378, -0.23407318745837039, 0.2239494395885484, 0.5178705301216051, -0.3825022862037751, 0.6839374378773387, -1.2669796421638724, -1.0479471994833933, -0.9365289205275874, -0.566772429393314, 0.7074349934795354, -0.01800256012194362, 0.28872891289394187, -0.9625586052094774, -1.0678861561828965, 0.4798237762344819, -0.5528305377887408, -0.30846981395349404, 0.47357497567197326, -0.7053222944012709, -0.7366897466859049, -0.7756317120847651, 0.16956048008073066, -0.6879248253276962, -0.5899078457156255, -0.6982085270342049, 0.5887472871772155, 0.3414095267783562, -0.8273672689087567, 0.20421216110238904, -0.4096503952076818, 0.07911526305292864, 0.6423581004443174, 0.5042511622055826, -0.1859873640858296, -0.0835070410835173, -0.7076815886274642, 0.507549769800202, -0.6376037285339828, -0.4653130114582564, -0.3547838552085264, -0.02448582980076569, 0.49028741811632953, 0.4350775270967612, -0.3146615172059886, 1.1022503546263922, -0.5936475941128044, -0.16602554312210566, 0.0958700739745697, 0.6299280989736571, -0.35350556688580514, 0.8129397497049753, -0.882837883099685, -0.413163948070818, 0.9638598021965741, -0.7646892388975428, 0.087627905980919, 0.46665070894916594, -0.9806784560284482, 0.7326901450458744, -0.52609034388787, 0.904819323732661, 0.2776022915919139, -0.8383466435495702, 0.1701408777014876, -0.628995203920536, 0.8944313895974068, -0.1896562712442935, -0.2669539003228127, -0.45513835626947186, 0.6855115367123894, -0.11612947345895477, -0.24372325287594304, -0.9441682309528543, 0.7131859169898592, 0.9505703802001051, 0.27461662728589964, 0.507077408613168, 0.6024096903626506, -0.930095984457634]/1.5018750341258922
