Lh,16
0,0:[-0.6744786874218358, 0.6521924613542631, -0.2227352718269966, -0.5982898538751669, -0.3913937212453231, 0.7194760851249449, -0.7223181003752188, -0.552477838914414, 0.7769066139880771, 0.7523597983678327, 0.7246943647193573, -0.995280979396409, 0.7724064662837296, 0.03850531360567522, -0.19257175348153321, -0.870953291357613, -0.3684801176068797, 0.991987443196505, -0.950964039272947, -0.6279361005538735, -0.2868532225588687, 0.7709417630848772, 0.16446197377982696, -0.31869097884598796, -0.7947276589519645, 0.19496745147022598, 0.04158060225357274, -0.30635132725660386, 0.8270103959395689, 0.4658192059334685, 0.8625784039811817, -0.9235498625394836, -0.10910062796102027, -0.3183514336703068, -0.637401167656988, -0.6039880587722837, -0.03285713025523718, -0.8681796331184184, 0.7069960603162311, -0.8914220498913821, -0.7407365619627284, 0.34797480896605437, -0.187013028672935, -0.5522833627345041, -0.04460153860270277, -0.015693316266577995, -0.5863366176635814, 0.16696839263830787, 0.6617986274610792, 0.3605548741678035, 0.12540470479190446, -0.14731933690572996, -0.9418419742922881, 0.5367581354347071, -0.4839851813459932, 0.7900890438255928, 0.012170865139666809, 0.912573880947023, -0.7729480192541052, 0.6155454120919497, 0.7639936725666041, -0.439809188856348, 0.12313216650665271, -0.08111990143891656, -0.8302109799876309, -0.6873784239796723, 0.945367927835411, -0.689041635712959, -0.4302247292801362, -0.9464860306067759, -0.3732020835804497, -0.7473036102875197, 0.3258325219980045, 0.7065299049101521, 0.40675822816472373, 0.7059509055173283, -0.12292019274974697, 0.9865154706042993, 0.30789825711899943, -0.15409479639403711, -0.6257541083618177, 0.8117968153098023, -0.24164401839963134, -0.6337604400490853, -0.20973547359148048, -0.3587862589597539, 0.9782238128633365, -0.223309460668365, 0.3400185765736701, -0.044375128073329995, -0.4831793344200821, -0.9761815625196197, 0.9464057815854161, 0.37518752702118485, -0.49389313232347853, 0.8018584198702907, 0.45761831563269695, 0.6528275973194444, 0.7203273095725893, -0.5054283311114307, -0.40818011167555723, -0.6843394371164695, 0.0536471109333414, 0.26114815413800874, -0.18418293972551436, 0.21624888526556485, -0.46433840378709923, 0.21545520866984402, 0.6416040761042368, 0.30529857393002713, 0.6187301390547635, -0.2832652484314866, 0.644096963083578, 0.6617534645289131, -0.23345068180271933, 0.01577380180477861, -0.1033458191340908, -0.9861776228115016, -0.8268233552288675, 0.7051256327593449, 0.8024085140250417, 0.18953447575186222, -0.7977084448823952, -0.9313014655929492, 0.9897821203007822, 0.3841897163906689, 0.3256332250304894, 0.7275811433847728, -0.018372794577056206, -0.33144882697218425, 0.7850486411042352, 0.3498322262005653, 0.2405218457030176, 0.5927224052261306, -0.14675990680907702, 0.23274517467746358, -0.5227478400738199, -0.4430100274612363, 0.9715253402033468, 0.47960568741590803, 0.5744936684029995, -0.5634610797235222, -0.06559190467917553, -0.8998478669900116, -0.6597710123361347, 0.20813018997425625, 0.978279794436868, 0.17437523356221152, 0.20020396524236772, 0.10259291888660726, 0.8130603420916453, 0.992301966620118, -0.8612145715491146, -0.9411264371435317, 0.5281879147238644, -0.7865730296420663, -0.7112885405581497, -0.3664916479817921, 0.8217906955766516, -0.16115897972160376, -0.3248352212964791, -0.12127049203165097, -0.7391305577563938, 0.013776218824310238, -0.6255871531585055, 0.6125954647971206, -0.1348992751224487, -0.6978430994098392, 0.4483783432601509, -0.3335378057725542, -0.8215845739988272, -0.25462279053948533, -0.12079732737586224, 0.39548062044779897, 0.5503837344187041, 0.8570386611860923, -0.13808565418272, 0.40636840839071353, 0.4087029003798026, -0.8471321528264915, -0.19539767420849485, 0.659053484825562, 0.9521994160524394, -0.5641563875092321, 0.9936796529512986, 0.43361839183737394, 0.8381609154418237, -0.12525588401808396, -0.8447128294273536, -0.3159422639374938, -0.9710091189088299, -0.09925515776895932, -0.6009383042463232, -0.9805928170271498, -0.6382144937956198, 0.2896083745562401, 0.10237420819555787, 0.3012770444831392, -0.23617358968288538, 0.9964373174317323, -0.49710541028084587, 0.375169279136206, -0.5912773811131913, -0.16251015491641274, 0.7023082543225991, -0.2710199419312844, 0.6231492411298176, 0.43209780902927775, -0.5429766395762203, -0.014202893276340056, 0.48867400079203493, -0.87715272805337, 0.8051278802430117, -0.9581713316753704, 0.6597476478452682, 0.5947171623817129, 0.459763760900755, 0.5913933756009149, 0.24131701562222418, -0.7840265076700534, 0.8027759935218446, 0.6132342243509965, -0.07440705867425246, -0.14961433264883972, 0.5559538235139847, -0.6821163382782152, -0.2761984303205902, 0.6131293709491576, 0.14717853042185447, -0.07640861829576129, 0.47192680570220924, 0.6689712556598724, 0.5223307188955453, -0.2620990712440434, -0.5314853355097844, 0.38244441230234294, 0.293507554914479, -0.7057584026951049, -0.07481369250155812, 0.20283711266226367, -0.8645698013463505, -0.9921234319474106, 0.6674917734739663, -0.5403987627319136, -0.5585380343766091, -0.5525906387729365, 0.35786130938069105, -0.12365360352909738, -0.06999289981255785, 0.28868470919047406, 0.37464422150809407, 0.3536768025244734, -0.6323549900485124, 0.30175432348840636, 0.483452962743949, 0.07052452486581018, 0.1340473488376157, 0.10797258713680913, 0.3861470488435492, 0.17561085190363412, -0.9339653558848542, -0.33589335669466625, 0.1320060228410731, -0.8583844391371409, 0.35100960897989064, 0.13879141205259526, 0.6221988977736908, -0.19532226954341492, -0.6886475010057864, -0.6279486842792863, 0.5637906204250966, -0.17345347706346304, -0.854104898019526, -0.7093687517014422, 0.5931240943239913, -0.1294493438923554, -0.9185237121306815, 0.11746983603263184, 0.7105241174094366, 0.741442960103734, -0.6919877301684241, -0.5924250212928126, -0.3460777714387009, -0.37715223971884937, 0.4871243689957625, -0.21263139982051027, -0.27163606631165726, 0.3675390630455935, 0.22979634969156737, -0.9080005756081999, 0.5740440026521987, 0.5106218511868874, -0.23280583349977846, -0.47191593147129884, -0.9083712901719405, -0.06197423947115266, -0.7195955493257111, 0.19767909440828468, 0.026468860327394816, -0.3924730467116646, 0.0003658630649434613, 0.8974345449249863, -0.02547279453002993, -0.34419015980571044, -0.5197532036525683, 0.5338329237008614, 0.8968124465747016, -0.3414847479393004, -0.05603425825877251, -0.5793596378433881, 0.8674852350995468, 0.17221855947387876, 0.25466115475634177, 0.629396665989834, 0.35323260048852667, -0.04196180663226601, -0.0011767876436032942, -0.1131189833568873, -0.209482677594389, 0.41135267273965637, -0.4020598773672954, 0.8175571501649974, -0.8883614647192599, 0.3834771761904867, -0.1666203699704225, -0.8895334424229437, -0.971698798595471, -0.21832745431799805, 0.35308272352180015, 0.9326015951171576, 0.5586047107007261, -0.45994649086620787, -0.9302079007979729, 0.44105674464665623, -0.09043879213107653, -0.009758576189445645, -0.017994597090751352, 0.8460060230979203, 0.6259617084945595, 0.9477089065057902, 0.2454932587470955, -0.4374647153805815, -0.8198928025159036, -0.11896595355507267, -0.9393290365953022, 0.8344509166739176, 0.3308760552240704, -0.03404567660437219, -0.9064835627625574, 0.5993623129241146, -0.576268185257889, 0.08992577722965, -0.11952813285594588, -0.7059017479356355, -0.3812272737079443, 0.4859135809517423, -0.7872901526576197, 0.2898408948359672, 0.9740589374787949, -0.8877935433625697, -0.5911346915192164, 0.523047886627372, -0.8972111426582763, -0.06888283917643578, -0.38106523892231703, -0.1608110633927986, -0.6065327923597126, 0.8530320597198162, 0.3452291848995668, 0.02543879755692169, 0.1047407365262607, -0.27840308816243464, -0.5851357765585925, 0.4271737027755571, -0.3917178704677764, 0.23629441944296814, -0.9081329796061366, 0.05679209672486629, 0.5069406373161891, -0.7286629481635918, -0.007137677955227684, 0.06878162665270793, -0.5617997739128935, 0.3680062046809254, -0.8085799963515741, 0.73714941718687, -0.8234518048219246, -0.5123385337399939, -0.8286460304496233, 0.9519776584997193, -0.4647915799664617, 0.38559218041440935, -0.857014156933281, 0.473690478806132, 0.9838550745950545, 0.712937802084928, -0.07619228528414124, -0.36250874415888723, -0.8443923394858932, -0.7658224179427009, 0.6729472725932371, -0.7327979075826083, 0.5904937755576496, 0.7890383828939413, 0.5852271353663432, 0.0029079253493737856, -0.233465893262508, 0.3631916370343453, 0.6792670071433824, 0.21274086453409424, 0.4888985541471442, -0.460580112178681, 0.9117158300924741, 0.9905306049236853, 0.24052605351135425, -0.4929900000703846, 0.9812933816035792, 0.6306737235147815, -0.7608747191305114, -0.07790159201351377, -0.7467375294237673, -0.5296336521143847, 0.4976467563971212, -0.6955348063308593, 0.9751892270148743, -0.8768927881021753, -0.671044920728133, 0.4667090794895863, -0.05512235192455761, -0.02527984344338785, -0.6328677946438757, -0.4698426879269151, 0.24401863887861297, -0.008318681273999262, 0.853730952573104, -0.05077348278766358, -0.46043947320329326, -0.6683059223338257, 0.4235459116687841, 0.22708657475719618, 0.149351217983271, 0.4253010685224152, 0.37488612686756584, -0.9520127759388182, -0.1709111626107087, -0.6655788959973952, -0.4187759463126399, -0.6740746623236507, 0.3244655023670475, 0.349647395495605, -0.17724986049516223, -0.6086671532198187, -0.9598330938693145, -0.2596617632846583, 0.09944714917208675, -0.009669290280061471, 0.2745084471592423, -0.8068935049264447, 0.33459483808782564, 0.41465672704663015, -0.9388939617849019, 0.8240083245724759, -0.3381085931044394, 0.13055056721303826, 0.3753663464577146, -0.1934964602473681, 0.8457307070244613, 0.051739012371618154, 0.4075455044868632, -0.8944948919431135, 0.3592152243727238, -0.9562829614358928, -0.9658177459977091, 0.4873031213783303, -0.6544016282112051, -0.5008960806626674, -0.48627134977091613, -0.6140231726878627, 0.7475609659539169, 0.6463367693040645, 0.0366516700094186, -0.9324398532638756, 0.6404353696359972, 0.11580655218675551, 0.16765262016785076, 0.03331863817287961, -0.22581274667981655, -0.39286439288126807, 0.34212365889563356, 0.27493374820708016, -0.09561982142973813, -0.3307185559181398, 0.6474104367021138, 0.19169802845556871, 0.8536532136483761, -0.5585112764950968, 0.3166194635350559, -0.32620745630183445, 0.9021417732571779, -0.07615728053191484, -0.5612961815201596, -0.6645237809583788, -0.6918460264330404, 0.971762912503974, -0.5617219616723228, -0.39254897308872194, 0.395752947211627, 0.9703434932804282, 0.061533608947137, -0.09752092271352941, -0.22695095917327057, -0.5507770139895956, 0.5290243579112373, -0.10860920677677033, -0.49461787712398664, 0.27817134317937864, 0.21904441693538845, -0.5109154647890861, -0.3946637102217494, 0.3026511663378455, -0.5379788100588954, -0.582766461285257, -0.669495814161456, 0.2324134015456143, 0.46051352119512723, 0.1663433512228052, -0.7900450808723982, 0.30716514894903035, 0.9960907513697623, 0.6440554183319767, -0.905172994263802, -0.47436515542589786, -0.554660229539585, -0.7960818536063601, 0.741053728563938, 9.374571140030596e-06, 0.7966577556915275, -0.6212090472950369, 0.812194279987414, 0.46800172700714815, -0.9053939731374263, -0.26440082078973703, 0.2999810976223527, 0.17149809043605568, -0.7940744086196869, -0.8691733083832627, 0.8075436065361006, -0.3744386520216365, -0.5615173264001581, -0.5873874505987229, 0.9104672907558311, 0.8866516773311852, 0.6438667811763847, -0.21188036007118094, 0.1908302985174657, 0.8804380380078842, -0.09787005963052975, 0.16658898720223458, 0.36144358485005124, 0.7042926706270216, -0.41567494117099635, -0.09225206066004721, -0.19176635714303503, -0.26178438359384004, -0.7922406690646799, -0.5293542097238182, -0.2906039531316671, -0.7016592926319265, 0.747044321224837, -0.4455888010816722, 0.3103897801970572, 0.32152049956083717, 0.44809207863119616, -0.914838370666234, -0.42444747668258365, 0.06416624248715741, 0.49780133020567785, -0.0029811671634845105, -0.2387752869508375, -0.43540589831115595, -0.21867989173307611, -0.12986394919641042, 0.32556677735459894, -0.602181418140534, -0.2186470279313908, -0.08472465043879529, -0.8533614601161987, -0.31464932601754025, 0.8739304589160504, -0.6282255679472939, -0.05537421297795486, 0.2959752898960053, 0.3746435471585172, -0.8211309253537331, 0.7611480836927198, 0.06189341381562974, -0.016566607775537756, 0.3687361872301176, 0.7588974238233408, 0.7639168362381359, 0.1131715054229252, 0.3007513591870956, 0.41697013773709624, 0.12922547642174198, -0.8811219293509576, -0.9668177661124464, -0.14962397711976871, 0.22984337078190853, -0.41811536149075934, -0.8441005736969225, 0.887829557009221, -0.34556610514910546, -0.45053657000658487, -0.9338503346060236, -0.36217678743006854, 0.8150232369065566, 0.952619493675662, 0.1295943466479761, 0.6455960024722367, -0.7480459571814224, 0.6346159393363489, -0.6718181200552167, 0.9282912848036742, -0.8375200647298804, 0.886623835594367, -0.4453528116465082, -0.26654016408553116, -0.6070029099704097, -0.7045021558672515, 0.8265865029594242, -0.9917066315330103, 0.5917677240488552, -0.7487828267872829, 0.24747539074687186, -0.14092029339063217, 0.6011730300927753, 0.28422298048481776, -0.6638671048867302, 0.21355156197998526, 0.9729911102057718, -0.9997388611335831, -0.8873974387265628, 0.08914125868807932, -0.26694817703603, 0.08870436226553369, 0.45364657431925925, -0.05316868328299318, 0.9338386925273241, -0.5632163590837098, -0.2922134537610235, -0.45607195712625637, 0.028915446968247993, 0.7765330063736366, -0.6346114279786981, 0.5130775113321802, -0.750902271548819, -0.38861947079649184, -0.12681207848126919, -0.5777205164031345, 0.5870383967982562, 0.920695220206524, 0.007429774494493557, 0.9650148202990225, -0.17895578915860888, 0.46705026059294097, 0.32198318357673794, -0.2919715648216257, -0.4528785419544086, -0.7590373055189081, -0.5351469344213016, -0.7270608976646804, 0.9716200668437147, 0.6289237150823961, 0.44570156601757627, 0.13750127320670913, 0.8022747831322521, 0.9766985329526845, -0.4884100998389691, -0.2873290616195925, -0.35127857753735836, 0.9480518535014759, 0.6970865612446377, 0.5201503260139746, -0.5507715817388548, 0.32294840844569106, 0.3483316508300889, -0.9055658397475976, -0.6066471729146976, -0.1295462720912801, 0.07699598466966306, 0.499912702226776, -0.8433874102552925, -0.8546695258111487, 0.0880054511240802, 0.5631146861130432, 0.8437669600949953, -0.3766611109244613, -0.8235142216123723, 0.9168790747935078, -0.9721350123112027, 0.14404873263603046, -0.35594853151474903, 0.7715903345282862, -0.8777507976496477, -0.8963223320043319, 0.45629597177767955, -0.6536575031699194, -0.023888224637238498, 0.24718942178570424, 0.30321731544883757, 0.5574969666989793, -0.033295194008007956, -0.6542121115518817, 0.810208189590834, -0.441227954976664, 0.8348245814348771, 0.7486757307616423, 0.2843736929427447, -0.20058843035610718, -0.8427008436159633, 0.8584808922286122, -0.3195260750463762, -0.999757816391946, 0.415733403544565, 0.8935803794458965, -0.07720470461425477, 0.5174970374779393, 0.777410205880475, 0.21554706964606463, -0.6153432125318219, 0.6616511202572446, 0.5819815549071026, -0.535449883079951, 0.3078454855725026, 0.6486828819009633, -0.5642146869244589, -0.7893256863634879, 0.9047205468670705, 0.7104003209321208, -0.490077996456902, -0.9352417603363983, -0.7345594332727436, -0.35681108471458534, 0.3336087365968117, -0.7166453831594819, -0.9160902078238387, 0.8136989231214051, 0.6131710268697204, -0.08835208362193692, -0.21174982925789632, -0.9192951281664596, -0.0654717680503436, -0.9664138389391328, -0.9275560003345287, 0.33974900629288984, -0.858166240374088, -0.6298584504702915, -0.023827951255570357, -0.2775972489277456, 0.250462415469058, 0.9230962180776912, -0.4858063282321121, -0.774184825202719, 0.7704762841615644, -0.8725947295183418, -0.9125553017352512, -0.6581897961373402, -0.32324227698371377, -0.8459614668992175, -0.39239703785698876, 0.9707673175868752, 0.7146216272461128, 0.33337790938874634, 0.03851619144690477, 0.7243489818791031, 0.30134480496530713, 0.06653908484901216, 0.5119729784832641, 0.8814453516994423, -0.03514568704335774, 0.4349064568610277, 0.2845684454481954, -0.852423417749641, -0.6288675276788684]1
0,1:[0.8927538254528231, 0.7058111124865882, 0.8477183636995944, -0.5510369978424932, 0.6492405251007978, 0.6170770838401396, -0.3036867007049251, -0.47282917757208165, -0.9998168952811428, 0.1561221406065254, -0.45440260297974056, -0.8803717561786191, 0.8210856996874583, -0.24533829938166596, 0.03235012712612906, 0.9235031311388007, -0.0992813315114558, -0.2060504823462861, -0.926925946150146, -0.7664694000049621, -0.36908051960505284, 0.859605206908322, 0.014781000143055056, 0.5114835745784316, -0.4339606193443888, -0.6857152450436981, 0.9186216424910598, 0.26376930294056744, 0.3269809966578894, 0.825815025012981, -0.09345380774186163, 0.17925202770579385, -0.6498119845329902, 0.7421629276774531, -0.28861872069505945, -0.7457331128648912, -0.03300033654990009, 0.7917354280304565, 0.6677722341395502, 0.8613415463208216, 0.15619667514125113, 0.9189183009143187, 0.040778050770405416, 0.1450174286171153, 0.6264738123395248, 0.417947058969532, 0.5693984911465091, 0.8875955673406553, -0.696994528138231, -0.6552585381072493, 0.3578810145023916, 0.09303454290866786, 0.7296527787683111, 0.1319992079214769, -0.32281915563655184, 0.8180169181136496, 0.5383636890637773, -0.16440860898408238, 0.2843305328154466, -0.6574539353342645, 0.6843978224899148, 0.6444559015833287, 0.13458075275441916, 0.1257175395971175, 0.4451577501490165, -0.4311687723819111, 0.6865706792937314, 0.7071549501775327, -0.29623550877250837, -0.47245652826561724, -0.08193625726644194, -0.9176582927471972, 0.7546819668424376, -0.2831627363619953, 0.8186244274709888, 0.9836163422544433, 0.8133383221417834, -0.2461406521831131, 0.8610168686852524, -0.600520419189412, 0.7150427791824983, 0.02751090437460646, 0.4357809160238253, 0.003717149957831456, -0.04216336529723019, -0.40555568686057764, 0.9601214824561792, 0.7472760559800504, 0.5122142465512236, -0.4247040488126195, 0.4907179256811398, 0.6775615457301714, -0.9563138337687238, 0.23130689494813717, 0.779143334021523, 0.8640255774544445, 0.5145932729144986, 0.9632272622675968, 0.24743872597981675, -0.5143623772288002, 0.669682492763128, -0.3984605655594442, -0.5775390960157023, 0.6930916333039565, -0.9960966326050598, -0.6822139846490232, 0.7809590458437543, -0.41327712386412174, 0.2508896647587746, 0.0006290363644567698, -0.598675881060382, -0.4685464327725528, 0.4429308479432714, -0.48118051717546484, 0.18439521720768526, 0.08976588559672982, 0.968983110196507, -0.17166070716475024, -0.7416102770781505, 0.8315996451435719, -0.08178602601249363, 0.079852647081331, -0.6437264718958433, 0.6616859336896499, -0.7626841545956029, 0.9877702111212219, 0.6149528491141076, -0.6517479061181182, -0.7609667460244665, -0.6226128214189515, 0.28201397893041724, -0.8173045383530098, -0.4782412395999218, -0.5680380234581288, 0.3934264789517652, 0.4891522589698192, 0.09009994364545482, 0.7550338943635242, 0.02011279003161426, -0.37570200543496957, -0.638082992638537, -0.7450891674592821, -0.8167756831732738, -0.3279363916595679, -0.5536507095080523, 0.9590255138439332, -0.19671473160302555, -0.9074502513964959, -0.7322730821407661, -0.45120759929915377, 0.2281956356989736, -0.29986718879974594, -0.022699409913935265, -0.6080532615822702, 0.5427996919320235, -0.362006698698766, 0.21159119971116036, -0.7248114204160432, -0.6936497526118233, 0.20195376920127228, -0.03613119713906454, 0.9274368227932754, -0.10668632167115089, 0.49468845916123594, -0.8285751789792084, -0.0286812794503275, 0.2931802497830116, 0.6806557176281285, -0.8552435121876871, 0.946756266322329, 0.8513098958447913, 0.9508189494675574, -0.24787805929749251, -0.46178013573613974, 0.49553773461438944, 0.8006218442260122, -0.808319823982699, 0.24407877688296264, 0.6916971120700341, 0.45362891833477503, -0.5225718168158999, 0.7062328639812405, 0.5143754914321219, 0.28759981983263505, 0.9300648649795131, 0.7726798429323052, 0.5629032768816278, -0.4461769298388456, 0.7640624181713138, 0.11709576259343457, 0.4917629136194537, 0.3319504435265268, 0.7612565685400725, 0.09338587462431991, 0.8621351643608579, 0.6099689527826453, 0.9628463860288203, -0.4313451494540903, 0.6284042812626227, 0.9929990885803088, 0.021584622105711215, -0.7133956857301087, -0.5242171952346582, -0.8394701313775557, 0.9918996750721125, 0.5728581357287332, 0.3250720691925324, -0.6472078184206882, -0.7959965273514684, -0.030113845423699548, 0.023410765381492338, -0.305890801992577, 0.8861581458835268, -0.9935094556137671, -0.6991216447484725, 0.4408395844226267, -0.9006323750065885, -0.13110786338676372, 0.8434185672363028, 0.9567127751562523, -0.5839841554131833, 0.8779923064937578, 0.5567335513738465, 0.8868206450586957, 0.04306353219188064, -0.21262308186329193, 0.9037955503044732, 0.4560301589273359, -0.11821209871297422, 0.5872160680096334, 0.05061307453349606, 0.6471745841489105, 0.6723740490447063, 0.09825907828474767, 0.98345441272616, -0.1639721084463146, -0.40981603933228494, -0.22375456751333989, -0.16891159934760425, -0.8948764670982139, 0.3668598171598949, 0.040399608882029536, -0.8118521538878651, -0.5787480502646496, -0.9686985124388869, 0.368305387358961, 0.23911168208814249, 0.6253830276640626, -0.4545445499821923, 0.7528415784786726, 0.8559391557032834, -0.7597459543846699, -0.9149234114916565, -0.1317698764843782, 0.01694084116286354, 0.5776155026485619, 0.10013388439536186, 0.651668997434774, 0.8994503489393715, -0.013356436759963453, 0.4963331074430257, 0.07373360665132656, 0.6334246750926471, 0.6272674358847763, -0.3588374293797545, 0.0411316413452123, 0.0196378497715326, 0.4469729415509396, -0.4400628005354934, -0.679099079590552, 0.4277718518488609, -0.49613997725816583, 0.6730287560249819, -0.3783729336482553, 0.12738460601643298, -0.7030900353771032, 0.6031837673432532, 0.5266544054902593, 0.2827856598636389, -0.6658084549408827, -0.894121905321815, 0.6765820679807748, -0.08459792837670732, 0.8285289102644313, -0.1509941453606134, 0.6112466622317954, -0.04653998756852018, 0.9190530372728514, 0.27361423887851255, 0.6514824518193703, 0.5933534442788067, -0.42886770208583336, 0.3364127736404834, 0.40529414232671557, 0.7628573777710141, -0.4502337569750037, -0.6640883686033949, 0.28312303128473015, -0.9422084193664957, -0.3645162680165308, -0.5538159809910925, -0.0959098308281503, 0.5233772645488215, 0.39052275806672565, -0.6837743266336223, 0.6432718630947172, -0.979066294825996, -0.85935576659884, 0.18603472854583503, 0.2554322235009143, 0.8100792775807184, 0.9546847127183438, 0.32248107771184675, 0.052959535096865906, -0.1170273601141385, -0.3056275716027155, 0.691348735444492, 0.0074092834728316515, -0.7868208383274566, -0.8046183688804154, 0.05197160148533175, 0.845157435368562, 0.20113520310118727, -0.1317100241875504, 0.5009201973699415, -0.1809674753863033, 0.5724349643919622, 0.920059757456807, -0.25947079761514735, 0.060773484724599536, 0.5800300222131978, -0.7809850566182133, -0.8127813177426417, -0.5905775755282059, 0.05167286518637915, -0.7783679905240195, -0.9699997561879172, -0.6604447977803805, -0.6415967646085337, -0.32646071015151046, 0.16579962964079953, -0.13197940151390286, -0.549418713781807, -0.021854731792470883, -0.8479023297707433, -0.4154445597871945, 0.6083991463364622, -0.7450637273403207, 0.007357447119453964, -0.9354534912867576, 0.855249136113861, -0.816525326743833, -0.9124934675375898, -0.03241178207656481, 0.2527843337961213, -0.9589506530877714, 0.36546702607928916, -0.3743103196830777, 0.8584889278016985, -0.799414246565942, -0.5357315480694607, 0.8161206382792565, -0.5227202112040708, -0.5615593384159077, -0.5227590884020841, 0.5458416654069611, -0.6302510772740704, 0.0006868224849143623, -0.358341141113677, 0.9223789361343167, -0.3747788912313088, -0.36576678756388903, -0.8253673515717375, -0.32545836726044564, -0.9507770190620557, 0.6936171382506393, 0.14963465548629995, 0.2790068043045175, -0.17468267666946158, -0.002205428675274179, 0.6523657824094995, 0.8888017468566387, -0.1131671520042068, -0.4624258399224004, 0.689689447190182, 0.3898449265223507, -0.9733660885223763, 0.7602277253375356, -0.5615450263715303, 0.5043405621291384, 0.4051391593771023, -0.48743606468806866, 0.9534994459933082, -0.44418833289941384, 0.014815329340661654, -0.7013748365975485, 0.9071801781970412, 0.6405062581053604, -0.9271514066004112, 0.035543710266631834, -0.9246368862525489, -0.04010180451302103, 0.5526245449003515, -0.39211259227470197, -0.9321501723075187, -0.8905657185060099, 0.2778647822791207, -0.27388468010283606, 0.1934401019087979, -0.6526712864398159, 0.3378645131717293, -0.5104100146207702, -0.3019946686246211, -0.14231475820893147, 0.5519785343754804, 0.13072677247981512, 0.7383312301369351, 0.059424179169240254, -0.6836746089083392, -0.9252483242746867, 0.6646773473398842, -0.8402158033422258, -0.8043601791328838, -0.3807312850229223, -0.8306721559632013, -0.07977627423275635, -0.8792320938669009, 0.3846962826623792, -0.5536198586516516, -0.36383832448169273, 0.09911831471419386, -0.8674399729753433, 0.4959919764151506, 0.09102532573599009, -0.3398663687673875, 0.03114095439759179, -0.5652664409325154, -0.7901137839744257, -0.40680539873378496, -0.9209058127873391, -0.3386335494751078, -0.9914277599228851, -0.3894934758844635, 0.575710784217043, 0.4213021338398053, -0.4081095126053045, 0.43488767327067324, -0.20409800380373877, 0.015812991924040842, 0.38239568725915873, 0.7467139191334877, 0.7669194979706273, 0.9959193911126032, 0.24596696644891236, 0.039895843738551484, -0.38619432698672007, -0.10871990786131192, -0.4758945124524474, 0.37544370066408383, -0.9590559337617617, 0.578610013029633, -0.7165766820616668, -0.7762928756802965, 0.8801802286538842, -0.5310093575549337, -0.736691732225319, 0.7800124029069286, 0.4561840529695278, -0.1501446249055567, -0.9190413823885375, -0.9321042846225034, -0.30136107787105426, 0.7103091638266861, 0.9817258311934554, -0.21535851843384557, -0.7823501444047833, -0.8919311238394425, -0.7791387800725404, 0.7157869660677412, -0.935206695988875, -0.7887027480700493, -0.9674204505761757, 0.03965509280530255, -0.8009963886817879, 0.7202064067149248, -0.0675611759585717, 0.9821078293372059, -0.8689179729984056, -0.573027418832144, 0.9331668196638101, -0.7504028568849439, -0.5609275035472225, 0.012294283277371143, -0.07672314971937588, -0.3753255961387305, 0.17318218409931507, 0.6412295255894209, 0.6461395420729432, 0.894305432810353, -0.8893751234181224, 0.03752966371715316, 0.3952974904980522, -0.9158536498954748, -0.9117410690442305, 0.9028731261403433, 0.5957703586594862, -0.9311725489769211, -0.7890075886757713, -0.040480356135367934, -0.8526455852098, -0.5952903683512523, -0.12244905085374658, -0.3234477596495038, -0.020240740005734503, -0.7879471316988247, 0.9727266822228886, 0.9025334964218994, 0.06829569865877327, 0.6777795823174704, 0.5010596409884192, -0.501989037829554, 0.2128695681018129, 0.39650750291423975, 0.8467720317088265, 0.625228587002246, 0.7744474239341828, 0.9232624393167121, 0.7780500260394854, -0.7103135440929043, -0.8590647852425499, -0.32539511473834004, -0.6021109479223248, 0.8598434064751712, -0.15061963931829458, 0.09771554399443816, -0.5992465444944857, 0.8757179293229422, 0.4074141819458754, 0.2578986646870798, -0.11725764521614446, 0.46066074495111486, -0.11564734695232026, -0.3757752300938768, 0.07276327490656942, 0.5149582481176156, -0.3715871339313064, -0.45267375131288246, 0.43397350779458543, -0.507023734196917, 0.6912927538082954, 0.04824449986709811, 0.3190414052179402, 0.7220491848994821, -0.9728468616608335, -0.9325163841706126, 0.6616353891574784, 0.1935009670607164, 0.7033585340130084, -0.2544875922189853, -0.35911773464231445, -0.7088449919832311, -0.9165889837857191, -0.9679409408552246, 0.6093006439174422, 0.12209257303474463, 0.1314258746910475, 0.9420979510681999, -0.8885775812891126, 0.3827858790062566, -0.2005614543922789, -0.8098034569399333, -0.6447469041778877, 0.8003859463221057, 0.37439817873298065, -0.306246501738328, 0.5909817955803405, 0.13618520961296188, -0.6526415049803307, -0.34712753837102506, 0.9537550666164716, 0.17060599929809395, 0.3359948709587366, 0.14642597938335022, 0.01778241629028532, -0.27907654435454643, 0.7797223970846674, 0.31273397805224823, -0.48707230879591457, -0.7179466715399616, 0.8791975356154287, 0.38368566175701013, -0.26281482963547065, 0.7463467179832384, -0.9808247864141777, 0.015212675557680022, 0.05460118073376896, -0.5827659368237526, 0.729154335376478, 0.6786386204665, -0.5681760048153861, -0.8577606348202169, -0.8900875154277454, -0.3492925974875747, 0.7331867666660474, -0.032132872950493274, 0.38499037826655624, 0.5392976187096137, -0.4171243975140695, 0.1712771533328108, -0.5655596007369694, 0.06908172168416038, -0.3050221535686142, 0.9346428346819395, -0.8670074381407273, -0.575641766423074, 0.8374445522753988, -0.351096127797105, -0.6042198700607457, -0.1118477366819417, -0.5248440201275901, -0.8460420129188708, 0.2618280280396186, -0.17230216342218507, -0.5422093436214508, -0.06859079579920602, 0.18851171073645467, -0.05068362440027174, -0.5723597686623751, 0.14074765537983813, 0.3294685348811124, -0.8875195140398005, -0.03775861511594303, -0.9834666190312957, -0.6335238802702317, -0.03447823784589832, -0.531562739035806, 0.23284351550324422, 0.09454179855826372, 0.23908283573199496, 0.14813819644281567, 0.5049367775017957, -0.8247288844926253, 0.1415835822033329, -0.8045274151973811, -0.006074626076635559, 0.6131348279675948, 0.019670649522814943, -0.723107523313617, 0.03535360872999793, 0.16214756192971436, -0.12300247263139719, -0.9884368729121891, 0.39025974609407377, -0.7596010767310586, -0.1297244106780393, -0.38782381815527045, 0.2676790999912366, 0.3776565949012476, -0.3212871085506943, -0.61748058296365, -0.3047818211533777, -0.180567087581188, 0.2641053297199303, -0.3201889735521044, 0.42060648975564097, 0.35595455715958035, 0.7010207042617285, -0.6420001871896641, -0.39092619473956014, -0.5654347704540266, 0.05616277255202551, -0.3924211932489321, 0.9765435898780312, 0.18442267844453664, 0.5529438272015812, -0.2998395094041688, -0.5891444970374218, -0.9969478129553861, -0.168618392812798, 0.29204601142450315, 0.6165460887629419, 0.6331004604311239, 0.41599728567935457, 0.028148356748525227, -0.6984252171981966, 0.6768033663004744, 0.6917561895389681, 0.8228696474616999, -0.12456710302541563, -0.476727485224264, -0.5256321009779164, 0.6337779091347753, -0.43747871842767494, 0.6557536157336539, 0.7387461526120616, -0.5729735174982384, 0.5128443301465209, 0.12595383735515564, -0.3241467290700466, 0.18916004933994546, 0.44431930318755186, 0.18755267103577622, 0.23356794446868667, 0.16439602337733406, -0.7142573979015567, 0.5746033368119978, 0.6609340403588757, 0.4986695748975738, 0.6662694849018522, 0.051123494256610336, -0.41611900249066824, -0.18717916969433146, -0.15715840247260204, 0.7022571528504469, -0.9179975927547459, -0.005883260952650238, 0.01148282147319124, -0.4373574878701709, 0.5892297499234502, 0.7557921746247873, -0.8904510320731969, -0.257299147593804, -0.5289486764369709, 0.6925137141204394, -0.1945318610113309, 0.3540221798545866, 0.8817601974354623, -0.19294647476236526, 0.8259612930888831, 0.1369772822114037, -0.47103404196455356, -0.6840525378936773, 0.6558000999349383, -0.7467279751217359, 0.6087829033829595, -0.9701240854517688, -0.7256094682935645, 0.06734966275774279, -0.02132090887885041, -0.7678996929374788, -0.8456185040984006, 0.2629808591201599, -0.5366190667723356, 0.2565512515168573, -0.9401413255474225, -0.5968905459196252, 0.6157363561165365, 0.13777693577723893, -0.00759905094574731, 0.5063005167639372, -0.3377980003122145, -0.9005897399741833, 0.42758430024038985, -0.24904624838395883, 0.4147066970492388, -0.39703232029766644, 0.5300060079955127, -0.9684210338139974, 0.11329982430947827, -0.7387578965077106, 0.5106732436105106, -0.6784023980174052, -0.2500965777216555, 0.6703194278146347, 0.8197492516234546, -0.1631132129787689, -0.4729237425083561, -0.1619976431072958, -0.42128328996122044, -0.7187491476121888, -0.33396687524283464, 0.04834310163818745, 0.6219562963570193, -0.28441620209655927, -0.2864252285380744, -0.9179657969060664, 0.2829524571216684, -0.4065752947626935, 0.7408519487377094, 0.5755710092154904, -0.5936951112716371, -0.7167113231913798, 0.9334296915746099, -0.49090492544937225]1
0,2:[-0.8803140779054097, 0.5070980796087534, 0.3064848498453159, -0.06710613287792722, 0.3220146684438434, 0.31055624620544897, 0.8698570477106637, -0.7730919073773639, -0.9998019875164921, 0.3158650573558701, -0.17724451477432135, -0.38290518328054746, 0.1334586608706041, -0.6305023242405516, -0.2491808969090583, -0.9807556565436226, 0.14609238333140562, 0.6019875468227596, 0.5836557630309818, -0.4128055562637152, 0.9780345736338414, 0.22374590862984323, 0.445678169309802, 0.8261173984227244, 0.2670818549058558, 0.43244279210211656, 0.16324771099568425, 0.8169384717267945, 0.07109954839566779, -0.5346655694074685, 0.18724733451082387, -0.38399674422154706, 0.6671320456414092, 0.9567509064847006, 0.8463134714215081, 0.8476531369602391, 0.8724391948285013, -0.31116795488181803, -0.4240496798643332, -0.5654025194889691, -0.9873266933842064, -0.4627226548814891, -0.9034244605224946, -0.20294716019233383, 0.9230485757806548, 0.7151629102399648, 0.8183929240646783, -0.3545938307304246, 0.9253649824968453, 0.633916362652605, 0.8821916726885464, 0.0007114515561981172, -0.8794919511902621, 0.7897148234336404, 0.2566741455987349, -0.8503685305124176, 0.05645426692958422, -0.9488738291351322, 0.9749558251981454, -0.2363575691969262, -0.3185458669129986, -0.5982312439296609, 0.9418491106008873, 0.9513281031148972, 0.5073283277427176, 0.08887575934054381, 0.34866589885057664, 0.28737175458517883, -0.7690584768690407, 0.7956950324624148, -0.8066078044392886, -0.9801649210066734, -0.10772472758067408, -0.592500128991513, 0.4400836159818109, 0.11238093168523378, 0.6929867895212749, 0.8576596923972102, 0.9367681362866946, -0.7144654178486942, 0.8919561350052905, -0.9259879975263374, 0.5973539016969693, -0.23218333980589145, 0.09485048302472365, 0.5085741498288083, 0.6444459056603971, -0.05478188804177142, -0.6382876888665043, 0.0272312458177304, -0.9847090646412011, -0.9411499096852727, 0.8273322654903581, 0.4706356244432557, -0.5851296101075545, 0.7111853642357806, -0.20162698386799538, -0.012148212646096779, 0.7528048781941667, -0.6422859698138463, 0.2724326648819455, -0.3678351817616632, 0.006387549103612722, 0.19034469553119338, -0.3605699327073504, -0.9813913384127504, 0.3992277080214399, -0.6098468399562729, -0.5131204348496892, -0.6676359643758776, -0.8975307444429879, 0.34374824290365935, -0.8197624852913099, 0.8527147248728761, 0.6023813077199773, 0.23397037566282308, 0.31366725883267765, 0.2779416050303267, -0.6405042451739278, 0.6259723924868119, -0.19117447181726854, 0.022648890832871027, 0.5724807152507498, 0.011821766122057875, -0.6167205191560876, 0.14364122684609737, -0.10825829789819896, -0.50327627086753, 0.03921510825213059, 0.32745792755837866, 0.7834539436298231, -0.627599157506636, -0.3493604922960105, 0.10692549078488356, 0.963073842059516, 0.47153539242721654, -0.8576417747127132, 0.8149049151909338, -0.7855085117010032, 0.8655784496851908, -0.42875936216289023, -0.29906257268404013, 0.7645204218223431, -0.6816389032542567, -0.8725294347628973, -0.27823608509779296, -0.9809582173333558, -0.12434218851054002, 0.24566705664250743, 0.5838199940622144, 0.06275814018842607, -0.053466979343740784, -0.8809808626477813, 0.4424968751371021, 0.5162621697414957, -0.6259620447318559, 0.8846410231151529, -0.6081981459017629, 0.2581044890665287, 0.7016297714790194, 0.7311491746951293, -0.889352639486074, -0.22142854701614212, -0.8262819203794713, 0.8233545688374577, -0.7148641187770222, 0.5886817165806482, -0.16944338290468597, 0.7163164543617635, 0.43332069474123935, 0.4046352444099419, -0.0012791630816275656, 0.8430204343506837, 0.9414476768415638, -0.9181693074514334, -0.7529100511484663, 0.9224766506035667, -0.5897710281857669, -0.8922234868450256, 0.21597881446409195, 0.7405852022210115, 0.07981391735455179, -0.0785742705086272, -0.22452647698587636, 0.6672886032872658, -0.5303339146079462, 0.07017636980218511, 0.8726064001080258, -0.5959899505222959, 0.05237658059169625, -0.5717817845600783, 0.09025112006418201, -0.9807599051283318, -0.24931950693924576, -0.5283458755932275, 0.4160958597988196, -0.6009696874954857, 0.024434022215235496, 0.4531439447824055, 0.34531966805312186, 0.9648752960740095, 0.8260180936475032, -0.0887526504833156, 0.8709999493977687, 0.6343203880121975, -0.7536727800691676, 0.14577454321789385, -0.8468971582487483, 0.8467347079240175, -0.7584158110614174, 0.31284910007989564, -0.16048707303513865, 0.18466840886374825, -0.11811354636025961, 0.5939971136562749, 0.5226750837960419, -0.007646702466610256, 0.9777979645335597, -0.4329159209444471, -0.5802510186293734, -0.04183123135487876, 0.17454888510116406, -0.5240895909440337, 0.9683874331231177, 0.3758209211158008, 0.3148403221824372, -0.3712654668628248, -0.3372393605144517, 0.8602241027498974, 0.907570627640784, 0.5570374677676715, -0.666812524464192, -0.24183638340662617, -0.666279046538939, -0.2843230428354526, -0.27108120612611075, 0.21100913593602866, -0.25145601323171984, 0.24802852720814905, -0.21023517136702297, 0.8860600259599658, -0.15028100860528237, 0.6851861242558466, 0.7691694419982058, -0.17852219077095244, -0.911909796283777, -0.9916106435263228, -0.024858149305328592, -0.8163137181801674, 0.5789464191472768, 0.28972825977599226, 0.9211861284520593, -0.23588455281443288, 0.37465908017117733, 0.5952391780861914, -0.43276083240148155, -0.8772798004112972, 0.09046010111308744, -0.8153341683560051, 0.5876336883282507, -0.7764279887029268, 0.5469516838155442, -0.3621121081488661, -0.6425006255856052, -0.20285778625541262, -0.916231562043627, 0.928623251029995, -0.046183812324872564, -0.2853780724300694, 0.34747635925289666, -0.32317388378723844, -0.9610015281787718, -0.1548568945616131, -0.2791224729021713, 0.5892355346085922, 0.190918667815418, -0.29433481569905395, -0.8897712318063626, 0.9396942566680104, -0.18163405060531868, -0.43967617891412614, 0.14804045258546572, -0.7020877980037412, -0.18800309728943843, 0.38390760450042527, 0.766009478470425, -0.8463941533666006, -0.10200753804543794, 0.2732474094517121, -0.7152109982973378, 0.9704524436870985, 0.7705650403667743, -0.0850056196047384, -0.6550453755435368, -0.6518489356091928, 0.010172414194283164, 0.7554291144671568, -0.9861985908159063, -0.2970948267475131, 0.38157919431419196, -0.9090203856658161, -0.16625911481064293, 0.007066001120223708, -0.48732446112811245, -0.33187201141146594, 0.9484431275673262, 0.9552477800393622, 0.9796449450444573, -0.72453192560782, 0.7157046970425949, 0.47926250425874195, 0.5065726330642153, 0.8761510075984742, -0.628394550639853, 0.32398925887626984, 0.852826078552634, -0.226000083690995, 0.8046356752668513, -0.15666279252995396, -0.13167330495293705, 0.06927919312105613, -0.07340578900295469, -0.6038862216396474, -0.7643465488902326, -0.15613582735664244, 0.9102417852136351, -0.5989291384695583, -0.2183775733226665, 0.3517191697844355, -0.5476137414139575, -0.6266498723355085, 0.9107391567478096, 0.6115656227721453, -0.36529987793937746, -0.5773704639078057, -0.49282344256887756, -0.9972747571336813, -0.9550998837974729, 0.6021527330263161, 0.14115496307715047, 0.1999212713345886, 0.574029229503261, -0.8098203989875137, 0.2029643766326128, 0.8634967877768251, -0.2791675001834093, 0.29765068029942854, -0.9844159533556736, 0.7902769040354352, 0.004249410057195702, 0.11831665581351358, -0.432752260258499, 0.2094334709258685, -0.8241994832643227, -0.8263094353531613, 0.8004327511697618, -0.12680208448626273, 0.4616137791218089, 0.4740376483602373, 0.3372560106523701, -0.33055669968868706, 0.8442440185181381, 0.1559784276035765, 0.20606173937770667, -0.28640775739602664, -0.6415791473177419, -0.032456941103833126, 0.932564187073986, 0.33952165403682866, 0.7860291396407957, -0.7460384731814664, -0.5619229664723133, -0.09844918925230739, -0.20782908120339494, -0.9093936157835758, -0.09226095404155488, 0.4130419715475466, -0.2241316647458138, -0.43193538846139456, -0.7336887597804751, -0.251384975038754, 0.9058308427808288, 0.5880359665622792, 0.5881716820596747, -0.16629894001357504, 0.10013344106092714, -0.24406043625335783, 0.1668222183618917, 0.33542214238433643, 0.5915062625800709, 0.893966821108702, -0.2644872092746091, 0.06015201983000318, 0.24857024974822117, -0.5035204204664432, 0.43693348803531484, 0.1057355846477559, 0.6389146797840726, 0.021864828908244816, 0.9577765989466953, -0.44728447658978654, -0.4626963167011042, 0.854743768448222, -0.013629412435229638, 0.7157725278473646, 0.8630700448869373, 0.24914964961252473, -0.7076995618853841, -0.5716122922900271, -0.06050776013821291, -0.4080468558867556, 0.01624094536685039, -0.1265160404038861, -0.09640310955097986, -0.14693647382954667, -0.6096452452934904, -0.8995591133410323, -0.17586915691819605, 0.49696092712260787, -0.034913461528888856, 0.01668916503193052, -0.059883997359322816, -0.7214979414003719, 0.7240681841255328, -0.43857145219218907, 0.6556610791280175, 0.43181189374801177, 0.9326489162945122, 0.7484362059758081, 0.3090901224339264, -0.9999128798026045, 0.08308798199848377, -0.17953593991871308, -0.9412993199803998, -0.39423254989058876, 0.1967984716129656, 0.04196642427679431, 0.03276261967643124, -0.6461737333748021, 0.8514885556113119, 0.8847953764336391, -0.15303270622340825, -0.29521352180334604, 0.602099582290438, -0.8443439805277442, 0.2990412349411693, -0.25653965655340505, -0.2403480084884997, 0.7920588439307621, 0.21615288393834864, -0.7933003414423805, -0.0021420229326913898, 0.47079709830449645, -0.5549155386942763, 0.7608926779073972, -0.17711130617102078, 0.3797434644674704, 0.8683522263010923, 0.6191066338896856, 0.20849943392109282, -0.16951827934971564, 0.43726932466605506, 0.7215413729079823, 0.8336807537408586, 0.36998685136842924, -0.9428167919411572, -0.8140672476464454, 0.08353932105630224, 0.40958107524622744, -0.7324919002718366, 0.44030317440845823, -0.9021738260617935, 0.29987373224503444, 0.5160382930990661, 0.30952843041870426, 0.4536535990698425, -0.8424636395479275, -0.07431980435490138, -0.06906788691554344, -0.5518223295469056, -0.5740516319742235, 0.8907938110930751, 0.8018778152314248, 0.288752379622478, -0.3201181167585565, -0.8759894572551239, -0.2484994947385002, 0.2520944499008446, 0.6575938338768237, -0.7387521776997727, -0.7415955256831881, 0.11452958648518763, -0.42303018093741684, 0.8698492693944997, 0.34251072895684787, -0.4375946590652344, 0.2849050517221565, -0.5253924983156624, 0.05278849469933666, -0.20137516204262806, 0.8386703816711125, -0.2047910567822444, 0.6238405800585747, 0.6404903360443839, 0.742398486252706, -0.7064967071563073, 0.26971211840791365, -0.8663713149805794, -0.12356736125514312, -0.4367026697038736, -0.23415059028576635, 0.9138304669063588, -0.6180432560644573, 0.8080299822418284, -0.5347499671342888, -0.70599312748554, 0.9070515326759812, 0.6532270992374158, -0.454524146081668, -0.2760270803926639, 0.7556035243583314, 0.9255075831816035, 0.730142665482129, -0.6645100988323982, -0.8071008682957965, 0.048323459862387175, 0.8031600091577704, 0.6902798701712451, -0.4762655167958274, -0.6085837238285785, -0.4798997971518364, 0.21340720760891685, 0.07140094555107068, 0.5505997597998349, 0.16620355225943184, -0.5642584838033917, 0.18401816264168525, 0.5002733969228106, -0.5181671719323793, -0.006558860760869312, -0.20951343988507043, 0.6563342508010921, -0.16485963246648772, 0.004158282023438931, -0.3794856643781248, -0.3407444372173565, -0.26481495972560154, 0.5589291285723497, 0.42553954279900763, 0.22898926773560113, -0.7639751894009348, -0.5382648650152422, 0.35207310165166894, -0.5657708849577752, -0.025317676054269933, 0.13549427680185722, 0.6142962721028695, 0.22679800343014112, -0.3747681736786148, -0.08117443438949601, -0.9275208998080706, 0.8219163995033172, -0.058816333935639786, -0.09930582443247071, -0.8598896436104084, -0.6786635242190331, -0.14191337776757273, 0.3175587248530607, 0.877138298309704, 0.35702930237400365, 0.270129594362323, 0.8664121792282389, 0.23809236533826805, -0.5298494107509379, 0.6784812449996649, 0.13457753865626465, -0.8027819401003584, 0.26802232162153894, -0.929038284009789, 0.022990459372420613, 0.7624148275028972, 0.6245828268952971, 0.4820062639953586, -0.8787940651535375, -0.7249721696309324, -0.9974402746122562, 0.3073221881081494, -0.669152396428859, -0.6777550815196147, -0.2315325890768043, 0.23250305257415982, 0.5656909571475996, -0.5091346583075829, -0.19532991717750736, -0.5625157484392778, -0.5341843688459336, 0.5224213610165582, 0.5576201051734009, 0.7024571778981952, -0.5390813054654311, 0.885550302106282, -0.8955989024679554, 0.5464080972407166, 0.8542017625149936, -0.6936055719617171, 0.5333456014562428, -0.22358528706683112, 0.000385289983017012, -0.48898367936163534, -0.7557969016429353, 0.2091287567131681, 0.6207842656977816, -0.2776322748770357, 0.2109322801934288, -0.05148996964221131, -0.6251668927162972, -0.7421563052184164, -0.33669328611167426, 0.7386545760616492, -0.13201534094171952, 0.029107520761616046, 0.8099351811567572, -0.5692116170148962, 0.6522008361171125, 0.94302519441373, -0.13565996008493508, 0.03700235335074464, 0.8571548133811395, 0.7482671175809978, -0.27154254846282555, -0.4795855805487188, 0.34034604687066583, 0.4283015107854491, -0.2630743703222749, 0.570816213669844, -0.11743221342057542, 0.9783194192796407, -0.3613144922280238, 0.7857066189601378, 0.43707097162106434, 0.5550572697631735, 0.09080506715753023, -0.336411201907479, 0.9303833890233029, 0.6013450249884107, 0.1656433730395157, -0.9431560127961638, -0.2387526626497012, 0.6491330206684436, -0.7881781554125336, 0.7204694333081754, -0.0967470432571449, -0.528213368982765, 0.7055945667801957, 0.5313190023294903, 0.9224513453139549, -0.41247240838733235, 0.6472646987662645, -0.6893238582592955, -0.5138109882831039, -0.7144165137295961, 0.8262495175885873, 0.6116344986663571, 0.21974636985514717, 0.767096906868411, 0.9884167656351464, -0.7051988133166844, 0.7665371504685878, 0.6503391894204056, 0.6855416756139596, -0.20309836564891448, -0.18893105671788968, -0.15627143745939387, 0.9160756246997028, -0.9425197504370115, -0.5789671158476382, -0.860876682053006, -0.6568748852154023, -0.38494029585906464, -0.5330957193583212, -0.5059354826068547, 0.8235619736279642, 0.35682804873391794, 0.1548465022666583, -0.9183959046668806, -0.5210436130764713, 0.3815621686979678, -0.24247758930008834, 0.07541642798454529, -0.5902464913406442, 0.42448956774585445, -0.41625000243446864, 0.3959118711104044, 0.1902953057258827, 0.5799874862585817, 0.6086336414267719, -0.27196970984067215, -0.7454418892117296, -0.3033334483838257, 0.7892803380496161, 0.6000347025498838, 0.3169165219178556, -0.12330080761371853, 0.9126194059817965, -0.44646711475827905, 0.02542584054335828, -0.5193090254176804, -0.22738167382915875, -0.7036571910173175, 0.8286888524940068, 0.9145350821409124, -0.5873116278736936, 0.9338193759269175, -0.7297141705810506, -0.6440168427036728, -0.406174931350066, -0.907639749446931, 0.1573896434327775, -0.7041391739888994, 0.5890308905392221, -0.1954605166747998, 0.2013965630484864, 0.7284240524654522, 0.8250072752118502, -0.8183334646679243, -0.6613423489882027, -0.7536823297676167, 0.614971181597723, 0.7010792729115742, 0.40689719629569865, 0.6226712021334868, 0.007315166832626119, -0.2560815790268276, 0.9488861636084576, 0.8130928158718089, 0.40438377624692934, -0.8389502173396264, -0.7429613718887753, -0.868538853688217, 0.27241763267119956, -0.36234229596787304, 0.8628643999408059, 0.1025267410912547, -0.6360746799926373, 0.873326282275914, 0.21391655679904087, 0.6833115479056984, 0.22413093649157467, -0.514194611915471, -0.7849398197500903, 0.4374039124217266, 0.3172937204649733, -0.8796128220185946, 0.444677808317097, -0.9691600815609878, 0.5896249638062017, -0.23773116827434482, -0.8752681019729966, 0.6045975891047415, -0.6974285478255489, 0.19713550610153008, -0.215376397544208, 0.3273423966368343, 0.9549005805646702, -0.6567057651382435, 0.5868352050436023, 0.07581902669974627, -0.3238596964022946, -0.555126710988946, -0.7535625976672378, 0.09294586212250033, -0.1510755931121679, 0.18941182237629528, 0.1739083921280895, 0.928627790822945, 0.02330818970915538, -0.7437103363109472, -0.30297359313996175, 0.65584037577107, -0.9068024020212442, -0.7299899198585442, -0.6141810257771108, 0.587894787698175, -0.5515541123438525]1
0,3:[-0.93892974783873, 0.8120474342002444, -0.7208216618790444, 0.5307360066007845, -0.11565578604592708, 0.3099130677085744, 0.5015003285117481, 0.7893404890569107, -0.7233317099565855, -0.16978246750176607, 0.101091734819442, -0.1905748991161953, -0.23657929869642436, 0.21011619174739726, -0.7004836356132507, 0.047782468360143104, 0.08494903288566746, 0.9643021010711241, 0.923441042239654, -0.44586412688639965, 0.34644385392433463, -0.6296383363379736, 0.28557383729256625, 0.38937306148689865, -0.9902596793497738, 0.12918413644162374, -0.4998016229355129, -0.8000509023636782, -0.2229622273655789, 0.15543169952083113, -0.5392694122362003, -0.8240353064120018, -0.7216443749832653, -0.08096012023304544, -0.4810227884821927, -0.9188635855331118, -0.3311510460953624, -0.32791136363199436, -0.567617375716799, 0.8182959267153205, 0.8026162382610289, 0.9471655468016758, 0.39227958133411445, -0.3276125212726255, -0.4250272376891302, 0.18796080725626463, -0.996750760168841, -0.9367112347942317, 0.6752209228385522, 0.3925366144344731, 0.882803030793951, 0.9556127576381772, 0.8975861875562567, -0.11719401749989933, -0.6237794797095841, -0.14715398828664572, 0.8574601571329192, -0.8103764572983216, -0.9496888174509994, -0.5194853666210868, 0.5756951275903923, -0.08961851361822726, 0.08136527684389105, 0.7007121658598814, -0.6587689583863896, 0.07873453939656616, 0.1983739222347627, -0.2536139974370686, 0.30689305215593543, -0.358664455257355, 0.2422286837192149, 0.4715917414987285, -0.904281189289047, 0.7965193848982484, 0.7128428663381294, -0.13339419897887206, 0.0846085850315863, 0.49760756569683706, 0.5197624073444675, -0.6874645714509737, -0.619231628678852, 0.1876943425434121, -0.7410559960478873, -0.3526921962058105, 0.774649342184411, 0.8468972652219955, 0.11578565394648455, -0.536378209737248, 0.9135857912644576, -0.534879697179161, -0.20956865365775634, -0.6624965230189537, 0.5514663206946855, 0.8515241924605066, 0.23181764495144797, -0.17567067997448826, 0.04713915372389721, -0.7241316678139427, 0.06664574873198226, 0.39096515544988764, 0.791546451537189, 0.8229079562532524, 0.10089860026653996, -0.14992991018840973, -0.9306397792957473, -0.6376958189168052, 0.2724861951903981, -0.8506184603869731, 0.3017626616191016, 0.6675948828753162, -0.09213282367372222, 0.8191425563049792, -0.20524376428454683, -0.3572361363733869, -0.149245372429208, -0.6091057227509669, 0.5147865791084221, 0.8260593357299628, 0.019233989157568132, -0.9044675518157879, -0.19455922131931835, -0.47993822820299004, -0.0846101854845922, -0.9474670266900336, -0.015650016647563048, 0.23553062394202162, 0.6200213857331864, -0.08413714108876769, 0.16810349742034547, 0.733099993424065, 0.4200562437421165, -0.5245672444238758, -0.7610367978251606, 0.35606960228249696, 0.9713425833344127, 0.2594315043901223, -0.1859155731170823, 0.35988427835896175, 0.8619548935678023, 0.1929990287435457, 0.8718871207481238, 0.5947888224658171, 0.6891232924544606, 0.7535846930998309, -0.8157302480574329, 0.12295488566243384, 0.053169088847861756, 0.5472473991750653, 0.8877238708139685, -0.27838075665350925, 0.5196323105110114, -0.4417304109717737, 0.4865756057882329, 0.02199206032279588, 0.02539383748244095, 0.7974684387171287, -0.5737782259025894, 0.1328037187856732, -0.8848594269360053, -0.36183374903071086, 0.13251412998571577, -0.6023035660602303, 0.7425592527518228, 0.7824389572258492, 0.35329996193141877, 0.14542846089503692, 0.9670895084181561, -0.6725752039492872, 0.7445748005346013, 0.47844268577389704, 0.3576021410669654, -0.8407994661195473, 0.4642648074915594, 0.3410134303412067, 0.26684551080068064, 0.27777116270847824, -0.6690782143137874, -0.9783704438590253, -0.9939983691490144, 0.6618957098381328, -0.9270606949603815, -0.6008667440062034, -0.9485546405634266, -0.0180260957710503, 0.5796512236730875, 0.3438822543609865, -0.7068507850908099, -0.22634474874105193, 0.44867006847722535, -0.40325358863100425, 0.7380818623234229, 0.35456434682300997, 0.24160371233491307, -0.09810251003314385, -0.21117833771105654, 0.11708249688289718, 0.40463727826803675, 0.18115218526211052, 0.4022447593130287, -0.053374523337126556, -0.21880473953116075, 0.48349509699927795, -0.6386193741027766, 0.7843250222125944, 0.34478788524652026, -0.16915139725620754, -0.7505230888803645, 0.8102470756886828, -0.7367130780854874, 0.44244650604822966, -0.04846478654063535, -0.543646658468818, -0.5343970375129121, -0.3216719546622362, 0.4694291541125575, -0.9570341207139166, 0.33599123537662967, -0.4746818077270243, 0.6517444132520152, 0.2766437193536091, -0.3604820754563114, -0.7151783008750978, -0.48848851524317705, -0.9766145889258289, 0.7294233898887346, -0.3590715641165865, -0.7189900375168958, 0.3901098471450817, 0.3742965917123118, -0.4976151519381713, 0.5710953260551583, -0.8014309372377213, 0.030522420050085097, -0.01383401466397527, 0.33246003534172885, 0.6389575997603167, 0.4652278604150757, 0.10811203790288793, -0.053169891717332884, -0.7675313210447761, -0.49828368778279897, -0.00044070759302816676, 0.322796876565711, -0.6847545297268911, 0.5758458832004121, -0.05239360300567242, -0.8665101756290743, 0.37592569488377037, 0.298171359139044, 0.13808229147535145, 0.8921567663688523, -0.5943156041951416, -0.15704626546638845, -0.37347280560715324, -0.7060653784105937, 0.5016721231272925, -0.6166511404787858, -0.21120716791927419, 0.9237077034035546, 0.3531761712399424, 0.7025911966412224, 0.38834546594180175, 0.6927574840582329, 0.15030677742124832, 0.491882573968051, 0.09444519398852891, 0.7652861469291745, -0.02410494332016122, 0.27984505576688634, -0.0853958911702759, -0.8398671273632128, 0.31577698783697095, -0.0971280650356976, -0.7581621878398044, 0.9054056229961107, 0.8309625688354723, -0.5485394374884554, -0.9986474142098121, -0.7022366692734046, 0.09015554727001751, -0.7571306767676462, 0.8050848455370854, -0.8213825244358333, -0.9729284811710102, 0.40182583917464876, 0.07630391733755304, 0.8423427056379187, 0.8065635686389137, -0.6931982880702712, -0.34012230694179624, 0.4274774977136824, 0.5187097338459576, 0.9533318736864069, 0.1922147358920987, -0.5274322327508723, 0.4019398801155285, 0.635237242993405, -0.13135311295243834, 0.7173088194663324, 0.8631261792372804, 0.30865548728291436, -0.12182328361879535, 0.9930193719088851, -0.9100511807380753, 0.2551332103114863, -0.7089129867570265, -0.4809211396053339, 0.6701659332643151, 0.6893906788691095, -0.9717727303666617, -0.13236167290454626, -0.6382745820940641, 0.6069216904162036, 0.12144935695291714, -0.49527034715166196, -0.9353840433367631, 0.03367836274839764, 0.45026434223157463, 0.8961953972288315, -0.7085261987969076, 0.10288429668274257, 0.40632021027445253, 0.14083175724256747, -0.5520298153427563, -0.3822141408812929, -0.8088153057515892, 0.04572347048357406, 0.8587773623875641, 0.5212750419438812, 0.2953911409465757, 0.6113694602388036, -0.805419651619407, 0.08108627432792126, -0.5389712008998193, 0.6430796153501663, -0.6464336135772737, 0.18458915654046737, 0.022246215736263508, -0.5612562172445628, 0.028490507262274978, 0.5310572533381093, -0.9728464068369382, -0.17912499392414238, 0.525822892094503, -0.8584342619876741, -0.844686921335305, -0.06510601942786565, -0.8511179343874424, -0.147005595971611, -0.4629371885345852, 0.6808405454403741, -0.5693636520904453, -0.162229834489108, -0.526163481541212, -0.04905727376957181, 0.6914580974692677, -0.4419041518194571, 0.03342180818151119, 0.2845801301762285, -0.22682253392923002, -0.02146537928035852, -0.5157387983857449, 0.6069440842940634, -0.4429144772975353, 0.7960122317866143, -0.43778788887405184, -0.37201566858599056, -0.07811906695497584, -0.28033894167682494, 0.3839961210497722, -0.7451719744611813, 0.3205170580374237, -0.3650170269257704, -0.704770012890755, -0.4719684378404463, 0.09933798958730033, 0.18381616561716219, -0.866376240822383, 0.7036678244180323, 0.49886147768417044, 0.791718768118775, -0.6530441141975036, -0.6483888909344202, 0.35798136267169256, 0.3092944082300222, 0.29990793777299807, 0.42410088889901276, 0.6340153986628714, -0.5644289426462832, 0.9983718895673555, 0.8758691291810536, -0.41947952559020596, -0.9472357058970919, 0.9102272732107537, 0.15493224585609755, 0.40037277273941063, -0.7030526416195519, -0.7655437613297069, 0.0007970493875724127, 0.9321640594862395, -0.29694865102974455, -0.36374682219905097, -0.4215207952499125, -0.501185062055356, -0.26522417246837304, -0.25282690757992743, 0.9394228969522733, 0.8460763613150708, -0.07612532288033647, -0.8336428390975605, 0.5999481721001165, 0.9036006124832028, -0.6270418572956957, 0.5293380761203712, -0.6595992382092644, 0.6649582417873365, -0.16806473412597978, -0.9579964699585641, 0.7752847977133839, 0.8679335112204327, -0.02328627971655317, 0.8697585701996646, 0.4949232879983758, 0.30442540119364536, -0.7456998304067488, -0.016839153047676803, 0.7206185579366142, 0.09249412886780406, -0.75586549674862, -0.1906933066292047, -0.4349037217186311, -0.5228855472472349, 0.8469039646873604, -0.1449776805585259, 0.6603425448564879, 0.10364492074013021, -0.4486020973236686, -0.668841955404502, -0.7970260417510688, 0.3044189364774983, 0.6725252597680362, 0.2992702489461365, 0.27674961404752074, -0.20962305823626126, -0.8904556771530423, -0.43708701914878323, -0.8532303565968442, -0.7412863876832492, -0.06942384619477981, 0.8535372722389858, 0.34215859086827694, -0.3051566636741134, -0.6062911745878286, -0.0974257061092283, 0.5979759598682237, -0.510931070524488, -0.8079944565629056, 0.1583554912059335, 0.9299700371128614, 0.12840429903908634, -0.10451155648613142, -0.8541977404141199, 0.3522814253405444, -0.2854544725272863, 0.9323714164069568, -0.5072127290999955, -0.024526384934364875, 0.37157052604254526, 0.9909492353628131, -0.7582245437667865, -0.23455322293747716, 0.01924756363576674, 0.152129939163393, -0.2870862350853567, 0.5701951825719291, 0.5400167219043932, -0.2670053692438692, -0.9918794445903494, -0.47987168613616915, 0.9932180034180207, -0.6943911506983891, -0.49541657270661776, -0.8698248102960178, -0.045519011732987114, 0.18746077640869396, -0.6675783142413532, -0.06840773597963068, 0.4061095748584278, 0.8136490264557512, 0.010431332122073256, -0.1801059434624268, -0.32031773942194564, 0.144817692710419, -0.17940990790195976, 0.8057758610666479, 0.9304162851820665, 0.7534451661400556, -0.5567551071696539, -0.3134598108606317, 0.07084975520971426, 0.5184208564575215, 0.6371709184496657, -0.8228774796610738, 0.7046450988464987, 0.2653881969465033, 0.34141319179815666, -0.35993394261595024, 0.09650150031503801, 0.5644521266821896, -0.1555606592584664, -0.8946280022767295, -0.03311237949472301, 0.10224090061596147, -0.44626659256457435, -0.543112088971166, 0.23389615453332468, 0.2582492253736344, -0.5194570770751885, -0.26514082331538424, 0.8002892457326782, -0.43755314565914416, -0.3713306379818182, 0.31261545358270815, 0.9517668116244056, -0.1820052504677221, 0.4721554095422187, -0.7595791873776345, -0.4703083505322947, -0.6579239205872707, -0.7309158384316383, 0.2443166428743826, -0.4574028816290989, -0.08188752429281476, -0.01639629301621337, -0.40751702512659427, 0.8298021336795116, 0.024415346613498423, -0.839887276185209, -0.5660976489850111, 0.4650170110897909, -0.2224844317530299, -0.3130100507130571, 0.11298530908744087, 0.6748602437969644, -0.42868819788070267, -0.44212438496933126, 0.4274335073369, -0.7087905722097374, 0.8074043388295609, 0.2490403178849505, -0.06215105515709762, -0.14841329839177653, -0.48072735865754757, -0.5769183705720382, 0.06751993035126902, 0.12135977335231041, -0.12801792314269056, -0.19404432527493043, -0.004737561291904946, -0.3813101082032535, 0.43031550002231445, -0.23851804345359917, -0.4412501909374187, 0.4490800950709797, -0.3406489801309196, -0.6464836752358116, 0.717562009715903, 0.6945361913956629, -0.8473337225974464, 0.42799997526177047, 0.9152621226065065, 0.3302855909746878, -0.8114764894386455, -0.4483412750565816, 0.3489024448001212, 0.2143255114533218, 0.7580328001598275, 0.22235771426317075, -0.9212959647178793, -0.13794915399111995, 0.005336260316304298, 0.41921641728822756, 0.36884297237413755, 0.48754159385468343, -0.18670797760326252, 0.957961069803086, -0.41081469743680166, 0.10837849063316174, 0.2128049491363142, -0.8864568508687409, 0.5940760646939329, 0.08263665942847087, 0.8493394090391042, -0.8602009317822996, 0.9569458554362018, 0.35176646477874307, 0.5556820040615611, -0.3295082354931378, -0.5818343982969916, -0.2066292286820357, -0.6831055494560343, -0.9980232370763764, -0.4197040388118176, -0.05517648830015798, -0.6734442072061402, 0.6147872393660259, 0.8659612704746977, -0.22449457237687498, 0.12407452750189085, 0.37331656826374116, 0.23244327520740904, -0.9214280874749421, 0.9240815476043007, -0.9954728200828784, 0.9733828788007659, 0.2593049436941801, 0.7653191422686203, -0.24326665978059148, -0.5674419959589778, 0.5781297673562273, -0.9874326453543645, 0.10474534436718308, -0.3511897295427968, 0.748562443453815, -0.02150943328140964, 0.9171915923189402, 0.42949430297738456, -0.34119976174932676, 0.4605355704359466, -0.514639172387988, -0.13176854290095963, -0.49599397652172006, -0.26374208760655704, -0.8997028017108193, 0.8038533350814676, -0.2976540309416471, -0.19520178477715477, 0.6485210474248733, -0.7719286077658416, 0.581894322084745, -0.1923986121707424, -0.21810054614885854, 0.026321206988212387, -0.7278202018216211, -0.31355144284015735, -0.8201419585533074, 0.13475070671519918, 0.26739721812796313, 0.9124365096483174, 0.001297138672722964, 0.13254674599984018, -0.5087643521868843, -0.34153300146439824, -0.5349272106573773, -0.16913207265692565, -0.3623701905795902, 0.37067286933634613, 0.6466000143084125, -0.34522251780968016, -0.3176032265215609, 0.7466499123312915, 0.6685868859378179, 0.8940278671182555, 0.2343021274034469, -0.805747665241145, -0.26928539825192477, 0.616327330405875, 0.8148189619425308, 0.9812592087915937, 0.30779540721784304, 0.7978682092555076, 0.021378633795745117, -0.7290133212609444, -0.8253576252145853, 0.01217179486433495, -0.935985600712095, -0.8842502992713632, -0.1419645727779142, 0.4553564425630272, -0.16404624783388644, -0.3601007079892322, 0.5185479964458044, 0.8255645921059265, 0.6660344617849572, -0.4512145380385131, -0.7088034617710524, 0.19412633794774714, -0.0789717841890889, 0.7388223678867483, 0.9221913995653666, -0.5680219192251332, -0.598533332148677, -0.26507106317914997, 0.1741923206402911, 0.2930307115645858, -0.10524060388742784, 0.0346835050541241, 0.9018582887904856, 0.10835513285926734, 0.687642856654584, 0.0518980313497015, 0.4858740780207986, 0.7549070992953224, 0.13046197856982178, 0.5510088087316833, 0.3593485512801671, -0.04839231846273595, 0.7905101426985413, 0.31614249489684365, -0.6679839273309722, 0.10054399265016056, 0.9164040501358905, 0.2845049810901885, 0.9498956678626849, -0.6458125988874059, 0.4552374046847827, 0.07695580628048959, 0.9892400827265599, 0.3339624205340854, -0.976283164429252, -0.042011037297807086, 0.08589206500928293, -0.27856843738210735, 0.34327322965140694, -0.5637236170324202, 0.11788028439589815, -0.14339585756116868, -0.33804101519870233, 0.2517072270320644, 0.2662650763765342, -0.385993476836199, -0.14459074027418461, 0.6799020268340481, -0.4234582540672951, -0.990511312747244, 0.33994548158040283, 0.9764151393962242, 0.21518088298421678, 0.2717508974420155, 0.9760828163141093, -0.07555510678495336, -0.9716705022271899, 0.8945725367952728, 0.29653802339985025, 0.4040234049607365, -0.3183127640066241, 0.7350731289695853, 0.6807919382790819, 0.9679689712164481, 0.5181932011964336, -0.8636346909730048, 0.9358202147672283, -0.010301291341848984, 0.40830008360802617, -0.2976605339748404, -0.11050605006944503, 0.9862770670231653, -0.33389147838000377, -0.4575634573729599, 0.8207301836067471, -0.7979501359183465, 0.11349195634209153, 0.6640988887302677, -0.17541325209079028, 0.6450860670600502, 0.650417964972211, 0.03326937880557046, 0.5354386894320144, -0.8699042681823423, -0.9510132788641694, -0.19995909310219018, -0.8270020992428322, -0.055147130113520904, -0.018347785423055374, 0.5809019835318023, -0.3000489544024718, -0.41100054365648764, -0.8607108857385268, -0.4191797737421661, -0.35718999555596875, -0.23221709450214045, 0.9583615774649452, 0.9435466179728988, 0.5127314104908685]1
0,4:[-0.23481215598512528, 0.4109791468749513, -0.9177855898354625, 0.5992335016860082, 0.20908452198878336, -0.9187951175715172, 0.5891086233340406, -0.6798840912628012, -0.00029143959278710163, 0.6862924106946828, 0.805572477611828, 0.32247798752653, 0.9405021723984173, -0.7585964474233056, 0.5906558393185721, -0.8849425317128239, -0.7072859036191819, -0.8740376951313578, 0.0008755722496418539, -0.5530230491804946, 0.8340382368503434, 0.22944505398636017, -0.5725735673611487, 0.3681053680775912, -0.7483122658161501, 0.5831488903285325, 0.1892100511713639, -0.036071781552226234, -0.3523143041387242, -0.7396257528065184, 0.13762144125950515, -0.20565191447182185, 0.8356370571029708, 0.5480631686416664, -0.12374622672655344, 0.6443147319370977, 0.36872488491632605, 0.4513504511954707, 0.1428829187555991, -0.5085319984861958, -0.9862986324461529, 0.7346922516636951, 0.9864007676051272, -0.10404567256468766, -0.423381893583507, -0.9836176887630039, 0.26494667858519994, -0.9900873559281895, 0.3654207313154898, 0.5077558082638349, 0.8953171733708549, 0.5199517607550928, 0.22213015896022958, 0.9063553046408286, -0.1934258611287778, 0.43449879795082613, 0.365548124422312, -0.10797938381628058, -0.5836921038343248, -0.36254390129701775, 0.08655564333154375, -0.767164543746607, 0.5638863390898781, 0.15999810844136753, -0.6232949875594314, 0.5667038850507429, 0.7729869850476685, 0.39740469818113744, -0.38226328806329657, 0.2577979880222625, -0.1620730075042096, 0.4716114593909442, 0.07794476009754536, -0.5806441664975859, 0.236876974088857, 0.48191046753186195, 0.10446534621350545, -0.7328593250577662, 0.8303441060643919, -0.004978148036910435, 0.37771862579260573, 0.7682963211694938, -0.3499067017747868, -0.8155775937262124, 0.5462868329199713, -0.27714941703849894, -0.23298422763443405, 0.13086347177125757, 0.32667053875371255, 0.6420759767734985, -0.6387415531611023, 0.8835854130943923, 0.0517844814462991, -0.3661921465242417, 0.38653005487551795, 0.25359952265765684, 0.5877456406091288, 0.6570741948179648, -0.9761063714023768, -0.615119961444424, -0.8382983385193248, 0.3037806427547387, 0.42044823391451946, 0.39506249558138085, -0.32174529406780294, -0.07928308962926622, -0.2645498461036868, -0.17359946023490358, -0.5689697866924568, -0.10357674710650477, -0.5375364878974671, -0.10663370659872817, 0.010808289410599636, 0.27980074291363133, 0.4946734903080563, -0.6443960559859319, -0.14310711403355958, 0.6658667958392981, 0.16808153046104746, 0.12009700081433516, 0.0552636222470031, -0.8672699189156443, 0.8942409037022905, -0.815675786048339, 0.25063362506037046, -0.7214879467106554, -0.11835730106796638, 0.08849284151414682, -0.6690105458429916, 0.5464043780308898, -0.8141245417028626, -0.40619751959569395, -0.4829972933509892, 0.7877715914119507, -0.8915110630839538, -0.025751703191966513, -0.7937411071509883, -0.8068285300653186, -0.004712180204436089, -0.6970835234785584, -0.7758414524692019, 0.6425497119820809, 0.925536169091888, 0.5386889072710037, -0.47762431801516225, -0.9763822754300635, -0.9245473510730595, -0.969460588172558, -0.3481863399065479, -0.926204226091645, 0.5978369185636194, 0.9132205439229073, 0.4577343559227358, 0.6662707304888544, -0.9812076478738156, -0.04129352102584405, 0.32038742291540223, -0.7287991514796259, -0.9548919471041253, -0.20465832324570887, -0.12121487489311855, -0.09425233954612677, -0.9423987933206837, -0.35613108595515053, 0.7299947093121602, 0.09446402156315958, -0.3721672564925176, 0.7092998668927644, -0.6705235847740971, -0.44247443621423277, 0.0890119564680194, -0.4099498832644355, -0.14182500118084151, -0.8860063753951577, 0.07331310047479711, -0.6100197692318425, 0.4721222076480214, -0.43810767478424095, 0.7051465651135012, -0.459573988161617, 0.043728171032944685, -0.8984038313709155, 0.4034893587226185, 0.18868954151478468, 0.4950992992751786, 0.7256058592141559, -0.6862820536744252, 0.8610677473407353, 0.15843823492353293, 0.30103338394300083, 0.5590940052497984, 0.6787333497506935, -0.6711689054030618, -0.4966156947265217, -0.8949599778301791, 0.24850896435799874, 0.43697785469365846, 0.943053990622998, 0.09557632880344524, -0.28013312003597557, -0.4953607921390375, 0.624538485789293, -0.22001987156455027, -0.3597271509657789, 0.5592910631410732, -0.4802954536208821, 0.6583836905297387, 0.8863250166650436, 0.2762222644347019, -0.25549198224317604, -0.9779873556214917, -0.7225041959888683, -0.8855534820805369, -0.2185511930769195, 0.9782766383090917, -0.07203216403857238, -0.5006434264712101, -0.5421985684429202, 0.6268991252119724, -0.9277634681249649, -0.8356573214121918, -0.8012730071573275, -0.970716022005246, 0.43118703306797346, 0.44918083399138475, -0.8647625017984184, -0.4723112991974223, 0.1170944722437981, -0.7172857512807655, 0.297201101282651, -0.4036378485315453, 0.4788488677061824, 0.3811657075510877, -0.6607673794336297, -0.4088252435285271, -0.023989357271735123, 0.06467656542715572, -0.24824403738419565, -0.9064558958055609, -0.7032789855148902, -0.36553314413648086, -0.3415723044624943, -0.4119744390823301, 0.5931037879538192, -0.1214803050419957, -0.22022132751663337, -0.6861262592877366, -0.9643619324968384, -0.6150882904220145, 0.15412214730825458, 0.9532347838749109, -0.04981933365648139, -0.8186824838600324, -0.2929307555628018, 0.46910239480502547, -0.17758414379035625, -0.06459834805496811, -0.39750346907960266, 0.9386147733022181, 0.03003922635549028, -0.5939384261635912, 0.936119353194951, -0.17212374227052174, -0.44841361403480673, 0.7932364133487622, -0.03516051808805831, -0.6785020230926782, 0.5383658496869228, 0.7589333976944437, 0.8914149043409523, -0.8382051253893712, -0.4881731971767842, -0.9298911020189748, 0.04824287756652046, 0.9231771536840894, -0.8093447226266235, 0.03953180804544143, -0.024042572224344916, -0.4418357546638729, -0.9535467523948504, 0.9590580560607236, -0.03263418711992827, -0.46845205480343455, 0.9682614517049537, 0.9083705464093503, -0.6682409718980526, 0.203917891506727, 0.9550943996813179, 0.3964849802349437, -0.2748420363548514, -0.8204020395919553, 0.1555977441875951, -0.5100769795386317, -0.396984419938476, -0.21855213447396893, 0.4907971603872252, 0.32542170196963793, -0.669250519226013, -0.37796755146107563, -0.6541758277788636, 0.48108314198472724, -0.24334744745413417, -0.06844091834355015, -0.39700847035188747, 0.9331032939894974, 0.2203654608645842, -0.19629294861794855, 0.04135370690843998, 0.21128275936154028, -0.5600560649370179, 0.7150769502237229, 0.568301263707099, 0.9552081501536436, -0.9046525820183917, -0.045093598587448325, 0.18010653239776397, 0.9347848811851993, 0.19505248340996717, 0.805043676877087, 0.04836635691802016, 0.7175967747697802, 0.22966743712575544, 0.7501128267668016, 0.13892629783290045, 0.027409368944544044, -0.7435380623677037, -0.3295631130994676, -0.3258336426049768, 0.9812965700386285, -0.3192634933726437, 0.1362477443418857, -0.5290580135225684, -0.30880527952437986, 0.9241397457454539, -0.8801942574657866, 0.8886710227160919, 0.685859861054297, 0.6772418268569531, 0.08608533424947584, -0.8917332430113041, -0.448371789744507, 0.6436858160032228, 0.7299715929051487, -0.30407925396000346, -0.668243513947282, -0.7746003548086653, 0.9703985996429474, 0.293580581969362, 0.9949571285503962, -0.7654055846600543, -0.5276633121307122, 0.691436973908736, -0.19596249617162131, -0.5395388574879514, 0.3180385191327937, -0.2546355329962646, -0.11807376267885905, -0.9075546951448532, -0.054959233486034265, 0.8849265464506979, 0.9247966635546467, -0.8573137207908936, 0.8683176761653577, -0.1894320700970571, 0.9266845865994924, 0.5370911920258208, -0.1683651622143496, -0.04933176087813229, 0.20587484005030787, -0.7260292528755758, -0.5960827775993045, 0.3159240496222091, -0.8024116516397506, -0.7216965058226132, -0.5804562159429287, 0.4328026667334939, -0.6330462684253519, 0.012821714708166176, -0.7733872174908387, 0.45736654419645495, 0.12258408591015635, -0.30193227967915437, 0.3397876351612372, -0.22014082617231545, 0.25579404289369534, -0.062368332566612006, -0.42266780222641853, 0.7609931507703316, -0.809070142031576, 0.3209703203404921, -0.4748935847549163, -0.3218018795534696, 0.6186372215392608, 0.8017407082236789, -0.7683940766730244, -0.29910268450728106, -0.6407909894833967, -0.6151308160091389, -0.5844162110408646, -0.6668830985917151, 0.7111250537215754, 0.2594939366697824, 0.223754085612883, -0.6317582755276656, -0.9286416432356239, 0.2616318912611004, 0.8047088309980526, -0.13835387142824884, -0.33079698674582003, 0.6305699068033828, -0.2992204412491193, -0.37005863238056613, -0.9887256038943173, 0.5837389261099972, -0.5102454679336665, 0.6074591374708009, 0.6942461631024599, 0.8806915362241079, -0.9492903512238078, 0.1059841373536905, -0.9748741517670645, 0.09895597776060105, 0.238091884298123, 0.770296936029033, -0.2603663209602616, 0.6011967307986064, 0.9445710342355944, 0.766212143057506, -0.521774771453694, 0.03406480212409546, 0.3646660334108145, 0.13813069966082248, -0.9242083746388234, 0.9147456544617882, 0.5751229636381119, -0.09676283898269844, -0.1975434716500022, -0.2904094343982311, -0.28283846121694944, -0.6660281238526198, 0.22519078115942892, 0.9907756335009965, 0.2651654838459998, 0.13590222518556594, -0.3221437393062354, 0.5069741778967658, 0.6165955733656496, -0.41509203498761016, 0.3050433188171362, -0.7158586877359039, 0.7822043255704929, 0.10257194678837478, -0.9181093417561321, -0.2887129180523247, 0.9039631503951404, 0.8263385656792246, 0.9640075692092374, -0.6143318554215911, 0.2963939090245995, 0.5060255828184252, -0.9302012180517947, -0.45158992548585397, -0.5922376646361069, -0.22066012398358037, 0.3028871468172676, -0.7917956751260025, 0.846173736180351, 0.807013022654103, -0.5095496270341411, 0.4843681110614335, 0.5485542178143565, -0.56116622590761, -0.47815769185117873, 0.35442718475817814, -0.745977477378301, 0.10558440887413711, -0.3934318257975167, -0.6421437153203073, -0.32777536064749, -0.18295493264514295, -0.4209068340500768, 0.7425613831812179, -0.006947421814779586, 0.8942851423946967, -0.07669095388527403, 0.44640173771032576, 0.29596098674081706, -0.8208089496820927, 0.06661920171799918, 0.9608655166492295, -0.1457287146523325, 0.4628124581794064, -0.4008815311772189, 0.08839443741616448, -0.28419832611645734, 0.6017509145666313, -0.7730272733126322, 0.20045120699565278, -0.4462080275784155, -0.0002738283234018368, -0.010109037433917889, 0.11142001488857156, -0.5753374747940787, -0.6196510445857621, 0.8766744443819889, -0.9952616674230581, -0.39002819789891974, -0.45950617686962714, -0.27724859082829356, 0.4272800549097244, -0.9778977692369206, -0.7544327321961295, -0.35903264046909955, 0.5429949843217701, 0.9022129036690267, 0.627043195850175, 0.5436668155794302, 0.07987099607244419, 0.12987124645454684, 0.5654048746141551, -0.6766990474185022, -0.39803516255175575, 0.7748427696511488, 0.65609140727375, -0.17950107225882728, 0.6338254577668743, -0.40665563675572547, 0.7638729553819625, -0.03167070203757283, -0.19898811226621227, -0.8220442905534486, -0.9346223942628562, 0.35038230413397153, -0.10416175618432444, -0.5279807924146973, -0.3882675098080228, -0.5047419983339878, -0.5918580703058645, 0.5854795272120339, 0.2761072599413703, 0.8509130409942331, -0.784686917308369, 0.835922782967885, 0.9696273930294546, -0.027244150328438188, -0.048435790218747776, 0.15338400075466274, -0.4165775806470362, 0.3466439027489967, -0.5215764030123164, -0.7537961394516794, -0.3905890431647827, -0.822810715215599, -0.36876255764661736, 0.8016492477280253, 0.38575160807957376, -0.395496911419591, -0.2764135706743269, 0.035108166958614184, 0.03873068789169487, 0.033227707345916846, 0.5382775389254484, 0.5364758679436328, 0.17186561618566576, -0.6574745490082143, -0.6292060946970615, 0.040065265132454675, 0.672303184584619, 0.8814533982346777, -0.5927969201858434, 0.9068709901255323, -0.5117744982084054, 0.5092170722338185, 0.18916166425225822, 0.27259270018462467, 0.07167320121307608, -0.46328863479751337, -0.6783401967369549, 0.10205938977706186, 0.08444368781507516, 0.6798429205818568, -0.06874033266871749, 0.9480217523817409, -0.041545104552527246, -0.9113311585073303, 0.7116110309340871, -0.12832873138957757, -0.518653843988665, -0.5304148272038256, -0.8713618183230771, 0.06045151657425696, -0.8987304497987978, -0.0413885863771386, 0.7933186809185131, 0.8857930378335068, 0.9504419612750321, 0.7472460891954811, 0.17254938072612513, -0.23848124758113642, 0.5419641482686552, -0.7123533500349848, 0.7966826665751872, 0.0851544248193512, -0.9560316007511058, -0.9211992605056063, 0.30555337682543837, -0.26235922443816717, 0.9161340677152003, 0.570820280164837, -0.8400684425967786, -0.8557630783203836, -0.36894650675285634, -0.41343072376519396, -0.7997747723463686, -0.7028582938631411, -0.8590028538000019, -0.9183365718567575, -0.7694019207647662, 0.0617217951452147, 0.281559932609015, 0.09627837434853515, 0.35499250012908456, 0.8690566523918812, 0.3921439950433967, 0.43860596693389087, 0.8334567326190829, -0.7672522117593914, 0.32327206415106624, -0.9198365843150733, -0.6193025293637491, 0.05119644592490391, 0.49412504132659363, -0.35879258451710516, 0.8496629608469237, 0.07191176260924736, 0.2721481653296063, -0.8731557794228295, -0.738821828634384, -0.21353329043229863, -0.24176530288793208, -0.05470616610167833, 0.015123251612593203, -0.37911347768693004, 0.7509216124605445, -0.005847661372842428, 0.020589903444347524, 0.23833427125097129, -0.8669396761384087, 0.7731751321039018, 0.8534100356298917, -0.3642243977405444, -0.3373006125328881, 0.8321969085632721, -0.5439098370673843, 0.6524852579408724, -0.594896010864999, -0.18040715847044408, 0.4838925115796664, -0.17095800836898145, -0.5881634646748966, -0.6770633730249445, -0.11891512837316687, 0.9419628802931865, 0.49063008028002053, -0.48698907428458127, -0.7941245269808805, 0.05741226491817808, 0.1807926069803809, -0.10428143064691753, 0.7342849752404137, 0.18798950511254153, -0.6873714633740831, 0.3629305270939178, 0.866706000033932, -0.4458469855961913, 0.7488252044575117, 0.017678695640175768, -0.5952984810786206, 0.9989752974490489, -0.04783694925240112, -0.8687636983531439, 0.3358908320817926, 0.9621321398114315, 0.7268711928046143, -0.29682413551207554, -0.4522235956911267, -0.9921824505266976, 0.756985856548996, -0.3046820543130839, -0.647757581362594, 0.7256170938541158, -0.6635742162352729, 0.20167934363237872, 0.9754773914175041, 0.2139384641412967, 0.27827095329540996, -0.8273773229733374, -0.02138295206714158, 0.8928985994563168, -0.34547595858739544, -0.0006176728506570583, 0.013643630486671832, -0.8299320762509415, 0.2089079846714046, -0.16623653020548224, -0.08072146623487697, -0.674937812350616, 0.8090268659463706, 0.4305685082626052, -0.3486965062183536, -0.34096299424178267, 0.9340925625936174, 0.6056397142625201, -0.12314424009321367, -0.6356054786224712, 0.854777879761522, -0.22032522565380264, 0.12317706456184041, 0.0055564584748222234, -0.5733727699676099, 0.9135000284645305, 0.01856072239902562, 0.9911379549752741, -0.09981522876383875, 0.7696429057552687, -0.12589295071369677, 0.8263600682632399, -0.9567596124079125, 0.3247709031651598, 0.8195927036761128, 0.8486476237739209, 0.21639891586666593, 0.7193840045124642, 0.7899143594243065, 0.5971336457006122, -0.9407314844016355, 0.5916490238571708, 0.27666473657772306, 0.5884356818304046, -0.41695939301719553, -0.012851641934672697, 0.9736438719835596, -0.5639720722134101, -0.7228827297001974, -0.4765060332531217, 0.6586546465399779, -0.9074204424608245, 0.943922661106875, -0.5587347334584349, -0.26746862317173137, 0.7403090480584211, -0.06199826244698148, -0.46570096847641285, 0.25001362782233705, 0.8592892570654609, 0.6741041083171888, -0.880412696760061, -0.5246681140814948, -0.5366888864505268, 0.10045279841257715, 0.6099712474286274, -0.5718533212818446, -0.40633688785513344, -0.01417972708606996, 0.34893865043863537, -0.6569172935826035, 0.1542391917381043, 0.5523134901596845, 0.2517768991789553, 0.8317817591457408, 0.684598041108692, 0.42249510240808896, 0.8439918745741111, 0.1091506465396952, -0.6291807403797751, 0.020500797254178194, 0.4240427992572542, 0.8256255289093699, 0.42815266914729566, -0.6878682563257876, -0.3291671176337758, 0.646208798516495, 0.5990952828715173, 0.05375546380401608]1
0,5:[-0.7404904372859931, -0.634564157472596, 0.567863052832176, -0.44789502616275345, -0.42389913667925416, -0.7321189588648018, -0.26134960008020536, 0.1815468712384254, -0.8908503581728786, -0.1034361213767534, -0.5226275595330696, 0.8443688585108848, 0.2055381325124661, 0.0743118720570759, 0.5890779414575562, -0.30817049553058307, 0.604985085829223, -0.8698426689248269, 0.2548575335197447, -0.31381694977113583, 0.7851415335838736, 0.8480753604534153, 0.614720256892443, 0.8478399556453851, -0.4001942144542927, 0.09219291587211442, 0.30205828983063676, 0.8089404581019326, 0.41004250344060944, 0.8337273637849993, -0.22412449085489516, 0.8235769350961779, 0.7820652941980197, 0.6528409974642488, -0.5907163770386961, 0.792705382045936, -0.7721746434917924, -0.6141693122786047, -0.2091819340547092, 0.23343835169172422, -0.4631930753122733, -0.4259505500105014, -0.09769523278443581, 0.9591767339377137, 0.486789376408985, 0.28890192921118496, -0.8121489027072619, -0.9992479266329948, 0.3066204289666008, -0.9776358656023569, -0.8149365814081087, 0.09138912365415397, -0.6238309625524907, -0.9105041371695917, 0.0494547535090335, -0.30225213307134036, -0.9880475202556938, -0.49699697271304766, -0.08776863009120572, 0.514023660332634, -0.8844801389036399, -0.8851099087537599, 0.007740345585914854, -0.28778055150072746, 0.2853461719679875, 0.20954030787709432, 0.24915704295818042, -0.0332339487686919, 0.8209868873884825, -0.5097556439706952, -0.4988282132529511, -0.2304275962293374, -0.48616409607523514, -0.10329334537094081, 0.6268999784223306, 0.9736675255219116, 0.9433579879529721, -0.8819854035659196, 0.6159270138371644, -0.7471315266624174, -0.41904207403440075, 0.38398985208303693, -0.9811725900087569, 0.033000388029681194, 0.5105108410744765, 0.8036750737528, -0.06257911221098889, -0.5138776924941886, -0.5469403093371661, 0.6238574491426703, 0.22113044062354592, -0.9844174119379141, -0.1606405988116193, -0.7966313831887628, 0.3269655481208251, -0.21765544194091357, 0.7091952885353698, 0.9326106125456859, -0.8856907313767204, 0.39884664493460753, 0.06855184653868251, 0.588045016588628, -0.42345127432717633, -0.13730544746328244, 0.9406415288821122, -0.5909748378745352, 0.22495164675996104, 0.7565084126858814, 0.44244381159469603, -0.9322015242408683, 0.3037223330174006, 0.1682209968775914, -0.1903972587365106, 0.02622179518369472, -0.28082298930497007, 0.07680759364079148, 0.2974291628955992, -0.7105374911210358, -0.16322509766479887, 0.18749400551957462, 0.8091126871869747, 0.21439392513153677, -0.032690529768443666, -0.1686218175463563, -0.7732538316962494, 0.35003761715126536, -0.03159329274379963, -0.8977238582387443, -0.675430688747297, 0.8840489913801726, 0.26176785537481617, 0.8938640295281743, -0.6250257985927377, -0.8182483130237934, 0.8692900867002911, -0.5755613396081316, 0.7730263510185627, -0.3451070442019124, -0.32965175531219204, 0.693026626179782, 0.5732282600865497, -0.9032765038736856, 0.9839689540802379, 0.748813350347711, 0.3312452567089279, 0.6183192633755565, 0.30688928988169817, 0.9566715669543304, 0.04073445533800513, -0.6866204827247406, -0.16747247564826373, -0.7135393313929359, -0.3054074049260609, -0.15637648489074807, 0.1589024776192296, 0.2941994971937716, 0.7616651556027754, -0.44800965668756865, -0.9709926802700317, -0.029756126093910762, 0.03393193226254576, -0.5972429746698487, 0.08219372886652643, -0.6496458990059217, -0.607897825725134, -0.6303549348548696, -0.550307514745281, -0.960095150820901, -0.4906785290321054, -0.5446185575752003, -0.9533453111969468, 0.07281100829173592, 0.500172033774154, -0.980873818364659, -0.14418399837238893, -0.6147469509327166, 0.9315185953955349, -0.3256491556829666, -0.16791009897464293, 0.10226444732515483, 0.6252618192868313, -0.32012695109823275, -0.8805771639331998, 0.43355330633200406, -0.08916882921291469, -0.9097594050161741, 0.9365462191995095, 0.8723858318449658, -0.189158130089216, 0.48634937165237324, -0.7746948665364339, -0.7442982045033675, -0.03431594311240849, 0.4811221831440009, 0.24300607741264724, -0.49071309028155063, 0.28730463947690565, -0.48953212378491195, 0.0057006475871927975, -0.47931318298288295, 0.5278291248453133, 0.3640206706760656, -0.40210789970786975, 0.6579509894210729, 0.5885998154794758, 0.7396124256325267, -0.21678864517524188, 0.6877241041667594, 0.30864925227477324, -0.2427641437456718, -0.6487040490651097, 0.6317011924455223, -0.10945399600348837, -0.3156439588283997, -0.18476122299108377, 0.3338694584813693, -0.529760087868641, -0.8610566486164493, -0.6437834946447913, 0.10437667608347012, -0.6277109733540414, 0.8615183740247194, -0.9958885621204221, -0.9498308746159383, 0.25908519160687105, -0.8274673244426467, 0.23162801653707366, -0.6115457424001363, -0.9239143642305623, 0.5132713000816034, -0.8543884611747044, -0.2992083614151366, -0.3071551480191741, -0.93637766889092, 0.46682690523805426, -0.5446810716939832, -0.9961384480437208, 0.6966190442268867, 0.2878187446309308, -0.8895294330689916, -0.6673371569487088, 0.8587831177881058, -0.6298938460968968, -0.0030180367979597555, -0.7801538225358671, -0.5470754689415807, 0.9849465509703899, 0.8486563504086884, -0.4485859146227804, -0.2070675037145202, -0.34480730857837805, 0.6876709558666909, -0.7191580587774626, 0.6356385356954097, -0.38031076545312126, -0.8399615464418735, -0.6572107200021144, -0.08276979018809749, -0.855934701641037, -0.44654622256580656, -0.40197734232536275, 0.20795072997269903, 0.6474613413103596, 0.871470352303366, 0.16734606221356652, 0.3152342573375124, -0.4634878036429264, -0.9931229579353571, 0.3258974817178608, 0.6217216837719297, -0.3757940805737363, 0.4641311116062694, 0.01979464240374118, 0.7256343185603462, 0.45107502239830266, -0.833716611631317, -0.9721608506702113, -0.34317732442470494, 0.5447115772807298, 0.9221107972565461, -0.7326302707595715, -0.3375154156436744, -0.8703456537030749, -0.9958635604265111, -0.005201994534982379, -0.9664574386585543, 0.27752296001824184, -0.6949633398345831, 0.8934538863275965, 0.29212098869788417, -0.8342659925186289, -0.6409452168952376, -0.6525723162622461, -0.12093222802339954, 0.775971033739054, 0.23645684400831812, -0.45579803008443887, 0.05731306052713481, -0.8318326439903188, 0.6090082425918837, -0.07289693767667882, -0.9546171359924902, -0.8108055341233595, 0.5990810720905133, 0.8287868952340396, 0.9126571694412713, 0.4082749966787913, -0.559399948964364, -0.9971768542793802, 0.10112043789264269, -0.6513735537804124, -0.8016224967476966, -0.12008616237651415, -0.9115591413690403, -0.8228378615051108, -0.4516668824550032, -0.425426248848636, 0.29955304450488374, -0.9123250128252935, -0.9940529475583837, -0.3837159610489318, -0.7179819703504007, 0.5055032187886397, -0.6741675021180176, 0.5576456442096134, 0.949938601926855, 0.5992305096642412, -0.13432777458411205, -0.17495474073038153, -0.8687781626747668, 0.140033924433282, -0.18751033823784957, -0.7514997437767852, 0.07720710608448056, 0.1097414503361045, -0.5329967774122699, -0.32368942923072663, -0.044956348122455525, -0.012674693606042009, 0.8564934755063407, 0.22211970604230769, 0.5965502352713945, -0.38657737877534415, 0.9365933932188295, -0.10054698085291958, 0.31504659241963373, -0.3825143268652409, -0.621460956264742, -0.5854217570129838, 0.7087320652190308, -0.6568313227526423, -0.4721508508149481, -0.4274660038355036, -0.6243989174633815, -0.2715063617790936, -0.1774642882201003, -0.9694614071298646, -0.12714779063971626, 0.9337689925729951, -0.6307969929472055, -0.5381040539122948, -0.04102058049493795, 0.7993887206976136, -0.7812587586382564, 0.8526737854888997, -0.41717507101192086, -0.7575047522395544, -0.146135220653127, 0.2411795015098923, 0.36295244605033217, 0.19420835155121896, -0.8907894938143399, -0.9529020150862721, 0.9155847363817506, -0.9841210010457817, 0.2568799184159889, -0.8624203192039128, 0.006043203544126463, 0.8979757022364963, -0.7670346583979961, -0.28353838039910806, -0.7185850050549254, -0.23243442034248352, -0.1997365226740746, -0.7041343599250804, 0.2181378946271053, -0.48487631451691193, 0.6960230969137222, -0.7908738244037112, 0.9314011567699099, 0.5345922593178172, -0.13964425015080173, -0.9252082683135623, -0.5460263564914054, 0.872831013218248, -0.4965605562947386, 0.05527547873161165, 0.312733955669352, -0.5846359531748102, 0.6031145594504486, -0.11433611337243277, -0.5132634094322521, 0.7500684145598486, -0.7718425695463973, -0.19324522288929935, 0.07352147133320464, 0.30117255389709996, 0.9737578509752924, 0.5594162149646627, -0.6592035102351932, -0.40625754233573175, 0.28468285061907905, 0.7851401635964257, -0.7626160093154533, -0.05949816802557062, -0.8708696849208564, 0.318298040991994, 0.3988707058554397, -0.2545699681917015, 0.12359313003503014, -0.07824855471688896, -0.14438565607013043, 0.39693461679525366, -0.11976799182711817, 0.542905231974159, -0.6003178341180766, 0.24630748732182606, -0.22295090740196688, -0.8359265729210705, 0.17668147862488426, -0.6610472103288547, 0.09186585152985516, -0.6073097032646, 0.6412583152656386, -0.2764537952544315, -0.9536276677188387, 0.8849482619706646, 0.45825609842943216, -0.4022086146557302, -0.8296047507587478, 0.7784999699299713, -0.8718431703997764, -0.9695892826300967, -0.44530349855789186, -0.4574620128891236, -0.24365683878651545, -0.011331501911178599, 0.6765120821644697, -0.66086023949173, 0.8832479149937347, 0.5790806084465321, -0.34236958377545723, 0.29931859199454824, -0.8580582051318244, 0.45426920855030706, 0.20302349022760624, -0.6264971480582209, 0.36095492979841226, -0.7227935746679182, -0.92564954512712, 0.13912039706857793, -0.44428922831310214, 0.564426804486772, 0.18563594943590322, -0.5739569933054269, -0.2788881442543465, -0.6199916771870784, 0.573767963701457, 0.253118720978744, 0.7501510229182233, 0.24051461162952537, 0.7091449818768243, -0.7704602857891505, 0.029325294091169907, 0.04829857661551995, -0.4965363421572817, -0.36494987936768775, 0.3228694497207114, 0.18567440799312296, -0.6848323280267681, -0.8254223934076672, 0.18370417825127605, 0.9606707537969794, -0.4672897327419161, -0.8891304846731103, -0.7481064891250035, 0.38264899007434905, 0.3465008479325258, 0.5514375827518925, -0.6246741365016211, -0.2584792534024014, -0.41870495076834513, 0.7493848055285743, 0.34732645112459637, 0.17575016591617576, -0.7344007371810395, 0.1964282446511907, 0.4926865932190425, 0.4576618124230203, -0.28695864223231804, 0.23628499186915608, -0.284899919784406, 0.2143498294784707, 0.002620432550474616, -0.799544943951009, 0.216295853978427, -0.08060331231719631, -0.37801103517014134, -0.46871622508255606, 0.8596919388746265, -0.6696073446078545, 0.8824861594533131, -0.3644318805630222, 0.6079875001973494, -0.4230479362881847, -0.6182541424932229, 0.2328715450482326, 0.1517991598199031, -0.2781131119661193, -0.6034203936064868, -0.03788627643743858, 0.535500743352257, -0.5399671967815587, 0.2697216327096772, 0.7464055232905182, -0.12007782823374313, -0.5037615210117725, 0.4401603251362096, -0.45331526858770377, 0.8151847164488, 0.10246196489306936, 0.37705360255419307, -0.6593672053907604, 0.4103026035597759, 0.9310597968842387, -0.7187636095683876, 0.22863294046353655, -0.7866594587006499, -0.9619842657390283, -0.5683981023959042, -0.9054239415030412, -0.7601445368404212, 0.16129025860511748, -0.17009622898333498, 0.9882555680545009, 0.14520646339283183, 0.539946309080491, -0.3533924026105846, 0.9561227257817944, 0.7859757727760242, -0.7937330397609745, -0.5101558972616917, -0.8122152490874157, -0.9777487811361505, -0.9852062357580531, -0.5075965025399367, -0.9298722756668587, 0.09177237202360677, 0.2719230763312537, 0.9734683864806501, -0.45825928774723734, 0.795025528049409, 0.22845148572953655, 0.9066620658270799, 0.5456190738196678, 0.8355867199209805, 0.3652783162054225, 0.691404975976585, 0.43118523244973295, 0.13674258481337787, -0.7320918226220541, 0.20303519182596252, -0.5794012947806211, 0.17147875804315404, -0.7918176059891557, -0.9542018301413939, -0.30441382085174573, 0.33417264780792566, 0.19770438994050288, 0.7233057305496766, 0.8019568443552587, -0.8285784485530161, -0.6545904361345978, 0.320965415204455, -0.3357504948140311, -0.36101687156876827, -0.7465946920840019, -0.3852705486358723, -0.4800436146226781, -0.9165502424784997, 0.8874085192558825, -0.9680959714982595, -0.2711098447802476, -0.5492847407750983, 0.3012695391879363, 0.5982217673674284, -0.6863328052130908, 0.42265801067138464, 0.46269309450647556, -0.2027164845567686, 0.7500847473114576, 0.4287475305675619, 0.4650771896389596, -0.6952387255239483, -0.04290266338797499, 0.39308410066687416, 0.9262139648667063, 0.8166934419431258, -0.22398891858380643, 0.812088109105088, -0.8565516270247111, 0.574163021267331, 0.4580613900401025, -0.3215712695365309, 0.7235411839186865, 0.866167418162848, 0.4084851029936236, -0.6304305600553721, -0.7293083103009004, 0.8047280547033242, 0.28127320094756025, 0.8191356838123474, -0.45135594936961043, 0.28751127618626193, 0.1789658673078658, 0.6585295634340977, -0.9066550764404007, -0.7957813951315431, 0.1546996159670324, 0.6025276260666723, 0.16138544318982206, 0.028438588893293426, -0.769638696880097, -0.6396081364144719, 0.7050735000646795, 0.18617712637217054, 0.8456269757626005, -0.4092597352245666, 0.7070781672823212, 0.9887291913802536, 0.3139504851978392, -0.7155905419877442, 4.085764225592037e-05, 0.6087607421452677, 0.0008350875173925854, -0.38822012129972516, 0.7889999423837861, -0.4227547525213504, 0.11041374863135434, 0.08729395878917501, -0.2954963290310211, 0.1682943745510228, -0.30852606878287236, 0.08448701964184258, 0.994934323434159, 0.7584709263882268, 0.8184584163271293, -0.049230738038435806, 0.2136240123632991, 0.19331702803807826, -0.4529076554591811, -0.9117094880534926, 0.44878347345436964, -0.8660113458925476, 0.23655540995402013, -0.8387949245434494, -0.4778584457562547, 0.07246292069649485, 0.3567647548837063, -0.2520106987525448, -0.727074923363483, -0.4546525184448842, -0.5004306217586854, 0.08811405072508394, -0.8014776040486926, 0.5886726220172642, -0.9470653347957787, -0.2572989800207355, -0.62541759528394, -0.6240604236537273, -0.7480121580091896, 0.6191134006843702, -0.9042997667784725, -0.9914790178270452, 0.8677360050369818, 0.9582979171711548, -0.12131915397220805, -0.6019579295595454, -0.8771417716240073, 0.18999961065111748, -0.5645557355614033, -0.9856232017717172, -0.8296837462684319, 0.45275784093595206, -0.9506666262993639, -0.867063969733245, -0.7516538772237709, -0.18422434828922962, -0.6679774790018798, 0.9547676565965915, 0.7612227376112881, -0.6901266794512844, 0.9036241526636526, 0.08756555957707524, 0.627913862620648, -0.28724227321554086, 0.6651725399982171, -0.06245093493498444, -0.6084289295934795, 0.7149584490689564, 0.5045443798599643, 0.08135764093223785, 0.04933479121896989, -0.776068554454558, -0.48307808638964267, -0.8220832105676661, -0.10326358450133699, 0.8988148764772594, 0.831959075782583, -0.2801205615627558, -0.7576455932787913, 0.6599277882372527, 0.039499308397636934, 0.3603671319683053, 0.30576699217265557, 0.7039783282138179, 0.7863207797015173, 0.6764338619242425, -0.037419288270073015, 0.7651607009530055, -0.6239047815388983, -0.11715009498331908, -0.6296755818954849, 0.2612372895138455, 0.16038314803342435, -0.12045862792002304, -0.8565418446066766, 0.72950173483207, -0.8692529167563943, -0.11020398584731694, 0.3177362753732924, -0.12248614622570897, 0.5106542623656078, 0.4539179631068999, -0.043400044720708575, 0.47438899112767285, 0.9983677755017937, 0.5427244180882984, 0.20117977226992756, -0.9783970866223175, 0.6430123320121426, 0.39460465343044815, -0.4433747891913631, 0.13904437879747533, 0.9224602188697884, 0.13196524662585452, 0.33586386299767557, -0.41481316162353954, 0.3578370722358546, -0.7471249257701613, 0.44815749750998335, 0.4349677585315943, 0.08513429088796554, 0.0006088103922667898, -0.3342527525990273, -0.9471779434572047, -0.26143812489955454, 0.6192521567376426, -0.6516319022610992, -0.16978121997138618, 0.7868877054302188, 0.601398110740381, -0.9026064832111009, -0.33457573526104056, -0.12017123229647697, -0.6954080411360286, -0.6396851058883319, 0.9728162043730488, 0.14450090791775505, 0.11812434424292473, 0.6878426121406622, -0.00622600857983624, 0.20565051218565245, 0.03549057990870064]1
