Lh,16
0,0:[-0.6744786874218358, 0.6521924613542631, -0.2227352718269966, -0.5982898538751669, -0.3913937212453231, 0.7194760851249449, -0.7223181003752188, -0.552477838914414, 0.7769066139880771, 0.7523597983678327, 0.7246943647193573, -0.995280979396409, 0.7724064662837296, 0.03850531360567522, -0.19257175348153321, -0.870953291357613, -0.3684801176068797, 0.991987443196505, -0.950964039272947, -0.6279361005538735, -0.2868532225588687, 0.7709417630848772, 0.16446197377982696, -0.31869097884598796, -0.7947276589519645, 0.19496745147022598, 0.04158060225357274, -0.30635132725660386, 0.8270103959395689, 0.4658192059334685, 0.8625784039811817, -0.9235498625394836, -0.10910062796102027, -0.3183514336703068, -0.637401167656988, -0.6039880587722837, -0.03285713025523718, -0.8681796331184184, 0.7069960603162311, -0.8914220498913821, -0.7407365619627284, 0.34797480896605437, -0.187013028672935, -0.5522833627345041, -0.04460153860270277, -0.015693316266577995, -0.5863366176635814, 0.16696839263830787, 0.6617986274610792, 0.3605548741678035, 0.12540470479190446, -0.14731933690572996, -0.9418419742922881, 0.5367581354347071, -0.4839851813459932, 0.7900890438255928, 0.012170865139666809, 0.912573880947023, -0.7729480192541052, 0.6155454120919497, 0.7639936725666041, -0.439809188856348, 0.12313216650665271, -0.08111990143891656, -0.8302109799876309, -0.6873784239796723, 0.945367927835411, -0.689041635712959, -0.4302247292801362, -0.9464860306067759, -0.3732020835804497, -0.7473036102875197, 0.3258325219980045, 0.7065299049101521, 0.40675822816472373, 0.7059509055173283, -0.12292019274974697, 0.9865154706042993, 0.30789825711899943, -0.15409479639403711, -0.6257541083618177, 0.8117968153098023, -0.24164401839963134, -0.6337604400490853, -0.20973547359148048, -0.3587862589597539, 0.9782238128633365, -0.223309460668365, 0.3400185765736701, -0.044375128073329995, -0.4831793344200821, -0.9761815625196197, 0.9464057815854161, 0.37518752702118485, -0.49389313232347853, 0.8018584198702907, 0.45761831563269695, 0.6528275973194444, 0.7203273095725893, -0.5054283311114307, -0.40818011167555723, -0.6843394371164695, 0.0536471109333414, 0.26114815413800874, -0.18418293972551436, 0.21624888526556485, -0.46433840378709923, 0.21545520866984402, 0.6416040761042368, 0.30529857393002713, 0.6187301390547635, -0.2832652484314866, 0.644096963083578, 0.6617534645289131, -0.23345068180271933, 0.01577380180477861, -0.1033458191340908, -0.9861776228115016, -0.8268233552288675, 0.7051256327593449, 0.8024085140250417, 0.18953447575186222, -0.7977084448823952, -0.9313014655929492, 0.9898957398385911, 0.3844482987870617, 0.3261327592053392, 0.7280767596445257, -0.01791048059562661, -0.33119024457579144, 0.7852543316468205, 0.3498381030732106, 0.2405218457030176, 0.5927224052261306, -0.14675990680907702, 0.23274517467746358, -0.5227478400738199, -0.4430100274612363, 0.9715253402033468, 0.47960568741590803, 0.5744936684029995, -0.5634610797235222, -0.06559190467917553, -0.8998478669900116, -0.6597710123361347, 0.20813018997425625, 0.978279794436868, 0.17437523356221152, 0.20020396524236772, 0.10259291888660726, 0.813099521242614, 0.9924410526060566, -0.8608404106573644, -0.9406327798413272, 0.5286835309836173, -0.7860793723398618, -0.7107948832559452, -0.36599799067958766, 0.8222843528788562, -0.16090823315540465, -0.3248352212964791, -0.12127049203165097, -0.7391305577563938, 0.013776218824310238, -0.6255871531585055, 0.6125954647971206, -0.1348992751224487, -0.6978430994098392, 0.4483783432601509, -0.3335378057725542, -0.8215845739988272, -0.25462279053948533, -0.12079732737586224, 0.39548062044779897, 0.5503837344187041, 0.8570386611860923, -0.13808565418272, 0.4064582233384369, 0.4091556515555509, -0.846656618594058, -0.19494056014533712, 0.6595092619409498, 0.9526571521253756, -0.5636991248963221, 0.9941553357334841, 0.43411086074156063, 0.8386545727440282, -0.1248151185696871, -0.8446207584225773, -0.3159422639374938, -0.9710091189088299, -0.09925515776895932, -0.6009383042463232, -0.9805928170271498, -0.6382144937956198, 0.2896083745562401, 0.10237420819555787, 0.3012770444831392, -0.23617358968288538, 0.9964373174317323, -0.49710541028084587, 0.375169279136206, -0.5912773811131913, -0.16251015491641274, 0.7022997869867225, -0.27090308278664016, 0.6236053153447099, 0.4325538832441699, -0.5425205653613281, -0.013746819061447896, 0.4891320339644755, -0.8766966538384777, 0.805583954457904, -0.9577006995847603, 0.660240859498216, 0.5952108196839174, 0.4601242090896662, 0.5914070883037539, 0.24131701562222418, -0.7840265076700534, 0.8027759935218446, 0.6132342243509965, -0.07440705867425246, -0.14961433264883972, 0.5559538235139847, -0.6821163382782152, -0.2761984303205902, 0.6131293709491576, 0.14717853042185447, -0.07640861829576129, 0.47192680570220924, 0.6689711071101201, 0.5223023458928707, -0.2619936504303203, -0.5310292612948921, 0.3829004865172351, 0.29396362912937113, -0.705415502368765, -0.07470948789662234, 0.20294057451843833, -0.8644154065939166, -0.9916673577325184, 0.6679698330521874, -0.539905105429709, -0.5580443770744046, -0.5525201163011929, 0.35786130938069105, -0.12365360352909738, -0.06999289981255785, 0.28868470919047406, 0.37464422150809407, 0.3536768025244734, -0.6323549900485124, 0.30175432348840636, 0.483452962743949, 0.07052452486581018, 0.1340473488376157, 0.10797258713680913, 0.386146900293797, 0.17559213463485407, -0.9340029389721665, -0.33589763750365526, 0.13216552390662162, -0.8580630222263901, 0.351243866523593, 0.13879179258440832, 0.6221988977736908, -0.19534529475500942, -0.6886126026638067, -0.627492610064394, 0.5642564989236355, -0.17296189945778967, -0.8536112407173215, -0.7092982292296987, 0.5931240943239913, -0.1294493438923554, -0.9185237121306815, 0.11746983603263184, 0.7105241174094366, 0.741442960103734, -0.6919877301684241, -0.5924250212928126, -0.3460777714387009, -0.37715223971884937, 0.4871243689957625, -0.21263139982051027, -0.2716369576101706, 0.36750147995828114, 0.22975876660425504, -0.9080377130462556, 0.5740233542366397, 0.5106218511868874, -0.23280583349977846, -0.47191593147129884, -0.9083712901719405, -0.061976467717436, -0.7195566401404215, 0.19813516862317684, 0.026924934542286977, -0.391996621180718, 0.0008595203671479467, 0.8975050673967299, -0.02547279453002993, -0.34419015980571044, -0.5197532036525683, 0.5338329237008614, 0.8968124465747016, -0.3414847479393004, -0.05603425825877251, -0.5793596378433881, 0.8674852350995468, 0.17221855947387876, 0.25466115475634177, 0.629396665989834, 0.35323170919001334, -0.04199938971957833, -0.0012143707309156195, -0.11313992887195069, -0.209482677594389, 0.41135267273965637, -0.4020598773672954, 0.8175571501649974, -0.8883614647192599, 0.3834771761904867, -0.16635740569481117, -0.8890773682080515, -0.9712427243805788, -0.2178663294115303, 0.35342966317916363, 0.9326113899048997, 0.5586047107007261, -0.45994649086620787, -0.9302079007979729, 0.44105674464665623, -0.09043879213107653, -0.009758576189445645, -0.017994597090751352, 0.8460060230979203, 0.6259617084945595, 0.9477089065057902, 0.2454932587470955, -0.4374647153805815, -0.8199036466478158, -0.119003536642385, -0.9393643914363312, 0.8344476485793687, 0.3308760552240704, -0.03404567660437219, -0.9064835627625574, 0.5993623129241146, -0.576268185257889, 0.09018032097196328, -0.11908493566691848, -0.7054456737207433, -0.38077119949305216, 0.4863089274826331, -0.7872379947336128, 0.2898408948359672, 0.9740589374787949, -0.8877935433625697, -0.5911346915192164, 0.523047886627372, -0.8972111426582763, -0.06888283917643578, -0.38106523892231703, -0.1608110633927986, -0.6065327923597126, 0.8530320597198162, 0.3452291848995668, 0.02543879755692169, 0.10472380185450732, -0.278440671249747, -0.5851706857503648, 0.42717058323076046, -0.3917178704677764, 0.23629441944296814, -0.9081329796061366, 0.05679209672486629, 0.5070730107525081, -0.7282077557513085, -0.006681603740335523, 0.06923770086760009, -0.5613436996980012, 0.3683212339523305, -0.8086141627945853, 0.7371488229878611, -0.8234518048219246, -0.5123385337399939, -0.8286460304496233, 0.9519776584997193, -0.4647915799664617, 0.38559218041440935, -0.857014156933281, 0.473690478806132, 0.9838550745950545, 0.712937802084928, -0.07619228528414124, -0.36250874415888723, -0.8444014010207788, -0.7658600010300132, 0.6729096895059248, -0.7328166248513883, 0.5904937755576496, 0.7890383828939413, 0.5852268382668387, 0.003039110387675015, -0.2329917610952883, 0.3636496702067859, 0.679725040315823, 0.21319889770653483, 0.48928410589029286, -0.46056088549708885, 0.9116922106818708, 0.990530456373933, 0.24052605351135425, -0.4929900000703846, 0.9812933816035792, 0.6306737235147815, -0.7608747191305114, -0.07790159201351377, -0.7467375294237673, -0.5296336521143847, 0.4976467563971212, -0.6955348063308593, 0.9751892270148743, -0.8768927881021753, -0.6710458120266464, 0.46667149640227396, -0.055159935011869936, -0.025311187441106824, -0.632882055420089, -0.4698508581632873, 0.24414194128414188, -0.007872401846849253, 0.8541889857455447, -0.05031740857277142, -0.4599833989884011, -0.6678596429066757, 0.42363566082211973, 0.22705092281666275, 0.14934037385135876, 0.4253010685224152, 0.37488612686756584, -0.9520127759388182, -0.1709111626107087, -0.6655788959973952, -0.4187759463126399, -0.6740746623236507, 0.3244655023670475, 0.349647395495605, -0.17724986049516223, -0.6086671532198187, -0.9598330938693145, -0.2596617632846583, 0.0994468520725823, -0.00968904739710708, 0.27447086407192994, -0.806931088013757, 0.3345572550005133, 0.4147719426480954, -0.9384555181879456, 0.8244643987873681, -0.33765055993199883, 0.13100664142793042, 0.3758282141129434, -0.1931207032919616, 0.845747974748505, 0.0517110850182003, 0.4075455044868632, -0.8944948919431135, 0.3592152243727238, -0.9562829614358928, -0.9658177459977091, 0.4873031213783303, -0.6544016282112051, -0.5008960806626674, -0.48627134977091613, -0.6140231726878627, 0.7475609659539169, 0.6463367693040645, 0.0366516700094186, -0.9324398532638756, 0.6404353696359972, 0.11580610653749884, 0.16763821084188515, 0.033292790515992876, -0.22569242476523663, -0.39242986719940864, 0.3425798816602779, 0.275392941966769, -0.09515272672241196, -0.33022816671048427, 0.6478944382704239, 0.19215410267046087, 0.8540701087122997, -0.5582617000120506, 0.3166390531105402, -0.32620745630183445, 0.9021417732571779, -0.07615728053191484, -0.5612961815201596, -0.6645237809583788, -0.6918460264330404, 0.971762912503974, -0.5617219616723228, -0.39254897308872194, 0.395752947211627, 0.9703434932804282, 0.061533608947137, -0.09752092271352941, -0.22695095917327057, -0.5507770139895956, 0.5291105520433682, -0.108421146852121, -0.49415770795653174, 0.27865222520289196, 0.2195260417076629, -0.5104218074868816, -0.3941680939619965, 0.30314482364004997, -0.5374882723014875, -0.582305782028046, -0.6690370660510238, 0.23290289945475656, 0.4606643609263564, 0.1663433512228052, -0.7900450808723982, 0.30716514894903035, 0.9960907513697623, 0.6440554183319767, -0.905172994263802, -0.47436515542589786, -0.554660229539585, -0.7960818536063601, 0.741053728563938, 9.374571140030596e-06, 0.7966577556915275, -0.6212090472950369, 0.8122158285204467, 0.468301447512058, -0.9049336181135451, -0.26390716348753257, 0.30047475492455716, 0.17199174773826018, -0.7935807513174824, -0.8686796510810582, 0.8080392227958535, -0.37394499471943204, -0.5610270857422547, -0.5869270684410163, 0.9109273758140333, 0.8871041965248727, 0.6439882365443874, -0.21188036007118094, 0.1908302985174657, 0.8804380380078842, -0.09787005963052975, 0.16658898720223458, 0.36144358485005124, 0.7042926706270216, -0.41567494117099635, -0.09225206066004721, -0.19176635714303503, -0.26178438359384004, -0.7922406690646799, -0.5293542097238182, -0.29053147170237514, -0.701165635329722, 0.7475379785270415, -0.44509514377946774, 0.3108834374992617, 0.32201415686304163, 0.4485857359334006, -0.9143447133640294, -0.42395186042283073, 0.0646598997893619, 0.49828429192572227, -0.00252509294859235, -0.2382999012681564, -0.4351336032119241, -0.21867989173307611, -0.12986394919641042, 0.32556677735459894, -0.602181418140534, -0.2186470279313908, -0.08472465043879529, -0.8533614601161987, -0.31464932601754025, 0.8739304589160504, -0.6282255679472939, -0.05537421297795486, 0.2959752898960053, 0.3746435471585172, -0.8211309253537331, 0.7614223377495001, 0.062387071117834224, -0.01607295047333327, 0.36922984453232205, 0.7593910811255453, 0.7644104935403404, 0.11366516272512969, 0.3012450164893001, 0.41746575399684915, 0.12970150310601058, -0.8808432472893243, -0.966551710779752, -0.14940371106354478, 0.22986100139984442, -0.41811536149075934, -0.8441005736969225, 0.887829557009221, -0.34556610514910546, -0.45053657000658487, -0.9338503346060236, -0.36217678743006854, 0.8150232369065566, 0.952619493675662, 0.1295943466479761, 0.6455960024722367, -0.7480459571814224, 0.6346159393363489, -0.6718181200552167, 0.9284989343038078, -0.8370264074276759, 0.8871174928965715, -0.44485915434430373, -0.2660465067833267, -0.6065092526682052, -0.7041005695698233, 0.8268666338888497, -0.991659616551848, 0.5918088621573723, -0.7488077831456563, 0.24743780765955953, -0.14095549968190893, 0.601168127950952, 0.28422298048481776, -0.6638671048867302, 0.21355156197998526, 0.9729911102057718, -0.9997388611335831, -0.8873974387265628, 0.08914125868807932, -0.26694817703603, 0.08870436226553369, 0.45364657431925925, -0.05316868328299318, 0.9338386925273241, -0.5632163590837098, -0.2922134537610235, -0.4560347369328362, 0.02921712643070629, 0.7770266636758412, -0.6341177706764936, 0.5133791907946385, -0.7507338011996539, -0.38860575809365283, -0.12681207848126919, -0.5777205164031345, 0.5870383967982562, 0.9206702638481505, 0.0073921914071812325, 0.9649772372117102, -0.17896782168853892, 0.46705026059294097, 0.32198318357673794, -0.2919715648216257, -0.4528785419544086, -0.7590373055189081, -0.5351469344213016, -0.7270608976646804, 0.9716200668437147, 0.6289237150823961, 0.44570156601757627, 0.13750127320670913, 0.8022747831322521, 0.9766985329526845, -0.4884100998389691, -0.2873290616195925, -0.35127857753735836, 0.9480518535014759, 0.6970865612446377, 0.5201503260139746, -0.5507715817388548, 0.32294840844569106, 0.3483316508300889, -0.9055658397475976, -0.6066471729146976, -0.12957122844965352, 0.07695840158235073, 0.49987511913946364, -0.8433994427852225, -0.8546695258111487, 0.0880054511240802, 0.5631146861130432, 0.8437669600949953, -0.3766611109244613, -0.8235142216123723, 0.9168790747935078, -0.9721350123112027, 0.14404873263603046, -0.35594853151474903, 0.7715903345282862, -0.8777507976496477, -0.8963223320043319, 0.45629597177767955, -0.6536575031699194, -0.023888224637238498, 0.24718942178570424, 0.30321731544883757, 0.5574969666989793, -0.033295194008007956, -0.6542121115518817, 0.810208189590834, -0.441227954976664, 0.8348245814348771, 0.7486613214356767, 0.2843390808504769, -0.20062437939614505, -0.8427076769045656, 0.8584808922286122, -0.3195260750463762, -0.999757816391946, 0.415733403544565, 0.8935803794458965, -0.07720470461425477, 0.5174970374779393, 0.777410205880475, 0.21554706964606463, -0.6153432125318219, 0.6616511202572446, 0.5819815549071026, -0.535449883079951, 0.3078454855725026, 0.6486828819009633, -0.5642146869244589, -0.7893256863634879, 0.9047205468670705, 0.7104003209321208, -0.490077996456902, -0.9352417603363983, -0.7345594332727436, -0.35681108471458534, 0.3336087365968117, -0.7166453831594819, -0.9160902078238387, 0.8136989231214051, 0.6131710268697204, -0.08835208362193692, -0.21174982925789632, -0.9192951281664596, -0.0654717680503436, -0.9664138389391328, -0.9275560003345287, 0.33974900629288984, -0.858166240374088, -0.6298584504702915, -0.023827951255570357, -0.2775972489277456, 0.250462415469058, 0.9230962180776912, -0.4858063282321121, -0.774184825202719, 0.7704762841615644, -0.8725947295183418, -0.9125553017352512, -0.6581897961373402, -0.32324227698371377, -0.8459614668992175, -0.39239703785698876, 0.9707673175868752, 0.7146216272461128, 0.33337790938874634, 0.03851619144690477, 0.7243489818791031, 0.30134480496530713, 0.06653908484901216, 0.5119729784832641, 0.8814453516994423, -0.03514568704335774, 0.4349064568610277, 0.2845684454481954, -0.852423417749641, -0.6288675276788684]/1.000461653988033
0,1:[0.8927538254528231, 0.7058111124865882, 0.8477183636995944, -0.5510369978424932, 0.6492405251007978, 0.6170770838401396, -0.3036867007049251, -0.47282917757208165, -0.9998168952811428, 0.1561221406065254, -0.45440260297974056, -0.8803717561786191, 0.8210856996874583, -0.24533829938166596, 0.03235012712612906, 0.9235031311388007, -0.0992813315114558, -0.2060504823462861, -0.926925946150146, -0.7664694000049621, -0.36908051960505284, 0.859605206908322, 0.014781000143055056, 0.5114835745784316, -0.4339606193443888, -0.6857152450436981, 0.9186216424910598, 0.26376930294056744, 0.3269809966578894, 0.825815025012981, -0.09345380774186163, 0.17925202770579385, -0.6498119845329902, 0.7421629276774531, -0.28861872069505945, -0.7457331128648912, -0.03300033654990009, 0.7917354280304565, 0.6677722341395502, 0.8613415463208216, 0.15619667514125113, 0.9189183009143187, 0.040778050770405416, 0.1450174286171153, 0.6264738123395248, 0.417947058969532, 0.5693984911465091, 0.8875955673406553, -0.696994528138231, -0.6552585381072493, 0.3578810145023916, 0.09303454290866786, 0.7296527787683111, 0.1319992079214769, -0.32281915563655184, 0.8180169181136496, 0.5383636890637773, -0.16440860898408238, 0.2843305328154466, -0.6574539353342645, 0.6843978224899148, 0.6444559015833287, 0.13458075275441916, 0.1257175395971175, 0.4451577501490165, -0.4311687723819111, 0.6865706792937314, 0.7071549501775327, -0.29623550877250837, -0.47245652826561724, -0.08193625726644194, -0.9176582927471972, 0.7546819668424376, -0.2831627363619953, 0.8186244274709888, 0.9836163422544433, 0.8133383221417834, -0.2461406521831131, 0.8610168686852524, -0.600520419189412, 0.7150427791824983, 0.02751090437460646, 0.4357809160238253, 0.003717149957831456, -0.04216336529723019, -0.40555568686057764, 0.9601214824561792, 0.7472760559800504, 0.5122142465512236, -0.4247040488126195, 0.4907179256811398, 0.6775615457301714, -0.9563138337687238, 0.23130689494813717, 0.779143334021523, 0.8640255774544445, 0.5145932729144986, 0.9632272622675968, 0.24743872597981675, -0.5143623772288002, 0.669682492763128, -0.3984605655594442, -0.5775390960157023, 0.6930916333039565, -0.9960966326050598, -0.6822139846490232, 0.7809590458437543, -0.41327712386412174, 0.2508896647587746, 0.0006290363644567698, -0.598675881060382, -0.4685464327725528, 0.4429308479432714, -0.48118051717546484, 0.18439521720768526, 0.08976588559672982, 0.968983110196507, -0.17166070716475024, -0.7416102770781505, 0.8315996451435719, -0.08178602601249363, 0.079852647081331, -0.6437264718958433, 0.6616859336896499, -0.7626822370051517, 0.9877745752925935, 0.6149612798997119, -0.6517395414563225, -0.7609589434150444, -0.6226084572475798, 0.28201745043037196, -0.8173044391672968, -0.4782412395999218, -0.5680380234581288, 0.3934264789517652, 0.4891522589698192, 0.09009994364545482, 0.7550338943635242, 0.02011279003161426, -0.37570200543496957, -0.638082992638537, -0.7450891674592821, -0.8167756831732738, -0.3279363916595679, -0.5536507095080523, 0.9590255138439332, -0.19671473160302555, -0.9074502513964959, -0.7322730821407661, -0.45120759929915377, 0.22819629693706023, -0.29986484140453845, -0.02269309509020812, -0.6080449299823789, 0.5428080565938191, -0.3619983670988747, 0.21159953131105166, -0.7248030888161519, -0.6936414210119319, 0.2019580011250266, -0.03613119713906454, 0.9274368227932754, -0.10668632167115089, 0.49468845916123594, -0.8285751789792084, -0.0286812794503275, 0.2931802497830116, 0.6806557176281285, -0.8552435121876871, 0.946756266322329, 0.8513098958447913, 0.9508189494675574, -0.24787805929749251, -0.46178013573613974, 0.49553773461438944, 0.8006218442260122, -0.808319823982699, 0.24407783963179933, 0.6916581446791595, 0.45348730591015246, -0.5228658313637989, 0.7059277879889102, 0.5140704485016959, 0.28730703433411736, 0.9299244816042719, 0.7726783421371464, 0.5629116084815191, -0.4461694909103712, 0.7640639720808173, 0.11709576259343457, 0.4917629136194537, 0.3319504435265268, 0.7612565685400725, 0.09338587462431991, 0.8621351643608579, 0.6099689527826453, 0.9628463860288203, -0.4313451494540903, 0.6284042812626227, 0.9929990885803088, 0.021584622105711215, -0.7133956857301087, -0.5242171952346582, -0.8394701313775557, 0.9918296192573807, 0.5726442365566473, 0.3247694512989646, -0.647510436314256, -0.7962991452450362, -0.030416463317267373, 0.023108180549828845, -0.3061934198861448, 0.885855527989959, -0.9936916266679713, -0.699117000296725, 0.44084791602251805, -0.9006262916161917, -0.13110763195343342, 0.8434185672363028, 0.9567127751562523, -0.5839841554131833, 0.8779923064937578, 0.5567335513738465, 0.8868206450586957, 0.04306353219188064, -0.21262308186329193, 0.9037955503044732, 0.4560301589273359, -0.11821209871297422, 0.5872160680096334, 0.05061307453349606, 0.6471733550995292, 0.6721393006128854, 0.09795054231030466, 0.9831517948325922, -0.16427472633988244, -0.4101186572258527, -0.22405541584921512, -0.16921402313704526, -0.8951850361345612, 0.3665521077330602, 0.04009699098846171, -0.8119728724730062, -0.5787397186647583, -0.9686901808389956, 0.3683065775875169, 0.23911168208814249, 0.6253830276640626, -0.4545445499821923, 0.7528415784786726, 0.8559391557032834, -0.7597459543846699, -0.9149234114916565, -0.1317698764843782, 0.01694084116286354, 0.5776155026485619, 0.10013388439536186, 0.651668997434774, 0.8994491198899902, -0.01351129698200239, 0.4960221579495666, 0.07342321921024103, 0.6331268641846711, 0.6270152866574908, -0.3589696219373202, 0.04108626570381862, 0.0196378497715326, 0.44678243889684405, -0.4403725267384923, -0.6794016974841198, 0.42755035121445634, -0.49614885234961215, 0.6730370876248732, -0.3783717434196994, 0.12738460601643298, -0.7030900353771032, 0.6031837673432532, 0.5266544054902593, 0.2827856598636389, -0.6658084549408827, -0.894121905321815, 0.6765820679807748, -0.08459792837670732, 0.8285289102644313, -0.1509941453606134, 0.6112466622317954, -0.04654736186480775, 0.9187420877793923, 0.27330328938505344, 0.651175189474055, 0.5931826064148114, -0.42886770208583336, 0.3364127736404834, 0.40529414232671557, 0.7628573777710141, -0.4502521927157226, -0.6643649104730998, 0.2828204133911624, -0.9425110372600635, -0.3646505061448658, -0.5538076493912012, -0.09590864059959439, 0.5233772645488215, 0.39052275806672565, -0.6837743266336223, 0.6432718630947172, -0.979066294825996, -0.85935576659884, 0.18603472854583503, 0.2554322235009143, 0.8100792775807184, 0.9546847127183438, 0.32248107771184675, 0.052959535096865906, -0.11703473441042607, -0.3059385210961746, 0.6910377859510329, 0.007235987510073792, -0.7868208383274566, -0.8046183688804154, 0.05197160148533175, 0.845157435368562, 0.20113520310118727, -0.1317100241875504, 0.500831418283572, -0.18127009327987115, 0.5721323464983944, 0.9197989272422021, -0.2594956057688037, 0.06077365003412119, 0.5800300222131978, -0.7809850566182133, -0.8127813177426417, -0.5905775755282059, 0.05167286518637915, -0.7783679905240195, -0.9699997561879172, -0.6604447977803805, -0.6415967646085337, -0.32646071015151046, 0.16579962964079953, -0.13197940151390286, -0.549508434386639, -0.02216568128593002, -0.8481948435234835, -0.41547159887358226, 0.6083991463364622, -0.7450637273403207, 0.007357447119453964, -0.9354534912867576, 0.855249136113861, -0.8165382023257034, -0.9127570534080962, -0.03271439997013264, 0.2524817159025535, -0.9592542959003735, 0.36528392502446455, -0.3743103196830777, 0.8584889278016985, -0.799414246565942, -0.5357315480694607, 0.8161206382792565, -0.5227202112040708, -0.5615593384159077, -0.5227590884020841, 0.5458416654069611, -0.6302510772740704, 0.0006868224849143623, -0.358341141113677, 0.9223789361343167, -0.3749190028607726, -0.36607773705734814, -0.8256561781763339, -0.3254841772974521, -0.9507770190620557, 0.6936171382506393, 0.14963465548629995, 0.2790068043045175, -0.1747196919163588, -0.0024344689154879723, 0.6520631645159317, 0.8884991289630709, -0.11346976989777462, -0.46273083827308, 0.6894067658324918, 0.3898400103248256, -0.9733660885223763, 0.7602277253375356, -0.5615450263715303, 0.5043405621291384, 0.4051391593771023, -0.48743606468806866, 0.9534994459933082, -0.44418833289941384, 0.014815329340661654, -0.7013748365975485, 0.9071801781970412, 0.6405062581053604, -0.9272263786126681, 0.035232760773172694, -0.924947835746008, -0.04025666473505997, 0.5526245449003515, -0.39211259227470197, -0.9321526304062813, -0.8906125661479573, 0.2776630456205293, -0.2741872649344995, 0.1931375170771344, -0.6529738712714793, 0.33756070504960556, -0.5107200053190037, -0.30219008747624165, -0.14231598725831274, 0.5519785343754804, 0.13072677247981512, 0.7383312301369351, 0.059424179169240254, -0.6836746089083392, -0.9252483242746867, 0.6646773473398842, -0.8402158033422258, -0.8043601791328838, -0.3807312850229223, -0.8306721559632013, -0.07977627423275635, -0.8792394681631885, 0.3843853331689201, -0.5539308081451108, -0.3640976539011389, 0.09900032597359276, -0.8675075706913127, 0.4957990372063548, 0.09072254253290062, -0.34016895359905097, 0.030838336504023966, -0.5655690588260832, -0.7904165671775151, -0.4071141992034626, -0.9212007846388418, -0.3387232700799399, -0.9914277599228851, -0.3894934758844635, 0.575710784217043, 0.4213021338398053, -0.4081095126053045, 0.43488767327067324, -0.20409800380373877, 0.015812991924040842, 0.38239568725915873, 0.7467139191334877, 0.7669194979706273, 0.9959193911126032, 0.24596696644891236, 0.03989338563978896, -0.3863577905544278, -0.10903085735477105, -0.4762054619459065, 0.3751327511706247, -0.959364304426683, 0.5783070975789262, -0.7168792999552346, -0.7765954605119599, 0.8798776107603165, -0.5312640425226324, -0.7369957056569644, 0.7797023791467907, 0.45595299168585063, -0.1501446249055567, -0.9190413823885375, -0.9321042846225034, -0.30136107787105426, 0.7103091638266861, 0.9817258311934554, -0.21535851843384557, -0.7823501444047833, -0.8919311238394425, -0.7791387800725404, 0.7157869660677412, -0.935206695988875, -0.7887027480700493, -0.9674204505761757, 0.03965509280530255, -0.8010000758299317, 0.7200871889249424, -0.06777503055091118, 0.9818093571911433, -0.869220954572921, -0.5733288076763305, 0.9328900118072487, -0.7506304697043504, -0.560946211033719, 0.012222726667480463, -0.0770257676129437, -0.3756288752703849, 0.17307968709832564, 0.6412298562084642, 0.6461395420729432, 0.894305432810353, -0.8893751234181224, 0.03752966371715316, 0.3952974904980522, -0.9158536498954748, -0.9117410690442305, 0.9028731261403433, 0.5957703586594862, -0.9311725489769211, -0.7890075886757713, -0.040480356135367934, -0.8526455852098, -0.5952903683512523, -0.12244905085374658, -0.32344630492571325, -0.020237566062918766, -0.7880055985702779, 0.9726293155759914, 0.9024422750219085, 0.06830403025866459, 0.677787946979266, 0.5010679725883105, -0.5020065162666691, 0.21260505073906416, 0.39622700790953463, 0.8467459499260426, 0.6252311327688795, 0.7744474239341828, 0.9232624393167121, 0.7780500260394854, -0.7103135440929043, -0.8590647852425499, -0.32539511473834004, -0.6021109479223248, 0.8598434064751712, -0.15061963931829458, 0.09771554399443816, -0.5992465444944857, 0.8757179293229422, 0.4074141819458754, 0.2578990283680274, -0.11725258674478188, 0.46066851449863255, -0.11563901535242894, -0.3757668984939855, 0.07277160650646074, 0.5149665797175069, -0.37157880233141505, -0.4526653866510868, 0.43398183939447676, -0.5070436707327948, 0.6910257783467841, 0.04797506630682434, 0.3190490425178406, 0.7220512347375506, -0.9728468616608335, -0.9325163841706126, 0.6616353891574784, 0.1935009670607164, 0.7033585340130084, -0.2544875922189853, -0.35911773464231445, -0.7088449919832311, -0.9165889837857191, -0.9679409408552246, 0.6093006439174422, 0.12209257303474463, 0.1314258746910475, 0.9420991743586602, -0.8885692496892212, 0.38279421060614793, -0.2005531227923876, -0.8097951253400419, -0.6447385725779964, 0.800394277921997, 0.374406510332872, -0.30623813707653236, 0.5909901271802318, 0.13610504965740236, -0.6529441228738985, -0.3472703798450289, 0.9537596622211736, 0.17060599929809395, 0.3359948709587366, 0.14642597938335022, 0.01778241629028532, -0.27907654435454643, 0.7797223970846674, 0.31273397805224823, -0.48707230879591457, -0.7179466715399616, 0.8791975356154287, 0.38368566175701013, -0.26281482963547065, 0.7463467179832384, -0.9808247864141777, 0.015217304224286307, 0.05460951233366027, -0.5827576052238612, 0.7291626669763693, 0.6786469520663914, -0.5681676732154948, -0.8577523032203256, -0.8900791838278541, -0.34928423282577903, 0.7331948007087997, -0.03233422865137395, 0.3846845533682684, 0.5390658400902615, -0.4171240999569305, 0.1712771533328108, -0.5655596007369694, 0.06908172168416038, -0.3050221535686142, 0.9346428346819395, -0.8670074381407273, -0.575641766423074, 0.8374445522753988, -0.351096127797105, -0.6042198700607457, -0.1118477366819417, -0.5248440201275901, -0.8460420129188708, 0.2618280280396186, -0.17229865886032603, -0.5422010120215595, -0.0685824641993147, 0.18852004233634598, -0.05067529280038043, -0.5723514370624838, 0.1407544330702259, 0.32947326273343164, -0.8875187205540965, -0.037757920815952084, -0.9836730993273477, -0.6338348297636908, -0.034769522549257276, -0.5316032976653876, 0.23284351550324422, 0.09454179855826372, 0.23908283573199496, 0.14813819644281567, 0.5049367775017957, -0.8247288844926253, 0.1415835822033329, -0.8045274151973811, -0.006074626076635559, 0.6131348279675948, 0.019670649522814943, -0.723107523313617, 0.03535360872999793, 0.16214756192971436, -0.1230018444552149, -0.9884317813789222, 0.3902680776939651, -0.7595927451311673, -0.1297193191447724, -0.387820974831498, 0.26767933142456696, 0.3776565949012476, -0.3212871085506943, -0.61748058296365, -0.3049883014494296, -0.18087803707464714, 0.26379438022647117, -0.3202885265519866, 0.42060648975564097, 0.35595455715958035, 0.7010207042617285, -0.6420001871896641, -0.39092619473956014, -0.5654347704540266, 0.05616277255202551, -0.3924211932489321, 0.9765435898780312, 0.18442267844453664, 0.5529438272015812, -0.2998395094041688, -0.5891444970374218, -0.9969478129553861, -0.168618392812798, 0.29204601142450315, 0.6165460887629419, 0.6331004604311239, 0.41599728567935457, 0.028148356748525227, -0.6984252171981966, 0.6768033663004744, 0.6917561895389681, 0.8228696474616999, -0.12477358332146754, -0.4770384347177231, -0.5259430504713755, 0.6336783561348931, -0.43747871842767494, 0.6557536157336539, 0.7387461526120616, -0.5729735174982384, 0.5128443301465209, 0.12595383735515564, -0.3241467290700466, 0.18916004933994546, 0.44431930318755186, 0.18755267103577622, 0.23356794446868667, 0.16439602337733406, -0.7142573979015567, 0.5746033368119978, 0.6609340403588757, 0.4986695748975738, 0.6662694849018522, 0.051123494256610336, -0.41611900249066824, -0.18717916969433146, -0.15715840247260204, 0.7022571528504469, -0.9179975927547459, -0.005883260952650238, 0.011363603683208883, -0.43764385637600484, 0.588932319973185, 0.7557356383532493, -0.8904510320731969, -0.257299147593804, -0.5289486764369709, 0.6925137141204394, -0.1945318610113309, 0.3540221798545866, 0.8817601974354623, -0.19294647476236526, 0.8259612930888831, 0.1369772822114037, -0.47103404196455356, -0.6840525378936773, 0.6558000999349383, -0.7467279751217359, 0.6087829033829595, -0.9701240854517688, -0.7256094682935645, 0.06734966275774279, -0.02132090887885041, -0.7678996929374788, -0.8456185040984006, 0.2629808591201599, -0.5366190667723356, 0.2565512515168573, -0.9401413255474225, -0.5968905459196252, 0.6157363561165365, 0.13777693577723893, -0.00759905094574731, 0.5063005167639372, -0.3377980003122145, -0.9005897399741833, 0.42758430024038985, -0.24904624838395883, 0.4147066970492388, -0.39703232029766644, 0.5300060079955127, -0.9684210338139974, 0.11329982430947827, -0.7387578965077106, 0.5106732436105106, -0.6784023980174052, -0.2500965777216555, 0.6703194278146347, 0.8197492516234546, -0.1631132129787689, -0.4729237425083561, -0.1619976431072958, -0.42128328996122044, -0.7187491476121888, -0.33396687524283464, 0.04834310163818745, 0.6219562963570193, -0.28441620209655927, -0.2864252285380744, -0.9179657969060664, 0.2829524571216684, -0.4065752947626935, 0.7408519487377094, 0.5755710092154904, -0.5936951112716371, -0.7167113231913798, 0.9334296915746099, -0.49090492544937225]/0.9996950231933827
0,2:[-0.8803140779054097, 0.5070980796087534, 0.3064848498453159, -0.06710613287792722, 0.3220146684438434, 0.31055624620544897, 0.8698570477106637, -0.7730919073773639, -0.9998019875164921, 0.3158650573558701, -0.17724451477432135, -0.38290518328054746, 0.1334586608706041, -0.6305023242405516, -0.2491808969090583, -0.9807556565436226, 0.14609238333140562, 0.6019875468227596, 0.5836557630309818, -0.4128055562637152, 0.9780345736338414, 0.22374590862984323, 0.445678169309802, 0.8261173984227244, 0.2670818549058558, 0.43244279210211656, 0.16324771099568425, 0.8169384717267945, 0.07109954839566779, -0.5346655694074685, 0.18724733451082387, -0.38399674422154706, 0.6671320456414092, 0.9567509064847006, 0.8463134714215081, 0.8476531369602391, 0.8724391948285013, -0.31116795488181803, -0.4240496798643332, -0.5654025194889691, -0.9873266933842064, -0.4627226548814891, -0.9034244605224946, -0.20294716019233383, 0.9230485757806548, 0.7151629102399648, 0.8183929240646783, -0.3545938307304246, 0.9253649824968453, 0.633916362652605, 0.8821916726885464, 0.0007114515561981172, -0.8794919511902621, 0.7897148234336404, 0.2566741455987349, -0.8503685305124176, 0.05645426692958422, -0.9488738291351322, 0.9749558251981454, -0.2363575691969262, -0.3185458669129986, -0.5982312439296609, 0.9418491106008873, 0.9513281031148972, 0.5073283277427176, 0.08887575934054381, 0.34866589885057664, 0.28737175458517883, -0.7690584768690407, 0.7956950324624148, -0.8066078044392886, -0.9801649210066734, -0.10772472758067408, -0.592500128991513, 0.4400836159818109, 0.11238093168523378, 0.6929867895212749, 0.8576596923972102, 0.9367681362866946, -0.7144654178486942, 0.8919561350052905, -0.9259879975263374, 0.5973539016969693, -0.23218333980589145, 0.09485048302472365, 0.5085741498288083, 0.6444459056603971, -0.05478188804177142, -0.6382876888665043, 0.0272312458177304, -0.9847090646412011, -0.9411499096852727, 0.8273322654903581, 0.4706356244432557, -0.5851296101075545, 0.7111853642357806, -0.20162698386799538, -0.012148212646096779, 0.7528048781941667, -0.6422859698138463, 0.2724326648819455, -0.3678351817616632, 0.006387549103612722, 0.19034469553119338, -0.3605699327073504, -0.9813913384127504, 0.3992277080214399, -0.6098468399562729, -0.5131204348496892, -0.6676359643758776, -0.8975307444429879, 0.34374824290365935, -0.8197624852913099, 0.8527147248728761, 0.6023813077199773, 0.23397037566282308, 0.31366725883267765, 0.2779416050303267, -0.6405042451739278, 0.6259723924868119, -0.19117447181726854, 0.022648890832871027, 0.5724807152507498, 0.011821766122057875, -0.6167151776540276, 0.1436533833680269, -0.10823481370810781, -0.503252970867165, 0.0392368426398228, 0.3274700840803082, 0.7834636135904489, -0.6275988812220467, -0.3493604922960105, 0.10692549078488356, 0.963073842059516, 0.47153539242721654, -0.8576417747127132, 0.8149049151909338, -0.7855085117010032, 0.8655784496851908, -0.42875936216289023, -0.29906257268404013, 0.7645204218223431, -0.6816389032542567, -0.8725294347628973, -0.27823608509779296, -0.9809582173333558, -0.12434218851054002, 0.24566705664250743, 0.5838199940622144, 0.06275998208568812, -0.0534604406084605, -0.8809632725289287, 0.442520083042604, 0.5162854697418607, -0.6259388368263541, 0.8846642310206547, -0.6081749379962611, 0.2581276969720306, 0.7016415596214965, 0.7311491746951293, -0.889352639486074, -0.22142854701614212, -0.8262819203794713, 0.8233545688374577, -0.7148641187770222, 0.5886817165806482, -0.16944338290468597, 0.7163164543617635, 0.43332069474123935, 0.4046352444099419, -0.0012791630816275656, 0.8430204343506837, 0.9414476768415638, -0.9181693074514334, -0.7529100511484663, 0.9224766506035667, -0.5897785644439304, -0.8924256164625188, 0.21528389243575094, 0.7391603776369614, 0.07833611597210342, -0.08005197979621247, -0.22594541525899337, 0.6665995675698579, -0.5303577971899095, 0.07019957770768696, 0.8726271214522239, -0.5959856220637301, 0.05237658059169625, -0.5717817845600783, 0.09025112006418201, -0.9807599051283318, -0.24931950693924576, -0.5283458755932275, 0.4160958597988196, -0.6009696874954857, 0.024434022215235496, 0.4531439447824055, 0.34531966805312186, 0.9648752960740095, 0.8260180936475032, -0.0887526504833156, 0.8709999493977687, 0.6339848682890086, -0.7547020478683935, 0.14430851445731174, -0.8483631870093304, 0.8452686791634354, -0.7598818398219995, 0.3113831634141766, -0.16195310179572076, 0.18320238010316614, -0.11900271664939417, 0.5940026626289774, 0.5226982917015437, -0.007629757011799383, 0.9777986091976014, -0.4329159209444471, -0.5802510186293734, -0.04183123135487876, 0.17454888510116406, -0.5240895909440337, 0.9683874331231177, 0.3758209211158008, 0.3148403221824372, -0.3712654668628248, -0.3372393605144517, 0.8602241027498974, 0.907570627640784, 0.5570374677676715, -0.6668184107751252, -0.24296066879485553, -0.6677615602800164, -0.2857890715960347, -0.27254723488669286, 0.20954310717544655, -0.25290972456156247, 0.2465753529268742, -0.21171777720296353, 0.884579814590466, -0.15174703736586448, 0.6845912695133689, 0.7691926499037076, -0.1784989828654506, -0.9119064808687053, -0.9916106435263228, -0.024858149305328592, -0.8163137181801674, 0.5789464191472768, 0.28972825977599226, 0.9211861284520593, -0.23588455281443288, 0.37465908017117733, 0.5952391780861914, -0.43276083240148155, -0.8772798004112972, 0.09046010111308744, -0.8153400546669383, 0.5868920131506753, -0.7779172253690108, 0.545464012762133, -0.3635450448411746, -0.6437201738062056, -0.20349937862651382, -0.9164490792635638, 0.928623251029995, -0.047096190519508974, -0.2868639015862186, 0.34601033049231456, -0.3242514160262334, -0.961060728626334, -0.15483368665611127, -0.2791191574870996, 0.5892355346085922, 0.190918667815418, -0.29433481569905395, -0.8897712318063626, 0.9396942566680104, -0.18163405060531868, -0.43967617891412614, 0.14804045258546572, -0.7020877980037412, -0.18800309728943843, 0.38390760450042527, 0.766009478470425, -0.8464294712321995, -0.10349677471152188, 0.27175817278562814, -0.7166825760306224, 0.9696342464673923, 0.7705650403667743, -0.0850056196047384, -0.6550453755435368, -0.6518489356091928, 0.010084119530286092, 0.7541022157062023, -0.9876646195764884, -0.2985608555080952, 0.3809195901514498, -0.9089971777603143, -0.16625579939557122, 0.007066001120223708, -0.48732446112811245, -0.33187201141146594, 0.9484431275673262, 0.9552477800393622, 0.9796449450444573, -0.72453192560782, 0.7157046970425949, 0.47926250425874195, 0.5065726330642153, 0.8761510075984742, -0.628394550639853, 0.323953941010671, 0.8513368418865501, -0.22748932035707894, 0.8038057054252788, -0.15666279252995396, -0.13167330495293705, 0.06927919312105613, -0.07340578900295469, -0.6038862216396474, -0.7643465488902326, -0.15657029370672657, 0.908775756453053, -0.6003951672301404, -0.21964346751152192, 0.3515884969916024, -0.5476132809396419, -0.6266498723355085, 0.9107391567478096, 0.6115656227721453, -0.36529987793937746, -0.5773704639078057, -0.49282344256887756, -0.9972747571336813, -0.9550998837974729, 0.6021527330263161, 0.14115496307715047, 0.1999212713345886, 0.574029229503261, -0.8102500996856328, 0.20147513996652885, 0.8620958457747383, -0.27929699902393834, 0.29765068029942854, -0.9844159533556736, 0.7902769040354352, 0.004249410057195702, 0.11831665581351358, -0.43282260418449653, 0.20815497526137888, -0.8256655120249048, -0.8277754641137434, 0.7989638674684235, -0.12768153152143555, 0.4616137791218089, 0.4740376483602373, 0.3372560106523701, -0.33055669968868706, 0.8442440185181381, 0.1559784276035765, 0.20606173937770667, -0.28640775739602664, -0.6415791473177419, -0.032456941103833126, 0.932564187073986, 0.33952165403682866, 0.7860291396407957, -0.7467095126278441, -0.5634122031383972, -0.09983247232159485, -0.20795269373299083, -0.9093936157835758, -0.09226095404155488, 0.4130419715475466, -0.2241316647458138, -0.43211730377083785, -0.7348020703593844, -0.2528510037993361, 0.9043648140202467, 0.5865699378016971, 0.5866990224689493, -0.16765279152819682, 0.1001098958171946, -0.24406043625335783, 0.1668222183618917, 0.33542214238433643, 0.5915062625800709, 0.893966821108702, -0.2644872092746091, 0.06015201983000318, 0.24857024974822117, -0.5035204204664432, 0.43693348803531484, 0.1057355846477559, 0.6389146797840726, 0.02150576394132339, 0.9562873622806114, -0.4487737132558705, -0.4634379918786796, 0.854743768448222, -0.013629412435229638, 0.7157607552254983, 0.862841039090029, 0.24816657463304925, -0.709165498551103, -0.573078228955746, -0.0619736968039319, -0.4095162000624094, 0.01475437945179642, -0.12745196384225504, -0.096408995861913, -0.14693647382954667, -0.6096452452934904, -0.8995591133410323, -0.17586915691819605, 0.49696092712260787, -0.034913461528888856, 0.01668916503193052, -0.059883997359322816, -0.7214979414003719, 0.7240681841255328, -0.43857145219218907, 0.6556610791280175, 0.4317765758824129, 0.9311596796284283, 0.7469469693097242, 0.3078481108270343, -1.0004779656521858, 0.08276423489716117, -0.18046495624234934, -0.9427658092152974, -0.3956984865563078, 0.1953324428523835, 0.04050039551621221, 0.03129613044153363, -0.6476569838747843, 0.8500758409873588, 0.88436567573552, -0.15303270622340825, -0.29521352180334604, 0.602099582290438, -0.8443439805277442, 0.2990412349411693, -0.25653965655340505, -0.2403480084884997, 0.7920588439307621, 0.21615288393834864, -0.7933003414423805, -0.0021420229326913898, 0.47079709830449645, -0.5549155386942763, 0.760880905285531, -0.17789418552512815, 0.37825422780138646, 0.8668629896350084, 0.6176173972236016, 0.2070173806543309, -0.17098513696406567, 0.43580329590547295, 0.7200754362422633, 0.8322147249802765, 0.36875038873423954, -0.9442865965911265, -0.8155539056563625, 0.08243269460087227, 0.40958107524622744, -0.7324919002718366, 0.44030317440845823, -0.9021738260617935, 0.29987373224503444, 0.5160382930990661, 0.30952843041870426, 0.4536535990698425, -0.8424636395479275, -0.07431980435490138, -0.06906788691554344, -0.5518223295469056, -0.5740516319742235, 0.8907938110930751, 0.8018778152314248, 0.2887347206896786, -0.3206890889190709, -0.87701367535749, -0.24993427332807083, 0.25062740809676837, 0.6561336914271747, -0.7400945939307589, -0.7427023973819856, 0.11442329555016044, -0.423389583242569, 0.8683832406339176, 0.3410428582990037, -0.43809442740476173, 0.28490597267078754, -0.5253924983156624, 0.05278849469933666, -0.20137516204262806, 0.8386703816711125, -0.2047910567822444, 0.6238405800585747, 0.6404903360443839, 0.742398486252706, -0.7064967071563073, 0.26971211840791365, -0.8663713149805794, -0.12356736125514312, -0.4367026697038736, -0.23415059028576635, 0.9138304669063588, -0.6180392038904808, 0.8080388233486863, -0.5350458172523967, -0.7064761423202881, 0.9065979493958988, 0.6532503071429177, -0.4545008460813031, -0.276003872487162, 0.7555031197342373, 0.9242240300599487, 0.7287825903183434, -0.6646517076330243, -0.8070937769913377, 0.048323459862387175, 0.8031600091577704, 0.6902798701712451, -0.4762655167958274, -0.6085837238285785, -0.4798997971518364, 0.21340720760891685, 0.07140094555107068, 0.5505997597998349, 0.16620355225943184, -0.5642584838033917, 0.18401816264168525, 0.5002733969228106, -0.5181661588888852, -0.006544770246814618, -0.20949179759224132, 0.6563574587065939, -0.16483642456098588, 0.004181489928940778, -0.37946245647262294, -0.3407212293118546, -0.2647916597252366, 0.5589523364778515, 0.42542736555304733, 0.22769394199208004, -0.7652822877663222, -0.5382435911018655, 0.3520788115331813, -0.5657708849577752, -0.025317676054269933, 0.13549427680185722, 0.6142962721028695, 0.22679800343014112, -0.3747681736786148, -0.08117443438949601, -0.9275208998080706, 0.8219163995033172, -0.058816333935639786, -0.09930582443247071, -0.8598896436104084, -0.6786635242190331, -0.14190997025763794, 0.31758193275856256, 0.8771615062152058, 0.3570525102795055, 0.27015280226782484, 0.8664353871337407, 0.2381155732437699, -0.5298262028454361, 0.6785045450000299, 0.1346007465617665, -0.8031825465820426, 0.26655629286095683, -0.9297390923490633, 0.02300326055839187, 0.7624148275028972, 0.6245828268952971, 0.4820062639953586, -0.8787940651535375, -0.7249721696309324, -0.9974402746122562, 0.3073221881081494, -0.669152396428859, -0.6777550815196147, -0.2315325890768043, 0.23250305257415982, 0.5656909571475996, -0.5091346583075829, -0.19532991717750736, -0.5625028551584434, -0.5341611609404318, 0.52244456892206, 0.5576433130789027, 0.702480385803697, -0.5390580975599293, 0.8855735100117839, -0.8955756945624536, 0.5464313972410816, 0.8542241415667275, -0.6945801974947035, 0.5318706394939398, -0.2247037627183796, 0.00038611883678493514, -0.48898367936163534, -0.7557969016429353, 0.2091287567131681, 0.6207842656977816, -0.2776322748770357, 0.2109322801934288, -0.05148996964221131, -0.6251668927162972, -0.7421563052184164, -0.33669328611167426, 0.7386545760616492, -0.13201534094171952, 0.029107520761616046, 0.8099351811567572, -0.5692018549594073, 0.6522240440226144, 0.9430484023192318, -0.13563675217943325, 0.03702556125624649, 0.8571780212866413, 0.7482859970279339, -0.27152937889740186, -0.4795833702720043, 0.340347980862791, 0.42731261054868186, -0.26456360698835885, 0.5694211579786903, -0.11762646168136898, 0.9783194192796407, -0.3613144922280238, 0.7857066189601378, 0.43707097162106434, 0.5550572697631735, 0.09080506715753023, -0.336411201907479, 0.9303833890233029, 0.6013450249884107, 0.1656433730395157, -0.9431560127961638, -0.2387526626497012, 0.6491330206684436, -0.7881781554125336, 0.7204711831105743, -0.0967328606482271, -0.5281901610772632, 0.7056177746856975, 0.5313331849384081, 0.9224592654721817, -0.41247176372329064, 0.6472646987662645, -0.6893238582592955, -0.5138109882831039, -0.7154054139663634, 0.8247602809225034, 0.6101452620002732, 0.21926957866956298, 0.767096906868411, 0.9884167656351464, -0.7051988133166844, 0.7665371504685878, 0.6503391894204056, 0.6855416756139596, -0.20309836564891448, -0.18893105671788968, -0.15627143745939387, 0.9160756246997028, -0.9425197504370115, -0.5789671158476382, -0.860876682053006, -0.6568748852154023, -0.38494029585906464, -0.5330957193583212, -0.5059354826068547, 0.8235619736279642, 0.35682804873391794, 0.1548465022666583, -0.9183959046668806, -0.5210436130764713, 0.3815621686979678, -0.24247758930008834, 0.07442752774777808, -0.5917357280067281, 0.4230003310797705, -0.4167267936200528, 0.3959118711104044, 0.1902953057258827, 0.5799874862585817, 0.6086336414267719, -0.27196970984067215, -0.7454418892117296, -0.3033334483838257, 0.7892803380496161, 0.6000347025498838, 0.3169165219178556, -0.12330080761371853, 0.9126194059817965, -0.44646711475827905, 0.02542584054335828, -0.5193090254176804, -0.22738167382915875, -0.7036571910173175, 0.8286888524940068, 0.9145350821409124, -0.5873116278736936, 0.9338193759269175, -0.7297141705810506, -0.6440168427036728, -0.406174931350066, -0.9082107216074454, 0.15601813298535633, -0.7055636612347188, 0.5887601202362978, -0.1954605166747998, 0.2013965630484864, 0.7284240524654522, 0.8250072752118502, -0.8183334646679243, -0.6613423489882027, -0.7536823297676167, 0.614971181597723, 0.7010792729115742, 0.40689719629569865, 0.6226712021334868, 0.007315166832626119, -0.2560815790268276, 0.9488861636084576, 0.8130928158718089, 0.40438377624692934, -0.8389502173396264, -0.7429613718887753, -0.868538853688217, 0.27241763267119956, -0.36234229596787304, 0.8628643999408059, 0.1025267410912547, -0.6360746799926373, 0.873326282275914, 0.21391655679904087, 0.6833115479056984, 0.22413093649157467, -0.514194611915471, -0.7849398197500903, 0.4374039124217266, 0.3172937204649733, -0.8796128220185946, 0.444677808317097, -0.9691600815609878, 0.5896249638062017, -0.23773116827434482, -0.8752681019729966, 0.6045975891047415, -0.6974285478255489, 0.19713550610153008, -0.215376397544208, 0.3273423966368343, 0.9549005805646702, -0.6567057651382435, 0.5868352050436023, 0.07581902669974627, -0.3238596964022946, -0.555126710988946, -0.7535625976672378, 0.09294586212250033, -0.1510755931121679, 0.18941182237629528, 0.1739083921280895, 0.928627790822945, 0.02330818970915538, -0.7437103363109472, -0.30297359313996175, 0.65584037577107, -0.9068024020212442, -0.7299899198585442, -0.6141810257771108, 0.587894787698175, -0.5515541123438525]/0.9985224749021409
0,3:[-0.93892974783873, 0.8120474342002444, -0.7208216618790444, 0.5307360066007845, -0.11565578604592708, 0.3099130677085744, 0.5015003285117481, 0.7893404890569107, -0.7233317099565855, -0.16978246750176607, 0.101091734819442, -0.1905748991161953, -0.23657929869642436, 0.21011619174739726, -0.7004836356132507, 0.047782468360143104, 0.08494903288566746, 0.9643021010711241, 0.923441042239654, -0.44586412688639965, 0.34644385392433463, -0.6296383363379736, 0.28557383729256625, 0.38937306148689865, -0.9902596793497738, 0.12918413644162374, -0.4998016229355129, -0.8000509023636782, -0.2229622273655789, 0.15543169952083113, -0.5392694122362003, -0.8240353064120018, -0.7216443749832653, -0.08096012023304544, -0.4810227884821927, -0.9188635855331118, -0.3311510460953624, -0.32791136363199436, -0.567617375716799, 0.8182959267153205, 0.8026162382610289, 0.9471655468016758, 0.39227958133411445, -0.3276125212726255, -0.4250272376891302, 0.18796080725626463, -0.996750760168841, -0.9367112347942317, 0.6752209228385522, 0.3925366144344731, 0.882803030793951, 0.9556127576381772, 0.8975861875562567, -0.11719401749989933, -0.6237794797095841, -0.14715398828664572, 0.8574601571329192, -0.8103764572983216, -0.9496888174509994, -0.5194853666210868, 0.5756951275903923, -0.08961851361822726, 0.08136527684389105, 0.7007121658598814, -0.6587689583863896, 0.07873453939656616, 0.1983739222347627, -0.2536139974370686, 0.30689305215593543, -0.358664455257355, 0.2422286837192149, 0.4715917414987285, -0.904281189289047, 0.7965193848982484, 0.7128428663381294, -0.13339419897887206, 0.0846085850315863, 0.49760756569683706, 0.5197624073444675, -0.6874645714509737, -0.619231628678852, 0.1876943425434121, -0.7410559960478873, -0.3526921962058105, 0.774649342184411, 0.8468972652219955, 0.11578565394648455, -0.536378209737248, 0.9135857912644576, -0.534879697179161, -0.20956865365775634, -0.6624965230189537, 0.5514663206946855, 0.8515241924605066, 0.23181764495144797, -0.17567067997448826, 0.04713915372389721, -0.7241316678139427, 0.06664574873198226, 0.39096515544988764, 0.791546451537189, 0.8229079562532524, 0.10089860026653996, -0.14992991018840973, -0.9306397792957473, -0.6376958189168052, 0.2724861951903981, -0.8506184603869731, 0.3017626616191016, 0.6675948828753162, -0.09213282367372222, 0.8191425563049792, -0.20524376428454683, -0.3572361363733869, -0.149245372429208, -0.6091057227509669, 0.5147865791084221, 0.8260593357299628, 0.019233989157568132, -0.9044675518157879, -0.19455922131931835, -0.47993822820299004, -0.0846101854845922, -0.9474670266900336, -0.015572350702398697, 0.23570738092067153, 0.6203628480783056, -0.08379835687968872, 0.16841951747308317, 0.7332767504027149, 0.42019684588422435, -0.5245632272198156, -0.7610367978251606, 0.35606960228249696, 0.9713425833344127, 0.2594315043901223, -0.1859155731170823, 0.35988427835896175, 0.8619548935678023, 0.1929990287435457, 0.8718871207481238, 0.5947888224658171, 0.6891232924544606, 0.7535846930998309, -0.8157302480574329, 0.12295488566243384, 0.053169088847861756, 0.5472473991750653, 0.8877238708139685, -0.27838075665350925, 0.5196590918714129, -0.44163533714234837, 0.4868313677800672, 0.02232950546385478, 0.025732621691519925, 0.7978058838581876, -0.5734407807615305, 0.13314116392673211, -0.8845219817949463, -0.36166234832414124, 0.13251412998571577, -0.6023035660602303, 0.7425592527518228, 0.7824389572258492, 0.35329996193141877, 0.14542846089503692, 0.9670895084181561, -0.6725752039492872, 0.7445748005346013, 0.47844268577389704, 0.3576021410669654, -0.8407994661195473, 0.4642648074915594, 0.3410134303412067, 0.26684551080068064, 0.27777116270847824, -0.6690782143137874, -0.9783091447120753, -0.9936906888898116, 0.6622149780788139, -0.9267599016020517, -0.600567291566754, -0.9482538490559572, -0.01772515342173387, 0.5799706409047553, 0.3442185075741518, -0.706513339949751, -0.22604345843653506, 0.4487330046741689, -0.40325358863100425, 0.7380818623234229, 0.35456434682300997, 0.24160371233491307, -0.09810251003314385, -0.21117833771105654, 0.11708249688289718, 0.40463727826803675, 0.18115218526211052, 0.4022447593130287, -0.053374523337126556, -0.21880473953116075, 0.48349509699927795, -0.6386193741027766, 0.7843250222125944, 0.34477939276027814, -0.16907986770440198, -0.7502233384589416, 0.8105468261101056, -0.7364133276640645, 0.44274625646965243, -0.04816369705119247, -0.5433469080473952, -0.5340972870914893, -0.32135760312411643, 0.46976615228065627, -0.9566966755728576, 0.3362376238923235, -0.47467243425088373, 0.6517444132520152, 0.2766437193536091, -0.3604820754563114, -0.7151783008750978, -0.48848851524317705, -0.9766145889258289, 0.7294233898887346, -0.3590715641165865, -0.7189900375168958, 0.3901098471450817, 0.3742965917123118, -0.4976151519381713, 0.5710953260551583, -0.801431086228708, 0.030493962771624642, -0.013773957418145895, 0.3327597857631516, 0.6392573501817396, 0.46552761083649846, 0.10833456935210649, -0.053110428584590065, -0.7674726028669667, -0.4981901538364677, -0.00014095717160536705, 0.32311867765316593, -0.6844170845858322, 0.576183328341471, -0.05234539655694972, -0.8665101756290743, 0.37592569488377037, 0.298171359139044, 0.13808229147535145, 0.8921567663688523, -0.5943156041951416, -0.15704626546638845, -0.37347280560715324, -0.7060653784105937, 0.5016721231272925, -0.6166511404787858, -0.21120716791927419, 0.9237075544125679, 0.35315739837561766, 0.7025535019215863, 0.3883305353785069, 0.6928548880684979, 0.15051652155765397, 0.49203743667509653, 0.09444369852608109, 0.7652861469291745, -0.024128036923100334, 0.27985690656399304, -0.0850961407488531, -0.8395575435366674, 0.316112347104216, -0.09679061989463869, -0.7581139813910817, 0.9054056229961107, 0.8309625688354723, -0.5485394374884554, -0.9986474142098121, -0.7022366692734046, 0.09015554727001751, -0.7571306767676462, 0.8050848455370854, -0.8213825244358333, -0.9729284811710102, 0.40182583917464876, 0.07630391733755304, 0.8423418116919985, 0.8065258739192775, -0.6932359827899073, -0.3401595546884722, 0.4274567879665305, 0.5187097338459576, 0.9533318736864069, 0.1922147358920987, -0.5274322327508723, 0.40193764525072795, 0.6352531165471527, -0.13105336253101554, 0.7176085698877552, 0.8634463414238817, 0.30899293242397324, -0.12177507717007265, 0.9930193719088851, -0.9100511807380753, 0.2551332103114863, -0.7089129867570265, -0.4809211396053339, 0.6701659332643151, 0.6893906788691095, -0.9717727303666617, -0.13236167290454626, -0.6382745820940641, 0.6069216904162036, 0.12144935695291714, -0.4952712410975822, -0.9354217380563992, 0.03364066802876154, 0.45024333450244935, 0.8961953972288315, -0.7085261987969076, 0.10288429668274257, 0.40632021027445253, 0.14083175724256747, -0.5520298153427563, -0.3820379946734719, -0.8085155553301664, 0.04602322090499686, 0.8590821785025349, 0.5215110103448071, 0.2953978362866761, 0.6113694602388036, -0.805419651619407, 0.08108627432792126, -0.5389712008998193, 0.6430796153501663, -0.6464336135772737, 0.18458915654046737, 0.022246215736263508, -0.5612562172445628, 0.028490507262274978, 0.5310572533381093, -0.9728464068369382, -0.17913587026617178, 0.5257851973748668, -0.8584697218425097, -0.8446901991370125, -0.06510601942786565, -0.8511179343874424, -0.147005595971611, -0.4629371885345852, 0.6808405454403741, -0.5691903200536294, -0.16193736796829133, -0.5258637311197891, -0.04875752334814901, 0.6917163367820681, -0.44187561588269986, 0.03342180818151119, 0.2845801301762285, -0.22682253392923002, -0.02146537928035852, -0.5157387983857449, 0.6069440842940634, -0.4429144772975353, 0.7960122317866143, -0.43778788887405184, -0.37201566858599056, -0.07811906695497584, -0.28033894167682494, 0.3839961210497722, -0.7451889594336656, 0.3204793633177876, -0.36505203980764583, -0.7047731417014758, -0.4719684378404463, 0.09933798958730033, 0.18381616561716219, -0.866376240822383, 0.7037567914678631, 0.4991634722246951, 0.7920185185401978, -0.6527443637760808, -0.6480891405129974, 0.35818470019566995, 0.3092601403030803, 0.29990734180905126, 0.42410088889901276, 0.6340153986628714, -0.5644289426462832, 0.9983718895673555, 0.8758691291810536, -0.41947952559020596, -0.9472357058970919, 0.9102272732107537, 0.15493224585609755, 0.40037277273941063, -0.7030526416195519, -0.7655437613297069, 0.0007879609373834714, 0.9321263647666034, -0.29698634574938065, -0.3637655950633757, -0.4215207952499125, -0.501185062055356, -0.2652244704503465, -0.25273913245799035, 0.939738881838666, 0.8463774508045137, -0.0758242333908936, -0.8333417496081177, 0.6001997160728166, 0.9036017507361489, -0.6270655468625816, 0.5293379271293845, -0.6595992382092644, 0.6649582417873365, -0.16806473412597978, -0.9579964699585641, 0.7752847977133839, 0.8679335112204327, -0.02328627971655317, 0.8697585701996646, 0.4949232879983758, 0.30442540119364536, -0.7456998304067488, -0.016839153047676803, 0.720617663990694, 0.09245643414816795, -0.7559031914682561, -0.19072474372739923, -0.4349180248533547, -0.5228937417515036, 0.8469807052219801, -0.14468462547720348, 0.6606436343459308, 0.10394467116155301, -0.44830234690224585, -0.6685489003231796, -0.7969766970494001, 0.30438317864068937, 0.6725143834260069, 0.2992702489461365, 0.27674961404752074, -0.20962305823626126, -0.8904556771530423, -0.43708701914878323, -0.8532303565968442, -0.7412863876832492, -0.06942384619477981, 0.8535372722389858, 0.34215859086827694, -0.3051566636741134, -0.6062911745878286, -0.0974257061092283, 0.5979756618862503, -0.5109508863257197, -0.8080321512825417, 0.1583177964862974, 0.9299323423932253, 0.1284710516250161, -0.1042238576768893, -0.8538979899926971, 0.35258251482998726, -0.2851547221058635, 0.9326769774768611, -0.5069678804673957, -0.02452658574943888, 0.3715425157370449, 0.9909492353628131, -0.7582245437667865, -0.23455322293747716, 0.01924756363576674, 0.152129939163393, -0.2870862350853567, 0.5701951825719291, 0.5400167219043932, -0.2670053692438692, -0.9918794445903494, -0.47987168613616915, 0.9932180034180207, -0.6943911506983891, -0.49541657270661776, -0.8698248102960178, -0.04551945870594722, 0.1874463242829837, -0.6676042386730396, -0.06833711332976715, 0.40639459553162977, 0.8139489258681607, 0.010734211354216839, -0.179795765522795, -0.31998357208259426, 0.14514545343734214, -0.17911015748053696, 0.8060488301276691, 0.9305827580809134, 0.7534585568202564, -0.5567551071696539, -0.3134598108606317, 0.07084975520971426, 0.5184208564575215, 0.6371709184496657, -0.8228774796610738, 0.7046450988464987, 0.2653881969465033, 0.34141319179815666, -0.35993394261595024, 0.09650150031503801, 0.5644521266821896, -0.1555606592584664, -0.8946280022767295, -0.03311237949472301, 0.10229981960884477, -0.44613804203464713, -0.5428000972276501, 0.23422078644952704, 0.25857460224477025, -0.5191196319341296, -0.2648020391063053, 0.8006266908737372, -0.43721882932880607, -0.3710262688398076, 0.3129178858418916, 0.9521000850178368, -0.1819021422301763, 0.4721554095422187, -0.7595791873776345, -0.4703083505322947, -0.6579239205872707, -0.7309158384316383, 0.2443166428743826, -0.4574028816290989, -0.08188752429281476, -0.01639629301621337, -0.40751702512659427, 0.8298021336795116, 0.024415346613498423, -0.839887276185209, -0.5660829192367903, 0.46522188849686236, -0.22216975076831227, -0.3126726055719982, 0.11332275422849977, 0.6751976889380233, -0.4283507527396438, -0.4417869398282724, 0.42777229154597896, -0.7084531270686785, 0.8077383571779256, 0.24934438904498774, -0.061847281979033816, -0.1481039736791392, -0.4806443364403029, -0.5769183705720382, 0.06751993035126902, 0.12135977335231041, -0.12801792314269056, -0.19404432527493043, -0.004737561291904946, -0.3813101082032535, 0.43031550002231445, -0.23851804345359917, -0.4412501909374187, 0.4490800950709797, -0.3406489801309196, -0.6464836752358116, 0.7176115552326457, 0.6948736365367219, -0.8469962774563875, 0.42833742040282935, 0.9155995677475655, 0.33062303611574667, -0.8111390442975865, -0.44800382991552273, 0.3492412290092002, 0.2146629565943807, 0.7583595179498438, 0.22265746468459355, -0.920976845468185, -0.13776302353632952, 0.005336260316304298, 0.41921641728822756, 0.36884297237413755, 0.48754159385468343, -0.18670797760326252, 0.957961069803086, -0.41081469743680166, 0.10837849063316174, 0.2128049491363142, -0.8864568508687409, 0.5940760646939329, 0.08263665942847087, 0.8493394090391042, -0.8602009317822996, 0.9571333249590123, 0.35210390991980195, 0.55601944920262, -0.3291707903520789, -0.5814969531559326, -0.2062917835409768, -0.6827681043149754, -0.9976857919353175, -0.41936525460273866, -0.05485109477127975, -0.6732616821487949, 0.6149571001895013, 0.8661027258438001, -0.2244825207646943, 0.12407452750189085, 0.37331656826374116, 0.23244327520740904, -0.9214280874749421, 0.9240815476043007, -0.9954728200828784, 0.9733828788007659, 0.2593049436941801, 0.7653191422686203, -0.24326665978059148, -0.5674419959589778, 0.5781297673562273, -0.9874326453543645, 0.10474534436718308, -0.35104778833266886, 0.7488998885948739, -0.02117198814035074, 0.9175290374599991, 0.42983174811844344, -0.3408623166082679, 0.46081007938006197, -0.5144476856611172, -0.13173640526847782, -0.49596585609329846, -0.2637671180923233, -0.8997404964304554, 0.8038180242176187, -0.29765894764420836, -0.19520178477715477, 0.6485210474248733, -0.7719286077658416, 0.581894322084745, -0.1923986121707424, -0.21810054614885854, 0.026321206988212387, -0.7278202018216211, -0.31355144284015735, -0.8201419585533074, 0.13475070671519918, 0.26739721812796313, 0.9124365096483174, 0.001297138672722964, 0.1325721882922216, -0.5085581357117928, -0.34119555632333937, -0.5345897655163183, -0.1689258561818341, -0.36225503072986376, 0.3706822428124867, 0.6466000143084125, -0.34522251780968016, -0.3176032265215609, 0.7466248818455252, 0.6685491912181818, 0.8939901723986194, 0.23429005913352388, -0.805747665241145, -0.26928539825192477, 0.616327330405875, 0.8148189619425308, 0.9812592087915937, 0.30779540721784304, 0.7978682092555076, 0.021378633795745117, -0.7290133212609444, -0.8253576252145853, 0.01217179486433495, -0.935985600712095, -0.8842502992713632, -0.1419645727779142, 0.4553564425630272, -0.16404624783388644, -0.3601007079892322, 0.5185479964458044, 0.8255645921059265, 0.6660344617849572, -0.4512145380385131, -0.7088034617710524, 0.19412633794774714, -0.0789717841890889, 0.738797337400982, 0.9221537048457304, -0.5680596139447693, -0.5985454004186, -0.26507106317914997, 0.1741923206402911, 0.2930307115645858, -0.10524060388742784, 0.0346835050541241, 0.9018582887904856, 0.10835513285926734, 0.687642856654584, 0.0518980313497015, 0.4858740780207986, 0.7549070992953224, 0.13046197856982178, 0.5510088087316833, 0.3593485512801671, -0.04839231846273595, 0.7905101426985413, 0.31614249489684365, -0.6679839273309722, 0.10054399265016056, 0.9164040501358905, 0.2845049810901885, 0.9498956678626849, -0.6458125988874059, 0.4552374046847827, 0.0769413541547793, 0.9892053678266579, 0.33392636471530307, -0.9762900180146404, -0.042011037297807086, 0.08589206500928293, -0.27856843738210735, 0.34327322965140694, -0.5637236170324202, 0.11788028439589815, -0.14339585756116868, -0.33804101519870233, 0.2517072270320644, 0.2662650763765342, -0.385993476836199, -0.14459074027418461, 0.6799020268340481, -0.4234582540672951, -0.990511312747244, 0.33994548158040283, 0.9764151393962242, 0.21518088298421678, 0.2717508974420155, 0.9760828163141093, -0.07555510678495336, -0.9716705022271899, 0.8945725367952728, 0.29653802339985025, 0.4040234049607365, -0.3183127640066241, 0.7350731289695853, 0.6807919382790819, 0.9679689712164481, 0.5181932011964336, -0.8636346909730048, 0.9358202147672283, -0.010301291341848984, 0.40830008360802617, -0.2976605339748404, -0.11050605006944503, 0.9862770670231653, -0.33389147838000377, -0.4575634573729599, 0.8207301836067471, -0.7979501359183465, 0.11349195634209153, 0.6640988887302677, -0.17541325209079028, 0.6450860670600502, 0.650417964972211, 0.03326937880557046, 0.5354386894320144, -0.8699042681823423, -0.9510132788641694, -0.19995909310219018, -0.8270020992428322, -0.055147130113520904, -0.018347785423055374, 0.5809019835318023, -0.3000489544024718, -0.41100054365648764, -0.8607108857385268, -0.4191797737421661, -0.35718999555596875, -0.23221709450214045, 0.9583615774649452, 0.9435466179728988, 0.5127314104908685]/1.0003034696435096
0,4:[-0.23481215598512528, 0.4109791468749513, -0.9177855898354625, 0.5992335016860082, 0.20908452198878336, -0.9187951175715172, 0.5891086233340406, -0.6798840912628012, -0.00029143959278710163, 0.6862924106946828, 0.805572477611828, 0.32247798752653, 0.9405021723984173, -0.7585964474233056, 0.5906558393185721, -0.8849425317128239, -0.7072859036191819, -0.8740376951313578, 0.0008755722496418539, -0.5530230491804946, 0.8340382368503434, 0.22944505398636017, -0.5725735673611487, 0.3681053680775912, -0.7483122658161501, 0.5831488903285325, 0.1892100511713639, -0.036071781552226234, -0.3523143041387242, -0.7396257528065184, 0.13762144125950515, -0.20565191447182185, 0.8356370571029708, 0.5480631686416664, -0.12374622672655344, 0.6443147319370977, 0.36872488491632605, 0.4513504511954707, 0.1428829187555991, -0.5085319984861958, -0.9862986324461529, 0.7346922516636951, 0.9864007676051272, -0.10404567256468766, -0.423381893583507, -0.9836176887630039, 0.26494667858519994, -0.9900873559281895, 0.3654207313154898, 0.5077558082638349, 0.8953171733708549, 0.5199517607550928, 0.22213015896022958, 0.9063553046408286, -0.1934258611287778, 0.43449879795082613, 0.365548124422312, -0.10797938381628058, -0.5836921038343248, -0.36254390129701775, 0.08655564333154375, -0.767164543746607, 0.5638863390898781, 0.15999810844136753, -0.6232949875594314, 0.5667038850507429, 0.7729869850476685, 0.39740469818113744, -0.38226328806329657, 0.2577979880222625, -0.1620730075042096, 0.4716114593909442, 0.07794476009754536, -0.5806441664975859, 0.236876974088857, 0.48191046753186195, 0.10446534621350545, -0.7328593250577662, 0.8303441060643919, -0.004978148036910435, 0.37771862579260573, 0.7682963211694938, -0.3499067017747868, -0.8155775937262124, 0.5462868329199713, -0.27714941703849894, -0.23298422763443405, 0.13086347177125757, 0.32667053875371255, 0.6420759767734985, -0.6387415531611023, 0.8835854130943923, 0.0517844814462991, -0.3661921465242417, 0.38653005487551795, 0.25359952265765684, 0.5877456406091288, 0.6570741948179648, -0.9761063714023768, -0.615119961444424, -0.8382983385193248, 0.3037806427547387, 0.42044823391451946, 0.39506249558138085, -0.32174529406780294, -0.07928308962926622, -0.2645498461036868, -0.17359946023490358, -0.5689697866924568, -0.10357674710650477, -0.5375364878974671, -0.10663370659872817, 0.010808289410599636, 0.27980074291363133, 0.4946734903080563, -0.6443960559859319, -0.14310711403355958, 0.6658667958392981, 0.16808153046104746, 0.12009700081433516, 0.0552636222470031, -0.8672699189156443, 0.8942409037022905, -0.815675786048339, 0.25100035991819836, -0.7206533087583574, -0.11674493229648156, 0.09009256425605137, -0.6675183143525193, 0.5472390159831878, -0.8134606251498983, -0.4061785505513235, -0.4829972933509892, 0.7877715914119507, -0.8915110630839538, -0.025751703191966513, -0.7937411071509883, -0.8068285300653186, -0.004712180204436089, -0.6970835234785584, -0.7758414524692019, 0.6425497119820809, 0.925536169091888, 0.5386889072710037, -0.47762431801516225, -0.9763822754300635, -0.9245473510730595, -0.969460588172558, -0.3481863399065479, -0.926204226091645, 0.5979633788594222, 0.913669477973007, 0.4589420517476519, 0.6678641302159688, -0.9796079251319111, -0.03970012129872963, 0.32198082264251665, -0.7272057517525116, -0.9532985473770109, -0.2038489773525714, -0.12121487489311855, -0.09425233954612677, -0.9423987933206837, -0.35613108595515053, 0.7299947093121602, 0.09446402156315958, -0.3721672564925176, 0.7092998668927644, -0.6705235847740971, -0.44247443621423277, 0.0890119564680194, -0.4099498832644355, -0.14182500118084151, -0.8860063753951577, 0.07331310047479711, -0.6100197692318425, 0.4721222076480214, -0.4378184795473421, 0.7065945451488925, -0.45808205848479416, 0.04511696721602856, -0.897022520683345, 0.4048769924249792, 0.19007916941959224, 0.49659206067372513, 0.7271926051674806, -0.6846886539473108, 0.8624904256685161, 0.15873541661866936, 0.30103338394300083, 0.5590940052497984, 0.6787333497506935, -0.6711689054030618, -0.4966156947265217, -0.8949599778301791, 0.24850896435799874, 0.43697785469365846, 0.943053990622998, 0.09557632880344524, -0.28013312003597557, -0.4953607921390375, 0.624538485789293, -0.22001987156455027, -0.3597271509657789, 0.5592436550028222, -0.4799802565645736, 0.6597666646607566, 0.8877079907960616, 0.27760523856571984, -0.2541090081121581, -0.9765980584756836, -0.7211212218578503, -0.8841705079495189, -0.2170867102169788, 0.979867542871035, -0.07043876431145796, -0.49947999174982494, -0.5421543073393893, 0.6268991252119724, -0.9277634681249649, -0.8356573214121918, -0.8012730071573275, -0.970716022005246, 0.43118703306797346, 0.44918083399138475, -0.8647625017984184, -0.4723112991974223, 0.1170944722437981, -0.7172857512807655, 0.297201101282651, -0.4036378485315453, 0.4788480359844587, 0.38100684870186075, -0.6605162249500461, -0.40744226939750916, -0.02260638314071716, 0.06605953955817369, -0.2472253029458345, -0.906206905728149, -0.7030341540460968, -0.36512391428314395, -0.34018933033147636, -0.41046837013620435, 0.5946971876809336, -0.11988690531488128, -0.21999369898418844, -0.6861262592877366, -0.9643619324968384, -0.6150882904220145, 0.15412214730825458, 0.9532347838749109, -0.04981933365648139, -0.8186824838600324, -0.2929307555628018, 0.46910239480502547, -0.17758414379035625, -0.06459834805496811, -0.39750346907960266, 0.9386139415804944, 0.0299344294183039, -0.5941488517596876, 0.9360164188502869, -0.17169521261381493, -0.4474501329345595, 0.7939534381305688, -0.03517232274746485, -0.6785020230926782, 0.538236932819749, 0.7589569236455823, 0.8927978784719702, -0.836767257624589, -0.48659144155380163, -0.9282977022918605, 0.048470506098965374, 0.9231771536840894, -0.8093447226266235, 0.03953180804544143, -0.024042572224344916, -0.4418357546638729, -0.9535467523948504, 0.9590580560607236, -0.03263418711992827, -0.46845205480343455, 0.9682614517049537, 0.9083705464093503, -0.6682409718980526, 0.2039129011763848, 0.9548839740852215, 0.39627455463884725, -0.27504996678577676, -0.8205176489115499, 0.1555977441875951, -0.5100769795386317, -0.396984419938476, -0.21855213447396893, 0.4907846845613697, 0.32546768440731644, -0.667867545094995, -0.3765845773300577, -0.6526789077716987, 0.48267654171184166, -0.24311981892168924, -0.06844091834355015, -0.39700847035188747, 0.9331032939894974, 0.2203654608645842, -0.19629294861794855, 0.04135370690843998, 0.21128275936154028, -0.5600560649370179, 0.7150769502237229, 0.568301263707099, 0.9552081501536436, -0.9046525820183917, -0.04509858891779053, 0.1798961068016675, 0.9345744555891029, 0.19493521064692526, 0.805043676877087, 0.04836635691802016, 0.7175967747697802, 0.22966743712575544, 0.7501128267668016, 0.13892629783290045, 0.028231380164161855, -0.7421550882366857, -0.32818013896844966, -0.324422389935353, 0.9824075966429704, -0.31923187829869304, 0.1362477443418857, -0.5290580135225684, -0.30880527952437986, 0.9241397457454539, -0.8801942574657866, 0.8886710227160919, 0.685859861054297, 0.6772418268569531, 0.08608533424947584, -0.8917332430113041, -0.448371789744507, 0.6436858160032228, 0.7299108772193185, -0.3042896795560999, -0.6684414637175229, -0.7746186526865867, 0.9703985996429474, 0.293580581969362, 0.9949571285503962, -0.7654055846600543, -0.5276633121307122, 0.6922536447421122, -0.19460981407855615, -0.5381558833569334, 0.31942149326381164, -0.2534485723237409, -0.11795824637538907, -0.9075546951448532, -0.054959233486034265, 0.8849265464506979, 0.9247966635546467, -0.8573137207908936, 0.8683176761653577, -0.1894320700970571, 0.9266845865994924, 0.5370911920258208, -0.1683651622143496, -0.04933176087813229, 0.20587484005030787, -0.7260292528755758, -0.5961775938758065, 0.31571362402611264, -0.8026071062448205, -0.7217139719788109, -0.5804562159429287, 0.4328026667334939, -0.6330462684253519, 0.012821714708166176, -0.7729712215506876, 0.4587678065569443, 0.12396706004117432, -0.3005493055481364, 0.3411706092922552, -0.21921310910618733, 0.255602746897244, -0.06237165945350681, -0.42266780222641853, 0.7609931507703316, -0.809070142031576, 0.3209703203404921, -0.4748935847549163, -0.3218018795534696, 0.6186372215392608, 0.8017407082236789, -0.7683940766730244, -0.29910268450728106, -0.6407909894833967, -0.6151308160091389, -0.5844669460660104, -0.6670935241878115, 0.710914628125479, 0.259389139732596, 0.223754085612883, -0.6317582755276656, -0.9286433066790714, 0.26204123342746194, 0.8061789753547844, -0.13696457428244074, -0.32940768960001193, 0.6319592039491909, -0.29806509565054623, -0.37008569054774865, -0.9888578476483858, 0.5837380943882735, -0.5102454679336665, 0.6074591374708009, 0.6942461631024599, 0.8806915362241079, -0.9492903512238078, 0.1059841373536905, -0.9748741517670645, 0.09895597776060105, 0.238091884298123, 0.770296936029033, -0.2603663209602616, 0.6011967307986064, 0.9445660439052522, 0.7660017174614095, -0.5219851970497904, 0.03388930884039446, 0.36458618812533916, 0.13808495496601889, -0.9238663922836317, 0.9160970135188555, 0.57651226078392, -0.09537986485168047, -0.19616049751898423, -0.2890580753411638, -0.28263789085168706, -0.6662277370663081, 0.2251300654735987, 0.9907756335009965, 0.2651654838459998, 0.13590222518556594, -0.3221437393062354, 0.5069741778967658, 0.6165955733656496, -0.41509203498761016, 0.3050433188171362, -0.7158586877359039, 0.7822043255704929, 0.10257194678837478, -0.9181093417561321, -0.2887129180523247, 0.903961486951693, 0.8262279466899723, 0.963797143613141, -0.6145422810176875, 0.29618348342850304, 0.5063083523759595, -0.9288751510538878, -0.450206951354836, -0.5908483674902988, -0.21927714985256241, 0.3043025580955099, -0.79067194460138, 0.8461403549983784, 0.8068566589700471, -0.5095496270341411, 0.4843681110614335, 0.5485542178143565, -0.56116622590761, -0.47815769185117873, 0.35442718475817814, -0.745977477378301, 0.10558440887413711, -0.3934318257975167, -0.6421437153203073, -0.32777536064749, -0.18295493264514295, -0.4209068340500768, 0.7425613831812179, -0.006947421814779586, 0.8942826472295256, -0.07677163089247306, 0.4462570181304017, 0.29626305610172116, -0.8194955287137662, 0.06800300757074085, 0.9622659569364451, -0.1442886824813786, 0.4643875600285994, -0.3993421933621451, 0.08977741154718245, -0.2829418122812421, 0.6025258387585476, -0.7729640431647309, 0.20045120699565278, -0.4462080275784155, -0.0002738283234018368, -0.010109037433917889, 0.11142001488857156, -0.5753374747940787, -0.6196510445857621, 0.8766744443819889, -0.9952616674230581, -0.39002819789891974, -0.45950617686962714, -0.27724859082829356, 0.4272800549097244, -0.9778977692369206, -0.7544327321961295, -0.35875442781833355, 0.5436019937416232, 0.9036791912307895, 0.6285650675090511, 0.5451928458469247, 0.08146439579955861, 0.1314709691964514, 0.5669982743412695, -0.6751231138475855, -0.39662640504730307, 0.7762407147731933, 0.6576615187926007, -0.17901420011998675, 0.6338254577668743, -0.40665563675572547, 0.7638729553819625, -0.03167070203757283, -0.19898811226621227, -0.8220442905534486, -0.9346223942628562, 0.35038230413397153, -0.10416175618432444, -0.5279807924146973, -0.3882675098080228, -0.5047419983339878, -0.5918580703058645, 0.5855490803747254, 0.2770746812042612, 0.8523989494699152, -0.7830935175812547, 0.8375161826949994, 0.9712207927565689, -0.02565075060132377, -0.04684239049163336, 0.1549837234965673, -0.4149841809199218, 0.348218172876466, -0.5201693089513112, -0.7523907088341216, -0.38912842674826115, -0.8224186882986105, -0.36876255764661736, 0.8016492477280253, 0.38575160807957376, -0.395496911419591, -0.2764135706743269, 0.035108166958614184, 0.03873068789169487, 0.033227707345916846, 0.5382775389254484, 0.5364758679436328, 0.17186561618566576, -0.6574745490082143, -0.6292060946970615, 0.04029921667968973, 0.6738965843117334, 0.8830467979617921, -0.591203520458729, 0.9084643898526467, -0.510181098481291, 0.5108104719609329, 0.19075506397937264, 0.27419242292652923, 0.0732666009401905, -0.46175511903450545, -0.6769572226059369, 0.10355048773216101, 0.08532258687090415, 0.6798429205818568, -0.06874033266871749, 0.9480217523817409, -0.041545104552527246, -0.9113311585073303, 0.7116110309340871, -0.12832873138957757, -0.518653843988665, -0.5304148272038256, -0.8713618183230771, 0.06045151657425696, -0.8987304497987978, -0.0413885863771386, 0.7933186809185131, 0.886678259904126, 0.9520353610021465, 0.7488394889225954, 0.17414278045323955, -0.236887847854022, 0.5435575479957696, -0.7107599503078704, 0.7982760663023015, 0.08675414756125575, -0.9544951081571026, -0.920358922462717, 0.3063230185218131, -0.2617158921307705, 0.9161909748483116, 0.570820280164837, -0.8400684425967786, -0.8557630783203836, -0.36894650675285634, -0.41343072376519396, -0.7997747723463686, -0.7028582938631411, -0.8590028538000019, -0.9183365718567575, -0.7694019207647662, 0.0617217951452147, 0.281559932609015, 0.09627837434853515, 0.35499250012908456, 0.8697268919596357, 0.3937373947705111, 0.4401993666610053, 0.8350501323461973, -0.765658812032277, 0.32486546387818066, -0.9185403662830953, -0.6183983382487596, 0.05134819827986719, 0.4942578246371865, -0.358932313766687, 0.8494525352508273, 0.07171464456073014, 0.2721207185127241, -0.8731557794228295, -0.738821828634384, -0.21353329043229863, -0.24176530288793208, -0.05470616610167833, 0.015123251612593203, -0.37911347768693004, 0.7509216124605445, -0.005847661372842428, 0.020589903444347524, 0.23833427125097129, -0.8669396761384087, 0.7731751321039018, 0.8534100356298917, -0.36410426045953176, -0.3363268682552071, 0.8337903082903865, -0.5423164373402699, 0.6534590022185535, -0.5943522315930473, -0.18036289736691313, 0.4838925115796664, -0.17095800836898145, -0.5881634646748966, -0.6772031022745263, -0.11912555396926332, 0.9417524546970901, 0.4905627108204007, -0.48698907428458127, -0.7941245269808805, 0.05741226491817808, 0.1807926069803809, -0.10428143064691753, 0.7342849752404137, 0.18798950511254153, -0.6873714633740831, 0.3629305270939178, 0.866706000033932, -0.4458469855961913, 0.7488252044575117, 0.017678695640175768, -0.5952984810786206, 0.9989752974490489, -0.04783694925240112, -0.8687636983531439, 0.3358908320817926, 0.9621321398114315, 0.7268711928046143, -0.29682413551207554, -0.4522235956911267, -0.9921824505266976, 0.756985856548996, -0.30482178356266576, -0.6479680069586904, 0.7254066682580194, -0.6636415856948927, 0.20167934363237872, 0.9754773914175041, 0.2139384641412967, 0.27827095329540996, -0.8273773229733374, -0.02138295206714158, 0.8928985994563168, -0.34547595858739544, -0.0006176728506570583, 0.013643630486671832, -0.8299320762509415, 0.2089079846714046, -0.16623653020548224, -0.08072146623487697, -0.674937812350616, 0.8090268659463706, 0.4305685082626052, -0.3486965062183536, -0.34096299424178267, 0.9340925625936174, 0.6056397142625201, -0.12314424009321367, -0.6356054786224712, 0.854777879761522, -0.22040590266100168, 0.12298327340021799, 0.005355181817686482, -0.5734110291669001, 0.9135000284645305, 0.01856072239902562, 0.9911379549752741, -0.09981522876383875, 0.7696429057552687, -0.12589295071369677, 0.8263600682632399, -0.9567596124079125, 0.3247709031651598, 0.8195927036761128, 0.8486476237739209, 0.21639891586666593, 0.7193840045124642, 0.7899143594243065, 0.5971336457006122, -0.9407314844016355, 0.5916490238571708, 0.27666473657772306, 0.5884356818304046, -0.41695939301719553, -0.012851641934672697, 0.9736438719835596, -0.5639720722134101, -0.7228827297001974, -0.4765060332531217, 0.6586546465399779, -0.9074204424608245, 0.943922661106875, -0.5587347334584349, -0.26746862317173137, 0.7403090480584211, -0.06199826244698148, -0.46570096847641285, 0.25001362782233705, 0.8592892570654609, 0.6741041083171888, -0.880412696760061, -0.5246681140814948, -0.5366888864505268, 0.10045279841257715, 0.6099712474286274, -0.5718533212818446, -0.40633688785513344, -0.01417972708606996, 0.34893865043863537, -0.6569172935826035, 0.1542391917381043, 0.5523134901596845, 0.2517768991789553, 0.8317817591457408, 0.684598041108692, 0.42249510240808896, 0.8439918745741111, 0.1091506465396952, -0.6291807403797751, 0.020500797254178194, 0.4240427992572542, 0.8256255289093699, 0.42815266914729566, -0.6878682563257876, -0.3291671176337758, 0.646208798516495, 0.5990952828715173, 0.05375546380401608]/1.001400279731941
0,5:[-0.7404904372859931, -0.634564157472596, 0.567863052832176, -0.44789502616275345, -0.42389913667925416, -0.7321189588648018, -0.26134960008020536, 0.1815468712384254, -0.8908503581728786, -0.1034361213767534, -0.5226275595330696, 0.8443688585108848, 0.2055381325124661, 0.0743118720570759, 0.5890779414575562, -0.30817049553058307, 0.604985085829223, -0.8698426689248269, 0.2548575335197447, -0.31381694977113583, 0.7851415335838736, 0.8480753604534153, 0.614720256892443, 0.8478399556453851, -0.4001942144542927, 0.09219291587211442, 0.30205828983063676, 0.8089404581019326, 0.41004250344060944, 0.8337273637849993, -0.22412449085489516, 0.8235769350961779, 0.7820652941980197, 0.6528409974642488, -0.5907163770386961, 0.792705382045936, -0.7721746434917924, -0.6141693122786047, -0.2091819340547092, 0.23343835169172422, -0.4631930753122733, -0.4259505500105014, -0.09769523278443581, 0.9591767339377137, 0.486789376408985, 0.28890192921118496, -0.8121489027072619, -0.9992479266329948, 0.3066204289666008, -0.9776358656023569, -0.8149365814081087, 0.09138912365415397, -0.6238309625524907, -0.9105041371695917, 0.0494547535090335, -0.30225213307134036, -0.9880475202556938, -0.49699697271304766, -0.08776863009120572, 0.514023660332634, -0.8844801389036399, -0.8851099087537599, 0.007740345585914854, -0.28778055150072746, 0.2853461719679875, 0.20954030787709432, 0.24915704295818042, -0.0332339487686919, 0.8209868873884825, -0.5097556439706952, -0.4988282132529511, -0.2304275962293374, -0.48616409607523514, -0.10329334537094081, 0.6268999784223306, 0.9736675255219116, 0.9433579879529721, -0.8819854035659196, 0.6159270138371644, -0.7471315266624174, -0.41904207403440075, 0.38398985208303693, -0.9811725900087569, 0.033000388029681194, 0.5105108410744765, 0.8036750737528, -0.06257911221098889, -0.5138776924941886, -0.5469403093371661, 0.6238574491426703, 0.22113044062354592, -0.9844174119379141, -0.1606405988116193, -0.7966313831887628, 0.3269655481208251, -0.21765544194091357, 0.7091952885353698, 0.9326106125456859, -0.8856907313767204, 0.39884664493460753, 0.06855184653868251, 0.588045016588628, -0.42345127432717633, -0.13730544746328244, 0.9406415288821122, -0.5909748378745352, 0.22495164675996104, 0.7565084126858814, 0.44244381159469603, -0.9322015242408683, 0.3037223330174006, 0.1682209968775914, -0.1903972587365106, 0.02622179518369472, -0.28082298930497007, 0.07680759364079148, 0.2974291628955992, -0.7105374911210358, -0.16322509766479887, 0.18749400551957462, 0.8091126871869747, 0.21439392513153677, -0.032690529768443666, -0.1686218175463563, -0.7728989405166229, 0.35084530052558777, -0.030032995316131298, -0.8961757984379597, -0.6739866487750236, 0.884856674754495, 0.262410330786209, 0.8938823859684999, -0.6250257985927377, -0.8182483130237934, 0.8692900867002911, -0.5755613396081316, 0.7730263510185627, -0.3451070442019124, -0.32965175531219204, 0.693026626179782, 0.5732282600865497, -0.9032765038736856, 0.9839689540802379, 0.748813350347711, 0.3312452567089279, 0.6183192633755565, 0.30688928988169817, 0.9566715669543304, 0.04073445533800513, -0.6866204827247406, -0.167350099379427, -0.7131048956385655, -0.3042387115586701, -0.15483454390340526, 0.16045053742001425, 0.2957414381811144, 0.7632070965901182, -0.4464677157002258, -0.9694507392826889, -0.028972917973355678, 0.03393193226254576, -0.5972429746698487, 0.08219372886652643, -0.6496458990059217, -0.607897825725134, -0.6303549348548696, -0.550307514745281, -0.960095150820901, -0.4906785290321054, -0.5446185575752003, -0.9533453111969468, 0.07281100829173592, 0.500172033774154, -0.980873818364659, -0.14418399837238893, -0.6147469509327166, 0.9315185953955349, -0.32536784968256477, -0.16648132556978365, 0.10379666381921561, 0.6267841518696874, -0.31860533589602863, -0.8790494299175539, 0.4350757186238215, -0.08763653300989258, -0.908218101700522, 0.9380881601868524, 0.873762564869379, -0.1888705458574497, 0.48634937165237324, -0.7746948665364339, -0.7442982045033675, -0.03431594311240849, 0.4811221831440009, 0.24300607741264724, -0.49071309028155063, 0.28730463947690565, -0.48953212378491195, 0.0057006475871927975, -0.47931318298288295, 0.5278291248453133, 0.3640206706760656, -0.40210789970786975, 0.6579509894210729, 0.5885952720686801, 0.7400450702365869, -0.21526687055511512, 0.6892458787868863, 0.31017102689490006, -0.24124236912554503, -0.6471761556315411, 0.6332229670656491, -0.10793222138336159, -0.3141143727300627, -0.18321952113062495, 0.3354113994687121, -0.5286342261953431, -0.8610138169223565, -0.6437834946447913, 0.10437667608347012, -0.6277109733540414, 0.8615183740247194, -0.9958885621204221, -0.9498308746159383, 0.25908519160687105, -0.8274673244426467, 0.23162801653707366, -0.6115457424001363, -0.9239143642305623, 0.5132713000816034, -0.8543884611747044, -0.29920844112409795, -0.30717037243078776, -0.935951161876882, 0.46834867985818107, -0.5431592970738564, -0.9946166734235939, 0.697786166794271, 0.2882395313763336, -0.8891090448683954, -0.6667576795986248, 0.8603048924082326, -0.6283602745504935, -0.0014760958106169362, -0.7786118815485242, -0.5468551916576745, 0.9849465509703899, 0.8486563504086884, -0.4485859146227804, -0.2070675037145202, -0.34480730857837805, 0.6876709558666909, -0.7191580587774626, 0.6356385356954097, -0.38031076545312126, -0.8399615464418735, -0.6572107200021144, -0.08276979018809749, -0.8559347813499983, -0.4465562658949339, -0.4019975086925788, 0.2080345834339942, 0.6480536939590178, 0.8725549998410177, 0.16812042263941415, 0.3152496645462688, -0.4634878036429264, -0.993135312824363, 0.3261037114479928, 0.6232434583920565, -0.37426704516216186, 0.46567193666815365, 0.021336583391084, 0.7258545958442524, 0.45107502239830266, -0.833716611631317, -0.9721608506702113, -0.34317732442470494, 0.5447115772807298, 0.9221107972565461, -0.7326302707595715, -0.3375154156436744, -0.8703456537030749, -0.9958635604265111, -0.005201994534982379, -0.9664574386585543, 0.27752248176447386, -0.6949835062017992, 0.8934337199603805, 0.2921010614575521, -0.8342770720642535, -0.6409452168952376, -0.6525723162622461, -0.12093222802339954, 0.775971033739054, 0.2364556483738982, -0.45558964821235104, 0.05883483514726158, -0.8303108693701919, 0.6105409373397125, -0.071354996689336, -0.954396858708584, -0.8108055341233595, 0.5990810720905133, 0.8287868952340396, 0.9126571694412713, 0.4082749966787913, -0.559399948964364, -0.9971768542793802, 0.10112043789264269, -0.6513735537804124, -0.8016224967476966, -0.12008616237651415, -0.9115591413690403, -0.8228383397588788, -0.4516870488222192, -0.425446415215852, 0.29954180554133647, -0.9123250128252935, -0.9940529475583837, -0.3837159610489318, -0.7179819703504007, 0.5055032187886397, -0.6741675021180176, 0.5584962202104096, 0.9514603765469818, 0.600752284284368, -0.13280328985930012, -0.17386146584832599, -0.8687475686075576, 0.140033924433282, -0.18751033823784957, -0.7514997437767852, 0.07720710608448056, 0.1097414503361045, -0.5329967774122699, -0.32368942923072663, -0.044956348122455525, -0.012674693606042009, 0.8564934755063407, 0.22211970604230769, 0.5965502352713945, -0.3865831975295211, 0.9365732268516135, -0.1005659515857157, 0.3150448388224845, -0.3825143268652409, -0.621460956264742, -0.5854217570129838, 0.7087320652190308, -0.6568313227526423, -0.4713504021795261, -0.42599674784959085, -0.6228771428432547, -0.2699845871589668, -0.17613219681667047, -0.9692408485632741, -0.12714779063971626, 0.9337689925729951, -0.6307969929472055, -0.5381040539122948, -0.04102058049493795, 0.7993887206976136, -0.7812587586382564, 0.8526737854888997, -0.41717507101192086, -0.7575047522395544, -0.146135220653127, 0.2411795015098923, 0.36295244605033217, 0.19419926472962754, -0.8908096601815559, -0.9529207466921843, 0.9155830624935627, -0.9841210010457817, 0.2568799184159889, -0.8624203192039128, 0.006043203544126463, 0.8984014684906624, -0.7655386953073988, -0.28201660577898124, -0.7170632304347986, -0.23091264572235676, -0.19865530262176007, -0.704152692986186, 0.21813757579126, -0.48487631451691193, 0.6960230969137222, -0.7908738244037112, 0.9314011567699099, 0.5345922593178172, -0.13964425015080173, -0.9252082683135623, -0.5460263564914054, 0.872831013218248, -0.4965605562947386, 0.05527547873161165, 0.312733955669352, -0.5846408154214512, 0.6030943930832325, -0.1143562797396488, -0.5132734527613795, 0.7500684145598486, -0.7718425695463973, -0.19324538230722202, 0.07394659991568006, 0.30271922109238114, 0.9752857444088611, 0.5609441083982313, -0.6576756168016246, -0.40495604499951104, 0.2848401298416763, 0.7851274898715745, -0.7626160890244146, -0.05949816802557062, -0.8708696849208564, 0.318298040991994, 0.3988707058554397, -0.2545699681917015, 0.12359313003503014, -0.07824855471688896, -0.14438565607013043, 0.39693461679525366, -0.11976799182711817, 0.542905231974159, -0.6003178341180766, 0.24630700906805808, -0.22297107376918293, -0.8359467392882866, 0.176664660034044, -0.6610548623891422, 0.0918614675369821, -0.6068634659813134, 0.6427494958185562, -0.27492590182086285, -0.9521058930987119, 0.8864700365907914, 0.4597472789823498, -0.40183105814922687, -0.8296238809094666, 0.7784941511757943, -0.8718431703997764, -0.9695892826300967, -0.44530349855789186, -0.4574620128891236, -0.24365683878651545, -0.011331501911178599, 0.6765120821644697, -0.66086023949173, 0.8832479149937347, 0.5790806084465321, -0.34236958377545723, 0.29931859199454824, -0.8580582051318244, 0.4542690491323844, 0.2030128889357496, -0.6265173144254369, 0.36093476343119624, -0.7228137410351342, -0.9251924440458729, 0.14058710236772817, -0.4427674536929753, 0.5659546979203406, 0.18715772405602998, -0.5724321100358083, -0.277617240985335, -0.619840516777923, 0.5737529784167273, 0.253118720978744, 0.7501510229182233, 0.24051461162952537, 0.7091449818768243, -0.7704602857891505, 0.029325294091169907, 0.04829857661551995, -0.4965363421572817, -0.36494987936768775, 0.3228694497207114, 0.18567440799312296, -0.6848323280267681, -0.8254223934076672, 0.18370417825127605, 0.9606707537969794, -0.46728997186880006, -0.8891382164423591, -0.7481203584842746, 0.3831189664541706, 0.34795531560479237, 0.5529594370809806, -0.6231506879933064, -0.2569464977221918, -0.4171647633781515, 0.7509215654334308, 0.3488482257447232, 0.1771495642674658, -0.7335877508594689, 0.19648943278560904, 0.4926865932190425, 0.4576618124230203, -0.28695864223231804, 0.23628499186915608, -0.284899919784406, 0.2143498294784707, 0.002620432550474616, -0.799544943951009, 0.216295853978427, -0.08060331231719631, -0.37801103517014134, -0.46871622508255606, 0.8596919388746265, -0.6696073446078545, 0.8824861594533131, -0.36416265277158144, 0.6085749062877657, -0.4215898441594975, -0.6167190564765542, 0.23440702960970783, 0.15334110080724592, -0.27656505216533467, -0.601878452619144, -0.03634600933828366, 0.5370249889501849, -0.538443987400128, 0.27126134184610284, 0.7468766719255396, -0.12007782823374313, -0.5037615210117725, 0.4401603251362096, -0.45331526858770377, 0.8151847164488, 0.10246196489306936, 0.37705360255419307, -0.6593672053907604, 0.4103026035597759, 0.9310597968842387, -0.7187636095683876, 0.22863294046353655, -0.7866594587006499, -0.9619169587911681, -0.5674619239393032, -0.9039860203442096, -0.7586025958530783, 0.16283219959246029, -0.16855428799599217, 0.9897975090418437, 0.14674840438017464, 0.5414943688812757, -0.35185046162324174, 0.9576628334630266, 0.7874998589560295, -0.7922091129988919, -0.5087424513566275, -0.8118358826540218, -0.9777487811361505, -0.9852062357580531, -0.5075965025399367, -0.9298722756668587, 0.09177237202360677, 0.2719230763312537, 0.9734683864806501, -0.45825928774723734, 0.795025528049409, 0.22845148572953655, 0.9066620658270799, 0.5456190738196678, 0.8355867199209805, 0.3655047123027705, 0.6929469169639279, 0.4327271734370758, 0.13828452580072068, -0.7305498816347112, 0.20457713281330533, -0.5778593537932782, 0.17302069903049686, -0.7902695461883711, -0.9526598891540511, -0.3028776189096185, 0.3356944224280525, 0.19923652672560233, 0.7241562456180919, 0.8019568443552587, -0.8285784485530161, -0.6545904361345978, 0.320965415204455, -0.3357504948140311, -0.36101687156876827, -0.7465946920840019, -0.3852705486358723, -0.4800436146226781, -0.9165502424784997, 0.8874085192558825, -0.9680959714982595, -0.2711098447802476, -0.5492847407750983, 0.30212617306979345, 0.5997637083547712, -0.684790864225748, 0.4241999516587275, 0.4642350354938184, -0.2011745435694258, 0.7516266882988004, 0.4302894715549047, 0.46662524943974426, -0.693751853857582, -0.041967638409993464, 0.3940123503831428, 0.9269757500532445, 0.8167485112641023, -0.22398891858380643, 0.812088109105088, -0.8565516270247111, 0.574163021267331, 0.4580613900401025, -0.3215712695365309, 0.7235411839186865, 0.866167418162848, 0.4084851029936236, -0.6304305600553721, -0.7293083103009004, 0.8047280547033242, 0.28127320094756025, 0.8191356838123474, -0.4507073551447758, 0.28905321717360477, 0.1805078082952086, 0.6600715044214406, -0.9051131354530578, -0.7942394541442003, 0.1559539727226089, 0.603402616388855, 0.16153229471242614, 0.028567083975571995, -0.7696520879856001, -0.6396283027816879, 0.7050546090408447, 0.18617449597644672, 0.8456269757626005, -0.4092597352245666, 0.7070781672823212, 0.9887291913802536, 0.3139504851978392, -0.7155905419877442, 4.085764225592037e-05, 0.6087607421452677, 0.0008350875173925854, -0.38822012129972516, 0.7889999423837861, -0.4227547525213504, 0.11041374863135434, 0.08729395878917501, -0.2953800715756262, 0.16923667182106564, -0.3069841277955295, 0.0860289606291854, 0.9958766207042018, 0.7589971443442247, 0.8185012480212221, -0.049230738038435806, 0.2136240123632991, 0.19331702803807826, -0.45292104656468424, -0.9117296544207086, 0.4487633070871536, -0.8660178023184152, 0.23655540995402013, -0.8387949245434494, -0.4778584457562547, 0.07246292069649485, 0.3567647548837063, -0.2520106987525448, -0.727074923363483, -0.4546525184448842, -0.5004306217586854, 0.08811405072508394, -0.8014776040486926, 0.5886726220172642, -0.9470653347957787, -0.2572989800207355, -0.62541759528394, -0.6240604236537273, -0.7480121580091896, 0.6191134006843702, -0.9042997667784725, -0.9914790178270452, 0.8677360050369818, 0.9582979171711548, -0.12131915397220805, -0.6019579295595454, -0.8771551627295104, 0.18997944428390143, -0.5645759019286193, -0.9856296581975849, -0.8296837462684319, 0.45275784093595206, -0.9506666262993639, -0.867063969733245, -0.7516538772237709, -0.18422434828922962, -0.6679774790018798, 0.9547676565965915, 0.7612227376112881, -0.6901266794512844, 0.9036241526636526, 0.08756555957707524, 0.627913862620648, -0.28724227321554086, 0.6651725399982171, -0.06245093493498444, -0.6084289295934795, 0.7149584490689564, 0.5045443798599643, 0.08135764093223785, 0.04933479121896989, -0.776068554454558, -0.48307808638964267, -0.8220832105676661, -0.10327131627058583, 0.8987963042892699, 0.8319397862139416, -0.2801242281749769, -0.7576455932787913, 0.6599277882372527, 0.039499308397636934, 0.3603671319683053, 0.30576699217265557, 0.7039783282138179, 0.7863207797015173, 0.6764338619242425, -0.037419288270073015, 0.7651607009530055, -0.6239047815388983, -0.11715009498331908, -0.6296755818954849, 0.2612372895138455, 0.16038314803342435, -0.12045862792002304, -0.8565418446066766, 0.72950173483207, -0.8692529167563943, -0.11020398584731694, 0.3177362753732924, -0.12248614622570897, 0.5106542623656078, 0.4539179631068999, -0.043400044720708575, 0.47438899112767285, 0.9983677755017937, 0.5427244180882984, 0.20117977226992756, -0.9783970866223175, 0.6430123320121426, 0.39460465343044815, -0.4433747891913631, 0.13904437879747533, 0.9224602188697884, 0.13196524662585452, 0.33586386299767557, -0.41481316162353954, 0.3578370722358546, -0.7471249257701613, 0.44815749750998335, 0.4349677585315943, 0.08513429088796554, 0.0006088103922667898, -0.3342527525990273, -0.9471779434572047, -0.26143812489955454, 0.6192521567376426, -0.6516319022610992, -0.16978121997138618, 0.7868877054302188, 0.601398110740381, -0.9026064832111009, -0.33457573526104056, -0.12017123229647697, -0.6954080411360286, -0.6396851058883319, 0.9728162043730488, 0.14450090791775505, 0.11812434424292473, 0.6878426121406622, -0.00622600857983624, 0.20565051218565245, 0.03549057990870064]/1.0015399716425297
