Lh,16
0,0:[-0.19309367536274946, -0.1045792976690465, 0.9421629788128087, 0.708465885905573, 0.09449912077703937, 0.19371172007182724, 0.9273941663215133, -0.8617223798964961, 0.31052300443539216, 0.05799507308684926, -0.570184226362678, 0.10329657997857922, -0.9914109406703269, 0.10520315400261593, 0.7767142329002739, 0.6185349774424462, 0.6253427989554263, 0.8610839807745319, 0.4474390301381237, 0.14836893594829137, -0.036011878735965785, -0.518539227284444, 0.5664150286001894, -0.37009599009725536, 0.886586470865627, 0.03820681702403261, -0.8100405501249841, -0.125260140747409, 0.9564334918836428, -0.03259435175242187, 0.1477231297070234, 0.7398782639561603, -0.8732108104392913, -0.35321204263027073, -0.553398080629689, -0.6623721692977482, -0.8266178961227726, -0.400761602131241, -0.3921879601542417, -0.44207022979069205, 0.18908968888262878, 0.05662635115329784, 2.1521247367777523, 1.9720657212336565, 0.8598082944742307, 0.3850676830300781, -0.1840003480007968, -0.044743273912663195, 0.6108280345874986, -0.9691598998419788, -0.7142961607930804, -0.421460539597019, 0.7352130185252588, 0.18083547103478415, -0.18373350564699664, -0.9671035221734903, 0.9886277794602694, -0.3957436116542141, -0.5063435449728229, -0.7638006021888595, -0.9110960126187231, 0.6932631646169836, -0.2484092136413092, -0.8291566963416739, -0.7664810429303812, 0.8467637335874163, -1.0140441125951, -0.6301594962862719, 0.08300676401639713, -1.0891218566509755, 1.7746560448193756, 2.7941818256233146, 0.23070032440465696, 0.45452703905287845, 0.6999166111569597, -0.341758024599912, -0.09331635437034835, 0.0432239669285307, -0.8337632139027561, -0.1574540319210016, -0.7664182846106262, -0.24522635028498008, 0.37931426680081826, -0.6369393563494785, -0.8641910310957, 0.9333674840014967, 0.5840411232290468, 0.25981586873962703, -0.5784592184259082, 0.4498435240384985, 0.07238989880768842, -0.10526544876944548, -0.7210588519984704, -0.7815044346208997, -0.28926329641867743, 0.7534867112017437, 0.07467050261906971, 0.2924154919428807, -2.77235301456462, -0.020974076882189423, 0.09223017149552333, 1.9304005521481573, -0.6041669159935251, -2.2657164752893495, -1.6497167172212897, -0.954908330584103, -0.78667655724822, -0.9889485877787949, 0.8421205341037634, -0.31143268257817436, 0.20699356332892394, -0.9198014021421896, -0.6593194501557109, -0.2786293751538578, -0.527106148200253, 0.7732639794918486, -0.060682879469312626, 0.8637953201931358, -0.5138403010892912, 0.33159332414830617, -0.7990951223549804, -4.968026990454239, -6.250542400204923, -5.504399068777719, 0.5734220089067465, -0.6804249407163083, -2.0365817616534434, -1.2915728396570316, 2.989487373244677, 5.134473554290294, 8.3028916415538, 9.206864769962156, 7.543484151343703, -0.8205804458132919, -1.4164658876811067, 0.6942818926577672, -0.6050329600384031, 0.6144143304661257, -0.8790530782518737, 0.5199979399005072, 0.05195693667558854, 0.4999766634076943, -0.314987393451555, 0.797091600573653, 0.578145988032537, -0.08891893584878528, -0.4434596349917265, -2.0097292014538497, -4.527547227675603, -10.226550589043894, -12.459638288844758, -10.561555008457136, -7.068091960629999, -2.749456880465605, -1.3849074197946605, -2.6784738162732586, -1.7367900416074287, -0.341441646875296, 2.3261846088608844, 6.6604067818599315, 7.781803655103383, 1.6713285770299908, -2.599623220230508, -1.5480673473865525, -0.5787504211175464, 0.7634244115962923, 0.027158919148128687, 0.17406433849140335, 0.7630901944684567, 0.8035268643595326, 0.31511091202460245, -0.8562961453267575, 0.2967624298182826, -2.108478421673428, -2.567055599441006, -3.443849169127766, -4.738528439702867, -8.554026918258707, -12.40868922163321, -10.7636419833073, -11.502819788954607, -13.761865956123259, -15.120488654856993, -14.599491021538169, -12.7140989996415, -9.2025224886476, -5.193184237970525, -1.3650370697331455, -2.6742660309053328, -5.564140132550757, -4.736619630152634, -2.4778659740714684, -1.0841519380012696, -0.35588635330582347, -0.8991998414984845, -0.4653854254373308, -0.7249013317978814, -0.8395314236221713, 0.5139512342473094, 0.05744465931261215, 1.3256660156633646, -1.724067577034333, -1.6299876172829095, -2.113476590825308, -3.075598246979984, -0.27931763391744696, -1.1213888287158102, -5.914132408331752, -7.497280823353674, -3.7670263892229006, -2.7769284037313353, -8.193923435146496, -9.357130614527168, -6.1310064434287295, -0.7676866213178339, -5.737715726284753, -11.053236444783971, -12.116383621508685, -9.683467440987537, -4.561111966014645, -2.6581733172767925, -0.8423596944090748, 0.4075317173454321, 0.3970391836684518, -0.4477444673804396, -0.9743346515850941, 1.1786011525495739, 1.1782559404618966, 1.606878179395064, 2.3166706269328965, -1.6174374286785766, 6.124128427430047, 5.805185818689286, 3.1032043020220024, 3.1393752958124037, -4.112562139686687, 3.328141379306083, 12.672715570389364, 13.898587798781103, 14.005291477317291, 9.806531482948099, 9.253377933439408, 7.684431588269734, 2.038214623691119, -12.64370865052719, -10.393782821030932, -9.65001719494374, -4.2827030092593334, -2.774707536112206, -0.7470902960644266, -1.0412157841878698, 0.11445694031369286, 0.0014346687359649835, 1.385027595816156, 2.027775567645312, 2.3229739546828543, 3.4447024871887173, 5.560490378305814, 5.9459752665106365, 3.769015451248369, 3.7301518385029997, 3.87729591470878, -1.1048922985337397, -2.874173296059557, 10.26534574718783, 17.219615259381314, 20.39901468717503, 24.31663813706346, 23.99269199049922, 17.33429634185137, 11.532258644690131, 1.2082047631923454, -5.846542207151738, -1.151992538659844, -4.568488318955524, -5.234883488692436, -3.2777276946977314, -0.9338049174180091, -0.443432224858789, 0.611336561419867, 0.7872098346543952, 1.5496769763508775, 2.7389589392083846, 2.4310267692208742, 4.880026645542108, 3.5307051565845553, 4.311262258652771, 1.7619615981455803, 4.437447146782424, 5.7657191779199515, 3.564593519221443, -4.068081158816067, 1.1539921669529847, 6.907095620913875, 20.865139734481403, 24.054094009547256, 20.334613481852337, 16.023895597850416, 4.892806907712823, -4.028807943150746, -0.4514457885060311, -0.9871723819084789, -1.9341273113491149, -4.202492419519649, -2.7280612740659294, -2.8279798732235935, 0.49845644529181926, -0.2699711921741905, 0.5509495798244404, 0.2627901139129149, 1.9659830543254304, 3.849966572854383, 2.2346378631707413, 2.2493067826746675, -0.24020308822464442, -0.4395061631993815, 5.829941668226381, 1.2025471683498283, -6.235714184829857, -16.28658558811467, -7.44805242915677, 3.853611656344944, 15.094505598617705, 14.6548879524838, 11.299056602483995, 9.669030094756234, 4.564798155015517, -0.7363097781616239, 3.2781768688200077, 1.1925546693515245, -1.1633502051314817, -2.483554225617662, -2.634123274511686, -3.0020570655952508, -1.780205068283854, 0.9041211415028012, -0.624923546987155, 0.7199948271818168, -0.21710087177426088, 0.7849001376316935, 2.230830204254501, 1.2531079766446567, -3.076561158451321, -0.6858354646407274, 2.9505536260754406, -6.744851267381485, -16.903483809311457, -19.8460668242693, -15.511024646888618, -1.0854446011514078, 10.206516855716698, 2.304551441666146, -1.6324430150035334, 3.1766236268138606, 3.639957028816854, 3.8453168106832774, 7.185219649045227, 0.8797597033936669, -3.078731629829541, -2.5073819341707413, -4.1318769975822995, -1.2333817043438586, -1.0150175376523969, -0.8692276565041726, -0.2468856928651706, 0.03395979021393703, -0.3426030880594908, -0.7084770480947857, 0.19094069159066782, -3.066807082373453, -7.827571784574944, -2.3136508971383662, -2.861313886278238, -9.32599939406823, -19.13407592270151, -29.492839178931213, -27.868001071822615, -7.116000056608147, 5.282212227728734, -7.083385275589328, -7.418066692859033, 0.7587275638177525, 1.0136410398587485, 1.6359311223009312, 2.662528253462088, -4.379859320439444, -4.510184317233138, -3.831325411702567, -2.7184806877622663, -0.42601300722396984, 0.5543397665034199, 0.5729494544722107, 0.8134119279503547, 0.34310104620472603, -0.2616163515050117, 0.2443230568276907, 1.1580469891695835, -3.3891193032149394, -4.961615651145113, -4.539629966972491, -4.452828864792282, -10.822946836730406, -21.687637675360815, -35.98438293560536, -33.42861351494738, -7.314759407581431, 1.4017878461716038, -6.676988166371488, -5.7321461044705355, -0.767786546169155, -1.8612551133137287, 0.7024018700585687, 2.3354850832219416, -1.8617262562808081, -4.011499276961734, -4.797884313499645, -2.4051480238293474, -0.4364826864376248, -0.7128196591441922, 0.2376079290374571, 0.1386542656570291, -0.7581725964663923, 0.4917345487389039, -0.5795276801957701, -0.7843191609059869, -6.367523992421545, -3.9486798542431814, -6.513037400405009, -4.691098303866459, -10.283001882672195, -22.998316593759718, -27.7444205827508, -12.990323424301259, 0.4506304741414209, 7.546650816864037, -4.523408457097819, -5.202607723200474, 7.370675834885408, 5.030670271434871, 2.2207285186898575, 1.8755437601548237, -2.435372093780957, -6.340609426446004, -5.196286016760803, -2.366135236369924, -0.6464425004562493, -1.1080322018325282, 0.3341530355936606, 0.3422328260581107, 0.7472362870038074, -0.12857439464198628, -0.3540829101946367, 0.20419887892203775, -4.586547552731655, -3.349187348649638, -6.1887962850415255, -2.671835550882411, -11.398757327374756, -20.280390798490174, -17.266348193377063, -3.922243639022942, 6.328189485840218, 12.946767476048183, 0.902274905241331, 0.281283768446241, -0.7150789014351936, -4.979446325900013, -6.636027386763602, -10.733942729869291, -12.499949959262487, -11.452419313009203, -8.67506249214342, -6.752577702171739, -4.053915231095463, -0.6043840642673071, -0.41402795286360283, -0.6340947854417363, -0.804257235592756, -0.8503095733804478, 0.5474325300305287, -1.6037203630931742, -6.493492165742835, -5.620348326975144, -1.728924600331038, -6.348799741892228, -15.03214759599351, -16.6321425097195, -7.1843848846757705, 2.826581580416101, 9.46306064854348, 7.931390616539889, 0.2381661506395623, 0.15716467660708125, -9.408359903457438, -9.864904462188742, -11.979037020561801, -11.529953139457264, -10.599603108480274, -8.709631731959403, -7.902127212990032, -6.053041175180384, -3.891636629408838, 0.3716407213538429, 0.5524541237648086, -0.22057457751726428, -0.8711431494580955, 0.17810356820954523, -1.8020372566591056, -3.093065724965447, -7.219238117671536, -7.340454997292106, -4.332590591392575, -12.44018868816883, -18.24759010801678, -11.546958068068323, -5.848259131797889, -0.9265319246161143, 11.591996402551718, 0.6434875515105932, 2.5371433162288346, 0.4203791539720817, -10.67679910293383, -12.548079441910318, -12.44211963419285, -13.089207516031589, -6.371358829211161, -5.9812525908804135, -5.439093446650281, -3.430345785743133, -2.153881396214167, 0.8330751042028962, -0.3616870011633755, -0.9384079929107327, -0.6998323384677128, 1.0412740202423187, -0.11236829484201954, -0.3441816017800768, -5.199453227816926, -6.531288776553928, -7.73491867070111, -13.766832294836728, -15.474801621705819, -8.980433172094116, 0.18654798820653629, 7.554369541844289, 8.139699274699884, 3.051111666997169, 5.918635630866041, 2.9213949314367236, -8.472739765167624, -8.99933452606021, -8.468638197796503, -7.545157783266994, -4.858926405328338, -4.039645377863883, -2.1310272983895553, -1.1759346789028415, -1.134026905367839, -0.05144430326923107, -0.8072787485608647, 0.0650973637893757, 0.14279223705996064, -0.37717170326663313, 0.023074314080587154, -0.4026560252988642, -2.780134196571967, -5.661797521308223, -7.809474442600836, -10.451352118315063, -11.640717894775385, -7.492416014205958, -1.7855498469817401, 3.759266025109257, -2.4647049597687363, 1.7210970228182485, 4.168514290473134, -1.7311820870633858, -8.122797301459912, -4.544874458753097, -4.18696006419159, -6.046951829860981, -6.169303870620209, -2.472797592701404, -1.9247050395240595, -1.3968111399996872, 0.24716780822075374, -0.2766287866618877, 0.542092506862415, -0.140411738557487, 0.4871753515655171, 0.02364948625360916, 0.32641096129922265, -2.15553542110702, -1.940263752482481, -5.597475318624761, -9.247182467735017, -6.522341215139019, -0.6807462340299117, -0.24031169854017054, -1.7369824176831459, -1.9337258457422042, -4.881929282354131, -2.9040479275506628, -0.3954018048615438, -3.202239647869514, -2.1034749521413056, -0.41818084966936814, -1.2100037864132513, -4.7459597147478565, -7.122757856689719, -3.506492811538335, -1.8190716203737596, -0.15766233246736502, 0.38367757831903765, 0.33950775468378896, 0.8766106159394511, -0.9845812223782953, -0.06734958730378748, -0.9731348918265182, 0.5203195371733399, -0.4917363670647493, -2.091253934122106, -5.211343671739424, -5.7792472311931675, -4.9171711317005045, 2.135105987933257, 3.4575630975309757, -2.7329006675876637, -3.4766048333144544, -6.687133920067322, -1.4970098977585273, -2.5057899117232703, 3.874872881350161, 7.804350148335079, 3.202437593762547, -0.08072861858012277, -2.0704847463281957, -4.664527551682106, -3.2604484738093324, -0.9966212803391381, -0.2191772597323929, -0.13326892105649651, -0.48440298530128384, 0.2891592410438464, 0.29517375737421014, 0.9807225016927634, -0.18538078636358016, 0.12639080968359107, -0.2152907580856441, -3.094458510039151, -2.874550753837623, -3.292756244230872, 0.395950441081772, 3.5211797294753175, 5.459231687718605, 5.501833270686919, 1.942861379131719, -5.131335401421515, -2.31669756097858, -2.289948865820905, 9.041695750522054, 5.891655680369965, 2.444029608386618, 0.6565619909590702, -1.2742410486213973, -0.19491730990375292, -1.400896130786377, -2.8258037901357316, 0.07717606047047465, -0.6044186681731563, -0.4443555651937271, 0.14047217575828652, 0.5238864546933253, -0.19521018847644944, -0.8196789708298177, -0.5819315021356156, 0.3469066305570711, 0.893013223994702, -0.029745367928252817, -3.2236738173655466, -2.443084093400596, 1.1438549497873323, -0.705804236532625, 0.2786404424581454, -2.614672683827485, -8.0013824747386, 2.3884574343217087, 1.2823902503568667, 3.6217077753448756, 0.5583462193291734, 1.3648697871655078, -1.1557604780526611, 0.8053434899113915, 1.2863222639273466, 0.8082381098359043, -1.51574472154738, -0.7804127386969439, -0.611441606325712, -0.7499123839361259, 0.333352172719406, -0.05124661663731089, -0.735087627705701, -0.34356441716600633, 0.4093968849393818, -0.642375510104752, -0.15954967604126702, 2.7303728927926567, 3.7853616370061345, 3.977977653664099, 2.328444127189982, 3.1860194650249514, 5.669446346295138, 1.6572934707923688, -0.7231209660652756, 3.4689849871881955, 1.1022259518323498, 2.4473949295394153, 2.94589572543207, 2.2017866095909167, 2.5357665327048284, 0.8850345057632456, 3.673682534916006, 3.0312941351671023, -0.500427082816476, -0.5736266257925435, -0.9146159462620276, 0.0572904447278233, -0.35248984947434203, -0.38739619136560166, -0.5547669800416191, 0.7464407637689474, 0.698636216809097, -0.7643269623667613, 0.15152870587123826, 1.134139158028023, 1.9577113689277075, 6.817224775538915, 7.875995343228386, 5.670133364105603, 5.224035510027298, 0.7147117463368783, -3.500312894436855, 0.793090809841129, 3.589891817518651, 5.054136288828724, 4.636118177554674, 4.940974812162042, 5.03442224753245, 0.21914831914620103, 0.3841364925966711, 0.8330475736175917, -0.3065459735489304, 0.7902363447107825, 0.556972168130917, 0.7371197100358249, 0.5715893010190027, 0.8760145237108754, -0.7573524233034699, -0.781546972632337, 0.429057881935057, -0.4163866584857936, -0.9532636179263324, 0.8475299150852771, -0.7368918333468047, -0.09600429690207259, 0.20716271895597618, 0.21123626064208925, -0.6695407930757561, -0.945062805290064, -0.7767776680213686, -1.3024257172184561, 0.2685939695073544, 0.3393645114814239, 0.3279790014932866, 1.2804740993955388, -0.5054070669577803, 0.3735518195128652, 0.9176783906314294, -0.546742370520019, 0.35126170990290384, -0.7349905142643576, -0.40352227280329833, 0.03884315958128792, 0.5905210063905046]/11.915943518738404
0,1:[0.4561605504507793, 0.7984895041931723, 0.6223633092312622, -0.31102925296137074, 0.7945686529326674, 0.7740441360060453, 0.858224372896967, 0.3163512015271248, 0.24443372901558513, -0.2986900627740803, -0.8970246760454463, -0.6335222952064825, -0.5744282841683399, -0.9515938432235507, -0.13819492739360006, 0.007609570358939166, 0.5101461359333654, 0.1775987018309373, -0.6460900555488731, -0.2618726769254225, -0.9314556200770805, -0.10578017659860373, 0.634423866893824, 0.6360856682823786, -0.14242037433805055, -0.9293835113735525, 0.4876688680307544, -0.5628038011113359, 0.2022344277401904, -0.3863619488887524, -0.10677885483715577, -0.1334160742103787, 0.06756659179327595, 0.42759821339865356, -0.39723740799346086, -0.7711503252174461, 0.7084971646117375, -0.08248728937533056, 0.7986314146423482, 0.6623216832607188, 0.06497300227642921, -0.1379861711051705, 0.32460481995456214, 0.3366109619947974, -0.866166161198767, 0.6984214622948797, 0.9458926638137324, 0.9965862486004899, 0.8398710885853418, -0.23774510124211612, -0.9124074358255152, 0.5365857782617047, -0.631816702671552, -0.5107829748730839, -0.24273829308736317, -0.8922389105400346, 0.9573157446326728, -0.9374065846271207, -0.9797029771104899, -0.46398311336168874, -0.08695855482633008, 0.34036806098196903, 0.9218766326913514, -0.1639720480107712, -0.5970766387308438, -1.174482122905611, -2.0845726518206895, 0.15120070984705167, 0.1941301715180813, -1.3518694349220068, 0.10948320838146058, 0.41211488476068886, 0.799069599526723, 0.11454713836995077, 0.7556424290995551, 0.2270273272603467, 0.7058676143828831, -0.3407427236603575, -0.05062230714178173, -0.5967189072933049, -0.980892539702195, 0.6886650313170906, 0.03067407415270562, 0.48853870306273306, -0.690421906214312, 0.6599384071647703, 0.4757685356805519, 0.8530143082673916, 0.07594455858616311, -0.9249007216735915, -0.9453083775381773, -0.8781216964935867, -0.557551237749618, -4.0266349696884935, -4.107689642458332, -1.7298476737147792, -0.9962020072780278, -1.9600254597448241, -1.034839811021386, 0.3148308286271784, -0.10571595673040941, 0.43418861376425, 0.6763883703898032, -2.123744212971937, -1.163663754488359, -1.5965693052352512, -1.255273341201209, 0.020030574109956612, 0.33216640429685096, 0.8778389811291287, 0.37920725643294384, -0.3601661224159076, 0.7974534836833138, 0.07218852269563736, -0.44091567160068057, -0.11246694948195933, 0.488276638714866, -0.6087401041988589, -0.9238210145299838, -0.9783747078777306, -4.312313693391902, -5.141485166894267, -2.403922218769082, -2.8950750013827267, 0.049948935890133064, -2.127602386331931, -4.726576650522177, -6.757495093542774, -6.182473979484875, -0.32501121337667327, 3.1272275593356924, 3.6400715737637066, 5.942096071841711, 2.148418547600781, 0.533610703941342, -0.5138046246226584, 0.3362818250005601, 0.7473652252403868, 0.9418387437742204, -0.31817554336981924, 0.44526240948111484, -0.3570152298626781, 0.08410257900540692, -0.14935484891899453, 0.4832414972489533, -1.3944135865742735, -1.422655634035032, -1.7446359140240097, -6.978316211440458, -5.775755183699857, -6.789383048323463, -13.53022438290228, -16.28500976149089, -19.03345169836874, -19.026848877160585, -19.998081679258885, -20.968006517107852, -19.38073860293695, -7.138144209027823, -2.386677164198499, 5.219288389302845, 5.970873174584943, 1.1221500066631453, -2.5468428309675732, -2.2306515118056556, -0.6406959829594169, 0.9803071993802679, -0.11091431622649672, -0.4068486796143844, 0.5360787862102037, 0.45850404925707533, 0.3662769889846118, -0.17960760392031538, -0.45059461997514083, -2.158363909935799, -4.378093920385799, -8.064850936515018, -7.512290160048513, -15.692602239640557, -20.995178589607217, -17.502955525324698, -19.31531092862677, -20.393678605069006, -19.455311466312562, -17.042769892510623, -9.181883961938276, -4.8688620007748735, -11.29944283443023, 0.7570767258818385, -3.4998460473629676, -7.022957996148148, -7.865144351497805, -4.78023988413221, -1.9474021383489266, 0.025948377421890382, -0.7703902359511595, 0.4296753978543877, -0.3848382843525435, -0.7226114588289824, 1.2106894695934804, -0.05166088794643331, 0.43663092254173624, 0.7740705744534538, -3.910757471630604, -4.707169846770561, -4.988064455021701, -10.287993012825332, -11.8249376629384, -8.183421206728923, -3.4071264985291547, 3.55204766537817, 3.651244699102877, 3.7941971822155502, 8.110830087754136, 10.033128763364601, 6.938385520704824, 2.5944496056390713, -2.8118290305791716, -7.780856836519086, -7.628112486540933, -4.432360444775455, -1.7667217276441887, 0.12497704394581988, 0.7528648353010453, -0.659511384559718, 0.8156303011815464, -0.32416782593507476, 0.9221452874009897, -0.011144455901419326, 3.5542154021128884, 3.466824738896595, 3.2177064599180043, 8.399767703402015, 2.9913784344184324, -3.158256697888189, -4.675860758487915, 6.624689403951586, 6.31135872043534, 16.41322541045545, 14.891210512456858, 9.937531460162438, 13.499842515339834, 9.841294981761653, 2.712079815450774, -6.733969565362796, -6.448984044282219, -9.669488175066606, -10.784167050073757, -5.100047720856512, -0.6828484049709406, -3.9964844143820724, -0.3698610776698894, -0.8653878096877896, 0.18396047319213457, 0.14645014540441842, 2.753033489152333, 2.845297752307209, 3.4716366412287285, 3.9215008611010904, 4.473215042545388, 5.238384462310496, 4.882837560036499, 1.621487463049532, 2.1406081595178956, 11.57393263275814, 14.774847037588925, 18.781696632041935, 21.70235586553132, 10.544288125232953, 13.423528163981349, 13.601190240932919, 1.0492490956229377, -3.9233285105518942, -0.3483776266441512, -8.768350914434258, -12.179968478121523, -9.071740663007729, -6.207367173845997, -2.3533068047189687, -0.3647144932007576, 0.7791032117204555, 0.5102436286004691, 1.8927818625396666, 3.4163532810158848, 3.311375916008861, 2.418557731745751, 0.8221886730904122, 4.1021591819479255, 10.258400559683293, -0.6866845981714083, -2.8676989489498768, -4.1194929101951745, 4.9250505210904505, 10.26150190540012, 21.972937128358886, 21.398478820646876, 3.6513419189897065, 13.256109842214888, 9.14019464955986, 5.688345843049101, 5.448554774829137, 6.567685995151459, -5.400433737740991, -12.70622756115062, -9.39425324182699, -1.5440240324356496, -0.35707223591572523, -0.9433845077097094, 0.8206857789711222, 0.39553123362117204, 1.869992167837938, 2.007128974744563, 7.767526479462687, 2.6100298779426945, 0.5707126388576637, 6.102876759398041, 1.6561639625619207, -2.191252214774006, -5.443061746075698, -7.14367842327613, -7.768623282798161, 1.6490583898728763, 13.17724984487934, 14.268552333115483, 2.850534557558793, 6.1419830325451255, 11.318773056583844, 10.40026206181562, 12.301258772390353, 7.009385824870097, -5.523249437792873, -9.391600135471721, -4.5502705231102265, 0.1471265529403305, -0.7320067454501719, -0.6745235724911676, -0.33922120121978705, 0.10595392277260202, -0.22129142606306446, 2.3687893809649467, 8.14126229488569, 4.893291251448421, 3.3581505123078186, 4.279451449537317, 2.0057716323323604, -6.120714878187629, -6.7252736955807135, -16.237666779379776, -19.09103157128891, -8.85124622816856, 5.96283868257614, 5.522412892488983, 6.029751910914208, 5.183497718139562, 13.21507767552596, 9.417342545976972, 7.736476942767856, -1.3615547702740294, -1.6234259196450314, -2.092263226222447, -4.4939263669498155, -1.100323963798773, -0.8580531167215838, -0.13362015060102506, -0.7473354869432978, 0.3114836914505789, 0.2169756405513481, 0.3331404130593089, 2.0635666867634948, 5.135647566645818, 0.9921477852142333, 0.08141443798166452, 0.931509313374094, -5.703489306652486, -19.603405226925805, -32.97040478464514, -31.947984570730462, -12.451792358260255, 0.7069026365026404, -3.335046205411405, -3.4426168744927845, 3.242171917595478, 14.051632177524505, 6.936137893341608, 0.7959543137364172, -2.710904206323984, -2.0999509327512005, -2.6467068873500024, -4.344577630050179, -2.3771896822923106, 0.18413169233968207, 0.49309906420050864, 0.4681480731359875, 0.007835895818959463, 0.4230864645816343, -0.209304742263631, -1.8687995335893048, -0.460651773212146, -4.135949545092837, -8.16830834021822, -8.04439931170398, -10.754522348526134, -24.59626548688445, -32.769393314074485, -27.94075256644027, -8.70930793266893, 1.0899826229667977, 0.24352935460636582, -4.478299125270194, 6.107819811669188, 13.595723626970802, 6.0800418958109095, -1.1843370747891855, -1.6659505527246088, -1.5826449037220311, -2.2315795515231294, -4.1611858584615335, -3.7964563051504268, -0.18660029249360013, -0.5546156705683443, 0.4176267942866998, 0.9932003910640754, 0.9194721931996537, -0.3334656098906583, -1.524356869508556, -2.6414270476631274, -5.261402129508831, -8.166236151897005, -11.291544718248039, -13.981609279365749, -21.377196741933005, -23.56975488035771, -17.692277258565852, -8.502571954524958, 1.1347274534744636, -2.5753270676511386, -1.632341494038418, 4.704576761873724, 9.683967541249755, -0.5430442976418073, -3.711511936905999, -1.832757946140339, -3.8260393070395526, -2.084631200067587, -4.823593838240235, -2.8725998299627338, -0.011030199355526862, 0.46588766747383037, 0.1341351839449565, -0.3767805559838737, 0.3670365098597621, -1.2352655647881015, -1.3928699030980503, -3.1433237522589503, -6.353985457721037, -6.521380525398906, -7.685133851944746, -12.038547730405961, -13.896628311301793, -14.23172061962408, -13.626458640399381, 1.1609024040215032, 12.684514350150351, 3.5939748364520687, 2.367856511597204, 5.918210562673969, 2.640064227269812, -8.198030962037373, -8.775261336509038, -3.68854195313251, -3.703131646116458, -5.67254916739097, -5.884715251843329, -0.15156174774296818, 0.3670949476133159, 0.4445470492640238, 0.011816959209657307, -0.5353672418406272, -0.5305320347443387, -0.418207447997889, -0.5565132652955975, -0.7820293449486714, -7.02368078715177, -5.1845125802257215, -7.616254910879674, -9.716561999161629, -4.307466356942417, 0.3507419247033144, -1.8819013768328339, 7.7781711313430435, 18.465786072004494, 10.841369114408447, -5.550574223349529, -3.2576131830726833, -0.28645533348662044, -8.52885498931364, -13.817394953268126, -10.928451944952018, -9.696928962737344, -9.092594479337135, -7.075608492296048, -2.504568469629004, -1.0478248259012333, -0.4425106479215665, -0.9189243754790191, 0.08821738828648407, 1.1529455185702207, 0.5251013709296695, 1.0043787074712347, -5.793854083316442, -8.642830441363792, -12.1450188890334, -16.20771624199481, -14.728743453361396, -2.560415270791057, 0.17910776343504337, 3.14116953509057, 14.53077220258175, 19.523652234402714, 11.024002868567408, -3.07974438637111, -2.5111762437369474, 4.34983331161925, -8.303446499238513, -15.615882016000612, -17.207189409688453, -13.916902380018085, -8.694401359117492, -5.238852396070251, -2.3805921642518495, -0.6740126129183559, -0.2541120545774536, 0.7797453792741862, 0.8774122347020237, 1.3138238554592787, 0.7212239265700183, -0.9918030718647783, -7.688438520614015, -11.999221782506716, -17.44827627257435, -20.81373159782627, -18.04184605765888, -8.229662385112993, -8.816593712941547, 6.318776771913706, 14.239772424693625, 7.015739898260459, 5.250488386493722, -4.9982129962891975, -4.271894220823718, -3.5657053704013237, -10.152758139834903, -15.4427601045689, -14.240562055887143, -10.99239250365141, -6.750484673567755, -3.76354223052823, -0.747538375528331, 0.44985149504515637, 0.08127078086664238, 0.003170998073094289, -0.9703548441911987, 0.17544899290197508, -0.3482213577691377, -3.4514240808324264, -10.558326654632927, -13.229428278394769, -15.287945499543575, -17.507966935164323, -15.537866222242991, -9.61323293274783, -4.278882770042585, -3.5384166706987865, -1.2679634785511391, -5.3734230947708905, -4.264980744813708, -7.406515453051709, -7.3383337920513, -3.9435015721426705, -8.986662653408386, -9.861836719834182, -12.491484938112785, -8.552692531651811, -6.167246028134882, -2.121551573114113, -0.42756215717777185, 0.5137827305475315, -0.04947715910110495, 0.12222487734885701, 0.7779109077277551, 0.8765267578591306, -0.38175505599647047, -3.570366692356106, -6.589860985462081, -13.704045012493351, -14.308394035406376, -12.491173380948965, -7.565592741645309, -4.204816290369021, -10.122236803287764, -8.909146861673161, -9.980576704671524, -4.609119299087777, -5.412619800139798, 2.0260639056255703, 2.689295560360783, -3.980597321468263, -5.5414587867710825, -7.190514446926806, -9.95819996717807, -7.310091574856233, -4.074879325784185, -0.32380605050824046, 0.4576778629202058, 0.09303500414087033, 0.22881460432351752, -0.008448955253143486, -0.6812564927944897, 0.8504026884254624, 0.6415043104488949, -1.3270578958956782, -3.863850653682911, -6.184470580854168, -7.541214594855788, -3.400774450393348, -3.1041863323301513, -6.273198946455711, -8.064271668914174, -8.716709056818512, -9.206096590841142, -3.1080723793098546, -0.8411846810121134, 7.284252658676528, 5.434166679069508, -4.629763039003169, -6.983143026498125, -5.580694882560196, -7.199441605022595, -4.275343658659911, -2.634765659353509, -0.6147783518968295, 0.3097987214055671, -0.40187478632773604, -0.47654048895356205, -0.27650656444606714, 0.9556036511268562, -0.36527202090086686, 1.0801038665302463, 0.40103806091727795, -1.6196256544432757, -3.126910741073326, -6.020023876589554, -2.1607735541600586, 1.794713282587034, -1.7389821846191829, -5.71092675360451, -8.803727824318456, -12.80528913919625, -10.54567811152849, -4.722115422754392, 5.557890632685999, 3.1783896388112107, -3.3120231651908565, -5.801711836960866, -3.76544515098151, -3.7973563800623364, -1.8554973490398228, -2.9637718094404444, -0.42508736747458636, -0.6511021475043427, 0.43027085018743105, 0.33318707194953223, -0.8516800330395999, 0.6645094048192979, -0.4424761901305003, -0.868841446896085, 1.716854281299451, 2.08535644397531, 0.38977726424999465, 2.1362974787772973, 1.1457185837380865, 2.196838909629774, 2.771863813768972, 0.8316180046053052, 1.5893808083447853, -7.811843675409193, -9.27046311452399, -2.5980929755995974, 0.6949418912515056, 1.3972000766973816, 0.32831285550776534, 0.9514975461095024, 0.7263902181703374, 0.2994629200933964, 0.23683672148063667, 0.6346108469661179, 0.9428907946364975, 0.8927497734775056, -0.9169149925556601, -0.9327395991446559, 0.012319428315416214, -0.7359055538737738, -0.5790424234334886, -0.5447458661919223, 0.5982964778654112, 1.6823390974282035, 1.1436251877901524, 6.999577939199432, 9.857187418517977, 11.92064753085098, 16.67438125895564, 18.180229998945425, 9.356734165103646, 6.646082893031881, 4.841611265159776, 4.7709620394798335, 5.905895892288319, 4.405564767037094, 1.7567367856005875, 2.0664693766828424, 1.175135092590446, 0.8648093889898952, -0.571868579722847, -0.9255284867402797, -0.7423433358272067, -0.8822427201320324, 0.33282333617828663, 0.08617151748049179, 0.8298875465963644, 0.0639665162284091, 0.9708865098933501, 0.6419872881559936, 0.09741220613146105, 0.9116319626597912, 1.432253270966967, 2.357928438308625, 3.7790569301044896, 9.324983638613597, 11.364275178914907, 4.702615066501455, 2.257962670243494, 4.971099087764734, 4.732642460868047, 6.428665968804001, 0.7248546764843369, 0.652929359100704, 0.475882852533391, 1.3846285926372626, 1.0711542779408838, 0.3233282372325599, -0.8222624525470349, 0.07002769030638252, -0.5244669110851532, 0.7520664394578815, -0.8537430637326064, -0.3897097415439694, 0.8485385164798263, 0.16191595660009206, -0.984724255673824, -0.45527246022670176, -0.9201635267403276, 0.8414344183225442, 0.6921082527735978, 0.791207265176117, 0.47736108788189774, -0.8323691484508475, -1.1368925903463918, 0.34632598611882304, 0.06776733153854113, 1.1388103862118193, 2.57317381688487, 2.699746482485509, 0.3702497584087089, 1.2507983801508202, 0.6440195294587774, 0.5232423455637107, 1.2559754641277283, 0.4484189735324982, -0.5908731851212975, 0.77450448665024, -0.7259211807299983, 0.9957132941069242, -0.6795525071257302, -0.570610851076075]/1.2551357867246922
0,2:[-0.991909873938813, 0.8132956076535058, -0.304517617976243, 0.7875478409805747, 0.9361963805279154, -0.31977531554985883, -0.31006855957610213, 0.9355393475063967, 0.6920472156782116, -0.02603944719588136, 0.4271063542852527, -0.4429442605979925, 0.7801628630790507, 0.7493856221262893, 0.5081822603057369, 0.4994680613253488, 0.9817415445546254, 0.35069291247540924, -0.49233779048841253, -0.39022509640893377, 0.9721786728168076, -0.11036453741504548, 0.0034221018268421055, 0.8868707499993242, -0.9153031591314584, 0.6311797141350783, -0.30957960276534946, -0.7592714428052902, 0.5291730700974788, 0.4951911195306493, -0.8888699753231339, -0.17197647404166094, 0.6347560156258445, -0.28840851020919445, 0.5417860249430584, -0.7733435353524882, -0.4392349260244919, -0.5391548399984059, 0.2476178983361083, 0.513012782421538, -0.9015197678171833, -0.36605543384059774, 0.7415591588149822, 0.8807936611292099, 0.09655191908626104, 0.8048793297762504, 0.3597690121689045, 0.5101627414549308, -0.5702460962032222, -0.19068984821758317, 0.058170094928946314, 0.04665173319711169, -0.8151414767676042, -0.0361175309610815, -0.5591382694324545, -0.2332002800517876, -0.48940883469382923, -0.8168477285341085, -0.5842853995055981, 0.8176093206233546, 0.46802061962768504, 0.22548746694145083, 0.5054799267304214, 0.446495926339731, -0.34532337587199, -0.017683448256651985, 0.11035167877638301, 0.5908260083978831, -0.029205850423693065, 0.4797753210607172, 0.01921314187812487, -1.2317723356855004, -0.9118179447303257, -0.3696847543973512, -0.646888222167588, -0.921532221261874, -0.7258724436253462, 0.33744365909274987, -0.864139378985056, 0.5881441557664978, -0.8080279594793182, 0.35273843601806054, -0.7338524885153299, -0.37434573811089966, 0.9192078718870511, 0.09010937619674886, 0.2913204636482938, -0.7118797145966551, 0.3437095261791929, -0.4166669637102819, 0.6538798838214758, -0.6088604959043786, -1.1023619647698024, -2.1802322377375907, -1.1293791195605738, -2.2449219778980254, -1.8567613429217145, -1.3660844287668124, -2.166897052545345, -2.3773273227899527, -1.8913821929566992, -3.6536934284029794, -2.3288340536182073, -1.5992316069054573, -0.4416869367194074, -0.2571589868382246, 0.10575966099793233, -0.2135643641359554, 0.6964561120887618, -0.4738349280856433, 0.9937795491345081, 0.8833477998316006, -0.568440460508749, 0.822798024876765, -0.3630864938882281, -0.2705638383388923, 0.46663255074675775, -0.3352950579424081, 0.6072717703382456, -1.1330547221823937, -2.699018873657333, -4.31850242006907, 2.684183883076641, 9.26074563261505, 5.552242676989066, 1.4393298869899527, -2.525235256974508, -1.8292561599750021, -3.840463066284736, -2.917142403983093, -0.22162099245792713, 5.065030775782559, 6.280381789621381, 3.0130418658280873, 0.14600691041840425, 0.540600930316878, 0.27591293467792094, 0.15533566242771113, -0.8617791816949958, -0.9949555920745838, 0.8157977931859359, -0.7599272160344577, -0.7119949708171673, -0.6896019343099816, 0.623641198301862, -0.5852442447430679, -0.9875493479886561, -6.101279852191857, -7.381431758366103, -7.1136797124634406, -2.0322441947212133, 4.874852938068229, 3.472218889766844, 3.9367704052447516, -9.086675319053507, -13.37124718785935, -9.445255771474983, -4.4940284886777935, -0.8711780990628164, 2.8665222302765385, 3.856367213783896, 0.22605391979075057, -2.185992956466095, -1.113454167835298, -2.2081453609271873, -0.8617840290315988, -0.10351088131920033, 0.8637048864412595, 0.5315003227987511, -0.2187611797995881, -1.416618091045029, -3.661152953995644, -3.1808859860629273, -5.133111994350919, -7.051190865563414, -9.616067086624257, -9.471640567173216, -8.843099630546572, -5.710089485401825, 2.4119328840587517, -2.8801214780185167, -5.248759532009478, -10.85826850143889, -13.230390793167363, -4.801396589178709, -4.403184794511043, -3.3253654961917887, 0.13115849621008285, -2.8274901542271054, -6.469571558316462, -6.620871695197091, -4.475842707364788, -3.457347364214543, -1.236366777780967, -0.5791478760780061, -0.05508217880104606, 0.979873679334176, -0.17847311606326216, -1.4069471255367085, -3.211560325500329, -2.18641887854806, -5.559303353356525, -7.064724728773478, -6.848013396378437, -3.4873535203594335, -3.8379270859358408, -2.037201180721816, 4.528458185353455, -3.3757838740300614, -5.767463878964876, -8.266050531260321, -5.776714161609191, 6.190327345963363, 6.7548274247488465, -0.08961704792193603, -4.232666900101805, -6.942309951515332, -11.023933739377718, -9.313030459790888, -10.132456531534837, -8.663545335702969, -4.319963305982824, -0.9537814938622864, 0.6809962729622524, -0.2347190419643963, 0.4614136701429017, 0.8053319039949709, 1.555002235165032, -0.12659210323614895, -5.781718200075067, -7.851380743682146, -2.981758296589055, 5.734720523552925, 7.025167826194075, 12.600219338305433, 11.180765043238251, -0.4780324473349445, -4.550651996661331, -1.2981623477010145, 6.923641856862245, 12.305859494343814, 8.19177259768423, -1.3202981574973327, -8.20133411074524, -11.710412118773112, -14.419289289655858, -14.365060557155918, -15.47526584974916, -9.323902448411207, -1.672569482096416, -1.0846610806022037, 0.4288156525918334, -0.28566868365847026, 0.5052490335828507, -0.2567585651632297, 0.8095445428885296, 1.4214245121799416, -2.260273075291462, -1.9924374983951774, 2.441695058387185, 7.5179482995844165, 12.560197279125669, 17.282869677374936, 12.292096878010696, 4.479656941075655, 12.106562274229551, 14.79331435497692, 18.337219557656486, 16.53475605774148, 4.069901395177077, -0.8011434400666694, -1.3334051083460388, -6.752039629600906, -6.492288001322464, -6.038577466576977, -10.040749151559345, -4.578293377611377, 0.18654623961655376, -0.3396028548459481, 0.15997633486161436, -0.9886105484388519, 0.36179314841936194, -0.27521430188254775, 1.3123681769844915, 2.229405095131495, 2.990744798488684, 5.566273254965125, 6.640966701826069, 9.546300732146884, 9.626513035407454, 11.571770826021636, 5.1223221657954685, -0.12016439829758516, 4.4210677432284875, 14.651279133679383, 22.15909831436998, 15.327475673556155, 7.273379500285807, 5.082050113398228, 6.474070890144222, 0.32281892865799083, -1.5110266195802096, -2.398165149533987, -5.311903922990149, -4.6556839263637215, 0.5309884269584635, -0.24236892598030516, 0.8648185478229558, -0.06313021419817066, 1.0165226729096806, -0.152583474557594, 0.8408417167311232, 3.2612060238190628, 6.259243272728214, 8.816718678264762, 3.83013464169958, 1.275127633250861, -5.207578515917649, -14.344739828519918, -19.359471501006105, -14.818722680640725, -3.4948006005032117, 19.56727118210707, 15.477962178710971, 9.970553613373657, 4.558987809627555, 0.5166366793121331, 6.8128171601162855, 7.346307418164706, 2.6593908949927005, -3.125068323096139, -4.522837510817197, -4.090721606659359, -3.088849735952679, -0.6906229190167182, -0.2924571752399246, 0.14728968360769623, -0.40404838461801396, -0.5669997697877552, 1.0354349863703396, 2.320991347393504, 4.992265012021438, 4.485931003856514, -0.24515755773563613, -5.88260403126037, -14.880852782561663, -28.94480876590976, -30.2210714994394, -23.717134703995008, -6.943570280979113, 16.41284063317899, 4.3270659583367905, 0.07991076413856603, -4.635561103997245, -3.4702576629338773, 8.094056572334889, 3.739460678599811, -2.0017993642777623, -4.4660773194638805, -5.547632492877904, -3.8681994061038543, -3.2800435912607817, -0.5044366924504229, 0.7465127783193295, 0.815757486830746, -0.950446010229467, -0.724099610844721, -0.4138968299222345, -0.3522056743207572, 1.9791183253454228, -3.8785646679006254, -7.152794087697277, -6.8361939442705815, -14.32205081821072, -28.942632180058457, -29.346457560406037, -26.15092291623654, -8.380848800612622, 8.144944039755309, 0.12507491479119648, -8.31578676565805, -3.1237526893674232, 3.1396306605927444, 5.686283123251862, -0.9912337687240155, -3.8689583146901767, -5.774461889269766, -4.913757872699267, -2.2859843745562474, 0.4665263486569499, -0.40010750990209026, 0.9238567043409174, -0.4983896044134579, 0.21629198688578288, 0.8291404159238076, 0.8117729318240507, -0.15443064540394524, 1.1011761001708114, -2.3131965638370517, -5.850660723567825, -7.4282544010492275, -13.522281051997895, -23.60745846756638, -26.07455462548694, -22.388802080532813, -3.895828819767291, 5.0172049505496865, -3.9032218735804753, -8.415788134959014, -3.067242778347129, 6.269753054331517, 3.8020405174404077, -5.087197280010161, -7.628535945923749, -5.703450738031874, -1.0302460651827674, -0.7592845508366561, 0.15301279708186338, 0.4167701226577858, -0.4613056550632135, -0.4116903922058508, -0.9375903803251042, -0.10095836984572548, 0.20096861345456535, 0.7179344408318318, -0.6251230672994647, -4.4380617152862625, -7.479484099138328, -10.54374813350986, -12.418552975965607, -19.035137054552735, -22.566658147613023, -7.641346249856834, -2.060070318016634, 1.1385040793859866, -5.137757199845234, -7.421214435616381, -0.09585018259290981, 9.497278169494681, 2.7991269278166673, -0.2124499942471427, -5.2550978768688195, -4.713522290420573, -1.8195221383631994, -0.24186059896904277, 0.02053231350344845, 0.3070271865620476, -0.45305428318537677, -0.8302205080853113, 0.9216627338948782, -0.7553139975377345, 0.2448124341345377, -0.6846350816094099, -1.3424595928666336, -4.145790157368143, -6.302352339720936, -11.607269941211214, -15.766393207506571, -13.92514901027229, -12.825996370546514, -3.5257161831800548, 13.588572651149997, 10.44814101421733, -3.885538674373657, -1.2619428255713705, 2.571826811898335, 2.8435114676489945, -5.0934895505130084, -4.891510010877024, -7.935574739839705, -5.437986691762839, -2.209169707394233, -1.732374483955694, -0.5088224222848485, -0.15378129408465727, 0.3980260382052969, -0.48560574848755156, 0.9587514540978526, 0.9580745218903678, -1.0761260814131737, -0.35676500223443675, -1.4724369760228577, -4.7409134115974325, -6.439312632221079, -12.569902279646248, -14.471823950922523, -11.358485581957188, -6.0560838581998615, 0.07480556406372552, 22.48901063572021, 17.739585792211873, 4.832253241136764, -0.30973371405645855, -1.1093334107320016, -7.819681126066874, -9.96006411228243, -11.104722600465927, -7.339233026055548, -5.947404298142939, -3.7822937119173337, -1.862798108707031, -0.9514880072705023, 0.8478935214464757, 0.7620525994152696, 0.6484078935155142, -0.8946130091699765, -0.23351808865150056, -0.12745318709776432, -0.7631410513103783, -4.435466821556263, -9.36714344610146, -12.18035177951187, -13.799783702828751, -13.766812693732751, -15.674732840723957, -8.248530409856368, 1.386883812091992, 20.471667871332343, 10.824295028052106, 8.501380615472847, -2.9343584615178924, -3.9615440273929736, -16.325884147544294, -17.282955591856076, -14.154200316758983, -7.483816965184993, -5.852748520019187, -3.80451103135155, -1.3454573641288878, -0.1165579536758996, -0.35615692041239555, 0.8089151210922184, -0.3231322158598924, 0.2040564989510617, -0.46661133263453, -0.8465157909444235, -1.1879459539781447, -10.297238414633538, -14.816151734776211, -12.25495538042087, -12.686619736112872, -12.478333646081515, -10.353930652823985, -4.568417859995969, 6.294214534331659, 11.76696202038988, 7.89829533843359, 1.8258661733682402, -4.222338536491164, -6.810054004308373, -13.955855745265252, -15.94817699630982, -13.455631075733837, -6.937865545176819, -4.585609837724097, -4.121593712277691, -1.2598602618631871, 0.17238630257037552, -0.07218512349505177, -0.40917954629325104, -0.356372274895024, -0.9712314171534129, 0.261805379739375, -0.6750296727248075, -2.3404998592739927, -8.145354963030691, -13.524025940798765, -16.279122196963353, -15.224676120062913, -10.526153427617178, -3.9415696563155618, -0.2953577288165054, 5.018005535998492, -0.5472484316413133, 0.7203278569133513, -5.1176342246611375, -1.4557470488049435, -1.3792791355887617, -13.032417061511161, -15.556963107984165, -12.52876546883091, -3.142982280731606, -2.412928484631237, -2.838859734659838, -0.7930873444180196, 0.2185818646139246, -0.7578909572696284, -0.4087086645233631, 0.08750032505624472, -0.0055292821873791365, 0.6529815029460376, -0.7470447252247069, -1.407190527760834, -5.893487854355925, -6.5162306475624, -11.11885969562763, -17.69323091953599, -14.30873096943767, -9.316351658138785, -11.45590491026164, -6.474383926243483, -8.936760974759123, -7.791303985085848, -3.382454849497795, -2.1413371690162557, -3.6308652665889243, -11.76360486448748, -11.894598326262614, -6.3965958600834405, -3.984080096272032, -3.5074177341814767, -1.1383430952349731, -0.29855033783414237, -0.11459325689700556, -0.4865533518196068, -0.3190211967922685, 0.38752637436320536, 0.6881770167909247, -0.4760266739999396, -1.1834014256850558, -0.8989980365817726, -1.7893890677392108, 0.2608535306471694, -2.809950226874344, -7.015983104357164, -9.466830528881015, -14.184012460718202, -17.837587574474718, -7.47583214517679, -6.562578368696076, -4.290055322235232, -0.5688084568651518, 2.5166550122429143, -0.23710462815789576, 2.729904702290533, -2.084138482351822, -2.396391527074958, -1.4711857644145467, -1.3188524950556464, -1.4551147916404379, -1.3817106712482565, 0.1448604726407777, -0.12838548846948727, -0.029097896996747696, -0.4789999546344277, 0.30076476047931755, 0.18281196963152962, 0.630351565563411, -0.4564004464172941, 1.1615560469197252, 0.13940766107531413, 2.6675480933196294, 1.7525580164780072, 0.5252687274912088, -5.9031286915418475, -10.038633667188945, -5.982071571716416, -11.194396567814959, -5.009562681911605, 4.613646252237862, 2.5354881243712897, 3.6975323223861833, 7.797905433403555, 5.279680247670686, 0.7271932173872093, -0.5667613400985548, -1.6959143966345136, -1.494823152682548, -0.9556625431311311, -0.8779001138707221, -0.7462409164374784, -0.9035319685643206, 0.04985905208660779, -0.7538810971780752, -0.5953330720057632, -0.7547580436440006, 1.4912161950977745, 0.5972773965603617, 2.9890176820397936, 1.98285386621734, 2.0378052865226763, 4.867619074407788, 1.1001879849827174, -5.015592514253566, -8.85459921693585, -12.214463692941557, -4.825276899374913, -3.9597854855143315, -4.558516901921228, -2.5411473823633175, 0.9018930399047875, 3.149027509873875, 2.1173824749364933, -0.49369833908372573, 0.41090788486691876, -0.18804516092063428, 0.7526577723439782, -0.6102530340480246, -0.04152267725855863, -0.09580416495885014, 0.4638347309655215, 0.1192474297646513, 0.27828134950174066, -0.369290419219725, 0.807036247391152, -0.1638906971608478, 0.7717410983133907, 2.872051408936681, 5.746243169799824, 5.49150437186887, 8.01360324784485, 4.518855453662557, 1.9352688139141117, -5.4799338473106145, -1.62746197963133, 1.904137827502888, 2.599768823938509, 5.225915512625946, 4.190740757911115, 3.425995041479653, 2.645847457430825, 1.4625473182165991, 0.5428629105613202, 0.2400447591964765, -0.8486515329904599, 0.5394314266303271, 0.027722419193609404, -0.07166562158972445, 0.4455319049148643, 0.08783877344216484, 0.9786033948732711, -0.7024287104647353, 0.6729242636273687, 0.03292353131656684, 1.221781767315062, 2.882775278261551, 4.243512893944246, 5.542816587294817, 3.2751630561036467, 1.6231781059909594, 2.3843514048823953, 2.3844126369483725, 1.7232863697106517, 5.523509179333002, 6.103234715987715, 1.8738231232425002, 2.9370404550847096, 3.1889628986161074, 3.114493505140899, 0.2704515274755166, -0.6848434572191203, -0.1549986458410593, -0.6882300131530448, -0.2313504252970051, 0.6149062707055035, 0.22203584677736798, -0.29703171630512837, -0.16928905240535896, -0.6361208968415804, 0.8784466446901147, -0.15055219323228086, -0.16999292260490398, 0.16991785046945923, 0.9906469477853395, 0.40684442605689813, 2.2208355331972935, 0.6878869105690418, -0.13134071274387737, 1.6163957198418006, 0.876658303180583, 0.1648375898228908, -0.6020842791713484, 0.5814864625281477, -0.31589196851162893, 0.6238772896781879, 0.3363184966476864, -0.08138983851302983, 0.7286406255362095, -0.17158871798668915, 0.25210628011470115, 0.9993810604847724, 0.4692054384273434, 0.20102831426826073, 0.3249236407637146]/6.26830733921543
0,3:[-0.8485289248483492, -0.9390217086401114, -0.19604904184355054, 0.05311874750984358, 0.33577427216618494, -0.9351629487334101, 0.71922145845318, -0.6154562151373966, 0.7764741901782315, -0.7686155370972729, -0.5424920403895312, 0.24137586278881162, 0.37821961629697776, -0.2814492675704283, -0.3032952912147484, -0.29311754726531647, 0.4359605167127556, -0.13729092070060966, 0.9755601099552924, -0.04922893299703679, -0.18700059621189324, -0.5070016020751191, 0.9906390509331293, 0.22980112297694655, -0.9461280623122361, -0.2834766930811021, 0.4837186353002121, -0.7013131071212242, -0.33295922014635826, -0.8308935460312861, -0.573544188661129, -0.0344473749429004, 0.7702134415298356, -0.9815215103565409, 0.5775139495862902, -0.32380272428167367, 0.6525280140388494, -0.06647831953984751, -0.7849528984833705, -0.7632266783975885, 0.7777143861993692, -0.6551403753936493, -0.5088142354263432, 0.40085091937224104, -0.8664529716052334, -0.33563069101959764, -0.5501435555790339, -0.2619772577309323, 0.1034728696523568, 0.1654280750549797, -0.5176019559552447, -0.5545230526168037, -0.33973125515875147, 0.39660926241506345, -0.22664177326869162, 0.09916548552662241, -0.8536846140351186, -0.2519394031409765, 0.5732893936811081, 0.2884801061394433, -0.982358257347695, -0.957674155655458, 0.8726950265783324, -0.9083245476753455, 0.9204531382730753, -0.8028250898748592, -0.5830769804840559, 0.19702057499679362, -0.5979746321161471, -0.6772390497971297, 0.4683963892592776, 0.13826325295959296, -1.1142302955502612, -0.3169726493997913, -0.7281839393411561, -0.6053671334167166, 0.4815493535013316, 0.8693983426443227, -0.9064380462461841, 0.23538382235410338, -0.8396273131308178, 0.5483162873072767, 0.4861830784932486, 0.8987167688585296, -0.03850027825839586, -0.7515788994376429, -0.9992550268545719, -0.4544366457473026, 0.9330058964936512, 0.9907405701832785, 0.004025441341417276, 0.4331960465051416, -0.5766661279489573, -0.6969754232714698, -0.6289301437983134, 0.11499122309798228, -1.1654521926468584, -1.0680905566154282, -0.7375315780357908, -1.4152839977117417, -0.4750042777875248, -1.866401236995881, -3.929571353229891, -5.545187125901677, -0.4033570360367617, -0.7177306614841459, 0.286915311287883, 0.6556884235604863, -0.8136114757920727, 0.35734555079678687, -0.719692723362771, 0.839306823647382, -0.029769660553923494, 0.8722826335169722, 0.2934405948902059, 0.4607182912113734, -0.4022222251724389, -0.534642403914942, 0.16835872164594115, 0.1915349447906312, -0.6760005470413465, -0.5241652313476846, -0.8249887696423434, -2.6184868520110296, -0.6153595206572093, 1.9390388379932122, 3.5516505450056974, -0.07121601287419692, -0.32141961874095404, -0.8734969881126673, 1.290692001676366, 1.190507610698162, 2.853937681558188, 1.381165360433913, 2.141030708206607, -0.24528762550748262, 0.5747066238074611, 0.7868846036238984, -0.08087833184408644, -0.973806587988264, 0.5335327150364222, 0.7034430684858541, 0.5821326983162227, -0.09806935635440973, 0.8957753701002018, -0.1906786407985864, -0.6221008012361509, -1.1928304426884406, -4.010488195368913, -4.997257974238562, -6.282998924937563, -5.671489605976459, -6.121670295290874, -7.273869209008151, -11.687265935216173, -18.757289697974375, -15.19084235435957, -1.1748369285912637, 5.233704463949304, 1.6593255051942948, 1.9678944588302747, 0.8159386279789883, 0.5135884213654751, -0.4535787079592654, -0.5803980416038477, -0.021936847056908813, -0.4902860439877355, 0.6106875333298887, -0.21226749655255484, 0.6940314681568194, 0.08644719946301631, 1.0318274235636011, 2.5589621997003227, 0.14843174883716762, -2.4404381590219044, -3.810357221196699, -6.409311311181801, -10.5533963016732, -10.470304252356541, -13.783078227920631, -22.52602070852672, -19.500071721070235, -21.039001868875996, -23.98377646849531, -24.556620439652903, -12.588842350549719, -1.5799551711455389, 6.833429456383658, 2.9214299638666406, -5.663488662746731, -4.566657998325213, -2.4867398129715474, -1.7758396593507424, -1.1130351420958453, -1.0472430171212919, 0.584170249391059, -0.24799572448972396, 0.6983684387734791, 0.5275145113114486, -0.037424430681826784, 0.28528332115146804, 0.09643774537196909, 0.06917454092554168, 0.9794422709238901, 0.3220978106548351, 0.2936836699570667, -1.9698701273474577, -16.318121735629653, -13.891029638906414, -9.102134149085968, -1.7972876550897094, 1.0870836534045545, -1.2526574081093609, -4.667738936055378, -3.056526526133449, 4.159820194508609, 1.4669134631037453, -4.5588033668971395, -7.5856834797026, -5.782832922781869, -5.178159428039348, -4.012557160045355, -0.6669610024031026, -0.4779320009542408, -0.088038902782555, 0.007703124215964703, 0.48593757605734866, 1.1152850748375605, 2.132519821120545, -1.301767154127397, 0.3032762509240038, 6.895003394067059, 13.340805118141189, 11.350285696925388, -1.126833944729525, -11.09043353092357, 0.837544802783625, 6.803023976244192, 12.76692073152679, 12.730848294970821, 12.777816105922302, 5.610534898030246, 1.8986793024556008, 8.767973957341324, 1.0644541930146012, -0.6601271927488347, -3.5541053872640864, -4.132448034876141, -6.775082828410918, -5.241600812253833, -1.189470274844348, 0.07576135957618757, 0.9317159928432799, 0.3500626642883692, 0.43390396204894194, 2.937949690325667, 2.3827791954171467, 2.8559533465087044, 5.158827083384992, 11.277849262104166, 13.030774490787687, 5.417859177491811, -9.67274214488294, -1.6005287245563529, 2.711630701254182, 12.032978310360715, 23.473971669207252, 24.91221157888163, 23.454914323771487, 14.628957953257618, 4.176852984461682, 6.590796079781746, 3.2708705642442504, 2.9613429106125504, -2.2524221481925952, -6.2507313082392235, -5.668422305532972, -2.414747864663303, 0.0428962914783213, 0.8208195169901071, -0.019940704323741842, -0.3714996826540166, 1.4335676073580754, 0.7722474079164902, 3.4621204366910288, 1.8862607560686597, 1.0941530668854875, 6.964899232883191, 9.944623487997047, 5.234109341650525, -4.992696231808552, -4.041492793459004, 3.3329234263190517, 18.585692354887126, 24.18644755376019, 26.998963202572945, 23.095035697979107, 10.379546979993895, -0.24000974853422857, 7.840317650594552, 6.353599806810336, 3.1210571717468083, -1.4466671515552632, -4.8813847533463175, -3.1949062623310858, -1.3898848744373833, -0.5193554697659921, -0.3430756712532083, -0.20543963363275686, 0.3268441497765426, 0.44109054639846723, 2.495348078517599, 1.1922733466655613, 0.011158542099098577, -2.5864504917346935, 1.1400803373192334, 4.485805365591808, 3.0521012423022644, -3.6271120754490394, -8.266921309410778, -5.534679269712828, 1.5307811075639435, 15.940260114195485, 15.606214422484054, 8.010518373409578, -0.3921730400463192, -0.00015598663427958794, 7.512060052392376, 5.951177227633927, 0.4214016622211249, -2.1474730080398587, -0.9940514687677108, -1.1930924407994414, -1.1656308639010602, 0.5202265381505695, 0.8046589541767173, 0.44379508592551153, -0.04580512339564196, 0.021380109358785794, 1.0097510784046346, 1.7640975227875957, -0.6040002270207604, -4.413231512828416, -3.2870516401148193, -1.5607740213969377, -4.072637737927392, -9.334391959235294, -11.685601440574105, -16.00300909758789, -3.5980704041498974, 14.784908838468072, 2.9090816810689786, -5.321269991360624, -5.439578661737823, 6.173375575298309, 5.905311420137903, 3.9458444261756638, -3.8775186406916626, -0.1918960928647198, -0.04771506166344122, -0.529269104180739, -0.032555500933982115, -0.43198640683325334, 0.4665892425127227, 0.6640987408870191, -0.5395093329959754, -0.3510626016337287, -0.12037480829707624, 2.862742250989221, -0.6674563392083007, -4.421541048354763, -3.385056730661176, -5.305688131842226, -9.376570912585375, -14.072116777485622, -17.56103650920505, -22.90083439819035, -5.867093877542158, 0.006175755737924615, -7.667866060721693, -7.591718305134325, -3.5955805461723185, 4.659098772433119, 1.0855758726302709, 1.19343578154306, 0.2623641464627025, 2.0357555554298328, 0.21936743236180417, -0.19153123630421634, 0.04820224334513745, -0.21773251913499878, -0.4358576691758862, 0.19159474896956352, 0.280636038888907, 0.9669042071631746, 0.7062012091533786, 2.32499192651085, -0.03998230627225926, -4.117244119467362, -5.965135866200604, -9.631853691764457, -14.147231190609347, -21.020484362792995, -27.073200767879946, -28.57302701578418, -13.805755589877077, -3.1633149103164544, 2.9366637369288804, -0.3661056859325094, -3.107944922883299, 1.1595499597320744, 2.357084250204804, -1.40931634943213, -1.3765245331086997, 1.3552378282796391, 0.3238543576688807, -0.6343911533260927, 0.7423172121591671, 0.6898866739689817, 0.9994893671230418, -0.14390176069317806, 0.37044234270585397, -0.6987415926225466, -0.7101830000619448, -1.9701508708627136, -3.5879364784149974, -7.108089092199921, -9.283813079578326, -12.249627254271669, -15.784113493548052, -18.408591396809253, -28.335756256397293, -19.665552326460077, -8.82767024230796, 9.664935597531198, 10.206619110395303, -4.364865482789067, -4.293310737839857, -0.5928925611332108, -2.029794463776288, -3.7108200041708277, -1.7329323693477423, -3.0916798121188327, -3.4907145226721497, -0.8859368087787303, -0.4474671901836171, -0.39811353604333394, 0.5672191699068603, -0.3023235310448349, -0.34462812790512354, 0.3893390665992961, -0.9159290667988351, -4.033687466806526, -5.712165384607221, -6.213648256551728, -8.933715858123403, -10.310502742626753, -12.255474703433846, -9.695711718203226, -10.18135604404573, -8.568099461813606, -2.754805419094584, -0.762726010218008, 3.6599573807541, -1.7919111960599086, -10.49226021067125, -3.039547783221412, -6.800571685325943, -7.111744855500231, -6.129129187547158, -6.776516676207971, -5.915728716591609, -2.7443694645716143, -0.09035769183938218, -0.25234920650185694, 0.8699570257705009, -0.8337041126336906, -0.8891619442447332, -0.7116040451332041, -0.41912023790261116, -2.740087901010925, -5.140098681112724, -5.891906423003904, -9.873292832058544, -9.134830978225626, -11.124080869451591, -5.1974037973736245, -2.3393482083047843, 4.030302829018144, 7.1089944935859695, 1.9405552389985334, 2.038436642591176, -2.417726402944553, -16.095951695449568, -9.407562370551702, -8.592844127153914, -8.36210826523179, -7.767253413296056, -7.951292983699785, -5.084679399409409, -2.798036597536622, -1.793585808054934, -1.7108060187378997, -0.6439527875326165, 0.40745930998017776, 0.9219886500285572, -0.45456860716994946, -0.21642639501630254, -2.450346041739776, -4.9296266541665865, -11.11023475231082, -11.87638518911322, -10.893044474461123, -4.190042648266977, -2.4992301083542188, 2.087023815630044, 11.13534532078169, 16.125307265411745, 6.823140767524174, -1.044952170517176, -5.087171724173902, -18.357839632714448, -8.394997871292189, -7.217506367793269, -6.300427390293351, -5.632852276671012, -4.946252093482173, -2.1942113022203324, -1.320033667138445, -1.882140720439678, 0.6765191910439515, -0.4418546242229356, -0.19334224005700773, 0.48478787810151847, 1.2842782239353137, 1.6811919965862965, -2.049951511017136, -4.631853227977919, -10.066830172660453, -14.530273697138865, -14.077169027660318, -6.376414056270455, -2.849433642637639, 2.44894758703661, 13.007184396758504, 13.486818884793681, -0.0731873733022403, -4.979560291915967, -8.038203498123307, -15.97434117690887, -8.260841937952282, -5.881057042448853, -1.9886977723997588, -4.568367233523215, -2.7586874673614044, -2.074526493528245, 0.14964035272170728, -0.982021955993685, -0.5692736867758021, 0.7085440231641567, -0.7594931310021951, -0.7624663266409324, 0.38438279857433716, 1.2533290217121427, -2.033756577722777, -3.1760848093535325, -7.544198983761293, -12.234147397292245, -12.999000637259996, -9.35380306408886, -3.7654894839631745, -2.371610175512286, 8.20733016854044, 1.2009611499602326, -4.153021878100066, -5.160819695368441, -5.231389723282137, -10.0443434301436, -8.85238524768952, -6.76864531592549, -4.507012357819795, -5.137055348225416, -3.0217093774539174, -2.0912869804032814, 0.40215166836264754, -0.8763462062417093, -0.12404601674697302, -0.33814104542333645, -0.9439784630506662, -0.8642648948888871, 0.043193215054593906, -0.7011276812924406, -1.0756161137015305, -2.1209166895002403, -8.124747068608498, -9.821485347203977, -10.765661572645657, -4.432655241582899, -0.5618658770000603, -0.5547528009065046, 4.497813935424676, -3.4565981461068636, -2.4619631631156413, -4.872007211838607, -4.6032467228122735, -7.266108704461878, -7.015259351399781, -8.964495171681074, -6.356346883663119, -4.352179051968333, -1.5940317257431782, 0.11425423420904701, 0.5089619524430035, 0.968522298896802, 0.01293110307968931, -0.32777946100205435, 0.2661419566751575, 0.7859633064240144, -1.0361924992973433, -0.48934851659615, -1.5404116041009144, -1.0785160051337976, -4.885155825042854, -7.620138370935028, -5.543582709649191, -5.9089160711448745, 4.729102046808368, 4.566083335976296, -2.3741706901994912, -6.093919917777924, -3.7232820730507505, 0.58539729796829, 2.3379520924370767, -1.0825732590296242, -7.743184269907687, -6.075891765916942, -4.896313211066244, -4.485031384426323, -3.0325745825501733, -2.1302941242608826, -0.9519486286962295, 0.5033507293925815, 0.18991731429991862, -0.25837555412903557, -0.05390690388938402, 0.37408129101138554, 0.5122707277323517, -0.8472877815567393, -0.45346211439971906, -0.873711258123385, -1.878727835716865, -1.6743805659504236, -1.3478554198917987, -4.222971499016608, 8.681032636561447, 2.398797981845667, -5.387313440205828, -8.63513313425177, -3.412759708823899, 3.396768810239078, 9.937105641116068, 0.26515813351909456, -6.145416015029934, -4.737543593328595, -2.7685656450584246, -3.1092213630367374, -1.7782702713814431, -0.42931812976152944, -0.35795446150167537, -0.15863529534920187, -0.719875797686332, 0.6779413882594627, 0.9723341105640977, -0.4776177497203753, 0.06661945449261952, -0.049268713634815546, -1.143849211848757, 0.04705651648365423, -0.0850933674450012, 0.3388478251528907, 3.4753015975751693, -1.8155765032943147, -1.7671661426987435, -3.0769120311300613, -2.814929441547616, 1.246253346947694, -0.4902792084492102, 2.351633299961196, 4.926555959861741, 0.028229141290419122, -3.7684078775143317, -3.191691105646524, -2.2630442108784052, -2.572118159404636, -0.9682516361350457, -0.5881308531951478, -0.34739450538524763, -0.03820780505843646, -0.4726407936787391, -0.4623419393583632, 0.6066787432590204, 0.6141802273320667, -0.6910497657463976, -0.38701500755368196, -0.7902866790465017, -0.38861322974904505, 0.6407742284875902, 1.8621206321103505, 6.473694877438331, 12.701423487717385, 13.39813460241319, 9.08303892669626, 11.777167748015783, 10.120952825120277, 1.7328360790322788, 5.640922676812671, 7.048444341403781, 3.5212630306516686, -2.4084718767423734, -1.435696290843245, -1.4077390042652604, -0.43107574211762995, -0.32091660127073773, -0.6621176250684988, -0.2736816443829469, -0.11569823403118762, 0.8824863881226748, -0.1841685059680347, 0.4171690416142164, 0.8099582199995892, -0.43080978453840224, 0.9784970561226034, 0.05549579319449627, 0.9197735886807799, 1.4583813286536398, 1.188934801181842, 4.032423182091078, 9.665059270345086, 9.965311814201657, 8.747690730998784, 8.214029791809107, 8.416003928443597, 4.402755784663372, 4.142866773899032, 7.184200670463457, 5.467243706687549, 1.549703690072538, -0.36335062922702926, 0.5559146162678125, 0.9204612513458807, -0.6882646076553455, 0.20860416346581787, 0.048819963732500415, 0.043284791365712394, 0.6618702075102372, -0.9165113224363857, -0.8169381681276386, 0.2957483334939772, 0.3938393166783589, 0.9956588966233948, 0.5052957293851819, -0.28257835480111426, -0.30368428273571496, 0.599832524167856, 3.4081619118466815, 5.2099809095072045, 2.3383420438094356, -0.024448193981281674, 1.735914343444216, 1.4536777370629774, 1.891484317855553, 0.2996352226580585, 0.9214552114703429, 0.9054092997285512, 1.086659459228499, 0.932620160809943, 0.13492161317919277, 0.08031586569927157, -0.707333023084427, -0.9858736587879376, 0.19428714877573539, -0.08588518328183814, 0.5327136070723666, -0.0736663625701588]/3.865637310323785
0,4:[0.4503945157617124, -0.1062068400398446, 0.31941289506708315, 0.10756058517620626, 0.0019871587811624014, -0.29232649804978283, 0.11073405841884609, -0.590366881039269, -0.9916510832083429, 0.08559580367829422, 0.867844404312442, 0.65529997772246, 0.6800849998135778, -0.16126407697354095, -0.927776109969608, 0.23685045610827204, 0.10752669538665205, -0.5865612317923037, -0.891614124683539, -0.7824677674605707, -0.4168492730372897, 0.8102010943124658, 0.892376237643921, 0.6153055697060783, 0.6624932232193428, -0.5561039066191502, -0.4212702399356172, 0.2796262820753519, 0.6100562851477096, -0.41454658030555813, -0.33084805641180637, 0.8105662454576854, 0.06279730907779024, -0.22762509702920952, -0.2482515021230034, -0.8736941129613207, -0.5155347782497786, 0.2767933600110064, -0.6440523328523231, 0.9294998254641109, 0.5145774054693799, 0.9131379748773994, -0.4549386114975782, 0.32114497816350845, -0.5691216976977178, -0.666834256123787, -0.08537051270404716, 0.10545247905628252, 0.3833873462427151, 0.5627011359355671, 0.3858846535535685, 0.9024349293189489, -0.5798575493147857, -0.2694643705284969, 0.3056345659311137, -0.7525359208569962, 0.20087109217493682, 0.9478583898094795, 0.9205748603866577, 0.34511669952426915, 0.653093084118733, -0.7697569970017648, -0.08687658622937211, -0.822083138219287, -0.28315490185781156, -0.6476970563702621, 0.7961699552366203, 0.5149022889708891, -1.721342424970643, -0.12567765040900722, -0.41819344576088513, 0.10610998594615302, -0.39215667357524103, -1.8627226018016914, -1.3866294621909274, -0.4772001232441864, -1.0602674605940923, 0.17965743152836192, 0.45179000789009777, -0.07265474340237095, 0.7602343312022262, 0.388501045982361, 0.6261896501974507, 0.17848028496951285, 0.7432103246329564, -0.5514406314196114, -0.1921188300021237, 0.35284912752662684, 0.5488716854069974, 0.5044988596165378, -0.5972771524202433, 0.7242678935925615, 0.3509702447036594, -0.06783740577060016, -0.4788889595615087, -1.188499531762019, -1.618563205550469, -1.8727874328962009, -2.7970144229820106, -1.7481558202273482, -2.4828676636298797, -4.269079379067235, -5.668303818999978, -3.0716154665453788, -1.3848588067673981, -1.0092428107996372, -0.7003918804962423, 0.16051939828235526, -0.4929071499649462, 0.6960470143791468, 0.6962296506465009, -0.483985991794488, 0.788556845703011, 0.14282464666804495, 0.3333468176026322, 1.3148471434606661, 2.210237364201497, 2.4357970008037624, 2.1908721956976303, -0.7574680423889683, -1.9833683639831887, -5.802832741751655, -5.141705462421224, -3.2980286468553546, -2.5303080267875977, -3.381127814695308, 1.5983731317585008, 3.651301761112709, -0.6184497245760175, -3.9851122919257103, -3.28141519743038, -0.6925308246158476, 6.079109965612353, 2.4802333471574274, 0.059736565918061015, -2.2375329443937324, -0.3616558779692353, 0.9350149035633308, 0.9892283102367263, 0.6785804805057494, 0.312407635964121, 0.00023670016168919616, -0.033832640465539576, 1.9516406835497604, 0.9645640855657568, 1.7794115495158025, -0.7811230867870758, -2.643110434505092, -3.153522976050339, -5.056386304353045, -7.748603824717321, -6.0405844441352015, -8.133798671006215, -5.241369821101648, -3.008881811857632, -3.9277195553921396, -5.773507258323003, -9.25644400944143, -7.855379958934286, -0.4254104906972312, 1.7984445125892712, 1.9743647625179273, -0.6692622838696095, -3.024696928277992, -0.4900103025457826, 0.004527901572868048, 0.25766124202622354, -0.5205470543305175, -0.7080527395023444, -0.9300094325795014, 0.9385568476828744, 0.5684162214412699, 1.6303551061746187, 1.8406682314660658, -0.22278074344018847, -2.4367502898317723, -3.6081333335265184, -6.877040642389387, -13.085054829219175, -11.710447031408261, -12.912768480890755, -8.521298661451373, -7.219637644920556, -10.277683116255762, -12.000368495118844, -8.487618143977105, -3.334803072632601, -0.5613565946642352, -0.9954827712894193, 0.03993018330725919, -2.6375672967586516, -3.1919785886609646, -0.6641729910226857, -0.378436773516126, 0.9769388635796294, 0.04782847868598925, -0.18869187539135673, -0.6308662547109598, -0.4164327940390649, 0.3657127008376549, 0.8712170231180326, 2.1243611658885544, 2.384424655342596, -1.088188330340673, -4.817367128779094, -5.3829361176416874, -9.803239864688862, -12.811294529153969, -13.381735668907794, -12.429252875282717, -15.620330790036853, -20.29327549756856, -17.85251871141775, -15.56626964019528, -5.223786669938203, 0.07079059229023299, -6.371709661174443, -3.855833342626803, -5.831981634025232, -2.847134758122219, 0.19048983103209946, 0.0005331116001617645, 0.1591346829729381, 0.39284880713451786, -0.39931707882296735, -0.3331369200136631, 1.0041879051211824, 1.6959846123914286, 1.0347234021008356, 1.875823825775397, 1.1666255224645146, 0.1256998885640965, 0.48307294038152687, -0.5442453680101773, -9.961125229273925, -14.584758636597039, -13.188176063482453, -4.859680047423593, -1.2415868157587138, -5.220367057577262, -3.9633200577106216, -6.888963926351673, -6.64335875120359, -4.080950992390616, -6.392591970738649, -6.517701973513652, -4.377761170794552, -1.8038131032812825, -1.7370264091705991, -0.060799307843504395, -0.33849593727190475, -0.011494349169511635, 0.22346125719561558, -0.028950946108964568, 1.4223897528442688, 0.9578645681198805, 1.3593305997722303, 0.5357944006304245, 0.9372961719061008, 4.402929881471168, 3.1997311953431233, -5.3812561650379225, -14.980317855421944, -14.013740175714089, -10.70471691709716, 1.0788888319172667, 9.96731781613705, 7.397032321172492, 12.113436294670098, 1.712539252056171, -0.969947190384504, -10.014317718774578, 0.21272900572709205, -3.277788892600391, -3.00174515691535, -2.9960126364520536, -0.9663231891971941, -0.23809651227042386, 0.6962134849498456, -0.34072886859479823, -0.6826145326284065, 0.5345991906503421, 0.27731425705217183, 0.4305151960259736, 1.0230100990716358, 1.4087099818879807, 1.2535046916139345, 1.7810795064617537, 0.07617817526585513, -10.915679274328763, -17.040669891917325, -20.17153576134448, -6.536927573242574, 8.38552659566733, 15.419488504049106, 6.978745733215046, 2.152731797592601, -5.2885802870195695, -3.0344613915489944, -6.938989705053739, 1.2464740971597978, -2.132296033094623, -3.1503798515745554, -3.9000684031794925, -1.530377487090384, -0.25359915412140116, 0.5484579789519726, -0.6741778273525743, -0.19179418700164308, -0.24977264467837196, -0.6834029740158257, -0.3793726406143806, 0.7541602229310755, -1.0430784762924221, -1.3443291665640846, -3.8896140906569054, -9.049379222953519, -14.995738091710967, -20.24075616289376, -22.702694647413143, -7.257197998655229, 8.254331621645752, 13.242637668025472, -2.407092391720129, -8.491281062819091, -11.383387941603878, -5.489464655248201, -2.221695606564082, -0.3537885981543021, -3.7444920133872945, -3.8275498104692987, -3.226322789198888, -2.1389630294350033, -0.8964161740640979, 0.799930810814769, 0.7681430502836051, -0.7890380030125679, 0.01564245731410434, 0.7021727949133432, 0.21183905445534357, 0.29563261341065394, -1.5356565890727816, -4.75485182102713, -8.624332550384047, -18.30736245937371, -15.430760703218041, -24.56507405471344, -18.49770262949236, -10.739480241545904, 2.4937068679192973, 7.797685161770553, 0.08587503244870653, -11.273910353644094, -11.075562892095776, -11.994366137349582, 0.8631591963153167, -3.266420666040581, -5.171196970975693, -4.111722004688296, -3.0194452907528366, -0.9696986704040846, 0.27923554426823094, 0.9609636093197431, 0.9069763897916263, -0.1260072414850799, 0.5954934568596718, 0.5961358261151555, -0.2202576918631718, 1.1097278689490446, -1.0867026845008452, -5.355176606349918, -13.225175333182097, -22.83845065310163, -21.901138883776213, -26.531784488767133, -29.236404606769547, -22.4611259700567, -10.197527579539965, -2.177786627726432, -11.260747701677973, -17.203088110060747, -9.930816213859837, -8.29813581288231, -1.3549654496629053, -4.1095757057093625, -5.922658284291367, -4.713088791178349, -2.6903530764277317, -0.6805006537188342, 0.3089069802889684, -0.20123336753765578, -0.12992855745856158, 0.69043243364035, -0.7408781775609277, 0.3658619569292025, 0.5830144858660861, -0.27028235612767637, -2.9993200764307493, -6.454693925487984, -11.642256839180467, -23.251587051507798, -26.770118642688278, -31.324139737492516, -32.08191789761877, -31.234542667511295, -14.381278758021189, -8.743897118877936, -14.658954690271406, -15.767758579235432, -10.091486294516292, 0.5652047780466563, -4.98343002183916, -9.277397244105943, -6.290743674397336, -5.080063696063041, -2.3238429520480883, -0.8586066582622985, -0.8060824171067386, -0.7022609179514055, -0.5676549332672629, 0.540302584885676, -0.19502144725920267, 0.39679591726293273, -0.8766575955154386, -1.5109544039152416, -1.58585294331727, -4.732582123997941, -8.708488288815683, -11.37858541772961, -23.226229649524722, -35.088578758560814, -37.44486832777901, -23.24424626616876, -12.594484824805736, -11.542163638591836, -11.305603893911842, -17.750397797727317, -12.914412164247828, 2.7070260591592046, -4.319448791341754, -10.441522927571745, -7.120062309760425, -4.19623420370157, -1.8941887105398427, 0.3871196847305161, -0.9616326905611555, -0.4869667230626778, 0.2819665132347293, 0.6662477416246653, -0.5917161786908438, -0.29446475764225, -0.08669524484830246, -0.33754732036071533, -2.8776558823783223, -4.45026706572414, -6.421702836738705, -9.296451526257675, -14.852592642439488, -22.988891180871985, -22.460321087351232, -8.250557881205163, -0.28018842223838414, -6.479058407272266, -13.647894183654195, -21.259545023205426, -11.065322302763725, -2.2303242084698085, -4.070433698774957, -7.741849693510349, -4.676626705508395, -2.2318035303458412, -2.1612305599632404, -1.1302191531794, 0.13469389650886415, 0.05633180251084297, -0.6699671617576104, -0.005516490282210906, -0.8416232483560782, -0.7867835518339084, 1.465328558163751, 0.15698258090351863, -1.8520664447972246, -4.2434022359691586, -4.391599089607199, -6.901934184395795, -15.13996873001733, -17.63443628365704, -12.405218054012757, 1.1331220906560235, 4.925620767003984, -7.430957115440721, -14.091145445577176, -14.178546676583053, -5.092222770426261, -7.574851957142782, -8.120641343668769, -6.3168944444964, -3.620505855085476, -4.254585813220371, -3.764637882542777, 0.2612467078895207, 0.02517318674868698, -0.03776623355391483, 0.19253423287384364, 0.6632187888817322, 0.13770954029735982, 0.30949947621902973, 3.6750148077000877, 1.913567776995083, -3.224725788337379, -3.081991096200774, -3.4417172505031397, -9.704669215801337, -12.881971516196458, -9.650617835634877, -5.384432554631871, 8.075484762560546, 1.4837623976565677, -5.666033210175811, -10.348675310215913, -3.7667407891593747, -1.0252512501819988, -11.740828538527724, -10.759062283006347, -6.078134001629617, -2.7555250892882537, -5.575057133052027, -4.076706808113727, -0.15382911893083456, -2.033785631610551, 0.553991941570671, 0.36089663708385333, -0.9682241277187602, -0.7031724667815635, 0.44350052035813475, 2.0853658957358636, 1.650527448802633, -2.183858115540966, -4.213828580344473, -6.994527202862245, -12.735325544879398, -8.612541761350169, -5.190491152847292, -4.771336475593957, 9.531471079233937, -7.638731804661404, -11.682681307330318, -6.0748379785991125, -3.8031710544310156, -7.671782426982585, -15.25578325062907, -13.521559636160235, -8.922125355151893, -4.256587489105733, -6.186153236960686, -4.302537154225792, -1.4681424593445438, -0.2005202181794379, 0.15098601462506922, 0.26094545753182125, -0.11739244905721402, 0.08809835672656097, -0.4222076984707268, 1.1078217562144894, 2.0800316233510854, -1.547898658027018, -4.756059490405284, -5.202300687580444, -3.0737065060873454, -1.9817246781087103, -2.7322230673997527, -2.829254157662114, -2.5345178698868223, -12.497094215567595, -12.381212698735474, -7.709057818792396, 0.8117758263459476, -11.499938942492687, -16.51502784954543, -15.775479676288962, -12.076657183340412, -6.007262682834598, -6.3474856026591215, -4.368066166765525, -1.8698721219266885, -0.7389395389894029, 0.8712890135873103, -0.8300453725871708, 0.64884537942131, -0.23126049697666562, -0.45396553963149033, -1.221062872473558, 0.5832825630718831, -2.325800483453013, -4.576029511215348, -0.14105117183306765, 0.30682027693872305, 0.31993725191471334, -1.8541147605803585, -8.875371203001315, -9.992418060066392, -14.42904575224523, -11.046197651457298, 0.7942515081789612, 6.3617201504373275, -9.307480671582772, -16.125268426436467, -11.110085180660674, -7.483509622676349, -4.2650038607702925, -3.8039758324627595, -1.6403215073661632, 0.8261947904653802, 0.1772579393854347, 0.5883559176100523, -0.5449083026367045, 0.17827921734952, -0.06696317150243725, -0.8380940821943504, -0.19381531834024157, -1.3309156188092326, -1.3750784726914083, -5.156508286236475, 1.6125681627926547, 3.984605090258916, 4.1397128235573915, -2.6984205360896016, -12.009135048257583, -16.01752949235748, -13.187350651955544, -6.468683858541649, 7.73505913185082, 0.24669115761035323, -9.91796137666803, -8.482311964857566, -7.303445307051205, -3.6437737652800135, -3.3502206230243545, -2.062496429722278, -0.8861490137937246, 0.8880750810017926, -0.6138948445818565, 0.7825448550580583, -0.6340434321386925, -0.823329342013013, -0.8669650258188215, 0.8804928138260708, 0.13079722881131856, 0.5190814297327884, -1.556790721813754, -1.4725906262458135, 2.0600893184637337, 6.378806406370001, 4.511768252938881, -0.21849402375424337, -5.311117265796659, -15.174596902224003, -6.004182289093765, -3.2485477316921862, 6.272096459047628, -2.026967132742621, -4.629603314302877, -4.722917291377094, -4.97637451263441, -2.3872830868485604, -2.7090667766935566, -1.6333427303058767, 0.19182381492525213, -0.6787881759492719, -0.9382170756497255, 0.5514092443141965, 0.5203930863042929, -0.770528662894469, -0.7555838562603969, -0.3080543931000317, -0.15710661620910643, -0.05601028830869807, 0.0032089693086301005, -1.2868167441430718, -0.9120615481999076, -1.2083792350182874, -2.1559423549125714, -4.8952560846927335, -6.529429479086237, -13.192823210330403, -11.546156546810739, -5.062682441670758, 1.6600776775000048, -0.33460350532140176, -2.6651931881580673, -1.7763271532246359, -1.3935235396407488, -2.968725234413592, -2.295539334341798, -0.38970117985163977, 0.28319541246318497, 0.6674676855026529, -0.521481520523835, -0.24930597406530053, 0.35160873307698126, -0.16988047806832451, 0.48941154213809956, -0.21391237618740244, 0.6083790412921567, -0.9785262761753772, 0.08416380451451104, 1.8332114393028367, 2.712297813639481, 4.4256863981481525, 4.0596291640408735, 5.342240678218577, -1.7298549705207558, -10.337711718634122, -9.40499038131075, -5.261346793256552, 6.2234353491737044, 1.3883470978416113, -0.5536930292634892, -0.24925348508895506, -0.3313616560541984, -2.3772935390386802, -2.2072359830276005, -0.14205829777821627, -0.9967758293469626, 0.4620804277892264, 0.7742837507215095, 0.4806422203457199, -0.7147520075380136, -0.6340277572681532, -0.7580799328229606, -0.9827775085032993, 0.3251800708134828, -0.4471782324226471, 1.3935289383032794, 2.5157587553040135, 0.8893749344512424, 0.8659380391026715, 1.0642478581431762, 1.37036771552581, -2.914618147581466, -10.730097553231653, -10.114545107105718, -4.86994666131555, 4.678218096549462, 2.995162537900278, 0.5931530953864153, 1.2391999175947666, 0.18370713694776153, -1.0088216798567864, -1.3165711241585165, -0.5811261609553722, 0.9530555135236372, -0.27245222379739786, 0.506341974256703, 0.7265525787356846, -0.7531443916511482, 0.21491485041814062, -0.589800600738835, -0.6944842240808291, -0.08672645986502214, 0.18904805315265194, -0.1279170618127901, -0.7091664138781687, 0.20446131828601125, 0.9302657686813325, -0.00499562815633835, 0.014926846670045573, 0.9464594028298731, 0.5217884016747724, 0.4215785023672692, 0.39392306189031406, 0.4721527356079609, 0.21722128057896445, 2.1794146990208447, 0.4135201692872442, 0.07851617209344065, -0.33450875424115123, -0.6981754113150579, 0.7536155277107786, -0.9065457471653524, -0.4222480500777903, 0.7169300192308203, -0.4908675485956211, 0.7637117527052888]/-10.463641164414986
0,5:[-0.06830903160682156, -0.6307327543987058, -0.3409094195049829, -0.9334098092203256, 0.379714728680556, -0.6046692377610587, 0.2543597272122362, 0.3152038077699679, -0.019461019965916204, 0.6715789757756541, -0.3425122175916555, -0.4012079567137896, 0.45166053790206084, -0.1914777832926562, 0.5077085271892616, 0.2568889912442962, -0.42066044589192964, -0.9550896973982741, -0.4271588850327874, 0.8125407708912398, 0.6200397150071233, -0.8877542302836847, 0.40200649105305897, -0.4281020852877926, -0.00975948411421057, 0.15886091491229104, -0.6399496364446617, -0.12212242584193467, 0.4514777632368159, 0.5175701706273881, -0.9264471995685508, -0.09569363904388739, 0.07480367199470694, 0.3160065619832193, -0.7973606414149079, 0.4343503491198737, -0.2895553901572463, 0.9776889191329838, 0.6451886271935023, 0.8026651157086753, -0.8186361317907371, -0.7207769157709973, -0.021900668273709074, 0.148183125166699, -0.6484574690055717, -0.45902192037938216, 0.11927318287407723, 0.12885208092942335, -0.003909690789963394, -0.9746359541309988, -0.7705478324146484, -0.544910529491119, 0.21972208569806995, 0.7168795433761805, -0.7671684327389534, 0.05824710738509853, 0.2359940243020684, 0.3099843408761731, -0.35852140828955115, 0.35850745781045723, -0.24813387706887857, -0.7184719977784468, 0.9472247381620218, -0.76562458725787, -0.7803724068910645, -0.9416878386295343, -0.7201749374394263, -2.236351149023034, -2.37440025166744, -1.111933922284028, -0.9561500204119695, 0.32982537759463243, 0.5956237886094604, 0.550762302008008, 0.2879925074426587, 0.7484653933919558, -0.5067424242437917, 0.7199118590015787, 0.7964417303435931, 0.7298504449723531, -0.4462266085625473, -0.5269441488957696, -0.45337868251261515, 0.29754424583330685, 0.8348004232672035, -0.3609162919173434, 0.5121875843850814, 0.6536187377517892, 0.6145384244877168, 0.33834135064963716, -1.0414033901638002, -0.07529646464116913, -0.3133320735557258, -0.1697874162678262, -1.6137282949648315, -4.97264207870431, -4.876668545336654, -4.324531443806171, -2.323140111992559, -1.8493588172358275, -1.717016201451924, -2.9860844164283744, -0.038823206266945555, -0.41077493458350517, 0.3229152898069595, 0.7873774090422028, -0.3188889454985401, -0.39010644065776795, 0.4055846447964029, -0.7393346959090445, -0.15463204961661225, -0.06936122016101653, -0.16017581287953453, -0.5613411136782187, 0.7500339735729611, 0.3253622382222192, -0.9785738665803215, -0.048006996293967985, -0.49814031127179725, -0.6404366259257599, -0.009883405765320102, -1.3248349093822644, -3.5654990265773976, -5.839486070685689, -3.580985688023871, -3.492606095761253, -1.6489753338820712, -1.9816720846893334, -0.9676859632904762, 0.6144086243687841, 2.3270207297611623, 0.783344192060665, 0.22975490440085006, -1.491084187815526, -1.0320105422606256, 0.8208808893098064, 0.5515071605234031, 0.6083035907629144, -0.5892691665310787, -0.42165971313929806, -0.16880000154331887, 0.4588574324891459, -0.40099953268801514, 0.7982935343183569, 0.3827167191788584, 0.30014620055047875, -1.3216919398784988, 0.7562497360765138, -0.11464490057417473, -0.7770431866242609, -1.1384234140363267, -3.609582647109404, -1.1194063149942883, -0.11495626207444637, 3.0711687177649667, 6.206915340012735, 5.963515094372815, 7.0306618949417965, 6.861474820264299, 5.308424491199671, 3.002416585903604, -0.14197777872490436, -0.5053262601814631, -0.03972516080256689, -0.6014730022650029, 0.22245243904723094, 0.543937844102752, -0.9081447913912553, -0.4230886825541136, 0.5905064326476657, -0.5712526680901195, -0.23913992429443326, 0.85316922712223, 0.6231979290246652, -1.0197047676782498, 0.3480731842731569, -1.8089179023511999, -2.5167068771096157, -2.2708570584688044, -1.718589673279951, 2.1359073881338877, 9.705836156369475, 11.765013023894412, 11.22977267239931, 9.315771322509669, 10.066509666604269, 10.33373269978782, 6.717805358895533, 5.008159200220484, 3.2195711583325957, -0.835800347992066, -1.8716072254859326, -1.0891872120338428, -0.5049869511570492, 0.05841507511967666, -0.07495477458062894, -0.6377059533783163, 0.6979580178464663, -0.07274608871382844, 0.8898794282137837, -0.22965699186505126, -0.11525089964308297, 0.28657398381152155, 0.3117781391944935, 2.097399587995042, 1.625904071953682, 2.2800735698321555, 2.5340451539116713, 8.822260390777124, 14.659824103008667, 14.432994811904837, 13.073929321988466, 10.075758532275117, 9.876552393989433, 11.896655135168778, 7.73278540072865, 5.904886283737222, 6.8690239350785856, 2.520075736027961, -1.5454294642454056, -1.2465719608918633, -0.557562023143932, 0.6293618656969566, 0.8223553377357672, -0.70921887346145, -0.8619000495591002, 0.8606097197104349, 1.1467656495810474, 1.3017161485423967, 2.319423849200619, 4.8239017841967184, 4.6481652761759715, 4.853407351393888, 3.5626862203846676, 2.690392172954096, 6.354386007113371, 12.090205016856022, 16.882943093799874, 15.22711924550136, 13.160925970025026, 7.530394979450544, 10.570593293278977, 9.369265117815328, 7.21657063120521, 7.054255013437099, 6.771175027437282, 4.164351841876742, 0.27765815098540036, -0.4090124555766508, -0.13525051944248404, -0.18222180184753256, -0.8216506811584212, 0.11385975420969507, 0.05117527460083753, -0.4845515610187709, -0.23558738413532834, 0.19146989149981375, 3.6832258261349518, 4.581716715109527, 4.796107039678934, 4.9445645041371264, 0.7421303023824937, 1.0991490446907914, 4.91956636398055, 9.4393984689807, 11.094066241727557, 9.65530104962654, 7.1538193832224914, 7.689638227609375, 5.611365824367262, 8.320725138767436, 6.093206240929128, 1.8426432555567143, 5.604875190960115, 5.403667602876295, 2.227844662159609, -0.7896265336786634, -1.3711200044699114, 0.3385352339559681, -0.8926407391247464, -0.48780833311182037, 0.2670523666291911, -0.2906033532514629, -0.6008122057536667, 3.3187989594689773, 4.681870956587382, 3.913720622661926, 3.72061006202895, 1.7346185721700638, -0.4649780438535788, -4.808541618801368, -3.406370679884609, 5.155887802114655, 9.604589323839512, 8.387503517474023, 8.42605925191952, 8.62212169808272, 7.732906809609082, 7.319110890871287, 4.1761724779605585, 1.888689684931862, 4.72355371719661, 5.8336068058134, 3.087315338169126, 0.6165110249128228, 0.3255215761759589, 0.7013222533007306, 0.6831454375262898, -0.5348136560484478, -0.6499575161580048, 0.031477260788805, -0.5842466879087795, 0.44190295961325965, 4.748149986008046, 1.256938298668048, 1.0089937448831436, 0.9654645099407041, -2.5372459194128245, -4.4427135348618805, -3.9377986502685944, 3.0021242838136604, 6.040745392220183, 7.169879901901403, 8.903448653682398, 7.854598497420072, 6.103325338442104, 3.8556821744204144, 1.5780283427746222, 1.278794291757786, 3.4868692103275616, 3.5812293404188393, 3.7368551789418896, 4.296686206258521, 0.6195248449970556, 0.2212688626864622, -0.8603784280189053, 0.04682655456077045, -0.29576547030731576, -0.46616894856095, 0.8221752268282788, 1.3678180794920805, -0.0255024190487785, -0.3057169727675346, 2.557795275332247, 0.8224683082748511, -1.3883736767887986, -3.2345738414902554, -2.2869668989884078, 1.2699667734322284, 0.7989338487982718, 3.867806177192469, 5.4286560383607325, 3.761250179432284, 1.8777727151795551, 0.7802237755254805, -2.616028444121654, -1.785851576211652, -1.1117802041350362, 3.221336124619695, 5.315477215290921, 5.196045055269728, -0.028827354147845992, -0.9485497647304199, -0.2555480349946153, -0.10953901918305542, -0.6954933332503404, 0.5547798462895271, 0.450206030602008, 0.5731249652423345, -0.5376544283988814, 0.9140015850556282, 2.6670084647916537, 1.3646173976149034, -1.9576013960653211, -6.776171238612998, -3.4157013551836375, 0.631334947268032, 0.9163584632568776, 1.799078862444653, 5.35747092120207, 4.068421030328916, 2.2927171317914894, 2.2464783156427375, 0.3874705848773553, -3.0300930272436672, -4.304362147387871, 0.44796278886874336, 4.043330185464776, 3.6900464248546596, 0.641761205879444, -0.8433841631805304, -0.4774386181340531, 0.37824963706729453, -0.15478447919606797, 0.08523261793099392, 0.4749096075510844, -0.595179474033384, 0.44106828624116223, 2.464840741656537, 1.4747235385456339, 0.837210922654314, -3.9726626480198726, -6.583881680412505, -3.1557087668886634, 0.2290558424296454, 1.5901893612531754, 3.6729727917062904, 5.456036588361879, 7.471281751467685, 9.828647408111339, 7.025298426521041, 1.17722463847383, -3.104324751400472, -0.9335036563981247, 0.612472550425999, 2.6606323406267145, 2.6530350565208725, 0.35800712612012364, -0.303478904582571, -0.9918160245882497, 0.7134910210051102, 0.6585933134338686, -0.10987827650221037, -0.6957201447616754, 1.0928721482399375, 2.2190840138625694, 3.330772982025702, 3.5791413765054667, 0.5371443928481225, -1.9016150970147743, -1.416938007567252, -0.13840343951393175, 5.737404032300253, 6.319507805689389, 7.682138047938647, 7.948744896913962, 6.852465775162989, 8.060696015366206, 6.62196637297245, 4.313318154566111, 2.8402717875455537, 3.2297581069551686, 3.453858983166846, 1.5359793918694613, 0.5904594959097245, -0.6381241179128829, -0.08009298854783405, -0.017214593126126942, -0.2379736839295794, 0.6249217997810974, 0.6975025702306094, 0.2891951296614395, 0.9697644875846354, 2.569981227632958, 5.662726260457546, 5.365077146189895, -0.6750996378571391, -1.1435436933825853, -1.758542521123168, 1.8671336794481568, 7.190799386089044, 9.255083225883691, 10.150607148518635, 7.824317489283807, 6.624989251012582, 7.552572109502735, 7.637077800965393, 4.552884988567703, 7.832304943504022, 6.325401267954786, 5.555078284249958, 1.7926384498667989, 0.28698589443344474, 0.7490772922685458, -0.8450194589152505, 0.7173802793074715, 0.732230646816951, 0.2310700421667915, -0.5235109980886408, 0.9544382632855456, 0.0432721514711836, 2.5953375147338926, 4.2111444225821, 5.146021533039878, -0.29200801025156575, -3.8999868573946523, -3.037792316870751, -0.6450369230086587, -0.8305315873627339, 7.096149757870245, 8.967160406924162, 6.464340981919459, 6.486252665726458, 6.248125182264572, 6.4854304548681965, 4.7763610389046125, 4.3374086963024565, 1.269945707140001, 0.5568824497492444, -0.6923122234719767, -1.0464638092432221, 0.5857471981136612, 0.8916147434707092, 0.25520003036882394, -0.3316001038361398, 0.3353498567498585, -0.03199616576248596, 0.033637537029399235, -0.05719208352158013, 2.775955273902727, 4.444642162390152, 2.807537239308286, -1.5307379640277172, -6.842675786085634, -7.375489397990748, -7.123788580871235, -1.5424468394056554, 3.9714195276747035, 5.155349601371114, 2.7835038972768458, 4.680544783919609, 4.819040456018196, 6.451096672664294, 4.546546359680766, -1.6553474558194323, -3.2973307457608683, -3.4781278991217413, -2.3287235762714706, -0.4090676345722717, 0.46446551040986, -0.15440002469772524, -0.7424271580704901, 0.9094228116006287, -0.9463973702235828, -0.8173771132638837, -0.05545243100579845, 0.03071139167814741, 5.21695128342896, 5.906223374957475, 1.861028839333735, 0.9650651203519334, -3.1144309049176795, -2.713885978290154, -2.203508242560116, -0.6409670821355922, 5.287942781890555, 3.325984490387269, 2.878629737819495, 5.022939926849896, 2.355638919345664, 0.15871390654351714, 0.9453668117897109, -3.8446847896021654, -4.9509292736180575, -1.4285462702577438, -2.2377043943548993, -0.3228342914362127, 0.8430714472182501, 0.8891959809261308, -0.7580944128852536, 0.5281781218039652, 0.7814212496154203, 0.1858246818937348, 0.2301768044477624, 0.2986409619146033, 2.1186404376620427, 4.40422814820444, 1.5277657622088339, 0.7670444232386369, 0.9103631233725578, 2.010586074078058, 3.815309727762237, 0.44436939735621467, 4.096895227366082, 5.382060118155361, 5.398547848204893, 5.492786024344576, 1.4018291725419154, -1.323470877229626, -4.009416310700965, -6.374119135314472, -2.2296849349926533, -1.3468657826012889, -0.1953380385363303, -0.7884987074654125, 0.8019859830119144, -0.43507039096147654, 0.3719706737031101, 0.5695954288773124, 0.2262301857278477, 0.9882219779318976, -0.18530608671768403, -0.7128326787342908, 0.617717961950359, 4.182889969845766, 4.1510211524218334, 4.530911631308311, 6.029320376938559, 4.996709982516244, 5.326382091613884, 3.8273637581884246, 6.669629276045648, 6.40420132226272, 5.554530000584878, 5.728574473235099, -2.9009454515655806, -4.782744509760222, -1.703114519623491, -0.24633393248574176, 0.8760149079738088, -0.6040586137267501, 0.17236521270173943, -1.1890301277937076, -1.0786308279144632, -0.1644022268374471, -0.19177430453248512, -0.3396103994602815, 0.8253560756315372, 0.20167292200687212, -0.7828600823975711, -0.5397117200390645, -0.003960214290751925, 2.4014479728506646, 5.092498593286949, 4.165309558586884, 9.11750157268667, 9.133767745600053, 7.619483327280501, 6.6645718543897345, 10.966769109351997, 10.5510420149476, 9.428948261016355, 7.691054058946698, 2.0252180658876004, 0.8056728800731217, 0.7263047725108435, 0.37291345751081745, 0.44837507399638366, -0.6101510318773391, -0.8284541135896047, 0.014983508749484375, -0.7246762419699251, 0.6622418949411487, 0.7079455889002766, 0.16652829090830812, -0.49748483301375535, -0.6328257318343634, 0.2809657873957386, 1.021276647305528, 0.6809799333458326, 2.402771140880511, 4.316251278275914, 4.843080018878576, 7.316891156709646, 5.596055397714215, 6.036737082986491, 3.4862508396178735, 9.142058866404774, 9.223571959251853, 7.838225455632615, 5.794361921244024, 3.379928680205586, 1.2717542573755891, -0.3605322402980545, -1.128533428133131, 0.6506098177974632, 0.1234055379381915, 0.38037691620276387, 0.8156974151274472, -0.8140343727927848, 0.6425859239357756, 0.7297641277122078, -0.6865758044217929, -0.18268747139069474, 0.27087511696900113, 0.23957970899682585, -0.26547264991168124, 0.03414916565648368, -0.11560822708025416, 0.4284025853806624, -0.17262106489856474, 0.9255182110232191, 3.5578214426955617, 4.699939059069184, 3.915593902794845, 5.266516566580435, 6.11483660850563, 6.2176646343191475, 2.904444537180201, 0.7151813697966481, -0.6712434785911583, -1.1703259003728204, -0.3304355149340363, 0.566582236101082, -0.3110466779718996, -0.8723549283735229, 0.1256560263147984, 0.31233485370192327, -0.14798355847823697, -0.612195358865576, 0.6773254677995482, -0.4097951072394579, 0.9528181475660675, 0.7456906419907594, -0.37434278086947614, -0.6349629971053321, -1.0063183442607848, -0.5367435731882912, -0.8301348059459553, -0.07820336410033951, -0.2533726352085653, 2.042287644636112, 1.5510096369782724, 1.1185505701823728, 4.214515530185928, 2.3500330774165614, -0.503745350555912, 0.38039325918110145, -0.47574646306917406, 0.6572712826024499, -0.38706562995827903, 0.023112278347483733, 0.7183573758024848, 0.04239269656725016, -0.0938420238268882, 0.565814367088896, -0.8340459728011456, -0.7844100993905001, 0.5415209823203344, -0.5009239218733739, -0.5770387710821296, -0.547597800295067, -0.35893915230291545, 0.2980326828223843, -0.4849895073834949, 0.830694733959073, 1.089894038555459, 1.5883373554634574, 0.6506813705097414, 1.675430659571187, -0.2593412536968048, -0.36189183955313664, 1.217475132154529, 0.08308046317174783, 0.7645036382579476, 0.19643874493812766, -0.4790133982921577, -0.16213857864453948, 1.0155203202070542, 0.492891812740891, -0.967597309518907, -0.3937749684154995, 0.6627837865507777, 0.965362055732127, -0.136576242274971, -0.8921933702117533, -0.6178454640182995, 0.9314735022089422, -0.24086290477196148, -0.6553395887950773, -0.6610540001545435, 0.7547775130021097, 0.8770586870672031, 0.5235923476040767, -0.5285674060336658, 0.994121795266631, -0.5763131760463778, 0.47492909086057, -0.36489376951870883, -0.27314139939771037, -0.08003771207756423, -0.08943922556878714, 1.2452154223049245, -0.42773446184628355, -0.6425103770690596, 0.5671135455609897, -0.2065035175922023, 0.3229232201117936, 0.4993470553652764, -0.1738961738822058, -0.21281212127100257, 0.32694727954407243, 0.8456489726041785, -0.2743300994691509]/10.558100455127034
