Lh,16
0,0:[0.45367352003263317, -0.4126143549155554, 0.26272825289023416, 0.6215158150229942, -0.660955484729203, -0.2067199872925798, -0.8961263683422998, -0.059220434758737506, 0.8156739783709033, 0.9558432839118134, -0.42300811642053526, -0.9164746442144487, 0.27670010675221035, -0.8817296629131679, 0.4157955321085589, -0.49914984527138073, -0.7724160262618529, -0.41348681688102973, 0.11785120913556302, -0.3580915613973432, 0.010289200240876095, 0.36670194983324356, 0.8334690959260009, 0.852935607896663, 0.1394773854167386, -0.8714586979845766, 0.3647036089692073, 0.5457269247957681, 0.17987536885493283, -0.8607799774060241, -0.8329173500022529, -0.16433424247684303, -0.030223211733062083, 0.48659058727537996, -0.8500532408785968, -0.8733142429847245, 0.36300230107235776, -0.6671574828172846, -0.4842194470176144, -0.17801707072254103, 0.8973582192251188, 0.9226432350081611, -0.5943915421278518, 0.7240858377736311, 0.7477895668122869, 0.5748605834921984, 0.751160472551859, 0.07003613417812882, -0.7396692917030452, -0.22435370396224386, 0.7601239185718403, -0.6436457062978702, 0.8519011950792632, 0.6895950116200484, -0.3254194919171014, 0.3351127600547965, -0.39920073991948946, 0.888790438062466, -0.03518365473212581, 0.7254262604023403, -0.44462031600525775, 0.7767724163392813, -0.5547393147258455, -0.14199512252017432, 0.3696146693315092, 0.01099794046465763, -0.01293012977967978, 0.5091847740790018, 0.17693451026087612, -0.8266809731796951, 0.23935084283889363, 0.8033378963281946, -0.11146487198591706, 0.5753880039410787, 0.7821657260778244, -0.26089701027318263, 0.2471493994129345, -0.8829143035497075, 0.22298094732509946, 0.011331790814510516, 0.9968742534518464, -0.24965319996899482, -0.5812677189719839, 0.4770547066704518, -0.9625206167872233, -0.9930355313617929, 0.4118536023761876, -0.13716282182432304, -0.4926344246822312, 0.8517262789315003, 0.7892915621455218, -0.035767163790967595, 0.13254187320549074, 0.9374617250159467, -0.1504146979431933, -0.7240606592282004, -0.5019979712953616, 0.43880738805466096, -0.013260168215961998, 0.28368295958449485, -0.39817089296610253, -0.6372369396709625, 0.6220344658751933, -0.09481738809081189, -0.8017526641627126, -0.8575557401417723, 0.25659179022144346, 0.7903265707288055, -0.09601844790316272, -0.16508236290577627, -0.3990067271479689, 0.5993698620159971, 0.2186376474613163, 0.8301608477983191, -0.05541417519762715, 0.9225931502418065, 0.5372968470676488, -0.4183065603696711, 0.10571548009692973, 0.6392707653126657, -0.7869494367213765, -0.021578024027370517, 0.7103215953733019, 0.8274440350924426, -0.7817775609396937, -0.7489208820367733, 0.6465989551695049, 0.08551065836945773, 0.060753931001300956, -0.7169193285627949, -0.6108304764393835, 0.7198002035708101, -0.14604161490127182, -0.4465353404039094, -0.5047949565883335, -0.4061703589922261, -0.522570140757376, 0.5888112236986489, -0.06824467213068197, -0.19676381304971868, -0.3741399367956122, -0.666443515699304, 0.14735576700389008, -0.1637933602172718, -0.2613996563650215, -0.18079402110413234, -0.13754257657897775, 0.9322653681465988, -0.7974322545463502, 0.6841089453722187, 0.5800132747604114, 0.25333005214800036, 0.5138815562222593, 0.5133851927961592, -0.17998679957099653, 0.7306601917049671, 0.3523309198664282, 0.5239517193433527, 0.6895174156790693, -0.9047195635379772, -0.6170679967532671, -0.13485564840206468, -0.19217595468408444, 0.31429986035214746, -0.8740711488284353, 0.3049989049019764, 0.15591878967443862, 0.3502576433504663, -0.7765906922511299, 0.9911548205863245, 0.1862404820624619, 0.7637945106908791, -0.7200973117305006, 0.5424831413464049, -0.7423412466006452, -0.15994350790760978, -0.9877842030826472, 0.7159020546929842, -0.06614660433723026, 0.760779564086111, -0.026691005299761553, 0.04208814774593821, 0.1363382100444097, -0.1064780484446725, -0.898160845767457, 0.24194327320925177, 0.7551069123298247, -0.007477954838073203, -0.06724117309987608, 0.3993341126133385, 0.4923670580999733, 0.010188831105123253, 0.413382975435612, 0.19009632641802812, -0.7580687417367403, 0.5512671993936925, -0.8829401370693659, 0.283640851969861, 0.09786777740630938, 0.5671631958429441, -0.1253435914469945, 0.08085323879020034, -0.4189857390713332, -0.9377654600155956, -0.13917860476079982, -0.6836760344144838, -0.5583383926334236, 0.716383460535631, -0.3376214280869426, 0.7519883918543807, 0.6856594616595438, 0.8545942985531276, 1.0119977599959509, -0.0680680293479111, 0.40459778061379, -0.7289870776963314, 0.7758271408437593, -0.023825422519530032, 0.5472237311782315, 0.8956805523072282, 0.8864647976193721, 0.37659834197778913, -0.7964722544199125, -0.31858244084106874, -0.7883496717208225, 0.7027402236201721, 0.9360736267390305, -0.4330958362372265, -0.5808606947113997, -0.9699497296535157, -0.7116177753168875, 0.6661665035174767, -0.6932176127838072, 0.3532074604934402, 0.8198327388903734, 0.13385314791729475, -0.26537226826885235, 0.833418362014407, 0.7038337548711904, 0.10228463298222981, 0.5964778016139056, 0.15560010512798056, -0.3398717909888213, -0.8962126026610557, -0.927069939672231, 0.8221088365250903, 0.1863115137314192, 0.6109195185149111, -0.8301371856596863, 0.23147635098738772, -0.9724487411590184, -0.39368344842876146, 0.3598133108561372, -0.8208023112703551, -0.31809979509873393, 0.5716185127045962, -0.35000575338536527, 0.25570557039630604, 0.5556872756054149, 0.6611894578176586, -0.7169807174589463, 0.771641339063672, 0.8176368789816346, -0.8327917440185589, -0.002440707105606931, -0.15856827172387272, -0.7755985245086084, -0.3956283292792684, 0.8716846041488818, -0.757026947091902, -0.7401905508658465, 0.9482891797064305, -0.41265533131631316, -0.6492763035045988, 0.6964460311153162, -0.5717030780000965, 0.7549993587771415, 0.7161529694627724, -0.7353616127175211, 0.5420845119119775, -0.6289854340352394, -0.5824977008166129, -0.406643224768475, -0.9542570760194936, -0.11931331409809341, 0.9104783448655726, 0.42884157010736795, -0.13006885976425134, -0.5403807649441061, 0.16576341969622704, -0.16295730411381407, 0.2525845900222428, -0.9552749157359707, 0.7806422320703218, 0.7056316507963117, -0.9941570837450362, -0.11734481019407421, -0.4604917230605775, -0.10607225205351345, 0.00018572992834592765, 0.27538942823634405, -0.6230525898085141, 0.31499269114155354, 0.14266329027340455, 0.1550719066365427, -0.9547289535635852, -0.24048775587145402, -0.5839892407065828, 0.5730002528750957, -0.007683119829714258, -0.0024515233754918465, -0.7239304790430211, -0.8346431492346759, 0.9466323375984426, -0.20647314335926936, 0.24467912455153978, 0.5429243858337427, -0.9755925953931153, -0.4538057793215637, 0.9033903218228634, 0.36348252595273445, -0.37399383456040025, -0.8093044128542546, 0.9761666916050696, 0.09410398693495373, 0.7494506075389316, 0.9074398623841293, 0.7381261530752357, -0.937377531509317, -0.6479014812671368, -0.17593553031023718, 0.7223461266344462, 0.055998574839178486, 0.7411492890454624, -0.7224352528074006, 0.6809845901533174, -0.3178490527244493, -0.7907137829533639, -0.7059107526051419, 0.7082687413801356, 0.5373668143401009, -0.9965907215459827, 0.12505642236943057, -0.2409427107908149, 0.7868835224478332, 0.8827229705607585, -0.6776573455965486, -0.9386716253559819, 0.430219955068167, 0.19452330479677116, -0.6263211708944562, -0.9377353599694614, -0.2771545569922324, -0.8802108196712588, -0.8031780622859396, 0.5886753178581703, -0.5809103888375836, 0.027569741172321492, -0.9828578213977409, 0.1375047924803204, 0.29262686377694247, 0.8640661077618963, 0.691202374566042, -0.5609173769472691, -0.49177159435736617, -0.2917273379876446, 0.8394563937994872, -0.6368996006305987, -0.7129670091067782, 0.26376604188770747, -0.7964533269456877, 0.8598845261487074, -0.8479959978536152, 0.8452221567438094, 0.29041438582284007, 0.02486195741282976, 1.0116289462889374, 0.7502749713115499, -0.5148164361561555, 0.8500226955666764, -0.17664979130153868, 0.5871658648330348, 0.41110638874227845, -0.7998288534182539, 0.08731415254504092, -0.1545101526374267, 0.31204287136491804, 0.4831533369172463, -0.01703175509525774, 0.40448054868848204, -0.9691592693546319, -0.8836006187605794, 0.39834174480167617, 0.7640791086769827, -0.5577346138831085, 0.9254450081668245, 0.7992856868216635, -0.6839190610761762, 0.6162268889017126, -0.19188050112399674, 0.9552323286265773, -0.2692576203209413, 0.20186328720784205, 0.2145901098842327, -0.30191129078991447, -0.28684702913545657, 0.46620778476264874, 0.8450575007867548, -0.05531817162702581, -0.15365049946833842, -0.9604835214345634, 0.5088683948079236, -0.683544176439662, 0.14471987470013475, 0.45641635904090067, 0.015515845180614099, 0.546939762009012, -0.3493408704347429, 0.9124390156766008, -0.4281996922924376, -0.11481184311825232, 0.06522917244684745, -0.08958583895775774, -0.450851544513642, -0.16861119313987488, -0.5498884552793604, 1.0128255964436341, 0.1183395503807257, -0.456445727634479, -0.37004541530264523, 0.4700659624215278, -0.6118776164178691, -0.1460332874828529, 0.0009647634360423182, -0.7703169850514967, -0.11612182821579897, 0.08829052067352906, -0.7789815710048796, -0.4471189800513061, 0.7994837381734832, 0.8981311376779586, -0.017157661956900758, 0.6892992856487027, -0.21236926843129347, 0.6314577430439664, -0.6513873825219645, -0.17380509230935723, 0.6647474829939957, 0.4596608229920838, 0.012009494945969479, 0.7259264877547783, 0.4703591112872105, -0.6520703657287302, -0.8316930656823125, -0.4226368814488877, 0.024636195194062734, 0.9355468263559416, 0.48606357024704244, -0.4702666448023365, -0.0015755272433268738, 0.7782648189503797, 0.49899789182021825, 0.487244856611186, 0.8127283150117971, 0.5106903191386123, 0.347587298606334, 0.618187703921998, 0.6475918099972561, -0.5810703996966817, 0.3754338544004644, 0.21690782168900347, 0.20218863824280056, 0.07672773011899736, 0.7069993760324964, -0.2097436375291771, 0.8187063442956461, -0.910721473051459, 0.9507079617999101, 0.9180668611917769, -0.3583294905906207, -0.41390986991685275, 0.056061027773274735, -0.3196189682159948, 0.06491778730938041, 0.972446723083197, -0.8511199701552477, -0.07208131766955181, 0.6614738867950952, 0.43664553457359323, 0.7072046297229703, 0.576569442489597, 0.9812429190805995, -0.49007189361415404, -0.9190745422433959, -0.2281378556495843, 0.40030374261370155, -0.5735794071808419, -0.4930549690052065, -0.7987945838784504, 0.13291207272473657, -0.8949411596985153, -0.9934939537819979, 0.2426636475275914, -0.6343244500461951, -0.5907046891102725, -0.5325628682402106, -0.8141860824793388, -0.8018833927515125, 0.1932328907591271, 0.7016090533890372, 0.21018835809698458, -0.550603729436886, -0.3793838755778761, -0.05207863794950417, 0.9626490964271169, -0.5335639084481737, -0.22739241354413114, -0.5177352230577454, 0.1607610750593721, -0.15495080677563322, -0.6219506577028457, -0.9489366532563778, 0.29109688107951187, -0.6604992980519756, 0.8070550075680645, -0.7266541583685626, -0.040470992662263595, 0.5175058091939416, -0.30409467753908165, -0.2900531683787875, -0.002067535090643391, -0.4578288684391494, 0.6963556583998032, -0.2153558181152011, 0.3575553443756197, -0.5498361897166691, 0.3142434163654019, 0.013578267201037223, 0.9693642955067805, 0.2617630621783075, 0.6012069945144759, -0.3623650468012783, 0.9952874115421969, -0.48734393973126533, -0.5025479106800028, 0.8383638871415453, 0.05985550432354671, 0.5625479214964367, 0.5953446447167093, 0.2900523093864009, 0.07588175873842065, -0.5910423977126462, -0.8411992520675754, -0.34324757887825397, 0.0039280634383525624, -0.19829211760341084, 0.8701557046855823, -0.15170025146135757, -0.4016998915756642, -0.750683571722701, 0.0018589464020128954, 0.7330134744344141, 0.6037982235166447, -0.29563396052455815, -0.3337339648209443, 0.2294529317157626, 0.4861013628268022, 0.5418047288725338, 0.7428981512074984, -0.808162949059064, 0.5128176045485314, 0.30248998079993006, 0.9499892455507722, -0.7927172292057764, -0.3692114853397596, 0.8287375459011364, 0.604645093829648, -0.924196207844685, -0.16767873261080476, 0.542610538546311, -0.300320837647334, 0.8857323334735712, -0.9663539312696027, 0.49491807944777483, -0.4810099053999771, -0.43304830995974497, 0.6189061552145223, -0.5451691702184109, 0.5263622798023091, 0.4957692777883784, -0.09286299777045486, -0.5292912288232925, -0.3693435141268244, -0.7790696670175452, -0.6701137964984885, 0.4408551425336329, 0.946883021470108, -0.42268735215857406, 0.6744656898895819, 0.1002217755610655, -0.6858865868036497, 0.5259869718167718, -0.45833766397037434, -0.7098231927683711, -0.602084546232965, -0.5855698757834723, -0.0017017383233900614, 0.5865120848864153, -0.6891561142782894, 0.7436734009236184, -0.49483678084867266, -0.03282446899323616, 0.6727204304955335, -0.4322527378631268, 0.17985716376968047, -0.6559139544000745, 0.8834148220639126, -0.645033522973053, -0.18190026007382626, -0.027792209226361612, 0.3074169939627401, 0.10850760585945633, -0.42272053306582585, -0.004900997964045296, 0.3287898920270059, -0.5707445399981715, 0.9799714471600008, -0.4221325867554962, -0.17614680042208844, 0.09149500572249389, 0.44830011647179824, 0.6025796532437343, 0.9645090079966561, -0.5049658131990337, 0.022865095459482114, -0.6870210091714913, 0.6109733625025816, -0.8175700128026616, -0.19128867066858876, -0.10151336500991759, -0.6310237277081887, 0.6664082244326225, -0.01805384054078388, 0.8641181022108566, -0.643219776586933, -0.8804364498630128, -0.32647382709153444, 0.7455282870017228, 0.8705506112336393, 0.26415057366687483, -0.8439443813630074, 0.6147075879366235, -0.08876514081311805, 0.5311894376026283, 0.9370369181925172, -0.12665981228305684, 0.261658565571292, -0.3255922810936581, 0.3532235003664009, 0.8617851246161543, 0.4899960115896173, 0.24479288330816623, 0.6514519727327971, -0.769393877080613, -0.679142161274646, -0.12468784070761792, -0.5767842861990117, -0.3440259916328453, -0.173670741014234, -0.590600002990392, 0.6208780538022025, 0.20129300156626728, -0.9692783582785787, 0.8329390436429254, -0.7323377515003033, 0.28972146262209775, -0.12584330374095656, -0.2846665036693995, 0.876700796230636, -0.3944756452844272, -0.9110550177371213, -0.21485482373852452, -0.776044139037078, 0.9020980393226089, -0.18462329245601747, -0.2808620533280599, -0.14186291456079447, -0.21345959357022978, -0.09217497772879114, -0.14244679980413613, -0.3863451283348567, 0.9732417135531303, -0.22151957873642755, -0.33088607960052235, 0.9662617939573618, -0.052239856764090035, 0.022514340156736583, 0.9495645048678982, -0.9452425691149473, 0.11341061713002198, -0.8394374425177344, -0.46966206489775186, -0.9377750447865216, 0.7387845726333415, 0.9129343926547403, 0.93217962095348, 0.2520677952258025, -0.3239576378306576, -0.27347080853234895, -0.19829790369571856, 0.18036163931239232, 0.2841113875781663, -0.07871037224677939, -0.6424215770282433, -0.594257655187963, 0.6248612874842675, 0.6386065778192972, -0.06596027741448798, -0.6860366669295612, -0.20367427260973456, -0.1610727250554348, 0.5295664570848337, -0.27353367660267314, -0.8752855280319738, 0.4324769731890431, 0.6624807804551767, 0.8579601522605367, -0.7839841906388674, 0.6044186313632116, -0.056804391976166047, 0.6595860277093286, -0.1589631644011588, 0.40678994770756044, 0.3827218512258788, -0.049608984232411425, -0.502251925749816, 0.7774985822372897, 0.5741251535416894, 0.7783413211061996, 0.7872469152596637, -1.0005972762883728, -0.9727206423501107, 0.20868179415184213, 0.782221293755981, 0.07524337144888042, 0.6909355118723578, -0.07645708610125504, 0.3409596548417658, 0.7718831606269475, -0.1932765657473576, 0.7160185341041139, 0.5336790388540695, -0.673623767157888, -0.26785061833817303, -0.846752126502125, 0.05490616238612156, 0.9262484957070258, 0.9117590079509825, -0.3996737203648386, -0.08847159156436435, -0.6921851711461697, 0.4295771841010954, -0.04262547385706687, 0.9926130177116982, 0.05775764469861404, 0.26350234790272536, 0.5750058935774339, -0.9180148959584433, 0.8338104025059131, -0.7817858700267851, -0.5695209835674202, -0.626375745001256, -0.7523174858996825, -0.6011009139501641, 0.13786878977668024, -0.0005757563421849834, -0.4272092246029833, -0.9642564429297047, -0.19136019487886502, -0.8782687393303006, -0.8056287183850799, 0.13288431910192733, 0.8460136076467235, -0.5328488911515312]/1.1156426781555653
0,1:[0.15758182182932545, -0.9698746974513417, 0.7519891263257523, 0.1084668472572865, -0.0007907747080004857, 0.2553819477972392, 0.026655277973299585, 0.5899037477254254, -0.3598669252270801, 0.3191434012085035, -0.3442499475839833, 0.03387122484406624, 0.8328601317236233, -0.8891967983674331, 0.9610933668104376, 0.16189922499785991, -0.7555492439766609, 0.7011717293807846, 0.4104324127320824, 0.4240073112930063, 0.24022399151405693, 0.12091388371147183, 0.3287367761243585, -0.7779262960554578, -0.4606534929261985, 0.008392196957714315, 0.03787165690161953, 0.7121742593384814, -0.2756415474553453, -0.19281255707867562, 0.4182149090525964, -0.45498122612159686, -0.022634107074240628, -0.5073561914813522, -0.5946727714217392, -0.16483363151986952, 0.8739224743598693, 0.4966888302878636, -0.8894285064310983, -0.32679166065235565, -0.15298429551224468, 0.8011232962957009, 0.11832184533138924, -0.8319165197108485, 0.9029512980109836, 0.8790096757672504, 0.6558815850617292, 0.971580502620327, 0.5530386433669259, 0.6572123422420284, -0.017972532941018526, 0.44758146016876954, 0.3912887734597894, -0.5136098186358609, 0.7457813082416827, 0.11082976237145226, -0.45174536120171505, 0.9380496269381695, 0.7293951226282176, -0.5395244267707506, 0.8029419433026206, 0.6210840289138821, -0.5713267229918524, -0.1517324840076688, 0.23130115720692146, 0.21006734257118653, 0.23211579698095264, 0.07754866104735814, 0.48891528448112126, -0.7420103045586056, 0.525637934321956, 0.9397225982714865, -0.16872217205005563, 0.8859218786148426, 0.5759145225517327, 0.7778005828889505, 0.5594691781528038, 0.8528199025653569, -0.142341371799377, 0.7865975995049387, -0.03558318322855181, 0.9627565907806066, 0.07664771692565409, -0.9674432167054836, 0.8702694676557448, 0.49863759674668073, 0.36684183666563275, 0.7366600462720965, 0.5027778279991326, -0.13466696219661478, 0.7222628415348215, -0.3700232629545435, -0.7002827488199733, -0.9210825376128668, 0.6332900197782485, 0.7475488810795803, -0.3362761877378972, -0.5688027062032163, 0.2800852961200951, -0.8634425227379374, -0.43589663471840234, -0.9771051432931291, 0.36723362556370515, 0.07405127221510076, -0.3199132868814957, 0.6492390377987294, -0.8396702028413624, 0.4003541120797068, 0.25778226031412754, -0.43616507782086256, 0.6954517780275551, 0.9487197123727658, -0.9417482131706327, 0.3747841606336706, 0.9076457343432454, 0.4352769710855624, 0.8887112349106222, -0.53009813184144, -0.6844669201950149, -0.15705903673885152, 0.32753593746278953, 0.08935029945887402, -0.15488477817425622, 0.9422900647607685, -0.8275838487012461, 0.8353219862304437, 0.5602192199141398, 0.46601318715064094, -0.10545703569209329, -0.6711661429065371, -0.38829538575768396, 0.2847589969722216, 0.28521419676076837, -0.631251975152232, -0.21033469196895277, 0.2678191586210156, 0.44692940048974933, 0.46394821126061836, 0.7133984691498376, -0.51051398755471, -0.4743079412990505, -0.10175368499293858, -0.8184100420525695, 0.1002776727502611, -0.9408314572512898, -0.4030331454724403, -0.9607210420059225, 0.5430864427312775, 0.7879379298546019, 0.3268346820726202, 0.5492818586002514, 0.8168227558933456, 0.45165757851109206, -0.7189527958443538, 1.000197523839746, 0.30257465411909473, 0.5342131781044728, 0.21001492639642522, 0.062311928446141876, -0.18472121245089132, -0.415342533380649, 0.7168819668301197, 0.5003718984602101, 0.0417141459616672, 0.6484147200016627, -0.016075837285743556, 0.564881726089358, 0.47974682110988787, -0.2436244465800601, -0.3555978437635714, 0.5439438456751398, -0.3716386775553184, 0.6284834926312719, -0.6112132157668687, -0.7071417463551316, 0.6244202658654899, 0.3479018857656362, -0.6628481972313749, -0.8081102050404904, -0.7568134825578405, 0.6924277633594991, -0.8785122887226087, -0.2033876616949047, 0.3693452046556259, 0.933846356750624, 0.07515320127624775, 0.5170626368793624, -0.31384532064577464, 0.4492260771995555, 0.6332324173083952, 0.5611045218779802, 0.452404563451411, 0.685886406482164, -0.8157598946603163, 0.26202657506832266, 0.43188669993838646, 0.38774785203325357, 0.7032729403820337, 0.7427016667429074, -0.9629458882787792, -0.035763086239909196, -0.7426613273853931, -0.06165855385234939, 0.15080869316497514, 0.6631815254962417, 0.65572394350598, -0.22652523236846792, -0.38071816107839807, 0.2741477297955854, -0.31388500107307654, -0.6376639965720322, -0.31762845163927167, -0.8023211199281228, 0.31290876210819063, 0.03042059575786178, 0.1614745085540222, 0.6854963438001472, 0.43902576692507667, -0.6182970940674667, 0.9526013190515883, -0.49421754580524613, -0.0959835738759978, 0.1001632530448672, 0.06842972832810983, -0.13823934461807807, 0.37196754687108546, 0.8759821431687649, -0.7956881475283121, -0.2998777809350354, 0.9117893567167631, 0.23995824430056314, -0.7779697579121015, -0.9308928647956882, 0.3801291221192909, -0.05564849804095334, 0.48974211668482387, 0.33019750220697736, -0.22681305323098944, 0.39107099388462174, 0.42597101457422876, -0.16535800949872195, 0.8996911228220358, 0.30431469159664604, 0.32133036011135735, -0.3248768411944677, -0.11856942465563713, -0.6443036971397954, 0.9994260804378757, -0.8236259490521132, -0.7310758737212021, 0.7487338783728666, 0.2722420353825965, -0.24823035946444105, 0.6555765374464292, 0.3980324756652926, -0.5672834643218674, 0.5457285476690865, -0.26324246469361456, 0.15941397043854225, -0.2753884927293434, -0.8137671358914195, -0.5629034128628443, 0.5983302929827197, 0.2627205596359291, -0.6935159467518303, -0.3541354445679351, 0.1267857155417996, 1.04819878841102, -0.9260772842063886, 0.2787633814182936, 0.40662214274831804, -0.17905984856617202, 0.3048971662967515, -0.8752923613327994, -0.2933884638460313, 0.7139114011528561, -0.4191023045552512, -0.07222065079981463, -0.44839059823483723, -0.963743347308458, 0.11101658241831114, 0.01987871092285199, -0.2403216292848614, 0.867948484204875, -0.45275612323754005, -0.8984611477701379, -0.03915810220573632, 1.0062604092207188, 0.7097961463174354, -0.039373773029506544, 0.9677249676314352, 0.3546958303624354, 0.26665806614081583, -0.2625530300210936, 0.23610459180532228, 0.889697292321157, -0.45719848186766376, 0.3870212935776742, -0.14598120909180795, -0.5561770537705492, 0.05992330344720218, -0.7979819586553677, 0.17378106794055362, 0.9955039489301074, 0.7376757945025444, 0.7909888521433517, -0.4403026307334513, 0.5686193183757298, -0.786721313298081, 0.8911753914112412, -0.03054172747151165, -0.5321967980181449, -0.44658603337164315, 0.124339576968523, -0.62054787583352, 0.8690049080313905, 0.43998704652575005, -0.0557710239020075, -0.39598738918675513, 0.58428954555622, -0.09350081493153548, 0.5702671606273982, -0.866646534523191, -0.19935568900927478, 0.4837313450936384, 1.0163689158487605, 0.2655211682235098, 0.33537548749579277, -0.3505345231531039, 0.005638120826168249, 0.6115527678375628, -0.19056277010061415, 0.2948195456155095, 0.3446065728607472, -0.6981120600758656, 0.24862914349740595, 0.3210596322466859, 0.0019301885106981498, -0.2729762765812354, -0.46115192225971363, 0.47220964030132373, 0.017672663042562233, 0.10454427117737117, -0.6764072219630477, 0.06537000205881928, 0.7129621906402258, 0.2894782389023342, -0.6779213625702402, 0.35290786632065674, 0.7719269443223671, -0.8667379529989754, -0.5957238769740018, 0.11926470069064649, 0.9227830081391246, 0.4300474766704983, 0.4223907375562881, 0.27384804584085937, -0.5291660568697346, 0.7561348180956948, -0.6173198919540195, -0.7576631686554264, 0.7612767643545193, 0.6433324902449085, 0.7226807296128006, 0.19976276839667206, 0.8999062533583215, -0.8243371098332275, -0.7795483865758915, 0.669395324243295, -0.2626193267780778, 0.02484015383576111, -0.7994643614096367, 0.6904102578036235, 0.5681517221108632, 0.8990904754129795, -0.6282376415544917, 0.14058735089254368, -0.6407874299624586, 0.5567384452580431, -0.15502495250135426, 0.3923170241243254, 0.9163658500615941, 0.9556037400327246, 0.885397039362489, 0.31691491409602585, 0.07147785026589716, 0.5729421817519964, 0.0334663579644579, 0.769659906503188, 0.5458750834843527, -0.7607173921508524, -0.9397491833398133, 0.5077157080591888, 0.10048753657778509, -0.9013945171501887, 0.17595192498423629, 0.6473205012531072, -0.0035583500916165807, 1.0085079167339663, 0.4603943699933876, 0.5130687717252689, -0.6862335042779492, 0.21658971559935253, 0.8370040661383403, 0.17509368313233256, 0.12499316912749629, -0.47881465118099564, 0.530436381768731, -0.26868134730532983, 0.18317707919726667, 0.5177875896286954, 0.12457725618475601, -0.36410514799638455, 0.3944513181537727, -0.3958513925606719, 0.2801697042705408, -0.5099471338261887, 0.5386961343544396, -0.21140090393703356, -0.19581233338535253, -0.8840950670341192, -0.6902729046905245, 0.5733071965602388, 0.22742541280270528, 0.24169857887017965, 0.7244065257478653, 0.69182580154741, 0.13091481276496458, -0.4980947378433924, 0.08548504049623142, -0.8913405395431473, 0.11364478539419712, 0.24584019985516556, 0.46086774645834244, 0.7855379546379054, -0.09117716276054684, 0.05094971478271588, 0.4201337920198347, -0.9117396500652475, 0.6982000908865039, 0.07253691548585457, -0.7815128824450278, -0.19527215984334495, 0.36694109363141403, 0.24234719516988337, -0.7710725708452337, -0.6080883050993815, -0.3191770015614943, 0.6337094974326654, 0.753346517182738, 0.8241727250925577, 0.9000144109207618, 0.013200437506516675, -0.34608290865199215, -0.10038937812726373, -0.509665419247611, 0.2664350676838908, -0.9423929343151456, 0.025910244982349707, -0.5845693289471791, -0.13855777152680276, 0.44186349721588697, -0.06434894989603787, 0.25620558619026484, -0.7861839980789378, 0.6206689971690104, 0.24537349042064474, 0.38280999990389397, 0.6445980422130632, -0.5866801932201571, -0.700943926314806, -0.24259421564264536, -0.18640967552051024, 0.7030764118373034, -0.3161223107708694, -0.2538237834741506, -0.8799430132050479, -0.1663012872115328, 0.8068959763704334, 0.8660349789454774, 0.0073196452742182345, 0.7383918182574919, -0.4537442722781226, 0.1042053885071129, 0.8272758716096668, -0.4408510112443362, 0.5814543518416463, -0.4786254266050636, 0.969283555094079, -0.36400647932718, 1.0244760190887683, 0.43128680085059967, -0.6303334032906093, 0.8176520264194164, -0.7046852090870416, -0.27317160305414084, 0.8930215537037641, 0.27666229063191866, 0.7244875822879613, 0.4672477482381942, -0.5644374495689799, -0.9230413384081737, 0.07119504468187654, -0.21856701909547294, -0.5085129677460101, 0.8673460708987835, -0.6681420256268601, -0.7770424196018558, -0.32210096567144203, -0.9688465325705966, 0.3263005426653995, 0.03208332347335502, -0.8953806258221308, 0.7928122258757123, 0.5778459760135568, -0.10201062004697423, -0.8254923886836846, 0.44473256248970044, -0.8338018060812932, -0.023077866842274634, -0.5810979448072945, -0.17891407610433469, 0.10818015949724252, -0.23981532527606075, 0.9563997310885411, -0.06584305835030295, -0.9275005503941925, -0.6716704357612814, -0.12047612184521433, -0.7195835078105565, -0.24733980225105956, -0.3332028298842675, -0.4041984518283932, -0.3584059606864105, 0.446858161908092, 0.33403977765055504, 0.22558683834873094, -0.1384738240825736, -0.003918928701877662, -0.909882506510714, -0.16779496410588465, -0.1265962432631584, 0.48061856347701054, -0.15262785900486328, -0.5191940426528737, 0.8164985434498561, -0.6761833457637166, 1.0407947651066882, -0.3299114332961818, -0.2540594919506153, 0.7409431820307602, -0.3626849230981123, -0.6073164848771225, -0.12783804277611813, -0.8652495669867633, -0.21172128842055027, -0.560832683832139, 0.6246002311599949, -0.5334623335533075, 0.8781201670178771, 0.8031012840080005, -0.6939871716908232, 0.8405584838071114, 0.4325910866361652, 0.7074741751729343, -0.17037010491894802, 0.7875138089909416, -0.5335035369332447, -0.7639677955378026, 0.1966249782960273, 0.26640386698647184, 0.9769751993158619, 0.7575799557495734, -0.5093677884669277, -0.7308906502339518, 0.9663084023703449, 0.4477190232896349, 0.9768405179898649, -0.37085006283518407, -0.03955832506731805, 0.16748404051955787, 0.9702491117824651, -0.13075071370463226, -0.08922848620727696, 0.22623977759147343, -0.9672784163822286, -0.8730198711302171, 0.521569065429285, -0.09844347887258964, 0.9118313271302378, 0.5340929430273935, -0.5085223530510152, -0.22975844211174185, 0.5545835729127284, 0.2592392455836676, 0.8108641766758983, -0.018056038585687457, -0.21344834479194186, 0.6589258591307662, 0.17565194880721344, -0.1767738274915252, 0.24322140812713522, 0.1304862574497933, 0.9453889317102258, -0.643505892891935, 0.021657362620586495, 0.4471233906877672, 0.9253499497790025, 0.3095034176248114, 0.19766712686452548, 0.4616841050749015, 0.78581213609548, -0.8218470936505651, 0.04443401636161787, 0.40717154657129345, -0.6790730739252793, -0.33418395392938915, 0.7349580774270921, 0.02610321742862199, -0.7490309355714105, -0.6474339625393621, 0.4738538586159764, -0.5445062770750874, -0.6806208237240831, -0.22978653554903308, 0.6351139711534685, 0.19607802381084483, 0.9141921510874182, 0.8610571357143344, -0.4390792338534133, -0.8094509551795768, -0.38478968899807886, -0.383198797944036, 0.29604398854556574, 0.1758381549951985, -0.39788225534312943, 0.18888639172756141, -0.8971187415301922, -0.8050330960531238, 0.20591284221257747, 0.9131659263933387, 0.8183062066056342, 0.5012140725141309, -0.08522838034330849, -0.2509891570816738, -0.8033425143474244, 0.4413089945199534, 0.415340457416311, 0.48315839765678764, -0.6781640393829604, 0.2847160981132359, -0.12365720797355569, 0.329172923092596, 0.17986580530540788, -0.24081210211354703, 0.5143866693621386, -0.193436496726321, -0.029364127454525688, -0.8946741303624534, -0.4380238567597923, 0.09635463785295291, 0.6944067706192886, 0.16107740941364934, 0.5796944800678789, -0.777654325805143, 0.345006073348402, 0.29798877413618485, 0.1909311129506024, -0.16731997166640217, 0.6700237067511308, -0.5108751491951073, -0.7995161489195302, -0.6927618539805414, -0.6922096318792874, 0.9945629783649086, 0.5287997854171833, -0.5646142402994576, 0.6488303542999201, 0.8587856289521087, 0.44092246388715844, 0.027262669337863372, -0.8626777656901318, 0.3107670016997772, -0.9381287553788175, -0.37946841827074423, -0.44440515555687127, 0.8942198001289434, -0.28639491217003643, 0.6269361709281103, -0.06568440582761452, -0.12382924700106032, -0.7328165274631563, -0.8149235311661289, 0.2830250270970587, -0.4002777201090905, -0.25695157408195535, -0.627634024045939, 0.5263468385333407, -0.06312433418531382, -0.5179590801919443, -0.11073513736976448, -0.5733874643864709, -0.8367321964163521, 0.7656011342402153, -0.8961756228571269, -0.12368802013724835, -0.9064472280624626, 0.37309203849594547, 0.9573852562191901, 0.7424915189335486, 0.7878002306085905, -0.4985206920445773, 0.9508664559308492, -0.17333299853442732, -0.9005221657614498, 0.9471427726042806, -0.2270685424878491, -0.707870697595533, 0.01775877686419428, 0.9254006801943252, 0.4598608141969938, -0.6136752312046345, -0.20354412212721268, -0.35904471855547027, 0.17689770099526603, 0.9899119630385904, -0.7096167772861428, -0.7268339235388954, -0.20247100703279908, 0.6635162775053332, 0.1684862682737276, 0.6448727013851648, -0.4321530583076978, -0.3940104490677343, -0.20082764383232143, -0.04294851882193873, -0.08802048671959896, -0.9741133917356639, 0.7816951945193826, -0.3667499740182062, 0.4715615596236505, -0.38352027693394886, 0.1451088724640659, -0.9923157784079553, 0.08793824612988023, 0.6968880959825235, 0.3947146714278923, -0.8286253697174215, 0.49017616234112305, 0.6208712299193766, -0.3195557344626059, 0.5776224797823568, 0.9697335740472428, -0.5966009083133723, 0.9050111601812691, -0.9687832050910248, -0.4771904071580597, -0.37698660801964623, 0.9725935358067959, -0.019940001829638954, 0.874766778071111, 0.8049766254258707, -0.8930342321459256, -0.40658405066946124, 0.8953023051247627, 0.3529159683728867, -0.44405650009756964, -0.22115854806174126, -0.9527300143541337, -0.45426193616032456, -0.41676696510466327, 0.37143520155767074, -0.3317813232423818, -0.48366722640312215, -0.2011058530358873, 0.8772479333658396, -0.9610991496801005, -0.750270654725032, 0.9068834469871265, -0.6506009954251706, -0.5836956921990035, 0.8706954515534937, 0.8889694969132333, -0.4451199307672433]/1.296760476245172
0,2:[-0.36131427670939953, 0.8113249611442717, 0.24770127602255454, 0.17039394841198785, -0.12753278952481595, -0.733258130075189, 0.5383277766015726, 0.5688581567637947, 0.0013132685683172607, 0.7710002762952888, 0.7520294797337983, 0.9818647598760109, -0.9690111038517975, 0.4670823958319441, 0.09111964075242018, -0.9177060998439306, -0.48371200047140106, 0.5369204688712454, 0.6815698537807149, 0.09525043778476339, -0.0752618460445098, 0.48029418672313473, -0.7225441554103285, 0.4301425560406751, 0.6864271777711723, 0.3077040287254438, -0.8559636100965851, 0.6612283793547427, -0.6249663822729827, 0.8452779871144223, -0.9836222023703771, 0.8297751347366102, 0.32923672101175905, 0.6486065023946577, 0.04800187647240395, -0.5508049013583634, -0.22592597992655206, 0.9469444385160737, -0.3315933722027326, -0.6186767787485647, 0.2091619051219924, -0.31072262753000823, -0.5537965340307063, 0.9937176677416096, -0.6438818877033653, 0.35698733026159923, 0.9415351929159668, -0.6750973375123732, -0.31582836856053076, 0.25366243713038306, 0.771820055114401, -0.6862202017984957, 0.864433247256948, 0.9306987862552778, 0.6368549949152822, 0.1564068244413852, 0.14611440054809033, 0.4193010605022993, 0.7327395905387255, 0.921353668067636, -0.27427624730736566, -0.6074272993871725, -0.0015109727900699532, -0.9389211182740977, -0.6702292435709618, 0.6613443512413624, -0.33781557390515726, -0.6915920759143658, 0.4020768967422945, 0.29662525033931986, -0.9255123852831609, 0.21260178029338034, 0.5945028235674162, 0.829755070905374, 0.5430593874302829, 0.15568546004605996, 0.9783828024227157, -0.06022622294896546, -0.9915474886461628, -0.11127864659846302, -0.3492186545619482, 0.9998514457456551, -0.763353163777575, -0.12366924147340774, -0.9749064733187423, 0.27785990681307315, -0.43815971324820424, -0.8096693773191004, 0.1790886780479517, 0.8503068895670927, 0.4749914645961033, -0.7605382299640778, -0.6161406885517614, -0.33994046344115914, 0.5424756030041695, -0.010460729998331602, 0.8653466049682312, -0.11568915803646615, 0.3226570426734247, -0.43995265840841963, 0.6218243656393536, -0.06138609166715398, -0.847691915537088, -0.7730952193068389, -0.7187115222877245, -0.3707131695915781, 0.41622724441736525, 0.41533583899927956, 0.7298528269603344, 0.5740452880539042, 0.6101129103142999, -0.05248282677530969, 0.3132546745927589, 0.6368115730968236, 0.7973692204971428, -0.16404819257865122, -0.0024669022193045073, -0.44582937920262916, 0.15797904571129898, 0.8276787252039415, 0.98140967526762, 0.9708848077478807, 0.9903185509006827, 0.730209078970469, -0.5911476676266249, -0.7903898216140912, -0.16091321757265264, 0.5294532180153767, 0.9459488110889822, -0.5363261702068212, -0.22647558436406767, -0.7928521101734765, -0.26133619741446584, 0.4315593195734196, -0.10715006669369083, 0.013761360931913148, 0.06064922929179835, 0.8474057336492196, -0.34579123407379453, 0.37318343785901, 0.1405695159458773, 0.6167379989077908, -0.7016219424169521, -0.7087065807448646, 0.9578135482419994, -0.6602287945602449, 0.8508767790874803, -0.8372644460779134, -0.17919101716355357, -0.8617540389865572, 0.27351432471758236, -0.783401595796246, 0.09731036087995687, 0.14277107207268688, -0.3273206870045458, 0.9351652762906375, -0.1555953283530582, -0.8364792116328899, 0.5326195642734988, -0.5111749427768673, -0.5707253794103042, 0.265016323477245, 0.688689912505597, -0.2172597158390034, 0.4956873008175229, -0.7466001218885726, 0.6985115350658113, 0.5671519144652466, 0.7871623519155737, -0.2500287464622992, -0.8763578941419323, -0.4065481146767984, -0.19801426405109407, -0.06737802641075576, -0.9107539300017459, 0.09809592655369263, -0.8324763477759917, -0.5019558640143205, -0.13524053184640256, 0.454284625421206, 0.025756865429777412, -0.379519678153286, 0.7232633962137804, -0.10305881558859283, -0.01990943528592771, -0.2141739636746267, 0.9468180026397305, 0.14289706410073016, -0.11092329941405649, 0.6717021112942374, 0.10479874941995126, 0.8111609651347784, 0.643824554517443, -0.6003088826225677, -0.14936658821037108, -0.1980399634911945, -0.11135157554016284, 0.5146872914942644, 0.27748739980587755, 0.6034257379182952, 0.26957291544719236, -0.9483584156811486, -0.8129963395437975, 0.42073217289395787, 0.8009156330915159, -0.08997348370280184, 0.4099198985647605, -0.5716781459917952, -0.49342133395481486, 0.7439620416135061, 0.36530947347805964, -0.2266115223727792, 0.050246538195321606, 0.2158965566246134, 0.7853515654284624, 0.03955071502526137, 0.6856863353538047, 0.24747616060474426, 0.7837704184598253, -0.7288936560683111, -0.9104582511868989, -0.06263992316072184, -0.31624440912808294, -0.6277193273672492, -0.1921012792129353, 0.576986213555708, 0.2978529934134067, 0.7138891891006551, 0.8332912899319207, -0.4306359625976266, -0.47974245311943015, -0.5674428852159689, 0.17624969411020688, -0.8945464677531746, -0.512487390202498, -0.6845128076115554, -0.7868155011073222, 0.519484717496614, 0.21133141878191397, 0.6460225789549064, 0.8995415424884761, 1.0218136449594601, 0.9358122235993209, -0.8663634671372464, 0.2642835466161682, -0.7593322186517094, 0.02234476208294612, -0.4357285601219838, -0.599030635753764, 0.2633368237349797, 0.27229016051819055, -0.26051134587573954, -0.28668379963320323, 0.5820766024886647, 0.2709230846594137, 0.5656003463871716, 0.5257462758513601, 0.46514606654319884, -0.049319599970626925, 0.15896918883759198, -0.7509010870669798, -0.8939508355450789, 0.804770794097257, 0.7469563442859531, -0.9069253902926757, 0.6971695891971025, 0.3366263695479399, -0.00351137532215993, -0.20940635272483799, -0.08523770291573383, -0.30495405824168015, 0.7189029920348349, -0.6911752021947617, -0.5986998725381062, 0.07976734754446912, -0.7513005267426122, 0.5063429070248059, 0.9652315217565068, -0.9184708155852568, -0.15804754405020272, -0.11608888843531973, -0.6382176647444994, -0.9766708795429475, -0.43658098353464436, 0.20442172091437327, -0.41528482405966993, 0.8349301992234344, 0.21876220934711588, -0.43622211585937115, 0.9943582042322389, 0.37969442223495986, 0.47758156285652986, -0.9385467228602775, -0.4909738409685045, 0.9414229065626999, 0.2811698135270662, -0.5696478885001401, 0.3520958595231296, -0.5811653328961665, 0.982136731682218, 0.47388800979636364, 0.9802666972450538, 0.08642243166737168, -0.060044357013471134, 0.2761232045767425, -0.47347964939069137, 0.6232154550103319, 0.48416180721075475, -0.7278153405554244, -0.9310582188159255, 0.9463267498131447, -0.08093629281730286, 0.2859616487851245, 0.41125190261187416, 0.8871701562326471, 0.1049543702961583, 0.5210133506922039, -0.20426107825046885, 0.5741009804645097, -0.24177551250809895, -0.41011767128746, -0.7180739666493241, 0.7878511615995725, 0.30524231774888433, 0.8987760180344929, 0.8038762829992098, -0.57508259183566, 0.8933795400550557, -0.21450717433233435, -0.5400459483221781, 0.9677661874668242, -0.8147238655585913, 0.7128676527807809, 0.3507197897477816, -0.09227870642575291, -0.9423574448360481, -0.3818018886183785, -0.19197772240253053, 0.6494571900999966, -0.9134292701180322, 0.36255018813274187, -0.26530066157416193, 0.7797425035038681, -0.3490414925741941, 0.5630145893474093, 0.3689436139447649, 0.19744500567122653, 0.3702461361654469, -0.5986319645791175, -0.24515368891988767, -0.10751796503046793, -0.05348487785003259, 0.03431663896525191, 0.09651147430678805, 0.626341715010815, -0.21043073096669274, -0.5121072469148489, 0.23399321513909815, 0.4468409976988746, 0.6734831055702867, 0.5894054823580864, 0.5656813784949355, 0.18259766802474622, -0.8006607527933189, 0.9068982037145237, -0.08411328055327849, -0.6360193927305077, -0.5757532391314946, 0.5506231967333712, 0.967175780196486, 0.28718557274280687, 0.1262691828486859, 0.845183945754649, 0.76585111082968, 0.41491169211359075, -0.5377794706095881, 0.012595652730900787, -0.3935360686652501, -0.004278080159035203, -0.47528304186720177, -0.8483401650463688, 0.7617718698871507, -0.3821126116068298, -0.9100641542426361, 0.14538295414585337, 0.8704390705681688, -0.6675651779780829, -0.3213053559944229, 0.45183816355296824, 0.19362402399195847, -0.12567592266603084, -0.8853611679691265, 0.48622124302882286, 0.9266456410998904, 0.2207369017235976, 0.9481679090273067, -0.3518092476834739, -0.647041033284492, -0.17472300594560114, 0.7892419283592949, -0.7462676217067232, -0.6036978170285013, -0.6397938675337617, 0.5108209388333145, -0.651900891717062, -0.2769981634859912, 0.04943644267275321, -0.05432275780491459, -0.6865201636317256, 0.7663160456595269, -0.42969936071342, -0.1484037152525874, -0.5692641995481252, 0.45049484522570205, -0.499448079951139, -0.298219244844889, 0.5333794307560437, 0.858196808234542, 0.9362503639179103, -0.8311587619485172, 0.9736866243556834, -0.04683056046395406, 0.6125874873503461, -0.8893297786547922, -0.5519876171379323, 0.11793010021486675, -0.9172731053664416, 0.315758189904068, -0.5055256068870211, 0.5610789047646334, 0.007459633642120715, -0.39213698531018304, -0.5960783626393871, -0.2226380127008093, -0.8289672008233552, 1.0277678717251517, -0.16684256148921328, -0.19166431280868787, -0.10278254377887201, -0.6487823270638176, -0.15434009088684206, 0.4645688478161159, -0.5137582093778428, 0.5372436720620966, -0.3145306505484714, 0.3330825169118522, -0.14099486734357422, 0.6760689776707483, -0.7959123841223323, 0.924833933337488, -0.5277417623519052, 0.6053990057218787, -0.13546650514150263, -0.016818780180235294, -0.8625197196900761, -0.12219927617517376, 0.6035754172707902, -0.8322426193384713, -0.6554439719778258, 1.0471482355195616, -0.23249817067891432, -0.3763432259719259, 0.7303903981464374, 0.8314061476630964, 0.0582875859181103, 1.0032259822531606, 0.9381244528584555, 0.09968180730265774, -0.8633494969135349, -0.8851290233456498, 0.872794400028515, -0.2525203790368405, 0.7673519238763907, -0.3292715564655686, -0.9101810437076545, -0.16131068232262114, 0.25115737772183144, 0.6782156071197478, 0.7270397115973396, 0.5850201868358265, 0.963796181004363, 0.23879657817263766, 0.28219650928955436, 0.5771157950097457, -0.6313598606605157, 0.7589089633359452, -0.19989580259589862, -0.208678695223807, 0.33901880991222805, -0.2135319342502891, 0.6487998837889706, -0.15400960401977867, 1.066182939106725, 0.5417067069885281, -0.8321243845938744, -0.5009668466605911, -0.02915358180845045, 0.7053926693420428, 0.8824297899021292, 0.572580567629005, 0.9616134280348888, 0.6516886413414301, -0.5076439223734526, -0.42314919642038573, 0.4825885695852705, 0.7331548027257768, -0.735850995471783, -0.15888028787727818, 0.10977193248383371, -0.22319106967685476, -0.7215134123619722, -0.569013122813578, 0.22009993716405646, -0.7180575988118879, 0.05457075965224366, -0.023293960296898477, -0.8281874989802114, -0.6052196677792386, -0.429033992972985, -0.07886599085652608, 0.5769985447944486, 0.31347095672884834, 0.20795609840008922, -0.5875601431529954, 0.19393870136162292, -0.054236452995167474, -0.038524134637511157, -0.5338669618274379, -0.20690327858668725, -0.0812419045086131, -0.10971817252760041, 0.9589213985614535, -0.27647027234615584, 0.700524225532988, -0.016066428977772072, -0.9111464412106066, -0.6206980654457172, 0.49931408219126, -0.5494518654423053, 0.5031155113651736, 0.5297551727474652, -0.29298851543328425, -0.5875726507712578, 0.240112230038681, 0.26643538501316444, 0.95043353159897, 0.07136962453307598, -0.9013248815827798, -0.5424845289897319, -0.8728847883049127, -0.4372101619203223, -0.7116786778778627, 0.7889399594168831, 0.43121989682487655, 0.15378908466735086, 0.7361059536905479, 0.13665727173915804, 0.43352327961811654, 0.8545615518101652, 0.6490360316942618, 0.8309513013509493, -0.11951456225916468, -0.9594709177769398, 0.7225787615272165, 0.7449640206562599, 0.4779640047027381, 0.5636359230782162, -0.3164979022901116, 0.0650854319467504, 0.5291193041627755, -0.22696413488237846, 0.8158632025732176, 1.026455652732257, -0.8271107374224443, -0.8023053945366094, 0.39856060368973445, 0.057567127971536534, 0.9957533675258672, 0.6363654118080311, -0.4894620052693251, 0.16849370399011576, -0.9016514097017186, -0.4559872006012872, 0.7007895212469988, 0.8553394523757806, -0.34506007423600044, -0.6395881109368977, 0.09433213399476381, -0.18723681276336257, 0.349770622706135, 0.8613507412630831, -0.14775833506951108, 0.2791112665711393, 0.22271317632452053, 0.5612605634997758, 0.8949940278321841, -0.4119877974437552, 0.9005303837537761, -0.5530597092145022, -0.6148137182601324, -0.7923536287046458, 0.33255027734458686, -0.7660151583826548, -0.6838279875569541, 0.7932069013244477, -0.6236720051089298, 0.6822212800112195, 0.30174871913451157, 0.42690521112852886, 0.919422678797686, 0.2919189763571517, -0.5912790540711222, -0.6504784463192423, 0.8060804383302577, 0.3429690956600419, -0.23730116818250546, -0.4988792669084823, -0.10511096879093018, -0.6425451502477014, 0.3163282632186351, -0.6951872835784678, -0.27056440110928787, 0.02305414046281811, 0.027266073838104997, 0.30127792483756993, 0.3815169037632733, 0.1099528384525664, 0.20560772949214545, -0.05955952051120524, -0.6918096281484398, 0.7479103267265268, -0.19256372387801976, -0.44276018637459713, 0.1408190392444191, -0.032153306384835004, 0.8773610000486511, -0.3195255072115656, -0.03602539470390497, 0.24613838053556844, -0.23655533357626632, -0.036810250211728894, -0.29013805443593504, 0.7595777100009319, 0.7343128400593475, -0.7373770358609273, 0.06919556612071176, -0.008894744986066726, 0.4017798165479392, -0.931519318840196, 0.19295323817736476, 0.5728718663529143, -0.1045438726325622, 1.0059037470833636, 0.3578229948282681, 0.8647399749647797, -0.8427823725837734, 0.14457754589916672, 0.8952282278498056, -0.4162152574855986, -0.9512748273559319, 0.6180768901748007, 0.3018003094036075, -0.9723243125035342, 0.3651936972006588, -0.7743439435256164, -0.0821436133565652, -0.9799160019838017, -0.8796719353503301, -0.26814504335178, 0.6103998576779373, -0.8130960576142687, -0.9872852696842784, 0.21708999925737205, -0.642856782110153, 0.671739571636301, 0.5038280943570522, 0.23189219061967895, -0.6635364605388651, -0.5385501557878871, -0.7076304970609245, 0.4648256916110232, -0.4453707346121119, 0.48106762875739045, -0.6523851318047796, -0.2367388448766377, -0.102725055355715, 0.9348530263162642, 0.66475691059788, 0.14188546203510025, -0.9201139930749168, 0.9710204877651218, 0.8633287742230384, -0.42346630086030085, 0.2741243573355472, 0.7157490609740992, -0.35343288330119565, -0.444628044400762, -0.10467998344466012, -0.5133773472269372, 0.1513834304361248, -0.44720078365199445, -0.16307289106139544, 0.5407569896170021, 0.3068919027683948, -0.6520349149690101, 0.14275200010264397, 0.8493920385257756, 0.5762344739182335, 0.727544046185962, -0.9037728386004052, -0.9111416965920558, -0.5554124676378223, 0.6863277982812757, 0.02208838282245695, -0.4440734308775716, -0.4526495113369166, -0.5132956327400298, -0.37713838702393454, -0.09822795184625721, -0.43156348214622436, -0.713202345827855, 0.2447819353381853, -0.5534312990197552, -0.7061619636625542, 0.13608325440216607, 0.4933749621064234, 0.40057293387445436, 0.005983035566326178, 0.33999030226169014, 0.2755901768579718, 0.8441499442007214, 0.0696391214219026, -0.9270252166153549, -0.6026874553956126, 0.7772439187699458, -0.734513211223992, -0.5833360113507523, -0.720338403608982, -0.013032015339753716, 0.20600765599330212, -0.12075294719999075, 0.7060255449438022, -0.8761850669924639, 0.5458441937348473, -0.5162184748076706, -0.8303031799867502, -0.7908656755806945, -0.6971552498745311, 0.11557533020342046, 0.6265518090816682, -0.83619236090707, 0.1497324443784398, -0.5802718924326737, 0.7596693944627912, -0.9293982352489156, 0.8263340067606717, -0.2422880698508758, -0.5013347509859731, 0.648697859832698, -0.8163276906678714, -0.21368929866363362, 0.24000385615628422, 0.3036829050562261, 0.4772284944960511, 0.969134350679843, 0.6751285851132959, 0.16379002114101768, -0.5161066972382751, -0.6872206699153398, 0.4937702665893334, -0.37661579169898807, -0.9115727312999982, 0.3020301274753897, 0.12121206085727566, 0.8548305260653601, 0.34216940453746514, 0.2010615255682382, 0.00952631245952329, -0.9569213027194556, 0.8452953184189811, -0.10553733497521511, 0.9938315157211468, 0.6478498552532923, 0.42942892250236553]/1.2464809498081986
0,3:[0.08248409342634955, -0.8487287531298817, -0.5403670316852016, 0.05757122933402492, -0.6554789235824636, 0.26800101844731605, -0.3863499488121558, 0.6981670375512783, 0.05816450262937778, -0.7056972504997547, -0.038648853074426004, -0.35011228126268423, 0.06977547755273994, -0.2118212878723864, 0.3220019228042623, 0.5575126845877496, 0.610526397369902, 0.8761925920339175, -0.9596783095544525, 0.6851090327151472, 0.14549228933369407, -0.48040713603945395, -0.9686938270054106, -0.810036660515377, 0.7276282833261842, -0.8220532003288468, 0.6400418782857427, -0.7556887838090978, 0.578016306243633, 0.9593491166214523, -0.28086244597038657, 0.305368478921872, -0.4956772961339988, 0.1555396251701624, 0.25151374059106946, 0.950229421332468, -0.8266269147888656, -0.7782685492978545, -0.6734988349972387, -0.739429844434255, -0.6564269469454211, -0.6538189501576982, -0.5515202043540971, -0.7086708434330344, -0.9463766017737851, -0.6859925857907924, -0.08691110017851447, 0.6953939056432135, -0.4047936041311371, 0.07245875444930738, -0.09268385473520069, -0.193732141371594, 0.7880688540502216, -0.06511249493096294, -0.09422764679448292, 0.40706423954821913, -0.8079623029496608, -0.1751977396748028, -0.7602873122013962, -0.8783320741367091, -0.6965708089555804, -0.6331280942766964, 0.98298694544777, -0.6066711757987617, -0.5976486646463488, -0.7283012914758977, 0.8328799269403766, 0.7574651579162163, -0.32338815732326476, 0.6084856217150298, 0.9781456050124516, 0.18438267129246733, 0.10108654586026654, 0.2600664430713143, 0.47219900472744153, 0.14409456559079273, -0.08629296923232485, -0.8699120162865751, 0.08264903197527115, 0.8543156315485884, 0.16036878554961898, -0.0787936971520442, 0.5886073276454935, -0.3912760323431994, -0.5768867338461723, 0.8258580870305154, 0.1533787570763836, -0.9911901613474698, -0.10581061257157698, -0.07539402409075979, 0.05366051839646756, 0.6557604285995334, -0.6657475372324008, -0.667821997489589, 0.591490957037411, -0.5887823593931318, 0.28511535736580046, -0.6389681567646452, -0.1131239085003799, -0.5600402584083952, -0.9077677196112632, 0.22087812395572703, 0.8663051088509207, 0.052318568875945055, 0.6114762214233976, 0.8024550348689201, -0.8031429449906003, 0.8850900896655369, 0.38514731322069173, -0.5337149666551928, 0.4692266181085962, 0.24380984027002328, 0.6517236139829112, 0.28035765804801227, 0.9831652132919426, -0.7971215725347924, 0.708305596194756, -0.6912463886821443, 0.49052431977716576, 0.17983282303320058, 0.5381758166288118, -0.7441316595731712, -0.45364041336231137, -0.6215776301320971, 0.6150715054668732, -0.5934763602859864, -0.5736103518509466, 0.294377995843393, 0.6196204617809847, -0.852119331322985, -0.962698396805026, 0.7503419181568984, -0.8257033563931002, 0.16918144155944592, -0.9786090945756476, -0.1968071906697676, 0.650114183547159, -0.4281720756887386, -0.8812343582689208, 0.6419750334225951, 0.16922490843444704, -0.4532894746291236, -0.07925598007577328, 0.6996503936536125, 0.4724316419298303, 0.3900750899628246, 0.7051842718626186, 0.6948220644649947, -0.0734551347166527, -0.7818800861134709, -0.9230498226418076, 0.7250188428447734, 0.7818910404431348, -0.3597723472101327, 0.593076311673049, -0.2794084012025067, 0.5558554218423679, 0.22900225273389707, -0.8490429109687588, 0.3396198881295821, 0.7448636644224615, -0.02131577721231743, 0.7999382980468901, 0.8777549075536217, -0.10417953056238186, 0.8281724529231577, -0.08847276951721367, 0.34386125418077373, -0.5576988056645644, 0.872427377194682, 0.34148423742717027, -0.1520247363082416, -0.40612670704909953, 0.21872542152079313, 0.9636587915154086, -0.2873394293310744, 0.7954418770079635, -0.11489431817423777, 0.36027441656089776, -0.3845676746307246, -0.7338363491279445, -0.15016498323085245, -0.641131913533644, 0.3650947540657752, -0.09088711623271341, -0.022375992032698015, 0.45393265783689807, -0.22296710424321076, 0.7482338018086915, -0.5504033065332207, 0.2157935353968008, -0.24300788415398103, -0.08359553913432677, -0.7794814997039784, 0.9484383526270268, 0.9706396698822338, -0.19738554534330865, -0.2254634804788227, -0.5849624286681603, 0.6731553106628811, 0.5355502673002639, -0.07870826317368843, 0.6971822284318316, -0.3273908484773223, 0.10644251379898087, 0.7883267426957423, 0.9201505933524531, 0.8076017327073391, -0.19347629768107238, -0.40380193893416877, 0.9606010933983926, -0.33172970801692636, -0.2579623699630636, 0.2607623692882083, 0.49084801003472667, -0.15749890130798588, -0.771959027554393, -0.15303559088893395, 0.7812022309154607, 0.637109340504697, -0.6108092764444247, -0.745349221819012, 0.7832238643997333, -0.7469636111239983, -0.050400721853482544, 0.43339774684161836, -0.46129476635471717, 0.17070667849083093, 0.8207079301966548, -0.2238185608241854, 0.3744176711589203, -0.6405289655453438, 1.0445960773726446, -0.6878963700133349, -0.7600625376350129, -0.8615526550428961, -0.4209834220850949, 0.10407837291627388, -0.11934900572350089, -0.289156341963146, 0.46540815808282066, -0.13511192377052983, 0.5510267186391611, 0.2225176952676686, -0.8590443015672463, -0.6082052021020875, -0.26963691283708763, 0.4353271869625021, -0.4193136092975805, 0.26955334057049857, 0.7677075908637611, -0.8532880146398305, 0.918533504308348, -0.17750981702663224, -0.6715623805339658, -0.9581207777408027, 0.031181324010218305, -0.7896228490535594, 0.9568116486208753, -0.17653452121531976, 0.7239452079106375, 0.5827289619577687, 0.22697221130272516, -0.4535929547475331, 0.320830982033333, -0.5608316513403856, -0.7226711270920435, -0.3899083160745168, 0.9364577548387597, -0.37641117683894404, -0.08888362607724928, 0.07107753611499246, 0.6906412693963877, 0.8224403882988408, -0.7450796932381752, -0.7283436326107064, -0.33363525203026495, 0.21632943520519343, -0.24297154159590578, 0.21083710195243444, 0.07239349077535584, -0.09225598968317164, -0.8875843238401189, 0.375554895682248, -0.37002971643141835, 0.764190726777578, 0.6664492764699131, -0.11548164266484041, -0.7404256507052486, 0.9655202165723826, -0.6882048585529574, 0.410576172528751, -0.575207152266679, -0.21392285349977433, 0.6083532374694902, 0.901868392443499, -0.789651705848738, 1.059161865008386, -0.6267861189607519, 0.9587228222550765, -0.5353526161129308, -0.18956460516297385, -0.9036299381186126, -0.27725862413063873, -0.5688490860143297, 0.9224007426428309, 0.6397340957459158, 0.1450016870283961, 0.8279209169701174, 0.013664878745587528, -0.4434851889605166, 0.5097872124531952, 0.018069969912938258, -0.3222574808840388, 0.7528821953084027, -0.004531720768896901, 0.04817448680786296, -0.5734850640039951, -0.7464393149228961, 0.7402364813457859, 0.38730913110007276, 0.6231539570856406, -0.6881149541383472, -0.20118649281936773, 0.20107601026027405, 0.05795944628052187, 0.7367874047812997, 0.014562246652888921, 0.6520008934368766, 0.28465760097723963, 0.47532029073351434, -0.10040969481902219, -0.20322927671833285, -0.25127645733925347, 0.46228520016839003, 0.9884141757543488, 0.8128043275399759, -0.37482445409888476, -0.5800338346116466, 0.9804313528975838, -0.6316630982691949, -0.7769042060861867, 0.010753630433056896, -0.5282261284354616, -0.7076194913886452, 0.8046303708879105, -0.0937763340250687, -0.0603116795311605, -0.7659242228212993, 0.44860496257756793, -0.3320027486473303, 0.9597737794535807, 0.5643557811961503, -0.711683323164438, 0.7431447667377554, 0.31987540835715095, -0.36115497918395933, -0.5885758583935023, -0.5002838231333904, 0.9218904556607688, 0.061424384573369156, -0.0018482743134602714, 0.8362793289640766, -0.002490223930311508, -0.6173591512297216, 0.9828438691211481, 0.6344553413070491, -0.5526296864424401, -0.008786614723575214, -0.13161468879368085, -0.11243388637862596, -0.5419218497241278, 0.4214388741095885, -0.6779782169948645, 0.41566186657225074, -0.8968672571135812, -0.6630080841399864, 0.2136989517800244, -0.4708575396003517, 0.39875159205637045, 0.405613906990163, -0.27698885586902827, 0.3399897780546382, 0.5031460965825856, -0.4473019264677646, -0.5735140776561463, 0.8298462559067816, 0.36577377725968285, 0.9768933197603256, 0.2877462905395192, -0.25170977761190455, -0.34621831389378666, -0.5512912006436241, 0.12529498052718613, -0.607866647678736, -0.8788263532860854, -0.558568682471794, 0.4040263773939953, -0.1415882433065297, -0.36418098100880886, -0.8046826933663016, -0.20616684648275074, 0.6255860394421234, 0.09119818654576536, -0.7717696861716364, 0.5527082825417374, 0.9361869289222782, -0.4648985254053562, 0.4121993372452556, -0.48342868582737525, -0.5874803118614542, 0.3338304991132618, 0.2693113291852655, 0.8756563240126575, -0.45062749079623243, -0.685919305778744, -0.0035586881911071466, -0.47840504390815464, -0.7439328403575949, -0.9631768300595205, -0.3216230361590051, -0.4251288831383442, 0.7765796282832305, -0.8713351658924581, 0.7296711041856777, 0.4732842705273861, -0.8296006944953196, -0.36300078199015123, -0.4105222440659089, -0.7813174561485271, 0.766943333626265, 0.008365737231842368, -0.6058026538136427, -0.8530432875127547, -0.4911039428253375, 0.06162949286750457, 0.0326748836092359, 0.13806428897752512, 0.05971660016774011, 0.7102296769384173, -0.06522519652769108, -0.19684011526964204, -0.7461441518164985, -0.7781027076622942, -0.9426241451615547, 0.6271780113357356, -0.003777894312919044, -0.15070061941544166, -0.34006052339492854, -0.3894413846382312, 0.38500807419342753, 0.8645127425150069, -0.46984473415299405, -0.04978329326416934, 0.26377287714375947, 0.8147807285485322, 0.8478749041542576, 0.6268355301495169, 0.4595081500493871, 0.9088960388729892, -0.008489918424169648, 1.0029422909315944, -0.8220163742903617, 0.6260565164905345, -0.576907498118033, 0.6720529969853775, 1.0006820707565791, 0.7588326400635942, -0.17518642161338494, 0.6141283936781311, -0.7106044071005128, 0.8683239777191994, -0.4088026931575039, -0.14402492030330233, 0.9587160415421064, 0.40845120897695697, -0.7571741802877485, -0.17770175774439934, 0.7986897551823297, -0.89295410143952, 0.34378291440543085, -0.648424115221434, -0.7511493917668262, 0.0584377261072039, 0.25905877715520864, -0.44627188576015303, -0.682025353602772, 0.27814974869843573, -0.7723932976369623, 0.9103876569233171, -0.2817213581329172, 1.0146473552091009, 0.7609187633129569, 0.2514263103923667, 0.49070929610097896, 0.6066640642802686, 0.3658185230366375, -0.9475180678372526, -0.596874884836884, -0.05818093302823624, -0.29067981311123614, 0.3886987032968958, -0.7474970988717631, -0.29767165183881295, -0.6611931414634853, -0.03160201979965982, -0.7293967416554642, -0.3897027185749333, -0.23074327564370786, -0.16232132640324662, -0.7686740250971542, 0.09377158875196875, 0.26881065978902746, -0.12769494141779372, 0.41005125681018256, -0.9135500833979185, -0.8371650440391021, -0.6682853178294731, 1.0732057668739599, 0.10108318857020812, 0.7071690299492972, -0.4455623975715412, -0.9206783591458161, 0.36679351948467503, 1.0095713264158594, 0.6153776723899349, 0.5307629675421311, 0.12279286634226606, 0.5217278591639283, 0.914195042358775, -0.8413221469220182, 0.3381680564565459, -0.34431105644954996, 0.08677637803036564, -0.6682992855346502, 0.4940506066321862, -0.5081288616786905, 0.034936195092849974, -0.5395499765449292, 0.13979973915973334, 0.198379122834196, -0.6146737973526311, 0.8358992168611729, 0.3850620812328056, -0.8524152413541886, 1.0270335546797746, 0.8043288011209637, -0.471037548640382, -0.13977268231613427, -0.4964342519809945, -0.34388269666835364, -0.70591781966325, 0.27164532446725137, -0.7624432400840265, -0.8540098717852449, 0.05294788917130609, 0.7843105984280275, -0.1731041249792854, 0.10497019261605156, 0.06817177667143492, -0.1069570052379607, -0.8076570758481438, 0.49185174922757385, -0.6990210163470008, 0.47888869111287735, 0.5424170537846854, 0.6338346414531307, 0.005118737736318694, 0.6056238586877356, -0.6947565056272544, 0.713272854646261, 0.020261601892983785, 0.6772113466137187, 0.5421067899050526, 1.074449492018183, 0.9127346070614626, 0.619019431783435, -0.3695046130231746, -0.7820833098498355, -0.4819221352988385, -0.4707300210002742, -0.6810921588655099, -0.6580172039913501, -0.32121299018000427, 0.2955593408077899, 0.16045927199518661, -0.8008419226259207, -0.5340174233288915, 0.32233778010638825, 0.8323914351347266, 0.2368244248849569, -0.020187165091121097, -0.2891165609081277, 0.7278432557584429, -0.41965575460563803, 0.16015129022187785, -0.06766187750394713, -0.3442900284105604, 0.11579982668793473, -0.39969764086915177, 0.08588906141833423, 0.707479602680086, -0.3286571572226007, -0.6210542613449658, 1.059314205014731, 0.300207667937317, 0.5443975898398279, -0.023165078390589754, 0.21306392516881914, 0.2512222777715065, -0.018563238784118023, -0.7738298677107194, -0.6020460826102109, 0.5421211691496054, -0.07524811510567707, -0.6872330488669554, 0.9175457634732045, -0.6154992409397155, -0.0005145756417267479, 0.21371679602447474, 0.08777187390345166, 0.8077380611299367, 0.8245275046544819, -0.19846500724291735, -0.5019405330926485, -0.901391378891434, 0.4171859570237124, -0.017308295598812234, -0.29132615209426926, 0.4387086946366138, -0.07830229150015805, -0.7286852864000687, -0.2700994826222669, -0.06432567615703948, 0.44616203582152114, 0.32110428230977256, -0.1376835227497493, -0.49823153355565075, 0.017461668630777704, 0.6755269858557176, -0.8865902666491997, -0.48800869844368144, -0.9621414493071985, 0.7096769263874019, 0.22401321645909422, 0.8816352268012599, -0.000522807562565887, -0.7854750211230772, 0.012866503135634077, -0.5043329767294854, -0.28353594686782424, 0.9411814212581824, -0.23027715805216856, 0.43708673511775603, -0.6916126804879119, 0.5265146527621954, 0.11934169230333865, 1.0366588508724184, -0.3036439652868582, -0.06999245148143263, -0.08697764630604402, -0.10828459008694974, 0.8696881798150712, 0.533429745682888, -0.22726325679554982, -0.857032830650157, 0.9385383485689659, -0.8130791012518258, -0.9935789502559556, -0.2948938495910689, -0.930224920333772, 0.2657360807781859, -0.46120122322974755, -0.1800604956124987, 0.33400929053639694, -0.32988972820575807, 0.9349284462047963, -0.1162167314737252, 0.4975893586328616, -0.14375642927769175, 0.8673680703864531, 0.06867755852557862, -0.569062211479469, -0.8807756147029729, 0.12457474765810095, -0.5634394312683336, 0.056552274564930026, 0.007976871948062847, -0.8347567965588343, -0.2535216693293628, -0.6541778227751965, -0.8524575217665542, 0.7509159550521197, 0.761900766850301, -0.24840591465015308, -0.736637777568414, 0.7416824143044469, 0.18149791460611575, 0.2647547780756738, -0.9297689408960781, 0.969163955962747, -0.15444741335704482, 0.05917003246770913, 0.9771481303265215, 0.3370732661688505, -0.3234266778612804, 0.8827886534301869, 0.5141722023586465, 0.1888138426253658, -0.32870542538917585, 0.9325184546332019, 0.8980245462362686, 0.46877352130438843, 0.18819168792480745, 0.45026596964486315, -0.9656680629885245, -0.07929560533014983, 0.3842733423784484, -0.8161561682441476, 0.933003524730243, 0.644825184615571, 0.7315700147504876, -0.2996958478679858, 0.413264484248048, -0.06817017880735209, 0.03311913811300804, -0.21482464757708408, 0.6135114466989113, -0.6860395907156878, -0.36826970549498617, 0.5100523611949712, 0.44940203860328987, -0.06685921333128035, 0.686951089834088, 0.2394732191836947, -0.9639943949492438, 0.2583419185258432, 0.8988900800909604, -0.12440210976813693, -0.2510079138437845, 0.9630083736526374, 0.22626039964706784, 0.9006024711399638, 0.7146965734156815, -0.2964629472301332, 0.9636329211253262, -0.7395177146010593, -0.801345147307126, -0.4313581347360678, -0.46015864641256415, -0.5350984764192803, 0.45999760302334836, -0.6904082447642073, 0.8755941307283659, -0.16010168743716013, 0.7348812256455111, -0.43727323435428733, -0.1348545283353022, -0.4441896941099479, -0.2261611105887853, -0.4102664331962924, -0.027791820731947022, 0.876121122886591, -0.8624422861164587, -0.8762608560085702, 0.5070524637510057, 0.8486239529521977, 0.41047671126901686, -0.11425545155145571, -0.5125402018103139, 0.9132657184446651, 0.15974106855817968, 0.9515834178142178, 0.8331753462822743, 0.5596817543541986, -0.1622049063351115, -0.5204743072994331, 0.07841986920239763, -0.0867448378738529, 0.5567092174765111, -0.9569943219787937, -0.26763131697792564, 0.5489446074707918, 0.1734564858643437]/1.4824537127560875
0,4:[-0.45708525964559055, -0.12062223363651303, -0.3713007924336509, 0.31203508248341105, -0.3085909268254319, 0.6845510946072804, -0.5481754179552105, -0.8869720846115385, -0.6170843028939732, -0.748537748233508, -0.4762744614827654, 0.5148702302253423, -0.3715803076979549, -0.468206686970021, 0.12222779586399701, -0.027997208053573752, -0.43252620155620725, 0.22482411682533465, -0.16529974908242573, -0.2920974061720212, -0.2121750300759655, -0.22297272304961102, 0.7790354242695412, 0.2546658053809083, -0.45138254138714795, -0.03279581674530707, 0.6962221598079685, -0.9482772874581715, 0.812711809868609, 0.6847366543686337, 0.29189532080672653, 0.7766752371208681, -0.797508067547666, -0.18909601547980115, -0.3724589129078997, 0.8129478021170622, -0.9627137624648516, 0.6863726239179471, -0.5154156421152162, -0.7334926834372528, -0.7100200813826649, 0.2783677531240644, 0.25247568477149945, 0.7209493812198096, 0.11006982136307605, 0.8592450350446965, 0.4280269467693846, -0.3625641847152432, -0.9253334254138257, 0.18223595780619828, -0.3513019475169201, 0.9369142527692673, -0.8087247480286204, -0.6195900524331208, 0.70985303798369, -0.8531331807504265, -0.15605460408165994, 0.1894093513941839, 0.25366131823727067, 0.9279211287423523, 0.07839976880645949, -0.19506127504109294, 0.24062249027040084, 0.5102094349087474, 0.8690189063961271, -0.02788408263695663, -0.4358664315233472, -0.2392201082686159, -0.6827466639543893, -0.853575954038598, -0.1899135047632241, -0.8878765263893966, 0.19278695579816527, 0.5177936018879861, 0.14207351322636164, 0.3057406132907186, -0.9726060390058088, 0.4705686926497752, 0.39189128837898385, -0.5903709637588992, 0.2949891608294233, -0.2709367578734587, -0.2961271657180653, -0.04471289733738981, 0.45930910562347016, -0.5676644039494072, -0.313792173123401, 0.6308536831416343, 0.5712836713730218, 0.5946494887891265, 0.48970409903522627, 0.6859110522724623, -0.5086337666262516, -0.7008565893766385, 0.31327518614501443, -0.5407299551950887, -0.08258839403807221, 0.2825870428916523, -0.30744770685537476, 0.6056878817986928, 0.9026719457498751, -0.5063039433585721, -0.9193858339828339, 0.18153431576408222, -0.30027618313346316, -0.6654787566288926, 0.25654993683545085, -0.32326071893369, 0.144773245712281, -0.8068514754959919, 0.3376004791265286, -0.6417305507013815, -0.8096979403970077, 0.6589584740502079, 0.4243789052528184, -0.0889742011749175, 0.8503505661649391, 0.5367627894496877, -0.3267900018491657, 0.9160106249060459, -0.1325319560903317, 0.19128518473375805, -0.3914284800692289, 0.44579522385840475, -0.6184598517683587, 0.4413972071623973, -0.7885543954502184, -0.871783710827541, -0.027086179060454768, 0.30017874344308076, 0.8936975410980306, -0.5545251702473573, 0.14360615284667452, -0.17845183647867036, -0.9739438372002207, 0.6889359620145409, -0.3773664730284724, -0.007580838914192256, 0.840047809180662, -0.5390857941310352, -0.17810715350531026, 0.4145268379598148, 0.1584698317186235, 0.19036678379687363, -0.3354515981063185, 0.02609051562256003, 0.287879035217452, -0.3786442185150463, -0.6964439021930586, 0.4050887780971064, 0.687339503592555, -0.5878165632632125, -0.3173911237816086, -0.201471704338156, -0.8824165633222963, -0.3781737817697205, 1.0276354040345657, 0.8300042925610871, 0.5535676058756213, 0.2357443996625749, 0.14399713717596285, -0.591600279873408, 0.13373392553572783, -0.8679481492634809, -0.8568139288429119, -0.4335232895125657, -0.0290026570742209, 0.25927193749859323, 0.5958489100036926, 0.4311655135894539, 0.29398380603414265, -0.6101653645587617, 0.08669253313012261, -0.4175538943127615, -0.033563750974494405, 0.1384757719683394, 0.2625389953288753, -0.3273334068779857, -0.07751762544279135, 0.15719257097297623, -0.46129603122333707, 0.15998328796817202, -0.2728802186872067, -0.010791939585829354, 0.4591644588433516, 0.8345787817760498, -0.6626696250586113, 0.0866934171191679, -0.28820573259665905, -0.9599095860256996, -0.958408718348076, -0.5956135399058508, -0.30906596108162493, 0.8222936889742489, 0.7297056026846875, -0.39553552077120163, 0.4762688476462471, -0.007292292469879502, 0.39066879820159, -0.20813531859041667, 0.4429744342016601, -0.22854580286051743, -0.6106314432625918, 0.20856927325175192, -0.009468671827171985, 0.6893996507259951, 0.8013067019764978, 0.0289893019537675, 0.7924150477788928, 0.06059828412491338, 0.850120155578457, 0.6661624188077959, -0.1898916873007257, -0.7224934125052228, -0.2036617046774384, 0.32341565728276694, -0.04787467201161446, -0.5177829420296943, 0.98575633528856, 0.677105015933372, 0.18918184836965854, 0.9477630003968593, 0.7470992886990391, 0.6807978405807836, -0.17923303893731934, -0.717083152141111, 0.7466893817961865, 0.4312539682024088, -0.08886285475527472, -0.669821839735855, -0.8623277582648055, 0.21045556782783031, -0.19001515226745946, -0.6417161179639745, 0.6882676881407522, 0.7594894212205933, -0.9033567160437408, 0.03699099905054479, -0.3442833276356265, 0.4370793865012196, 0.9747168695051417, -0.3171920708331858, 0.6062560502908914, -0.11081171294658132, 0.25589927268683826, -0.5219440827354632, 0.7230147369002384, -0.9047386737275583, 0.26615088439329504, -0.0825178423051821, 0.3833204759981571, 0.5474353678243837, 0.2372443122559127, 0.8287184151286968, -0.162729152295485, -0.9978264899263692, -0.7819467109841727, -0.10033420336261667, 0.22799966733566407, -0.3865311769230126, 0.4670584197354599, 0.2005833979148566, 0.30321939920275787, 0.645016799221227, -0.7920408863188751, 0.4843714570671332, -0.5719996299401369, 0.4347586030856321, -0.6453518702266142, 0.04581748568755689, 0.013976368168260611, 0.5675467179288697, 0.49440041700938864, 0.15167630973804822, -0.11404819892985583, -0.10339667497826306, -0.6643660679542226, 0.34356876976424605, 0.46767829770658204, 0.352570506041765, 0.3514315627719735, -0.48517585233683014, 0.5546870119019024, -0.9643890074431601, 0.3200815183621699, 0.22588476384639655, -0.0042879955034089015, -0.668980558004648, 0.6122479510201103, -0.06545450132959585, 0.06702681943833134, 0.9201923661199707, -0.8621919090261042, 0.8390360683013294, -0.23570238310414793, 0.76242277205848, 0.25590353952807565, -0.16736810228687393, 0.3855384689102151, -0.4420602553686952, 0.7956463052765609, 1.0255253936012103, -0.4451822095375921, 0.4283670881457181, -0.24753275597457464, 0.12707228139430254, -0.7292526794094015, -0.89892608705922, -0.6808883680676072, -0.7309235367530085, 0.25218014120280535, 0.4599638174487497, -1.008614146923169, -0.3894560077262821, 0.8886717825228949, -0.6746389462458635, 0.7907507241998797, 0.3605080107413878, -0.2933469473104534, -0.7833511794445984, 0.1717840808679119, 0.8412942330900636, -0.1761899420059607, -0.5703397069608849, -0.0747031532145233, 0.9698591163545515, -0.02965414861472588, 0.8802529251351378, -0.6868082473116138, 0.03652740421154768, -0.49315375045575516, -0.7685129355965228, 0.6073527826769549, 0.4150403914506673, 0.3722065846056591, -0.9225602773643948, -0.019956687012103513, -0.39718166063495786, 0.28678920229884175, -0.49282296362294825, 0.21290168146521393, -0.8633131251139776, -0.7624957465677661, -0.21145447800191622, -0.30949168583625053, -0.548912348365974, -0.5243507278004489, 0.18193126711401522, 0.48738584016655007, -0.47719671684518566, -0.4958459285135078, -0.4442084901986086, 0.20898990625353495, 0.16062070566521583, -0.21901707006912202, 0.4257690811649515, -0.0832709564686166, -0.5055645189246577, 0.9518674670981676, -0.4668965026263929, 0.04310250932677472, 0.37699420577341086, 0.9500583434212234, -0.9887836018450871, -0.28004969341197694, -0.8834973349166981, 0.11140566608737226, -0.22291624007595562, -0.21286780526484847, -0.5646274294305432, 0.25993016439528493, 0.9818124736632018, -0.6839237199301611, -0.2760161978107689, -0.9003908095227477, 0.2700796473281957, 0.6859303504428352, 0.7178562298374863, 0.31503664057579833, 0.8246169558395622, 0.24214851576015542, -0.037279731740496, 0.09897752775549869, 0.23405602071508097, 0.8529447777403919, -0.5025457191478858, -0.08202567232499255, -0.9026853799896958, -0.4901407326323806, -0.7701011846037061, 0.620239696676536, -0.9562612457682971, 0.1175861632666153, 0.5581588968040303, -0.8727749020313338, 0.9167156076634533, 0.9937965720829944, 0.07402300705504364, 0.07699160453819996, 0.6628552746642881, -0.1761374394497859, -0.24923544501788544, -0.8024782562661134, 0.013035415086191245, 0.06143704052718635, -0.3248301290685668, 0.4528375615609617, 0.8437856423454617, -0.05301762211676415, 0.9263546153135116, -0.29721472604488824, 0.27907278094217797, 0.07893431496331056, 0.8743704698160396, 0.7428200518104541, -0.8221659102341254, -0.344540642828434, -0.0379270087911757, -0.5494972360107004, -0.8617605072856902, -0.10040382039869167, -0.7828222657434749, -0.36874535868874014, -0.8376048266583498, 0.5869632284700323, 0.5644900158490395, 0.27425379388247073, -0.04622582146078691, -0.7054135710094205, 0.4348543702562756, -0.040539211981255846, -0.42735586648995744, -0.42974750208005014, -0.7301523935103604, -0.2736035005912944, -0.6756831998725871, 0.9069760105011574, -0.12424489150491831, -0.8712956133935862, -0.12235602295955705, 0.643376102912746, -0.8106819261839415, 0.14368564989401084, -0.01995627048743394, 0.8356068498830397, 0.04528308809525402, 0.7926741959345946, 0.3711053554582642, -0.6204858662857855, -0.8852461528242765, -0.013822882116211282, -0.2701726328118167, -0.2276985367337968, 0.08960661060799534, -0.07648421225138378, -0.7646472428518777, 0.7180807169362561, -0.31543333336639395, 0.973525178644047, -0.7271657818452819, 0.6103696409454862, 0.31485686187635853, -0.1186108017823302, -0.006943741021632728, -0.7123871425690455, 0.39761376527416853, 0.37660225308347994, 0.8883302754616567, 0.5265076777723464, 0.9828521721351826, 0.9872798779265649, 0.041126079453450474, -0.9892263700059819, -0.5702989105358661, -0.11381483295143931, -0.47674786661371304, 0.5782811451157077, 0.47539950016842636, -0.6842367638460403, 0.1243681748426492, -0.9250505739430753, 0.44339927009506236, -0.04464957552138629, -0.12330358503467308, -0.11572462286522138, 0.19017442502381568, 0.7612979949212165, 0.49652735162719025, -0.33290172302620885, -0.3456847390415515, 0.34454293202539205, 0.357118476552009, -0.7916930453774077, 0.41985867245348524, 0.2295744410732502, 0.7279914207149644, -0.39996133544645635, -0.919926353433663, -0.8807232123588109, -0.5165983107343657, -0.9137258454346487, 0.16806201735189955, -0.1622946875913831, 0.02360213793272914, 0.6142149301986282, -0.07049642970129444, 0.15404740928970678, -0.8595409360878411, 0.3535226645613004, -0.22201575480193947, -0.2866946725868514, -0.11444437558226678, -0.5139534867544258, 0.04136610406841171, -0.5322184099013588, 0.7019825454587216, 0.9067895107940087, -0.8884919424440882, 0.5739161161623805, 0.45291500147895, 0.21657024430036662, -0.4508687455094498, -0.7403945250859061, 0.19613424938664586, -0.6969566376552649, 0.8906302203800931, 0.8950667648093062, -0.3982966993198631, 0.9711452133589867, 0.5688782992899891, 0.6828190845324724, 0.5817444093852078, -0.2524377116054133, 0.19619578452225483, -0.47011651943182475, 0.9419503440565115, 0.34204702106943546, -0.6062803063233779, 0.40214207123443657, 0.490349403744109, -0.511627270835393, 0.4668206151333343, -0.13654829685035094, -0.5921109864586033, 0.9096672413951329, -0.2924979654188246, 0.823443570503166, -0.7397185913550616, -0.04366329228638256, -0.08591552165058346, -0.40738999120197456, -0.5275102391343679, -0.9323388865876926, 0.09828226564014673, 0.3788207875601746, -0.9664741545552357, -0.9477021082935576, 0.7361883975165205, -0.07641972735397351, -0.511809324856277, 0.9060414284658829, 0.4856734967985108, 0.37267762233812995, 0.5610181758052033, 0.8519703030512434, -0.5692267700939302, 0.7619205870807313, -0.7774069344479492, -0.31978003747809897, -0.2544623816021154, 0.5855778083957344, -0.7242331705167016, 0.5397290888108003, 0.617938999154711, 0.8582485329340686, 0.38088631194574435, -0.3181920815940376, -0.4248282631370911, -0.24127965743593138, 0.10826797884688974, 0.537176051460272, 0.5613860883225836, 0.3943651604165369, -0.27820387078900477, -0.8430212750674964, -0.3197341410884759, -0.22867158499374476, 0.4438851776797874, 0.06178622980580473, 0.8154358994083655, 0.22130267332111017, -0.6153121448648226, -0.6734139063796075, -0.9663938238150747, 0.9591856157725553, 0.4060603760061304, -0.8600837692362796, -0.5941226866138135, 0.8583808323680695, -0.795955323098047, 0.9086808620395662, 0.6588118623616511, 0.10868131181120788, -0.8111346419667027, 0.8104375422833603, -0.40628513140182376, -0.34412323275816586, -0.9513073829960866, -0.7581137832179589, -0.1439290694245365, -0.9364652766510629, -0.4839564860185041, 0.08126001887978926, 0.4068886853837617, -0.24611009055650207, -0.8091551351987811, -0.2574934415554837, 0.4316607381438804, -0.382636432852008, -0.32411691205551546, -0.9042249086548496, -0.599221383163163, 0.2780232165449584, -0.7670287696395854, 0.9360014268782597, -0.5149158642061069, 0.15752815932207254, -0.48772289242817046, 0.6225289489388033, 0.6689889645867025, 0.4882567215642616, -0.850963066660734, 0.45986758612505124, 0.6045813202470477, -0.08220895532910248, 0.8958677574298111, 0.9691680775574677, 0.6299082025342186, -0.6429417798596379, -0.9883083429835849, 0.34773564088667824, -0.21689800278164711, -0.06031470401278708, -0.9369182397883007, -0.9684306238530935, -0.06304834648953594, -0.2688325299250505, -0.1249779329582078, 0.27395599228081036, 0.4535567389237438, -0.5533458647607667, 0.6350999042526079, -0.8902048284346811, 0.6664313663040127, -0.3720592056465411, 0.602105975339225, 0.729941669825127, 0.85901597994051, 0.2096192674324978, 0.4843060211175907, 0.0710068807305136, 0.5362925763622661, -0.5866238266780422, 0.14103346626684565, -0.21534873532565046, -0.8438702186314809, 0.9985907837605049, -0.9345815014398495, 0.06890103312408279, -0.6439700858454582, 0.913001664275491, 0.23454542735568018, -0.01992775587277862, 0.38659433459029957, -0.9804391987495737, -0.9787273805813469, -0.5707592492239387, -0.6746755004448337, 0.20296995517635966, -0.7669076618578015, -0.9076876575814367, -0.6238604680546656, -0.9421670192333685, -0.7358451107815984, -0.7521842953297592, -0.05030346809768613, -0.9962360652879545, 0.445390240418059, -0.4096378815254778, 0.0719812647880995, -0.1077333051031739, -0.8093954466172725, -0.17599251894854698, -0.03452669217210645, -0.24391004138490877, -0.9466659104549563, 0.12511721287851016, 0.2169802286692495, -0.049539713905426996, 0.5089095937727885, -0.22189937507568236, 0.16831522745766248, -0.8790307625201232, -0.15748671344931903, -0.8089179890772568, 0.1334893069452653, 0.4184265739879373, 0.5280903168817418, 0.6901006373628051, -0.6387915311928865, 0.7056667860519972, 0.024507028919072298, 0.7361325496565513, -0.8617672179867198, -0.6082981960576381, -0.8908276556484835, 0.5970765408144182, -0.8246642296471023, 0.9670724593780837, 0.6260811756939443, 0.43507792963495373, 0.21256442223767108, -0.023023455044696984, -0.2098916384548873, -0.41912857223398886, 0.6745744319703921, 0.7869184131883629, -0.7588752999903732, -0.6840107730566458, -0.22802627415289023, 0.24481609110413505, -0.02344961048506375, 0.31674468963709346, 0.5955096127059435, 0.9667895327982898, 0.2846883023866558, 0.7811934689287732, 0.573779496177727, 0.5668623388047729, -0.5221419913237197, -0.058164743982344246, -0.8240011989794213, 0.39686417357237525, -0.3820815859955147, -0.9475717511220167, -0.7455104021114907, 0.9531525259171126, -0.7335987029742257, -0.5409425664006458, 0.2776870207521998, -0.18121666109468837, 0.8452814975076319, 0.5879397810034928, 0.8274021232105113, 0.297937513912679, -0.6686461793729361, -0.5544105759268938, -0.24109642524565467, -0.916289517245559, 0.27974845152681693, -0.46704272079926445, 0.8125544044263561, 0.4361866299051699, -0.13833557308949562, 0.9448798483645686, -0.6164098699836473, -0.16815051705086156, 0.49069099607887595, -0.5684520010727583, -0.5758473893181927, 0.5446885551285127, 0.3616361509000109, -0.4703963365457781, -0.9960583231699685, -0.7610213616328431, -0.4400695466985379, -0.0845937273379973, -0.5412563647016606, -0.34590700231036187, -0.7015548637921984, 0.048453937541046654, -0.20227681607075199, 0.09581567303436445, 0.2912001812272089]/1.1530726141132215
0,5:[0.5259565139034033, 0.5330310688229603, -0.6040066046950223, 0.6333387640251822, 0.8833908999905402, 0.30813095716953987, -0.18361681062299984, 0.9799480997319265, -0.9532532694445344, 0.5395646621272847, -0.47943639301874463, -0.16327024132734658, -0.14925204216672916, -0.3664624854713907, -0.7193715489356565, -0.37055645286018746, -0.3118722860659111, 0.4054557652480608, -0.6643900599209775, -0.8626988130915048, 0.863270659596657, -0.17110122888737678, -0.8532720394472832, 0.26281602769139556, 0.06591632225959154, -0.9237071619166828, -0.8675287433475845, -0.5135687396992141, -0.7754281757497214, -0.78215494767452, 0.9554360809821647, 0.2734447845659733, -0.41138334639788376, -0.255755395929957, -0.5285059608146669, -0.5390148291968835, 0.6952149635439324, 0.6017822481696984, 0.3668716969963883, 0.47745855634302126, 0.560684598589902, -0.1333735064904454, -0.7377445142619323, -0.7821630002645198, 0.3500565342508977, 0.5891885246107268, 0.7190374495680202, -0.2423932460720264, -0.13139612930666744, -0.3286803139438301, -0.5057796493676145, -0.21416512511384278, -0.3835949048597145, -0.860296060128684, 0.11705058792787848, -0.6848271984338392, -0.2906531403109798, 0.9209364442172501, -0.7729885512787738, -0.51154649395365, 0.5677493792999031, -0.3954441041778234, 0.2119805117202569, 0.5414095530464522, 0.8983638163130203, -0.6526859592127807, 0.24028512891296322, 0.42133904876548195, -0.7731335109754417, -0.7830832021018795, 0.3511050725715133, 0.5894082989857317, -0.39852892513820404, 0.769100057302439, 0.48665685509671247, -0.7756865323264809, -0.9561381891799667, 0.46914917167774506, 0.8125205627825681, 0.7702541997755272, 0.13112490566683088, 0.23066880500179177, -0.666431518155479, -0.4842523060870412, -0.8210265385231719, 0.5743384441717057, -0.2885503976067261, -0.5000656513030581, 0.4806987506142282, -0.906159367410124, -0.3485870968000909, 0.5838358108525764, 0.9894742825474985, -0.748819270116937, -0.5863181492275266, 0.18621381128643782, 0.34828761458416263, 0.736580346246539, 0.9965180840875006, 0.6540856467693359, -0.6882393202936957, 0.2963568205065442, 0.7243671616942429, 0.16153552444755132, 0.20294847610543593, -0.6543462923447645, 0.6454463781228853, -0.3527570668939995, -0.8294007051030299, -0.4572712905352827, -0.0860715723227492, 0.47638734204166755, 0.10716606108991833, -0.5681033581262274, -0.5141200746211512, 0.28787953581851267, -0.9791458652461175, -0.64116458957924, -0.79596854961472, -9.92599821848005e-05, -0.22830149208663877, 0.11098757810179409, 0.1148587443868878, 0.8340660212692366, 0.3333050287720428, 0.8386849451426359, 0.9121654026396256, -0.3078222838471585, -0.8377856873167694, 0.20108597384666638, -0.5567145435828539, 0.08407739595654118, -0.23194681896184444, -0.7734504373758352, 0.6244525282835994, -0.3191141232913248, 0.19892672774188785, 0.30685542092824125, 0.9585643462184814, -0.5635286068933614, 0.7206598893852281, 0.2778945556455441, -0.12109969344749394, 0.2914730263973898, -0.47069765699569915, 0.22990594353830865, 0.794018426487109, 0.3069888937559781, -0.8510010366961914, 0.7219974945501887, 0.9963389943969795, 0.1444890009847175, 0.9187684487165723, -0.5785423436148246, 0.7659706116869104, 0.6006902077886026, -0.718595846401497, 0.2186051451608658, 0.9396379619631162, -0.8631930997905133, 0.8013234016578518, -0.4776077679251747, -0.346140175457491, -0.24601783779744785, 0.26816487995425403, 0.9049198010355647, -0.1550909288092879, 0.8983407128022631, 0.1040024756125717, 0.7143979886474245, -0.3997507945790879, -0.8767070242034474, 0.7083130023990464, -0.8903287682574289, -0.02863399168242309, -0.041765514416142395, 0.9448959570604432, -0.36725501083643797, 0.3298731400741598, -0.483499099057319, 1.039379552130407, -0.6005706026263878, -0.26456719749053487, 0.12746211657941892, -0.532972931459303, 0.7318005804725767, 0.5006737222570167, -0.8960268063212916, -0.9353944758439313, 0.06372842698667608, -0.6865277644872997, -0.5953420904929092, -0.24787234777689304, -0.6238227944883483, 0.3585229423512343, -0.29795273782880716, 0.04240031256704491, -0.09281261257347584, -0.31477463722072707, 0.71819879659936, -0.06117177443902433, -0.5507437931794653, -0.7703295954960511, 0.9090864010556381, 0.6837944530961573, 0.4889598380317919, 0.16263640306000332, -0.14610738268560577, -0.7880283757902155, -0.057934898589700336, 0.579797850655354, -0.2843756393723682, -0.0036818213331497214, 0.10583045913044828, 0.4975815711733026, 0.5703763422727243, 0.7078415505268953, 0.20230450935611924, 0.06835917782262332, 0.8262120988618795, 0.529838483655852, -0.7034251875486991, 0.7200347981689564, -0.03922289062916786, 0.25433326447941185, -0.00605145980649735, 0.9267072290033613, 0.22148634210091853, -0.27865797269903775, -0.07960712476652962, -0.22387924791046657, -0.8361800139241998, 0.15016871320060635, -0.740769481050064, -0.08815816398894695, 0.5388686927422791, -0.22794833383376636, 0.9559198436283702, 1.0244107939346956, 0.6876995732075616, 0.518601684795243, -0.8898327112666137, 0.05001881268875718, -0.9209774999134374, -0.6200980834820806, 0.27044446056246574, 0.4321101843744039, -0.8044342120946038, -0.5251651393341903, 0.8080868316946718, -0.8125402049209859, 0.019506435371471786, -0.7010548658813667, 0.9808838491971227, 0.855975422772538, -0.5424428346482549, 0.796178633495255, 0.4169064303202207, 0.5681977691101228, 0.4290132937715141, 0.29194161700647664, -0.4806360154333244, -0.8007295351119108, 0.7153498727692558, 0.24586535292638004, 1.043899297107581, 0.09095905118870397, -0.05560119857669646, 0.9072881775572901, 0.14588102699569463, 0.04261802386955247, 0.27461428995469095, 0.8360069831519963, 0.4059638223633306, -0.1199415446217323, 0.8097644247716747, 0.36569373281029577, -0.1502179451403502, 0.30976299978028043, -0.7966979892059984, 0.5121536289573732, -0.26669930152388155, -0.8094188195535316, -0.5856849997072702, -0.5078311995208361, 0.31718615909632225, -0.6688884173416348, -0.1600080482100839, -0.8414395101346969, -0.9169660209062636, -0.17854108114471362, -0.19581018200528438, -0.39864879869167663, -0.9487160743779557, 0.9652548199453608, -0.2914906335779257, 0.8784967890177631, 0.40366088246920356, -0.4734193465735736, 0.654430253490696, 0.7092774376859917, -0.9173252754629412, 0.24189980344291667, -0.4304048991798274, 0.8502158531186094, 0.381995590633468, -0.1359561252027066, -0.29564495802903545, 0.6940387348039598, 0.16359896905167615, -0.7978328466488641, -0.633838220894823, 0.9058002903225005, -0.8974575208488689, 0.741050278268451, 0.26804039762802867, -0.4501283728491047, 0.4322208041089792, 0.9389328916648759, 0.16643393535451578, -0.5044589673729413, 0.4699213680976427, 0.8910097009783002, -0.47808194999616554, 0.28154920312097304, -0.3484283556119976, 0.29066976023953656, 1.0030066370105595, 0.26629728991188234, -0.9071999892074527, 0.8424830675555366, 0.500673480072568, -0.9699507246724209, 0.6957316754219114, 0.6863959767887281, 0.252645814804507, -0.40396893147445523, -0.8603577982951474, -0.9639961169172697, 0.5605595826605135, 0.7957005445022303, -0.6361614231778591, 0.8223061344199648, 0.3897231576147333, -0.8244471749417666, 0.6843820874671325, -0.6017028094205852, 0.6288170562016662, -0.7856611398432534, -0.17080673628665224, -0.5316381547905001, -0.8046421853576214, 1.0367135280191386, -0.08687298665716078, -0.7921170901940623, 0.5944075572627103, -0.028767252307056672, 0.8492677522426946, 0.37725893722138637, -0.6913533356953414, 0.5946220850081944, 0.548463832983923, -0.9804909093218338, 0.5065626340696765, -0.7681686920808048, -0.19629006607668065, 0.40677146763786165, -0.7963263379510044, 0.9852547841363488, 0.7732976123362298, -0.2249878206090213, 0.19919968216406714, 0.9617859665515479, 0.5650056749400345, -0.4097812147565572, -0.4101245338049752, -0.4779023950263452, -0.16784670181764907, 1.0235159873538489, -0.4806261682627196, 0.006127739642581755, -0.20995826189776406, -0.3350389628727569, 0.7412999121014111, -0.3987657386554918, 0.9303417173214773, 0.24247020235429867, 0.8991583401285104, -0.19594277198970914, 0.7417677060710264, -0.7185441886909146, 0.5203375803224763, 0.06174142211620537, 0.5884450110113657, 0.8102786794910029, -0.3183664562408588, -0.2521799394691882, 0.3451745143290119, 0.431755154038091, -0.36812366029442944, 0.5227122840147085, 0.47125088128072967, 0.025686953122217037, -0.6482179180717906, 0.4673996459021814, 0.4897071614212994, -0.8310370303261212, 0.3375697726259228, -0.36046655283037277, 0.16339655710386292, -0.3767028007675337, 0.4216276505212218, 0.6889673794627362, -0.6002258681462577, -0.09998266659803151, 0.30827073683988493, 0.8837099966839173, -0.1530083600077462, -0.9699244124497314, 0.7144189547401358, 0.06737821204484051, 0.2666879707597465, -0.46946967112496907, 0.3504012123634667, 0.790897658634679, -0.03337300348051788, -0.22658555962824584, 0.10713328681814993, -0.35995124499590636, -0.7946363461543993, 0.44045996022561545, 0.951308269091554, 0.9826959658385158, -0.1951087015121811, -0.10490048685018946, 0.09004778787834787, -0.5368787198745029, -0.4810480780615401, -0.10727737758907133, -0.194526782167355, -0.025888280784352943, 0.3745520430540739, 0.7555047707087905, 0.7094149674287695, -0.5979234076439468, -0.5228363562029362, 0.8786603403197427, -0.7103257113855852, -0.850487427310991, 0.47783515520125874, 0.6781138164086987, -0.43845988997399155, 0.5404711779724414, -0.1594771317056831, -0.15626201531247202, -0.14361975910027078, -0.3029231578197671, 0.85759149140476, 0.9944040581950421, 1.0013126497816665, -0.07195241978534685, -0.328010297063394, -0.37335170081052654, -0.22851202108772567, -0.8178864658987409, -0.7993680734805467, 0.8458107409068719, 0.2780174279429238, -0.24047025883601536, 0.1286247789671555, 0.8842968220198807, -0.4237549192838353, 0.34062136603776766, -0.7905583822364903, -0.33256527636357214, 0.49006843277777845, 0.5965052581170984, 0.15452089171941075, -0.666751141014709, 0.868665428545963, 0.08919885736872572, -0.49682012297290695, 0.7600450632201895, -0.30311190429316187, 0.15653255656675819, -0.08623317874508009, -0.6243888055958902, 0.752214861754749, 0.6061401402218969, 0.2629907880736382, -0.015804956032601847, -0.2038786883050661, -0.344240947865472, -0.5334216331073128, 0.6330902157843395, 0.5989626610831903, -0.7603357095913632, 0.5647106558538398, -0.840736646686853, 0.6930752230787447, -0.1263977312595913, -0.030749743618211166, 0.16032066587694427, -0.933883633024571, -0.6905347718102062, 0.0693496838428318, 0.711751909429382, 0.5317888193632087, -0.5342081333511804, 0.24483199450194112, -0.1968522792198752, -0.5285022030841472, 0.7498797071377955, 0.3094658103102194, 0.2560125373228971, 0.44008552244597976, 0.9373666189591019, 0.4071698948826208, 0.5248849778204021, 0.12285075272982172, 0.2793536111930071, -0.33945341657781, 0.16293945318862738, -0.3183395556786376, 0.9570412098560777, 0.22283004249870775, -0.002569376328193824, -0.019135811028482438, -0.083671044351175, -0.8248122146369934, 0.29281489162559815, 0.6355765318733833, -0.946545332360228, -0.5075855586797478, -0.6678710316060059, -0.818616679199089, -0.2636031468178597, -0.41903831725192137, 0.9879691065209548, 0.6010666360084955, 0.8246372308079123, -0.21056752447545696, 0.10011335739754994, -0.046736614886989325, -0.09838727834024558, 0.4181943769780861, -0.7389567594091846, 0.42077952647489636, 0.5541665974906064, -0.07829696443106055, 0.4987336977735084, -0.05187040821843457, -0.06166958697301533, 0.8167912588583074, 0.5145159576369268, 0.04743419945476978, -0.8127813944031869, -0.005768561395332769, 0.40917801284791233, -0.8134613852469177, 0.21976656394420124, -0.2677656038165297, -0.9669532785077372, -0.9129828749236802, -0.6775075649104592, 0.11730145337157062, 0.11195292526070198, 0.2686797730088391, 0.6529708900214714, 0.9061046743186293, 0.45082901091553174, -0.6081453992234523, -0.6112052261053573, -0.6112334551584134, 0.555744072194545, -0.31500681727153435, -0.39614781396023807, -0.4034923389867341, -0.9504785021065647, 0.38876079726944146, 0.4545843558216666, -0.17377585628163975, -0.4356911285226038, -0.929453872252801, 0.5280760245918257, 0.0031162265444246084, 0.2932796600031202, 0.9473997507998058, -0.38802745600701805, -0.3773653807833117, -0.9422782650150772, 0.24510657831322, -0.5340644842583716, -0.984885723387478, 0.6665367655608605, 0.5442247483644853, 0.4785837633542218, 0.5179414659879299, -0.6882927509939506, 0.28826187816112464, 0.8025620478335005, 0.34023924726318105, 0.55812189968777, -0.8722082765142756, 0.7821695951738987, 0.09559989233192315, -0.1809425645326192, 0.7394073044727287, 0.3037769950872041, 0.7356955117430259, -0.5445980187998695, -0.43077273139227834, 0.34026231985871946, 0.9094877169387904, 0.3762780221945511, -0.16241534759631104, -0.7790349024779015, 0.3524022092622394, 0.2514306671558381, -0.051661928835356724, -0.060137747252853695, -0.3914910564733315, 0.8129418018924064, 0.3704984110989409, -0.7109559917480909, 0.5856347164097833, 0.8912943357034477, 0.8917590168473803, 0.019890578382848807, 0.3969073510570363, 0.7091783011442611, 0.18052212622680827, -0.5900761263236989, -0.5548132915552609, 0.0326475315377327, 0.7291958579099773, -0.5408948505736232, 0.7567206818169704, -0.9298447395089245, 0.38246987494150286, 0.8869710410050423, -0.13055057325914277, -0.3159763232700951, 0.7667061627810001, 0.16031502574561496, 0.6039436085452354, -0.5445708976930581, -0.14777156078971046, 0.9726086202353025, 0.06022328447278508, 0.49607164796941083, 0.3076611907960823, 0.5094313548432663, -0.015861023274355446, 0.807921347695819, 0.6596190774881879, 0.9048700419521913, -0.18471742472744254, -0.9208434976100516, 0.7934918983140065, -0.12250468420391047, -0.2135813634290131, -0.06390499592220923, 0.062390385827534596, -0.3694101072883891, -0.2921041601563478, 0.3198114089441503, -0.2694411924899754, 0.03899227400200033, -0.6756242385190836, 0.4400533398491038, 0.03691787759084941, -0.5761910206782979, 0.35851742036080925, 0.427997667872001, 0.1042608140072416, -0.5584716607072011, 0.11768310318207797, 0.03292141081871838, -0.9847561365668821, 0.8370662854393991, -0.6267713471524148, 0.16691867416361025, 0.21653894132278426, -0.7001238313119066, -4.5413112234521095e-05, -0.06768615472506075, -0.1295695292709699, 0.2911776395295596, -0.5935333932550738, 0.14222039017444676, 0.1656258921436924, -0.9598553213133517, 0.9164516422947032, 0.9418684937766738, -0.5420251872685449, 0.6113038499961836, -0.6480308834336266, -0.8647031963405105, -0.04761899056740826, -0.48409834964429566, 0.49255206811126295, -0.8972011643797497, -0.6120137568215595, 0.9676409862098492, -0.8832252840815787, 0.6992805934860199, -0.23864527447280146, -0.8209050860197293, 0.6620989093273422, 0.14164909875938325, 0.9482291104372353, -0.16377078047925164, -0.12605404083228688, -0.684756308789689, 0.6973584396213764, 0.23157992807454614, 0.3168719256232408, -0.7319737833586585, -0.45484244402664453, 0.743406235037975, -0.6686500800473644, -0.8010166760730751, 0.18081043087203258, 0.41335217505487415, 0.0030505985502056188, 0.9506727190962305, 0.607776853452817, 0.269626541826677, -0.9419035915767264, 0.16245569755747336, 0.0016004068872588083, 0.77019381582326, -0.8258184923533423, -0.4210278151116319, 0.3461128978148599, 0.7087516189204847, -0.6729374259947594, -0.6811819171612306, 0.4084518369158601, -0.8623056621215853, -0.5383367122055113, 0.2938474405421835, 0.4309380429645959, 0.30872298358816513, 0.2595484240263985, -0.6349800346947421, -0.11795899316094556, -0.6708017433577504, 0.9453738184595644, 0.3295080591638291, -0.8722920052597247, -0.09552945171199267, -0.8923467273464101, 0.2831598520786023, -0.6213104143945107, 0.8770482174390357, 0.9727594525616388, 0.7414960496861818, -0.02215270061215735, 0.7592553288762873, -0.5470106123387036, -0.8467586970436353, 0.7259414868453442, -0.05590414659838479, 0.9691715465503296, -0.5218298420290067, 0.22162719167884212, 0.6692241969382943, 0.04943683710951638, -0.09964437976576886, 0.2935966648685927, 0.004609829995238806, 0.6121446669954624, 0.17962291335637282, -0.01660306032511, 0.8943167354886747, -0.5883150659871377, 0.6975191275453569, 0.671353967057521, -0.1018684106808736, -0.13169403434151516, 0.891309495185187, -0.8966768258289886]/1.3222796628478106
