Lh,16
0,0:[-0.7192557858946205, 0.2104430276299334, -0.4485195936689048, -0.4509026534520144, 0.12449801621754175, -0.4545594419521186, -0.16541607517276002, -0.8056795326250481, 0.4611754909587644, 0.6143844656463722, 0.9780935596791214, 0.36533661156367625, 0.10210202919160327, -0.28539771186978213, -0.7191284858511935, 0.53368364960013, 0.26233746936493474, 0.9511873136766551, 0.541368034609452, 0.6096916400299506, -0.3889940258321951, 0.8259799665712315, 0.7993246236304274, 0.21324125509033864, 0.0484327239822413, 0.7434555193816776, -0.962877805166481, 0.6332892948845925, 0.51953950882342, 0.36598085256358726, -0.6179955465642051, -0.6430791118208306, -0.20362031622851862, -0.8232711381029734, 0.7220964792999602, 0.8524223444090719, -0.4421966400056686, 0.3474651159525269, -0.31382378059805344, -0.42662121150041843, -0.04107498121095408, 0.08230732553974458, -0.9881066368373798, -1.0140967807589467, -0.1035034015372031, 0.6224180953298655, 0.011495219998226933, -0.6960841950497976, -0.08191459463219766, -0.8987645017522784, -0.7876660799975586, 0.9872390944563529, 0.6209851875439287, 0.15803079009380672, 0.8659987340907269, 0.8971107138922951, 0.7134294356053545, -0.5180149224238106, -0.4545452548256479, -0.04277394345182839, -0.7307592638354257, -0.17558357684813844, 0.5518324035774724, -0.10968095192990016, 0.9290879929986998, -0.4776659019759792, 0.7709594940162262, -0.8174536002362062, 0.5813094495006256, 0.6934016799072648, -0.3064808422574938, -0.972357133260749, -0.3275794092562515, -0.35124618149347114, -0.6198376729819428, -0.25024485543288083, 0.39398363643941636, -0.08681663316691188, -0.6775568366195077, 0.4289432080426986, 0.3506003414286095, 0.6268376136539668, 0.9471993350697381, 0.4312287188045554, 0.5500719490738284, 0.8709279750671184, -0.6869267740898086, 0.9208619871070556, -0.673175257873526, 0.9425892691260943, -0.05387058275883334, -0.11855954476109597, 0.2581667472981444, -0.35510582680817004, -0.9139503487920335, 0.11178910946046969, -0.7543597150841387, -0.4574210314799699, -1.2801537835661925, -0.3888300471396847, -1.1495263750922733, -1.081462871597672, -0.7466921540977896, -1.210740469491173, 0.10348907315050673, 0.5357539414058707, 0.5739959266595698, 0.2672225776739153, 0.38321315634062036, 0.5216270347985617, -0.4295371123673841, 0.38685337714433965, 0.5421139085305664, -0.40771842539784225, -0.6538485390610653, 0.6620130271268624, -0.2310346400969436, 0.8618103344430401, 0.5257598252852643, -0.09873588602817919, -0.7282480989911101, 0.11053075726559831, -1.1279066215648312, 0.5051002385701737, -0.6616020806135378, -0.18816480809062894, -0.38340514596421627, -0.07882433931856694, -0.5700130487651569, -0.3784218816406243, -1.031021281123092, -0.12185251666834473, -1.1032420311336835, 0.5790394040847989, -0.3113785569124501, 0.05078258091039037, -0.6170670352938761, 0.1354169188889373, 0.4612808432050692, 0.5656444679239665, 0.7553358496235867, 0.7583137088619212, -0.25689962680990797, 0.3160766461595759, -0.35636104889151765, -0.32038878148845257, -0.15021196804172987, -0.47665108130975636, 0.2811358066158183, -0.6356571615426279, 0.24575504717704466, -0.7259299998446412, -0.10356587601386602, -0.5392692458382238, -0.12053553911688697, -0.20863940807419207, 1.2708497356053694, 0.26160939245654485, 0.20284638715818787, 0.0065431421315521945, -0.47148523273311677, 0.384797814460725, -0.7002575075784101, 1.0917420869275059, -0.06869715571276076, 0.0388289126022865, 0.5584996035574606, 0.41143330204458933, -0.07179803924555794, -0.4932211910273542, -0.0161620856047904, -0.20426738089017768, 0.8311393953915295, -0.5147437905154993, -0.6733462633379754, -0.4778090319957413, 0.30467179999279576, 1.0437799332266424, 0.3757036667667374, 0.16832430896387354, 0.5000140851653521, 0.3822425941911853, -0.021800132676386346, 1.0767107923175738, 1.0701870233862156, 0.06054125910693664, 0.7048750004289953, 1.6502417509473004, 0.6548875813964307, 1.4727819307173633, 1.0442436713536878, 0.9971228690774612, 1.0398633694287502, 0.31017638676531273, 0.49978470685561127, 0.5235840086487865, 0.4080925001063258, -0.6787606408347707, 0.9087083229030315, 0.5463103165870573, 0.38699417344272075, 0.343887434095973, 0.5000255975979676, 1.1116609824846955, -0.28251949339766824, 1.1709192996535267, -0.31065612413209504, -0.6883356990086923, -0.8848147792906528, 0.8930725904911307, 0.08487162468596576, -0.19064158918629392, 0.44842200735009086, 0.6565132682164533, 1.3458710682228505, 1.5552996230657767, 1.1557459682875983, 0.37311693699940013, 1.4197276427386447, 1.15189686508696, -0.44007872816917093, 0.4575720686738352, -0.41213022665735444, -0.6590964546963509, 0.3116744245710951, -0.47616278063431605, 0.6561199775157592, -0.10285855187388633, -0.9354007289274919, -0.5524076971540456, -0.6350834708119792, 0.27919238636616744, 1.1042350457264476, 0.3285176544447021, -1.0407710850119694, 0.641002022852238, 1.094272513885213, 0.04586617542383463, -0.6145523658194467, 0.23892727238331876, 1.4887616842242484, 1.3741386356185896, 2.0199584732213904, 1.2729520730638786, 1.9588622702932077, 0.043591328303027005, 0.6745924158061923, 0.22278759048630725, 0.9787658023368238, -0.38888401494905334, 0.15856474045138239, 0.18578654527666716, -0.23417153335081006, -0.8022491742148425, 0.9239247738286367, -0.8131240455729494, 0.40883140660933676, -0.20917727426581798, 0.9156515051594604, 1.3936189171895335, 0.7084866413300185, 0.3309009450543233, 0.6762567959040369, 0.2121220275824798, -0.5101634664594327, -0.19360960475499853, 0.8971759355151516, 0.6712248588321544, 1.9234909995650968, 2.2876855076827973, 0.9640247675013786, 0.9903795528616356, 0.4709775951306444, -0.1271011314981333, -0.5666821396726192, 0.8300949159925499, 0.32070323157219677, -0.03745201999941437, 0.2343370609880925, -0.5911083250774571, -0.9864800998367795, -0.02912879086441787, -0.24519146134929581, -0.05849321278578463, 0.44169138099675664, -0.6740264412583389, -0.6991264707879198, -0.37147571421487097, -0.7537159214710644, 0.4564811011935223, -1.211423705360837, 0.20321590513836532, -0.3881060269969323, -0.6841303238195576, -0.7692722798976213, 0.8771027084412494, 2.000619003006646, 0.2596369674015373, 1.6837564130411689, 0.7637689464947178, 0.7274495869992573, 1.1937360112916144, 1.1690388472201105, -0.7998862524367035, -0.4364841905666279, -0.45655753136833976, 0.35828717589578585, 0.6023569939518336, -0.5538132084171417, 0.7571667303024984, -0.24615876138922071, 0.022935325529615278, 0.238118078056337, -0.024651225201394792, -0.6539101341933413, 0.8439466690932401, 0.14986981552664808, -1.1362577147696031, 0.1567814905109183, -0.42696809026965665, -0.7025169317577645, -0.24033483737382572, 1.0629428251826554, -0.01030474750704062, 0.03179539922881248, 1.227682359726538, 0.5439910015422323, -0.3173712600255199, 0.4658997508434938, -0.7349521515680654, -0.8608654246757813, 0.0018533888716735524, -1.3316229527730723, -0.8914978274162122, -0.8343701327985491, -0.6147991073371586, -0.24591110884955336, -0.3477128397848055, 0.21557297258709945, 0.6518284255053315, 0.9147668016256241, -0.23982928361926517, -1.0697087033933386, -0.14504748998315692, -0.9451387691799785, 0.21171187623684626, 0.4808621309653812, 0.11068532022613552, -0.27737183254011405, -1.2285832234579293, -1.162380580625062, 0.5461485870306882, -0.2924354990519216, -0.08314298594277626, -0.10398181050000223, 0.5206870576938818, 0.455599283671032, 0.14915957672444313, -1.0606036598396196, 0.08267379410914612, 0.2736739312079178, -0.9111967715169377, -0.827280870575, -0.0790157976171932, 0.8793865680806436, -0.49990503719819396, -0.9434813981022551, -0.540235270241796, 1.0599708312409974, -1.4618817749585964, 0.33220172372837375, -0.22557098117791366, -0.09419253902734658, -0.6072060696939767, 0.3394732388279824, 0.08891870387336345, -0.3412692136793281, 0.9120626305924869, -1.286870286510258, -0.03540017053060333, 0.1778265745796324, 0.7960163372706492, 0.24712131216838534, -0.6439164765343363, -0.5601435934083461, -0.5790385340038294, -1.0908526296808094, -1.2303577998441815, -1.2326330063998423, -0.48087640212419813, 0.4900456600316577, 0.9688176619809302, 0.24215219847725342, 0.25166580571529623, -0.4631742798354168, -0.4608483834479079, 0.6773416093863905, 0.3138656509791857, 0.36132172012444547, 0.15051184625057776, -0.46530714293942155, -0.4215766957810113, -0.13362726497197178, -0.16741986602249762, -0.15706411072370705, -0.0012237447305369531, 0.4553957832573365, 0.3489470452264107, -0.36017520943877485, -0.03292343930306718, 1.033119919777219, 0.915054955835158, -0.9228012099460939, 0.1609981211120997, -1.0497208143493864, -1.0186928010452145, -0.8353525201756338, 0.25802135705211643, 1.01672537186613, -0.6008269509850444, 0.9213079531419588, -0.9110667680437367, 0.9941943491924833, -0.9640774805913808, -0.20034183466002223, 0.5407219717560985, -0.8989781436205992, 0.3026749845452843, -0.17950142322157947, 0.29744094414372513, -0.942775832585838, 0.3632261123162954, 1.3058214012310305, 0.8400712085884268, -0.6717701268883025, -0.6621666217180795, -0.7543297207581507, 0.16654512670855434, -0.12030874029967073, 0.07000696274243055, -0.49602166579294216, -0.07249509611396536, 0.008678772229236523, -1.0133570919925416, 0.14142312591330516, 0.9356833639121764, 0.06977216408548424, -0.017115357258460445, -0.1949730233389777, 0.8377058237180854, 0.517510087446862, -0.736771883860596, -0.3688737015707044, 0.4594789608140778, 0.5660226913222157, 0.08543436892047405, 0.3949268852082424, -1.4321280722012064, 0.013051737126493426, 0.28893854370655214, 1.2267440466571504, -0.30768525256876217, -0.66655677036914, -0.4338322319431188, 0.8670315692736189, 0.7269929346377195, -0.0391273524632768, 0.005605859751790872, -0.5497798295939432, -0.1112728903208043, -1.0298716559492496, 0.46701650815462803, -0.209527788006584, -0.37494835972769036, 0.3617682495747284, -0.6130390452921506, -0.7029936123252796, 0.8982000033147439, 0.24133566211436136, -0.7147093512146065, 1.059503115621517, 0.9904385846307133, -0.27092618758789855, 0.428173527786107, -0.8102336708227583, -0.5117450345093052, -0.440963211523233, -0.14144553002592108, 1.215450255501585, 0.2816054157736842, -0.9056883585920547, 0.4707084050187832, 0.335597362468519, -0.4290177719801601, -0.7178391239404619, -0.46236152982324025, -0.6570633500598586, -0.8475016910594282, 0.009315168104736454, 0.9109057636587929, -0.33323949299031685, -0.7368842151666596, 0.9673803291867072, 0.690143820893079, -0.1607302736652818, 0.0513271807088384, -0.8223842577492411, 0.15156836717758573, 0.1508576962495866, 1.218320296847459, 0.4827030579499536, 0.3106936862633798, -1.1438049974949278, -0.05491874676527693, -0.8352158269238035, 0.39509743722843466, 0.36009394372229175, 0.5976313372749416, -0.7456681715538727, -0.3950903599288397, -0.6727210714503099, 0.34593861605192827, 0.14535695508066232, -0.0030219324773639346, 0.2634365370233621, 0.15317813481574197, -0.76919920661046, -0.3352590392910859, -0.5873070041405415, -0.7886827393157397, 0.11312219294031367, -0.05112865535900089, -0.20547359487556482, 0.16073417348750565, -0.2708563849729152, 1.015852522270652, 0.1161939208092868, -0.47989342632611814, 1.5848246557619605, 0.8961056210632079, 0.4429512268682986, 0.17575303717832347, 0.04959907683516398, -1.5205150103964322, -0.9747664857265752, -0.3653620598003803, -1.270683711453654, -0.8726827943110295, -0.04655842789584646, -0.5665136301360326, -0.3955993138575163, -0.0005988855323944653, 0.8326363983489603, 0.6668463605467545, 0.8266809129905289, 0.14145020269281178, 0.9473498145839215, 0.9419593054665547, -0.845348634348976, -0.8879078516571863, 0.31688277539384857, -0.9882916695545019, -0.04767541566661222, -0.3548469108327385, 1.0663544243100629, 0.07715008231677686, 0.8376985002101525, 0.16827006309895165, 0.1459947403147086, -0.18794182213827512, 0.873513714694538, -0.3703734469448523, -1.883337800193046, -1.0464464414954826, -1.0597071772910316, -0.18110358808364788, -1.7449004816355236, -0.8504355649629834, -0.7986438338784178, -0.48987224498722726, -0.23207415919565444, 0.4921321770427328, 0.9285383909938345, 1.2174652286865228, 0.9354309862498659, -0.8787657749069019, 0.8463974728630954, 0.706700836323922, 0.48519258505416624, -0.0044916716890052305, 0.27113827907562504, -0.8964325565060094, 0.06056186825289212, 0.9584068642600838, 0.2623019154820352, 0.8325727977775635, 0.9952818332812967, 1.0832905781412416, 0.8327588438526402, -0.40586651846420196, 0.025509456935783357, 0.11630796811698448, -0.650477020136349, -0.5674663531638485, 0.26163765473309547, -0.4416744731978262, -0.6334886499240457, 0.7867380122973606, -0.2489562947893802, 0.05837217233136296, -0.19430348274210701, 1.2797993627160427, -0.4355284643885802, 0.7064212107187872, 0.9641033332282968, 0.8588962553571988, -0.9055398161441851, 0.3858694625449094, 0.1553206038992849, -0.048730034092349675, 0.7657491279045004, 0.2312470970694157, -0.504680843474155, 0.10526398659422291, -0.2584461821483995, 0.39961691673696126, 1.7042980041811358, 1.4822394999827366, 0.7938189772144114, -0.556730861657178, 0.14906088181518135, -0.6015049456333611, -0.6538696151796106, 0.5911191443969861, 1.149085983503055, 0.42684516843843073, 0.37030660595261605, 0.4561242635492863, 1.1207865889917297, 0.9215810297899889, 0.9216922677533137, 0.8810494505362894, -0.06254205125199679, 0.17823725506594412, -0.2531944465106948, 0.24288057776535088, 0.7910063613736918, -0.2761103785810738, -0.6954643611308284, 0.40387158424201514, -0.11234321689365485, 1.001517433769654, 1.0888002788548814, 0.11142638268906177, 0.890532866761184, 1.6267688279000554, 2.060563664528363, 1.1154225973400729, 0.8859256502659053, 0.4650079370014854, 0.8993653198797324, 0.6959718071209421, 0.2888368027700362, -0.42824447462607484, -0.0630928302513199, 0.01920513437713429, -0.298981925271288, -0.6678286203965215, -0.32017288790334586, -0.13831187216722335, -0.9773542727721545, 0.7710301727000552, 0.19226476484227417, -0.456947815968046, -0.4776123853331329, -0.926889555006711, -0.7053137151389864, 0.2530524621925819, 0.29101996143308667, -0.8800788294746891, -0.007656421816403036, 0.19911920766681887, 0.09865004321332804, -0.5001455705713246, 0.855535218691842, -0.2773888092452581, 1.1206108603875269, 0.5616768181537826, -0.27860713120816694, -0.11973938983242954, 0.32826842875508727, -0.5856149497879464, 0.4205345619085667, -0.509584481341482, 0.780954345015527, -0.8495727979961878, -0.0017021000467807846, 0.7861256847753259, 0.9140063568483576, 0.8122837485245458, -0.5951847628289204, 0.7950199739643831, 0.6123051823059755, -0.11721815791589099, 0.16759181728006825, 0.1556537491291897, -0.5861531034962775, -0.07135234671614528, -0.48867147432277885, -0.4262562135257891, -0.6219627873748445, 0.5151645856297522, 0.138724805691965, -0.11225136895359036, 0.4498587807599458, 0.5618935911469154, 0.7962945999056533, 0.5895585826216414, 0.8013342670819783, -0.40687001588095584, 0.17488082894762233, -0.24823321291919312, 0.9856776218936151, 0.4295203766343929, 0.15352349677841462, -0.5295441106345224, 0.8064342074893991, -0.6902980649034431, -0.6184449225623787, 0.28588278994695093, -0.22012805138361147, -0.8167709615478774, -0.3665505295555582, 0.8267733379766835, 0.2594915229251432, 0.2879168771854394, 0.14263993817427809, 0.016475437203183115, -0.5600927860665114, 0.1702020511385042, 0.012653824701742028, 0.33392903710750943, -0.494121126579572, -0.9216826767940832, -0.5817017729144455, -0.6156728282143067, -0.7276630083923914, -0.5900238175033431, 0.489285118839341, 0.7606222326357704, 0.835020574476982, -0.4325205444648392, -0.12986578833968032, -0.3013333721699374, 0.9156066052058105, -0.1408185647805662, 0.14651747482448574, 0.6496653761443938, 0.18645922136865134, -0.7961481863926481, -0.29466623294775784, 0.1268662916189385, 0.7511073648702253, -0.45184830606775767, 0.03288024417869758, -0.6439452743430589, 0.4729741899926513, 0.7254804544666761, 0.9394703620757517, -0.5084710581704349, -0.9185377009168499, -0.3048484536127566, -0.27237173683477545, -0.6108447899130998, 0.8583402773519152, -0.9307063426319919, -0.2583874194331416, -0.2094302621972576, -0.6859850782583959, 0.17439343485334713, -0.7759741141891738, -0.5976690401482765, 0.7322301772621143, -0.6059242234528557]/1.1113659796945223
0,1:[0.4508238975818464, -0.6339647084644948, 0.5590545108918792, 0.084939721502435, 0.3475163318314154, 0.33540586416618456, 0.6081316605500873, -0.1515070840136974, 0.19609855784746855, 0.5183999086775648, 0.988931547499426, 0.14997479794448654, -0.2582962496086767, 0.7848722018805616, -0.740927531265442, -0.5530713139546684, 0.19497071194387505, 0.7874558183898714, 0.26124181202282126, 0.2714544006303783, 0.7228190575513367, -0.25562245398067596, -0.6214648753115508, 0.3204932538718477, -0.7500057259945634, 0.7364866381102146, -0.7483153165335439, -0.2871702425414957, 0.948177717138224, 0.5800599562328195, -0.7018564078202298, -0.7287371593951564, -0.6452264800459178, 0.568061337127532, 0.2237377108169012, -0.4872675347493497, -0.2131428479389469, 0.6024357809848835, -0.4467050679362243, -0.6216996870070137, -0.4960152155290243, -0.4257920034277745, -0.36344599989414705, 0.5831121670275807, -0.886141261523146, -0.3489756185660172, 0.35061184937234735, 0.014046541291970242, 0.24096223681318976, 0.8577212379483684, -0.095471878087178, -0.23229907341054057, 0.09055751219315544, 0.029812406024679605, 0.07076008427905145, -0.8948706534004023, -0.6218498076520846, -0.4196474144615203, 0.5939435509413284, -0.4184615957239559, -0.3824301237019376, 0.260425995329584, 0.23391054239648826, 0.5985545728423607, 0.40302432368172436, -0.9012749929941635, 0.11822191028377461, 0.5128609115391995, 0.5311960631272353, 0.6255256130019159, -0.7616164079505362, -0.32165776696063475, 0.8905621009455835, 0.7161608856178692, -0.3881206753651299, -0.6624369219260355, -0.16781753810887454, 0.44903815612936004, 0.3783202855513477, -0.2053024921267089, 0.2099084611871011, 0.581701655826524, -0.439797434151747, 0.3008437366251011, -0.23892392780450633, -0.9549673353218882, 0.7346104423650326, -0.6408342401458936, -0.1997769754530672, -0.21434639997759852, 0.26594532809751, -0.9972464069914959, 0.7222839256657356, 0.31764504835135116, 0.24000981978634414, 0.2660138650628864, -0.45597958980608916, 0.018722569496058654, -0.3443054182329924, -1.2245993158790516, -1.0368107326375795, -0.6434098025335532, -0.6861723471831157, -0.4712925446606443, -0.10680594655852292, -0.20779409852825043, -1.037063493577976, -0.3322954670422197, 0.018291514840996437, -0.5417096905531985, -0.27834590186490815, -0.8811420872884379, 0.42051532841394734, -0.6117119055714498, -0.8355416200029868, 0.2578013850427782, 0.04797689374610341, -0.3826514801494285, -0.8973628381585993, -0.11514873837178105, 0.12267424415411447, 0.3393749010197381, 0.4189169047866819, -0.5829782337302851, -0.4460088499363433, -0.931465656552744, 0.3004038483095413, -0.2753840845827027, -0.9729257315121641, -0.4651662523739922, -2.1059292983376166, -1.9702559399947859, -0.09490407231086204, -0.017209260173892457, 0.4213153136964762, 0.5849440468621467, 0.8977646621663551, -0.08128559390828949, 0.11893220680397344, 0.345322566830629, -0.9324065938254265, 0.9448435377025974, 0.5652044029460308, 0.09235108707635044, -0.9493001637957292, -0.5588479281830256, 0.4693122620526847, -0.694366932772907, -1.057413271831182, -0.19595781910830684, 0.08844787492478269, 0.20182094141423254, 0.622416161213189, -0.6132624589899538, 0.11274417194413955, -0.3456395459254517, 0.3931403689120144, -1.0126309656442438, -0.15283702095039717, 0.03540965246125319, 0.22848529309088766, -0.6031846900648569, 0.4391143647519939, 0.8354181026277693, -0.13186821395545417, 1.0491048960351148, -0.9184385243616466, -0.2008210808407472, -0.9891046439782976, 0.7384208328683985, 0.051204609585744895, -0.3628303773076992, -0.9352539899971298, 0.2805665494407375, -0.22417360186695956, -0.8777748594230683, 0.6771173441856554, -0.3028876468687536, 0.030811292841273888, 0.7748578991235994, 0.7797500644820311, -0.03989368441700227, 0.29256359772580504, 0.724247963279108, 1.1046899491227176, 0.7719741802178655, -0.0005066269552066065, 1.1820336904095683, 0.5924168982487644, 1.0649674221732306, -0.39772975302538116, 0.256906465529848, -0.7221532956978879, 0.2877098740027763, 0.9334973839604446, 0.5808534809692543, 0.09033386556610994, 0.9274922517800094, -0.8360776919984556, -0.08651341017147125, -0.07921387679588883, -0.02818375188127712, 0.49937958835069046, 0.6202671260236391, 0.43966746805172563, 0.6517476533220278, 0.8519411706127996, 0.9465996149542135, 0.841819871042658, 0.254592180907851, 0.8161240374023958, 0.3435905908814641, 0.272010001512372, -0.4537367263869567, 0.24131282407896526, 0.747669485737071, 1.0511606027049682, 0.7807864514667896, 0.2676107559322386, 1.2908779043515641, -0.13808622216561867, 1.3380703556522389, 0.4449931071014921, 0.3513663646608147, -0.6858383348552091, 0.34337790613120706, 0.020508283038459345, -0.9038736613850933, 0.3581077995622131, 0.2799249945909578, -0.8023098401881349, -0.3446340111383804, 0.9937605619431088, 0.7700646242720134, 0.5950142436665511, 1.5685465812365595, 1.0960324612083432, 0.9114051687192264, -0.03680091133514484, 0.5145085676030525, 0.45745045398541634, 0.9606668016327192, 0.8963184683089932, 0.39525536854295595, 0.4907027784860303, 0.5770335439070406, 0.8238636623352482, 0.7784280308098577, -0.014761341042511847, -0.6380435363043141, 0.39428315943482833, -0.16977204784410482, 0.18936220101246895, -0.5072867099183326, -0.9656557069262504, 0.03506601238036878, -0.02135558993310665, -0.40156629006201694, -0.26902412563172573, 0.5304506068139075, -0.057182501595222354, 0.9150020352336607, 1.1550803411075625, 1.4065051724380107, 1.8997328820976787, 0.3499689993217521, 0.3015752441940709, -0.28478346097490553, 0.7021202627836667, 1.0580745012828066, 0.6651615018229426, 1.8475916782809736, 1.2350207909638702, 1.2956678226251155, 1.4521050325704798, 0.7025486557770755, -0.2122188133814867, 0.8268375191486741, 0.8235608074012688, 0.1388021876695322, 0.2867529055395799, -0.11200526473120191, 0.023227387980159775, 0.49685026081273015, 0.886846317965987, -0.9798751722107829, 1.2168241304790284, 0.3832954473623442, 0.25888531236379597, 1.368876675270964, 1.1734735887204444, 0.48302966712396006, 2.0461643523848263, 0.5042742237579524, 0.7041005216280104, -0.08868797771390113, 0.7591935612506218, 0.7529527022444101, 1.2619256793492135, 0.5877853268709027, 0.6437332650549313, 0.025419302877489357, 0.39475693001541556, -0.3150743930869753, 0.8565742685844632, -0.7410894447481424, 0.019427366815857345, 0.7579904077285525, -0.485971336118586, -0.9653179804283657, -0.27695018532436627, -0.8357023465031018, -0.7819212394994274, -0.16575492753429993, 0.950292719748658, -0.028614771285497758, -0.11060784256828737, 0.3247569508867726, 0.9431089011629333, 0.5797670729213558, 0.8600246330098787, 1.555339958495961, -0.3948384220237987, 0.6684335267270614, -0.1976158907660788, 0.4652888925686705, 0.6540548360558536, 0.8158840461909241, 0.07683190869553255, 1.5492999536841603, 0.8892673006020219, -0.43488894807977074, -0.5156033428858555, -0.8976992458508494, -0.8065940365582462, -0.44516972213282147, -0.8364935352773486, -0.961665364667608, 0.296227507875288, 0.8408205754592285, 0.8058323387853917, 0.995214607332245, -0.45438492279223597, 0.7473996271360558, 0.4304730304319512, 1.048216117847484, 1.0988855172466203, 0.08949892434824949, -0.01244922045100552, -0.1836227449907098, 0.7214886560399486, 0.8226525528905121, 1.006035934227901, -0.23030422451197383, 0.026274150100344278, 1.2763364429774964, 0.17557043427148444, 0.3313543148383999, -0.12437079708551761, 0.5985175304906086, -0.46571194435971397, 0.9232755543619385, 0.985677333091923, -0.5282450135573601, 0.6916521288677531, 0.8454967814438132, 0.1956055149152704, -0.3457941830506975, -0.197633659169496, 0.24721829765723846, -0.5078884495520427, 1.0942112537960385, -0.5744955039058326, 0.40481451742010693, -0.7062343204231378, -0.3604406688189742, 0.821903630415927, 0.8401820730789747, 0.0677335921309192, -0.4136095452775329, -0.009932482136649795, -0.5580016608920971, -0.09199184748263997, -0.13639829036196668, 1.0021987788568274, -0.6256758247560285, -0.37167368811387164, 0.0012073211372039133, -0.9947049969299857, 0.797569150062012, -0.8677995481938475, 0.6582028551779088, 0.8411186399044932, -0.3888705845542345, -0.8426243939167957, -0.020117421440827996, 0.8283629054067956, 1.0333553987544914, 0.23631484677124565, -0.05579066472929196, 0.24759524491311463, 0.5694037280183512, -0.6266130758302897, -0.3884502152540062, -1.1428188479065544, 0.616040417671687, -0.7217771486420277, 0.1863947853504991, 0.12755129197505713, -0.3998423373702469, 0.0026000491140710878, 0.06742454804983637, -1.1221998762522174, 0.3029074922499391, -0.11917172682988822, -0.806533481374075, -0.5210800458626831, 0.7016689765212365, 0.4644263356380382, -0.8088859483924317, -0.39014796704455673, 0.25787130525135443, -0.3266696983756993, 0.9987073639646932, 0.9510402183202545, 0.850222371053992, 0.8295851915465804, -0.5110213654178103, -0.6338957353650297, -0.22044127435550157, -1.757657446875476, -0.8045607682831397, -0.7475419331973563, -0.6338084963173755, 0.37189909143120214, 0.3332017110625478, -0.9383002672289316, -0.18690512728119052, -0.15607942441906142, 0.356721804270329, 0.07809110058401976, -0.03309974583149516, -0.9255414600894166, -0.7145352565100342, -0.008077434007996613, -0.0032424866017312115, -0.5425075865532517, 0.09906351388695128, -0.5454686113976646, 0.7598560168659085, 0.4096976637037931, -0.25922857821415735, 0.7586054914493187, 0.10170158734556721, -0.1232480517082815, -0.6050894179830002, -0.3690326968376448, -0.9617903995045849, -0.7218226583942223, -1.4830534554583519, -0.21206132708399775, -0.10214792473314126, 0.9777969341492547, 0.8149401000847267, -0.14886698082751915, -0.29523458074938347, -1.3426255985098132, -0.16961185862394687, -0.9024223874448615, 0.22641551359726572, -1.1188604399696835, 0.43570459768158626, 0.599152959621516, -0.2091784969083344, 0.11039858855537409, -0.07987755798566405, -0.8342534705576756, 0.9958276045544256, 0.2039599535523237, 0.27522834922519024, -0.12632384663101376, -0.8471517899076813, 0.6523957787855995, -0.19022295086780952, -1.1037252814146494, -1.2427848041500726, -0.10559818953566287, -0.6834784066707652, -0.9219233398189964, 0.3915091875940674, 0.4171703126464944, 0.8243711851693336, -0.2306150568754779, 0.043081876574407735, 0.316921682720501, -0.7084838740497051, 0.4847117009504939, -0.6137734657442618, -0.6990096353997198, 0.4702670001071984, 0.15416410045630496, -0.006940336536197557, 0.5229183169683046, 0.13003593368129043, -0.1364060973503043, 0.9290218266264241, 0.9789352930766918, -0.6052127854948927, -0.5280155034842667, 0.10728320867770652, -0.30685307369384196, 0.1735435926741379, -0.5408100940354532, -0.6367034417563532, -0.38846616392617245, -0.8637394590193201, -0.8818383122295743, -0.8998111775015097, -0.46466252781961426, -0.2503358743008912, -0.3553848858939169, -0.3638649702252315, -1.3042126454578948, -0.9592012087262971, 0.6608847433167265, 1.3400805360147956, -0.10915097777265842, 0.24737181386094337, -0.2725198973839669, 0.028924458974562462, 0.6422245555360768, 0.3224659380415087, 0.26681419483919155, -0.48223052261610755, -0.003424477994547506, -0.5604689736031445, -0.7101720640020879, -0.1893887019716342, 0.573301067953614, 0.9888445860536572, -0.15598469351655928, -0.7319231422991397, 0.38763846999982166, -0.6441922852021051, -0.8464281829477791, -1.0464667901025047, -0.6871572507012201, -1.0226149211345636, -1.490866374674362, -1.0996289716171461, -0.14631588210175273, -0.06805989842865454, 0.9428644378625719, -0.704463335016952, -0.7782196620840803, -0.6779620721882252, -0.2546108488165706, 0.6869033312281548, 0.3892709907405757, 0.7054416282773912, 0.8488699227724599, -0.1542580145289995, 0.2948836656107732, 0.8286329160605415, -0.8888595898559062, 0.928042639961802, 0.27363062809524563, 0.3405695464246453, -0.4029844930469956, 0.3996390082222858, -0.9430960498131213, -1.5420914159880788, -0.45874021176199103, -1.1038508044783537, -0.9773215744635261, -0.04675020687931022, -0.6229261277361621, -0.3376489135208618, -1.0822931020271203, -0.3817064737259876, 0.577021964215684, -1.2886741899733611, 0.0831099884774614, -0.2908344820898986, -0.45559123591200684, 0.09458635220273866, 0.6892651201927279, 0.7231871268059966, 0.14982120855325226, 0.7873374115158897, 0.34282656795281313, 0.09253054176777598, -0.8605792577033499, 0.08088705240236527, 0.4931605432060417, -0.01235665437893061, 0.4885925637574172, 0.5193936249581026, -0.7485283017747949, -1.2710943970408863, -1.0714102995939132, 0.1613736016665561, 0.8151430705964497, 0.5362819212353546, 0.8466943113548303, 0.479276921275449, 0.17079580437556396, 0.6932530588240448, 0.647855866434505, -0.6602771204091111, -0.5352997633407519, 0.4660023065141681, -0.5733752834835523, -0.0623900795849461, 0.005235761440212636, -0.9061988460902692, -0.005359506236739633, 0.07213091968637879, -0.8978114566661171, -0.3133398148071659, 0.8061268562510179, -0.6811707510124411, -0.35094261328492066, 0.7967385299823853, 1.2843877474103353, -0.08824270482141923, -0.17911262677511, -0.488677569987444, 1.309280179010114, 0.35702765698348976, 0.9315376521023604, 0.7704417915226122, 0.8725947410950429, -0.49795695466107553, -0.15557148067844262, -0.5843977060644753, 0.5845678827248997, -0.6386542641517162, 0.9240376582336306, -0.4917101921882006, -0.5901829851398622, -0.40600590902524375, 0.3043583419203071, -0.24762619311939482, -0.7963946395723522, 0.967244089550167, -0.9457079832670282, 0.9432097342677151, -0.02920875612108579, 0.985409774817171, 0.7710964386032149, -0.1696306670067261, 1.0517233083765611, -0.17326390133853345, 1.5664303837895739, 1.226418701809385, 0.27024725200430105, 1.3484362766985314, 1.6710747588152335, -0.05450697446425483, 1.1069447596767048, 0.876935953465071, 1.0407104447706748, 0.8936521499621561, -0.37393846701846906, 0.5032642369426417, -0.5864343540612472, -0.04908307549258777, 0.6719749656633378, 0.5902773518973328, -0.14251554305041603, -0.9553479388720651, 0.6901564501110575, 0.8702321067164969, 0.3727935344403575, 0.6023459259334608, -0.866150170761849, -0.8418640900732822, -0.8265892376030431, -0.466181972315756, 0.29782355055222914, 0.9674822045567418, 0.6656075084174766, 1.0092803561411936, -0.30248940593392354, 1.2274353022996285, 0.36617146735308453, 0.1815478181181985, -0.2333743845436834, 0.09722049689199028, 1.1064489343920054, -0.5479426669857563, -0.17309656278029506, 0.38889802612670016, 0.6153149403168234, -0.11223730326968712, -0.21291821016830423, 0.6587043345641331, 0.5391718289438825, 0.3486798955991426, -0.20645724214140637, -0.1836463783909883, -0.8236232581129509, 0.8518244570283177, 0.22104335150305326, -0.7330501147336401, 0.6501681805740414, 0.9748528007260455, 0.48961963256883934, 0.964350164311515, 0.5226188196038227, 0.46935949127917365, -0.5655469087495388, 0.16709317053971862, 0.6544020423520082, -0.75819592094671, -0.3619402304622725, -0.7247498296164194, -0.3540656913386794, -0.599295245697516, -0.45485841769485613, 0.8932948645491627, 0.4359096220980813, 0.2532580423684125, -0.7123210705864897, -0.8208271824151852, -0.17279652886112995, -0.3398339161655928, -0.2124885281617399, -0.11467035128042169, -0.33569323879025714, 0.391399580116374, -0.31307783284560753, -0.798838284670946, -0.40696001209890814, -0.4495633530567374, 0.7878770846791497, 0.7889673516835578, -0.3682428246876946, -0.013152599709783276, 0.7676084724855357, 0.7614994296332158, -0.8078205886231675, -0.6983220642875826, 0.8665476154226386, 0.8040104349570193, -0.5648525566926083, -0.29017324321680504, -0.9816046175131931, -0.26346777995224185, -0.904508692867937, -0.9837399899515149, -0.756698256109074, 0.17267996343194714, -0.4009315892392671, 0.5458876682058955, 0.6019220805135823, 0.12869157172684043, 0.9866991098542996, -0.5386713820929641, -0.6935591665619971, 0.7164087111334558, 0.789310295196735, -0.10431145901983345, 0.19182584788922688, 0.7979349907075013, 0.33916070118901637, 0.5151449280654975, 0.24629275602875825, 0.24980720351075397, 0.4250050121023063, 0.030034943370310638, -0.4047092502475766, 0.4257850973140834, -0.2540550323106686, -0.1987123070700106, 0.43239651176991983, -0.9805374126525341, -0.7740115378668022, 0.4525322669655816, 0.9613947596155135, 0.7132905450118556, -0.8694912840702571, -0.2930953389797988]/1.4078107376953444
0,2:[-0.9711366917298614, 0.8389500461898964, 0.5542239784022005, -0.8427738946566963, -0.10709217445249486, 0.2995368501293598, -0.5941479152054647, 0.18517486925636595, -0.8109791686096399, 0.5765690405464678, -0.02445246360265685, -0.1651139744813772, 0.8192026697001726, 0.9552081701461335, 0.07434611961221238, 0.26098892655628947, 0.07367618606697923, -0.2956696352733661, -0.6587220313525399, -0.05129425497538276, -0.3507501070926755, 0.09384276711241579, 0.670215074918129, -0.11742896091434574, 0.20399891282223015, 0.6674900874989127, -0.7398378932800387, -0.15594269783255177, -0.44979075578782424, -0.11576998578837672, 0.25359056656267986, -0.2580167995438274, 0.2551575569599731, 0.7104648773276652, 0.7714167454139385, 0.33565178232685194, 0.3712144347374146, -0.39675093539100076, 0.6496402973617381, 0.5799075206366369, 0.6142362972265237, 0.019504681792620972, -0.052991449173889295, 0.7149447588580752, -0.6159998282687461, -0.9434370782883581, -0.30003567650731056, 0.8111371321375761, -0.8288000931738315, 0.7122281338835114, 0.6974587958073566, 0.138134980398414, -0.5446772857379183, -0.7714016010386349, 0.7252470323858575, -0.46949707001020546, 0.07175063650271607, -0.42180627044568597, 0.674126171168425, 0.497586176452135, 0.2831800557992647, -0.9939993998451141, 0.12202758933406532, -0.03340942458605917, -0.3422246431531357, 0.8161132125616465, 0.49436525160995853, -0.6149152045880597, 0.2141575235403125, 0.1577635394247996, 0.8580369861760256, 0.2952595634682889, 0.4175031749000816, -0.06324871881699515, 0.5740974717113002, 0.11304627775575887, 0.49203130877434187, -0.47187978868106945, -0.9206880289272115, -0.44753401380171176, -0.5470157684656831, 0.9193253459651218, 0.04795959052469767, 0.2162214679331782, 0.1357452499074321, 0.4405734506000849, 0.42998048509931297, -0.15548149151354068, 0.06590213756926734, 0.30095041989749355, -0.40275628342694897, 0.3809800160628075, 0.5905778728713992, -0.229238222662983, 0.6262378326813268, 0.30996278198190574, -0.953465465377371, 0.3878228974276999, -0.0964888750972121, -0.28448988783974277, 0.6423772760035757, -0.05074385682734381, 0.35058335534770696, -0.7545990023378183, 0.17086388884836443, 0.010007395948447451, 0.5316603727311822, -0.11427489533989298, 0.9196657507066539, 0.43505493862760714, 0.020120414269543252, -0.47597915463612894, -0.09304297619016855, -0.5494773653574635, 0.8282723183045086, 0.7708147710016526, -0.4543378927415004, -0.7345458064573671, -0.24658629596745382, -0.4184546630035256, 0.4229892495596754, 1.0832871501339179, -0.4115831286128852, -0.9797638644930224, 0.24454421934511192, -1.3042432509669284, 0.2789992464216626, 0.2759565009362104, -0.35702173414815763, 0.4862812329557886, 0.06035307728234199, -1.0881926922176737, -0.3438916089910093, 0.5548221215568861, -0.3998271530478619, 0.5675586021254179, 0.26234764163658203, 0.7147067775981398, 0.8006433935667174, 0.7878271713456604, 0.6314717476607568, -0.4613257571939291, -0.16100996335960294, -0.4996224738811082, -0.008475261060450396, 0.5022093649244856, 0.8857475994549298, 0.6185580577280719, -0.5435549589556019, 0.5105380631463282, -1.0995360783605075, 0.1597413384903268, -0.336084246085313, 0.21890756057758964, 0.24085449279624754, 0.4076937231822857, -0.3354230474764226, 0.2569667819310508, -0.43843362358497867, -0.5952721856718611, -0.5764678098582162, 1.0057479502428097, -0.21895735959619, 0.421870984326979, -0.3962878002830618, -0.03441068223095116, 0.6326553181541191, -0.2440126529469328, 0.3981377307879408, -0.498528110053579, 0.002526430564885728, 0.9133672733142111, -0.34972047998476585, -0.08251005269115924, -0.05290331434819954, -0.18966549778258737, -0.4910049995580636, 0.8336310516847426, 0.5814149272592314, 0.0781004941063026, 0.27558447086111265, 0.5599225795211664, -0.19734329215588214, 0.22527629862402884, 1.1141233038701328, 0.09952179516562824, 0.9292719266924907, 0.23999252776360067, -0.12494193205193772, -0.9824975666608728, -0.5885603827670528, 0.5226820877194468, 0.13005590942018003, 0.9073102515526876, 0.91571332357174, 0.3502687290863891, 0.3283031033700114, -0.8982972809844293, 0.4264827277361941, -0.6126265045795466, 0.33253269708021527, -0.6137220817723883, -0.6661737556789489, 1.2721879025983187, 0.42448604301805415, 0.14651883515993355, 1.0274270545019837, 0.536930446644583, 1.6977146499187339, 0.3704727853785885, 0.8684903703489655, 0.33782345316259343, 0.3365942808769341, 0.31821773293736616, 0.5395264622017224, 0.6768813210996207, 0.836147872063618, 0.3209385366762761, 0.511100920496582, 0.5707473614339125, 0.952139634097889, 1.2182256092701844, 1.0219992970975849, 0.8959536420698537, 0.3334527289140654, 0.02781631842797955, -0.6533906149538745, 0.2640312804759629, 0.15140013721784323, 1.1182822536078334, 0.40334534041683073, 0.7512711120804344, 0.09125687068534506, -0.27659011533574174, 0.9648094987365085, 0.33212911635700315, 1.5485574939788087, -0.004023999918358367, 0.015685497143773146, -0.6018106242091533, 0.22291978176156696, 0.27436651286674263, -0.07345958853321434, 1.114747038335179, -1.0690636194429552, 0.6352104248567632, 1.0235425757311045, 0.1443952874617053, 1.839566433505411, 1.593543245720726, 0.4771794669156274, -0.6022665684205956, 0.29058327239884807, 0.5419869219050393, 1.0026007841821725, 0.3141877985820644, 0.44153381636378464, 0.07724499484096363, -0.17119179557405842, -0.6506240739392778, 0.8668098480645134, -0.776943226399537, 0.9352447705560109, 1.1646670669053467, 0.011099165785364414, 0.19857107297791776, 1.492527132574617, 2.0467776853394755, 0.6251321497312718, -0.09677271466587893, 0.035226625113663895, 0.014137324732421727, 0.1590897410392666, 0.05053798838239352, 0.34270580550210855, -0.19106984688313022, 1.0054247463064943, 0.6660643748878625, 0.8876751523440632, -0.5290542531812905, -0.0005657539814993839, 0.5215023860273097, 0.7346019215802008, 0.056905030896447, 0.5513526001946772, -0.1113089609598913, -0.5007648535685444, 0.7661771222524845, 1.4683251397111028, -0.4467829939135297, 0.6711469982574438, 0.11165603886255172, 0.28556176550749757, 1.38474966218302, 1.219656311799157, 1.2691047100116264, 1.056743841599772, 1.0652778906469458, 1.7087308541908615, 0.9481729282327851, -0.1695470202617749, -0.4471651735123844, 0.23241081261740118, 0.7384287700669625, 0.2669222153544142, 1.435744697024271, -0.1305101469248095, 0.0715561144848326, 0.4709781636433823, 0.11321047769074374, 0.7696610816423463, 0.7902073605103489, -0.13044033236817038, 0.6320656535205595, 0.2548505974525756, 0.18924344498914253, -0.2591979473497601, 1.0219348884514066, -0.4681230575163902, 0.7872530094371294, 2.0619763008007617, 0.8058831866766837, 1.5535170665843823, 0.8572955080551466, 0.9570787660705352, -0.22310246661525465, 0.8851344742153059, -1.0705628812027834, -0.39863144160522795, -1.133835803795286, -0.4263685685981079, 0.677454088164712, 1.2640514571482078, 0.541210821050927, 0.7512382138669484, 0.5863916438894807, 0.39545144342417515, -0.8331285530658473, -0.5345848744850709, 0.6909621962229822, -0.6340182544375146, 0.1366805386735252, -0.7553851986421567, -0.6901305695996078, 0.4347486577980178, 0.9581597465129389, 2.2872592058859977, 2.1405787043104283, 0.9707445476174232, 0.778374191469756, -0.4552606118804167, -1.584767222921246, -1.1110637151788756, -0.8938601643457025, -0.7260561911179212, -0.9232153718847561, -0.07408089929602227, 0.31580861899909013, 0.5694515907502191, -0.19908955735542083, -0.8224769607557579, 0.4295659482107424, -0.7610997805475206, 0.49784038112469386, -0.8751381819762629, -0.8887665425996727, 0.6891967618217854, 0.9199612451958994, -0.029184151058110615, 0.04215585695370663, 0.5606226743614047, -0.12754050365992237, 0.6971699777482868, 2.234458427012641, 1.7777296270075365, 1.3820038467599027, -0.34181031450950566, 0.8198963129835138, -0.37859669038259297, -0.9921727340664768, -0.529992884964341, -0.6367558615707075, -0.8746987286742213, 0.4379658709847497, -0.2502672996486125, -0.36928883132340357, -0.4743525779330715, -0.6229248860413203, 0.0010922310066735384, -0.913898106059157, -0.026714401039797712, 0.9708509340399231, 0.4857723229376663, -0.07957142394723805, 0.45859031451397364, -0.74760807549053, -0.8684582950241513, -0.7662337467354422, -0.34174488537272074, -0.8397537549891635, 0.04012382345519518, 1.7123946704977742, 1.7558038592285725, 0.996834130666809, -0.27658538246825237, -1.2640114312536188, -0.7369871999885453, -0.853337302480932, -0.5762516319782961, 0.17362499350227129, -0.3095204150994889, 0.9226572842795083, -0.657877495854196, -0.10854089923782134, -0.6146258188421682, -0.45416431870633883, -0.2695238408813194, -0.08630239569181414, -0.0544365837450646, -0.12021903823857905, -0.28732703694664974, 0.6784124797386375, -0.6039669823522513, 0.025952364395807708, 0.648821086330437, -0.4253994566449432, -0.37083897321688575, -1.5804388594862677, -0.8874684178209237, 0.8753703361327225, -0.4341992215182399, -1.9259354259824353, -0.882647988760853, -1.3992752016419647, -2.3614015308427674, -1.0020468073557514, -1.3800177334215555, -1.395464035539992, -0.31350950125388705, -0.03928825363671253, 0.2307597837374898, -0.6893836737173894, 0.7785979861349122, -0.421956473534798, 0.9848311636226342, -0.7290092031535796, -0.34657656699482187, 0.9257405762537301, 0.14971079368501106, -0.6580849291119071, -0.28650006212083845, 0.4622375243745099, -0.20947728561837678, -0.6196110234320933, -0.952692052150763, -0.17647174159422413, -0.36065799568308465, -0.429172948932172, -1.5974021673682153, -3.033576174169041, -2.9657483034329717, -2.347004168588643, -2.1575692107259115, -1.828469054158932, -1.1652900792144947, -0.5949208927172916, 0.1917902387669911, 2.139927476896041, 1.7594165745654438, 0.4811085793328519, 0.46720425316661063, 0.47650356122447146, 0.3458781904853105, -0.7101261491280095, 0.9109320262084918, -0.40260265230151315, -0.049836535586262665, 0.06706367277954484, -0.7091335693046532, 0.939920895258165, 0.13170726495054882, -0.24899714601786505, 0.15377959992513363, -0.5376857098554845, -0.9185641450227611, -1.6548619085565617, -1.1023218067836231, -1.8909579727677186, -3.281286564154774, -3.0682269168072844, -2.3024095919250387, -0.6941633468935594, -0.5156888138985309, 0.3472920231283366, 1.31894413301588, 0.5077907225216188, 0.3107053572533348, 0.5531470947388035, 0.1364631663693699, 0.7067694769278817, 0.5970646962314308, 0.027774356747118322, 0.7351753439749867, -0.46001414787038897, 0.6933061842152504, -0.664108817982668, -0.003667482042707147, -0.8154395061298932, -0.17095469848279196, -0.09371413999586149, 0.027342450111980263, -0.18515909172856929, -1.0449169224264832, -2.150727589335731, -1.9373428283857284, -1.0820209596519708, -2.2853081037378544, -1.9947427358769971, -1.4031414126020991, -1.014533133921236, 0.05695133428025367, 1.0858862354593424, -0.22624843353614815, 0.9778053787219555, 1.3972953709849534, -0.6220533740853985, 0.5129717639378052, -0.8282723540485116, -0.29632037906305886, -0.46277771095227926, 0.8970265700018302, 0.14609304420568034, -0.7810849356524998, -0.889344004876897, 0.28783008803987076, 0.32636471695554886, -0.4486565593817754, 0.5635306845689336, 1.431536767299123, 1.3836076593692141, 1.078175489537174, -0.07813480799021127, -0.7595632492203508, -0.9252722218378872, 0.32000958955060277, -0.43583498256300196, 0.4633412548799434, -0.3389706068147802, -0.5464529429330505, 0.2640488987386288, 0.3529506792276892, 0.07680108970091842, 1.013148557138959, -0.13478133074324727, 0.18835349770300383, 0.5906140976719733, -0.22686317601492176, 0.7638469010748049, 0.6345622548674675, -0.360519926141535, 0.7210580142570726, -0.26619618949956686, -0.4272771197065991, 0.3899787144543966, 0.762340647565201, 0.2917987785056112, 0.6106443818288906, 0.7857493230684311, -0.13866775717845337, -0.511026265853981, 0.2780380456955926, 0.620230883213448, 1.3930999574912353, 1.1498593613983992, -0.13621583252006175, -0.10792804566627669, -0.2799851449770957, 0.4821106823407012, 0.6320351567488706, -0.13635970446273202, 1.3415650137897766, -0.32291968939080146, -0.9301573624298313, 0.17040629202809526, -0.450735891141979, 0.7377474289031702, -0.36026420707298623, -0.3249018918797959, -0.2800832361595816, -0.5148968381403521, 0.440922163045399, -0.45917876160550347, 0.5017891584607043, -0.5881189366213527, 0.8860433158828014, 0.4810814643165309, -0.052120046489638125, 0.08596766015773215, -0.1812137556066846, 1.2059075570788138, -0.21908333041973788, 0.9891245092965357, 0.2078121073124192, 0.10185311903172074, 0.21453650114072886, -1.3975631663733776, -1.39860110566763, -0.6124297543009866, -0.7658319308786707, 0.616770864587809, 0.4947531539545361, -0.06053971546217582, 0.08135343658684413, 0.40840168810541144, -0.24591644163262238, -0.09393191969418435, 0.8404554176486828, -0.37636946554687467, 0.20332120651478608, -0.18433954758072013, -0.4344582865282909, 0.5467797848821891, -0.9008318908821564, 0.6037223264100238, -0.17798668619942618, 1.2737643667028218, 0.9002138639858364, -0.29857025281534827, 0.7102569782919498, 0.40184877370984257, 1.0008281451475558, 1.6891335694792737, -0.15262071397615576, 0.7793058479909062, -0.4693797214728465, -0.5139999542893523, -0.8570133019543105, -0.4532142717250013, -1.1773967229370077, 0.8000218406248537, -0.8369966545671942, -0.6524351768882539, -0.563820411617359, 0.20098202343017246, 0.030512601541221374, -0.10367511092469184, 0.9044281100696943, -0.8244767640359961, -0.7001028522064776, 1.0230021956812938, 0.2486483897995822, -0.022256184981294436, -0.015873623650193878, 0.7715888646769231, 1.5343571239700116, 0.9846972946031818, 0.44359139248781415, 0.12083903476119359, 0.7587294117514732, 0.32226359549902533, 0.19811700448395764, 0.41299174332274036, -0.37454540514206996, -0.9523825819378248, 0.15736580806399678, 0.016026200531881044, 0.19808492942186412, 0.7957784471541955, -0.1520569221466195, 0.03684338808411995, -0.2622195789769455, -0.08917231230554701, 0.37587408104667164, 0.12596489384423037, -0.7772529206562422, -0.9048364854835376, 0.18533761951192188, 0.8968290685233478, -0.3595623243032884, 1.427120881969656, 0.6421899216631338, 0.3221181086285189, 0.8834621529707605, 0.8857302900797935, 0.4721029083421462, 1.1559624796037034, -0.19418645217740851, 0.6494451590848447, 0.27776247720433683, -0.7227670709391357, 0.08737183785325145, 0.7425710490221932, 0.41569303201421753, -0.46316266778963494, -1.0224005235263804, -0.7846216281112114, 0.3686830508978797, 0.5116546691303321, 0.533584530206789, 0.5820406032120551, 0.5724417302259273, -0.757751663771913, 0.16353344764357225, 0.3482428883192382, 0.1759845357864261, 0.30616673486608165, 0.43448952324164836, 0.9568148788475977, 0.1581497077832897, 1.2249047687898609, -0.2831357545524234, 1.2835254626083188, -0.02115811202442184, 1.1546884797742345, 0.6294820870781783, -0.2155049197613227, -0.724529151946347, -0.41557840902966736, 0.21553270841504418, -0.22229799506150677, -0.4690373961107853, 0.37100512578053846, 0.8253495850950837, 0.5509307854454365, 0.8460778182476608, 0.7279364303595295, 0.3649664954432059, 0.218723567939074, -0.07582675545324724, 0.4982952151207327, 0.07669360282880078, -0.07726803777905072, 0.7740960058470916, 0.0673137750324994, 0.9650410088997379, -0.7144528210016099, 0.9648593745932462, 0.5372211694362226, -0.3092299875611759, 0.7806308587471276, 0.058581051198103626, -0.6151373271595437, 0.05132073433647824, 0.5485056357571136, 0.8708031854777522, 0.06925801388198415, 0.010539063728465125, -0.4624294910790001, 0.5434284057894977, 0.819659155955051, -0.7137828446357549, -0.4586247762647573, 0.37947977850349024, -0.47399364520127985, 0.026244184942165072, -0.9897514086348769, 0.8694338002602178, 0.18958444706478628, -0.6211915677400512, -0.9940382765189029, 0.7724502724455757, -0.4446674539168375, 0.6534847700492703, 0.15328710145127944, 0.12879274739124624, -0.836508791078232, 0.42528557459303695, -0.3058390586604672, -0.07061966573272634, 0.0926526653305636, 0.09431182390380924, 0.8570138541925515, -0.0067188942006777596, -0.5643267751229187, 0.10071903936634714, 0.5471456403117434, 0.6463477379611222, -0.25137045152479803, 0.8808380090547729, 0.1807944983929506, -0.13815874555263918, -0.11607859243636187, 0.9231145375361616, 0.9974517917529178]/2.958757913454611
0,3:[0.09947412921443544, 0.31528759072098733, 0.32083824573915387, -0.4247774692310191, 0.20209410315947074, 0.4125890784283275, -0.07562188926228774, -0.5780690782319557, 0.86400804580871, 0.5405049553787915, 0.09218602963909306, -0.22657641935063944, -0.21151168480754956, 0.45672017151892064, 0.43701000212962393, 0.9896890530062117, 0.9881126895089478, 0.5458144727722558, -0.22358665276906242, 0.8344444862089668, -0.5247986628192454, 0.7245059993174094, 0.7840240037869826, -0.9911496799512072, 0.24470117595123253, 0.9294956708290472, -0.22148440726790253, 0.21139004783295445, -0.3232059165583909, -0.5662500386917464, -0.587823176098109, -0.12544658957288202, -0.30040288300442963, -0.9387001629075966, 0.6627501530597484, -0.383430858631442, 0.41604056183289606, 0.85641276777569, 0.5398237166268298, -0.8651724377518181, 0.1320237491030898, 0.37800233586200754, -0.550166122495363, 0.9880915716434364, -0.70925498851636, -0.22328340381746462, -0.5707277480670951, 0.012454006767893407, 0.9075102357838097, 0.8168197173030483, -0.38458819119889653, 0.5253123261159263, -0.5255235511989214, 0.16563189169814274, 0.9481789108467094, 0.7649497118908359, 0.3260919156899027, -0.630763612652673, -0.03443483304996908, 0.02118712404402312, 0.06116151034815132, 0.5834166677575465, -0.7953630206450085, -0.4540968345998011, -0.4363524388971214, -0.4062989946309724, -0.4230435888912861, 0.4072025344940731, 0.7330595498004496, -0.1315955127742586, -0.049170767517526415, -0.5715624155641928, -0.3071472615560663, -0.26432410712324983, 0.4834531691042916, 0.17437882296806828, 0.29711809793389765, 0.11541081847390099, 0.11278886592600615, 0.5581498728039899, 0.15384017615233958, -0.25418232268084706, 0.3430617580684088, -0.07632076715246794, 0.5776421994581145, 0.631542122195436, 0.5258007900116366, 0.006377975599512287, -0.21163503892562874, 0.7742100611575358, -0.5129570278438862, -0.4069757178779493, -0.9495204339708216, -0.6483958381613556, 0.6394867448590323, 0.6066353844117454, -0.01820118951821767, 0.1659708398855024, -0.12319490473886732, 0.04450174152343233, 0.7739416289850911, 0.911658078221426, 1.0132080737667617, 0.011708116872326745, 1.063183452994778, 0.08208965640221046, 0.5624345789831903, 0.9069643472118639, 0.5986990359250299, 0.2253278616450248, -0.3696419541784648, -0.2308091591717596, -0.5444064174419156, 0.5370284813094528, -0.37088831958332746, -0.01201381320072983, 0.7842689576307449, -0.7101276810362659, 0.1958647688148014, 0.535505081332685, -1.1470900185139692, -0.8425687283951799, 0.4554426123341272, -0.13548900867612815, -0.3071989384554131, -1.104133029285278, 0.15518707574029314, 0.1790128867842265, -0.525658791916062, -0.41443629409452515, -0.12489314125749769, 0.00878206114469375, 0.8960586217188002, 0.8814272787491384, -0.44762336267780906, 1.1744311089387922, -0.5769083738690736, 0.5881301205996259, 0.4818653013642511, -0.04311799192211474, -0.2364912111856221, -0.6095228854339476, -0.8062303449397633, 0.38352515056058206, -0.2907065634056962, -0.5354185461979736, -0.13494990782235844, -0.9652242119861438, -0.94180889227839, 0.39034288317008875, -1.2944275603880246, -0.8955732580297651, -0.3672399407845122, 0.33949623582483424, -0.8254853394177097, -0.7977411047017376, 0.5538147156709379, 0.601692037036669, -0.34463284645688597, -0.4204853796340995, 0.16219802722311227, -0.8368798594015735, 0.09055268361789913, -0.365264402554632, 0.7604893818029425, 0.16073725731592667, 0.033468116889121755, 0.15757099596237795, 0.6572838083428241, 0.5613865089265723, 0.8701261260777668, -0.8445575688663653, 0.0939336304700527, 0.15605679865072772, -1.5836127814581564, -1.5663600449283024, -0.2672975223210566, -0.3242188986364196, 0.32094602032373953, -0.7641209065181808, -0.5194013938557318, -0.5205802901878785, 0.41283656291440307, 1.1726334982581257, -0.15674120510801, 0.7360522866041954, -0.09245428472683734, 1.2998054817386213, 0.2269092306644697, -0.23733909245030768, 0.3736371118912442, 1.2382869164046786, 0.7886702649282168, 0.9170457863721039, 0.27597223193609316, 0.3280232145566005, -0.2028040138248229, -0.1865268389737333, -0.5970724451558879, -0.5603561301835427, 0.060942879434317074, 0.12202823207974943, -0.5669350373172717, 0.1742480760471533, 0.42302981987017735, -0.8702939023678148, -0.6142227218411918, 0.3439695719386426, 0.5636996470615817, 0.10695975496727714, 0.4505676558887092, 0.3206560482876847, 1.3221183907556362, -0.5838724783231415, -0.44860780525167143, -0.37420903900147084, 0.2024790732602518, -0.44643846981454366, -0.6218986452175145, 0.093694807533472, 0.07905078577428129, 0.08127030788108364, 1.0301748395252892, -0.723063689160792, -0.9384700890623655, 0.8721561097117255, -0.6982889056597588, -0.09294928203938234, 0.09392736202841238, -0.6874451484851505, 0.21861602815264297, 1.0780562436073289, 1.4167000318302911, -0.24137695656959027, 1.1321717046701578, 0.834144329877757, 0.7920231085087274, -0.23776998708400116, 0.5507037783120216, 0.6440520358281413, -0.6163922036238896, 0.4673464176888748, 0.6781442237661612, 0.6131474013156577, -0.19779595612588233, 1.2607220402110666, 0.054477340757426704, 0.9566755984659872, 1.0064931862566016, 0.27854776095781747, -0.15475505792585226, 0.6518421601561672, -0.34464223952945244, -0.9746027923988725, -0.39552710407546476, 0.0014149180125426616, 0.20850507827177808, -0.9973143426667237, -0.5022390162307997, 0.32994216069113436, 0.7096347620525636, 0.2382509043120387, 1.6608681145680844, 1.8581557755016118, 1.6287035594414567, 1.5372834959819124, -0.46145942562021497, -0.636947231827864, -1.590694174337408, -0.44424933364444047, -0.8585315006474517, -0.851059352974997, 0.6364315409388571, -0.17544348141739602, 1.4728685500100644, 1.1109887450549296, -0.19213055451225494, 0.2761679657192199, 0.7332118241275948, -0.021658387104361517, -0.586403430836542, 0.33410015416662575, 0.056691678722663195, 0.9409298923490236, -0.7877095767902547, 0.027935086090804643, -0.1649927954840377, 0.2250797227440238, 0.4759020163279246, 1.544502989116963, 0.5488581373562197, 1.520460886953205, 0.747703843111467, -0.11374182921811249, -1.195483410520221, -1.1039947221921713, -0.8968741811672983, -1.2428629237095485, -1.013453737792843, -0.3422525540782572, -0.8805740108091255, 1.1249817643610307, 0.3880292104858346, 0.5420472317008778, 0.10634005569937702, -0.3262444109627411, -0.40434065473679337, -0.7352827986015786, 0.7498767161065212, 0.7543672602362211, 0.3650876808876515, -0.5917995633052732, 0.7986614712908431, -0.5274626034514597, 1.1597882263849781, 0.9833636091669097, -0.0005425990190893415, -0.21517420425343337, 0.7731448784805302, 1.3149401040253113, 0.9830803522700062, -1.0385101225160496, -1.9272878680926626, -3.3941816904370334, -1.2181335710334689, -1.7504670382303191, -0.14493749353287458, 0.798271955564797, 0.9086094211511809, 0.20475282689888535, 0.8065160353065436, 0.20650578070053685, -0.1166613009800569, -0.09887717318301131, 0.9003304740631795, -0.13013536512920384, -0.4278480766847388, 0.34638945393538795, -0.21664353341238518, -0.7832023829125203, -0.24695879915685578, -0.2733957654237923, 1.0139912024259767, 1.2183716284876833, 0.38225471480078105, 0.6333345988746922, -0.3688602015999591, -0.7667224977176827, 0.1949233102926547, -0.8184240764221891, -2.0143015366492625, -2.766407227014347, -0.6187018759366458, 0.3392524949858667, -0.5744506751625719, 1.3830439664491943, 1.5784064048882864, 1.2782392913236122, -0.2252103708725775, -0.5782374332032344, 0.7206680037969313, -0.3402381877363127, -0.9680911062919453, 0.4552949339320576, 0.9459312629612338, -0.5182355768978381, 0.26703802029132484, -0.0650376881714617, -0.6977107214881705, 0.8325090047886557, 1.1619959880496358, 1.1055429179451035, 0.5503067302733022, 0.09866893375014746, 0.9872419546104465, 0.26127754494835054, 0.30395492728355183, 0.03379005489031443, -1.6182304501321076, -1.7681216744538875, -0.1761108013775731, -0.3476684335356323, 0.40098928981985593, -0.31440960963182174, -0.4494493723939087, 0.10062827031896335, 1.2484744020384355, 0.6107756711737411, 0.007370250616125053, 0.742648431002666, -0.8495429329053508, -0.5206833577864869, -0.4969992362299705, -0.5379938390248082, -0.9249883782370478, 0.10886054763469438, -0.40822451817370287, 1.4634502111395529, -0.3822018688810445, 1.1635522868660666, 0.8694014170502729, 1.1481758260516566, 0.01608409724273178, 1.0662477844728024, -0.8838380922273946, -0.9794449483268032, -1.0970910177264488, 0.40624435890160565, 0.22415032002140334, 1.2707496972991466, -0.20832510028735324, 0.7309441507039454, -0.5183943779804681, 0.13211043366646807, 0.014175096773783553, 0.2620465739913434, -0.006662050712414845, 0.47347811018454633, -0.5154099009330593, 0.5084205737880204, 0.37999608657046186, 0.12402263107935363, -0.6525689016182801, 0.173974841430232, 0.687783439438197, 0.13992383609762946, -0.0877898096639682, 0.3661290139215947, 0.027016184583617646, -0.1875571305902023, 1.1110007111632934, 1.581742619612871, -0.21479916596384516, -0.22073278745834554, -1.2790800503131743, 0.893932871674234, 1.356455371152837, -0.19938378707856627, -0.18287599481148245, 0.6220227905962968, 0.7077897957013181, -0.4298250871078182, -0.7289157210161379, 0.7320396660419347, 0.6868024699565036, 0.49725961721197337, -0.793056353972959, -0.40270955208202047, -0.8514109761116391, 0.5120641687786398, -0.1578419504543341, 0.612981478471434, -0.17440506510283282, 0.6286414406309833, -0.7981206290060893, 0.9637858144175749, 0.10798899466449896, 1.611841386460654, -0.019688054498882276, -0.33320117854330444, 0.31724873710643114, -0.6300429482660205, 0.24748701150158975, -0.17559961571414326, 1.3058172987828882, -0.2546106707081266, -0.04408179532644358, -0.37432210604836375, 0.21251470725251906, 0.9725335755611851, -0.26015476672445564, -0.9530527297027116, -0.8833033315436941, 0.12742592567554945, -0.7958008114594551, -0.7241761177218391, -0.44877941981999014, 0.8450472986239317, -0.1507202754645336, -0.0056227259788700825, -0.9827797418312922, -0.26130712781254595, -0.024729308175482818, -0.16176632561979704, -0.16524140118479544, 1.0158510506314007, 0.28666247891918817, 0.2171655721365953, 1.083273138891524, 0.7104342109146831, 0.6693039419325555, -0.4373295206909719, 0.3401586062466123, -0.5824730582854597, 0.8598355763512691, 0.2321572026970314, 0.5183874558741706, 0.10173810323449042, 0.45603394082895315, -1.2904015642603044, -0.05264703831994904, 0.9658325761771123, 1.0082462254879045, 0.5371194304819364, -0.6783352684252435, 0.20817767788577843, 0.7568061332074202, -1.1272096181862723, 0.31166822618039386, -0.6568294173770616, -0.14729521789181357, 1.34125575948794, 1.8066548790103982, 0.9327626675537137, 1.0477366398316157, 1.2423767663738707, 0.7327688888625709, 0.792228690367623, 1.1477996334938443, 0.2959657579875448, 0.7009618988981564, -0.8931457592361947, -0.7243815374010304, 0.32539166828006316, -0.9301615065920601, -0.6195036455911734, 0.7437672456509115, -0.11895311867559533, 0.42703604652258287, 0.7137938660326527, -0.39176643246705245, 0.914702589931227, -0.2387275080925202, 0.605318900737598, 0.12113937353256676, -0.8857045565942594, -1.441766206173722, -0.16604769197032626, 0.8859109889368271, 1.1754115489786476, 0.5118143566971437, 0.7463164318097194, 0.6081930097026242, 1.2633403274690553, 0.7643898231166245, 0.6061061745829162, 2.1603374705172333, 1.404927206993537, -0.46377452230677574, 0.10380920540260756, -0.2802822992002286, -0.9719270242782526, 0.4423510574834065, 0.9851314966212559, 0.03481114288284348, -0.8591008974069921, 0.30888419479356255, -0.017166285058571713, -0.1380972033407685, 0.1990131073423801, -0.6606316759133213, -0.32729785681775847, -0.21788252985149556, -0.4286225992384258, -0.04472416647913279, -1.4115611726976538, -0.9724892065722422, -0.08565902933597369, 0.568350271751239, -0.19320499349691247, 0.5510428065893505, -0.30211090567884996, 0.020548682855158817, 1.2620049676438088, -0.06462445949727148, 0.4570114282589147, 0.4865953336016178, 0.3122821405120593, -0.3444330176118233, -1.3654885108579773, 0.36901583993141845, 0.6235524281648746, 0.7398701950419523, -0.016382600896853155, -0.6741272091373437, 0.3094274219163659, -0.12371188358482957, -0.05177136878203159, -0.0005297375383282847, -0.5207337212082318, -0.3148188192340034, -1.059435743381218, -1.1199019861027855, -0.9828841535005183, -0.3985213253762735, -0.7348382755919118, 0.23928074100814548, 0.3002676358320753, 0.4565539553993606, -0.5513408100999158, 0.3072349624911535, 0.5518994358118118, -0.3316470503336194, -0.9126938180170107, -0.32162140719786203, -0.7280623996888279, -1.0249551899213243, -0.5237257929574852, -0.6513816305736959, -0.1418787972165652, 0.9353622454739796, -0.6519847574097872, -0.8023707583913827, 0.5296338091933402, 0.5237458342409548, -0.15356599494099799, -0.1350420050259643, 0.8964037685907689, -0.7895626474173012, 0.044429808466821555, -1.2360195085046402, -0.7493231395601748, -0.2214302902228975, -1.0187859182978758, -0.043976397461264465, -0.033495995641753804, 1.1738156639406179, 0.5850991882273655, -0.16512558965871055, 0.15303311430397293, -0.6564723255050183, -1.1610608643212297, 0.8345005001060831, -0.491407161744286, -0.9640884215013642, -1.0469631284281349, -0.744126470097006, 0.7397436282603547, 0.36352309399978733, 0.88886794843603, 0.21890360335813733, 0.2941543221275782, 0.1504716076792859, -0.37132607808428686, 0.49108686120106326, 0.7961648311987473, 0.3070121088502907, 0.1867855054496614, -0.7167448695980846, -1.5315022899976485, -1.266964079758281, -0.4668402025453013, -0.49378186250742384, -0.3053279160964239, 0.4552455986739771, -0.09224506381860116, 0.7400647046284065, 0.2348148568639041, 0.13938673239851743, -0.22495354377366014, -0.42488099194220513, 0.2585289617224057, -0.3356525246375498, 0.3680945856861047, -1.0325427875108713, 0.6230144904322157, -0.2905348527480821, -0.8629349126155003, -0.5553159370374168, -0.6133287431243389, -0.17025173004711197, -0.7253511739859928, 0.35041993094418467, -0.8983077878353067, 0.0570222420782935, -0.39047045875947084, 0.225406888704409, -0.46261978617241223, -0.3542895736009324, 0.7907365999139444, 0.47839358570547097, -0.3684103356847184, 0.8611889949240666, -0.4180759088633482, -0.35050280652404653, -0.435309225497227, 0.8314475828075586, 0.5867590384069055, 0.09490266205807121, 0.6651990525425607, -0.634252740809699, 0.4292149643710806, -0.9450961482422237, -0.4411682465860455, 0.7523950210989168, 0.4711678101297909, -0.5274995864552583, 0.9324902332623238, -0.4740344833425547, -0.32088906269442363, 0.5824423300182762, -0.5382765615830796, 0.9165315494782, 0.6741577297550828, 0.26400353321427383, 0.29469427095840484, -0.6962909295712681, 0.8124134321292206, -0.12417769135746705, 0.3526868138277808, 0.14692447978292736, 0.878584035799337, 0.38775466050907714, 0.8952734492383234, -0.5429095290158787, -0.6093918030386476, 0.45465743061821196, -0.43083066160148137, 0.6091509942841512, 0.04141966899807619, -0.3446458232612837, -0.14400373555353804, -0.9351854366093683, -0.2972014518682946, -0.43842941384509193, -0.9967487683239602, -0.2884997694797735, 0.5228572673820064, -0.8050945890331842, -0.8891268198684972, -0.8262682120411162, 0.879682529465188, -0.9903256317911728, -0.026284909745349947, -0.6423076882229722, 0.6876508978527086, -0.37443717226194434, -0.39427742268443994, 0.4177278804526498, -0.6602459421096906, -0.4041857778617183, -0.06775215288709927, 0.9719649203510229, 1.049098122393761, -0.32658348819364663, -0.08016237196016082, 0.46325324337398965, 0.5895499684790064, -0.9695177026205355, 0.7769906736883786, -0.4618087378451028, 0.4088626031143738, -0.6331062874844322, -0.9022142429466837, 0.0404236862431846, 0.8128400678496204, -0.44353925113497183, -0.19605840976676103, 0.04548835365641746, -0.46470890136373355, 0.31508151769380394, 0.653705275545784, -0.15511690704628153, 0.8674135777085554, -0.38994757382037415, -0.22557117441314142, -0.8033294743956585, 0.8201963847047604, 0.78146108463187, -0.8489373507670788, -0.6865765521466165, 0.8951625354945834, -0.1644006428478072, -0.20427058794568703, 0.11608270479006529, -0.9208837348254455, 0.37135221694750936, 0.03079304456102415, -0.20461968923417143, 0.8558262181967753, 0.5147936174525372, -0.5745503763944286, -0.710176384525322, 0.4890312387766951]/2.0625723190877148
0,4:[0.36545966444623823, 0.7019080910656257, -0.5553615604723381, -0.8446389978364275, 0.7732125510047734, 0.0729588706948463, -0.17839088919104773, 0.8735908946160555, 0.8061537783053667, 0.4966314855336378, -0.2628410853710246, 0.8322410365976807, 0.8071173780209762, -0.5288332429257228, 0.7084246330879578, 0.7412871892734059, -0.8552801528635336, -0.5850221706907981, -0.7134103023997809, 0.8747549204848835, 0.5775305402185007, 0.4697649740299521, -0.8811212443166241, -0.29676674002243386, 0.0535418500774012, 0.752370085927091, -0.15662122357707897, 0.5355486825134508, -0.0554082145553112, -0.4123993586483643, -0.025195232519311217, 0.8569480206970821, 0.5448809954244456, 0.9714408764083184, -0.5550353529573473, 0.9586528189758664, 0.11609623533436904, 0.805380495319917, -0.252247604937141, -0.1312106473283044, -0.5199385413890546, -0.7483432373622209, -0.6766379397017972, 0.19326810420122456, 0.09303745923363986, -0.2782259750033104, -0.6166360403735961, 0.6066699340209863, -0.6979881441497674, -0.5774971019281152, 0.11658581518578619, 0.9378706984317069, 0.023661085517073355, 0.7761864673668386, -0.42062832986328313, -0.30383417081967656, 0.4679068636979382, 0.24811946098777526, 0.20888301632324247, 0.671929507572546, 0.7437339062190295, -0.663665917080492, 0.9126796020904678, -0.0924155190760382, -0.14665612569920194, -0.25917164049120317, -0.4084074469829162, -0.6825194448167982, 1.1746490747426268, -0.36699234259769464, 0.4208293746612699, -0.6869553668434082, 0.6712309996585659, -0.4549317638642904, -0.6269477675023908, -0.04555456614536194, 0.2462656232670796, -0.2606892446357805, 0.7127916567611616, -0.4297498026244381, -0.8134385032835475, -0.37119904211242627, 0.3327320356007506, -0.4925931804402963, 0.5104008562666669, 0.17606977730496176, 0.7427749673743427, -0.2843533225325548, -0.31986187955116596, -0.32365804348136284, 0.797077153080842, 0.06140042927440015, 0.4628478800274471, 0.44860426950021864, -0.14167967487106112, 1.3115529937380321, 0.6614633097932892, -0.18169192035644888, -0.4231456146991654, 0.14718326596445352, 0.18133502281178096, -0.014699853789284286, 0.24709543668128559, 0.16810069152355375, 0.5850131099761474, 0.6102348767090778, -0.6308277028427294, -0.6865620187320205, -0.46631387882330066, 0.6111738450124078, -0.5295416829939297, 0.939841091101284, -0.38638880077404725, 0.05348889253542676, -0.7152318216660727, -0.7011770559354389, -0.09713144174514074, -0.1831585468564718, -0.8721594367959397, -0.4686723120889221, -0.21706194742422516, -0.08553439977002082, 0.5877031974917641, 0.5748125051405324, 1.1768861273268696, 0.7276107976942121, 0.8129274629664724, 0.3981883837423363, -0.07188940773807306, 1.405588258473924, 0.9757464809312045, -0.25742945863324995, -0.5156221495060977, -0.648062009649932, -0.9339667576380649, 0.144276327063114, -0.8977244881469989, 0.5357136280109741, 0.7350551476314244, -0.11850925591131789, 0.5543998896730866, 0.8291790949792206, -0.9674545624401857, -0.34975236883509314, -0.9131934830799776, 0.14861338306033858, 0.40806383220992287, 0.10342741784731042, 0.08733785629456849, 0.2338364620626279, -0.6128713697981679, 0.13140993628932737, 0.7616598242127354, 0.1455769200589683, 1.6280204730223753, 1.1547906017508145, -0.5701165469470457, 0.13367644675483145, 0.2969500079461766, 0.2695732173542384, -0.37658852857228786, -0.5653984521861302, -0.5838298244830362, -0.7802898833151579, -0.9199055770498997, -0.7047356202531967, -0.06648738622660874, -0.8343364751931414, -0.7037027284936899, 0.7515476392493645, 0.852918576083597, 0.6222566287717589, -0.7838696405204143, 0.5015778960776938, 0.229446505582695, -0.21390716903048784, -0.5168395861837792, 0.1917135281483017, 0.8652642658827846, 0.15222450356750072, 0.08743429205238339, 1.2857835586894582, 1.188053835537574, 0.9040623418952299, 1.1261129954765694, 0.15160639390225797, 0.03483815657048241, -0.2685210869657932, 0.6040702853191174, -0.908775345659136, -1.350098655785819, -1.3677166391957112, 0.3892904824757395, 0.18569286866632442, -0.8657437401635838, -0.5657490769739184, -0.8019545616401238, 0.6984794287215033, -0.15103644500613161, 0.6783137239425266, -0.16786039950259077, 0.5380262152760016, -0.17754801203597192, -0.5154572381690535, 0.030666073594694285, -0.1409083520226774, 0.944404605371136, 0.022486140080450835, 1.7718127740020397, 1.2878821820604234, 2.497303849227647, 2.3088168217997875, 2.7855511519552802, 2.4044876032046667, 1.7675820504679616, 0.7177255368688203, -0.08785802193179365, -0.21734054264163724, -1.5867674319401577, 0.3007083273320664, 0.2603955476537689, -0.41402050087734654, 0.8929016901499733, -0.915815067008043, -0.8244213660978089, 0.22303505847447835, 0.3023498701299381, -0.34269238983721456, 0.330213003212744, -0.6972201003277927, 0.79694764895282, -0.5360891602792309, 0.062258780399069846, -0.3782141445739042, 1.3893694747301228, -0.21239497152929956, 2.0683092373240464, 1.156291286377088, 2.707129212224369, 2.377365599953918, 1.9361579465985732, 1.8832290325575827, 1.2541809939081439, -0.024730099594189182, 0.022510073907358794, 0.8233047024671903, -0.435787465160924, -0.8121138277259589, -0.3399091126139831, -0.35980866771101455, -0.35323657856039903, -0.9182362272547087, 0.36718925873977265, -0.0966462162250139, -0.3601019339316787, -0.3818709651966356, -0.1466191416929029, 0.5898683121411383, -0.49204039318302195, 0.3926550633668923, 1.0242332288843987, 0.03513361943846895, 0.9361934178313055, 0.6363619039714564, 0.1875061319104963, 0.23009530919457247, 1.5533953113231238, 2.004691826007926, -1.0764067301084272, -1.135807133835416, -0.05920077588901917, -0.70906103473536, 0.8776325543873545, -0.7549564643047547, -0.16438194318096028, -0.8663606741703871, 0.38675207658416466, 0.13075048190408098, 0.5703846265362096, 0.5938262780955331, 0.03222763859254596, 0.3623770487663908, -0.6886565558099059, -0.04461269923950956, 0.6666768218036312, 0.6518430170459191, -0.061157785844008286, 0.9634901945627732, 0.14246089283709637, 0.26515536411467444, 0.1289763514332074, -0.6757658943799703, -0.17931655724900275, -0.6588797835608273, 0.18144442206456368, 0.532390206817296, -0.39690990201145304, -1.290849269060461, 0.08337524019758344, -0.2867219827967313, -0.21211152549114848, 0.7876368290489346, -0.4945291521060758, -0.6832631882477018, 1.1210007839522502, -0.37243004943380076, -0.8006946697626068, -0.9386516035252239, 0.8335045356155415, 0.5585837265645827, 0.0989049139439814, -0.7608854557551314, -0.03575507331513865, -0.9808176650408046, -0.019159472967926375, 0.23592643131719093, -0.20473549909738753, 0.5660033383078066, -0.03947273272191799, -2.2996728574945755, -0.5828750059315304, 0.2323805493837963, -0.337629632477197, 0.5518080978036181, -1.4365227741894933, -1.6470129809284584, 0.5493675240910015, 0.6126666749488677, -0.11087597174001117, -0.32968795334399964, -0.9461994677905041, -0.45912613390967516, 1.1790495206004645, -0.014911730271404746, -0.65940070311924, 0.264097749414724, 0.1344500653808569, -0.6353068564633088, 0.3138771414123462, 0.3034644897373799, 0.2877205725078038, -0.1469232393843143, 0.7997796732952595, -0.15881179434796308, -0.15834242947421437, -1.2833634409200882, -0.9421673501054204, -1.472175425567988, 0.1212603687948258, 0.22930747762196163, 0.6688860210023323, 0.4016257935530678, -0.9744956085391168, -0.7832717638801221, -0.41958343192593245, 0.22794328520403978, 1.2831435442961736, 0.18355355306505894, -0.07753983932712372, -0.40874569816342016, -0.5527678845027933, -0.48781182874008994, -0.23898192051193703, 0.8259750113558425, -0.7281197085273321, -0.2713667908610539, 0.010041682075527832, -0.5977688871381922, -0.3224358748764513, -1.0750110196364235, -1.3283063365716936, -0.7468435160992145, -0.6558569910939176, -0.37732966913237215, -2.5099335897989996, -2.192265918783257, -1.0428609365024883, 1.0677458316468382, 0.9219614714383881, 1.608600925542711, 0.4528995449957477, 0.5905582096551536, 0.060312157748184395, 1.074864915751229, -0.7302346193949281, 0.23916463193559387, -0.13139378418173953, -0.1352227727846433, -0.2519399689807204, 0.07164913153177196, 0.6764233636223483, 0.3893708837119048, 0.12923964663914944, -0.35369603358359825, 0.25356247164475415, 0.2123289780055107, 0.5230237667454575, -0.20523564053870477, -0.6224439732287735, -0.526108450881957, 0.08882098027372497, -0.2956136450901743, -0.18421822376393682, -1.3468730017483836, -0.23719742357935084, -1.2968928615412612, 0.37983935761022475, 0.272639528522465, 0.2731700499305937, -1.5750053258336232, -0.9149451555725475, -1.017640981419089, -1.4135795554993555, 0.6319509110332172, -1.1078600386815818, -0.1227632693453828, 0.9760871083198011, -0.40927000770720245, 0.02277089331806162, 0.9582147914101007, 0.809113355824391, -0.3205624202215689, -0.9879731143524425, 0.595312818119106, -0.8367607790663689, -1.1494684870149439, 0.1799023612096048, -1.443597318305742, -1.1491095249034449, -1.046502238116237, -0.06919817491724256, -1.049858518788753, -1.201156563022782, -0.2648980913452068, -0.8446327538196325, -0.29264804510417, -1.487262691892392, -0.6217510310749725, 0.11240030313781946, -1.4476156806268576, -0.7581586527786028, 0.10345786420117896, -0.8591723337337456, 0.5222217549585586, -0.05964610520700306, 0.37221096749059757, -1.0421634112296358, -0.6941527658808476, 0.7317906559429534, -0.9597396255345056, 0.271963410535969, 0.6028516209210273, 0.35294000068954845, -0.8464607613512721, -0.4600455779605192, -0.954600046178158, 0.12677379135904293, -0.789327055272344, -0.7737574503978542, 0.556451601328096, -1.26253438161597, -0.44746330716725685, -0.4224843280171772, -2.0523637300158426, -0.7607971207044082, -0.892263627076456, -0.8125158334885206, -1.5784894273215309, 0.6270145458361019, 0.1984522562611613, -0.7947044432220124, -0.5692000081524405, 0.3608114527277417, -0.838559046049422, -0.279083867803913, 0.9696445765547685, -0.9168644873351139, 0.3696893245890054, 0.39848219552644, -0.8173234101733245, 0.6996395795912316, -0.21839256775381644, 0.14933520340353362, -0.8784308851764094, -0.4030535009705915, -5.2829511629344134e-06, 1.2798998089139664, 1.2089147169756471, -1.096431138090771, -0.8394067271743137, -1.2004224384195632, -1.042367193344156, -1.2916649525476749, -0.8872124739936144, -0.19173787114434432, -0.4978989636745331, 0.8563753381393578, -0.4735277261807672, 0.4387892700263775, -1.0725445182253477, -0.8240068813529949, 0.024554363124031676, 0.6135763563790171, -0.8790251387352276, -0.742124297406676, 0.559877007364929, 0.7329190469878609, 0.36244631813747424, -0.126587715004349, 0.14095565085971343, -0.3449531695183221, 0.01153263710199775, 0.44317024902567304, 0.3884203319550194, -0.0319153160860469, 1.1711939443528812, -0.030287372555365955, -0.3662426766239411, -1.1232013448962341, 0.062055741267826085, -0.4203446788673234, 0.6655890971670693, -0.16914459420763497, 0.943715958012792, 0.6836858337246454, 0.12715658663285634, -0.596764406998421, -0.4124376345228171, 0.16487965195033072, -0.3505171724067293, 0.8252354445987375, -0.3315008808742392, 0.06990011846644939, 0.952976368301714, 0.816023546219317, 0.19358647090204387, 1.0253659520659948, -0.07140253182540388, 1.321640107240637, 1.1490930742902308, 0.6475329589666078, -0.17843743870284734, 1.287447232658457, 0.10396900613078608, 0.7551034116283987, 1.2729073900894927, -0.3208305890699427, -0.06449187891669915, 0.19091324310066105, 1.5087085699604346, 1.4759039779520209, 0.7314895275033872, 0.7919829202937114, 0.9082209688096953, 1.3255742420237033, 0.2336243389777204, -0.01706527469353603, 1.0140403944556609, -0.3482233257736075, -0.44701843461902896, 0.3891182638986135, -0.8452033112172599, -0.6267847095816818, 0.2935197262900296, -0.5983410903723827, 0.8122762550653664, -0.25572534422972093, -0.19016738289751647, 1.2928175321843172, 0.7234001672443097, 0.4184254730152427, 1.721424894706877, 1.3917760196006437, 0.2318694465142349, 0.8619948001786596, 1.0572180983087478, 0.7183014568835329, 0.9372627007459373, -0.23612739283396975, 1.1361676534024452, 0.4527277812881958, -0.0045242808591281405, 0.21404918019410285, -0.14527435452791415, 0.8539495997572025, -0.5189247147227827, 0.312729565466837, 0.46931440476389374, 0.6823768072627745, -0.7969791319897849, -0.9376264694762461, 0.2278659393153052, 0.6674239765625635, -0.1611157024526794, 0.7650874663676176, 0.10993304242040984, 0.8166571569045634, 1.1544143354621945, 1.4196292993479456, 0.5196898202502886, 1.315492641981409, 1.1188097041506941, 1.4094554436668514, 0.2958703692231879, 1.0268697628511998, 0.6815927730605859, 0.4580534355520387, 0.8455840548699017, -0.1298865155333649, -0.4068564430856916, -0.28503428220107846, -0.7011471121250159, -0.6647197179802278, -0.5036455685775657, 0.12824334367721443, -0.8459949370711606, -0.21705385035597582, -0.9351292106728402, 0.5771063892097151, -0.5514949173186224, -0.7980442227504535, 0.23719449805487866, 1.0153095938211865, 0.538573143140911, 0.57070233456747, 0.8592704078151595, 1.1397574909435682, 0.08693912719038041, -0.03638125389014984, 0.2974695194344792, 1.0046851613992962, 0.6343995759910696, -0.46739449536296124, 0.14365737007984294, 0.13640165016848654, 0.4744466086322207, -0.3692344413173835, -0.5485713727702946, 0.38406636249656645, 0.5317903006000292, 0.9151976718023539, 0.28790413111023794, 0.2462520919131466, 0.9799599060431239, 0.544960782363727, -0.41026794521940513, 0.6175436521152751, 0.2541909046429277, 0.7056902391472042, -0.5633818151521011, 0.6943916236183522, -0.28503386958060367, 0.6970880047835202, 0.3474658640800188, 0.10192941072375881, -0.3671241106718688, 1.7858383096035748, -0.29587400968588656, -0.20430213431135077, 0.07005459519568111, 0.5318520001021854, -0.5446640540312717, -0.011090448085374342, 0.6835544224898595, 1.0671054653691656, -0.91012702441021, -0.3651427940030002, -0.15520849948222762, -0.7975415147355519, -0.8413904467252947, -0.15906067899317855, -0.873990128541603, -0.2874684844489612, -0.19353784987431455, 0.005125019989959056, -0.1240873966585583, 0.7571871823722784, -0.7592598215620834, -0.6763066606297052, -0.9673612199301835, -0.11024265375283335, -0.5280376631463082, -0.5360493042067602, 0.5333205448616546, 1.2483224747882509, -0.5758460640428655, 0.5021358323948891, -0.06231042934952171, 0.6583518960881909, -0.2677272699121479, -0.3703736536616861, 0.1188760114071588, 0.42395948448580567, 0.1716132303903737, -1.05444617106163, 0.3304617395939784, -0.36969740920307065, 0.9352383467301617, -0.8540221816605666, 0.6003627077022715, 0.6739188363322499, 0.27298051396931755, -0.7315570907365678, -0.8433943055468733, -0.6662080966585461, 0.08467125792399643, -0.661116657668306, 0.3116999693206315, 0.39718034883033404, -0.1205481460439275, 0.5851400393969417, 0.2819778902584858, 0.5261611811014744, 1.0541962109210592, 0.9835771484930739, 1.1124335590735912, 1.0166212167122677, 1.4089669716259159, 0.9767694224874212, 1.504086954253584, 1.216394510788233, 0.2641192889880538, 0.3010922763099894, -0.19812287218326563, 0.841270811052893, 0.456160011136155, -0.8077443621604119, -0.7946391816789804, -0.14215369971550595, -0.9153026189202906, -0.27446398225141166, 0.7855210762986055, 0.7334299449114114, 0.4287108155505505, 0.7813135615498366, 0.03620841449359043, 0.6868476042115053, 0.10030495780207366, 0.930136396418784, -0.2831789729783477, 0.4444462328431661, -0.09232915895559227, 0.9739665002440153, 0.3021454231023604, 0.5532551459989212, -0.6891608320955507, 1.238080387266506, -0.29684739031432106, -0.01568901909880774, 0.7913117313253318, 0.5603745606053556, 0.8212773745807368, -0.6561470088735033, -0.10981920945613832, -0.2132295583623911, 0.684429286082195, -0.4715677180210749, -0.4715377453660783, 0.36255318754664145, 0.8248557566636308, -0.08864420828500207, 0.7980631768831922, 0.777976446315034, -0.1273715268594203, 0.42995186927778845, -0.5259419625314091, 0.3801511112658691, -0.35630425911508934, 0.7914663828939568, -0.5768169079546343, 0.9611974557507638, 0.9839080198037755, -0.4716246236527963, -0.7808477431171583, 1.1280909711055154, -0.7342764293208094, 0.2267417054126538, -0.9421179243167918, 0.7441181049850507, 0.5316916932948215, 0.44293876826287937, -0.9458449441670302, -0.19086086159761506, -0.8800390723215974]/-0.35242758542277447
0,5:[0.9580717406440986, 0.3750368000957678, -0.4085976583737372, 0.19391944623465718, -0.9164348335610217, -0.7636922320578774, 0.19179593896114033, 0.7394460228703057, 0.497733297611739, -0.7669735432421589, 0.4470013793762615, -0.5647415536293952, 0.10608483661467716, -0.32170356959640944, -0.043121224708410066, 0.7996774484962474, 0.9277171736645544, -0.6339303655606612, -0.5373159218866235, -0.5132941410452987, 0.4676845090481718, 0.9278279835677037, -0.11553292691131478, -0.9488812594118963, 0.0873776295457116, 0.9008441701639116, -0.6163823749901134, -0.9005109350566136, -0.9377233126994429, 0.32343215424298943, 0.8591278517788221, 0.27607997179542143, -0.05176101005941369, 0.27893688044644716, 0.1263416023043884, -0.8922230169395774, -0.5538442413139696, -0.7656508369338065, -0.14988121947102204, 0.9295614626945709, 0.12453985741862923, -0.6495726859239214, 0.07924833417095334, -0.8601030067536194, -0.8854059298498547, 0.5877118107312358, 0.3449234196491884, -0.2006350666105817, 0.9312228513267529, 0.6157969962104469, -0.39845068119888044, 0.35710796993654625, -0.04716360951491683, 0.7245414126384078, 0.5256654644606646, 0.4708767190589891, 0.7484518315662634, 0.31154850314483395, -0.0747998544844013, 0.5374424987449578, -0.2129427239268336, -0.228645390308998, 0.7233712533109884, -0.5962293451798246, -0.4670152725832581, -0.7943862408473559, 0.8106212223169673, 0.9080152191995284, 0.7403909933662001, 0.9176804805842981, 0.7711503211926191, 0.24048697386393883, 0.8956995678045845, 0.9513927062676569, -0.9923343910884441, -0.9725257167477238, -0.1415708717488368, -0.7825234731592948, 0.04049625982686321, 0.8119383831534621, 0.38548333888676345, 0.6742133180008505, -0.4491930524352843, 0.28309809456850266, -0.3083417650226046, -0.0226303935465344, -0.2732098591198977, 0.7523557588902602, 0.634628651034964, -0.7055142631810983, 0.27017383813832824, -0.9343008006668321, 0.8705665213578522, 0.03576371742039193, -0.3515929306818443, 0.8368343864091513, 0.7653884773482833, -0.06971156412865773, -0.35316560512619677, 1.0774809859943582, -0.6460715488491348, -0.47278328186107743, -0.11642753249462477, -1.0839362761134967, -0.5218567967440947, -0.6251586261147514, 0.1465947391222337, -0.7399043021069119, -0.33592743562885113, 0.5270465157981392, -0.11903350256660294, 0.8875782779206545, 0.6767020002274096, 0.7842966225682381, 0.5540968520036547, 0.7156728517855966, -0.5729769224803192, 0.22943813710651587, 0.4330103691936597, 0.7514710229650244, -0.9409801164924416, 1.0094307926367798, -0.3104262103836753, -0.7849238043732033, 0.8590437691343263, 1.0819701900331644, 0.43598184234010134, 0.06267768334901987, -0.13910417446100415, -0.257591031309187, 0.4759344140058534, -0.8890252747184509, 0.3665681411963316, -0.12766945657303008, 0.007090454941306722, 0.39066923135446097, -0.610969252334469, 0.13029556999258934, 0.8935794043611969, -0.7979385517825388, 0.6476770599530499, 0.5990097782180226, 0.7008667707813895, 0.6112913202990857, -0.8453866228547932, -0.516101261239471, 0.8064947008928485, -0.15493230518918624, 1.1627781600189837, 0.3843296208603611, 0.9006236500912682, 1.3549287442764852, 0.8472426188453379, 1.1215061397373207, -0.30182282421994666, -0.2807299358246245, 0.3071142131190442, 0.192297097038068, 0.4105671035372449, -0.9981450368277175, 0.17263711285762057, -0.6848026469029678, 1.014261456975186, 0.3668092127111235, -0.11496015736922995, 0.2240398503174348, -0.46387203783426995, -0.7361832480083909, 0.4722140582465606, -0.9074660072551743, 0.6280767282513594, 0.2846503331839781, 0.4247626804501405, -0.028394719502264243, -0.4915788891627919, 0.1750692124264519, 0.26177728798669225, 1.0359082561089188, 1.2679143381134945, 0.07751244967088504, 1.3034293437412203, 0.5317384162807971, -0.6068961793522468, 0.3620205680337681, -0.35125847015658185, 0.38784695410596015, 0.7823911223791639, 0.8603501864768828, 0.4564526772457236, -0.6837833066917169, -0.36613638106643687, 0.5083422986336052, 0.20737159542584271, 0.04787431257980316, -0.6851028464542801, 0.4988313205103648, 0.8804634992703725, -0.5070909223406751, 0.176267328372192, -0.8971184813396826, -0.57442005372102, 0.7477777959806937, 0.08797034191461321, 0.7683969094621694, 0.18100742586054858, -0.28522735622630474, 0.8835749547407341, 0.5950845812133757, 1.2695366211922214, -0.234796938958604, 0.8264515356954588, 1.0380482047480846, -0.23074879463005565, -0.35784432868881005, -0.09381857870766165, 0.5018251465673668, 0.0559375286592363, 0.20110899356583029, 0.2835715065584895, -0.3345477893379309, 0.3130031789145076, 0.5236661533118565, -0.7693279700839974, -0.5173738610422768, -0.41524113260364737, 0.8622423865841966, 0.03005246227187928, -0.12828986398098113, 0.38366544269687847, -1.0280467369984894, -0.02953029013311159, -0.3328030174391884, 0.11157505887766572, -0.6854258459579456, -0.5029609422088386, -0.4899665693514912, 0.5135419132269914, -0.624479529801323, -1.0618491024802301, -0.973904608235148, 0.18082565948530097, -1.1031140609009824, -1.0549005944118828, -0.1649860189385554, 0.011491963568693435, 0.42057323973079164, 0.8676326514272157, -0.16137353722649736, 1.1337843065807924, 0.6276689106469036, 0.7101592874314637, 0.1840778699767559, 0.8031570842883172, -0.7877237614841779, -0.33218738924474345, -0.6919526971825677, -0.5279483643820109, 0.13520177970071864, -0.9892697838471466, 0.11713355866778477, 0.0031496792671264944, -1.0644746775661054, -0.9364530923206739, -0.7713302262278519, -0.8068775312174165, -0.6810385360852116, -0.9310109485785151, -0.8388063362931257, -0.0914904940369141, -0.5109501622113195, -0.6441801852562419, -1.1150837290746436, -0.6194413881970068, 0.5285041810042855, -0.7551662700121226, 0.08228622050304314, -0.3055552953721991, -0.3882960330537397, -0.5378044692967623, 0.22603091553613067, -0.21791273992545834, -0.9317037471491222, -0.778820126840779, -0.6160155844940902, -0.942602374483745, -0.41716920349770265, 0.3293622407102679, 0.410271975619471, -0.19419379542655807, -0.282553639274106, 0.2837896050535103, -0.9204340036076252, -1.3319302621861437, -1.6106198471756399, -0.0802823167765107, 0.12589157661674552, 0.2678680522055982, -0.1784976245083928, -0.3361205542073547, -0.30008712425436196, 0.061422287123571555, -0.8741968030833579, 0.2984178746139107, 0.049959519891537255, -0.917518761652664, 0.6310908599413793, -0.016235420204189065, -0.036303137091795994, -0.5802502767772633, 0.8157302548463738, -0.6940440662078393, -1.0574642719855005, -0.39224688039719907, 0.7975274202129427, -0.44392082255707666, -0.915885149309623, -0.9238465239671815, 0.7985578762903419, -0.7026880867223194, -0.2841013359189908, -0.7020620742018592, -1.114075347279904, 0.7442490172275662, 1.6716656608103282, 0.6867033593308406, -0.6775821213770995, -1.0855665813399733, -0.9931464417314585, -1.05438165516706, -1.2440475746107462, -0.8923466934882599, 0.006285488980042465, 0.25026959607411536, 0.13846439080745082, 0.438580276201983, 0.7269598440010028, 0.7880154248747109, 0.8263358277342191, -0.13291259700644953, -0.2356671615438646, 0.2734470988586683, 0.434445212390057, 0.2019560519189157, -0.2871833954840587, 0.7136690459993363, -0.8363285027840134, 0.11785179696075172, 0.05273169119409968, -0.034716861347530964, 1.012904409477, 0.043146074647090596, 1.6245986835981256, -0.42022557208640604, 0.8610740497312698, 1.2341965182710515, 0.41656726756180656, -1.3070711088816644, -0.2573370757148168, -0.9508815340974275, -0.8716291348287675, 0.389218983223327, 0.06638198144277074, -0.09151418960755206, -0.7707796740885503, 0.8229230042389168, -0.39859681255367024, 0.8576549618261682, -0.44282190647019704, -0.7321543820216798, 0.7844445783336893, -0.5518153584887898, 1.1695962454476532, -0.4958808550568717, 0.1614239629177031, -0.43710914123649575, -0.726793455275967, 0.7823919114548036, 1.6976788441313448, 2.1453060645594366, 1.1845413333797823, 0.35939237325647433, -0.038386876266330645, 0.21184645235659083, 1.1472057034409526, -0.4953022079210869, -0.7596211227262134, -0.24901992387604016, -0.11020080717006836, -0.11882670704086204, 0.4445450173901527, 0.7719270645522879, 0.8819893535632166, 0.3470002083932102, -0.7510174295242384, -0.8538601791051232, -0.5506187542033278, -0.1613268554092264, 0.5141777716670284, -0.10867449830450318, 0.5554216499717455, -0.6250599151719866, -0.037668461119380575, -0.28645456243674255, -0.5580351506453832, 1.369728854559148, 1.7274532399737765, 2.55108282644849, 0.40178661515791225, -0.031942158842699235, -0.6647710815998753, -0.30064273517461537, 0.2666816381613482, -0.18969829058997179, -0.1950644785557669, -1.2308145398150996, -0.6217466595402984, 0.4004198090782819, 0.1266557035464942, 0.726705731981531, 0.03242397265315764, -0.6686148513228636, 0.6243118862320822, 0.9681728771755533, -0.8971426322632786, -0.6767373222321618, -0.8452935380013369, -0.7869765030221482, -0.2949175037076212, -0.4564956565809401, -1.0056656060448368, 0.3746674901737252, 1.4522581979354565, 1.2610034247508943, 2.7475896438410836, 2.6543917323809985, 1.1256167898872114, 1.0922978332944266, 0.7145045763529163, 0.4985095229528225, -0.27693108091234725, 0.398910513220271, 0.850925197844914, -0.22454793227521744, -0.1441383626785951, 0.3229569685459132, 0.6524377487959908, -0.476938575206851, -0.9603079056726281, 0.19868685357350002, -0.4806432934376834, -0.7171569610595141, 0.15331027738810787, -0.3665960965536516, -0.3280235824926447, -0.07366192007655843, -1.2204211489313865, -0.7321433177711637, 0.010111620189550204, -0.731929272307031, 1.4628628345860784, 1.1006128197921947, 1.1746873621631284, 2.0595574400005563, 1.615290001646412, 1.174406711850598, 0.4763614495001775, -0.8477584943144055, -0.1885850696835088, -0.5472307925428332, -0.7040469006936307, 0.7369628811628479, -0.6418517754352089, 0.11336924060956784, 0.8866135267870073, 0.37048408085965423, -0.1336060340838649, 0.14760092825814008, -0.6949873116059724, -0.6117799333609987, -0.3133595866347676, 1.0665020062885067, 0.8243190283111658, -0.7730745081458281, 0.41184851459713906, 0.19697591925427801, -0.9677509108584296, -0.8423431246930171, 0.799062718508753, 0.5277372641504303, 1.0123193998399307, 0.7865063438234347, -0.2632837026437458, 1.9146329529186648, -0.5811130476973609, -0.6004761946605521, -0.7182573647228823, -0.5338202270380615, 0.28997858079824823, -0.05548547508749471, -0.9055501866026991, 0.8129854262399346, 0.09165826062429233, 0.8008351552221954, 0.2448698561365032, -0.42649893645318837, 0.9691663600881022, 0.17461642297446073, -0.16611533066941778, 1.1700828305403548, 0.22594093040957614, -1.0494868389104501, -0.5765402889431669, -0.57120053242273, 0.48089574887146136, -0.26168706529150243, 0.38454234357674766, 1.6946181604143506, 0.9800389764361659, 0.46256783318193, 0.8096008474629245, 0.31307852580784823, -0.6253620813712125, -0.5319035751531772, 0.011890237038065691, 1.0846787141629914, 0.3829932563955718, 0.14116472034940383, -0.5885898295932493, 0.19017532607700258, 0.41585658337210946, 0.555637809129178, 0.6845156030580225, 0.439770611967379, 0.4742877724745507, -0.8100457183115175, 0.6076364019298899, 0.9909649399801747, 1.160969113843328, -0.20569227032494736, -0.9424730567949803, 0.4989213263995228, 0.2597638812664088, -0.8834749712533962, -1.0114326602693562, 0.022732083577721544, 0.7532596867118657, -0.0610909012417428, -0.06421206755067425, 1.4421373327965037, -0.5305463518415624, -0.557099367394476, 0.25935070827140455, -0.19599455112773642, 0.5843761273620427, 0.6909531556458074, 1.1286648796951881, 0.041080100219299344, 0.8406501665285867, 0.18352039927206756, -0.677084133057922, 0.6192715219011333, 0.4274608570224273, -1.0079793645653312, 0.45646895012286137, 0.04756574978348845, -0.7855440955872992, 0.4299581455625322, -0.8113190669430205, 0.5220952233851169, 0.1041782853091632, 0.5975058731239838, -1.0915076982751513, 0.30179613899963526, -0.8466138530772996, 0.8763035168096376, 0.31745465928872024, 0.23861516131944044, 0.18280890568872943, -0.5989327921223464, 0.9213955805545611, 1.13651463620712, 0.33411970805869073, -0.4436251453004703, 0.7550798494301275, -0.6847113173402021, 0.032399090025943655, -0.6056823138993855, -0.9700927773536647, 0.4387451312767122, -0.43325575243826275, 0.34025857144741994, 0.9843534966747923, -0.6474370580735862, -0.5851853417063977, -0.032230909039300766, 0.32528498551880886, 0.421325371698533, 0.6132948203847934, -0.07631283244065408, -0.23574228911213957, -0.8979890248223427, -0.7008150223069383, 0.038257848475844784, -0.5028097222573485, -0.41968191143014555, 0.6725623119023849, 0.5638930170051145, -0.5074392666419684, -0.03722544264392931, 0.02119915229150392, -0.6699745704094847, 0.10452068999422379, -0.3434840482538785, -0.6553372837682135, 0.1328200669231524, -0.8909048745507928, -0.36065485013159126, -0.20714906156046256, -0.7606087954475063, -0.46607828749709224, -0.883492220013436, 0.5893503119683122, -0.025324725092973257, -0.8211560577389032, 0.6225033310349213, -0.8743138172774605, -0.5589496949112837, 0.5225950231566939, -0.020731336072054532, 0.13173263992847753, 0.14010165185181558, -0.25163281734088677, 0.8597055647651252, 1.3531832769539591, -0.17962402968961996, 1.0572277556377614, -0.23140059776142888, 1.2820509396647686, 0.13673130615407986, -0.5003270548348416, -0.8367116055116937, 0.5354676231293725, -0.49052531021765544, -0.3959927698420196, -0.5257372820642183, 0.9900955710535142, -0.5159570533037959, -0.27078114790466495, 0.6537753529771985, -0.90061549361756, 0.4295690540581543, -0.7701875178809668, -0.5371587111616188, -0.48316388452858755, -0.9576678600430921, 0.3386674241926828, -1.1547505971828032, -1.0808805935987695, -0.6086487933063258, -1.089157199871497, 0.16357551338077495, 0.513284198814793, 0.7271477186923309, -0.27918950002800086, 1.1663604730182449, 0.39370447393203445, -0.44371207456398926, 0.17110240355352185, -0.7846496749698528, -0.7919463643701091, -0.5422916078502412, -0.8915286746212674, -0.453251423977878, 0.3056404130755024, 0.6652512618700398, 0.2645915200593076, 0.2980974278732574, -0.3313623519230387, -0.49988431826115554, -0.6980898291251839, 0.046264528430186136, -0.9293893787220932, -1.1932343493093733, -0.586233878025351, -1.4151331056615812, 0.2715563930659273, 0.15517523406742237, -1.137615957201315, -0.5728410872136686, 0.049218264990979414, -0.6874623455628438, 0.7159502666692887, 0.44189008016817993, -0.8050912227255104, 0.07991990062294231, 0.9454105541416905, 0.5608268755520213, -0.12725172026851048, -0.9406107917074712, 0.06767392510311976, -0.8236524191341423, 0.5693563477499464, 0.6075649953779055, 0.09239339584872047, -0.6852113215714842, -0.22823281417971508, 0.3468029089221781, 0.6020015527338094, -0.3801524074117377, 0.8231360596476921, -0.8745994462515717, -0.5918967885822393, -0.6226101206767921, -0.4535213164610145, 0.6110964397724489, -0.12815307798256037, 0.39863643158028567, -0.7177454855053594, -0.8733639743991091, 0.615835752912793, -0.5317979766636336, -0.2695769503374092, 0.4787047711271024, -0.7167557949236883, -0.7374382158760057, -0.7756317120847651, 0.16956048008073066, -0.6879248253276962, -0.5899078457156255, -0.6982085270342049, 0.5887472871772155, 0.34140953120355055, -0.8278800958038917, 0.2055729871204843, -0.40514988741112984, 0.04980201932062659, 0.6313755623467986, 0.6588727840895053, 0.2880385259750716, 0.4711490772999578, -0.46165038185459095, 0.6217072142530791, -0.6677755097956017, -0.4578215947601546, -0.2467688340798227, 0.15171172264869828, 0.6238755720956017, 0.5186413146372182, -0.37029410144872543, 1.0918334697340881, -0.593113402529209, -0.16602605184700603, 0.0958700739745697, 0.6299280989736571, -0.35350556688580514, 0.8129397497049753, -0.882837883099685, -0.413163948070818, 0.9638598021965741, -0.7646892388975428, 0.087627905980919, 0.4666511409081211, -0.9806246952392098, 0.734497845249324, -0.5247596972094442, 0.9061661630537711, 0.2801216822846077, -0.8374486490675043, 0.17000188338242658, -0.6291066941433683, 0.8925094122948768, -0.22399264619282705, -0.2757826844305605, -0.4512352736128385, 0.6860869313376611, -0.11629318653271363, -0.24382664229033726, -0.9435452347329928, 0.7135836215892213, 0.9505703802001051, 0.27461662728589964, 0.507077408613168, 0.6024096903626506, -0.930095984457634]/0.857359383697987
