Lh,16
0,0:[-0.7192557858946205, 0.2104430276299334, -0.4485195936689048, -0.4509026534520144, 0.12449801621754175, -0.4545594419521186, -0.16541607517276002, -0.8056795326250481, 0.4611754909587644, 0.6143844656463722, 0.9780935596791214, 0.36533661156367625, 0.10210202919160327, -0.28539771186978213, -0.7191284858511935, 0.53368364960013, 0.26233746936493474, 0.9511873136766551, 0.541368034609452, 0.6096916400299506, -0.3889940258321951, 0.8259799665712315, 0.7993246236304274, 0.21324125509033864, 0.0484327239822413, 0.7434555193816776, -0.962877805166481, 0.6332892948845925, 0.51953950882342, 0.36598085256358726, -0.6179955465642051, -0.6430791118208306, -0.20362031622851862, -0.8232711381029734, 0.7220964792999602, 0.8524223635076877, -0.4404292361842906, 0.36281406143369677, -0.29716600226226475, -0.42592969963291893, 0.051772017431707285, 0.15027017902632445, -0.9879326302251096, -0.8750770600102808, 0.09752936487788852, 0.6730449022079524, 0.012954229864193006, -0.696073478204825, -0.08191109717393938, -0.8987644455387164, -0.7876660799975586, 0.9872390944563529, 0.6209851875439287, 0.15803079009380672, 0.8659987340907269, 0.8971107138922951, 0.7134294356053545, -0.5180149224238106, -0.4545452548256479, -0.04277394345182839, -0.7307592638354257, -0.17558352730818222, 0.5518931934847289, -0.10830349596527328, 0.9507148710302894, -0.42490812652044174, 0.8389192110245569, -0.6285443682396661, 0.8410538354927874, 0.785615226781428, -0.134017019053183, -0.7842040113737909, -0.13385187588069533, -0.3491626965642809, -0.5703698218891103, -0.15599191675719076, 0.45552407146339335, 0.049358545399462266, -0.6023909564205672, 0.429706904937698, 0.3506003414286095, 0.6268376136539668, 0.9471993350697381, 0.4312287188045554, 0.5500719490738284, 0.8709279750671184, -0.6869267740898086, 0.9222407999106246, -0.6731752954652489, 0.9438194616499264, -0.051055435938771584, -0.04588297017142523, 0.2822134125077967, -0.36579142660015984, -0.8296849870813496, 0.3128147926142254, -0.4389416891318065, -0.282753422056869, -1.1541060906185432, -0.27935666283623073, -1.145478811233803, -1.0672725768127165, -0.46425314470904094, -0.976893049750023, 0.32243452619465307, 0.7798176787834616, 0.6871814755414862, 0.2726038755602172, 0.383899935725837, 0.5217033453831279, -0.4295371123673841, 0.38685337714433965, 0.5421139085305664, -0.4077184253975181, -0.6538485390610653, 0.6634996776349132, -0.2310388033041647, 0.8598390241139912, 0.5930790639990442, 0.11577592443412377, -0.632200058712494, 0.12693505901685373, -1.039081397365602, 0.6296741404680405, -0.4785053719532183, -0.15230118166356482, -0.4739595414155696, -0.04059418725125962, -0.5943911667283429, -0.39016636884561484, -0.8936787306698855, -0.038404415194695805, -1.144477842663767, 0.6084573728546357, -0.339061409053492, 0.017977035917806118, -0.6502961304462002, 0.12856110057362155, 0.4612807340001106, 0.5656444679239665, 0.7553358496235867, 0.7583137088619212, -0.25689954343988475, 0.31603891035005854, -0.3567000264604665, -0.3147990798206225, 0.00030693565939216266, -0.36786707453799833, 0.2653488367034038, -0.7373069289542801, 0.186405088961103, -0.9168649861139965, 0.07349797704282113, -0.6468101462445549, -0.4245084266983555, -0.5263895136625495, 0.7980847459850606, -0.18546448657613418, 0.06967646365561511, -0.07000898163867506, -0.8011066705363875, -0.008149976208719722, -0.9233687688328436, 0.9453274174179982, -0.13688778460400514, -0.02184326710392952, 0.558499373234638, 0.41143332483649303, -0.07179803924555794, -0.49322119102727746, -0.01613027230536913, -0.20559835377399727, 0.8251311941667988, -0.5259488600059434, -0.5463153966926925, -0.5454543932766673, 0.043564547557377764, 0.6539025079315648, 0.01456645570486002, 0.005988895382904504, 0.3714037769923824, 0.04749629969624544, -0.45328228379141394, 0.8070791336411121, 0.3675813880566563, -0.696336868090206, 0.063941887413814, 1.4190807311095324, 0.2936440147730675, 1.0828747488730555, 0.6444252422202341, 0.8256195075881056, 0.9884386770533812, 0.28770337091122444, 0.49849614480242305, 0.5216962282978015, 0.4080925001063258, -0.6787606407095302, 0.9087415340848836, 0.5293286880532869, 0.37064201190023577, 0.3813249965642888, 0.6188075744991254, 0.9388043024393802, -0.6896005817800276, 0.7214948955189606, -0.7135312373803654, -0.8119472890990739, -0.9272850029549867, 0.6136232857705315, -0.3067359630678209, -0.5831101219490987, -0.21798131645094895, -0.07597330613745341, 0.5699439226052287, 1.2018315010772553, 1.0575549804073503, 0.2043292968978763, 1.0791842976086974, 0.99974857896073, -0.44294834579619774, 0.4554804943507636, -0.41500350002719427, -0.6598859837220971, 0.3116744245710951, -0.4761504676853582, 0.655970844309808, -0.11565361109665992, -0.9523396534548645, -0.46146598894615665, -0.6255920260595795, -0.20849792957469457, 0.5679156033226204, -0.09944743703396891, -1.3130928773410884, 0.8434123262944005, 1.2708304650839612, 0.013846139650605825, -0.8585550290494119, -0.23802855722044372, 0.8018701577982744, 0.6196320994899952, 1.4790128612999662, 1.087194942918995, 1.8731348575802274, -0.08769840165579856, 0.5762734836917515, 0.13084093550052273, 0.953451554210927, -0.3909930184987345, 0.15844412769339167, 0.18578654529583327, -0.23417153335081006, -0.8022347009656126, 0.9237639805970714, -0.8144579670439996, 0.3711907028645698, -0.15399896411370423, 0.8311388193340095, 1.0425161067782303, 0.40127403724083616, 0.19215102347096094, 0.814949027923196, 0.5646826575747165, -0.4270521433999306, -0.1695806866853359, 0.8054708041850254, 0.16285587588777348, 1.1800835777532104, 1.6599330254792246, 0.6366646897663839, 0.810278511144551, 0.5359190241817252, 0.03302842898082723, -0.26914687189962794, 1.0230322424270584, 0.4248512452802734, -0.05126360464850607, 0.2253047125053478, -0.5911083227583572, -0.9864800998367795, -0.029126054763862666, -0.24535206716981306, -0.06406564425984011, 0.2962993357316604, -0.6058084623886493, -0.6690288105403244, -0.45071224904238083, -0.7811181528356789, 0.7140406176571444, -0.7458067427882239, 0.25175253031162936, -0.6306600225595178, -0.6568698944766135, -0.6334571704247544, 0.42524912728741043, 1.432854702091326, -0.0002152344992205674, 1.472746031576001, 0.8562503177124589, 1.0534319897760516, 1.46312642648383, 1.3527675257320604, -0.628865002110246, -0.09867642150031933, -0.4468609629229318, 0.3316916498874935, 0.5879590939259005, -0.5538132084171417, 0.7571667317214463, -0.24619606751266007, 0.02698797187688671, 0.03971444835889301, 0.143157802607838, -0.514128108685387, 1.0133854901038584, 0.47457834446298386, -0.6942262896571602, 0.3462130490361151, -0.564482355728926, -0.8742188077450829, -0.17187348204131034, 0.9866130541634027, -0.2975001938337035, -0.2381848262486602, 1.2055107005813936, 0.7504631280297435, -0.07695362193475683, 0.6426877300123739, -0.5674308703942251, -0.6319404271143949, 0.2525350476002625, -0.8612888635156277, -0.8609598743596528, -0.8586239622184055, -0.625839763838013, -0.24591110884955336, -0.34782195138549626, 0.21580664371447744, 0.6582549577413824, 0.6766979376343609, -0.03362270509529629, -0.8564348423796044, 0.2145559019053655, -0.37944390722707116, 0.5015385465109531, 0.4347470250078399, 0.027587640266688952, -0.5816866667666126, -1.3643092836113064, -1.2036250807517785, 0.5532936343939616, -0.3484189647766962, -0.18988184865846786, -0.20707980438652157, 0.3869382301772747, 0.6085232223463178, 0.2764079812382148, -0.9683129605439729, 0.3738512257755407, 0.6944092704546077, -0.9342916314264536, -0.8357486186766964, -0.0789199725459513, 0.8793865680806436, -0.5003346652289619, -0.9434004934114512, -0.5331540563921638, 0.949347416497419, -1.1824413671912744, 0.5761588771341167, 0.1496730919947284, 0.21897607698845745, -0.49741458412934136, 0.40388357734291, 0.002553838315078404, -0.8203885323402169, 0.6380403836345965, -1.3270956783905747, 0.2976838294664333, 0.5563011871772188, 1.2150042095644888, 0.4674012323387977, -0.5230406111177032, -0.3455795975318178, -0.5605704595227524, -1.2397238175481327, -1.0109887779715185, -1.0101025585858918, -0.5336562761704681, 0.4829713589422463, 0.9689717631691226, 0.24215266102829913, 0.25166580571529623, -0.4631742794052763, -0.461457645725867, 0.5875836447395959, 0.5446875700795936, 0.5903938951381117, 0.45445455645842064, -0.42044071602138383, -0.20333332587012218, 0.22914456131370933, -0.24806235626968579, -0.5108824546316116, -0.47498187058217856, 0.4542350495356467, 0.5076654991726852, -0.12851652814469242, 0.3579611527114943, 1.3483755996793523, 1.291953625413806, -0.6934792004313745, 0.3849193006331472, -1.088172638360171, -0.8227844975650764, -0.7362919411042655, 0.20263602958183435, 0.9688586189716779, -0.6008136381706399, 0.921308104596726, -0.9110667680437367, 0.9941943491727286, -0.9664476103367002, -0.25912770870680213, 0.7011335477615422, -0.6512441402853268, 0.5121742289212661, -0.19669372013468114, 0.694527202165903, -0.7467542472894324, 0.3022150366189828, 0.9093959168189631, 0.1480541688183122, -0.7310430686586176, -0.5639326354644015, -0.5459756831303306, 0.005642522688897938, 0.10084426104166824, 0.7028157062107409, -0.05863978879645952, 0.16601212066147195, 0.3372116417810331, -0.7417258539805965, 0.18877854818607273, 0.8222955793603988, -0.003952825051047553, -0.025398997176201955, -0.1949730233389777, 0.8377058237180854, 0.5175295127337718, -0.7346423010512051, -0.3888413203760864, 0.5166289415761369, 0.6595953319742028, -0.047576837266474485, 0.4721244663675874, -1.0703694144336977, 0.09228513356824497, 0.0428858860544648, 0.8451642620013127, -0.5973320450785613, -0.44698067071881215, -0.05829962599972213, 1.0865891490390687, 0.5759263194823937, 0.22543796664191998, 0.4869199146515053, -0.3965633617631307, 0.2815400179600854, -0.773812571434988, 0.528429919563606, -0.19533303128897064, -0.47303174905293777, 0.30342153257914856, -0.615202058802268, -0.7029936123252796, 0.8982000033147439, 0.2414154058189244, -0.7031536021059603, 1.0553048240466294, 0.9796054182103922, -0.31020758804478626, 0.47537085367689824, -0.6000007639006086, -0.4097004497549639, -0.5040240936756704, -0.5299503545468991, 0.7496467693354393, -0.11167104115668468, -0.8063790321899927, 1.0716477824037987, 1.106935008206048, -0.34877965668012245, -0.6333613075920079, -0.2516100413243362, -0.6336572409743472, -0.8705066468304263, -0.1081477426486158, 0.8090816369400503, -0.4509749957860062, -0.8420867595584274, 0.9576636178206512, 0.6895812972582348, -0.1607302736652818, 0.051327180781495896, -0.8222979307996479, 0.15954224766535996, 0.16253668216933118, 1.1304276405567861, 0.15487259765104588, 0.39054764973208844, -0.6148967786831622, 0.04117961632643749, -1.001235678784378, 0.29080174664799613, 0.0656289993256863, 0.255153570085394, -0.6253111945021527, 0.19246513265865411, 0.21558116976878514, 0.8480200057840591, 0.49971987472647994, 0.25380338393105184, 0.06645685194395712, -0.2554536630520488, -1.0810256016987654, -0.6013133688676727, -0.797017269891348, -0.8633640430405827, 0.11256852530236128, -0.05112863740232443, -0.20547359487556482, 0.16073417348876862, -0.2707728573533977, 1.0155323946998498, 0.06021626887161906, -0.740676561463985, 1.2013897952099994, 0.7670978489807062, 0.7339781584677246, 0.1571981724474499, 0.07399779014440785, -1.1351910169234378, -0.42043791882850484, -0.018626186956658686, -0.577765958420674, -0.1752887330290639, 0.4741582447543478, -0.06519494458294875, 0.041227313972727365, 0.0677614924181465, 0.4665045901039388, 0.1667061809579783, 0.5319350528166473, -0.19253025222764156, 0.8463124941117993, 0.8990297700086701, -0.8523980739582813, -0.8879078516571863, 0.31688277539384857, -0.988291669552007, -0.04761543302793892, -0.37931436224517545, 0.9339818137478245, -0.17894887463984419, 0.5010667194630241, -0.06447984406587005, 0.054594703846641814, -0.3638815624091979, 0.939026146885838, 0.019760061406986728, -1.479341694001871, -0.6040571539403232, -0.590990210536317, 0.18046865519105804, -1.6964614137864245, -0.6006932985171799, -0.5750803651414691, -0.7142716488565894, -0.7010888029636212, 0.025708493138188362, 0.5214952744007372, 0.9274509148252746, 0.8877421554142507, -0.9168404721538531, 0.8422747459227562, 0.706700836323922, 0.48519259722819896, -0.004491667882710937, 0.2711371424295287, -0.9325736579058795, -0.016834839550668983, 0.8232212668597348, -0.013730710160496583, 0.5346962514811396, 0.8452668482264925, 0.9457812495767799, 0.7073074768965031, -0.3925921136486234, 0.06542093446272056, 0.06689955112216679, -0.7364733761098259, -0.4307704838492366, 0.41971594870298023, -0.13136886447453844, -0.6062509325840905, 0.539647572779948, -0.8047995682222538, -0.4410724988574399, -0.630724791020226, 1.0270828390323914, -0.46874909684994054, 0.6968197413371525, 0.9626583932790671, 0.8588962553571988, -0.9055398043505909, 0.385869466349652, 0.1553175299452332, -0.04866336903869173, 0.7663024147520877, 0.19865845387847092, -0.6730577691805246, -0.050200076828605146, -0.46690030012191186, 0.16256701328784387, 1.194864173566008, 0.9789929684695807, 0.627302334546588, -0.8475389117375481, 0.037730218937498054, -0.5158492816168575, -0.44925789695580864, 0.6468020483517388, 1.016502406857006, 0.21101649816357312, 0.14728411938873948, 0.28939490855434546, 0.9960179355271819, 0.8803071531273959, 0.9105033505580055, 0.8738767158080415, -0.06254165918629358, 0.17823725506594412, -0.2531944465106948, 0.24288057776535088, 0.7910063615545729, -0.2763184523871334, -0.6924816791273526, 0.3980823049410807, -0.2567019622086478, 0.8353332603122077, 0.979860903606297, -0.06428159237027903, 0.5191381509962907, 1.0553953245242627, 1.7147689336382044, 0.7519611801737618, 0.35470744178051067, 0.019529545580624117, 0.7522342194901154, 0.6726344649344297, 0.32820078759802346, -0.43217724730574236, -0.176265589357864, -0.07302946588150383, -0.32538620063590157, -0.6823070320217218, -0.3301472735481453, -0.14104558992089516, -0.9773542727721545, 0.7710301727000552, 0.19226476484227417, -0.456947815968046, -0.47761239950407997, -0.926889623138439, -0.7034542177217514, 0.25651314355393606, 0.2945946649807083, -0.879436527097267, -0.02145616950332366, 0.11449999022110721, 0.003896166940252406, -0.528159360771811, 0.748298328804719, -0.5210668579449118, 0.9010450668610652, 0.2677283002286065, -0.288623435351182, -0.06057651335850963, 0.2717696617669636, -0.7351734806032149, 0.21605269960612078, -0.6244959108140636, 0.7599518825767925, -0.8511784998976013, -0.0023233309537060917, 0.7865674762393446, 0.914007016648291, 0.8122837485245458, -0.5951847628289204, 0.7950199739643831, 0.6123051823033268, -0.1172181579342907, 0.16758986460076764, 0.15564649620285192, -0.5859928761054721, -0.07837057475806973, -0.5161014338625005, -0.5346689273610167, -0.6273789768625149, 0.5036656436880558, 0.10791957357025332, -0.1577343350096142, 0.3917708580028624, 0.48334508787039215, 0.7759562219797654, 0.5545182216841447, 0.7875736479738372, -0.42120981692962955, 0.1689886374629182, -0.2491226255638364, 0.9853137794748941, 0.4295202864596667, 0.15352347119060267, -0.5295441106345224, 0.8064342074893991, -0.6902980649034431, -0.6184449225623787, 0.28588278994695093, -0.22012805138361147, -0.8167719912324036, -0.36655700569835536, 0.826769941028413, 0.25949116355292084, 0.281097634770246, 0.06265438781400486, -0.03189713425400903, -0.5529909176547042, 0.21074645516252866, 0.0566031551261463, 0.33418456030609506, -0.5044292695028231, -0.9464793367882727, -0.6130350407050758, -0.6166905705779303, -0.7295221200622855, -0.5969895307682118, 0.4867184533422138, 0.7608062654303911, 0.8350437043314867, -0.4325205446995842, -0.12986578833968032, -0.3013333721699374, 0.9156066052058105, -0.1408185647805662, 0.14651747482448574, 0.6496653761443938, 0.18645922136865134, -0.7961481863926481, -0.2946662329477596, 0.12686629159180923, 0.7511073650002281, -0.45184830692995426, 0.03288024060752133, -0.6439452779510859, 0.4729741871752157, 0.7254804503167378, 0.939483528777181, -0.5084214493001241, -0.9186193312054255, -0.30485461565847666, -0.27249578898182664, -0.6110342148438042, 0.8571551995519396, -0.9312873802780077, -0.2583838735120208, -0.20943026227094044, -0.6859850782583959, 0.17439343485334713, -0.7759741141891738, -0.5976690401482765, 0.7322301772621143, -0.6059242234528557]/1.4579070785561545
0,1:[0.4508238975818464, -0.6339647084644948, 0.5590545108918792, 0.084939721502435, 0.3475163318314154, 0.33540586416618456, 0.6081316605500873, -0.1515070840136974, 0.19609855784746855, 0.5183999086775648, 0.988931547499426, 0.14997479794448654, -0.2582962496086767, 0.7848722018805616, -0.740927531265442, -0.5530713139546684, 0.19497071194387505, 0.7874558183898714, 0.26124181202282126, 0.2714544006303783, 0.7228190575513367, -0.25562245398067596, -0.6214648753115508, 0.3204932538718477, -0.7500057259945634, 0.7364866381102146, -0.7483153165335439, -0.2871702425414957, 0.948177717138224, 0.5800599562328195, -0.7018564078202298, -0.7287371593951564, -0.6452264800459178, 0.568061337127532, 0.2237377108169012, -0.4872675347493483, -0.21314202232976046, 0.602441452417975, -0.4466947291900656, -0.6215672674020725, -0.49600899659902703, -0.4257881403224847, -0.36344359762362005, 0.5831466076982639, -0.8860979807570628, -0.3489603302502549, 0.3506153773679161, 0.014046541529099564, 0.2409622369574127, 0.8577212379514789, -0.095471878087178, -0.23229907341054057, 0.09055751219315544, 0.029812406024679605, 0.07076008427905145, -0.8948706534004023, -0.6218498076520846, -0.4196474144615203, 0.5939435509413284, -0.4184615957239559, -0.3824301237019376, 0.2604363546276065, 0.23407994465510903, 0.5993449067398249, 0.4045595726622005, -0.8604271086888472, 0.2053507784429316, 0.6509341578793747, 0.6917902869483078, 0.7352815735956113, -0.6719287487108888, -0.3156666761945833, 0.8430735397246742, 0.7232130051347807, -0.36260904852261694, -0.6432241691615633, -0.16362142652871442, 0.4490784274232353, 0.37835025200513434, -0.20530247337850502, 0.2099084611871011, 0.581701655826524, -0.439797434151747, 0.3008437366251011, -0.23892392780450633, -0.9549673353218882, 0.7346104423650326, -0.6314418404810278, -0.1997769793865537, -0.21431474553905183, 0.26086140061079965, -0.9734460583692797, 0.7166303779694588, 0.36665684706238855, 0.30863655181426886, 0.29440930745105875, -0.3139346772839615, 0.1839689848847198, -0.06111266380002991, -1.0144795972795129, -1.03062614904544, -0.4793087060801494, -0.2842359993321782, 0.19769714516742468, 0.3754022632854529, -0.15998501279144367, -1.0598020013267413, -0.3495412081123003, 0.006088524404327479, -0.5432969665916207, -0.27834590186490815, -0.8811420872884379, 0.42051532841394734, -0.6117119136272613, -0.8355416200029868, 0.26808937812115374, 0.04791669040599633, -0.3935884027367543, -0.8856165731149664, -0.05950365490829271, 0.09179559911413468, 0.3469943791747084, 0.5606467215791308, -0.4632197395966335, -0.24338392305395035, -0.851810022559361, 0.42483486835251666, -0.19259780265970647, -0.7213736769545525, -0.10287829543341748, -1.3462991802883626, -1.35894822432424, 0.04063627596910215, -0.06527468290922286, 0.33838756508217305, 0.49895735373105016, 0.8346995415245863, -0.08941295063725277, 0.11893220677479843, 0.345322566830629, -0.9324065938254265, 0.9448435377025974, 0.56520440300925, 0.08868793866906655, -0.9581774857709231, -0.5814071567699893, 0.45284130037842035, -0.7314243202517573, -0.9534952191276981, -0.0915032995962657, 0.2382391105040921, 0.3753464928834757, 0.7501501087315467, -0.8324431385301561, -0.15682614219379679, -0.6346870314529854, 0.20450992106734905, -1.1141614447411468, 0.3418156882503047, 0.4975122686081713, 0.13684715914764486, -0.8748745572939721, 0.21383004783362203, 0.699752898864071, -0.22374763947520748, 0.9738633855360108, -0.9184945120537242, -0.20082174360320224, -0.9891046439782976, 0.738420832868371, 0.05184621450789922, -0.4196631964920224, -0.989216158798503, 0.1927996430210168, -0.22012873013781842, -0.8991388931101905, 0.6162373155422671, -0.37580199757905386, -0.04503838940083311, 0.7149452921019464, 0.5693265992179218, -0.4163094752896802, 0.16418995063161443, 0.40574215546356723, 0.510153989239318, 0.49165073432884177, -0.07958058835089081, 1.172438989356091, 0.5375608253296179, 0.8253792364512182, -0.5782674344447011, 0.1718660595314845, -0.7284469514724424, 0.28453396033637374, 0.857462241452526, 0.47471591289302034, 0.09033386556610994, 0.9274922518744333, -0.8354115086162915, -0.14438958926701484, -0.10266649720927155, -0.09367404138575863, 0.5108612958481388, 0.5584242084187355, 0.22695867004643047, 0.33166288534703847, 0.6429494845318597, 0.7462511856362801, 0.44219302721311166, -0.08221215628611148, 0.6104298055484604, -0.052086672862031176, -0.13251878952681195, -0.6651318865272808, -0.09706443162071611, 0.5898209806910587, 1.0167811614314195, 0.6268018531766245, 0.10229819544291295, 1.1607098834835663, -0.20984179933727304, 1.138285275794443, 0.26825822378756087, 0.3178107114367227, -0.6858383348552091, 0.3433778632729774, 0.020920823836026125, -0.9010742278494405, 0.39949502991955127, 0.2435012697116751, -0.7858342448178156, -0.560891949549075, 0.5654320395490553, 0.28950887028812416, 0.20472580599580145, 1.3143887566705479, 0.5277255408772129, 0.5802351439447893, -0.12853927047070687, 0.9115043729845077, 0.8144747316899965, 0.8447155969945248, 0.41526407747951516, 0.060424267268593845, 0.3883266599761624, 0.3352112646428534, 0.6189087317502568, 0.5196338069419397, -0.2765710664874793, -0.8411919105487443, 0.3902096991750254, -0.1697720478154812, 0.18936220101246895, -0.5072872840262003, -0.9674041615092974, 0.038797234434659704, 0.027655757789864274, -0.31259322787827815, -0.22558648838159368, 0.29958160819341384, -0.4029123334056258, 0.4451514921100336, 0.6694642932255371, 0.691710835772645, 1.0581641801451591, -0.2786604421680122, 0.4069280838473426, 0.4068061223866044, 1.1084851305222967, 0.9856598012024462, 0.22634668568459151, 1.3385161275199258, 1.0780725091021715, 1.0982185629528014, 1.1502301625570635, 0.4939370430969027, -0.2809227748787331, 0.819753447244448, 0.8228536370266969, 0.1388021911329918, 0.2867529055395799, -0.11200532928394766, 0.012248461213704752, 0.49881489855515315, 0.9291043692507523, -0.8489963927881974, 1.252215562470562, 0.15673018608885572, -0.0676508997760445, 1.0401606857984267, 0.7313702502010391, -0.1052131300241182, 1.3034397012484695, -0.08594208864586367, 0.9695740247620424, 0.3822244022785315, 1.0418426822078346, 0.7605843636213492, 1.0127825285511658, 0.2030289172797608, 0.4931920425093542, -0.20529596829705302, 0.13771380685122922, -0.39175163660535234, 0.9257881773252832, -0.7589480673526798, 0.015113619065817242, 0.7578242832503281, -0.485971336118586, -0.9653179760925392, -0.29301817157558613, -0.8444530215447191, -0.7928012499972245, -0.05599395287920636, 0.9159419748031993, -0.30894869274502945, -0.4712341128297314, 0.07902211091447255, 0.44534498077028184, 0.09112327322184935, 0.3608031238252762, 1.248972962585673, -0.001177127440803917, 1.1165646358952608, 0.021274998638062387, 0.43607181296369113, 0.6720592450163587, 0.5596237743049418, -0.10621205663740542, 1.486039379577419, 0.6677746686675162, -0.5495699845244626, -0.43612319719554016, -0.9139106953187986, -0.8076756747725425, -0.4452971017181701, -0.8364935352773486, -0.9616656968052104, 0.2798345924686852, 0.8290048580832761, 0.7544342547099736, 1.018829341308694, -0.5709830696955703, 0.47734603885904503, 0.01873780181407661, 0.8365049550481445, 0.7830574370795409, 0.012587711142779687, -0.3632048054939169, -0.3598450899695666, 1.101253405939526, 1.1361573574252724, 0.9626426520879973, -0.676854024603171, -0.7713556945279768, 0.8232975002601947, 0.20772798031406026, 0.4028627083695805, -0.22781762702777258, 0.5463318030886413, -0.3544404206322512, 0.9289006581596339, 0.9849687092094918, -0.5279005718555551, 0.6916521288677531, 0.8454954712667094, 0.1950142515952375, -0.35740332233819394, -0.2582941703688478, 0.22110356306812629, -0.6137902627515579, 0.8189958741680082, -0.9614723248435733, 0.3947678799068456, -0.5277679238900768, -0.019515320408516557, 1.0646752338199816, 1.005811427913396, 0.5336837306195958, 0.09546154969682055, 0.31416727901781083, -0.5761220094791356, -0.7380890387181073, -0.5671539276474432, 0.9613711496970668, -0.6198496687826857, -0.48933657829079064, -0.006047893437835567, -0.94939199200499, 0.8405270763552178, -0.8672308580530469, 0.6596408093124502, 0.8411186401527591, -0.3888705845542345, -0.84262439215953, -0.029491818169242554, 0.7573775679349993, 1.0780039443264358, 0.14834351722523212, -0.17713932174954586, 0.21658077310292417, 0.7497744393292732, -0.3929302840243856, 0.13478441925371065, -0.5634774987347172, 0.9492593219628602, -0.10581551410344858, 0.6596691215853888, 0.25185476641695903, -0.5593164649783473, -0.3541474120604413, -0.016327895165877956, -1.0103454677699013, 0.4595595517495824, -0.09642500586879886, -0.6709647016365523, -0.48299509545210445, 0.7416906378721273, 0.4582955720713537, -0.8087262548332583, -0.39014796696326615, 0.25787130525135443, -0.3364783900496016, 0.989115618302045, 0.9128718210649328, 0.9895999777159177, 0.9013829311904153, -0.37749563535424935, -0.5253601028701803, 0.24552712128313206, -1.2784297298747664, -0.23520794421981264, -0.4278155954689966, -0.6453991420776136, 0.3221428117263304, 0.23720348180298226, -0.9910607630917879, -0.1586877499938854, 0.10309232716610597, 0.5737303916822737, 0.1946213978386901, -0.0870218258515137, -0.7123049446154261, -0.5106123013395465, -0.04906028586523147, -0.04578047512571939, -0.6297411051630528, 0.09680867118323032, -0.5454686113976646, 0.7598560168659085, 0.3908417841013617, -0.28040126424337003, 0.7289425063706003, 0.3189383506310835, 0.10665731522129461, -0.49375495320855894, -0.0904817934275014, -0.2362239583488057, -0.062361970277013325, -1.1454804750864112, -0.269366289378793, -0.5026058896560572, 0.5344137279473947, 0.35862368685253077, -0.006949547043862974, 0.07436541167265145, -0.8102563398291618, 0.12816837214404783, -0.9497072408763574, 0.10389964570256416, -1.0979043339610053, 0.3412432151422312, 0.41194498841865834, -0.28775877355711527, 0.01115872457435077, -0.08004747474689984, -0.8342534705576756, 0.9958276045544256, 0.206009647538156, 0.2484986009916448, -0.09160837162278287, -0.789771730033305, 0.8614014053783665, 0.041607456186898484, -0.7784434725167068, -1.1174052842137585, 0.26342282446023496, -0.38410055262015114, -0.9111061330085245, 0.17119633605455808, -0.0703871819270111, 0.4099034744676612, 0.05347557946231178, 0.1552559403721938, 0.7559638635096038, -0.21536273549119722, 0.33090770376435075, -1.044039916164671, -0.9743024893182984, 0.28470075058532746, -0.016416696532073498, -0.017550760780918544, 0.4907658182129694, 0.12999176117111808, -0.1364060973503043, 0.9290218266277281, 0.9905808461294402, -0.6219549667725411, -0.46159025758946065, 0.046361691477547866, -0.18601825793202675, 0.34252155670994483, -0.38137030035091246, -0.7538484328502967, -0.45013820823706985, -0.5960569411510087, -1.0039509973177432, -1.3786841139075692, -0.9907965274695928, -0.0278602251174597, 0.13989837879221909, -0.19076745253200247, -0.8155006473025875, -0.4688221688280709, 0.329799360926243, 0.8336887460870835, -0.377343183099256, 0.09373069305539751, -0.37878684244699423, 0.08834660904490053, 0.6433674941922372, 0.32246594507048215, 0.26681419483919155, -0.4822305226168928, 0.011861272574654311, -0.5404944813784729, -0.7135460177278821, -0.2952570526001252, 0.6129160989635979, 1.1905410139330543, 0.10041442903364509, -0.90370766891372, 0.3832357547524399, -0.6949051101940824, -1.163202807411716, -1.5873292043793727, -0.5196551264501703, -0.5597156217987272, -1.1682329488348515, -0.816914228239224, 0.42106247705368827, -0.020167844795140586, 0.6273277500175418, -0.9224701551642231, -0.956735084262253, -0.7371875381212802, -0.22049689426423996, 0.7221346223102892, 0.3883017084895154, 0.7054416282773912, 0.8488699227724599, -0.15425801453048327, 0.31094266383661573, 0.8390262272276868, -0.9649947478041269, 0.7450526338029052, 0.10917889667764229, 0.48707663585296274, -0.06476796656471691, 0.4348282749762133, -0.8184520181333631, -1.696128430898832, -0.7121568169850854, -1.312338777578907, -1.052938796646996, -0.1154079046636868, -0.8810007348273327, -0.04657828706354443, -0.5790396260040704, -0.45765301287666593, 0.3785372617830284, -1.2322801211514869, 0.18089413286830702, -0.13622251661477866, -0.4061177524376122, 0.08680415317409107, 0.6891088160250276, 0.7231871268059966, 0.14982631231804633, 0.7873390064410222, 0.348332190648505, 0.0842400412999118, -0.9353044801761162, -0.014668072502430546, 0.2995353779088298, -0.09328582837050466, 0.7328514426707469, 1.0576144653534214, -0.3550570277542033, -1.01320447953608, -0.8446990948991872, 0.2929928903942339, 0.5851475470667518, 0.11480788071393318, 0.5509087756764517, 0.8103979949085882, 0.4202586221872323, 0.6644578282138701, 0.5324982234738459, -0.6942534968585603, -0.40275357032464226, 0.5938647163763249, -0.4743627529157474, -0.042435100592874114, 0.0015833709396626458, -0.9061988460902692, -0.0053545619645953835, 0.07213251461249448, -0.8978271928083397, -0.31540880258908893, 0.7690190974530546, -0.7518512535136449, -0.4984129738368005, 0.6822382290399366, 1.2564733324319546, 0.16733337642259322, 0.35254381489139996, -0.3160003952782613, 1.1855585993150342, 0.16213484003493717, 0.7153934846700162, 0.5064665758189915, 0.5233173822739335, -0.8340331908786143, -0.3461580505407459, -0.8875641485073951, 0.40283260504384155, -0.6729945977528047, 0.9435310292046856, -0.4771499360086842, -0.573462276530021, -0.40245880544090246, 0.30435838165485457, -0.24762619311939482, -0.7963946395723522, 0.967244089550167, -0.9457079833681791, 0.9435213496964835, -0.021350560242057056, 0.9413535668966888, 0.6475669159219088, -0.4038302369752995, 0.89039034395417, -0.3295371683451779, 1.2852130041621586, 1.0062596780309823, 0.2527098998199647, 1.23658058518648, 1.4305359198966092, -0.40088251451051105, 0.24480333594829315, 0.11474357892570185, 0.8166290547039136, 0.6825852109034252, -0.5078613034792272, 0.5032415053181398, -0.5744431299797153, -0.051737119928480665, 0.6707836364858131, 0.5901376244905581, -0.14251554305041603, -0.9553479388720651, 0.6901564501110575, 0.8702321067164969, 0.370918788817884, 0.5999657492313737, -0.8678001351998164, -0.8323883874642786, -0.8166148276253302, -0.4544169066544017, 0.31413794215489715, 0.9685198807541319, 0.5043559966649726, 0.767998322976166, -0.43955196011992254, 1.158465082620872, 0.32883903227622485, 0.1507742759760149, -0.3911065012969546, -0.3159232999510569, 1.0571876544025731, -0.6518857594471219, -0.27323466484708425, 0.37566735643141974, 0.6133568647070343, -0.11270111903820904, -0.2130123385794879, 0.6586937032973446, 0.5391718301513084, 0.3486798955991426, -0.20645724214140637, -0.1836463783909883, -0.8236232581135388, 0.8518244572203516, 0.2210430506036105, -0.733335776598893, 0.6498164640436744, 0.9740047731377942, 0.4780482193393305, 0.930585028675229, 0.3982429923218671, 0.36038155326347254, -0.590815452468736, 0.17660315295815543, 0.6540188147792544, -0.7538820719306527, -0.378892173683947, -0.7804207744403615, -0.3507228829659124, -0.6460188594648937, -0.4779278219401048, 0.8950369127561505, 0.4366266883051186, 0.25309136228574675, -0.7123636981977137, -0.8208271824151852, -0.17279652886112995, -0.3398339161655928, -0.2124885281617399, -0.11467035128042169, -0.33569323879025714, 0.391399422165557, -0.31307882623217037, -0.7988482488297461, -0.4060854968974628, -0.4473528155081396, 0.7898129389472985, 0.7889472094153713, -0.3683783829213773, -0.021379417536928784, 0.7670983452624544, 0.7611287457988121, -0.8078983539448307, -0.6983238946996784, 0.8664107621008509, 0.8040022387837044, -0.5775359005600573, -0.36756396705735456, -1.011461397334972, -0.2631602487638615, -0.9044651044296305, -0.983740213637344, -0.756698256109074, 0.17267996343194714, -0.4009315892392671, 0.5458876682058955, 0.6019220805135823, 0.12869157172684043, 0.9866991098542996, -0.5386713820929641, -0.6935591665620029, 0.7164087111335037, 0.7893102951601239, -0.10431145900423341, 0.19182584798000382, 0.7979349907074399, 0.33916070118889746, 0.515144928065118, 0.24629240588161172, 0.24980653826952515, 0.4250011720362362, 0.030030609128601875, -0.4047121907202068, 0.4257674229079257, -0.25412814485913116, -0.1987151727321025, 0.43239635044209873, -0.980537504672944, -0.7740115378668022, 0.4525322669655816, 0.9613947596155135, 0.7132905450118556, -0.8694912840702571, -0.2930953389797988]/0.9523560567507038
0,2:[-0.9711366917298614, 0.8389500461898964, 0.5542239784022005, -0.8427738946566963, -0.10709217445249486, 0.2995368501293598, -0.5941479152054647, 0.18517486925636595, -0.8109791686096399, 0.5765690405464678, -0.02445246360265685, -0.1651139744813772, 0.8192026697001726, 0.9552081701461335, 0.07434611961221238, 0.26098892655628947, 0.07367618606697923, -0.2956696352733661, -0.6587220313525399, -0.05129425497538276, -0.3507501070926755, 0.09384276711241579, 0.670215074918129, -0.11742896091434574, 0.20399891282223015, 0.6674900874989127, -0.7398378932800387, -0.15594269783255177, -0.44979075578782424, -0.11576998578837672, 0.25359056656267986, -0.2580167995438274, 0.2551575569599731, 0.7104648773276652, 0.7714167454139385, 0.33565178232685194, 0.3712143800478655, -0.39675129891554534, 0.6496402213821348, 0.5799074883767659, 0.6142331191408225, 0.056065673264530984, 0.03710907817160387, 0.7497877204715809, -0.5875836203983967, -0.9365801374285666, -0.2999898528093963, 0.811187261946825, -0.8288000017955985, 0.7122281358806317, 0.6974587958073566, 0.138134980398414, -0.5446772857379183, -0.7714016010386349, 0.7252470323858575, -0.46949707001020546, 0.07175063650271607, -0.42180627044568597, 0.674126171168425, 0.497586176452135, 0.2831800557992647, -0.993999414428011, 0.1220271844196061, -0.03341374279079349, -0.34232613479264795, 0.8164198883680357, 0.49535393589612436, -0.6158275380446404, 0.20715629377658903, 0.21234306647185217, 0.9487139686050418, 0.29270315219449156, 0.4082394204858476, -0.09694334164216094, 0.5421924900252503, 0.10188192110204325, 0.5148000601051069, -0.4470159562912321, -0.9206072001849251, -0.4475210292262536, -0.5470157684656831, 0.9193253459651218, 0.04795959052469767, 0.2162214679331782, 0.1357452499074321, 0.4405734506000849, 0.42998048509931297, -0.15548149249227206, 0.06590215301500854, 0.30028018440750526, -0.39120577189844397, 0.3954206295031656, 0.6225414797587394, -0.2677336790580282, 0.5260210260978697, 0.18125853592612104, -0.9616333780099172, 0.5333777330071219, 0.09198221544881008, -0.241143883860485, 0.48061523505603565, -0.15894093499921336, 0.3174088072890504, -0.7548443260343296, 0.26876240758737246, 0.13484273328855506, 0.5889193623925639, -0.05563865790037866, 0.9326628995146328, 0.4351263951512778, 0.020120414269543252, -0.47597915463612894, -0.09304297619016855, -0.549477349908073, 0.8282723183045086, 0.7708068288325439, -0.45434057305490716, -0.7040873420243272, -0.21785828008722047, -0.35904194078126533, 0.5222007108441526, 1.0139812710251863, -0.5123161710254103, -1.0792846917231613, 0.2782893970996924, -1.2461662375342393, 0.037799447478043806, -0.123305512560027, -0.8686162507124499, 0.22573090506852334, 0.16418670349246614, -1.0051192189614309, -0.22982102427361517, 0.6496725111127795, -0.2741563394300478, 0.83246928985481, 0.4204910519879761, 0.7132785185508883, 0.8006433935810724, 0.7878271713456604, 0.6314717476607568, -0.4613257571939291, -0.16100922658767416, -0.4996203818522909, -0.009872484557813144, 0.5200970651127605, 0.9020100909067326, 0.6424997324492004, -0.27554634485032337, 0.882077800904938, -0.8207702422482916, 0.015709085751478568, -0.4864900105160879, -0.18095576343963327, -0.5067325529202662, -0.35627570731977526, -0.9819087105542947, -0.21786770242125922, -0.6960686520382455, -0.643310677279395, -0.40964856927655563, 1.0949272316156187, 0.01353745527427838, 0.7198793604410134, -0.2812391462315331, -0.03409136363822641, 0.6406804139544103, -0.24401265295558366, 0.3981377307879408, -0.4985281047383481, -0.01686615804441313, 0.8894783489012469, -0.3634510511868148, -0.11886731466403712, -0.08886856481665652, 0.040979655303018926, -0.1771146054933687, 0.921132534660459, 0.42175340945637674, -0.39346561192600615, -0.4978470871247127, -0.37240712089933303, -1.0614535428270224, -0.030100681482703815, 0.7705457175875925, -0.21405972739333404, 0.5705905670354708, 0.05292217110740313, 0.08710463838600982, -0.3509035861197072, -0.04657699257347828, 0.635227906677162, 0.08278947293449819, 0.9005038179391972, 0.9081304441908926, 0.3502645954178314, 0.3283031033700114, -0.8982972838483673, 0.4064223449849429, -0.6637110690697782, 0.2628127335920585, -0.6545898863351451, -0.5080900137399763, 1.5324642087365197, 0.3737663329321153, -0.36064636652482335, 0.15636055346119748, -0.65777752863675, 0.5918204887256124, -0.4862013903941199, 0.7957259442229334, 0.7612239745531599, 0.990154363726395, 0.7586526011385474, 0.6578419449988273, 0.6662220386566658, 1.1246977607255904, 0.9478341540541596, 0.6249981790829049, 0.43075308987172267, 0.8315046001427157, 1.0227868466695054, 0.8644247051840311, 0.89594836968506, 0.3334527289140654, 0.02771381442454038, -0.6702498836148908, 0.18148573983897684, 0.0480700350290634, 1.1402851888568921, 0.6406074538457708, 0.6751083060894699, -0.17579485302455028, -0.5477093416771553, 0.61040466342284, -0.7213353527602763, 1.2092626806512055, 0.38302056836277154, 1.0195878283769955, 0.42302254165090725, 1.066681397428216, 0.6540120089945547, -0.05147814035697439, 0.8741852816098237, -1.1288157049687304, 0.46279487926178275, 0.5238645932407334, -0.40919371940704397, 1.4904640855851623, 1.263567555825412, 0.3361799268462408, -0.6022866093815115, 0.29058327239884807, 0.5410858449349714, 0.9556044010620731, 0.22149738021808107, 0.33179897213812615, 0.1672837432828958, 0.10928056183060965, -0.48240496639045916, 0.9567791496309977, -0.3675880853267111, 0.595570436193032, 0.5205126454376062, 0.29290808781227884, 0.8243710126966377, 1.6901762172018624, 2.146784352182437, 1.0805166615755137, 0.08119883782678315, -0.308844810932633, -0.5195039594111088, -0.13544813683764653, 0.024576884098247723, 0.23249025848237057, -0.5741267223963697, 0.6577489416959847, 0.4288911651927977, 0.8707745491882514, -0.5314792094521092, -0.0005657539814993839, 0.5213927997580549, 0.6330628375004091, 0.0076473663592219665, 0.549909284093497, 0.11072057209022518, 0.05057798833121862, 1.1233620227712182, 1.7189982761610652, -0.1780576587880675, 0.3658529310115689, -0.25386020886894245, 5.666485577091319e-05, 0.7809493385195394, 0.1851856699995226, 0.4767466179056918, 0.846031979781477, 0.972896086627893, 1.147803672731447, 0.0812431160027577, -0.47052966682334274, -0.4105312312595667, 0.08218337270890616, 0.34782537169001615, -0.19045260851500856, 1.0719208096277246, -0.20810549588144028, 0.06810906921513649, 0.4709781636433823, 0.11320976274252252, 0.6319216098841324, 0.8196057454016812, -0.014719216327921737, 0.9761146432101205, 0.781401876361862, 0.13414737105633326, -0.26883684009892944, 1.413522547685083, -0.46209188689891884, 0.11587778107023816, 1.48395430442187, -0.0799272952274503, 0.7821931831248148, 0.34529468029202093, 0.7141068152051869, -0.5238376503652541, 0.39913998233694853, -1.3003962722804867, -0.2971347152767553, -0.8648603609525548, -0.5420620439693266, 0.35776837085186386, 1.1009563887689342, 0.5111442473727321, 0.7198130496318685, 0.5863916438954867, 0.39545144342417515, -0.8331510767846155, -0.6587388700103851, 0.7011953474835515, -0.4940680620266084, 0.4084222174142414, -0.43109245043427197, -0.692457115511026, 0.33293843632230885, 1.1997938883027897, 1.779069104887865, 1.445825251186668, 0.5201682992280983, 0.19196939018579698, -0.7718110405692002, -1.3450193252268714, -1.0340068440995287, -0.7444390470178966, -0.8741457819452404, -1.1855817695629163, 0.23178025026435853, 0.5962397813371128, 0.31701217554346967, -0.5198559326917317, -0.8610350145025467, 0.42949447472970653, -0.7610991450851616, 0.49784038112465684, -0.8751381819762629, -0.8888549438740286, 0.6848077863758545, 0.8963861811922151, -0.009553184781909856, 0.12530166599723708, 0.9816972068034255, 0.44128737652300176, 0.9671981942232688, 1.990573733453809, 1.0296761244107904, 0.7361681130575044, -0.8657708633818545, 0.21308487835103737, -0.6965510282802271, -0.8220550117579776, -0.1951772651051447, -0.3817628165666143, -1.0927066834955972, 0.1560844332879745, -0.22047002749599579, -0.2406577465259417, -0.464280282926711, -0.6957635573298754, -0.06553935287095211, -0.9128172516898061, -0.026699107716283987, 0.9708509340397637, 0.4857723228797728, -0.07957142394723805, 0.4585903145145603, -0.7554986055730992, -0.8459097870979897, -0.8340658979822793, -0.2279557748453868, -0.2846484170722606, 0.6773720873379995, 1.2149747407830533, 0.8841637337515477, 0.4434200764473635, -0.8948668794859923, -1.9175097992775678, -1.0339209716711046, -1.2362463667527284, -0.6635915845134954, 0.019590231098216646, -0.2958053963746554, 1.2358952305445714, -0.5150153988997765, -0.0116129335235097, -0.6237544883100615, -0.4785912859762924, -0.3776151619750683, -0.09551046980535703, -0.059749379731831705, -0.12021903823859681, -0.287327036965606, 0.6784124797386375, -0.6045496087263019, 0.018069997283274703, 0.6772589960945411, -0.7456255213561406, -0.28642246595297277, -1.0320955624071257, -0.36196863317827305, 1.0662829305902908, -0.011608348188250983, -1.6606273578582083, -0.38536769313170405, -0.7252913786412623, -1.314671639210017, -0.0812648567796628, -0.9539500614836479, -0.9126867260476591, -0.056381487990309294, 0.3510259494329239, 0.21388879391004095, -0.5557248949828112, 0.809076222348251, -0.49420463825982003, 0.807137418157133, -0.8365158969897436, -0.4405872582082465, 0.9257380073750993, 0.14971079368501106, -0.6580849291119071, -0.2877449913211763, 0.46500564540476275, -0.1560998846854187, -0.7050715820411733, -0.6185820545378634, 0.39344909341991424, 0.21968276351934218, -0.09725676631725251, -1.201941076923057, -2.6039585490093153, -2.0564181013153395, -1.41178110218413, -1.1725535455730716, -0.5818167073279128, -0.6309208031445181, -0.5873233697477843, -0.03419560126683121, 1.9080435794722876, 1.4797830021729594, 0.7421238084129111, 0.6852771882748232, 0.3834813934114956, 0.15522025121890506, -0.8190192822210721, 0.8304432128172957, -0.40261271563049494, -0.049836535586262665, 0.06706367277954484, -0.7086288148296932, 0.9656272946648307, 0.21145140941624133, -0.19848060046855304, 0.21739771855873533, -0.33751727206734217, -0.5950336690681587, -1.948901457255386, -1.1133986752885816, -1.3852622314176055, -2.141693240343122, -2.138932961887982, -1.6086704856535616, -0.05433533055204293, -0.3996264951203284, -0.3363804007429199, 0.5902081417637463, 0.2121911889460748, 0.4280782928759158, 0.8620736663425234, 0.2454057637518696, 0.615531041054926, 0.5575449911244335, 0.04211984137319623, 0.7227821375613215, -0.46001646656343637, 0.6933061842152504, -0.6641088428921706, -0.011323791840313492, -0.7937173252005619, -0.14033492157484884, -0.07837013712701571, -0.31796004227655866, -0.628453749483106, -1.2984683261397312, -2.2979432728187863, -1.7722078057977144, -0.4651300889949227, -1.455007806334871, -1.342664870491412, -1.0848623303912321, -0.7825597684705095, -0.1751123715476185, 0.5227218331104162, -0.9870372554109405, 0.7238715949419955, 1.6688479873831332, -0.4736536742620441, 0.5092281962380523, -0.8458650300366454, -0.3024434857293112, -0.43214440789572, 0.897060629745309, 0.14609314376402321, -0.7810849356524998, -0.8893477237147325, 0.2688212402251677, 0.3268107634598842, -0.4556815330543543, 0.587880514486603, 1.0690800323218075, 0.8266690272164429, 0.49543358636727, -0.1958498420206747, -0.7051493161156781, -1.1002683630832983, 0.31759945901813214, -0.6096064167400527, 0.5247259702411773, -0.10148344107143506, -0.3315103763134692, 0.43550307427085694, 0.08589082590643635, -0.1269855733541809, 1.2956775979119748, 0.10221287685886167, 0.2654497190071142, 0.6633227947213228, -0.1870126698727358, 0.7833624642548088, 0.6344081597785353, -0.360519926141535, 0.7210580142570726, -0.2662033100533818, -0.4310828551352169, 0.3771428577398888, 0.7219969714679845, 0.11312272863100621, 0.4615893605036847, 0.653932515596951, -0.38613039953778516, -0.6384295955190354, -0.12979262928558463, -0.05753690941470648, 0.879825944132817, 1.19429982040583, -0.11265768521306693, -0.20697220769323588, -0.4530533208515838, 0.4650326210864704, 0.7535207168751428, -0.43367976316506823, 1.288312071721662, -0.0679139238807864, -0.7945124443971723, 0.40814749325392385, -0.37191096113908634, 0.7472413071294612, -0.360477613084449, -0.3249018918797959, -0.28008322310432554, -0.5149031781948852, 0.44080546459855113, -0.4783633115313694, 0.4182781596663087, -0.8352349629475806, 0.6428512663250918, 0.7533951807061888, 0.36025562281080903, -0.02388856323728644, -0.3176121473423157, 0.8269495956514173, -0.4687812069786588, 0.7741596991218359, -0.655183837298844, -0.9239318168686418, -0.29292932569868413, -1.0283986313155062, -1.2069937499570442, -0.7254710345979746, -0.8367963724885554, 1.0119257824636914, 0.856072736519707, 0.09182411104702567, 0.11263682737517347, 0.41106252804569526, -0.24646170720409852, -0.09393191969418435, 0.8404554302959621, -0.3763711354829016, 0.20348618594719395, -0.1939104397528565, -0.5072355297397636, 0.447462013200886, -1.097251227223242, 0.7621194488353418, 0.1417694618049284, 1.1620750592412965, 0.8112301909011943, -0.31752137763133204, 0.2194627299588603, 0.01060521758418693, 0.41249035506433934, 1.1230511023819225, 0.02786191219863814, 0.8209744669723725, -0.5503201769159156, -0.7789487206619933, -0.7260762048693525, -0.05372901049032285, -0.8703278573300084, 0.8825692212700214, -0.8017372078575392, -0.6391506084174245, -0.5638204013225856, 0.20098202343017246, 0.030512601541221374, -0.10367511092469184, 0.904728702693291, -0.8271126566951984, -0.7226930215952456, 0.9292773237144749, 0.09435426815628967, -0.4518569672470264, -0.2825901346104827, 0.5214644516460918, 1.1616094524004406, 0.42945553379092627, 0.19226278468301145, 0.36852046297438407, 0.9764847126666423, 0.6959636378828049, 0.26610998785804474, 0.23193825952701372, -0.7449981783524441, -0.9234087005938348, 0.3713989749007259, 0.13446885273018774, 0.42521165099257685, 0.8215266935605933, -0.13958221409357985, 0.03858527923779502, -0.2622195789769455, -0.08917231230554701, 0.37587408104667164, 0.12596489384423037, -0.7771179725627291, -0.943699373972546, 0.09223414099854099, 0.8039762559392897, -0.48161509804820846, 1.113272989556428, 0.2759436395914801, -0.0005608170203073345, 0.416340682092462, 0.5489586938336289, 0.2399051596669039, 1.3387722128060544, 0.43148996008291285, 1.1268244134862693, 0.655062778651816, -0.7258133550442003, 0.02429211432881063, 0.7536959331905255, 0.3290065342635014, -0.43213807225381107, -0.9706311722513941, -0.7928887191077738, 0.3681218438480077, 0.5117117861502687, 0.5335845317411552, 0.5820406032120551, 0.5724417302259273, -0.757751663771913, 0.16353198259705337, 0.3437012046407287, 0.14607362907513113, 0.27289773177165944, 0.38601130862806754, 0.8890013368320484, 0.10696967313206511, 1.1642380963218752, -0.5847996816120866, 0.9323964927562273, -0.33530590873884664, 0.923347680551595, 0.6645265347727337, -0.11486691767966876, -0.6429593849562198, -0.4914180176085636, 0.1765741802740412, -0.14382026617254942, -0.3611856801459371, 0.44192487508216416, 0.8412810185178274, 0.5385351511879919, 0.8426613938433003, 0.7279364303595295, 0.3649664954432059, 0.218723567939074, -0.07582675545324724, 0.4982952151207327, 0.07669360282880078, -0.07726802234030215, 0.7740648689121356, 0.051536066878893026, 0.977107611139922, -0.7085887046105726, 0.8921110952199716, 0.3752744367683957, -0.6644721711619691, 0.5002142057835521, -0.017567350548585145, -0.5826190812046868, 0.05677054863944978, 0.4812345322736707, 0.801832992150307, 0.01757815898037274, 0.0020784918478507744, -0.44152090183528364, 0.6065816406437818, 0.8863462299013788, -0.6843310190366224, -0.4586036016121904, 0.37947977850349024, -0.47399364520127985, 0.026244184942165072, -0.9897514086348769, 0.8694338002602178, 0.18958444706478628, -0.6211915677400512, -0.9940382765189029, 0.7724034315096189, -0.4447850825944403, 0.6533259300469009, 0.1531975537045533, 0.12878379767124884, -0.8365175126539419, 0.4252081498611804, -0.30586693814817073, -0.07898438373135468, 0.07821434413737545, 0.09495368390983001, 0.856481502697777, -0.007926043519224987, -0.5645276184072956, 0.10161753487612478, 0.5476727815064028, 0.6463478403931303, -0.25137045152479803, 0.8808380090547729, 0.1807944983929506, -0.13815874555263918, -0.11607859243636187, 0.9231145375361616, 0.9974517917529178]/1.431640221902423
0,3:[0.09947412921443544, 0.31528759072098733, 0.32083824573915387, -0.4247774692310191, 0.20209410315947074, 0.4125890784283275, -0.07562188926228774, -0.5780690782319557, 0.86400804580871, 0.5405049553787915, 0.09218602963909306, -0.22657641935063944, -0.21151168480754956, 0.45672017151892064, 0.43701000212962393, 0.9896890530062117, 0.9881126895089478, 0.5458144727722558, -0.22358665276906242, 0.8344444862089668, -0.5247986628192454, 0.7245059993174094, 0.7840240037869826, -0.9911496799512072, 0.24470117595123253, 0.9294956708290472, -0.22148440726790253, 0.21139004783295445, -0.3232059165583909, -0.5662500386917464, -0.587823176098109, -0.12544658957288202, -0.30040288300442963, -0.9387001629075966, 0.6627501530597484, -0.383430858631442, 0.41604040976671397, 0.8564117570283549, 0.5398232569786238, -0.8651760623016154, 0.1320237120382588, 0.3780023341295107, -0.550166126133959, 0.9880915708937629, -0.7092549886025984, -0.223283403732076, -0.5707277480079528, 0.01245400676789199, 0.9075102357838097, 0.8168197173030483, -0.38458819119889653, 0.5253123261159263, -0.5255235511989214, 0.16563189169814274, 0.9481789108467094, 0.7649497118908359, 0.3260919156899027, -0.630763612652673, -0.03443483304996908, 0.02118712404402312, 0.06116151034815132, 0.5814479848922591, -0.8274925813736451, -0.4878523045873487, -0.4418474681645896, -0.40893037670833104, -0.4287471600388884, 0.40047952846877216, 0.725833080633049, -0.13939032905269239, -0.045486634075968056, -0.5596841546265653, -0.3731085690940632, -0.36285099853929015, 0.4873861586263801, 0.17182255345314718, 0.2970805242134708, 0.11540281541057235, 0.11278770563388858, 0.5581498728021941, 0.15384017615233958, -0.25418232268084706, 0.3430617580684088, -0.07632076715246794, 0.5776421994581145, 0.631542122195436, 0.5258007900116366, 0.006377975597148033, -0.21163463269081118, 0.756349214616498, -0.5631144617883347, -0.4588255496710313, -0.9485875505481088, -0.5279054075243911, 0.7735034705710393, 0.687296526460544, 0.036740272642648286, 0.1482344829494614, -0.24486656324299252, -0.1658541526968441, 0.7141886825002773, 0.9805809236682723, 1.046994329161755, -0.18078475316875606, 0.8999141431502427, 0.04580253297469274, 0.5530408444706814, 0.9064066387576707, 0.5986790486296, 0.22532697383354083, -0.3696419541784648, -0.2308091591717596, -0.5444064174419156, 0.5370284816748456, -0.37088831958332746, -0.012013813203312323, 0.8187522489234733, -0.7127524628651152, 0.24418476172474618, 0.6485534258492728, -1.006027204003975, -0.673879147135512, 0.4872103291109979, -0.27296191754290017, -0.39465657329003623, -1.2534780644698404, 0.02555043894239022, 0.041110334549509006, -0.510914130441323, -0.18465259137192147, -0.03577005794838617, -0.14751353315753787, 0.848070719848237, 0.7223574701625023, -0.6232290854935442, 1.0849811412286903, -0.6023148761672183, 0.5849294710313505, 0.48186535251928797, -0.04311799192211474, -0.2364912111856221, -0.6095228854339476, -0.8062303449397635, 0.3860078480848424, -0.27863216212074754, -0.5359523365975932, -0.10754115147261468, -0.7362271303928267, -0.8226244407867568, 0.4690521707685556, -1.3824784229985192, -1.100676462924679, -0.6647910650791501, 0.1176247550446602, -1.0151263642892292, -0.8623475993430836, 0.6315037214482063, 0.6217269369768406, -0.40708799103800497, -0.3452316370922153, 0.3238216547223027, -0.7496125445878205, 0.0797045999748674, -0.3269566363016238, 0.7512736555654237, 0.15724034527927444, 0.03346791621786744, 0.1575712660292404, 0.6572838083428241, 0.5613865089266574, 0.8725755699294028, -0.7976197990771486, 0.13784067464007177, 0.3605383892142636, -1.2135940104586478, -1.0560701406260575, 0.2049971047615601, -0.210246869640616, 0.2337679511440657, -0.9781553825505883, -0.8340100771560736, -0.38999598356049087, 0.22677852280902921, 0.8481877113421438, -0.3454379275393314, 0.3448355326217631, -0.42625243387910555, 1.142480708630658, 0.5203092198236091, 0.1888043564845276, 0.5156894677722028, 1.0881451095719759, 0.5999872517708055, 0.8568093106741752, 0.2656493122811768, 0.3280242246025601, -0.2028040138248229, -0.1865257584475391, -0.5951051608653691, -0.38583120174042534, 0.2748811102587177, 0.4069695028967521, -0.26033819186995794, 0.3195844622528452, 0.45092403193895997, -1.1342130791514466, -0.6296258263535547, 0.2194951275413702, 0.5407782334416169, 0.27391793257429975, 0.3937211052859178, 0.39952207804840134, 1.1262529065701696, -0.4860483851510102, -0.37236865267169783, -0.35528917301134516, 0.5258790818223115, -0.10161387939638333, -0.4400682060140627, -0.15737945535210343, -0.24181310255433003, -0.027012572605185574, 0.9859701185228056, -0.7230632091144489, -0.9384700890623655, 0.8722787017316664, -0.6892785046321798, 0.12068953322597165, 0.3291714630832245, -0.441885915674175, 0.1484924132334702, 0.7038820468241057, 0.8283159250605652, -0.719015294432042, 1.0150278418244734, 0.3446664366041513, 0.8069020551482817, -0.15593188191685173, 0.18119219437542355, 0.3979272543440266, -0.6362579783882197, 0.7172840734945006, 0.9794136321836575, 0.8106234442051825, -0.11719596791858347, 1.110210677187749, -0.11906412467287295, 0.5938505530290935, 0.7123848945421793, 0.1283648105393218, -0.19910414365836737, 0.6518421601561672, -0.34464223952945244, -0.9723717183013675, -0.33897270526276363, 0.13331363132199112, 0.3779748338986535, -0.8525914720787673, -0.5675419084689735, -0.12819085130974697, -0.09996739016609851, -0.2985871864599455, 1.104518608850827, 0.9939520574753713, 1.5234625699883664, 1.4483054855779574, -0.5572991612272614, -0.6096821013807511, -1.4668428231759252, -0.6900474088540672, -0.728018865655903, -0.8090699832967773, 0.7361427990538798, -0.5126284859339624, 1.1181097132850386, 0.6516910284753691, -0.5156076878012773, 0.14918742455873374, 0.7128578616522804, -0.02165838710436159, -0.586403430836542, 0.3344180198651039, 0.060194487084354625, 0.9811272239608813, -0.6752768156838116, 0.14811442004559444, -0.24682959032950647, -0.20489081967221207, -0.1815128014692224, 0.9077002694897055, -0.1505052395927222, 0.802071954550007, 0.4711887877260352, -0.3117523524289501, -0.99270257548283, -0.5437111697784031, -0.2671747688066712, -0.8610931230194308, -0.6464484453644385, -0.18599963482735465, -0.7579664791082829, 0.8540084287207574, 0.0710731015696814, 0.2940596557445262, -0.04779748338205347, -0.41053478380644176, -0.4090764789949697, -0.7352827985741952, 0.7498767161065212, 0.7542232611488947, 0.36363817360583917, -0.5889075364786586, 0.8064631709646025, -0.5731134517806918, 0.9431464493453537, 0.5885884794518195, -0.20531010695809299, -0.15720638791858219, 0.8904918318820128, 1.2480717737803926, 0.955591795254315, -1.2345613273637708, -1.412618235903287, -2.182359938298995, -0.20131543517906417, -1.0568892501531628, 0.3910786288025871, 0.7918866411694439, 0.7453529848287609, 0.039758589674907044, 0.6356385804313629, 0.07937410663487428, -0.14617152683504084, -0.09603732259029917, 0.9004771624590721, -0.1301353651082029, -0.4278480766847388, 0.3462248464156357, -0.2196372811154112, -0.7820937098699852, -0.31071465492711653, -0.5319246216498341, 0.7277955611521688, 0.9420308930031724, 0.4670764328102884, 0.9447293230624955, -0.03375829745602835, -0.5386342356837197, 0.30356894117132194, -1.0556448969837853, -1.5672594231875192, -2.0823674489236783, -0.2669962589260267, 0.7633252894388995, -0.41782885535156145, 1.1927698919352756, 1.28675380191224, 1.1712015212298745, -0.35453292637523054, -0.7589404261339759, 0.6944487945442488, -0.33858879703108224, -0.9680256605338039, 0.4552949401820306, 0.9459312629612338, -0.5182401387443851, 0.2671705472570262, -0.06251592552437572, -0.7973698042022487, 0.4953729760089301, 0.9431367887277997, 1.012756488964413, 0.712552226097973, 0.2631110404004397, 1.0587225109672684, 0.40533748757353905, 0.06060140539886364, -0.2382192281374576, -1.4362888438282586, -1.7260874870995684, -0.25239591740111916, -0.399344167864928, 0.43974626259161265, -0.39504338538261796, -0.4928719445666412, -0.044100736526041774, 1.1777350414225325, 0.4043945467065955, -0.06116624115576228, 0.7219802659405131, -0.8493847824946111, -0.5206833316012702, -0.49699923935885026, -0.5379938390248082, -0.9249872088190789, 0.11205149523147391, -0.5529395562139742, 1.1438776121422918, -0.5713527123530532, 1.0847724104183347, 1.199336096574835, 1.4490050792426592, -0.15167544622547413, 0.8266824777643018, -0.862213211221834, -0.8841424789690097, -1.246111451145045, -0.33930940611042765, -0.4778546050953274, 1.1645934111783598, 0.16010981347935022, 0.7695162008803078, -0.4755165847853317, 0.09435298742940827, -0.0655332870448571, 0.08959851028076063, -0.11424761024558482, 0.404556197466463, -0.5679324643782658, 0.5084205766974887, 0.3799960855459614, 0.12402263107935363, -0.6524909463243873, 0.1520334039441191, 0.48741307240790255, -0.142568440352238, -0.23072373313233613, 0.2618824510278401, -0.03472796560752425, -0.3612078793688467, 0.5694857248477168, 1.3434279087249597, 0.3234610138854409, 0.3113389224277808, -1.3307456323968208, 0.14604727253732, 0.6375231887022392, -0.5976198616279571, -0.4881478069200672, 0.5492432195746879, 0.8901195617189949, -0.4838587060944393, -0.7480420406725957, 0.6347044944075013, 0.6683639983394692, 0.4695959972508184, -0.8225969534901084, -0.40261066342604973, -0.8514109761116391, 0.5120641687786398, -0.15744466030106996, 0.567597135588107, -0.35389238630954195, 0.6561242834001243, -0.629202458119199, 1.0504096341461675, -0.07977360863498885, 1.2700937533093366, -0.4287308773955051, -0.2843177987345415, 0.6330827202832289, -0.6252436472781757, -0.018172743719133615, -0.6790990271842201, 1.0465790453161534, -0.33504215787686314, -0.532689093122256, -0.5842173605519942, 0.3712615825158374, 0.9539046158781054, -0.2772223798314302, -0.8256063233684638, -0.8478121256285919, 0.125827467640861, -0.7960019717818148, -0.7238315286512192, -0.44877941981999014, 0.8450472986239317, -0.15037735902124277, -0.021578347091140433, -0.8158762855940207, 0.10282672923673264, 0.08875536874077117, -0.21279038896110722, -0.3161295090844118, 0.9062072046263157, 0.15835692161571688, 0.04695795323882627, 0.9078420697012538, 0.1861205723444902, 0.15559563041710525, -0.9259408846973999, 0.29207380095690033, -0.4276071521413157, 0.8910583896497614, 0.443944111866921, 0.6810484020534538, 0.0794233641250297, 0.5739686361402785, -0.855236861135763, 0.13714567917467516, 0.9562607932164817, 1.0080642198138103, 0.5372489077091335, -0.6783352684252435, 0.20817767788919372, 0.757117977428536, -1.0560057404513676, 0.644040481634908, -0.34463943706445554, -0.03357428053586661, 1.3161798350772973, 1.60116227625067, 0.6648706454952579, 0.7193871844637031, 0.8662058792354945, 0.05252601733890617, -0.09104754350170127, 0.29752788839137256, -0.4053638702457783, 0.600166248827329, -0.5403792198839469, -0.23925029314191837, 0.9586017342292257, -0.6315660666836329, -0.5267595129685015, 0.8105552864649682, 0.17481551808240017, 0.4833304087582524, 0.701868397794966, -0.3916598013969603, 0.9147158743192225, -0.2387275080925202, 0.6053199340187592, 0.12173951327423814, -0.7895435307679705, -1.0071259593794497, 0.23964354634490104, 0.9062234563445101, 0.9219285914676679, 0.19445741596811064, 0.6217515332710182, 0.3377050240126835, 0.7495117320339412, -0.14432292950913225, -0.251750924883781, 1.3051925945206755, 1.1546781466441134, -0.5024118806144354, 0.37588904366535864, 0.36144994803524805, -0.2603287488813889, 0.5863186731657453, 0.8280744802012656, -0.09554930446861414, -0.8980617053016711, 0.30239188255983346, -0.024328509625723704, -0.13812741220032665, 0.1990131073423801, -0.6606316759133213, -0.3272957181712164, -0.21532638040680793, -0.3342327675224175, 0.27934373266832324, -0.9994286009734833, -1.0745473419640033, -0.5736635271584117, -0.07888433198068533, -0.8206914266945754, 0.3468037716768907, -0.49604351945593267, -0.49849296676662747, 0.7185691067986926, -0.35858144173124057, 0.6087525991694139, 0.6048377545646485, 0.6975226982161234, 0.08564204882495326, -0.8658315840564283, 0.4434860485176145, 0.5238868288690433, 0.4653054595654194, -0.17825979715448875, -0.7102185963166701, 0.30871424542495374, -0.12338349865332453, -0.05177136878203159, -0.0005295510707972184, -0.5207323773462544, -0.30573202599731925, -1.0091797614194862, -0.8537845843020714, -0.6918078383787303, -0.39313070030709796, -0.9938914278189043, -0.4514748863214739, -0.35605242439531476, 0.39898562716715563, -0.6125722268762007, -0.04127633918498617, 0.22111593365799967, -0.1935913216583167, -0.3342711254506896, 0.1892796136190292, -0.48900253423726503, -1.0852653682120148, -0.43903911876971163, -0.6455049767687444, -0.21786292399137885, 0.8856002961883952, -0.7243590184407237, -0.8310859758482785, 0.5334945981039941, 0.5247378368667308, -0.15356599494099799, -0.13504182438554357, 0.8964038749221959, -0.7856086720692589, 0.15863081741179158, -1.002988747185251, -0.4045486972024995, 0.38055690704644485, -0.5958481745813844, -0.4850922189586284, -0.5838639123475972, 0.7467333040883445, 0.2340167139939043, -0.420243381950382, -0.01437289551137203, -0.7386336355343404, -1.0727533549578168, 0.4772824494270895, -0.6552806470477677, -0.859684969063465, -0.8723217613076861, -0.5578781230270903, 0.8685719193935707, 0.32629675646178075, 0.8507388167854512, 0.22866843000692655, 0.2946181932509171, 0.15047160659929468, -0.37132607808428686, 0.49108686120106326, 0.7961648311987473, 0.30845024329177884, 0.4536692164978125, -0.3811877412601926, -1.0883172089296604, -0.6509813637503737, -0.016901154725335564, -0.5251553978071756, -0.36488097124483104, 0.5016634182137923, -0.25626920918612667, 0.6511229769426364, 0.28147532031017547, -0.3455058051870894, -0.681867646323011, -0.5487760074898218, 0.5085085840999441, 0.06880929270227658, 0.7782752249839329, -0.6850409009799396, 0.7912641158151346, -0.3879897020098534, -0.9344039759029866, -0.5559421964118016, -0.6133114906409565, -0.17025173004711197, -0.7253511739859928, 0.35041993094418467, -0.8983077878353067, 0.05709827867624706, -0.2552677592749399, 0.4652739288979084, -0.10799345791794714, 0.039934016927291864, 0.7923288970984428, 0.2732211807290895, -0.4199700122183143, 0.850364693143124, -0.3376143895853831, -0.3297212768223466, -0.49985216978019154, 0.6910482654757508, 0.42300694372899683, 0.1537970333811524, 0.966397814755731, -0.28134154709262865, 0.9423284310972928, -0.6919770084057375, -0.4669605474452315, 0.7333723742156196, 0.47063612330591603, -0.5275712266646537, 0.9324927779930159, -0.47403403943734523, -0.32088906269442363, 0.5824423300182762, -0.5382765615830796, 0.9165315496226165, 0.6741586622776187, 0.26559023339241444, 0.24709620390331172, -0.81570201617586, 0.6699656204842729, -0.14256652063205075, 0.4035301845011314, 0.23717918144722624, 0.9318352583579348, 0.4272811868345204, 0.899641168813035, -0.603653756724008, -0.7020018686572117, 0.4270894867519884, -0.3612752922009984, 0.7679936232218935, 0.15145038500174549, -0.32412140956358443, -0.1772665418604726, -0.9477246557347331, -0.297859351317019, -0.438606772106204, -0.9967487683239602, -0.2884997694797735, 0.5228572673820064, -0.8050945890331842, -0.8891268198684972, -0.8262682120411162, 0.8796821786690742, -0.9908337717770306, -0.03595482083965341, -0.6605942170726925, 0.6780179413974727, -0.47080487120799647, -0.4523093008038857, 0.3646019232860801, -0.7346350111212624, -0.4353086458000909, -0.11114305527449, 0.9313152289125288, 1.012852512841024, -0.349502376551123, -0.06268916640557486, 0.4980832015725009, 0.6313325841701276, -0.9685135277233249, 0.7749801425290909, -0.46182474226470704, 0.4088626294980361, -0.6331062874844322, -0.9022142429466837, 0.0404236862431846, 0.8128400678496204, -0.44353925113497183, -0.19605840976676103, 0.04548835365641746, -0.46470890136373355, 0.3150815177166493, 0.6537093013314256, -0.1551125249077935, 0.8674137137507237, -0.38994756136121056, -0.22557116087759804, -0.8033235977649976, 0.8202937615516859, 0.7756036150050155, -0.8584925990247304, -0.6848229815967434, 0.8966077360320721, -0.16624728663788568, -0.20803551773984325, 0.12462868734542594, -0.9139618494406796, 0.37145054812797207, 0.03079303143312573, -0.20461968923417143, 0.8558262181967753, 0.5147936174525372, -0.5745503763944286, -0.710176384525322, 0.4890312387766951]/0.9992115410394603
0,4:[0.36545966444623823, 0.7019080910656257, -0.5553615604723381, -0.8446389978364275, 0.7732125510047734, 0.0729588706948463, -0.17839088919104773, 0.8735908946160555, 0.8061537783053667, 0.4966314855336378, -0.2628410853710246, 0.8322410365976807, 0.8071173780209762, -0.5288332429257228, 0.7084246330879578, 0.7412871892734059, -0.8552801528635336, -0.5850221706907981, -0.7134103023997809, 0.8747549204848835, 0.5775305402185007, 0.4697649740299521, -0.8811212443166241, -0.29676674002243386, 0.0535418500774012, 0.752370085927091, -0.15662122357707897, 0.5355486825134508, -0.0554082145553112, -0.4123993586483643, -0.025195232519311217, 0.8569480206970821, 0.5448809954244456, 0.9714408764083184, -0.5550353529573473, 0.9586496528291583, 0.11234202318208467, 0.778594502604917, -0.2585356963468867, -0.13643253165138186, -0.5221967001033142, -0.7507274980952194, -0.6793690194134159, 0.16638706622027666, 0.028075013056977297, -0.2896480469836458, -0.616787888402378, 0.6063837486389687, -0.698187696062831, -0.5775014598183317, 0.11658581518578619, 0.9378706984317069, 0.023661085517073355, 0.7761864673668386, -0.42062832986328313, -0.30383417081967656, 0.4679068636979382, 0.24811946098777526, 0.20888301632324247, 0.671929507572546, 0.7437339062190295, -0.6636889101242911, 0.9112313218658648, -0.10471204635238474, -0.164113762503383, -0.29574831606999963, -0.44967913122134656, -0.7444448643235826, 1.1478338662785854, -0.3862332908267363, 0.3596399288252408, -0.7302791499497215, 0.7074356393085516, -0.5409333422470539, -0.6891421406914923, -0.08422774861173547, 0.2403885411926058, -0.26663827808925283, 0.7084754267962694, -0.4297498026235673, -0.8134385032835475, -0.37119904211242627, 0.3327320356007506, -0.4925931804402963, 0.5104008562666669, 0.17606977730496176, 0.7427749673743427, -0.28435443332090093, -0.3198618773986106, -0.32386670354887664, 0.794250269807554, 0.03928423148064775, 0.3819144342172877, 0.3739933452313, -0.1923308544275617, 1.2350164993474122, 0.577382862598184, -0.29410710942049495, -0.4499979777122565, 0.03884976466533305, 0.04843017886826029, -0.19161453974122916, 0.10659678568190106, 0.06821875663552548, 0.5683614010160042, 0.6146807800552572, -0.6247687329606345, -0.673655598523539, -0.4561342479732673, 0.6114970263484703, -0.5295416829939297, 0.939841091101284, -0.38638880077404725, 0.05348889037520821, -0.7152318216660727, -0.7011782692580939, -0.09712932999404389, -0.18358207434347726, -0.8744655267931859, -0.5114682231937392, -0.33307949344436877, -0.16215084470161797, 0.6225464447426621, 0.6232729902452909, 0.9939987088002263, 0.40739472083076134, 0.29397574819391104, -0.005536088500345974, -0.5041108232122371, 1.0232981361858184, 0.8060725111532142, -0.36462880842932127, -0.5138118081621682, -0.6181888859332667, -0.8942538802014048, 0.17358498488043878, -0.8815108336294522, 0.5444483030524655, 0.7350551429942529, -0.11850925591131789, 0.5543998896730866, 0.8291790949792206, -0.9674574954472098, -0.3497523684792693, -0.9129302182784643, 0.1511866473296574, 0.4221528593796725, 0.05956466002174883, -0.03645142711089906, 0.22349470147845538, -0.5443541982494302, 0.18413640296466613, 0.6131401793354438, -0.3436619738258481, 1.1775368030293323, 0.7982620172697409, -0.2933170114799686, 0.5791318421505726, 0.41138569490747284, 0.31931420390284926, -0.4087788119393426, -0.43215612585919233, -0.19140813156469613, -0.5078288884223705, -0.8308521695097624, -0.6759400431780552, -0.07798689051551788, -0.8343366403704897, -0.7037027284936899, 0.7515476392493645, 0.848887097051323, 0.6212100576696563, -0.7145029798338421, 0.5714035526625494, 0.23070899067122033, -0.26862328042940725, -0.6675309579560992, 0.15493926632961977, 0.9808720242644191, 0.04649718743001932, -0.06352577730710954, 0.9964100762919479, 1.155402999207276, 0.8066506439699174, 0.8941018483828136, -0.02532390886929101, -0.3074317709598041, -0.4765415501938973, 0.5150258609804864, -0.7819088675657505, -0.8591359858054113, -0.737657920731356, 0.6230311654378515, 0.2122530059442601, -0.947286095016573, -0.5657495817999494, -0.8019545616401238, 0.6984794614252806, -0.1551447440007462, 0.6833944202343424, -0.023668375114875826, 0.665922164879299, -0.2105260280587076, -0.7035666905060536, -0.21112195226070354, -0.24558120677892162, 1.0178873016962402, 0.016164111887352547, 1.7659788264077712, 0.9788149844760357, 2.2874092937440564, 1.7485262114360285, 1.6929936614352383, 1.1948888650237968, 0.8099516862377196, -0.07088931124089692, -0.6467354402147064, -0.5648363090199949, -1.240030420424131, 0.808856814558079, 0.43475245928276063, -0.37860421007579614, 0.8574660244968172, -0.9158152140270232, -0.8244213660978089, 0.22315062761765755, 0.3185546350894441, -0.32441356223361684, 0.47859900906820735, -0.5648035436377965, 0.683634831973543, -0.769063838279931, -0.4479380244067076, -0.6566437788123397, 1.3033445029167876, -0.038929339800707764, 1.8523778410803815, 1.0197790383818162, 2.1853225889593446, 1.5197838720890617, 0.720161826122906, 0.5621970964127203, 0.3850878281686879, -0.829970680823904, -0.850429244247694, 0.3062384424284349, -0.49594897520077713, -0.5853485297465965, -0.3747365355942551, -0.43138615734725605, -0.3752885889162641, -0.9182362252393934, 0.36718925873977265, -0.05562472729787423, -0.33943536810780905, -0.3543164672882305, -0.017439274811116016, 0.662734434877522, -0.6584503083146165, -0.3113337123751448, 0.25530495060845326, -0.2033798107038583, 1.1807910760156481, 0.8044118330366206, 0.45517310923650534, 0.3250395566941363, 1.144220140326429, 1.6984197830244172, -1.0360344633573815, -1.5507984530966081, -0.17280882834158667, -1.1323635418605715, 0.23221885134948597, -1.2102033980478617, -0.1035582636785738, -0.6895350154449952, 0.39930064329342874, 0.08236914453704844, 0.581345155474937, 0.5938265219486719, 0.03222763859254596, 0.3671665834401278, -0.6688925475566052, -0.028572981662168546, 0.7153062144403325, 0.6562243818159385, -0.3533802416935384, 0.24797834253509476, -0.0341836639085659, 0.6368586475921011, 0.8438331197742258, -0.13964011465205386, 0.3628960916323441, -0.4506678532958495, 0.17177556376150416, 1.0057358192481325, 0.19985602185720486, -1.094757950980431, 0.15411647577467294, -0.41288266420685393, -0.8154000152917888, 0.7047512851637058, -0.2963436176198228, -0.6673568175702483, 1.0714478520811228, -0.35441144473504504, -0.7915378903233151, -0.9385305436400402, 0.8335045356155415, 0.5586125180567494, 0.10586992005526302, -0.7771971995257736, -0.07136386136149675, -1.0610512004443735, -0.4618949723004861, 0.051055357390587836, 0.19490391535158075, 1.4380649593405128, 0.7724838829242565, -1.752763751624662, -0.30652037484680533, 0.21251440327220142, -0.15620001691895938, 0.7423608457217387, -1.0232079920253867, -1.4602928139349602, 0.5023539664145943, 0.12686522694403907, -0.6104244988164703, -0.39412634811855346, -0.9534640017246653, -0.5201131135485464, 1.1033420727303258, 0.02819366954609465, -0.6559840153744947, 0.2641903254287881, 0.1344500653808569, -0.635302000374136, 0.3160709789311375, 0.2767857149819092, 0.20038273484420085, -0.3162167553164959, 0.6626592205873486, 0.1782197951133578, 0.6382433916421781, -0.6222858239856396, -0.31932661176952115, -0.9324741286979, 0.34286271668641355, -0.04751693894447022, 0.225417863877079, 0.2319074044478285, -0.744716726312677, -1.0504283687068028, -1.0088931088428374, -0.38350244914969406, 0.7660581396612003, -0.039449688210504166, -0.25160549710464347, -0.5497066804960093, -0.6322449320726304, -0.48632642910755747, -0.2370570190009411, 0.8259747991923481, -0.7281197085273321, -0.27136665316126896, 0.009970366691377462, -0.6197158884032622, -0.41363005991429885, -1.091682796705365, -1.2342521222288918, -0.30368108988679, -0.1516720590905908, -0.42744398535072176, -2.32437450541049, -1.6543039917500153, -0.851098873959061, 0.622921806741303, 0.5945735603086699, 1.4372531744087738, 0.3218338331585909, -0.1839129191387393, -0.49024018997537727, 0.7237849955054066, -0.6977749561985167, 0.3832162198392945, -0.2523191598179284, -0.22798544118969913, -0.29980234093928937, 0.017907846193465218, 0.6763801974889465, 0.38937019087703195, 0.1292396466406578, -0.35369603358359825, 0.2535631607569773, 0.2113813168680486, 0.45611039365193506, -0.12122917401213303, -0.2793870201088508, 0.03152419658105841, 0.2961098963281265, -0.7177881469214911, -0.5874931905534013, -1.2502915122077103, -0.10264292404981402, -1.290429676150015, 0.7429918328977285, 0.08741608906469685, -0.2077205961108202, -1.9631797409420662, -1.3057408694647192, -0.8608907331605267, -1.373285320654743, 0.6197382388477919, -0.9832322390130593, -0.00027834653726899986, 0.9650264168421108, -0.4333626285155907, 0.028545310155660357, 0.9582147174477249, 0.8091133558248849, -0.3205624202215689, -0.9879470311652191, 0.5908887479364399, -0.9252221859423093, -1.1060347803444128, 0.5097727411415246, -1.0836899442519223, -0.9059177922437314, -1.1983187301837677, -0.29574910569883567, -0.7721191591967121, -1.239747937359741, 0.07327679844758071, -0.3823934391226462, -0.17943311590352132, -1.8602104112143638, -0.8045235209626925, 0.24181795045635074, -1.12071608301937, -0.8671973994405228, 0.3008141783389901, -0.41907014601294434, 0.8879111158164903, 0.11403906925521314, 0.48615485026746474, -0.9465462770105244, -0.693873672883747, 0.7317906559429534, -0.9597396255345056, 0.25889879148141015, 0.5540382058511436, 0.27477381049381333, -0.8738629986924252, -0.2281683343256034, -0.7740993854746745, -0.09388034074172709, -0.9753542754084562, -0.9610646737965979, 0.6460556163915696, -1.1061660481519617, -0.19228313737620192, 0.27323345057136195, -1.41927358624644, -0.6594001755789908, -0.3560982562723241, -0.20490951112880623, -1.2960187498407416, 0.6286649251875308, 0.4448879993463506, -0.2714663827777538, -0.1263580856729332, 0.5803116055253079, -0.7104514963773078, -0.22142361276839684, 0.9698609713719515, -0.9168644873351139, 0.3696893245890054, 0.3462007884754212, -0.8513627663500689, 0.7156583088237315, -0.3382596642829092, 0.07099822879411, -0.9722310962487911, -0.7250772056745898, -0.5585137993362633, 0.7408545878806662, 0.8133060317655788, -1.1144123780505821, -0.5365800224760626, -0.3375435122093147, -0.5799954368465635, -0.9690104415001201, -0.20212728119063852, 0.20042436278845915, -0.6267975990836904, 0.747622063081138, -0.2754333778904517, 0.8126582880278503, -0.6228260338480365, -0.669494788233038, 0.007131941990713882, 0.6157243615250786, -0.8789688566751531, -0.742124297406676, 0.5598770074360149, 0.67336078764921, 0.34931230133437874, -0.055592453068956486, 0.13676383864033761, -0.42365164782564496, -0.1222094372598058, 0.4016864899052168, 0.2249533900180743, -0.3142018487829632, 1.0310394833208805, -0.19057358303417735, -0.09432000232566683, -0.6150250676611514, -0.184332392997718, -0.4325089631818032, 1.0081570511962585, -0.5274923556197243, 0.31686729959062054, 0.3578901075864723, 0.2139305802702849, -0.44756518622283553, -0.27631546599689744, 0.2425628501862334, -0.3676680141971455, 0.8252316663019877, -0.3315008808742392, 0.06990011846644939, 0.9529763641759441, 0.75741214975862, 0.17012396659442464, 1.0885185763514866, -0.08697148547104075, 1.2898014567775653, 1.121283901371299, 0.7642618358756401, 0.1641494100974916, 1.4208715407280397, -0.28056603890500914, -0.023202566722825817, 1.3373741513454038, -0.13063656548335784, -0.4141698036094361, 0.013074705027666764, 1.3508854063302504, 0.9850919949251209, -0.07018732744337218, 0.37390643182605515, 0.851516921343023, 1.2646102789000986, 0.17507256622248857, -0.057456385407723354, 1.0040480805493173, -0.3482214123305903, -0.44701843461902896, 0.3891182638986135, -0.8452033176194824, -0.6662473846535552, 0.23453264861074516, -0.6314954131558619, 0.7918314280501787, -0.2901522805822962, -0.32320638632160686, 1.2597907957654946, 0.9452874655855235, 0.2567485658865052, 1.0534220714772795, 0.44790622463951146, 0.15114748180629486, 0.8261146104295545, 0.43805661688427466, 0.2704217614527988, 0.5513481422374805, -0.6132837994220761, 0.5099405966397516, 0.009386531297337939, -0.13407888811194166, 0.1622726653742816, -0.19528389196994045, 0.796134582472863, -0.539945929104595, 0.3127299906204948, 0.46931440476389374, 0.6823768072628102, -0.7969791368591668, -0.9379814886360838, 0.20780418061014685, 0.6043207711176017, -0.24521580896479248, 0.687782562316353, 0.09709584325039425, 0.9457427904427963, 1.2483886541389606, 1.2579164208726705, 0.22091401072076822, 0.8884385355315313, 0.9254035358277888, 1.306633382239922, -0.71390582315978, 0.6645891567428948, 0.5136174447911686, 0.33630563153052234, 0.3784592730077153, -0.5016760874527831, -0.4829792197074189, -0.3028614121783828, -0.7130105757339239, -0.684785728292314, -0.5042482593122519, 0.128243343616161, -0.8459949370711606, -0.21705385035594116, -0.9351292119570027, 0.5771064244673222, -0.567064782059878, -0.8291096859426312, 0.17495002977716057, 1.0339410465945649, 0.6752207757160528, 0.760876665230158, 1.0094176135015442, 1.0700008150149607, 0.2554817361855618, -0.3985616373256331, 0.07955696990520056, 0.5935773433946042, -0.044753503971213165, -0.6811659122762446, 0.2589564473457435, 0.09284195928262522, 0.2639181858854818, -0.6203475622684752, -0.5605401744652349, 0.40788692323299514, 0.5373150775220494, 0.9086603760658744, 0.28937469414505274, 0.2462520918828937, 0.9799599060431239, 0.544960782363727, -0.41026794521940513, 0.6175437067212585, 0.24398975101828677, 0.6799105441384754, -0.5976604985979367, 0.7723821099078029, -0.11972820982510536, 0.6852786800053193, 0.2153106107899837, -0.014272895964724683, -0.39636615713250856, 1.3680508360121504, -0.1424719755510938, -0.4111167946314221, -0.22409825666335517, 0.4117250875023619, -0.46294398120226465, 0.11404345826395954, 0.5253331948479238, 0.8321513922839056, -0.9518467656618, -0.35395861198151907, -0.15326527625240116, -0.7974851352019322, -0.8412543214662057, -0.15906067899317855, -0.873990128541603, -0.2874684844489612, -0.19353784987431455, 0.00512505300881716, -0.12683600897941907, 0.7583259754526737, -0.7814128821519569, -0.48949375981065407, -0.7929627469644164, -0.005872725804598106, -0.6544020580384644, -0.6400564353447828, 0.29948401568627675, 0.9719305969929531, -0.2046671958073034, 0.5576985485475988, -0.2856646478357728, 0.5370875526555764, -0.20728259556688367, -0.346464390955395, -0.08859525410643321, 0.16002561764290396, 0.054608168280516865, -1.0729012839476466, 0.3303067691713963, -0.36970049365827234, 0.9352383532761996, -0.8540221816605611, 0.6003627077022715, 0.6739188363322499, 0.27298051396931755, -0.7315570907365765, -0.8433953726980576, -0.6636214352389019, 0.050382710390692656, -0.7460863051958784, 0.21892861559488422, 0.2999511880157538, -0.13492861514287607, 0.3267157324837315, -0.36679568845904986, 0.06658199217804202, 0.9156161783521573, 0.6670361175074234, 0.7149712489466374, 0.8526084849401726, 1.262604001784707, 0.7076887314128875, 1.2433175893151256, 1.028775811770918, 0.15076676363784877, 0.2889855328718649, -0.19815792288150819, 0.8412769016364243, 0.456160011136155, -0.8077443621604119, -0.7946391816789804, -0.14215369971550595, -0.9153026189202906, -0.27446398225141166, 0.7855289990113545, 0.7329876530228632, 0.4480517545996413, 0.7767932572650376, -0.066827364590041, 0.607054532137899, 0.06390723039850241, 0.7200159057847721, -0.672887150184372, 0.21476315187820041, 0.013946923621195883, 0.8487427372604822, 0.11252068683572491, 0.42600896311270375, -0.8237387222516201, 0.9800862040719248, -0.5900522352516067, -0.1330726293173234, 0.7655386433076046, 0.5604413052897073, 0.8212776422852105, -0.6561470088735033, -0.10981920945613832, -0.2132295583623911, 0.684429286082195, -0.4715677180210749, -0.4715377453660783, 0.36255318754664145, 0.8248557566636308, -0.08864420785369442, 0.7981967731156149, 0.7779523773520082, -0.1274128759621163, 0.4321413875576449, -0.5179703488832322, 0.38329038616302635, -0.35616861671636735, 0.7904017262590894, -0.5573513980095209, 0.9826085442568582, 0.9853676964089003, -0.45708839129666734, -0.7724752786624768, 1.089743886931611, -0.7463042293497513, 0.22705754778486711, -0.942117848716992, 0.7441181049850507, 0.5316916932948215, 0.44293876826287937, -0.9458449441670302, -0.19086086159761506, -0.8800390723215974]/0.03888273975189522
0,5:[0.9580717406440986, 0.3750368000957678, -0.4085976583737372, 0.19391944623465718, -0.9164348335610217, -0.7636922320578774, 0.19179593896114033, 0.7394460228703057, 0.497733297611739, -0.7669735432421589, 0.4470013793762615, -0.5647415536293952, 0.10608483661467716, -0.32170356959640944, -0.043121224708410066, 0.7996774484962474, 0.9277171736645544, -0.6339303655606612, -0.5373159218866235, -0.5132941410452987, 0.4676845090481718, 0.9278279835677037, -0.11553292691131478, -0.9488812594118963, 0.0873776295457116, 0.9008441701639116, -0.6163823749901134, -0.9005109350566136, -0.9377233126994429, 0.32343215424298943, 0.8591278517788221, 0.27607997179542143, -0.05176101005941369, 0.27893688044644716, 0.1263416023043884, -0.8922230169395859, -0.5535826488411645, -0.7630918499361719, -0.14864110938579772, 0.9298899427848457, 0.12453986628662161, -0.6574238554757865, 0.059918071123933554, -0.8632892893437765, -0.8841907892895617, 0.5878522566884086, 0.3448944612826017, -0.2006674683271128, 0.9312232433383124, 0.6157970047788093, -0.39845068119888044, 0.35710796993654625, -0.04716360951491683, 0.7245414126384078, 0.5256654644606646, 0.4708767190589891, 0.7484518315662634, 0.31154850314483395, -0.0747998544844013, 0.5374424987449578, -0.2129427239268336, -0.2285359134308544, 0.7251562202069244, -0.5943823995967283, -0.46579633697370204, -0.7780179808639167, 0.8149690326336874, 0.9059797634722158, 0.7664881059975482, 0.9209924982544367, 0.7572580724527151, 0.24138985159249207, 0.8950813130002815, 0.9146568381289376, -1.0173661700993035, -0.9855065696086284, -0.14823344276546913, -0.7867562091688558, 0.03771333268799731, 0.8120581277695443, 0.38548333888676345, 0.6742133180008505, -0.4491930524352843, 0.28309809456850266, -0.3083417650226046, -0.0226303935465344, -0.2732098591198977, 0.7523557616514822, 0.634628650745506, -0.7045207009234247, 0.2722765786416714, -0.936716251102542, 0.8949679305847378, 0.030183125743506303, -0.36918905719267553, 0.9110562203033038, 0.859029620499001, -0.07888539068607474, -0.44534521597265336, 0.7137424992224813, -1.1183393508432844, -0.7761679262216058, -0.10895202890656738, -1.003945406463106, -0.5511603580205906, -0.6698304014641451, 0.10644878783289895, -0.7755333601726744, -0.353895215732993, 0.5263904928060832, -0.11903350256660294, 0.8875782779206545, 0.6767020002274096, 0.7842966225682375, 0.5540968520036547, 0.715672854832091, -0.5729794499089192, 0.23159379942465247, 0.42872410762593055, 0.7459183586148245, -0.9570698340246039, 0.8866603025810526, -0.42379011477290945, -0.7747367638344925, 0.7357682627271779, 0.7941270814366013, -0.02429195447341779, -0.6223884106995863, -0.8640048088596952, -0.6320769847015673, 0.3878063356960634, -0.8385312833818954, 0.4024673460695178, -0.14138008010660025, -0.007333707806076614, 0.3665752410513856, -0.6293049430239205, 0.13008356994812786, 0.8935802721631614, -0.7979385517825388, 0.6476770599530499, 0.5990097782180226, 0.7008692267573181, 0.611291431568281, -0.8079826549114086, -0.453311456087625, 0.8123609668197758, -0.200277726801416, 1.0724004931974385, 0.35245347307348257, 0.7518785014851103, 0.926844455863595, 0.5209905662847563, 0.8872895638774896, -0.4063296403288516, -0.4727808200873314, -0.004211591394249942, -0.02503596420349531, 0.6337257356554894, -0.6463410625719509, 0.437594811874831, -0.5682743784963199, 1.1352006674261073, 0.33478928690510007, -0.16754760456130904, 0.19459260253852032, -0.46347337410523143, -0.7361977526553503, 0.4722140582465606, -0.9074660075521002, 0.6468021107931028, 0.3075451522891332, 0.5021938021692962, -0.009760780198995579, -0.559526819520624, 0.08190457057596258, 0.14005819858584714, 0.8979502529672573, 0.9129590845028766, -0.37187252083052835, 1.0428773333167294, 0.4450759823315155, -0.4435057352519825, 0.4814572362356643, -0.14049038110384857, 0.19718056291866276, 1.1796177625239894, 1.4359525098765602, 0.6920701749536952, -0.6391486581667141, -0.48161571308093754, 0.25545475318986244, -0.006458724221838075, -0.0787667954863596, -0.700809632487301, 0.47837743779581837, 0.8804634992703725, -0.5070902269180738, 0.19663756369659366, -0.847500564947462, -0.5056015716331949, 0.7501863466406642, -0.04271540622544054, 0.8099299499782399, 0.18108401031267915, -0.16349841359529144, 0.4293037706431561, 0.3481809373966464, 1.106141252208772, -0.14009824496500464, 0.7960977277172551, 1.1275682569887995, 0.2219872204192282, -0.09043446561184493, 0.567897586284342, 1.0198243822355384, -0.06877940126377005, -0.022399873077587097, 0.051409034193393065, -0.6051325397628314, 0.1005868332753778, 0.37817995616597977, -0.788139042124684, -0.5373897603736105, -0.41524113260364737, 0.8662625777709958, 0.04734547191750401, -0.07460549630370716, 0.4370967545894645, -1.0379719890931447, 0.04802843197611696, -0.22729375839328128, 0.2841748250663245, -0.735381913186332, -0.5225387630359367, -0.46756322666244265, 0.6700624720352396, -0.33765870750205457, -0.7060475944330802, -0.38619365613173096, 0.9589714119354659, -0.12549218194974485, -0.03640183642756879, 0.009243821701649703, -0.31475144303430663, 0.3382903574061821, 0.8261758573166453, -0.06652685655720517, 1.1196417094960007, 0.5761998221751691, 0.7191008522519008, 0.18407789410611425, 0.8031570842883172, -0.7820110472325379, -0.30289878604941095, -0.6278733817829143, -0.42163999749853126, 0.24170113964922083, -0.8989262105304565, 0.44498110282574516, 0.37603504598984827, -0.7843587754773919, -0.772846599007886, -0.2629333700133606, -0.14998939891748145, -0.12916336352746355, -0.1835765600741135, -0.04996852464826248, 0.7061369685086607, 0.6137431382613279, 0.39971135079432624, -0.7331218111684936, -0.8101262830511377, 0.5282330524338881, -0.824319347307917, 0.19248181000712666, -0.36767666853550285, -0.5057085296369271, -0.530037557190089, 0.22603383518848974, -0.21791273992545834, -0.9306682255676382, -0.6509161724294363, -0.4724084204886215, -0.789919154286453, -0.2631131290200558, 0.34451641467389976, 0.6221354160151785, -0.03407762817459902, 0.02326119345287591, 0.5552231406906993, -0.5218546898223414, -0.836240813699298, -0.951334595567523, 0.24791555791981823, 0.375864588567791, 0.3994994377142858, 0.48292755910855867, 0.4019758842130528, 0.08201967632112749, 0.03413879892439045, -0.6672806169942294, 0.34802975214298143, 0.3345006312843958, -0.8418468082670975, 0.5618690143393034, -0.024748633872970178, -0.036376998511326475, -0.5802502767772633, 0.8157486067145332, -0.5930062070156623, -0.8828359153082805, -0.22069554266231228, 0.7550063833323646, -0.4190763116956052, -0.7421151712816876, -0.8629697966964658, 0.9980787019720292, -0.4133675348594235, 0.15506429772577546, -0.5363662882017066, -0.9793448386160419, 0.3915989364720305, 1.2773406453240546, 0.5272500608230609, -0.3227452539207737, -0.8676629502071161, -0.7571700147190313, -1.008018823451389, -1.068205769177148, -0.625224347202182, 0.337288780375821, 0.47217498665832086, 0.12951096850356683, 0.4351326242493951, 0.7269000155028275, 0.7880154248747109, 0.8263394438593652, -0.1011044377404006, -0.10036866271440918, 0.20485558967855597, 0.27432334639586947, 0.2139581942477971, -0.43213301170027807, 0.7646393400536331, -0.36594776752663577, 0.6300998657724681, 0.36047134724284097, 0.039791005552091814, 0.9592616490323816, -0.5322975930371315, 1.0053250602522177, -0.5081343366038452, 1.0251624582386347, 1.2629321435425453, 0.5453066321285369, -0.7742687434012979, -0.0034186315817632427, -0.5695220446940852, -0.44676793746577903, 0.537474187424941, 0.0712232234313078, -0.09128848545503793, -0.7707795705542791, 0.8229230042389168, -0.39859163788531576, 0.8766684507097632, -0.40560371915164584, -0.9206854750799418, 0.6739338699178792, -0.6121862624987637, 1.1137425896834703, -0.33929449145056906, 0.45549619327512764, -0.356524432808967, -0.7934179468469456, 0.6493848219498847, 1.470476658098051, 1.8020224559253093, 0.7665629087042428, 0.3723817295826527, -0.1096803298542514, 0.22447500184722213, 1.2934057314385734, 0.0630547587617184, -0.43691959331204644, -0.20066099273090132, 0.18865153745000995, -0.012729480340270242, 0.4490347445334074, 0.7719539566028228, 0.8819897873395577, 0.3470003348126891, -0.7510174295242384, -0.8538603874127283, -0.5490459328200239, -0.41664474517982325, 0.2456751926849427, -0.10263461331763576, 0.6414282103863538, -0.1421996116489714, 0.6646186678751134, 0.20653639249041436, -0.44559088654934037, 1.2211283469584189, 1.2884405104289816, 2.251707875494675, 0.3210167851558375, -0.02701734846342373, -0.5810837686520709, -0.020183891314825946, 0.7233608834359136, 0.02820752734073016, -0.2962298891140828, -1.292000461182669, -0.482376087374058, 0.49680499571591274, 0.1214600466458354, 0.7233173336515116, 0.032424020850581936, -0.6686148099288749, 0.6243118862320822, 0.9681704986591738, -0.9045811769405945, -0.8366112811922939, -0.9204599880281253, -0.7348640655542432, 0.014232799631353555, 0.07702094813579011, -0.47529973521933394, 0.8858754658411887, 1.3342609646714094, 0.6778347139461064, 1.8810084733952925, 2.0429379375970242, 0.8746293230357112, 0.6819637606652247, 0.8095246654078443, 0.8798389732656675, 0.1621125270118329, 0.5891635012173142, 0.7837466604661677, -0.406520833158588, -0.12139812637622563, 0.35429135781955773, 0.5856980855102273, -0.5340943320790488, -0.9603043561152267, 0.19868685357350002, -0.4806432934376834, -0.7120080587565165, 0.14600299437475614, -0.47864055368030306, -0.4093129253458656, -0.11260088442798653, -1.0243907593939636, -0.21225872864058332, 0.44780190697246697, -0.41124055094974815, 1.3408166642519908, 0.6529527790628362, 0.7713719158764966, 1.582706200529417, 1.1990299495613808, 0.663588123632414, 0.41059729229508296, -0.4118474288009334, 0.1282240110679363, -0.5840892418849436, -0.736298084792287, 0.503770798246424, -0.7174999244455761, 0.09961416240775685, 0.8261059129885062, 0.34173863846594754, -0.13360603412016395, 0.14760092825814008, -0.6949873116059724, -0.612219758484881, -0.34318329442883877, 0.8742310093662476, 0.6195074328893341, -0.9838550387511821, 0.29266905428340373, 0.2197298704724275, -0.9463037629203594, -0.867778600101317, 0.6726308493282148, 0.2033902099536509, 0.7533478481531604, 0.5712431343110775, -0.42495397990401396, 1.4837376952609498, -0.5553938840028111, -0.2875775105337081, -0.38079471227406814, -0.3000419029416044, 0.3227216242875592, -0.22181934164194939, -0.9530429340498375, 0.8341083983379889, 0.0901318997570131, 0.8010279860092328, 0.24486985612704534, -0.42649893645318837, 0.969166360087953, 0.20149920773250535, -0.23793113623571102, 1.0682247732691148, 0.1414931004225256, -1.1089249724143522, -0.7057456312914396, -0.6976201549291389, 0.14381111374742203, -0.45917361169420523, 0.0022207126362248793, 1.1202101201816146, 0.4126017870172613, 0.25600733598737774, 0.6570196670892575, -0.2813616164119641, -0.7012148463041377, -0.03570252146575871, 0.49290020675774165, 1.165674489595916, 0.37576617590412403, 0.0342807573191509, -0.7396605612652601, 0.2584845083195025, 0.45479386457290244, 0.5556452319014984, 0.6845156030580168, 0.439770611967379, 0.47428769928555403, -0.7610897789410341, 0.5268034120707902, 1.0037428641580237, 1.2660066665455898, -0.03527195725834838, -0.920594343867119, 0.19210339871696505, 0.06888240676149793, -0.9594888955488011, -1.1066422375050173, -0.3664256780650923, 0.5044972608704392, -0.2184679886157902, -0.2856642446217124, 1.0857004539668846, -0.6987493216822668, -0.6223829993867649, 0.4585251981815845, -0.4264249608957016, 0.23905086165584152, 0.4056170279190198, 0.957508815671411, 0.059256106191245224, 0.8673848875614671, 0.18372080890434148, -0.677084133057922, 0.6192715219011333, 0.4274608095167909, -1.007991047018287, 0.4018971491106735, 0.11095220352272543, -0.6348456334792628, 0.7437215477521464, -0.7083876610396395, 0.35722528373792234, 0.15650365025036317, 0.8310020055883511, -0.9600111863895034, 0.47240455233569, -0.7293347851355243, 0.7572218109887418, 0.38087694900452485, 0.3010079782062136, -0.022728453281428255, -0.6842115967098833, 0.8405460654443678, 0.8119992245208091, -0.06008443355697485, -0.6633603286873699, 0.6542610437461892, -0.7253064127191541, 0.03298021492469167, -0.6050658492824238, -0.9700927773536647, 0.438745131276129, -0.4332557525305427, 0.3389782992099131, 0.9178693702526188, -0.624745543015798, -0.45669417056535316, 0.09697268964857297, 0.5201132613976202, 0.5976516280270593, 1.0589387367511087, 0.4459944840565023, 0.2330967178102036, -0.8793321251781852, -1.0170351018398454, -0.19094671641008715, -0.5189071017683796, -0.4683533996717758, 0.3403625888027259, 0.4122248777183217, -0.7827320220467838, -0.3795727943515876, -0.20799428196833133, -0.6659487857402905, 0.18758403411676927, -0.2887221882841389, -0.6495898690002373, 0.13418876071121, -0.8909048745507928, -0.36065485013215626, -0.2071490615848519, -0.7625187264958179, -0.5617854108099165, -0.8198977433014795, 0.6926685920958549, 0.17413866043017195, -0.5688649814034937, 1.0310154066512522, -0.3803911075522689, -0.1763948253856472, 0.6316292476069651, -0.05665145231270415, 0.06275617815922696, 0.09182679347121948, -0.277233349784781, 0.5763758886472575, 1.051197194603826, -0.3089147918807957, 0.8525315614348979, -0.5759495015538736, 1.061179182410486, 0.1550072782673394, -0.5559355355030965, -0.915277214132434, 0.47271900718404863, -0.4903388105212058, -0.3959927698420196, -0.5257372820642183, 0.9900955710535142, -0.5181886323509935, -0.3113242202933048, 0.6692985607132904, -0.796196580753962, 0.5909075118991124, -0.4610024822977266, -0.2698697972063658, -0.29074056459774617, -0.6741206050207837, 0.7423436164313517, -0.6967504189432491, -0.47529413496107203, -0.04951407598409637, -0.6801150684852093, 0.3148385058043816, 0.48321426327376205, 0.6612773671818614, -0.4093833576829577, 1.0189002847118243, 0.33652189483959327, -0.4717105728374604, 0.11843717124448912, -0.8703216744573696, -0.874777570492842, -0.5422916078502412, -0.8915286746212674, -0.453251423977878, 0.3056404130755024, 0.6684410909992797, 0.26708055442301903, 0.3583354296932527, -0.24645034014837333, -0.4291252359520875, -0.5417144365765904, 0.2696402974644654, -0.9549129756619973, -1.0805061796843805, -0.2265656217630853, -1.0293625407697264, 0.6353294453767864, 0.4139668516449706, -0.9162505400017278, -0.5869821428422282, 0.18335310267078178, -0.690185267231101, 0.6934489156327255, 0.4359673380537719, -0.807306986184369, 0.05679098199201887, 0.8821626982953622, 0.5097929451279487, -0.14740820809106348, -0.9406107917075079, 0.06767392510311976, -0.8236524191341423, 0.5693563477499464, 0.6073984467083047, 0.09222248182925215, -0.6853815217040328, -0.215476025680059, 0.3804756602354432, 0.6159751648206888, -0.37003729337662905, 0.7641979569019878, -0.8023306934902537, -0.4126835779128881, -0.43416052691357643, -0.22288899596172163, 0.7273152690707801, -0.08537699646809391, 0.5034039849115699, -0.5458916400929306, -0.8313845011566892, 0.5825219163517077, -0.5808888025999074, -0.27648470959955423, 0.4623608004508246, -0.7375669679683194, -0.7420001849189206, -0.7756317120847651, 0.16956048008073066, -0.6879248253276962, -0.5899078457156255, -0.6982085270342049, 0.5887472871772155, 0.3414045427446665, -0.8232073760507583, 0.21213247465188428, -0.42331977018684247, 0.07515833904621806, 0.6895045831005443, 0.7280827248097408, 0.5190702034078135, 0.7066796226331269, -0.21342745150099926, 0.7308649509637604, -0.7356591480769142, -0.18680446492715091, 0.039556073060901475, 0.31239070795440155, 0.7090741947636389, 0.5874241753351428, -0.37104168115617814, 1.0861681613002563, -0.59335637929332, -0.16602629505375083, 0.0958700739745697, 0.6299280989736571, -0.35350556688580514, 0.8129397497049753, -0.882837883099685, -0.413163948070818, 0.9638598021965741, -0.7646892388975428, 0.0876436472177411, 0.46674315419249324, -0.9775438913700889, 0.7393195694744259, -0.5219094048670246, 0.9140015938533064, 0.2829510924135377, -0.8371230036806135, 0.1748005725646291, -0.6217632514247964, 0.8955804801727296, -0.14404714103014668, -0.13861741611824666, -0.37539299256434194, 0.7261222116296149, -0.0920324807915961, -0.24223827222782787, -0.9435452359837923, 0.7135836215892213, 0.9505703802001051, 0.27461662728589964, 0.507077408613168, 0.6024096903626506, -0.930095984457634]/1.1515547880453363
