Lh,16
0,0:[-0.10765442242904455, -0.3075772352040038, 0.3975245671374963, -0.4410460539529584, 0.7083727326016278, 0.5368720013754074, -0.04663433238561154, 0.28556676245482104, -0.35480468615699756, 0.7486414234785259, -0.1203270503152134, 0.7644563889806546, -0.1514346032592877, -0.27667103533066517, 0.28184767962513035, -0.8492519382991501, -0.9215506121429426, -0.31746898253033295, 0.011306991526062182, 0.7634226705158473, -0.6129201158485407, 0.15841887097567708, -0.7553889360895996, -0.24670490676970425, 0.26584801226000154, -0.2218617187214318, 0.4836850234326804, -0.9367492058993347, 0.9599573975609197, 0.9085234738394574, 0.6273816082563173, 0.12204641336314803, -0.6886647414178839, -0.8254722480268737, 0.04482962821099146, -0.3827341268853959, -0.4655789884420005, -0.8637486169515749, 0.13324815802290324, 0.32612556308196394, 0.7803505163759907, -0.3879311795757068, -0.41418302358677694, -0.4071426687302868, 0.8225614313876888, -0.048905906650689834, -0.2103852903518828, 0.24814689689910807, -0.8545441360647101, 0.1805886395644305, 0.24541751348947982, 0.7956597135054022, 0.7875557708067171, 0.8354593928455736, -0.9010246999799303, -0.08500425488890984, -0.13272547214581754, -0.3402595565635902, -0.7843416263784542, -0.7236911560963477, 0.7027692388501892, -0.847474733761646, -0.7343417564789609, 0.4771137884002148, 0.4262958213964385, -0.6915960036553515, 0.20120093940004846, -0.29882148918788554, 0.4561243424713548, 0.25743868665226466, 0.19093685573518515, -0.028798584899374147, -0.3577954956934193, -0.773378103316898, 0.9280120924793629, -0.8838110610238363, -0.5124356356151161, 0.9075438344424342, 0.39576652140953206, -0.363898865489368, 0.2384008516710725, 0.8291134382139107, -0.7468189008652439, -0.4768700446754046, 0.4863626887721699, 0.6277155728634249, -0.9828135048805964, 0.7467882306430755, -0.29248038599098836, -0.8865402093521861, 0.9610699371751286, -0.3832786123984291, 0.21797332868135522, 0.7116560743597098, 0.6184474218654679, 0.5544156775185549, 0.3885260341478298, 0.19367270793802938, 0.4199368850377072, 0.39965671418889315, -0.1828424586680042, 0.5105074787772375, -0.8336059842024481, -0.8770254837138782, -0.09780298742154114, 0.4378983364641891, 0.7819309057347732, 0.02277131104020369, 0.7357955838442602, -0.7843432874309284, -0.5686585926601626, -0.07032988762445314, 0.627519732586346, 0.14270450783983324, 0.13831366443286708, 0.37337421926166003, 0.39941044330095044, -0.9449353055536631, 0.2886819373885343, -0.23177453005090176, 0.0288301254924499, -0.5630139336654418, 0.2667806395403318, 0.45496629278126033, -0.04647574945996413, 0.7708473457924871, 0.9625528637217329, -0.5608254952690503, -0.3647671724338457, 0.42878161234688017, 0.7930921658655974, 0.47940934125247847, 0.8690771092947338, 0.24788077303893852, 0.944249260685007, -0.4494944688685254, 0.3786523524061849, 0.6748165609856462, 0.7536383251102765, -0.390079082097224, 0.41861403894022464, -0.12078110938044051, -0.008708377612199225, -0.0660698506412023, -0.6045733982180965, 0.9772734363704705, -0.0982282288194436, -0.7972119665434527, 0.47717283408346933, -0.9858675681835631, 0.4579620432646283, 0.15236211811360145, 0.23424533831027117, -0.8308707994986109, 0.9326654673112371, -0.9070486213540148, 0.3392195777675815, -0.22422875225271333, -0.3831051526121423, -0.9436909168550913, -0.1604031496450249, -0.0887855592557465, -0.5000236580540569, 0.2339708566845735, -0.2575359481781996, 0.29979187626307335, 0.8891037613315975, -0.4379720280042545, -0.24975849792808047, 0.6914083127431732, 0.28325021229778025, 0.6461977145409772, -0.685941280335568, -0.2973363535689477, -0.7931802327086506, -0.7511330636408782, -0.41319504603898616, 0.9340857612158657, -0.2503736642909411, -0.8045780657572033, 0.04752290746877219, 0.4088953575031675, 0.8008854238760292, -0.741508213632541, -0.7818293208251967, -0.10042891378794727, 0.7635912128238207, -0.8486255951655852, 0.9055143086335462, -0.9545814870057239, 0.5423013926942231, 0.33219463956793494, -0.6966091324912929, 0.4212521189098992, 0.9997850736492482, -0.7618047624359678, -0.9796622037756968, -0.17834506501791325, -0.5452938908652314, 0.9608978460284534, -0.5839637806030609, -0.3157247915368011, -0.44964352584528045, -0.6882810341584737, 0.20711740612528162, -0.5303500560943528, -0.30295219573587473, -0.1692583548304507, -0.3366828501580674, -0.7368144021515892, 0.6912712666426455, 0.5090170157743588, 0.3917774456987384, 0.19147951573081312, 0.7618198227673971, 0.5580492621666666, 0.07865373632250705, 0.18918667127949895, 0.7843145849397344, 0.9478347998350853, -0.6803422333984626, -0.3170542486349004, -0.4422572821387756, 0.023651770156168705, 0.6730871546523882, -0.373473631726601, -0.09540010185383463, 0.2297587085626478, 0.5293767031303069, 0.2129408512736184, -0.8369522910892053, 0.9578834291145621, -0.7773031977489115, -0.8219763381396346, 0.6551783197278209, 0.059318345275982454, 0.32933447912345915, 0.7702612246231719, -0.11949805602274188, 0.29135613343521305, 0.9842295636221536, -0.8386251952237265, -0.4912675970889544, -0.9667017254151458, -0.04476028487931161, 0.45405355405296355, 0.8142226808890973, -0.4868677207613641, -0.3950881424787025, -0.3577164690753438, -0.2819033367460486, -0.9125126538443475, 0.6723575873199965, -0.9360839119078437, 0.5528059891959254, 0.9012800873917974, -0.07466128673627437, 0.43806780490889086, 0.54052162565446, 0.8782558843878281, 0.41740105248502735, -0.258222613184272, -0.9642345531249144, 0.32538799831492615, 0.7144902416429184, 0.39912090684782386, -0.30992086468556734, 0.4711889295115015, -0.9158454092890409, -0.43218439320936075, 0.09028098680005314, -0.16634755539691715, 0.4888830253776184, -0.2358863144745429, -0.7932634316516813, 0.35755336758237055, 0.053756815834444804, 0.6533211471052272, -0.10051205475514813, -0.5210563359384734, 0.5489782122777147, -0.7595940583643337, 0.13324479854858717, 0.21442682812099823, -0.7607714879462024, -0.7401559077205653, -0.7565221158072244, 0.08982122624046895, 0.12625568025038802, 0.6656044326642356, -0.3565504735419185, -0.3022332749099781, 0.7377731369759659, -0.902501228524069, 0.15712587118374666, -0.33207964575276216, 0.1289977512030358, -0.7987525902002581, -0.4193335264656797, 0.008097875974356628, 0.4779879416338795, 0.9680166895605553, 0.2121909230345833, 0.4716360518144609, -0.6549745699606575, -0.21447807735729763, 0.6483447523561121, -0.36370136346546267, -0.6186158950360245, -0.6668940775239491, -0.5122605284881614, 0.4728283452430986, -0.10075909841461028, -0.4717563187760003, -0.6573219869931992, -0.8833549177824336, -0.502674408677191, -0.11208550929564542, -0.908211490738225, -0.9392773188869472, -0.9763649044011968, 0.37277206928667694, -0.727317010060683, 0.8009658504188415, -0.4613315302291148, 0.9073450602713753, 0.8822150955082881, 0.4997302946006874, 0.658398323889124, -0.4905795024539079, 0.14605330723379462, 0.04911592667118514, -0.748277080141577, -0.0603929736833928, 0.35314083906801397, 0.19442486051310404, 0.5974699213940489, -0.06372067936089265, 0.23204165585223424, -0.3939097611583011, -0.19940221546805748, -0.5667789020563971, -0.7917952078710044, -0.976425287391365, -0.962361172845656, -0.7745656538776231, -0.9655058889593688, 0.27369678901513206, -0.8159292035974302, -0.9913708514745208, 0.5817546979231873, -0.9461796794987067, -0.03040791455419445, -0.8490015718103179, -0.2022426580392147, 0.5938061660331808, 0.515779810211864, -0.7586595814491475, -0.4271452557540576, -0.7846366406983332, 0.9493665349387568, -0.8044079110787208, 0.7343275167812586, 0.33816591939951635, 0.2227865190185072, -0.9434247596984782, -0.06448126884281247, -0.5638216341991422, -0.696814886827493, 0.10843807672054018, -0.9572774463628408, 0.46816415135724965, -0.4230038624892789, -0.8737278421340253, -0.08355997557901085, 0.03569087989555397, -0.08524049099104403, -0.19018737747038816, 0.5998074262493203, 0.1955584497223959, -0.9953189733486949, 0.1998198989352271, 0.10810004813472385, -0.1716185449692713, 0.1874389812593833, 0.8239993175477278, -0.09608798831912191, -0.3972724178141387, 0.7824589007397518, 0.4194549378013115, 0.8697396976623757, 0.6364367016008989, -0.061696213023130886, -0.12036329638722254, 0.04584119645976559, 0.0016333545456086451, -0.7640493690684083, 0.32255924262079305, -0.044415267636900735, 0.900900572039856, -0.8470143133389547, 0.22629158288417117, -0.13910953894737976, -0.1454856994364353, 0.8221775497151684, -0.009425662356848719, 0.11254124368737273, 0.3323816148570431, -0.4683499503231141, -0.24060531142274422, -0.22001166237441416, -0.2950708462623992, 0.22486557802630802, 0.6073416049501148, 0.7880410055049942, 0.46080612740142013, -0.8829938877558134, 0.13120007732142613, -0.25490924106491764, 0.2841757899045929, 0.4519066509717786, 0.26021869290589117, 0.3800845605997134, -0.9751396836098052, 0.882336973612518, 0.7989719554810133, 0.22754514226108236, 0.797236097041939, -0.401571070757369, 0.5037954950742987, -0.44718303187063846, -0.1569884684429157, 0.7575499997269652, -0.8605701607128706, 0.03584376707487902, 0.9647000517201072, 0.874396048569392, -0.44248661181507054, 0.34732762188120536, 0.49007584207705057, 0.5710840593434472, -0.5097462397242241, -0.7023643908573791, -0.10527928292908939, -0.6269943815637953, -0.3226461122594553, -0.18961741024685064, -0.5222047024887331, 0.9564858869464694, -0.8413405552217683, -0.7143980426303187, -0.08745013105315702, -0.3806830369868319, 0.9437928472418984, -0.9850177685627173, 0.9635155519456713, -0.9661146210453038, 0.08285949605997289, -0.36956660088319904, -0.11511308096182504, 0.2944719256884871, -0.9387125884479741, 0.9532570854382025, 0.7451636479316648, -0.9842694779595562, -0.47314654618787966, 0.13826145046982363, -0.4737415419224462, -0.5082257679075513, 0.05625402591313611, 0.8068334153064893, -0.9767283154918922, -0.907785443208041, 0.9053319587505195, 0.7855331048159322, -0.3610989833175626, 0.13505910703913515, 0.27920887423159724, -0.2624146228472646, 0.04093142039603914, 0.5104201958379588, -0.08603410164127978, -0.02740608026754865, 0.789052229403491, -0.44756006582863717, -0.7188360800944307, 0.14882202825419033, -0.8319311590161682, -0.8799065147342449, -0.8556986706002834, -0.6182213147974469, -0.015424663202124878, 0.146313787582113, -0.22326562309127218, -0.1934093632238436, 0.8553346540328424, 0.14094203912317527, -0.08496356157545848, 0.7487748631717472, -0.8394337627133308, -0.6334520411743163, 0.3681037501909654, 0.4825465937999531, -0.0619288835736318, 0.8369963262109059, -0.851420765308166, -0.7112362214236865, 0.46809007690890025, 0.7959738487325534, 0.47780320142667265, -0.7968951949156873, 0.6599758760359296, -0.8865465964235875, -0.9591812675225067, 0.06382792441158913, 0.2817404307432203, -0.44331367907719943, 0.9165704472208136, -0.5084174755645576, -0.13701966625767348, -0.4931575964789565, 0.29109883293210603, 0.32558679813010727, 0.8571255747988058, 0.4014067152313552, -0.19802096831119753, 0.10259389259137253, 0.6955054183434781, -0.7080396086057146, 0.19856142502275897, 0.5738112013304042, -0.301908175214989, -0.6440644865854503, -0.11882618567257297, -0.6951710226922443, 0.43693976621804964, 0.930841692751815, 0.9317165113866133, 0.27462556757316325, 0.16899429202768923, -0.5428589627589273, 0.7697197397549365, -0.09926605834258373, -0.4215118174130268, -0.9176551020600399, -0.7428628775044319, 0.4036024160744456, 0.3049379554544973, -0.1848872211762409, 0.4344353185459302, -0.4060172197687928, -0.7599279519655819, 0.6709082953104701, 0.9060950129929275, 0.8991887189289418, -0.45150359312675925, -0.9737858290901309, -0.21490287678609654, 0.19813592570839234, -0.09510027070705807, -0.6076978303481826, 0.31567893250074186, -0.27472374242989095, -0.6040978228650611, -0.05386449841651797, -0.5620456898203945, -0.8283479903029398, -0.20949821492270781, 0.4155737190855353, -0.2565412534178926, -0.9566914747701027, -0.2918210721575958, 0.5808867803487809, -0.7549383257853788, -0.5887654008371552, -0.37490669427494305, -0.7020257572506834, 0.16585673286033797, 0.21105609318690566, 0.026959993959235318, -0.5595736428962039, -0.26949125178181066, -0.5658251652695434, -0.6058217926037741, 0.11390466909907837, 0.07162698835797876, -0.9081188944519325, 0.9702629770632027, 0.45306570383969724, 0.4820614917718513, -0.42550008096449043, 0.8929063589503903, 0.18059877021409632, 0.6544292053468543, 0.5936500652173562, 0.8441681859146173, -0.7643251184956441, -0.17836785635521402, 0.29658479477285327, 0.2457808636151404, -0.8567582922061483, 0.11932669011435038, -0.8086655616111376, 0.6758924921302276, 0.9660051538488565, -0.5586534677206634, 0.8231197719894072, 0.8802462360589589, -0.3177796440764249, 0.5376294150199845, -0.6067592780746367, 0.7584669738701622, 0.8956238129100247, -0.9926774205326467, -0.11611342382170364, -0.8488446212627196, -0.3042386941416457, -0.6816076326071139, -0.8802192670636408, 0.20987903894233395, 0.44662405673028016, 0.4056420594514969, -0.9739737108918087, -0.29977560009476245, -0.2654896517733749, 0.7345046917506974, 0.3017454010997771, -0.30059213300378307, -0.6880431404176024, 0.20422817882403432, -0.5227622937044221, 0.9863031438963588, -0.2915836566062089, -0.27444588528068925, -0.6177855393609355, 0.1871125873531303, 0.2517689376838652, -0.9193094165101323, 0.38688257899809764, 0.8460345613593958, 0.75513737055639, -0.29955786620059, 0.4515161945284065, 0.5723303124124357, -0.1251586998019194, 0.8495269070963354, 0.82891474995531, 0.6142655237620491, -0.4306362623356146, -0.5626231754262316, 0.5766839240400861, 0.3926011106051688, 0.8158619695013216, -0.9923752629327653, 0.8908412491977387, 0.4486873558018314, -0.3777276836535457, -0.1102802508660834, 0.28590474129924814, -0.016189943167732146, -0.7634232365756646, 0.6066615933020394, 0.2818763986195738, -0.5326864485335576, 0.5638928090878599, -0.4851345458548151, -0.8433506384585738, -0.7032512255480574, 0.09247773350972621, -0.5721084450169929, 0.046303807510124306, 0.8720420039088279, -0.9225483302723116, -0.3756287918861281, -0.21461827043639659, 0.32092644964990047, -0.3245177093574023, -0.6378082857798684, 0.22008897996662258, -0.059810341537040124, -0.6146619855339381, -0.9094443499306697, -0.8054543862975372, 0.3775537429883804, 0.8761688978936903, 0.2767789948900494, -0.295588488525647, 0.5385266329477694, -0.8227619333050467, -0.9312328279565916, 0.6814989482321689, -0.40114891639244177, 0.24749653968016516, 0.3168323694156452, 0.5042811938844958, 0.1022633592256934, 0.5327751015681141, 0.9425757522713545, 0.9245575463969922, 0.7096314736466611, -0.6696831609524212, -0.12691109305360015, 0.1410541992914469, 0.2959647709433282, 0.4355807192453933, 0.9223495108640578, 0.4285227703712877, 0.8037863436428889, 0.02436358164804653, 0.008227293755827647, 0.8892002205195846, -0.18848170963516342, 0.2819713880046957, 0.9372586189790246, -0.1033487001679314, -0.5108165437171877, 0.7201460528676213, 0.6783137142232492, -0.5844551108746059, 0.4546951527373837, -0.27571038053359476, -0.24686374003469536, -0.04650024233061223, -0.12776196420678287, 0.9594057857688278, -0.05987843724605102, 0.47350104381379876, 0.49294037962470005, -0.13857545788222936, -0.5887026320782194, -0.13287398937950368, 0.9387742197631443, -0.057716245241369535, -0.6149842870610385, 0.501090522472339, 0.7497032490814084, 0.9524983002000167, 0.29221215287424074, -0.6420869249543815, -0.7144664822476174, 0.5591962178455567, 0.4399618477741172, 0.7600486705256784, 0.5315590268919062, -0.16033654984660206, -0.08780391679875543, 0.06578925399676816, -0.8064062239794649, -0.4678873411271838, 0.26306569672682967, 0.7334578631316844, -0.46257231828256273, -0.5174185344507787, 0.21363314143483958, 0.6949551836929999, 0.21056305391106545, -0.06980387963669776, -0.9972599685842227, -0.5324647846640855, 0.994052701223906, 0.42716682566989994, 0.34218755576304893, -0.9890906364539291, 0.06745323842896744, 0.812690297223114, 0.7818157572586881, 0.4445064901219762, -0.25397197617212175, -0.8547487395166191, -0.8128079950824088, -0.09504425361839441, 0.5312822156343189, -0.6005533863390553, -0.18538791446824243, -0.8867661885797489, -0.12503232756432858, 0.7366190206342653, -0.9891403936322847, -0.6247241949402644, 0.8806072265595204, 0.4423350897536227, 0.655214412999948, -0.35961384438749566, -0.7982239794993915]1
0,1:[0.46752251962609814, 0.3548697169872099, 0.925295934022351, -0.7516045535660254, 0.8640918681631404, 0.873222347645402, -0.6643033927692199, -0.6864161467591983, 0.9080224382024198, -0.4390255664125149, 0.8858092061696996, -0.39181071001268886, -0.20336891153501724, -0.4403462617878078, 0.03200681334916178, -0.29340791165949254, -0.3007148915362381, 0.7419678843421216, -0.9491987386739542, -0.10913825804795052, 0.034595743385340993, 0.9222083748409773, -0.5673438043584051, 0.08576415091106071, 0.3047841864472425, -0.1457714066530993, 0.9972325573401235, -0.9973549302180023, 0.7742846012348679, 0.7384858097599651, 0.019075557289583767, -0.8972140062972718, 0.4875128694556232, -0.13379653029634087, 0.7242068117649534, -0.12124202065443912, -0.9038129871839455, 0.5785544304555474, 0.03151842640407443, -0.6496758876419302, 0.4010317284827791, 0.08614985606477621, -0.8576119648116103, 0.9130749672237652, 0.8047339357385435, -0.6576054870732773, -0.01226351419455729, 0.15875914988994966, 0.9185458523004568, 0.2303334043246701, 0.24192579561491967, 0.5722560621339641, 0.5318630720982669, -0.7311649910514331, 0.9353379897386296, -0.637042229657977, -0.3589578454673399, 0.6756090143631157, 0.2901851211631543, -0.29897021235083066, -0.1994813303228069, 0.23613048674683124, -0.18804976623856517, -0.5369959753620517, 0.211458984070501, -0.5239046163526759, -0.3623163090147312, -0.649304732725348, -0.4514325243869899, -0.8148420487045196, 0.9644207803736875, 0.2439355482168113, -0.9003589040667286, -0.11282216959593816, 0.5119484032251447, 0.8696712382580873, 0.7625999528064384, -0.27595551484659, -0.2746218349261693, -0.3533241895353252, -0.7311255538885142, 0.6683385498281458, -0.5920040173551184, 0.7681764959290298, -0.5750938934936909, 0.14680562943343678, -0.8711581826253891, -0.8799840331321649, 0.26404604877280513, 0.8916256504294837, 0.44756244459190353, 0.16292544331407055, -0.25078672445449035, 0.4111359937120147, -0.47118503574708703, 0.4997709634784646, 0.6089436109644215, 0.5283731178839117, 0.19318368674167163, -0.9431193235941167, -0.6060889565241585, 0.3469827716386662, -0.8096794571326027, -0.1974347412398414, 0.027551549517202956, -0.2768930195469772, -0.1733531505563617, -0.39908845123911574, -0.9067049002853951, -0.6505115132914425, -0.6999489051640548, 0.498092349951782, -0.4224176822950294, 0.5011459136500278, -0.019326582178434526, 0.11658222108942273, 0.31660829202923657, -0.4324735833537854, 0.5724120013307323, 0.3490117000606754, 0.9281857264075735, 0.23144924167333758, 0.3888108928404197, -0.023336984906617175, -0.00841667860163997, -0.6688429815444772, -0.04543969862662345, 0.7894386807502518, 0.8087335578671189, 0.536076772819911, -0.7459308488917549, -0.18670719820844628, 0.5703889227669163, 0.9532691002032088, 0.027048349951243944, 0.7724081357644081, 0.08831437532247399, -0.25892842550089945, -0.38705180961914465, -0.7085750056059512, -0.8849831479291428, -0.524006677887574, 0.9408757607480458, 0.13894132203052068, -0.6828272813475686, -0.4831971492998026, -0.9438982254069526, -0.3024530616476846, 0.9216387259591645, 0.028376636731229032, -0.4591080801661369, 0.5148730029427633, 0.2553657075512761, -0.4960543902768977, 0.2674559864701349, -0.3994366733672987, 0.565066674223603, -0.6930665881188842, 0.5185734753421367, 0.3576048573745305, 0.3753434985025088, -0.7572242362956803, -0.5526940279240766, 0.6142543368570561, -0.5593367549876755, 0.4279470966891259, 0.9646025159415423, 0.5211809793625588, 0.10512512966975152, 0.8408164193915568, 0.6291952090371717, -0.8919930350682956, 0.5947812114141824, 0.4789086064159951, 0.8303354234780826, 0.07296867189482903, -0.36630321293950896, -0.34361367410134824, -0.742065681180027, 0.6623697807641484, -0.607529517814005, 0.40340833940872156, -0.7806829414110386, -0.6963873125739701, -0.6235646355136175, -0.03125793615931283, 0.6706593213661538, 0.384835070665166, 0.38782799441913673, 0.35281976248598457, -0.1344526125012917, 0.2601859839520737, 0.031533202007541394, 0.6809710047185966, -0.5502235970711586, 0.8577688865117199, 0.9792862459402312, -0.4509746449010925, -0.4199887664805131, -0.6348333304420892, 0.6802050106088953, 0.013893254409771849, -0.4932745077715084, -0.2291607260537789, 0.47205330056587513, 0.582132673083742, -0.7283544184008726, 0.4599023370417499, 0.7270452969490793, 0.015501903752560997, 0.8196506054074457, 0.5096103722434029, -0.9613017772297932, 0.5500907600384397, -0.2049556305449869, 0.9935111362694873, -0.7581476119000468, -0.23616081807571, 0.22143618100204643, 0.22972132815687418, 0.4052968119750968, -0.6644736026798259, 0.3208736806289991, -0.7646544628757728, -0.2802886005593497, 0.8335580364619837, 0.8700021410900032, 0.6568566379548, 0.7028936088526758, -0.23513529872213157, -0.1600769842739569, -0.7385672734250568, -0.29516684443596075, -0.9732262658878323, 0.3055597948022266, -0.8993882894693639, 0.5086459322080856, -0.7908707301357152, 0.5093060361669277, 0.5705228359347418, 0.4586346762140254, -0.30904227030914777, -0.6918335348146454, 0.6369561471369689, -0.19670459931906836, -0.24377374134787178, -0.3409341581744654, -0.029509864302232458, 0.5505376799542496, 0.06364036699377995, -0.6079745282728344, -0.938468360190089, 0.40738511039511516, 0.5709362201442516, -0.15627967824914535, 0.19478824330766997, 0.03080713034953053, -0.031076768853976366, 0.2628421043045206, 0.40176729779445863, 0.8578657968492995, -0.8399646406624484, -0.05745408369138505, -0.6901160006270282, -0.20858492989829402, 0.19123150408963108, -0.4028841662528071, 0.9532398243618221, 0.9414578849415174, 0.9944476553724915, -0.7411435557003265, 0.6904715306054621, 0.7488881853415144, -0.5165930283970643, -0.4997777118945399, 0.07706391827122827, 0.703643285602424, -0.002669204494162525, -0.30349914767758035, -0.1288933714434144, -0.9080654166253133, -0.13673531274600914, -0.7042349097145668, 0.24631241276317795, 0.5232533205145746, -0.23843101631602326, -0.6077927017472324, 0.09729013909098816, -0.8897470920955648, 0.8507135419901575, -0.49173034451323705, 0.3097070249945699, 0.0038166835763842055, 0.6996261387404707, 0.16626567473136533, 0.43738676616339767, 0.9032737213111375, -0.9101688991771475, -0.1402023589104313, 0.46177634688162406, -0.09447477706173113, 0.0978423128237309, -0.010139516560464745, 0.8052416678636052, 0.32153295049851893, 0.3416821349766461, 0.2252714031330636, -0.9893577956448025, -0.473434781643044, -0.10045136580318292, 0.8607998603670246, -0.6858397998711423, 0.7337014753801872, 0.5596773758730786, 0.8484541143621493, 0.009109069401998848, 0.4445739053446893, 0.1843635110056514, -0.9631337172228169, 0.5649049544901781, -0.12871951780827606, 0.7303894494830192, -0.21423464478685084, 0.8181404897605469, -0.487577198604793, -0.5557489087691587, -0.9996537404464672, -0.8573559802047852, -0.9658720662473181, 0.31381333058136773, 0.45312425314768934, -0.06443165742561385, 0.4978246005669915, 0.9752703612695397, 0.8909143983931256, 0.9559697751665124, 0.6695946655864013, 0.8669588253765463, 0.9080879356464944, 0.4035580174747351, -0.5882147519740653, -0.5072201375588885, 0.910372214710609, 0.3396501389746358, -0.280914272370113, -0.11673015600479641, 0.817153646064749, 0.9110198745053375, 0.12261251344256174, -0.4999802814354115, -0.2604281667565742, -0.4593032356727269, -0.9370600854531479, -0.5620296992883467, -0.531954533226026, 0.06819174162388508, 0.5188350362971705, 0.49145444396781746, 0.1879438821282875, 0.5025731482691784, -0.48233212023645655, -0.6732857165286965, 0.7903618977965905, -0.7875814899299287, -0.1560595547745407, 0.13225571099213096, 0.6416727440847747, 0.6888226226980354, -0.3903102588735827, -0.009718302443839422, -0.03713291072403058, 0.6454144790558611, 0.7383941453576186, -0.9068482206785669, 0.2164215349833878, -0.9618674172274553, -0.059471681066513016, 0.11803409574212398, -0.9488351774696986, 0.8664672218523817, 0.5911754584763604, -0.9442026770557339, -0.12298608431289915, 0.4829255017697853, 0.6570900909361201, 0.6548469954250891, -0.13299988843236177, -0.5674334717082448, -0.08920431947341312, 0.4426062469229717, -0.8250687980881237, -0.6823432504318592, -0.8872473072196789, -0.4904396054593245, 0.303231802146235, -0.9879936973172188, -0.31293817969902293, -0.5117902298712262, -0.7003008857875381, 0.8900133367212282, -0.14768207101124053, -0.058182832396272754, 0.07739850282372096, -0.4858742503932407, -0.4895546284042094, 0.33978084646634454, -0.4983326988621881, 0.8553921179427708, 0.9162175406442143, -0.9520019517900782, 0.8136090079895992, -0.1644286190624804, -0.08743648200293475, -0.5420203801999115, 0.6505609940486046, -0.8834418374180086, -0.98671847809413, -0.19932855754954293, -0.5916215203218584, -0.4165997679778648, 0.27752819965288245, -0.5415108251057184, -0.7982199117318121, 0.3456657664723539, -0.17483003926729812, 0.7931317146269481, 0.840105346570432, 0.8881418695139893, 0.5014741828456701, -0.6599673905095937, -0.7827607877485108, 0.8952036049936081, -0.6343560619597242, -0.5915151365860742, 0.451604760842653, -0.9350719645489682, 0.7264327611152583, 0.6011767434355024, 0.11858590014008441, -0.4895332359899969, 0.018617453793490668, -0.7901645924878309, 0.22314238827406396, -0.1335725224741724, 0.3854778860065793, -0.8266339624303065, -0.5984104877975711, 0.9154640696943608, 0.6650446198561584, -0.42726975574747317, 0.21129430634534807, 0.9765870719071275, 0.016796121029683864, -0.6747258057534011, 0.7798135166438522, 0.15477862720828184, 0.956091441960963, 0.32238776146819714, -0.2789010301432333, 0.28300327151884574, 0.7858185729136329, -0.38279543554502626, -0.7462798305631717, 0.9662175258544559, -0.5636783509719194, -0.5825894689748949, -0.41889765942311374, -0.3722409032694003, -0.3553820879447258, 0.9907230376536904, 0.3411048822326055, -0.48244832757072165, 0.22901472167254044, -0.33675303850128646, -0.7183419644903222, 0.4102457502010899, 0.16795438131241736, 0.13623118592679395, 0.8765821463253403, 0.40404470432946216, -0.6216249209267015, -0.698371597450121, -0.3285603306038163, 0.9821932118676477, 0.20964907059756244, 0.8558020400532191, -0.4967501993576804, -0.5504202338812769, 0.48130906146919505, 0.8321852983332467, 0.5668574783238671, 0.1774278625607737, -0.7816138557277745, 0.5197820591204954, 0.15353319220233552, 0.49135125392023316, 0.49398959918150265, 0.15227321118870618, 0.4813704213165546, 0.08570100013175419, -0.8744944464431994, 0.8014011647999157, -0.4565304580764269, -0.790505098349815, -0.4373234015998986, 0.9058467902800929, -0.5982131220109062, -0.9079254349111217, -0.6133150432265522, 0.8185217019806144, -0.23039153288351066, 0.16751129174533252, 0.5263357545220808, -0.4871122396389862, 0.2633673720356451, -0.3514375961641576, 0.6622450992912265, 0.7757684806636309, -0.35458144484547516, -0.915481524228094, -0.03115849988918229, -0.8938849870110595, -0.7647371671655059, -0.9860433951369489, 0.3075383075839291, 0.6174671640913236, 0.8773243697359192, -0.9429186008681898, 0.9913494722874225, -0.598190920238074, 0.9505044539658145, -0.562076427293789, 0.9344731314823174, 0.8505767598766072, 0.3734417851890528, -0.7407364478225145, 0.4697985531523923, -0.05777833099191154, -0.4248306993496924, -0.2699139444130845, 0.3401966743327003, 0.2370415994856001, -0.4983275797570803, -0.352144679208368, -0.5306115354174883, -0.8087339826540552, 0.27089827784511034, 0.3213777748489439, 0.16799950426132582, 0.561610889559506, 0.12660803304150314, -0.29527386831698066, 0.9355239996860321, -0.17337489627511782, -0.4515427061463546, -0.4583459260119107, -0.3252022152661196, 0.2270233314523178, 0.062157595660052634, 0.4383581303443722, -0.13079304143443005, 0.23272489733020207, -0.9904383132974606, 0.5030042693922809, 0.04464571895940761, 0.03924628146057896, -0.4077587414660213, -0.43374197784926816, 0.43445724440339517, -0.9445005407176532, 0.09890881937582874, -0.36586962080251806, 0.32059823939389553, 0.6118168241126078, 0.6539408727682243, -0.9962169334615307, -0.7545659612596984, -0.7521707393987012, 0.7134685983571989, -0.5318264650945301, 0.026777364657505798, -0.8781133425647285, -0.8219313211620718, 0.2759313215832835, -0.8348486123729675, -0.061306327436102315, 0.3758682584025972, 0.3247765971544274, -0.7403299669621506, -0.841673214207519, 0.018844380684313045, -0.7193486637811983, 0.45009773073179327, -0.42911594748868365, 0.8787149139172892, -0.8782234117291674, 0.8875769880192981, 0.9844301650643239, -0.8219438447555059, 0.6585604350678909, -0.08658588375566723, -0.9028312515104246, 0.5049019971942796, -0.7658704781770913, 0.5775254593600354, 0.8128591905943066, -0.6442897011543873, 0.9406224300679336, 0.8886748784967038, -0.48474824087152757, -0.7982287092942835, 0.0011383942952651882, -0.9184048730076295, -0.035496143280108416, -0.8208317239268239, -0.941670295674194, -0.3498820963341627, -0.4710175415895965, 0.2824763664539023, 0.8658636231224752, -0.11353876581342082, 0.17638435067051716, 0.5888635334546635, -0.8375061098340173, -0.25386141216458014, -0.7166794234706901, -0.39456766592328796, -0.6325316496708708, 0.9184303542991499, 0.04043471180942415, 0.7616045144716546, -0.3432840579929566, -0.3230347846969297, -0.618141538955546, 0.6485577318539988, 0.9974549404766306, 0.5976060001993961, -0.5163548454311282, 0.6710361379159264, 0.2552202055873829, 0.3079388703966721, 0.39782390153281155, -0.8231638881237198, -0.3224844852439577, 0.5147312740429422, -0.19829662519619862, -0.29871971684331045, 0.5289784383665956, 0.571952543322866, 0.24423480667486897, -0.8995426653346796, -0.09025516813373691, -0.6719643733650105, -0.30931362833092724, 0.9271360897853396, -0.9062926584451843, 0.8925991907953343, -0.11626188691882255, 0.4644779121311051, -0.8885847248528764, 0.11772522219961923, -0.7454924969960044, -0.8749899988147083, 0.32817656507529147, 0.47150822344146226, -0.7484576552445932, -0.012000081969699705, -0.17155924568606484, 0.9819159095501349, 0.3199684634037283, 0.6183848093743078, 0.08492157447942894, -0.4051906372324334, 0.9633840509868543, -0.9259656257358744, 0.24314783012219499, 0.31003645929538926, -0.12809410683470612, 0.24302226800532756, -0.031594812086958024, 0.25163174840502944, -0.21480936260099037, 0.4257986290769249, -0.4950678132361239, 0.45900635834994374, 0.6625127803038073, -0.3858949254019979, 0.03572072608872312, -0.04807621240408699, -0.2918517534105296, -0.5176296212823923, -0.7645754218216172, -0.8406151111869691, -0.3358430298944961, 0.34204907291674247, -0.273457857784277, 0.20249288743853766, -0.740446892591113, -0.2902087900015444, 0.5163613031397649, -0.4317229742119302, -0.10520678133072425, 0.09647995389396491, 0.44487222419856276, -0.46308988237210547, -0.5924623424518145, -0.35133720735942875, -0.48444133541037626, 0.587030853490863, -0.2631876575219285, -0.6261814487411343, -0.18788528094445156, -0.6789351206220309, -0.5785729267708204, 0.5125126755237464, 0.5809210735779708, 0.5828031952310195, 0.6744012595943896, -0.1779848215118518, -0.06168411466946777, -0.814143776757311, -0.45091896883321425, -0.3005596946295228, 0.8459624241605124, 0.3357574941006718, -0.4160953612732068, 0.14600607246729824, 0.1538320074445798, 0.1104328396517873, 0.9365385970311912, 0.038450373016879036, 0.016232517391337575, -0.05495757183939309, 0.9985026081795532, -0.16212148465250165, -0.7228573088743842, -0.2636528342539317, -0.0037614972038517713, -0.2383753532319033, -0.967364482121863, -0.7088571021904453, -0.14416161888382084, -0.9511833955602862, -0.7685272804483161, -0.40477532356549717, -0.348282739819858, 0.5910474485881612, -0.9549360909156388, -0.7022886059543776, 0.399291038155289, -0.41760917481654647, -0.41418795709240097, 0.7830015522303722, -0.2869642914579853, 0.3051978037765397, -0.0957629617649205, -0.5201995624341706, -0.9641022511568869, 0.9461166151588238, 0.5665957823170993, 0.11497908865394302, 0.33628689494527375, 0.36249961801495956, 0.4109932177086961, 0.8313012066338388, -0.07440927578320755, -0.6673427578300435, 0.37061566087982345, -0.25311454971992875, 0.5028269418834241, -0.8715985395154355, 0.6519106689918761, 0.8747618415983882, -0.34371700589804033, -0.9467374897523679, 0.3734557134660452, -0.9771737591884826, 0.8929220015574582, -0.2670755856141587, 0.8003098286583941, 0.784241574105782, 0.03988908658028323, -0.2145964865178116, -0.1703401051637199]1
0,2:[-0.8972559959930368, -0.9576367429918589, 0.02345759730427588, -0.6553090865652798, 0.4891821179909488, 0.7293843370315589, 0.7706584186761734, -0.35978270088736064, 0.5419450071171996, -0.39639065768728643, 0.7569541556005437, 0.2839641585911059, -0.9008432523722245, -0.10042911727759507, -0.7891044296902181, -0.1539963158752813, -0.3211011938408457, 0.4268402659623154, -0.32143368472750145, -0.6527048724922588, 0.7159506058312679, -0.6030971956433009, 0.7251080421789775, -0.4446867906386227, 0.9731409390729826, 0.06829259014450217, -0.3598674499444148, 0.6983184895857646, -0.36405883587025056, -0.9240837354402427, -0.027318647172924537, -0.1835378492855455, 0.1310950950086307, -0.4719535870257656, 0.6963232818777909, -0.450310693667038, 0.5983233185933865, 0.384468944866557, 0.7625395983200463, 0.032730056390372964, 0.10455657805971552, -0.28449795708050574, -0.5989242717937446, -0.5503612137930487, -0.11672028022190428, 0.43955888432999335, -0.9534105527032442, 0.5281719736606989, 0.10373379691870488, 0.10438659935826866, -0.30354291984003234, 0.48798637458926897, 0.031047894640590323, 0.6352627541948903, -0.32167409249941614, 0.024568553566634455, 0.4100866767412288, 0.9853234562565065, 0.15112626070981894, -0.7881477883750285, -0.4919934144641598, 0.08634572103096216, 0.6515163491264733, 0.8168741022301025, -0.8840509290414811, -0.4213989117459913, 0.862969479993527, 0.0016269154737174052, -0.7615889027283229, -0.15227697752020442, 0.13874713962438245, -0.5758212228889095, 0.21151548727148306, -0.9356840175058307, 0.11693170091943905, 0.12068046437409286, -0.027699736992820245, 0.23390340481394878, -0.969875644922989, -0.7642198326380136, 0.052344772386966776, -0.6937606629263509, 0.24017912783635054, 0.23154735595492393, 0.12757583223350188, 0.3868920061619614, 0.9121680744424951, -0.6149194371824052, -0.7829522201941068, -0.8958211252185491, -0.3301177657354364, 0.07055383935581094, -0.07814971514896452, -0.09017749841245948, 0.04063536425897407, 0.6801189352578756, -0.8512697823209203, -0.38630161994222245, -0.7743342676065494, -0.932163097816517, 0.1860863217764115, -0.8876369326204279, 0.9548023611264154, -0.27984950335518444, 0.14209886126483018, 0.391973398248336, -0.27247033030722645, 0.1811993850788307, -0.07588085395750555, -0.9806211344962572, 0.247274530474757, 0.8548283767674203, -0.8195029569070966, 0.8194096807638183, 0.77961564136821, -0.5231138848975876, -0.31958256248886596, -0.2968809916293975, 0.925681693339665, 0.11693515975371938, 0.9325707837638029, 0.9708376331954189, 0.11306000976484887, 0.7131592811885477, 0.6589234819336027, -0.12127531633646171, 0.8387424241513732, -0.1823451020696767, -0.5564326948061964, 0.027594247278495354, -0.6486707669640024, -0.9643631633478824, 0.39940414376027267, -0.7234032419601639, 0.9106327162181984, -0.19843514002355422, 0.7215381631867628, 0.3965141573323834, -0.17181869788240722, -0.12617603221390228, -0.1305065171932731, -0.9760572548385351, 0.824018367956115, -0.9207180395628134, 0.843990766696886, -0.2551057725082828, 0.06502218086346989, -0.7158436853341266, 0.09680219357008513, 0.6086319259615263, -0.04624070927866941, -0.45411618672396914, 0.6460437866591349, -0.2948814881360562, -0.5213798251486894, 0.8608310059241238, 0.1587658357187023, -0.8383262910351643, 0.9541006653597488, -0.19832723158260612, -0.9236849523612072, 0.01321760978162323, 0.23255874651833297, 0.6585255243555372, -0.3252181809285646, 0.6305681464287083, 0.4603171389773888, -0.6730899801357897, -0.1619132469977307, -0.8377738582347494, -0.25108243469141045, 0.5799565530742832, -0.45946587598083966, -0.39932777530177677, -0.6991115455636021, -0.4655415371006526, 0.6219509541024995, 0.8094242542582466, 0.29924529585529, -0.041152580290479523, -0.0002473887245515449, -0.26371064941112077, -0.7083330915360624, 0.7744984922765412, 0.04326232132316443, 0.3561528828876148, -0.5924026354466769, 0.40824397152939107, 0.48109378483285337, 0.4130746364972102, 0.6970558380736886, 0.9677824905959562, 0.17809105727505758, 0.01597879766264909, 0.9239116533529086, 0.17471919817616977, 0.6093086988924459, -0.9234809124268211, 0.7763103288813553, -0.3795270683553844, 0.26177459363634337, 0.7070453719553711, -0.43335944662814496, 0.27131537624775826, 0.576457934505979, -0.48171980244070767, -0.3884636718758234, 0.25860034320432357, -0.6261855359575794, -0.1460241968461633, -0.0002588863175627676, -0.208950414638164, -0.8617782578923741, -0.6073516598265509, -0.7925333921496198, 0.40203776772658895, 0.00714925821610124, 0.9740375905776564, -0.42208760081819396, 0.897725660444614, 0.07403585917965327, 0.7483209560157116, -0.7489927512343917, -0.7677276987200186, 0.8674501236782983, -0.0655627719640226, 0.7917220884941258, 0.2864201619885667, -0.7445934095035927, -0.059980960381144977, -0.7404130763731853, 0.796919818808066, 0.5936172487334541, 0.5068173839409924, 0.9670295507649167, -0.4485357493479938, 0.48489598170729, 0.8777595995838989, -0.5283465377890446, 0.9485845914400606, -0.9315600386828418, 0.7197129523791934, -0.7546470432040573, 0.6061190730369199, -0.9140500598875365, -0.9097767768719685, 0.5532253879081901, -0.43461553027041955, -0.42786982615266145, -0.42282873402726096, 0.48299282449760006, 0.9599553115988135, 0.00351945109752716, 0.7155489190636013, -0.9264714267997127, -0.094693175030228, -0.5843733858815161, -0.6664614219123663, 0.828545352202007, 0.8695287906088942, -0.05109477039722954, 0.6144780790166757, -0.0557934807460605, -0.616533021944738, 0.5216003060987882, 0.8956918874473834, -0.5365990728811405, -0.7867050367894122, 0.3525811674940187, -0.5637700883747592, 0.4539477404758139, -0.7328687368650644, 0.19889673671867647, 0.4839437759745451, -0.04684522588393447, -0.7277838497549378, -0.12529772564423558, 0.03676963999606686, 0.35833500154901543, -0.634670911473894, 0.4788638423465801, 0.7423170481884702, 0.22462569603229343, -0.7097991447612058, -0.105023507308176, 0.06906923285996247, 0.1831259927161022, -0.1525552643467707, 0.07043196998082446, 0.5224786578098561, 0.10149093961106881, 0.5264992694701582, -0.5246082573584501, 0.672744663180957, 0.5834097815357533, -0.49774768566983485, -0.05964150397824297, 0.938334749013066, -0.4070546706523277, -0.3517555268628161, -0.19214672367490748, -0.6725294331989877, 0.1851398674285123, -0.3026719681875034, 0.8588373840084886, 0.5204884060821542, 0.43120293630155415, -0.10196893823865727, 0.40766890033972136, -0.19663934179917208, 0.6935752076683603, -0.7887010891782655, 0.5374828593023948, 0.9580294723255898, 0.5152292006838912, 0.7131403380812023, 0.4529593818780291, -0.25321854039686453, -0.2796107083736665, -0.2533547169785688, -0.7202616559734174, 0.08323613405096886, 0.9454661143579224, 0.6187697717071485, 0.5248080637977262, 0.39061624337483325, 0.5473095060898259, -0.20368293116037473, -0.8482298563695807, 0.9810051318928541, -0.6275380478826, 0.5106454607871189, 0.5267850959968736, 0.9055595968732166, 0.20283500654567166, -0.8207669270679916, -0.6134659499558281, -0.28635550525723996, 0.44145345400463354, 0.855701004029197, -0.25038574521434076, -0.022513300167504635, -0.0791246444062983, -0.7112927536964737, -0.7526664349479855, -0.4419716222052297, -0.1487086236543358, -0.35249622365259503, -0.3019766454643191, 0.9766451930088682, 0.1550828372661892, 0.1542857842095382, 0.08918501120431288, -0.10670256432416703, -0.5657756057269365, -0.35595441702850183, -0.47858234942155753, 0.42290945081288234, -0.46154510625471845, 0.6149987276257671, 0.6083673617316285, 0.8671199273967527, -0.2840751574738176, 0.6898606390990987, 0.24468155069417352, -0.7086610297131435, -0.6191053383181211, -0.2580524186532298, 0.22356060237917874, 0.8982445127973278, 0.2448034845412721, 0.23137866237426863, 0.08502173697209625, 0.5153976321627098, -0.5306314013979456, 0.13717905545618825, 0.6262839515791261, 0.021938791735810037, -0.8624397271011621, 0.05218493515888856, 0.7584039200779467, 0.13764926810200895, -0.006623592382333454, -0.28269386791031126, -0.29262552164935873, 0.8722798829126579, -0.48437185395394344, 0.4208399188671832, -0.9377506656641525, 0.4564918981894177, -0.804817785940459, 0.9969473720185846, -0.4898396851689435, -0.0791724980915327, 0.5787801092419353, -0.44550714478550413, 0.7883823382161976, -0.5934527536569896, -0.37341368375650075, -0.9203569881602787, -0.37031819915428743, 0.1624140192133101, -0.9927297748571753, 0.6407596904979382, 0.36149367316725933, -0.18595416308401647, -0.8366212122517476, 0.004867977763188147, -0.48714113246635016, -0.3137508826605906, 0.3028184693809479, 0.6875871265532805, -0.1112190692976156, -0.5618151097832922, -0.7233566234642423, -0.1545987780043605, 0.21234335825977912, -0.547266762920479, 0.510971293898876, 0.24663503865404768, -0.6330383904522665, 0.5208232573479681, 0.16938188501134954, 0.3918289584939407, -0.5609318578590647, -0.01681380830583068, -0.3841731641199537, -0.008703484072607681, -0.0686941339712368, 0.43552618143130784, 0.9890130548834439, -0.8427340024597765, 0.5844584101265788, -0.2175834491389077, 0.8156588826799349, 0.13548295506409969, -0.6796888188139847, -0.712726075636164, 0.9056031863799376, 0.022889113058351063, -0.27454073964307923, -0.9425051624512524, 0.26735976342290857, -0.5512315473138389, 0.7255394367551831, 0.5686040899388749, 0.06351954003512716, -0.019426665842594115, -0.6303788556697378, -0.5942770959420736, 0.2540653603731753, -0.274205500180259, -0.6054380571815685, -0.5850620977843313, 0.9440532011667797, -0.7554887239475241, -0.8117543555471944, 0.25406239576711176, 0.800591028015591, 0.8816632719515176, 0.6325253562842565, 0.8885923886340308, 0.7246150270267384, 0.752297038373644, -0.48506302848861327, 0.17720587829835766, 0.4369809673924965, -0.8387252811955863, 0.1389679589962758, -0.8800134925160779, -0.96749286231562, 0.2606577844548792, -0.4823670627386938, 0.4765842607397035, 0.38176030729256527, -0.04437863812797205, -0.8988755791695731, 0.4686220887200423, 0.2012738941058494, -0.39063059982085413, 0.034742478462678195, -0.7249723695103556, 0.26793118143006667, -0.03669275761212121, 0.35644803761660704, 0.28610748827987154, 0.22404754442589736, 0.5130222810462537, 0.6879775187760522, -0.11007936760983594, 0.3434431397796851, -0.8477129784536934, -0.23023513373954252, -0.7112277479972797, 0.01353969960811141, 0.5956222349187523, -0.5333636951153902, -0.7012604585957614, -0.11752369167874899, -0.5469065270974294, 0.633598118619318, 0.20023389384331036, -0.4392914908035339, -0.6915210714189408, -0.5316139064385468, 0.8732681454901432, 0.38020960574171303, 0.752334487413775, 0.7400543565299673, 0.835962161560736, 0.4413314491671918, 0.10010861082145839, -0.20456238699003948, 0.4544249227257704, 0.6408077968642047, -0.9358424533143432, 0.3342043927587648, -0.944265549083319, -0.5231385557854837, -0.40097061169896087, 0.9173943582121877, -0.053986022258675215, -0.6709326841070986, -0.32425618223910213, 0.9646317542525655, 0.8805505108577427, -0.0036425122866445836, 0.8864329918476386, 0.06743762812645682, -0.789287879525701, 0.19644785433646872, 0.11068732188934027, -0.020264000664647508, -0.36604944855423605, 0.7484603792495281, -0.7542929271635395, 0.702650294310099, 0.7307911730219165, -0.6492531835030924, -0.4164393930323833, -0.17997287884915103, -0.10970352190889687, -0.9035756418911431, -0.47815060452690816, -0.010327543990518828, 0.5619004585368952, -0.8099239732064356, 0.5876150947203138, -0.9563547253492681, 0.45392199516067566, 0.9155677661281232, 0.6195604069481475, 0.7370447705027761, -0.5498718241137341, -0.38974457216005587, 0.019670030603943456, -0.8462888535506137, -0.9328719035312945, 0.8152757012399778, -0.9231685495360702, -0.13126906213562783, -0.67995258237211, -0.4599343285832431, -0.32779882473169786, 0.7737533407675818, -0.5463878433806095, -0.5261679515608724, -0.09719144496796339, -0.41077391122410134, -0.2993284855714706, -0.9877176541517825, 0.994722210799009, 0.5416173276636955, 0.09700349512757289, 0.3588490448002979, 0.890689558355904, 0.5000772364847872, 0.4490108481229049, -0.8390475042946595, 0.5541058589852528, -0.5313857561073632, 0.42746645948126316, -0.47894576099117425, 0.22767585328155082, -0.8378903301987382, 0.5059952246197426, 0.23327423095347322, -0.2170251707975177, 0.4678876248597259, 0.039808760721077974, -0.3701212460426033, 0.9604228204346013, 0.3920530408304965, -0.4553598935236567, -0.5220520706942602, 0.06580117986439649, -0.3815455012934501, 0.6503203803208468, -0.728447330648478, 0.998283624678699, 0.6245729738248407, -0.10786837852022568, 0.8246331886376712, 0.35086946671692365, -0.788035538666181, -0.4858889180742558, -0.6401957796329427, 0.9472767894943512, -0.7507434838978675, -0.1658794186395982, -0.5660286562840386, -0.8116384120889222, 0.7673220866964472, 0.7501368426890085, 0.2676624633563818, 0.5622489768386782, 0.870788822874101, 0.2657579009632298, 0.33425397141015645, 0.12883150487373896, 0.7850514500611911, -0.07054110644536205, 0.8327676638708799, -0.6073164895574945, -0.9861180063618522, -0.7454112568903091, 0.618648697593178, -0.5848078980080611, -0.5976536090873823, 0.5122952836513819, -0.3638840724347563, -0.502569568410925, 0.559854255979142, -0.6986091456768293, 0.30673658305181406, 0.3378901684220821, -0.28644393798962065, 0.06191677282519925, -0.9648032376110749, 0.22134361496245702, -0.36952795099576874, -0.7658370302534914, -0.32847527275770694, 0.031121019327594368, -0.13074886284211296, -0.35210589953850846, 0.31833888608429595, -0.8102500674627338, -0.45669999054245625, -0.22131199471531304, -0.9735827224115332, 0.2511817367859053, 0.9900467890268916, 0.6813717382043805, -0.595599822503363, 0.08031818973714167, 0.7734324785152784, 0.2717423358491893, 0.06823447123715609, 0.8457084563633344, 0.003802281960462839, 0.16910529127644303, 0.7374454518826814, 0.5680633424173174, -0.4491032878204615, 0.6500954970321522, -0.37579245628314584, -0.4208673667849854, -0.42117513429625886, 0.5840498819036584, -0.11788469388615685, 0.04927601576703, 0.5024936663204946, -0.20933910599616112, -0.4596787471673207, 0.37879416958480316, -0.6498572894730972, -0.4219889213725052, -0.3252390239488365, -0.6135258435096591, -0.6102753405033277, -0.6759786178580305, -0.39245293292511585, -0.07081092418581636, -0.34061000301821087, -0.15326312496660166, -0.599388143694626, -0.5449151494324478, -0.7730806528995633, 0.1829696798769851, 0.7628805560985839, -0.7569903974152044, 0.8156882512714059, 0.2417033470516834, 0.1936447974266946, -0.5149083721303158, -0.1980486259606844, 0.84367090937982, 0.0379609087939754, 0.7635189548857333, -0.81234203771709, -0.1815194740063193, -0.3364298009748614, 0.9930504251623242, 0.7535836634113922, 0.7802004554323467, 0.8888768798072417, 0.9334534378552297, 0.5098751099729149, 0.01621890990589736, 0.518680305016114, 0.06266099080239229, -0.08330807670636564, 0.6286357908831242, -0.5092475771091793, 0.7311672098984048, 0.8993857500778337, 0.5756990568677436, -0.4138663520829977, -0.6189495710007649, 0.9993635212419263, 0.3776117095908291, -0.993740316508176, -0.47038846015341607, -0.5505936696373352, 0.6919931413326179, -0.16241109587408364, 0.2275738213771643, 0.43479972374661235, 0.8049107282755252, -0.013235341467667805, 0.9225012172031954, -0.07830071096473934, -0.7920997944227548, -0.19085500578961256, -0.6997517867181693, 0.9547205901536027, -0.9217710699021158, 0.1298434967352844, 0.8343852750800262, -0.28587177376316175, -0.792529980726554, -0.07672902344163446, -0.1828215090486227, 0.7908774377208836, 0.5473634039136981, 0.07273569941996572, 0.4491428380512823, 0.6898353529843335, -0.5766282560272569, 0.8563561543857119, -0.5476586462849111, -0.20160416679259052, -0.6630859783785721, 0.666522930957048, 0.32198097717774843, 0.29261870077881946, -0.8119435300468596, 0.22909373494359486, -0.5513090002976127, -0.0035407588775122623, -0.7686743251562251, 0.5812266603819762, -0.5399183235507559, -0.8053497344640683, 0.3149615577082312, 0.742875722856325, -0.13549680256011976, -0.057484771027733306, -0.3573882786960032, 0.6076889915471209, 0.45123939718018025, -0.2826139191254349, 0.8607308572739749, 0.8818610244044096, -0.24531411662818114, 0.014785813406507975, -0.17805824237032142, 0.45655570560634984, 0.4618980949207363, -0.014840719641349143, 0.8332978662011954, 0.728516805514567, -0.6089815457534353]1
0,3:[-0.41446009833620967, -0.2313809685440653, 0.1217531685156712, -0.6544008384430235, -0.9831673892462955, 0.4079995810360042, 0.5193438098741514, -0.851572192220448, 0.25292062172482854, 0.23934238257949225, 0.8819914878089155, 0.5445463337775265, 0.40679987594260836, 0.2953795654530329, -0.787303855907868, -0.5889737207015517, 0.8220303641765268, -0.8622943708148909, 0.40287605104948176, -0.7956589496124387, 0.06997884819563982, 0.8561538751692379, -0.05816115202162231, -0.3038505026724414, -0.3571458903450946, -0.9043521853833922, -0.49086562528888744, 0.6484127886026432, 0.2268470145401833, 0.5659863876770355, -0.17896028272428732, 0.8383653883320901, -0.2094277068073893, 0.287539759116787, -0.9640652918760713, -0.7667212426569554, -0.10669566885846571, -0.6526820933425692, -0.012672896378618237, 0.5548783186945376, 0.27927244988428557, 0.45469289193527107, 0.6536803106756099, -0.016793487188176304, 0.12112175675754067, 0.6048883812639223, -0.2892284284799884, -0.021548852627815807, -0.4824982013112702, 0.05601847492273215, 0.8298518124504446, -0.434260749090283, 0.9287415625424602, 0.4252159371010369, -0.6452392098061408, 0.4955226844700522, -0.05466188846529296, 0.2263954608616221, -0.1514015241781681, -0.2086720240582185, -0.16050543527557237, 0.1504090550571231, 0.7377565600192195, -0.9741485416439568, 0.9056656284045852, -0.15602063402348954, 0.7958638347709412, -0.5202807520515718, -0.4094642324817883, -0.40157885286356687, 0.14408746163405617, -0.9451601213420113, -0.6687525186870897, 0.9003418828099103, -0.1570497156841788, -0.43123080669544867, 0.7477195067454299, -0.6528394924787746, -0.5204541953225588, 0.37736590577207574, 0.6229864339101032, -0.2060488027729519, -0.27551924524513915, -0.7858881320475914, -0.06639618500074018, -0.08814032585816367, 0.7259562259696801, 0.40306262310138297, 0.9402666743410302, -0.0686328596644783, -0.3504450204588361, -0.21662603815771098, 0.2509909197138367, -0.3171495749688513, 0.8935356230196261, -0.06878683637257255, -0.5304070055619738, -0.3644603724178914, -0.335576744359257, -0.19694926592000894, 0.20598346072621765, -0.050698193608215814, -0.05126952728212797, -0.2015833757801031, 0.12746281328517672, 0.8809422701548251, -0.8170100390337953, -0.31280396194276805, -0.5461082122754932, 0.22924404700162349, -0.2748551285480014, 0.6631556908811809, 0.10725742005285266, 0.9120545177237382, 0.7111455885248896, 0.5227260866874652, -0.3507602352233592, -0.350829474226398, 0.42308961744171514, 0.3836826946465064, -0.8751891293006058, 0.23558128938819656, -0.5567026662701844, -0.9032581504444646, -0.026515988938022206, -0.6225153775360364, 0.36438056181592215, 0.9478124398794132, -0.407060514802394, -0.0961966396058287, 0.4304229073664918, 0.7088392457040651, 0.5720838092682061, -0.358994312531981, -0.9115216678697153, 0.7096801019453751, -0.7257128043762124, -0.42469528385891353, 0.9665731709718186, 0.03495981296679851, -0.5647674544435113, 0.5192365315271217, -0.05830259012703998, 0.08478891065501792, -0.897036063260575, -0.6842739078761653, 0.1538893568210271, -0.1331229148674018, -0.11493639367632302, -0.18468288286306156, 0.08795180673146308, 0.3553939411830853, 0.8581787364289377, 0.8858269748275696, 0.9012868037744379, 0.7323738473110215, 0.8597571617815798, -0.4848830537981712, 0.9006499811372619, 0.5460068605844037, -0.808931806036504, -0.27167827408299394, 0.6960253397349954, 0.22602139995677284, 0.5343516505944466, 0.4970166979823487, -0.9649894945285984, 0.2015411136728016, 0.7910089176502482, -0.6452903620266819, 0.7838911310835757, -0.11401343839544942, 0.13044238018788268, 0.4304251649525206, -0.8271963818747525, -0.6121333711542405, 0.8027715628687084, 0.08757293314828818, -0.8459967806871653, -0.8770219463114326, -0.13126620060446026, 0.5527859356604758, -0.8709465254334303, -0.9589862227028414, -0.3787318172701961, -0.7080489766032558, 0.452717511283254, 0.06684992027385483, -0.48527973640666966, -0.28180187612280516, -0.49214741927701655, -0.5398114683908712, 0.20090009533609576, 0.5018991449716368, 0.6726889423733706, 0.05343056205981056, -0.4373443358157263, -0.3084595702913011, -0.7057864843627033, -0.01649934600896774, -0.5396948310499852, -0.5354577991341025, -0.2996297724033812, 0.05327522275453345, 0.4377367087851298, 0.9890897688351485, -0.714022487884282, -0.42360761363350297, 0.27505644126992945, 0.2630303934972711, -0.4253184588676411, -0.2956188421917978, -0.9586571641593038, -0.28264215548517657, 0.19151040398529928, -0.23210782568961874, -0.8954330990284662, -0.7329754995320898, -0.6694976376257478, -0.3893233574344932, -0.5589609955737485, 0.30457317921547933, -0.852107296086543, 0.49171794166921456, 0.07701782984670746, -0.24432373130055351, 0.7508551886765171, -0.9230572393503396, -0.8654248000869895, -0.822858744340907, -0.9554913513365129, -0.7697376978478809, 0.7143701276834769, -0.09295894049458653, 0.23931043230125293, 0.7835343960402885, 0.5615280837872823, -0.23514453079168884, 0.7324554340912628, -0.12329882000128345, -0.9598853528297773, 0.6449211818041829, -0.583494354483401, -0.291520186938355, -0.3138661093030808, 0.3026756387042677, 0.0405516790090783, 0.328822880904976, -0.3524751542295077, -0.37730235519448785, 0.9366347152431822, 0.32819637042413086, -0.13749755478619363, 0.7651787328001247, 0.36326367653991065, -0.47365758039789174, 0.4561811767988726, 0.01899116111211696, -0.45930997365526793, 0.6508225672353278, -0.5693300405340924, -0.24717677429937535, -0.465931947469608, -0.32793424829810514, 0.5143756103460755, 0.5734894298629332, -0.8422467955355291, -0.561589800779196, 0.5613389767489549, 0.7868494971969566, -0.5130805541154624, -0.31034999917680683, 0.7016883383642538, -0.4218235722178669, -0.42893850857739846, -0.16416036487223673, -0.48066917016879485, -0.4263592426013132, 0.007663620691129358, -0.12705740929001608, 0.5702136382724992, 0.759272507587943, 0.8554492860493386, -0.2694827661216903, -0.29112587207277496, -0.8000679504853103, 0.3291638695308605, 0.10843945233102925, 0.510465519715837, 0.41518469766220956, 0.3752627905920356, -0.1753338274146783, -0.42917042326427524, 0.3374323782270363, -0.4531802544083625, 0.19124762123081207, 0.6529833610584375, 0.8227935305720462, -0.054260795036149556, 0.28663957708587073, 0.3191266787336353, 0.9620256236448785, -0.6322281798195954, 0.8150214648360152, 0.2812218894078873, 0.013087280764703335, 0.010886662758949672, -0.21065914712100264, 0.05000794587764257, -0.41622745880046974, -0.7077693996316121, 0.6281438911047361, -0.4309026705157448, 0.5167797844979505, -0.8811707167070797, -0.6388250336772912, 0.6592588357410905, -0.36423167890311947, 0.8097922601900212, -0.5864526982928369, -0.5623282047714564, -0.3544617123731202, 0.8738825671587314, -0.0006150183620547978, -0.45213313831899105, 0.07093423302269142, -0.20572915033350903, -0.2143801481111629, 0.06085760727804734, -0.07441764637626047, 0.4603633069852646, 0.7716156566125241, -0.7763129269223372, 0.5013804385303424, -0.44852199763470524, -0.6324221170857287, -0.7220926819179556, -0.8943185900459971, -0.9284969545065589, -0.3337290628471661, 0.9990295914198697, -0.5704148142468108, 0.15988770055702473, -0.5141049343801771, -0.5700974092152931, -0.34184952487046605, 0.6652769297016456, -0.13121733357929788, -0.13719709777923073, -0.48473039385591554, -0.2257355457567125, -0.740685000175481, 0.3849086856089532, 0.17562031130950562, 0.3752498458503175, 0.8977842254803197, -0.4183177591150904, 0.5372672266383458, 0.8305749080063436, 0.11371735302597141, 0.2545290140151659, -0.5676738464516708, 0.13967729836951204, 0.5283654663117803, -0.5199981369967641, -0.7327909910696233, 0.41995111842942534, -0.14735326268424132, 0.9030045058727512, 0.4854581769748805, 0.2666112817162207, 0.3828942716474941, 0.12784764853306352, -0.4377689071170101, -0.49104698255896806, 0.9606015919424498, 0.1939483919831939, 0.9200151060759554, 0.08351328422620674, 0.7269657705558996, 0.18513771203717466, 0.26463963420361747, 0.3927689563098924, -0.35012463235084357, -0.5237771600109138, 0.33287534705158284, -0.28129411629317636, 0.08967155583812936, 0.7104425175909439, 0.3110663188750866, -0.24655044232849055, -0.025603719688080284, -0.283701122916344, 0.7641958487676741, 0.8824209079937104, -0.7586969800716004, -0.020133435333567373, 0.28516886709820866, 0.37187543715628424, -0.42116368678019955, -0.5293941316779247, -0.9038755044122098, -0.5644261154552259, 0.5496213775203145, -0.11079888707836205, -0.6952561200433578, -0.28980339618314677, -0.5061101983174443, 0.28051059472992557, -0.5332527345796525, -0.7551740544330583, -0.9845648908940257, -0.1257142096160231, -0.06365416518041722, 0.7891999666264209, 0.7658473176372655, -0.47706810129771493, -0.07409649444229238, 0.35685607830092425, -0.7547658802455379, -0.6302866078284459, 0.9129037131606206, -0.9652865704925067, -0.46319559152448564, -0.601764392993795, -0.30290240904083543, -0.07907252608622128, -0.8484069568393624, 0.8928276598213853, -0.8216141466670692, 0.2136057428398983, 0.5589723692977966, -0.8087033718918857, -0.4732080185422489, 0.9405775919788464, -0.9777969710287924, 0.44294971985289444, -0.7734773994501873, 0.58168753813497, 0.3515126788615861, -0.8227094028925841, 0.38300695701814225, 0.4590352342344881, 0.0037679039248885715, -0.12170028947480271, 0.8286321909937053, 0.9550359854091575, -0.213436237041698, 0.0032361005914123275, -0.7724000165761531, -0.722336870178355, 0.15906066403408659, -0.29137657383741633, -0.353229739411689, -0.865220192016465, 0.8010756356413078, 0.7171751973150469, 0.39073137991773144, -0.36912321393354564, -0.7465143548864546, 0.2900758883893071, -0.12087147610691051, -0.3215515901690651, 0.4443082646506704, 0.8380402927263921, -0.654171348569567, -0.4199223353849679, 0.6306021284962098, 0.45772987045456337, -0.016186783115289982, -0.7854125109451964, -0.8940540752191357, 0.1830510395078251, -0.09258435548997679, -0.21501762706608174, -0.8581495369422625, -0.7017367611108232, -0.6180014137784797, 0.38236065069793135, 0.7566632326560958, -0.5574850184583469, 0.7718902552451263, 0.03383581194615748, -0.15629603789057556, 0.7086737331436594, -0.2999166255979957, -0.6663064553120877, -0.508178600560365, -0.9969369242648085, -0.13063110400610456, -0.21322661170357904, -0.2521888184751706, -0.4475335264088993, 0.2409884322291156, -0.8227540332975738, -0.9872360941337055, -0.2598315491742986, 0.21248250000649938, -0.14303036992925544, 0.03139787321457632, -0.07041207145440254, -0.1826660879458626, 0.5567012873121047, 0.6943647349670372, 0.5745538252937548, -0.1482029933791078, -0.3086540083772904, 0.15469810844024656, -0.7571194335280946, 0.6375003207001197, 0.4295201174223273, 0.6238538746971292, -0.4342497761060031, 0.70996951274571, -0.674950289859773, -0.5179645454617747, 0.9695206122356672, -0.9016413503465646, 0.9969226332180126, 0.3206202320407161, -0.7465069155890494, -0.24230394144578415, -0.801671000656951, 0.3644283160098285, 0.04942313541402732, -0.35234988445827375, 0.3857657403191306, 0.2884326305836631, 0.35397607142790743, -0.539789142917771, -0.7813555071625653, 0.22344405304007187, 0.9280863095130241, 0.9576531449271111, -0.895207053487503, 0.11550075822661188, -0.880605568573531, -0.34326367873197516, -0.9886065122584593, 0.7398863874932753, -0.8741527904277242, 0.5597789801623014, 0.6936052641780153, 0.043658304417574456, -0.8254965468032835, -0.8284435490950965, 0.14622145105456985, 0.6647157868872968, -0.2744320938416154, 0.7320691150225473, -0.2763039094907751, 0.8743346074418554, -0.4841563356730987, -0.7072033159977824, 0.8851080274718237, 0.34219774283895066, -0.29277744916345916, 0.8731749835492217, -0.03385226889645354, 0.6711806256138844, -0.7538946762108443, -0.533734343999416, -0.6079024662240229, 0.5336694264679056, -0.2760654897319319, -0.588781369252741, 0.26014496680521293, -0.917323390802304, -0.03526535874385073, -0.6979130292938274, 0.029831409183326274, 0.4622621731920453, -0.946708610449768, 0.5251864967071651, 0.16275214419667927, 0.09473073770467888, 0.8577847958474127, 0.23736828061675297, 0.8099761335550864, -0.584895775173955, 0.4652630472891759, 0.7525882768271059, -0.9619613933364339, -0.6853023462374472, -0.2349693903624983, -0.6641794912605543, 0.5886596992095321, -0.40808904896724263, -0.9517385769963864, -0.856695620425256, -0.886565110115036, 0.3137409098286026, -0.8763873269117495, -0.07125200711135471, -0.8652076169205916, -0.10891814487697715, 0.4972977184846692, 0.3208059631535427, -0.8379549239499262, -0.8749159446787171, 0.2189272065534873, 0.8839602377590714, -0.19742739499572481, -0.8791053984084862, 0.6244416425833115, -0.7970181651841604, 0.15961986474950152, 0.12496352751368267, -0.4020675126661053, 0.5914820262285736, 0.9613768984142885, -0.9210423827034231, -0.6204270365022388, 0.5880989264200673, 0.3715661980930496, -0.1805249553080237, 0.885803482937134, 0.2608082991343734, -0.4700381880596889, -0.29599700339548285, 0.19032530526940028, -0.01757689419165409, 0.23427699483709774, 0.04284964100759181, -0.5405575968847685, 0.8378745927168161, 0.5419729198865284, -0.9677464368895525, -0.7036411578163952, -0.9045622955438481, 0.42656287347157984, 0.7362213700477176, 0.8170636106781342, 0.6507427041171245, -0.5332353669558958, -0.12350044385155257, -0.7426184142157415, -0.6604746053173112, -0.2599655192982846, 0.18392600046456264, 0.8704716577110279, 0.05357616198621962, -0.16512096673923504, 0.12804728712118374, 0.7919916812070462, 0.08941366427292885, 0.2055111587343601, 0.6170540773408864, 0.7461334357401361, 0.5621360710989749, -0.8905854731524263, 0.18250594445466994, 0.9469314083064486, -0.20126219408181867, 0.6234255824333155, -0.8244521102372169, -0.07588778319092038, -0.9301629087466985, -0.08058738817439037, 0.6366873496723924, 0.20941132201490387, -0.7991097370349762, -0.23251975631605037, -0.25873706635827554, -0.698639735478612, 0.6703437432101087, -0.6519443590149205, 0.45325131109901196, 0.9357757008924155, -0.5862276831715574, 0.17404503057340137, -0.358960587837452, -0.5946798423329838, 0.7269339433896191, -0.8939657816083935, 0.8324367782581241, -0.7998455753290503, 0.8411401584584142, 0.1438220320287198, 0.9708384745304943, 0.193276792995263, 0.23538785923622219, -0.056601994531745525, 0.7460890191158773, 0.36125328787020083, 0.4133608479488169, -0.8113023180335872, -0.7404807069442696, 0.6234665769493921, 0.6865893597611665, -0.22391511095203986, -0.19864165670155987, 0.02799931946449874, -0.5488979013042221, -0.697307707490568, 0.7896345282143657, 0.4930936329415112, 0.32926331876648374, 0.2839615300237186, 0.6013537944253358, 0.2711543763024926, 0.46360888733081684, 0.8784933574260794, -0.10537740196694068, -0.7267430658909109, -0.7558020051102585, -0.41177374592211513, -0.8553463393023601, -0.30719629921435665, -0.45330777109880116, 0.6074414389637115, -0.06962510957922685, 0.9465159867655257, 0.9780952090577848, 0.5024576438207184, -0.10107115834391456, 0.9353689427691354, 0.25325276783850903, 0.6074524234142029, -0.0759025100541677, -0.4308076896590103, -0.30320626229917025, -0.7041735254797072, -0.5600061338451157, 0.9331092212976484, 0.47559732535848753, -0.06658139317945655, -0.33443314942019264, 0.06657398259009262, 0.9810915686893134, -0.6374499829563074, 0.3966256599842357, 0.7149252377114523, 0.8376847563597352, 0.014005884233891486, 0.6250531311357943, -0.3967152207526039, 0.23938711982366945, 0.24676101839715625, 0.37449521747525094, 0.3758651110455984, -0.2905565114885078, -0.5135423656254532, -0.020894702876471216, 0.07791426011384117, -0.9215639872463237, -0.22702814977600094, 0.5401171869873402, -0.6331638345034802, 0.22220591936833767, -0.9646753978438418, 0.9306541671028397, 0.017157189351049817, -0.8459813391098916, -0.04121438670483113, -0.6205600720093369, -0.6017625528448749, -0.7164150019567441, 0.6409130390345574, -0.5161943667071758, -0.6634068613323869, 0.6720056484134884, -0.544458792067428, 0.8955321683416593, -0.04233884692071488, -0.24799665536734694, 0.026582230370876925, -0.933566047857755, 0.8767984320298159, 0.9474011391045567, 0.8248265378865673, 0.8315944759682603, 0.016844016807151085, 0.7567280536708625, 0.6188975296386259, 0.1726275866314837, -0.6055608408205622, -0.23723379961828805, 0.6126008436254018, -0.6414861941420262, 0.5746285852276121, -0.8798748959533378, 0.785013534928523, 0.937736960086363]1
0,4:[0.4206017513077147, -0.1816355318829519, 0.5975938914526409, 0.8743250540717036, 0.9684105588614371, 0.6915425346088178, -0.08472685836933258, 0.26312062066384434, 0.22686432007478685, -0.8071860815561638, -0.9749179333672353, -0.6670100599561557, 0.6422924816149709, -0.7091851607620825, -0.8118225423325898, 0.6901744600413067, 0.8742115275144726, 0.023119260443631218, 0.47273282630651225, -0.3916507427146574, -0.8168621638370688, 0.3159557731649192, 0.7617918837052116, 0.53296880878492, -0.8699626139393426, 0.27474872254433125, 0.5939336926536629, -0.7470667567792884, 0.3406976855227417, -0.9902004621159473, 0.5352281569895423, -0.8956398041946236, -0.6364577863489709, -0.06567711323507597, 0.957263304210574, 0.4587071396630791, -0.905580938374493, 0.6567603225679228, -0.9149406675790028, 0.6902077440401575, -0.04072404686763065, 0.14918291571942643, 0.8603136623953409, -0.4880879737130912, -0.29090346504743847, -0.8239745323604775, 0.027367336631412886, 0.5413283841855352, 0.7012190257318545, -0.9369877732179053, -0.7418990585444987, -0.5753799377266877, -0.8920271209218487, 0.13437421084855883, 0.40330318047759817, 0.9728384245669781, -0.05605730480314941, -0.2196609503082776, -0.2957624367086642, 0.6326359548453067, -0.29372137316169167, 0.37414197509679625, -0.4041172769815715, 0.409221673661041, 0.4907332205042223, 0.24221885654998387, -0.8894428672792669, 0.49749049361134956, -0.2067583927045249, -0.49035786731877007, 0.7017368084757034, -0.7735661973063344, 0.14020098072986031, 0.47895740050320024, 0.5292328802763759, 0.07969959006922833, -0.8673750230359598, 0.469368357299524, 0.32385855227368343, 0.33928128251595946, 0.9989272076930316, -0.7403348709036777, -0.3544886984978939, 0.30034745510315997, -0.6400758697009328, -0.17300575885446778, 0.49546764889648975, -0.21294085119768402, 0.04986727997342455, -0.4840655794376494, 0.2848784131819626, 0.22433534315779635, 0.45406589823740906, 0.9653977215756919, -0.23444565709826626, -0.5243777815287711, -0.8273835165860979, -0.5418232376154308, 0.6511436463992901, -0.4059570051916277, -0.5183689070905535, 0.9809784634349541, -0.5299665498604436, -0.9856243453005729, 0.8012518564686624, 0.3535280464188457, -0.07787112438990573, -0.9371919355378915, -0.9267201622013987, -0.6112809371517778, 0.5600799154348903, -0.5819487454117198, -0.3333886557558796, 0.03649014899715475, -0.511391275894304, -0.07810601040478238, -0.34669327690156404, 0.2265008251343119, 0.012943975925414852, -0.6758317849272812, -0.8453856509109037, -0.283915498802465, 0.8255576021446223, -0.7542608153070627, -0.6473000809881164, -0.5738870417701563, -0.33361362853331133, 0.8357589546249835, -0.760260952561123, -0.20659359161619495, -0.08549191992027261, 0.9042271866883251, -0.039865824309508247, -0.800692301776168, 0.38749427910714873, 0.07450968354942966, 0.18232225033522376, -0.4810738767592855, 0.8877869206411222, -0.43758912981914255, -0.4151345304103653, -0.09945928605712995, 0.12968721235721903, -0.9829372528784599, 0.7449102202572857, 0.5820852954830307, 0.14514226067804592, 0.9039156534631516, 0.19270534154235053, 0.3530694342624203, 0.7283604514409052, -0.8835871565578599, 0.307298439180274, -0.46307594766030236, 0.19877804965462342, -0.43871616964296534, -0.7496414392310329, -0.15442194145473098, -0.5678759147947587, -0.515657179527983, -0.24108510489544166, -0.08876880571225554, 0.5901489942976028, -0.840470044273433, -0.097548358584717, -0.7843225882860891, 0.5737168986339394, 0.7345063959272828, 0.8601246591424365, -0.7784391158856352, 0.6537671002665235, -0.9148039410339308, -0.40739969080599137, -0.1470134856575378, -0.9756716943133474, -0.8608846795536509, 0.20977654949289248, 0.39077739535787814, -0.4909646214970562, -0.861352421214179, -0.48391821284368053, -0.9124323485897616, -0.033487993702166596, -0.4979736363268219, -0.05734764891128874, 0.24249842875710392, 0.10378959342369254, 0.16893291400636823, -0.8517550144034953, 0.561702013136794, 0.8442008901906652, -0.24328544043772382, -0.2339482230588632, -0.8744324374686137, -0.9329701051963502, -0.774004979288887, -0.9218251644117623, -0.674317159110287, 0.2462173081930903, 0.6485384690008917, 0.4304773418993031, 0.7119021526181524, -0.9404974657456422, 0.9953072327073709, -0.18764114714066715, 0.03920659760744494, 0.0171119878061885, 0.5425708909839424, 0.8999649367526241, 0.7606153800079707, -0.42694823573127527, -0.05836938277708037, 0.8895632053296072, 0.6436302568924119, -0.6803516069423841, -0.1318795306619116, 0.4063553867844516, -0.01707879187113992, -0.22208389128533046, 0.8682074758924967, -0.22401651377730247, -0.15859935001461123, -0.17242173809554617, -0.3397676013465709, 0.056681651013628986, 0.9323194446749077, 0.5380491537844412, 0.4955284524388184, -0.31530110116131516, -0.8147548566670293, 0.18297198260018743, -0.005046598717104445, 0.8690716213064984, -0.44277537675527423, -0.5216970541144519, 0.4231414574892469, -0.9316883479795972, 0.7283609910940259, -0.003411925509638314, -0.7418750896367934, 0.7789967421651811, 0.1812179629725339, 0.11616594795528346, 0.367767153363562, 0.36700989650486027, 0.48154914564558826, 0.3313747589467386, -0.09238784095678887, -0.7654485123638639, -0.017681409032830997, -0.4876301621877801, -0.5736423658286378, -0.7270489331774388, 0.0345577086526474, -0.3091956271053591, 0.7332968726594831, -0.8992585961044406, 0.09391140294340161, 0.9520248518315559, 0.16327751323978812, 0.8812965096900895, 0.8634127513802319, 0.5934447804247791, 0.9028561191096307, 0.5006456092480718, -0.596432989619039, 0.6585837960637155, -0.9007414279819488, 0.557354182197944, 0.5256807228202391, 0.4469879705823607, -0.5678425821976603, 0.7262421213500205, -0.8165028302664774, 0.139125579942055, 0.5693019260358236, 0.7056768513781193, 0.10433889421524345, 0.0662248319263592, 0.6514966864314238, 0.425878400829959, -0.1332272619853987, -0.971136827449439, 0.16098010650955596, 0.13644117900703612, 0.6497876064049968, -0.7261925772088766, -0.8271838677319172, -0.9804692779238255, 0.34465842865171714, -0.14361312937382853, 0.8530908284732084, -0.0024885582698976894, 0.8722262045607931, -0.6388998046266132, -0.5130099155287848, 0.2588654542524911, -0.7608455434465404, -0.27539015659004096, 0.7822952390637588, 0.5283279162212655, -0.35475685671761514, 0.8055285871078945, 0.7312633620151403, 0.04855469769499088, -0.7114809241508551, 0.5252979346975413, 0.26330288057019, -0.5711724697348017, 0.47416082860181663, -0.4776059194899511, -0.6612555345797992, 0.9594211737041218, -0.8209588649689645, 0.08209188900945485, -0.5476090433017538, -0.9039780668248023, -0.37632418475314444, -0.8372057600640845, 0.6489286081149741, -0.011525099025880836, 0.5447986794221109, -0.6052352559385012, 0.91293644814414, 0.17540480684716298, 0.7302978662453419, 0.6828213103919221, -0.4756523601672651, 0.24166628462140238, 0.665145934134092, 0.3824672053591496, -0.12109011326180585, -0.42459205609080874, 0.7969762735662813, 0.34672249102446195, -0.40479254438251977, 0.0659522876418559, -0.0032325323477802037, 0.11974838683739031, -0.10036487789860615, 0.3734721215587493, 0.4717835759879483, 0.9092512021360153, 0.3127851510608268, -0.5998033796866049, 0.6670138741370222, -0.9683818656573597, 0.05675274553154375, 0.3999916777669572, -0.40846171712435386, 0.319039420790064, -0.11536756939277404, 0.6041944059787983, -0.25844115374143484, -0.19469996543773216, 0.9290813275184675, 0.7348848511079982, 0.9195680235583992, -0.17522072185790782, 0.6998293084193223, 0.8740036790041179, -0.629726239834983, 0.4568227561418048, 0.639504440214699, -0.6379327312173109, 0.7731534725090936, -0.4705493157022882, 0.32840717085180393, -0.6755013488581705, 0.44571370306331337, -0.2939465690624621, -0.6812845668222074, -0.3010978354700098, 0.1317578952095675, -0.6806235899196957, 0.2384450916907972, -0.7530245380773191, 0.10996826649901736, 0.8311402182490992, 0.9376053506449735, 0.3253534992018807, 0.2523299627095048, 0.1618086568494257, -0.1902238389000961, 0.08646825735018182, 0.574904649443343, -0.5013353658234418, 0.8868226298291317, -0.6083547554844362, 0.42159338140786096, -0.6136126453333692, -0.8325259329740522, -0.5446623732047315, 0.061609288221824876, 0.17713399035264454, 0.5682236807579697, -0.8775553671344487, 0.651248760042485, 0.7749497477365337, 0.8738228950737166, -0.34458151988739294, -0.9298483674077445, -0.987270792666253, -0.1248731480740175, -0.17936829373967167, -0.0026138530876709254, -0.8787251485730943, 0.07168092970800255, 0.580411428527901, 0.2641512397462462, 0.7692830953187062, 0.8588167896242469, 0.2693079011360169, 0.4610060607637161, -0.6440601681621658, -0.5917038469476399, -0.9673721438745095, 0.1958044293414518, -0.8718622790508681, 0.11742175867695415, -0.5944460352178877, 0.3600570976625628, 0.09145687870039598, -0.22137380373558146, -0.30671035830054594, 0.9553937239286716, 0.9290356106147546, -0.37113772340852313, 0.39868838328419187, -0.955298647636929, -0.5590151683494278, 0.06688058138046049, -0.36655071112289517, -0.9971869032227099, 0.7581212925595275, -0.819116056759621, -0.5519571508691874, 0.9044130697173485, -0.2974279910774036, -0.4887411874800005, 0.4769826405164963, 0.01985641888532852, 0.831685611724928, 0.8442703949442121, 0.08856961983396627, 0.2119653374888757, 0.4981489918767974, 0.7143186862114244, -0.46441194263056307, -0.8107737639532713, -0.4067310128823125, 0.49631385313929566, -0.9857213050417895, -0.6739377224074887, -0.7378012539311769, 0.04768652005173246, -0.4570229936147989, 0.5198084461860348, 0.4389934916190896, -0.9317856869102019, 0.08970202052108789, 0.3119149627634774, 0.03948179864801449, 0.6785206698791288, -0.388425316745598, -0.3822190679469859, -0.2550024480601687, 0.4764699708538085, 0.57463707975688, -0.1685173953709429, -0.10540805829993927, -0.4324512498341915, -0.8510076461945042, 0.8192785076145483, 0.7869372405409272, -0.3967698925851868, 0.6259169504140327, -0.42830404491952523, 0.04067732570369609, 0.4888790119407902, -0.27450661754661265, -0.4410975001835771, -0.7099556143723738, -0.9820050905115094, 0.5485072979495653, -0.6547074227148386, -0.8078684916152796, 0.019029936479056708, -0.39450935561783207, -0.10613841110552236, 0.8154472377513955, 0.8012521753769779, -0.08401464398163605, 0.3764562723643836, 0.29616359204612874, 0.21641926260786626, 0.2757725544961134, 0.18759582398510122, 0.41360926816547194, 0.08253123028873799, -0.9101339712558449, -0.752561307743294, 0.6228955488603705, -0.7309556984170751, -0.5993151810630297, 0.9837599609698435, 0.4011211891041635, 0.8961169227949275, 0.6335099268607696, 0.8674849758162602, -0.7210572339193468, -0.25437231581016473, -0.3591204348184447, -0.3078865641889794, 0.10407901357048743, -0.4237503898437551, -0.7887426617608471, -0.4114854893193165, 0.5426975428746363, 0.4913488101706902, -0.6211574569951988, 0.06667710036779195, 0.8660045869976876, -0.9896207058584259, 0.5467440722598309, 0.850676250505279, -0.029989827650952705, -0.8523335457715828, 0.6165591783532482, 0.8434583048751814, 0.114360861814232, 0.39997476143963007, 0.7150553558269839, 0.7255036360119598, -0.18183246857667568, 0.527017716646921, -0.6755477447023621, 0.5238273371164981, 0.05105858498353877, 0.6110621129330036, 0.28681203740257266, -0.5559309622079904, -0.35507876575226605, 0.7236048531593153, 0.5560405505503943, -0.5543347987430627, 0.20036516331935617, 0.787804820516459, -0.39526283509627413, -0.7321147681039293, 0.29691892199483694, 0.12099247828091642, -0.49944763982436746, 0.43900389574015297, -0.8280477122856311, -0.949996052604104, 0.755848103539732, -0.6355324003584011, -0.5833820760352488, -0.8389295654921796, -0.21843392754106916, 0.24504859691525094, 0.023835442099912285, -0.06975742895968073, -0.014591869274206415, 0.5658928533622516, -0.7353086806261417, 0.6511893262178754, -0.8142904228020498, -0.17443412716415496, 0.3319768044577298, 0.13346715541729615, 0.3818103866078497, -0.6263511221365963, 0.044052460998668996, -0.3432152182698718, -0.10307277027652262, -0.7153683984949639, 0.7020664846012945, 0.14722995483077295, -0.5674537394005521, 0.6902057144975873, -0.29153140037341596, 0.5257491031672392, 0.6451788131355001, -0.8285173308293279, -0.9741573467332658, 0.6366738756236279, 0.5664389447562115, -0.07873664348876441, 0.12499631711205383, 0.18205314040642695, -0.10775359118023276, -0.6205414322086051, -0.7739002236670127, -0.6338520434881376, 0.3541107287917411, -0.19690101322358, 0.35727882573229586, 0.4904950231906988, -0.7821193318643032, 0.5827601823398951, 0.8842067500105824, -0.38344220083106406, 0.20816827058278675, 0.14601439472549727, -0.7596539980775285, -0.7796363395357684, -0.9672033491218595, -0.07390160111715294, -0.6638317791460584, -0.3642222739610257, -0.7141485940352905, -0.7582786642213988, -0.4103716365884593, -0.5581644513806703, 0.08483298299210906, -0.016242920257411253, -0.5154826286211436, 0.7605660169207504, -0.3376095774907226, -0.9417657370273156, 0.014341242831190204, 0.7274066392516589, -0.30411791957539114, -0.6431473863531951, 0.21501260324200433, 0.7976866092474371, 0.7561375234090106, -0.2957406468686765, 0.7858472089337216, 0.35551393164777334, -0.3440219791137138, 0.31587670229992826, 0.4477648728255563, -0.4759327250120793, 0.9376286579809583, 0.8429434456976752, -0.10289361509176986, -0.285191525319509, 0.7714093259851524, 0.17215480004383643, 0.7795764393580882, -0.8426077024966019, 0.6815954953340324, -0.8922696270520387, -0.8498834849897596, 0.657695126582291, 0.42052928781131316, -0.7637176797324994, -0.24037019390640757, 0.4256960681195272, 0.07248725226196329, -0.6818922490227879, 0.16303433524649735, -0.11825750473376395, 0.9491663916098017, 0.21991415490216126, -0.9046980291871365, -0.11818893821912635, 0.2955526562221198, 0.050004288096213934, -0.006886874163194667, -0.46321557500591704, 0.4281467322519936, 0.5758707005239301, 0.8323394059361013, -0.0622161689573868, -0.9411155326607283, -0.03234358069866494, 0.2765064993007884, -0.10221938040473622, 0.9687589175742963, -0.3435158932230762, 0.03341320078072241, -0.6059887214870117, 0.4367336882082953, 0.9815377396406637, 0.36573198677862573, 0.8773427040876585, 0.2377859757359102, -0.8130045377095321, -0.2760017997436339, -0.9861439556429874, 0.6894677252676678, 0.4115705852950804, -0.057176295450675596, 0.16583516965018807, -0.8492232354182272, -0.6289526069321216, -0.06906065709818043, -0.8891174848731132, -0.3446472385271637, 0.3260431559339092, -0.998026825477917, -0.3022675977653315, -0.7922207482388361, -0.2979859323503007, -0.9466238483305127, -0.6327587724412638, -0.7112295794731638, 0.7451127096406494, 0.5892842612607521, 0.3881821250657753, 0.4897618984388157, -0.9721292871713099, 0.7386008303921021, -0.448437318782547, 0.7354891998527917, 0.47788442263186637, 0.3681905510698751, 0.26854568292855774, -0.8462523625937424, -0.6345978437946036, 0.6868226865988549, -0.3397354686733389, -0.5252353892550963, -0.8367674963857479, -0.9614072869665982, 0.10953327174376115, 0.7328058341517032, -0.5865281387365675, 0.8359016454247796, -0.6482882345633165, -0.5708622825738363, -0.12383724070208602, -0.595443699056994, -0.7341952296885286, 0.07183809789245132, -0.10856829769707743, 0.7515865580785093, 0.7591096121681602, 0.5411441831839057, 0.9196732986572098, -0.6674740065533222, -0.49549594553954734, -0.47674062721353927, 0.7637323246176111, -0.4671696006119872, 0.5708565781538584, -0.8916063887448638, -0.29612483479603413, 0.6525090269108196, 0.5468397314006295, 0.0816718605793032, 0.5867660255739895, -0.9061434178107703, 0.5352802626183846, 0.13581221168384228, 0.019720223620713018, -0.10832700048891186, -0.5744437785347707, -0.7628233658836421, -0.017946791284850994, -0.38859242423261775, 0.2610480252430316, 0.817911286191364, 0.8959164272578961, 0.30839974645140256, 0.8682844143603718, 0.9193966469160975, -0.7876069389074309, 0.6165273891125913, 0.06661210703635989, 0.7394255079611824, -0.340429423950644, -0.0859157760959699, -0.7188819961003321, 0.9336192324523871, 0.13904534324293438, 0.8701226591149278, 0.06094828611668235, -0.3297770118690384, 0.3135208018874598, 0.16869337718034183, 0.7343478938744292, -0.08096668451307587, -0.4106299019440427, -0.4448434034797464, 0.2960767654077878, 0.6009415204886892, 0.808586547868775, 0.31483803681493483, 0.5099463308769685]1
0,5:[-0.5558895044768228, -0.8253742486695537, -0.5990076355481815, -0.7364295407345167, -0.401392201285494, -0.9239875608579431, -0.2695160666648104, 0.44816839128591646, 0.7083809064679558, -0.20465711884761428, 0.8757492953160915, 0.8299980306439743, -0.9530473008812979, 0.8987648823004117, -0.01040194694984553, 0.46140482565555496, 0.46297935928800293, 0.6138800479141997, -0.5561747021703591, 0.5195331479003473, 0.7521177245522861, 0.5752325760817361, 0.5889052668313042, 0.9832129789900337, 0.6913370686334974, -0.6264984601801342, 0.4014435091338806, -0.03785212024092166, 0.12675173057876044, -0.48168405682428106, -0.13514945924603694, 0.14864947518392357, -0.9358592446152803, -0.5225035703759979, -0.014741628653883732, -0.5704624664542324, -0.5207853187561091, -0.0761072713671882, 0.28623280302202914, 0.601788247473823, 0.6321602916455611, 0.05313725005618597, 0.919276333006747, -0.4734551495248873, 0.7193775150894697, -0.6729531482801769, -0.022271101014446515, 0.48207441570572507, 0.4083148331968176, -0.9847471924524902, -0.6038517999297144, 0.5961926278746055, 0.9537751408882911, -0.6733318287798342, -0.5367958960421304, -0.696117635275372, -0.20215826757920263, 0.6411189493876917, 0.25228745871350333, 0.7879649824881405, -0.5489016596261616, -0.5042068572072034, 0.4797186982569013, -0.705896465003709, 0.18274904225977484, -0.2654878205139979, 0.7537658815053685, -0.09548213974544129, -0.11247928729181011, -0.5123946993967663, -0.0011128492862442219, 0.2133311866307579, 0.12143321346666003, 0.23725774704531033, -0.9667401100904705, 0.4935521078533902, 0.8332001590635751, -0.9532503499618732, 0.7668567244823448, 0.955823367685346, 0.16787988678256016, 0.9138383517576636, -0.5153897912254575, 0.3860411259886076, 0.9332481374330523, -0.29456274149359873, 0.9982354702187985, -0.22979468564712757, -0.7666658726278239, 0.5970527917737711, 0.40381254046700565, 0.42805926870214717, 0.6826740716334512, 0.11933557649230875, 0.29577968700407054, -0.6947033756067154, 0.7776462151947716, 0.6219450454007884, 0.31656710008677424, -0.10958364725383296, -0.9909492238171131, -0.9653335427077485, -0.5216188489123372, 0.8634489112212322, -0.029894839360207648, -0.9781005673918453, -0.5377910271965096, 0.07675172941360886, -0.6565665977750761, -0.9634975399354286, 0.5258211503293262, -0.8649939956675989, 0.2497684713177475, -0.6787641180242798, 0.9814214801299013, 0.7770519690568494, -0.18916727407651712, -0.14970182748901273, -0.48401065037989355, 0.264631477238644, -0.3209795723749227, 0.19491394574130227, 0.6819957124700551, -0.9746592727256325, 0.1534438138117089, 0.9357072471940062, 0.8086127521813402, 0.39408193828000515, 0.2005129986184122, -0.5159233481642158, -0.09046980244172209, -0.46015414242493047, 0.0006790327274719399, -0.9126212552267139, -0.6107472931321163, -0.026147985987833522, 0.2768471519212561, -0.27945944661383937, 0.5903777865142454, -0.3838246654159283, -0.3667441989250628, 0.9230194580598816, -0.7663241740371303, 0.5054637770450103, -0.6266800621588877, -0.7527396254754422, -0.4284390496216759, -0.6918548361974002, 0.5324975862409465, -0.5212120774371043, 0.5984736840005025, 0.13021319448274915, 0.11231665603660268, -0.39150796109117114, -0.7842881345695998, 0.935621679532457, 0.39839856350617864, -0.42812561560173834, -0.35509135784946744, -0.3667592006599205, 0.25722863143945585, 0.5740586507027046, -0.7825900715791991, -0.9942458885539638, 0.6682369072027134, -0.7512724378393385, -0.11842962571514337, -0.7766029108850696, -0.09842298186432852, -0.014381744344441394, 0.4473817150167041, 0.9451083863310641, -0.34366009952878396, 0.02274089677192448, 0.8143733404455848, -0.626141684203634, -0.6922260749160603, 0.1564099305959148, 0.366192965875191, -0.5649851561994725, 0.472799758306901, -0.44427402780655534, 0.7269058258367207, 0.8460934478795115, -0.506280366492637, -0.016905518605224712, 0.8185549947030546, 0.06554618108715116, -0.5423281955683401, -0.11890014912185642, 0.978729133648635, -0.055909714746479766, -0.8867768958202222, -0.5871574827324777, -0.4655926446694043, 0.3318637693696549, 0.5437476078338437, -0.5569148627899168, -0.946893788308754, 0.12884672871988623, 0.30255730620499066, -0.9568633064290615, -0.49810703545253165, -0.8145388425048898, 0.3417101018585642, 0.6176151862399488, 0.2371289987536489, 0.6988656262356212, -0.5300288561312201, 0.4910252590923623, -0.847358104405388, -0.00492829008832385, -0.7884879127965123, -0.7134147221973863, -0.8250263842800452, 0.6555722009669389, 0.7771644917564369, -0.6672069449689393, -0.24350938321572935, -0.6945134072976407, 0.2394038929339375, 0.6236405030183216, 0.9276504169370661, -0.9609950065854822, -0.21706677273864283, 0.7145005397939617, -0.7714209628200106, -0.1957618447331253, 0.47717808467950285, -0.8378774055976403, -0.9361851237603949, 0.45632670521060925, -0.8107759304302564, -0.5629216320145662, -0.8751521157289366, -0.908743693072998, 0.20852330025101717, 0.13092573198923918, 0.07954963937790582, -0.7901039103963432, -0.1771317353570825, -0.33603670526597984, -0.2675809715288504, -0.5549297013919117, 0.06382336118937415, 0.3488336530599154, 0.006931565177520138, -0.7845239979705836, -0.806894269381828, -0.5110952955407628, 0.07857742185851624, -0.22391723729833002, -0.4518301034446228, 0.007578465938024248, 0.8810662528791364, 0.2179404414634114, 0.41503249375221607, -0.024473964010284455, -0.14557017686194285, -0.23650964938324903, 0.6136301131157857, 0.37639464882340046, 0.3348366329167116, 0.7679204999390823, 0.5506819418593067, -0.5794215121222164, 0.8499152065842461, 0.22101391848637064, 0.1640710506424472, 0.0624351038633959, 0.8182393916211144, 0.9819835007413085, 0.013141495345119214, -0.9872455798508915, 0.7905050731913721, -0.3214766121535191, 0.6280297160174106, -0.4750798942992813, 0.4965957835596482, 0.8595395616610966, -0.5561097112669606, 0.29010904560209005, 0.2473492651309004, -0.9642410383333258, -0.4246319114364554, 0.4464562530968821, -0.5639085632522198, 0.3562283792318168, 0.5246807158290745, -0.41195496060833636, -0.9818991675516635, 0.052837411905481746, -0.8803279754984399, -0.8947463802213749, 0.7125079593773049, 0.9194547272002505, 0.5503223218871081, -0.3012854847872999, 0.9643393533650475, -0.7142567086442733, 0.5555837442773317, -0.8649549998341639, 0.7515139993085864, 0.314662788586741, 0.8449638207080705, 0.05986359505033967, -0.14512108670968082, 0.5629566116260873, -0.34628064325246277, -0.514996825430023, 0.15854784955748258, 0.5192485440337766, 0.9921156923687062, -0.7835080887019805, 0.5018926041660305, 0.3551046929575914, 0.8383095281142912, 0.8370069618245073, 0.18792142885894436, -0.4392163592657472, 0.8323174445448658, -0.9199852756176019, -0.09807447637072708, 0.006903903906345876, 0.47896085425507384, -0.16776168129767655, -0.15428918624561705, -0.4850725101682587, 0.6915694597386743, -0.5783706860790268, 0.2914568013087153, -0.678879645577595, -0.7954869398267002, -0.3737638946945454, 0.006061668135117548, -0.33210458264315124, -0.2440708824422435, -0.7909350802338893, -0.6021977868280686, -0.05078416430470689, 0.9783400542624439, -0.14258367019960172, 0.7766032416743736, -0.7002367574358304, 0.26732960356702784, 0.2811023405355684, 0.3417206116008178, 0.8859850759593497, 0.507805960795733, -0.44279377278526266, 0.6538650800761354, 0.20589026714237724, 0.6409537299863601, 0.2942749041142845, -0.6411175336978154, -0.996527681337859, 0.8599704578247842, 0.8221287861058337, 0.9259011037260905, 0.8770505270919688, 0.6767171273073025, -0.5549827361766306, 0.8294932185940251, -0.41519380374871484, 0.6944866757798884, -0.38661122271970405, 0.3977543496330367, -0.31411510042749224, -0.8431121469506992, -0.09477630936126702, 0.18167142348306786, 0.761480165234478, -0.4658357264892443, 0.22910108382179106, -0.5045461924776087, -0.44765722492446747, 0.370391092394869, 0.4684386718565374, -0.12454432537613203, 0.7331289857268986, -0.6742627395826875, 0.6485963749487547, -0.18301289010236133, 0.953550404443287, 0.04382805868070827, -0.021640612264738124, 0.11653161396188239, -0.9627459635287368, 0.03377717346517484, -0.4099550455117549, 0.9981466809026609, 0.4664784158445783, -0.8363159621223668, 0.9387453901730909, 0.5460445441328634, -0.305249406540683, -0.1645046946610489, 0.2872604862325292, 0.4507577767263822, -0.9244483701069481, 0.6309604124282893, 0.5088797267844527, 0.39434607134432964, -0.054233699719539175, -0.513884411250147, -0.3014115964730011, 0.6962104545595897, 0.8614955610330661, 0.39130830182246323, 0.49488297277707627, -0.4296530970947632, -0.5898537546846954, 0.7704949396882146, 0.5922323917690286, 0.95543512636234, -0.8388865198486495, 0.47875155373314704, 0.22473880848624694, -0.4162163348771126, 0.6231484636861377, -0.1531230278821123, -0.4969258646006871, -0.4900335596704801, -0.41376053684901715, 0.5127401581021533, -0.5886300592111748, 0.6945952136288802, -0.759457439776601, -0.11746236564255175, -0.737549989899563, -0.6088628506695417, -0.5706072582685038, -0.9898465298175132, 0.21936375655678497, 0.29761596664450596, -0.7690131913364846, 0.2170945572982763, -0.5008369707777838, -0.7606508587559164, -0.4978105334483742, -0.09053949996950261, 0.9482574872803571, -0.018763428158568463, 0.47605665412800624, 0.5306603718342884, 0.6736807030890843, -0.2779126038150477, -0.7328411137777069, -0.7090348133139377, 0.8367412134863279, 0.5202626977802165, -0.591336477087617, -0.42329817953903714, 0.9238136547619742, 0.684615543661772, 0.40956215835361887, 0.7602664020505454, 0.11296176464644492, 0.14942042664979693, -0.9469757644405425, -0.044917299722609494, -0.4171763507269297, 0.3836697598286749, -0.2255116128718666, 0.10104860895032997, -0.5034513536536707, -0.8254693869759806, 0.8114119826220763, 0.40218487959519833, -0.07627814290208823, 0.9809256207107795, 0.1669793473618979, 0.770660080668562, -0.6918229795324833, -0.5490632745206281, -0.3178593165051462, -0.29275372989371284, 0.22903570258053518, 0.44566325674230756, 0.16209295558038073, 0.8973575490280066, 0.6047456743800641, -0.9108193891146099, 0.2851310071097992, 0.4082092333780447, 0.1151979125500242, -0.8265497537001494, 0.17909305789112562, 0.8436259873725036, -0.8921057743783811, 0.8458909202224905, -0.5193859739453275, -0.15531989057995355, -0.8933654906332116, 0.1253159790371141, -0.07662423618665892, 0.9323517870355615, 0.2865351598352144, 0.387211932694669, 0.6993406088702747, 0.46077433815661406, -0.10580462149771441, 0.4601789851769573, 0.6935183273806707, 0.7613350068031914, 0.12943015786910617, -0.9519769362625681, -0.8250930874837159, -0.15216942423929658, 0.6709840059605963, 0.9086030292435701, -0.9065781450942592, 0.8893057104069375, -0.2655207717573409, 0.6203784361859779, -0.4495250283922163, -0.9648109062532602, -0.16413970920270837, -0.5249742755884257, 0.5297448253099042, -0.6281384498210725, -0.5768774422449385, -0.4864416646092904, 0.23367128464202191, -0.1190960609858891, -0.3317631137250503, -0.1444264100053514, 0.8075377969570292, -0.2338349591108917, -0.3879653594882, -0.39802850892493513, 0.4374510866127421, -0.5805096084998531, -0.3383699145081154, -0.6611173148999896, 0.1485293262025542, -0.17122995616963044, -0.16532994858001637, 0.9036586456070723, -0.20611259087747014, -0.638825421755123, 0.6224053473583839, 0.9805127168981014, 0.8280753908259435, 0.9188161167241324, -0.3294987780880081, -0.30764313376045105, 0.031166381149905442, -0.7827335993599875, 0.16255367724208636, -0.9855372709560815, 0.5771802525676575, 0.416058038752686, -0.1520646424279506, -0.241949844837694, 0.000199310616097792, 0.9786663224007492, 0.33677793943546996, 0.37898445502377487, -0.3073195616237594, 0.12119406720043502, 0.9021084039358358, -0.7601727231856281, -0.019510872346099495, -0.5413461976952008, -0.7525829868512295, 0.575413856630375, 0.6263963595395192, 0.09102402943164956, -0.5504718955551233, -0.9459120611047396, 0.8796874672150143, 0.5326253921462367, -0.2634143782250482, -0.08866467300331693, 0.4671558601439365, -0.7213859256628596, -0.5920545130427248, 0.46350749776633005, -0.8173341543202306, -0.7156278922003736, -0.7412852047370004, -0.1115583769747408, 0.2843248934389979, 0.38415715134939865, -0.20772383401375483, 0.5052394504844311, 0.1275077273780234, 0.920364222890417, 0.4211921619226455, -0.0065956674675324845, -0.25835633875578545, -0.17382820579238345, 0.70382540698514, -0.6619301753677587, 0.6543125209876095, 0.6119458625727319, -0.9195152433311107, -0.8610393681235644, -0.3525075570143781, 0.20197470207775825, -0.2416436899330996, -0.40605741654682403, -0.31245910098695706, 0.3956747846574362, -0.6541814400510191, -0.46492249090656235, -0.8723461068452094, 0.9753637071327232, -0.03179727199721061, -0.381675167639109, -0.6211490884317818, 0.5562011679762684, 0.8894723944253031, 0.38480412154597365, 0.43076918680532117, -0.8223266239359153, -0.7788272036442441, 0.35456823671953686, -0.1725103200820497, -0.26209226184569223, -0.2820582842034134, 0.34383455319704437, 0.47392633381927074, 0.26195427574127605, -0.5448155750170434, 0.6467563283338646, -0.4578127258390101, 0.3908237224841795, -0.8766538471169214, 0.29595261735807377, -0.3522561181156947, 0.7499802156151687, -0.8312073464109067, -0.5315135396306396, 0.527062162049666, -0.2828812742839186, 0.2560530964253791, 0.5964003687862243, 0.9390634109594247, -0.5940539240347593, 0.8920802730461004, 0.292561237882887, 0.2503491073788946, 0.8922877427134053, 0.9016980085755983, 0.4181501622828798, -0.9788480551492398, -0.2615169863806621, -0.5300681574612127, -0.474262283767533, -0.38497725480123623, -0.4269176350571442, 0.1437604526044789, -0.19078995278477318, 0.27504511833946266, 0.1051553658017974, -0.47438147648928464, 0.28930429432225013, -0.25642999733885374, -0.9038777708950967, -0.6960144682693343, 0.18904404733642255, -0.1317033497384943, -0.9466933228871282, -0.7167044393500277, 0.5119921665881246, -0.02846475254930203, 0.0043616959229277885, 0.5665361800417612, -0.9114617577755264, -0.18326730662565516, 0.7877528307616262, 0.1979863700754656, -0.6098626745700901, 0.6488939785154395, 0.9148358787515243, 0.8366280760887301, -0.09519391612594097, -0.47561909003884995, -0.6104064529779347, -0.12239324032581833, -0.8197197317915443, 0.702812375106449, 0.8166811816174393, 0.7830114805020485, 0.45704210367234555, -0.6695264195622648, -0.8929751404520918, 0.9141803053423656, 0.1047000949604231, 0.5738899626102965, 0.6074197000227624, -0.06988124559551334, -0.27921313737431874, 0.7453241598359088, 0.3024214508665717, 0.9157971311088007, 0.6990032147908054, 0.4749889153446969, 0.9805704215662014, -0.43719222589584494, 0.5952537258132662, -0.34506781540467024, -0.8017392810699806, -0.8698751012640418, 0.05412667105546909, -0.20985063998845166, -0.7740934924827745, 0.40669135369966747, -0.8078283081313731, -0.04147538916086835, 0.05601066755245365, -0.5926107238157019, -0.5328734834896256, 0.6210335791244854, -0.12949644084986822, 0.18396542316029652, 0.2272217532836669, 0.8498678184393849, -0.5863254320691205, 0.7032482889599614, -0.6059574246506567, -0.3973441475108035, -0.4442167307143472, -0.45956598475603383, -0.07996237931541317, 0.6039424271483753, -0.1276850113400867, 0.16618691686120202, -0.9992586417646423, -0.8473521074695167, 0.3006113263747918, 0.3316316277376654, 0.130960972699818, 0.13355296580091536, -0.2132367273387885, -0.174515117932188, 0.6107647908665059, -0.8860627013276079, 0.7147732407623546, -0.5290112393497759, 0.14083884579377792, 0.8829768432015228, -0.8729088177017468, -0.545675358403664, 0.7668501040520197, -0.14765931685903566, 0.2586621093435275, 0.8620245124080357, 0.9598675440011692, -0.08569603002713255, 0.9541924388541898, 0.3909480244529089, 0.7876530419438021, -0.5123080416002708, 0.24004470045704251, 0.5031675360556942, 0.7930220926977181, 0.4278353829230568, 0.20843048069602244, -0.014385349976450135, -0.23132911938515388, -0.6952868864565351, 0.7574373169107842, -0.9144933803366608, 0.817806381332217, -0.7199927233989778, -0.49428273827963, 0.3587217250346315, -0.25836533993766553, 0.7770608680470501, 0.5699672762264103, -0.4270166935698163, -0.9264363383392145, -0.685504143110643, -0.2115864482605414, 0.9738096564476513, -0.35249481755841483, -0.33616050509004025, 0.7240837161806151, -0.38195738837433946, 0.7793902719904642, -0.30969250095336]1
